-1.700460165739059448e-02
-2.122191339731216431e-02
-9.426536038517951965e-03
4.596519470214843750e-02
1.447530812583863735e-03
1.313384529203176498e-02
-6.679253187030553818e-03
-4.116609692573547363e-02
-3.476577112451195717e-03
-2.115200646221637726e-02
-5.567204952239990234e-02
-3.048835881054401398e-02
-1.125932671129703522e-02
-1.901988685131072998e-02
-2.358087711036205292e-02
9.144723415374755859e-03
-2.399715594947338104e-02
1.361897215247154236e-02
7.860378362238407135e-03
-1.540392264723777771e-02
-7.979255169630050659e-03
1.347810495644807816e-02
1.931045018136501312e-02
1.115504535846412182e-03
-6.762539967894554138e-03
-1.701469905674457550e-02
4.286439716815948486e-02
1.510959956794977188e-02
3.306314349174499512e-02
-4.346872866153717041e-02
-3.736867010593414307e-02
1.949779130518436432e-02
-1.661443896591663361e-02
-2.566242218017578125e-02
2.646713703870773315e-02
1.615757681429386139e-02
2.666424959897994995e-02
1.491286326199769974e-02
4.726623743772506714e-02
8.438281947746872902e-04
-2.446453087031841278e-02
1.419445406645536423e-02
-8.507387712597846985e-03
1.096896082162857056e-02
4.036882892251014709e-02
2.634336007758975029e-03
-4.230966046452522278e-02
-2.287303283810615540e-02
-1.533017843030393124e-03
-5.689506419003009796e-03
-3.140918910503387451e-02
-1.200141292065382004e-02
-3.702800348401069641e-02
-1.030146051198244095e-02
7.814401760697364807e-03
1.262083533219993114e-03
-4.043119400739669800e-02
-4.610500298440456390e-03
-1.233744993805885315e-02
4.312933888286352158e-03
9.838484227657318115e-03
-2.348444610834121704e-02
-1.916936971247196198e-02
2.174297720193862915e-02
1.488691195845603943e-02
-4.177116230130195618e-02
-5.818357225507497787e-03
-2.053638361394405365e-02
-1.006856281310319901e-02
-4.568381700664758682e-03
1.455805497244000435e-03
-1.090606302022933960e-02
4.378030076622962952e-02
-2.054674364626407623e-02
-3.698742762207984924e-02
1.606826670467853546e-02
4.886063933372497559e-02
-6.105382740497589111e-02
-1.758160814642906189e-02
5.910913273692131042e-02
9.689161181449890137e-02
-9.967424906790256500e-03
-3.711915016174316406e-02
1.353380177170038223e-02
1.144310384988784790e-01
3.289045393466949463e-02
-1.179710123687982559e-02
-1.163331884890794754e-02
-2.058428339660167694e-02
-5.108512192964553833e-02
2.054073475301265717e-02
-2.113050594925880432e-02
-2.318630553781986237e-02
-2.566480822861194611e-02
-6.235107313841581345e-03
2.750022523105144501e-02
5.751364398747682571e-03
9.241830557584762573e-03
-3.920546546578407288e-02
-1.498073060065507889e-02
3.615358611568808556e-03
-1.137480046600103378e-02
-1.575432904064655304e-02
-4.774911701679229736e-02
-5.545973312109708786e-03
-1.498745102435350418e-02
-1.471884455531835556e-02
-3.039581328630447388e-02
-5.892385542392730713e-02
-2.299161069095134735e-02
1.599168032407760620e-02
9.199322201311588287e-03
5.995503161102533340e-03
-3.708852082490921021e-02
3.031812841072678566e-03
-2.088975394144654274e-03
-3.746875002980232239e-02
2.735611796379089355e-02
6.919402629137039185e-02
-1.808038353919982910e-02
-2.197160571813583374e-02
-4.476802889257669449e-03
3.284611552953720093e-02
-2.329230494797229767e-02
2.938440255820751190e-02
-3.698671236634254456e-02
1.006548404693603516e-01
8.378991484642028809e-02
4.615165665745735168e-02
-1.762126944959163666e-02
4.944851621985435486e-02
-1.353918481618165970e-02
-9.119090624153614044e-03
-3.476253524422645569e-02
-1.045881863683462143e-02
2.067533694207668304e-02
-1.559019275009632111e-02
8.017185144126415253e-03
2.076536230742931366e-02
4.419662058353424072e-02
7.676298171281814575e-02
-2.302933018654584885e-03
-1.202710438519716263e-02
6.489753257483243942e-03
7.537603378295898438e-02
-1.140803378075361252e-02
-3.001683764159679413e-02
-7.197213359177112579e-03
-1.423159521073102951e-02
-7.653746288269758224e-03
-1.892974041402339935e-02
3.768893703818321228e-02
4.626011103391647339e-02
-2.059586113318800926e-03
-2.087411284446716309e-02
5.460234731435775757e-02
-3.118273429572582245e-02
-2.168180607259273529e-02
6.991446018218994141e-03
-7.236198987811803818e-03
-4.387205839157104492e-02
-1.160626579076051712e-02
3.964847326278686523e-02
5.206340178847312927e-02
-2.940820530056953430e-02
-4.584666714072227478e-02
3.705699741840362549e-02
-1.273713912814855576e-02
-1.669643819332122803e-02
-1.724320836365222931e-02
6.241117417812347412e-02
-2.409666404128074646e-02
-3.897008299827575684e-02
-1.805073767900466919e-02
2.194464392960071564e-02
4.617989063262939453e-02
-2.633748017251491547e-02
5.584847182035446167e-03
1.238494645804166794e-02
-9.809062816202640533e-03
-2.173855341970920563e-02
-1.067077461630105972e-02
-5.531468195840716362e-04
-7.541872910223901272e-04
3.063570894300937653e-02
-1.616610400378704071e-02
-3.157928213477134705e-02
2.748885005712509155e-02
-2.986526302993297577e-02
7.083592005074024200e-03
-1.884697005152702332e-02
-4.390774294734001160e-02
-2.977459505200386047e-02
-3.876557340845465660e-03
5.066339299082756042e-02
-5.881240125745534897e-03
-7.813350297510623932e-03
-9.517610073089599609e-03
-1.282514352351427078e-02
-1.098731998354196548e-02
-2.640409395098686218e-02
-2.253943122923374176e-02
-1.668929494917392731e-02
-4.704419523477554321e-03
-1.600338332355022430e-02
-3.291274234652519226e-02
5.331034585833549500e-02
1.632482861168682575e-03
-1.561524067074060440e-02
2.764737932011485100e-03
-2.052904892480000854e-04
7.189042400568723679e-03
-1.457458455115556717e-02
-1.787825115025043488e-02
2.319516381248831749e-03
1.125579699873924255e-03
2.718697674572467804e-02
8.944766595959663391e-03
3.082275390625000000e-02
4.366052895784378052e-02
3.801655722782015800e-03
4.654934455174952745e-04
2.623986825346946716e-02
2.609374746680259705e-02
-2.065369114279747009e-02
-1.466927397996187210e-02
1.832572557032108307e-02
-1.680149324238300323e-02
-6.306723225861787796e-03
-2.981313876807689667e-02
7.932309992611408234e-03
-1.903552375733852386e-02
-8.945749141275882721e-03
-1.920000277459621429e-02
-1.883388031274080276e-03
4.292153567075729370e-02
4.981573298573493958e-02
-2.400366356596350670e-03
-1.697003282606601715e-02
1.615290716290473938e-02
9.108753874897956848e-03
4.284757375717163086e-02
-9.437443688511848450e-03
-4.742388799786567688e-02
-1.164986938238143921e-02
-2.442385070025920868e-02
1.520633324980735779e-02
-8.596551924711093307e-05
-1.702105440199375153e-02
5.514248274266719818e-03
-7.347224745899438858e-03
-3.043364360928535461e-02
-3.065545484423637390e-02
1.934783533215522766e-02
2.250239253044128418e-02
4.129023291170597076e-03
-9.782605804502964020e-03
-2.459178864955902100e-02
-2.136171795427799225e-02
-4.436889663338661194e-03
1.037212088704109192e-02
5.128467082977294922e-02
-2.506499364972114563e-02
-5.383590701967477798e-03
-9.146719239652156830e-03
-6.232178770005702972e-03
3.749487921595573425e-02
-1.060751732438802719e-02
-9.619814343750476837e-03
-1.684485562145709991e-02
-3.800191450864076614e-03
-4.276374354958534241e-03
-1.904889941215515137e-02
-5.369767080992460251e-03
-3.078390844166278839e-02
-2.473371289670467377e-02
-1.440870855003595352e-02
8.040828630328178406e-03
-3.794245049357414246e-02
-8.121130988001823425e-03
9.448178857564926147e-02
-4.941859468817710876e-02
-3.139560669660568237e-02
-3.859321027994155884e-02
-1.140448171645402908e-02
-3.019414283335208893e-02
1.703066285699605942e-03
-3.224044339731335640e-03
-2.190113626420497894e-02
6.932856515049934387e-03
3.095537191256880760e-03
5.028575658798217773e-03
-1.934219524264335632e-02
1.179328374564647675e-02
-1.832965947687625885e-02
4.508544504642486572e-02
-2.765818312764167786e-02
-5.690105608664453030e-04
-2.964889258146286011e-02
3.295656526461243629e-03
-1.291687786579132080e-02
-2.252252027392387390e-02
1.236497331410646439e-02
-6.639003288000822067e-03
-4.121804237365722656e-02
-1.919683255255222321e-02
-2.380273677408695221e-02
1.168155018240213394e-02
-3.043281845748424530e-02
-2.736233919858932495e-02
1.609227247536182404e-02
4.016983509063720703e-02
1.508331485092639923e-02
-5.162618588656187057e-03
-1.846622675657272339e-02
5.188379436731338501e-03
1.394444890320301056e-02
2.276908047497272491e-02
8.882695809006690979e-03
-3.139330772683024406e-03
8.349434286355972290e-02
-7.349713239818811417e-03
1.133212819695472717e-02
4.674795642495155334e-02
9.132929146289825439e-03
-1.907427608966827393e-02
1.135751605033874512e-02
-1.122792344540357590e-02
3.756455378606915474e-03
4.603841900825500488e-02
1.299466472119092941e-03
-1.490329578518867493e-02
-1.114122383296489716e-02
-2.133094519376754761e-02
-1.954171806573867798e-02
-2.101424708962440491e-02
-1.047036238014698029e-02
-2.623448707163333893e-02
1.495729200541973114e-02
5.354265868663787842e-02
4.697088152170181274e-03
9.512805193662643433e-02
9.917671792209148407e-03
7.082793395966291428e-03
9.113626182079315186e-02
1.767451688647270203e-02
-4.160771146416664124e-03
3.875604597851634026e-04
4.439104720950126648e-02
-3.310787677764892578e-02
-7.819899357855319977e-03
-8.516218513250350952e-03
-4.978023096919059753e-02
-1.120472885668277740e-02
3.797368332743644714e-02
-5.027166381478309631e-02
1.418449450284242630e-03
-2.225396782159805298e-02
1.150870509445667267e-02
-3.797941282391548157e-02
-1.322855148464441299e-02
-3.535816818475723267e-02
-4.501506686210632324e-03
-1.177305169403553009e-02
-4.134658258408308029e-03
7.655442692339420319e-03
-1.469787117093801498e-02
-2.959115430712699890e-02
-8.692094124853610992e-03
-1.199386641383171082e-02
-4.103606566786766052e-02
-1.656978763639926910e-02
-1.399942021816968918e-02
3.063255921006202698e-02
-2.265116944909095764e-02
4.237705375999212265e-03
2.736468100920319557e-03
-3.284014388918876648e-02
-1.858499646186828613e-02
-3.285834193229675293e-02
7.134723663330078125e-02
-1.721099205315113068e-02
4.037139192223548889e-02
-2.042890153825283051e-02
-2.294286899268627167e-02
1.625904627144336700e-02
2.281537093222141266e-02
-2.791930548846721649e-02
1.533694285899400711e-02
1.063287444412708282e-02
9.267707169055938721e-02
-2.271792152896523476e-03
-1.022585853934288025e-02
2.174437791109085083e-02
-6.901738233864307404e-03
-2.286647446453571320e-02
-1.052037719637155533e-02
-1.242123311385512352e-03
-8.823606185615062714e-03
-4.855518694967031479e-03
6.279082037508487701e-03
-8.535701781511306763e-03
-7.362962700426578522e-03
-6.918497383594512939e-03
-1.072891429066658020e-02
8.579377084970474243e-03
1.037859078496694565e-02
6.753109861165285110e-03
-3.211180865764617920e-02
9.520345926284790039e-02
-5.134372040629386902e-03
3.277706727385520935e-02
3.582660853862762451e-02
1.113680470734834671e-02
-2.519407495856285095e-02
-5.064103007316589355e-02
2.187911048531532288e-02
1.295213121920824051e-02
-7.341168355196714401e-03
-6.681815721094608307e-03
-1.632416993379592896e-02
2.194637246429920197e-02
2.333694882690906525e-02
-1.699269190430641174e-02
3.548368439078330994e-02
1.979719847440719604e-02
4.107559472322463989e-02
-2.631265670061111450e-02
1.305502955801784992e-03
-3.864451544359326363e-03
-2.443760400637984276e-03
-2.084583276882767677e-03
-4.636391531676054001e-03
-2.433444373309612274e-03
-4.729865118861198425e-03
-4.469772684387862682e-04
-4.350253846496343613e-03
1.067323051393032074e-02
-1.952814124524593353e-02
-2.135868929326534271e-02
-9.319838136434555054e-03
-2.102023363113403320e-02
7.967994548380374908e-03
-3.011343628168106079e-02
5.020665377378463745e-02
4.284153878688812256e-02
6.176987662911415100e-03
-2.520897425711154938e-02
6.755173206329345703e-03
6.558578461408615112e-02
-2.829274861142039299e-03
-8.937837556004524231e-03
-2.285898663103580475e-02
2.115095593035221100e-02
-1.156845968216657639e-02
5.611892789602279663e-02
1.626503840088844299e-02
5.000466480851173401e-03
-4.219751060009002686e-02
3.512880578637123108e-02
-3.925537690520286560e-02
1.754219643771648407e-02
2.608105540275573730e-02
-2.599104121327400208e-02
-1.007522828876972198e-02
1.871529780328273773e-02
-4.103654995560646057e-02
-1.511394977569580078e-02
-1.694260910153388977e-02
1.096538966521620750e-03
-2.232703380286693573e-02
-2.201973646879196167e-02
-3.939081355929374695e-02
-3.416259214282035828e-02
-3.144371882081031799e-02
-6.286740303039550781e-03
-8.579043671488761902e-03
-4.356943536549806595e-03
2.227738499641418457e-02
-4.354029521346092224e-02
8.814641274511814117e-03
-3.102221898734569550e-02
1.810873113572597504e-02
-3.588264808058738708e-02
2.268745563924312592e-03
-1.800061203539371490e-02
-2.084006555378437042e-02
4.423519130796194077e-03
-1.737259142100811005e-02
-5.363693926483392715e-03
8.998639881610870361e-02
1.500491052865982056e-02
-1.465684385038912296e-03
2.303443616256117821e-03
-5.805905675515532494e-05
-2.337591350078582764e-02
-1.054478622972965240e-02
-1.022246386855840683e-02
8.973596617579460144e-03
-1.505300961434841156e-02
-3.542722761631011963e-02
-3.878347948193550110e-02
-2.426274120807647705e-02
-3.215970098972320557e-02
9.615627117455005646e-03
3.292167931795120239e-02
1.366357598453760147e-02
-1.570172980427742004e-02
4.849940910935401917e-02
3.764763474464416504e-02
-2.314041741192340851e-02
4.607859882526099682e-04
