-2.319247648119926453e-02
9.040683507919311523e-04
-1.855035498738288879e-02
5.167776544112712145e-05
-4.618670791387557983e-03
-1.798015460371971130e-02
-1.429899781942367554e-02
2.453676611185073853e-02
1.556115224957466125e-02
4.561085253953933716e-03
-1.482092216610908508e-02
1.324055716395378113e-02
-2.657464519143104553e-02
-1.627893000841140747e-02
-7.407214492559432983e-03
-2.287256345152854919e-02
2.727875858545303345e-02
5.038451403379440308e-03
1.153950393199920654e-02
-2.990850433707237244e-02
-2.577006816864013672e-03
1.735495775938034058e-02
5.848061293363571167e-03
1.070737838745117188e-02
1.272639259696006775e-02
1.625603064894676208e-02
9.139332920312881470e-03
-3.028149157762527466e-02
-1.284677907824516296e-02
2.371152862906455994e-02
-3.109402954578399658e-02
2.987056225538253784e-02
-2.579413354396820068e-03
-3.037453442811965942e-02
-1.523334905505180359e-02
1.332078501582145691e-02
-9.091883897781372070e-03
-2.889244630932807922e-02
7.243350148200988770e-03
7.168162614107131958e-03
3.003124147653579712e-03
-1.919715479016304016e-02
-1.905695348978042603e-02
-2.952895686030387878e-02
-2.995686605572700500e-02
1.387517899274826050e-03
1.684347167611122131e-02
1.505201682448387146e-02
-2.974968031048774719e-02
-7.792010903358459473e-03
2.302975580096244812e-02
-7.278338074684143066e-03
-2.214987203478813171e-02
-2.114422619342803955e-02
6.960399448871612549e-03
2.398168668150901794e-02
3.909349441528320312e-03
-2.458162605762481689e-03
2.177960425615310669e-02
-1.654725521802902222e-02
-2.059473469853401184e-02
3.918215632438659668e-03
1.617309078574180603e-02
5.816671997308731079e-03
-2.537752687931060791e-02
6.367597728967666626e-03
-2.675583958625793457e-02
4.811424762010574341e-03
1.317653805017471313e-03
2.653650939464569092e-02
-2.582420408725738525e-02
-2.696514129638671875e-02
1.807370036840438843e-02
2.936868742108345032e-02
-2.097344771027565002e-02
4.611581563949584961e-03
-2.929937466979026794e-02
1.664334908127784729e-02
-2.462022379040718079e-02
-2.243293076753616333e-02
2.579972147941589355e-02
1.547821238636970520e-02
-7.529579102993011475e-03
7.912244647741317749e-03
1.674589887261390686e-02
2.945536747574806213e-02
-1.509028673171997070e-02
-2.229812368750572205e-02
-1.302007213234901428e-02
1.606677845120429993e-02
-1.799491047859191895e-02
2.294375374913215637e-02
3.065922856330871582e-02
-6.322175264358520508e-03
6.217628717422485352e-03
-9.240046143531799316e-03
-2.537630125880241394e-02
3.674940380733460188e-04
-1.208174973726272583e-03
4.945393651723861694e-03
5.691751837730407715e-03
-9.293333860114216805e-04
-1.566411182284355164e-02
-3.117785230278968811e-02
-2.888500690460205078e-02
1.733291894197463989e-02
-2.155389636754989624e-03
-3.117299079895019531e-02
-2.793234959244728088e-02
5.014713853597640991e-03
-1.549369841814041138e-02
-2.278164029121398926e-03
-2.171508595347404480e-02
-1.757236197590827942e-02
1.870958879590034485e-02
2.626862749457359314e-02
1.314556226134300232e-02
-2.643038332462310791e-02
9.543526917695999146e-03
-2.907189354300498962e-02
-2.627730369567871094e-03
7.441919296979904175e-03
-1.834952831268310547e-02
-1.624518260359764099e-02
-5.046244710683822632e-03
1.003138720989227295e-03
-8.277025073766708374e-03
2.049641683697700500e-02
2.251047268509864807e-02
1.682236790657043457e-03
7.020574063062667847e-03
2.072858065366744995e-02
-1.129796728491783142e-02
3.944277763366699219e-03
-8.055213838815689087e-03
1.347798481583595276e-02
-2.635681256651878357e-02
-2.015899494290351868e-02
-1.588501036167144775e-03
-8.360426872968673706e-03
2.526065334677696228e-02
-6.305042654275894165e-03
-2.826109156012535095e-02
-1.846200227737426758e-02
1.549526676535606384e-02
3.050346300005912781e-02
2.372800931334495544e-02
3.689210861921310425e-03
-1.278539374470710754e-02
-1.900387927889823914e-02
2.264194935560226440e-02
1.666089147329330444e-02
1.815114170312881470e-02
-2.414503693580627441e-02
-9.477347135543823242e-03
3.735385835170745850e-03
3.003799915313720703e-02
-1.771508157253265381e-02
-9.992368519306182861e-03
-1.583492755889892578e-02
1.600783690810203552e-02
5.814053118228912354e-03
3.433983772993087769e-03
2.709139138460159302e-02
2.784018218517303467e-02
1.457564532756805420e-02
2.660972997546195984e-02
-2.559850364923477173e-02
-9.935617446899414062e-03
-2.659087628126144409e-02
-3.043849021196365356e-03
8.479103446006774902e-03
-8.756626397371292114e-03
-2.567553520202636719e-02
2.665983140468597412e-02
-3.063959255814552307e-02
2.373761683702468872e-02
-1.787259802222251892e-02
2.407390251755714417e-02
1.507479697465896606e-03
-1.017656922340393066e-02
1.569413021206855774e-02
-1.660204678773880005e-02
-1.750912144780158997e-02
2.637653797864913940e-02
6.032466888427734375e-03
7.716449326835572720e-04
2.218826115131378174e-02
2.274950221180915833e-02
1.497472822666168213e-02
1.735832914710044861e-02
-2.527286112308502197e-02
1.853995770215988159e-02
-1.110083609819412231e-02
-2.264479547739028931e-02
-1.461787149310112000e-02
5.008824169635772705e-03
-2.221450209617614746e-03
3.059467300772666931e-02
-1.250889152288436890e-02
-2.154847234487533569e-02
2.702761441469192505e-02
-9.952969849109649658e-03
-1.159513741731643677e-02
7.055363385006785393e-04
-1.819412782788276672e-02
-1.747440546751022339e-03
-2.968397736549377441e-02
-2.722975611686706543e-02
1.949327811598777771e-02
2.276198565959930420e-02
-1.831602677702903748e-02
-2.810479328036308289e-02
-4.416603595018386841e-03
1.418770849704742432e-02
9.336479008197784424e-03
-2.633176371455192566e-02
2.415744215250015259e-02
-1.095481589436531067e-02
1.635104045271873474e-02
9.008634835481643677e-03
3.008874878287315369e-02
2.785601839423179626e-02
-1.137276366353034973e-02
7.661882787942886353e-03
-2.526066079735755920e-02
9.226575493812561035e-03
-6.718512624502182007e-03
2.968165650963783264e-02
-2.363648638129234314e-02
-5.898296833038330078e-03
-2.488907426595687866e-03
2.126137912273406982e-02
-2.525708079338073730e-02
-8.168496191501617432e-03
3.113963454961776733e-02
-1.209891587495803833e-02
2.308571338653564453e-02
4.228465259075164795e-03
1.368604600429534912e-02
-1.759335771203041077e-02
-6.160778139019384980e-05
1.260788366198539734e-02
2.105553820729255676e-02
-5.971245467662811279e-03
3.250792622566223145e-03
2.751808613538742065e-02
1.949907466769218445e-02
-2.394614368677139282e-02
-2.385601401329040527e-02
2.463360503315925598e-02
-1.991537213325500488e-02
-1.952623203396797180e-02
-1.468946039676666260e-02
1.959363871719688177e-04
1.616866514086723328e-02
2.324840798974037170e-02
-1.789104193449020386e-02
-6.207432597875595093e-03
2.037325873970985413e-02
-2.657941728830337524e-02
-9.774722158908843994e-03
2.713647484779357910e-02
-2.013065293431282043e-02
2.232156693935394287e-03
2.297460660338401794e-02
-1.159702613949775696e-02
3.846286854241043329e-04
2.187122032046318054e-02
-1.816997677087783813e-02
2.636883035302162170e-02
3.930266946554183960e-03
2.284656465053558350e-02
5.673665553331375122e-03
2.252116799354553223e-02
-1.758287847042083740e-02
-2.808270975947380066e-02
1.279845833778381348e-02
-1.445537805557250977e-02
-2.002375945448875427e-02
1.522257924079895020e-03
-1.590545475482940674e-02
-1.907075569033622742e-02
2.747134491801261902e-02
-1.528941839933395386e-02
-9.147305041551589966e-03
-2.132378518581390381e-03
-2.406943961977958679e-02
-1.815607398748397827e-02
2.428133785724639893e-02
-1.628252118825912476e-02
1.726393774151802063e-02
-1.703873276710510254e-02
5.700066685676574707e-04
-1.509616151452064514e-02
3.061387315392494202e-02
2.671649679541587830e-02
-2.435876429080963135e-02
-1.952791959047317505e-02
2.056224644184112549e-02
-9.041976183652877808e-03
-2.334555238485336304e-02
-4.436980932950973511e-03
3.465015441179275513e-03
-1.972099393606185913e-02
3.048632666468620300e-02
6.919026374816894531e-03
-7.762704044580459595e-03
2.119646221399307251e-02
-2.846320345997810364e-02
7.274564355611801147e-03
-1.674472913146018982e-02
1.250312849879264832e-02
9.554736316204071045e-03
1.546029374003410339e-02
-6.455846130847930908e-03
-6.027281284332275391e-03
3.050578385591506958e-02
-3.118849545717239380e-02
9.206913411617279053e-03
-2.148588001728057861e-02
3.773555159568786621e-03
7.669847458600997925e-03
2.788177877664566040e-02
-1.649723201990127563e-02
2.617131173610687256e-02
-1.285158842802047729e-02
-1.863334327936172485e-03
-2.585336938500404358e-02
4.148889333009719849e-03
-3.118835017085075378e-02
1.718725636601448059e-02
-2.057560533285140991e-02
-4.611644893884658813e-03
1.949127763509750366e-02
1.278535649180412292e-02
-1.529513299465179443e-02
-1.606294140219688416e-02
-7.725391536951065063e-03
-1.065872982144355774e-02
-2.271658182144165039e-02
-1.189777627587318420e-02
-5.133919417858123779e-03
1.449128612875938416e-02
-1.382049918174743652e-02
-1.213279366493225098e-02
-3.015773370862007141e-02
2.337143570184707642e-02
-3.613434731960296631e-03
-2.447893843054771423e-02
-3.058274462819099426e-02
1.618741825222969055e-02
-1.017971709370613098e-02
-1.407681778073310852e-02
1.018424332141876221e-02
-1.803978905081748962e-02
-2.228347957134246826e-02
2.434593066573143005e-02
-1.973752304911613464e-02
1.567774638533592224e-02
-4.390574991703033447e-03
1.695956662297248840e-02
2.380893379449844360e-02
1.494579389691352844e-02
2.360393851995468140e-02
-9.362354874610900879e-03
-9.213199955411255360e-04
-2.590965107083320618e-02
1.220091432332992554e-02
-2.286537364125251770e-02
2.018871158361434937e-02
1.306342706084251404e-02
6.986450403928756714e-03
2.873760089278221130e-02
-2.541589736938476562e-02
-3.555946052074432373e-03
-2.479233592748641968e-02
-1.172732189297676086e-02
-1.198641955852508545e-03
1.245365664362907410e-02
2.155132219195365906e-02
2.932314202189445496e-02
1.999217644333839417e-02
-1.628096029162406921e-02
-1.443760469555854797e-02
-5.482852458953857422e-03
-2.231634780764579773e-02
1.275030896067619324e-02
-8.291047066450119019e-03
3.910943865776062012e-03
-9.028337895870208740e-03
2.609295770525932312e-02
1.131857186555862427e-02
-9.428389370441436768e-03
-2.532157674431800842e-02
-8.043598383665084839e-03
-1.758326962590217590e-02
1.890004426240921021e-02
-1.950305327773094177e-02
-1.590283215045928955e-02
4.742998629808425903e-03
1.809477806091308594e-03
-9.898830205202102661e-03
1.505491882562637329e-02
2.362522482872009277e-02
-2.113894373178482056e-02
6.995052099227905273e-04
-2.996491640806198120e-02
2.204940468072891235e-02
2.432209625840187073e-02
-2.768628671765327454e-02
1.521769165992736816e-02
-1.053016260266304016e-02
1.676991954445838928e-02
-7.825493812561035156e-03
-2.797238121274858713e-04
-2.489535138010978699e-02
1.161577180027961731e-02
4.446093589649535716e-05
7.678519934415817261e-03
3.789756447076797485e-03
-1.742936670780181885e-03
1.105150952935218811e-02
2.949486672878265381e-02
1.515213772654533386e-02
-2.455420792102813721e-02
2.361629530787467957e-02
2.500073611736297607e-02
4.043020308017730713e-03
6.836652755737304688e-05
1.915749907493591309e-02
-9.595453739166259766e-04
7.715635001659393311e-04
2.748247236013412476e-03
-1.808184385299682617e-02
3.113691881299018860e-02
-2.823464572429656982e-02
2.132097259163856506e-02
-1.136186346411705017e-02
-3.085564449429512024e-02
-2.420910075306892395e-02
-2.032512053847312927e-02
2.268736809492111206e-02
2.234562858939170837e-02
-2.655604481697082520e-02
-2.626606076955795288e-02
-9.214494377374649048e-03
-2.824041247367858887e-02
2.855930477380752563e-02
-1.501533016562461853e-02
-2.335078269243240356e-02
2.997315277752932161e-05
4.499677568674087524e-03
2.469834312796592712e-02
-1.867637038230895996e-03
1.084333285689353943e-02
-2.900712192058563232e-02
-1.240276172757148743e-02
2.123396471142768860e-02
2.124222740530967712e-02
-1.058439910411834717e-02
-1.423717662692070007e-02
7.461771368980407715e-03
-2.600552514195442200e-02
2.102421224117279053e-02
5.135573446750640869e-03
-2.497762441635131836e-02
2.234728634357452393e-02
-1.219852641224861145e-02
2.501402795314788818e-02
-2.141429483890533447e-02
-2.312157303094863892e-02
1.025891304016113281e-02
1.144900918006896973e-02
-6.516240537166595459e-03
5.744136869907379150e-03
-2.841358259320259094e-02
6.550904363393783569e-03
-2.826361358165740967e-02
-2.667297795414924622e-02
8.726612431928515434e-04
2.050488814711570740e-02
-2.687414363026618958e-02
2.865161746740341187e-03
3.940157592296600342e-03
-1.533787697553634644e-03
-3.064915165305137634e-02
-2.927064150571823120e-02
-4.632707685232162476e-03
-4.233792424201965332e-03
-1.191014796495437622e-02
-2.596184983849525452e-02
-3.116353601217269897e-02
1.618239283561706543e-02
-8.172359317541122437e-03
2.429782599210739136e-02
2.782651409506797791e-02
3.815560834482312202e-03
-6.329022347927093506e-03
-2.096913009881973267e-02
-7.861472666263580322e-03
7.705450057983398438e-03
-1.032785326242446899e-02
-2.884618937969207764e-03
-2.797772735357284546e-02
-2.815580368041992188e-02
1.307060196995735168e-02
-1.703529432415962219e-02
-1.174373179674148560e-02
-6.657026708126068115e-03
-2.324618399143218994e-03
2.272706478834152222e-02
