3.314816579222679138e-02
-1.446995325386524200e-02
3.580647706985473633e-02
1.135125756263732910e-02
-3.634876385331153870e-02
-7.608660310506820679e-02
-2.395250461995601654e-02
3.065438941121101379e-02
-4.459693655371665955e-02
-1.753445900976657867e-02
-3.740999475121498108e-02
6.412797607481479645e-03
5.130717530846595764e-02
-1.445154100656509399e-02
-4.929523542523384094e-02
-1.658950746059417725e-02
2.256764844059944153e-02
-5.295920185744762421e-03
-1.769762113690376282e-02
-1.051038969308137894e-02
-3.300184011459350586e-02
1.644310913980007172e-02
1.642062142491340637e-02
5.581906996667385101e-03
1.019430626183748245e-02
-1.615800429135560989e-04
2.985007129609584808e-02
6.170576065778732300e-02
-2.831187471747398376e-02
2.069671265780925751e-02
-3.866268321871757507e-02
9.060258418321609497e-02
-5.788677185773849487e-02
-3.057694621384143829e-02
3.469769842922687531e-03
1.595685817301273346e-02
-2.898292616009712219e-03
-3.227987512946128845e-02
-3.091958351433277130e-02
-5.569444596767425537e-02
-3.617430478334426880e-02
-5.972719518467783928e-04
5.509874783456325531e-03
-1.229146774858236313e-02
4.692478850483894348e-02
-3.627344965934753418e-02
-3.829335793852806091e-02
-3.122491575777530670e-02
-2.240232937037944794e-02
2.106939628720283508e-02
-1.735514774918556213e-02
1.135305408388376236e-02
3.129324689507484436e-02
-3.707980364561080933e-02
2.090695500373840332e-02
9.809625335037708282e-03
1.751923747360706329e-02
2.105688862502574921e-02
-1.341644022613763809e-02
-2.206425368785858154e-02
5.169846583157777786e-03
-1.698069646954536438e-02
2.434525452554225922e-02
-3.114675916731357574e-02
3.061760775744915009e-02
-2.583079226315021515e-02
-1.844896003603935242e-02
-3.474504500627517700e-02
-3.507233411073684692e-02
-3.754396457225084305e-04
1.156763825565576553e-02
2.379354089498519897e-02
3.744790703058242798e-02
-2.956039272248744965e-02
-1.175602059811353683e-02
-7.358297705650329590e-02
-7.485409080982208252e-02
-2.972652204334735870e-02
-2.831469988450407982e-03
5.793235264718532562e-03
-3.082101047039031982e-02
2.264479175209999084e-02
2.009466290473937988e-02
4.433558881282806396e-02
-2.267375588417053223e-02
-1.985816285014152527e-03
-1.431790995411574841e-03
-2.032685652375221252e-02
-2.425108477473258972e-02
-3.278460353612899780e-02
3.752985596656799316e-02
2.235887944698333740e-02
-4.115425422787666321e-02
2.401908300817012787e-02
-6.405818741768598557e-03
2.991843968629837036e-02
2.320307865738868713e-02
3.891971334815025330e-02
-3.460753336548805237e-02
2.601447515189647675e-02
-3.711241483688354492e-02
-3.124426864087581635e-02
-2.668685838580131531e-02
-4.070590808987617493e-02
-4.232832789421081543e-02
-3.198317438364028931e-02
-4.019550606608390808e-02
-5.097841843962669373e-02
-1.156733836978673935e-02
-2.261693589389324188e-02
-4.639808088541030884e-03
-5.813742801547050476e-02
-4.525550827383995056e-02
3.126106457784771919e-03
1.640626788139343262e-02
-2.015908434987068176e-02
-4.283982142806053162e-02
-1.121464557945728302e-02
4.334631189703941345e-02
-4.030686989426612854e-02
2.410131134092807770e-02
-1.641717366874217987e-02
-7.143643219023942947e-03
2.800498157739639282e-02
1.398563105612993240e-02
-7.327039726078510284e-03
-1.701490394771099091e-02
2.129635587334632874e-02
1.265122927725315094e-02
2.237289026379585266e-02
5.619493871927261353e-02
1.201685052365064621e-02
1.566893793642520905e-02
-6.513575464487075806e-02
-3.989048302173614502e-02
-2.637210115790367126e-02
-1.956464163959026337e-02
-1.913182437419891357e-02
-6.221208348870277405e-02
7.253385335206985474e-02
5.514286085963249207e-02
-2.267557568848133087e-02
3.044089488685131073e-02
5.896310880780220032e-02
1.540923491120338440e-03
-6.372754462063312531e-03
-2.655221521854400635e-02
3.097370825707912445e-02
-2.672511339187622070e-02
-7.385536283254623413e-02
-3.240321576595306396e-02
4.420193377882242203e-03
2.664948999881744385e-02
-5.130904912948608398e-02
-3.702810406684875488e-02
5.345138534903526306e-02
-2.059282921254634857e-02
-1.670602895319461823e-02
-5.176536366343498230e-02
1.280704699456691742e-02
8.012381382286548615e-03
-4.317487031221389771e-02
-2.765865297988057137e-03
1.929521909914910793e-03
-5.161656066775321960e-02
2.575420401990413666e-02
8.963656611740589142e-03
6.390924099832773209e-03
1.110288593918085098e-02
-4.172039777040481567e-02
1.673183217644691467e-02
-4.303656518459320068e-02
2.405064366757869720e-02
-1.744043640792369843e-02
-9.135033935308456421e-03
-7.561309635639190674e-02
2.902341820299625397e-02
1.273557543754577637e-02
1.477825827896595001e-02
-7.968908175826072693e-03
9.324060752987861633e-03
4.246664792299270630e-02
2.698792144656181335e-02
-2.936369553208351135e-02
-6.981230806559324265e-03
-4.063565284013748169e-02
-1.718765310943126678e-02
-6.266646832227706909e-02
2.842414565384387970e-02
-3.775745630264282227e-02
4.328871145844459534e-02
1.436247676610946655e-02
-9.167128242552280426e-03
-5.124144628643989563e-02
1.649530604481697083e-02
-2.697529457509517670e-02
3.685119748115539551e-02
-2.932313084602355957e-02
-3.777935169637203217e-03
-2.353343740105628967e-02
1.068166643381118774e-02
-2.687790803611278534e-02
-3.802257031202316284e-02
1.020817831158638000e-02
2.979519776999950409e-02
3.830761462450027466e-02
-4.062886536121368408e-02
-2.691354893613606691e-04
-3.907107934355735779e-02
2.657328359782695770e-02
-1.747230254113674164e-02
-3.431956516578793526e-03
-2.231439948081970215e-02
-2.841425128281116486e-03
-2.996772155165672302e-02
4.168320819735527039e-02
-5.554274842143058777e-02
-2.893890254199504852e-02
1.397296413779258728e-02
6.218156963586807251e-02
-4.456940665841102600e-02
-2.758064866065979004e-02
-3.675261884927749634e-02
4.684297367930412292e-02
2.325054071843624115e-02
1.495242468081414700e-03
3.139543533325195312e-02
3.517026454210281372e-02
-1.107558980584144592e-02
7.549932226538658142e-03
1.762778684496879578e-02
8.039552718400955200e-03
-2.580167911946773529e-02
-2.365772798657417297e-02
4.141238331794738770e-02
-5.349161848425865173e-02
-3.188560158014297485e-02
1.724073477089405060e-02
2.781442832201719284e-03
-3.256053850054740906e-02
-4.789916798472404480e-02
4.506390541791915894e-02
-4.405318945646286011e-02
-1.547986548393964767e-02
-4.211806505918502808e-02
-4.809691105037927628e-03
4.884939175099134445e-03
1.513945404440164566e-02
-7.904356345534324646e-03
-2.380685694515705109e-02
-3.641204908490180969e-02
-1.553257694467902184e-03
1.340307877399027348e-03
4.888596758246421814e-02
8.801056444644927979e-02
4.952090326696634293e-03
4.998943209648132324e-02
-5.902846809476613998e-03
-1.145574543625116348e-02
-4.298250656574964523e-03
-2.014634199440479279e-02
-3.915672714356333017e-04
-2.990575972944498062e-03
-6.021646782755851746e-02
1.106710452586412430e-02
-3.585408255457878113e-02
1.609131926670670509e-03
3.501972928643226624e-02
-5.961808562278747559e-02
-2.777566201984882355e-02
-1.421650405973196030e-03
-6.181432399898767471e-03
-1.514789089560508728e-02
-1.949960924685001373e-02
3.619261831045150757e-02
1.062930282205343246e-02
7.984810508787631989e-03
-4.595170542597770691e-02
-6.330125033855438232e-02
3.850087523460388184e-02
8.275820873677730560e-03
-4.034594818949699402e-02
-4.700983688235282898e-02
3.602808341383934021e-02
-1.420144271105527878e-02
-3.804330527782440186e-02
1.827982813119888306e-02
3.305297717452049255e-02
5.728085339069366455e-02
-2.819635160267353058e-02
-8.021973371796775609e-06
2.482713572680950165e-02
2.255144529044628143e-02
5.268387496471405029e-02
-2.429714426398277283e-02
7.352048903703689575e-02
-4.195535928010940552e-02
-5.733034014701843262e-02
-2.358370833098888397e-02
-1.457193028181791306e-02
1.511948555707931519e-02
1.248063798993825912e-02
-9.522366337478160858e-03
2.838927134871482849e-02
-7.946744561195373535e-03
1.532019674777984619e-02
-2.174929715692996979e-02
-3.374635800719261169e-02
-2.815914526581764221e-02
8.823711425065994263e-03
-4.439684562385082245e-03
5.449063703417778015e-02
4.433830454945564270e-02
-1.311217341572046280e-02
5.144818569533526897e-04
1.409954112023115158e-02
-2.724252082407474518e-02
-3.031235188245773315e-02
3.655400499701499939e-02
6.377469003200531006e-02
7.356732618063688278e-03
-1.512170210480690002e-02
-2.146627381443977356e-02
-2.965914271771907806e-02
1.465831696987152100e-02
-1.332163624465465546e-02
2.654919028282165527e-02
-2.423450537025928497e-02
3.112328704446554184e-03
-2.164456807076931000e-02
-5.547645315527915955e-02
-1.387748122215270996e-02
-5.678442120552062988e-02
9.975881315767765045e-03
-1.852648332715034485e-02
2.409509755671024323e-02
2.748426795005798340e-02
-3.745989874005317688e-02
1.527492655441164970e-03
-1.981346867978572845e-03
-3.016887232661247253e-02
-4.796005785465240479e-02
1.864973641932010651e-02
9.380498528480529785e-02
2.999475598335266113e-02
-5.607479438185691833e-02
-2.763100527226924896e-02
1.566371507942676544e-02
4.135708138346672058e-02
-5.642977729439735413e-02
-5.077224597334861755e-02
2.596831880509853363e-03
-5.725035443902015686e-02
3.586238250136375427e-03
1.989946700632572174e-02
-2.659744955599308014e-02
3.761886386200785637e-03
1.600386202335357666e-02
-1.169893424957990646e-02
-8.603547513484954834e-02
1.919498667120933533e-02
-3.174236044287681580e-02
-2.884675189852714539e-02
1.111260056495666504e-02
1.628549210727214813e-02
2.091203816235065460e-02
-3.162527829408645630e-02
-4.994293302297592163e-02
4.581610672175884247e-03
-1.057175453752279282e-02
-3.090779483318328857e-02
-3.083817660808563232e-02
-4.858252778649330139e-02
-3.592532128095626831e-02
-3.092176467180252075e-02
-3.852887451648712158e-02
2.633986994624137878e-02
6.237563211470842361e-03
1.620738767087459564e-02
-1.243344228714704514e-02
7.249144837260246277e-03
-2.151201106607913971e-02
-1.924346759915351868e-02
-2.335323020815849304e-02
4.946965351700782776e-02
-2.575450018048286438e-02
4.789158329367637634e-02
1.830635778605937958e-02
-2.007209695875644684e-02
-2.639645151793956757e-02
-9.442324750125408173e-03
5.825718864798545837e-03
2.825752831995487213e-02
-2.733658254146575928e-02
4.617736861109733582e-02
1.993498019874095917e-02
-2.697665244340896606e-02
-1.419062633067369461e-02
-2.235678583383560181e-02
-3.940222412347793579e-02
-1.408126577734947205e-02
5.965651944279670715e-03
-3.621223196387290955e-02
-3.925447538495063782e-02
-4.241899028420448303e-02
2.093475870788097382e-02
-2.337069995701313019e-02
6.441469304263591766e-03
-1.553235854953527451e-02
5.223355069756507874e-02
-1.345075294375419617e-02
1.970192603766918182e-02
-5.190948490053415298e-03
-3.656975924968719482e-02
-2.669907547533512115e-02
5.123045761138200760e-03
-4.210871085524559021e-02
-2.250962145626544952e-02
2.349791675806045532e-02
-2.335754036903381348e-02
-1.302838325500488281e-02
2.783748880028724670e-02
-3.522934624925255775e-03
2.530077844858169556e-02
-4.485543444752693176e-02
-5.964945536106824875e-03
2.280833013355731964e-02
-4.152908176183700562e-02
3.844103077426552773e-03
4.244472086429595947e-02
-1.021369174122810364e-02
-3.229114785790443420e-02
5.033205077052116394e-02
8.023153059184551239e-03
5.719330161809921265e-03
3.819417580962181091e-02
-1.259828917682170868e-02
-5.987057462334632874e-03
-3.150610253214836121e-02
6.439149379730224609e-02
-8.449901826679706573e-03
-1.675724424421787262e-02
3.257354721426963806e-02
-4.396527260541915894e-02
3.342231735587120056e-02
-1.512231025844812393e-02
-2.874109521508216858e-02
-2.764517627656459808e-02
-4.996239766478538513e-02
-4.112916067242622375e-03
-5.423213541507720947e-02
-2.853966876864433289e-02
4.290360584855079651e-02
-1.726542785763740540e-02
-2.446408011019229889e-02
4.262861981987953186e-02
1.652029529213905334e-02
-1.259540580213069916e-02
-1.439754269085824490e-03
-6.075015664100646973e-02
-3.607097640633583069e-02
-2.387164346873760223e-02
-2.338685281574726105e-02
-4.020043089985847473e-02
1.870588213205337524e-02
5.972553789615631104e-02
-4.459078609943389893e-02
-1.926666870713233948e-02
1.151485275477170944e-02
1.213654503226280212e-02
-1.723519898951053619e-02
-8.336253464221954346e-03
2.924795262515544891e-02
-2.478319965302944183e-02
-1.976842992007732391e-02
2.219551242887973785e-02
-7.512577809393405914e-03
3.771330416202545166e-02
-3.409879654645919800e-02
3.456186736002564430e-03
-3.357302770018577576e-02
-2.861543558537960052e-02
-6.171378772705793381e-03
-1.061711926013231277e-02
1.430408656597137451e-02
-2.655375562608242035e-02
-3.726116381585597992e-03
-2.909008786082267761e-02
2.159218117594718933e-02
-3.072825632989406586e-02
-1.327915489673614502e-02
-2.660734811797738075e-03
4.437869787216186523e-02
-3.995314612984657288e-02
-5.939352884888648987e-02
2.133017592132091522e-02
-5.650914274156093597e-03
-2.701263129711151123e-02
-2.599173039197921753e-02
-4.756593704223632812e-02
1.904447749257087708e-02
-2.997825480997562408e-02
-1.292529888451099396e-02
1.329124998301267624e-02
3.982304129749536514e-03
5.133024230599403381e-02
7.916464470326900482e-03
-6.336132064461708069e-03
1.988695748150348663e-02
-2.400397509336471558e-02
1.161236036568880081e-02
-1.673622056841850281e-02
-1.034567714668810368e-03
-4.293151572346687317e-02
-4.660678282380104065e-02
-5.833734199404716492e-02
7.924744486808776855e-02
-1.922903954982757568e-02
-4.174123704433441162e-02
-2.621999941766262054e-03
2.743089338764548302e-03
-3.447568044066429138e-02
3.095379471778869629e-02
4.731571301817893982e-02
5.867216736078262329e-02
-5.282754823565483093e-02
-2.203404158353805542e-02
-4.422551020979881287e-02
2.872320264577865601e-02
-1.566936634480953217e-02
-2.882019151002168655e-03
-3.574436530470848083e-02
7.147721480578184128e-03
-2.433900162577629089e-02
7.362910546362400055e-03
2.735030138865113258e-03
-4.369009286165237427e-02
2.449398487806320190e-02
-4.887058585882186890e-02
3.584786877036094666e-02
-6.695466581732034683e-03
1.975199952721595764e-02
1.855818741023540497e-02
-1.574851758778095245e-02
-3.328901529312133789e-02
-1.583230681717395782e-02
3.102572262287139893e-02
2.866430580615997314e-02
2.395635936409235001e-03
1.699508354067802429e-02
-6.759095704182982445e-04
3.097627684473991394e-02
5.703786388039588928e-02
-2.203090861439704895e-02
-2.249335311353206635e-02
-1.735563157126307487e-03
5.381444841623306274e-02
-6.028070673346519470e-02
3.305528685450553894e-02
8.040964603424072266e-03
-7.161732017993927002e-02
-4.976115748286247253e-02
9.057052433490753174e-03
-1.860566250979900360e-02
1.899305172264575958e-02
3.114102408289909363e-02
4.052760452032089233e-02
-2.183433249592781067e-02
-1.235688570886850357e-02
-9.049592772498726845e-04
2.343547716736793518e-02
1.878287456929683685e-02
-4.626559838652610779e-02
-3.895188495516777039e-02
-4.844158887863159180e-02
-6.573244929313659668e-02
3.394148498773574829e-02
4.593219980597496033e-02
-4.960136115550994873e-02
2.317881956696510315e-02
-7.868867367506027222e-03
6.955220364034175873e-03
-3.338964655995368958e-02
-2.016848698258399963e-02
2.039609104394912720e-02
2.259789220988750458e-02
1.656257174909114838e-02
3.128797933459281921e-02
1.443469617515802383e-02
2.155629731714725494e-02
-2.471323870122432709e-02
4.632000811398029327e-03
4.639848694205284119e-02
-5.982114747166633606e-02
3.860300406813621521e-02
-1.033554691821336746e-02
-2.086012973450124264e-04
-2.492535859346389771e-02
-1.870542764663696289e-02
1.550410781055688858e-02
-1.769451424479484558e-02
7.194437552243471146e-03
-5.466368049383163452e-02
-4.090064391493797302e-02
2.226557396352291107e-02
-2.735223248600959778e-02
6.932891905307769775e-02
-2.377123944461345673e-02
1.466657780110836029e-02
2.566859684884548187e-02
2.594536356627941132e-02
-1.713815145194530487e-02
-6.906115449965000153e-03
-5.535113066434860229e-02
2.569467201828956604e-02
3.105318918824195862e-02
1.210402324795722961e-02
3.150361776351928711e-02
2.765634655952453613e-02
-2.096336707472801208e-02
2.834749408066272736e-02
-3.837966918945312500e-02
-6.397682428359985352e-02
-4.652063921093940735e-02
2.662499994039535522e-02
5.027712788432836533e-03
-1.119577232748270035e-02
5.050423368811607361e-02
3.558696713298559189e-03
3.633909299969673157e-02
-4.373368248343467712e-02
-5.078742653131484985e-02
-9.903649799525737762e-03
2.953152544796466827e-02
2.595198166090995073e-04
3.691531345248222351e-02
3.777571767568588257e-02
-6.061604712158441544e-03
2.139140665531158447e-02
-3.691916167736053467e-02
-2.204702049493789673e-02
-3.922988194972276688e-03
-1.798864454030990601e-02
-4.073449969291687012e-02
-1.626279018819332123e-02
4.339567385613918304e-03
-5.718446522951126099e-02
-3.880527615547180176e-02
-5.703717842698097229e-02
-4.917028825730085373e-03
-4.090924561023712158e-02
2.905420586466789246e-02
-6.833923608064651489e-02
4.096924141049385071e-02
3.269227966666221619e-02
3.654322028160095215e-02
-4.237927868962287903e-02
3.496165201067924500e-02
1.101697981357574463e-02
2.921589463949203491e-02
-1.091538928449153900e-02
-3.082592785358428955e-02
3.556653857231140137e-02
1.113648526370525360e-02
-1.302189286798238754e-02
-4.405500739812850952e-02
-2.134948037564754486e-03
-5.503876134753227234e-02
6.444192677736282349e-02
5.905924364924430847e-02
-1.083066593855619431e-02
-2.813492342829704285e-02
-6.826872006058692932e-03
2.950098365545272827e-02
-1.905631623230874538e-03
-3.011606819927692413e-02
4.099790006875991821e-02
2.654524706304073334e-02
-6.197867915034294128e-02
5.351650342345237732e-02
7.564193755388259888e-02
-1.360807195305824280e-02
-6.974610686302185059e-02
4.815002903342247009e-02
2.402918599545955658e-02
1.840303093194961548e-02
-3.095827437937259674e-02
1.506881229579448700e-02
-1.760418713092803955e-02
-3.884083777666091919e-02
-1.481738407164812088e-02
-1.146239694207906723e-02
-5.294270068407058716e-02
-3.642392158508300781e-02
-1.075616013258695602e-02
-7.502928376197814941e-03
2.995881624519824982e-02
-2.178184129297733307e-02
3.465380752459168434e-03
1.122423410415649414e-01
3.458564355969429016e-02
-3.349952399730682373e-02
3.988117724657058716e-02
-1.738821342587471008e-02
2.397752553224563599e-02
1.981849968433380127e-02
4.129574634134769440e-03
6.077941879630088806e-02
1.568929408676922321e-03
-2.137919887900352478e-02
-4.658425971865653992e-02
-2.816554345190525055e-02
-4.439523071050643921e-02
7.131769321858882904e-03
1.727772876620292664e-02
4.964991286396980286e-02
6.710800807923078537e-03
3.613292798399925232e-02
1.853051595389842987e-02
1.310145761817693710e-02
2.383701689541339874e-02
-5.232217162847518921e-02
3.140196902677416801e-03
-6.426797714084386826e-03
-3.606761246919631958e-02
-1.110752392560243607e-02
-6.004647910594940186e-02
9.131764061748981476e-03
2.397717675194144249e-03
-4.348069056868553162e-02
2.523455210030078888e-02
-6.314475834369659424e-02
1.148529071360826492e-02
-1.094234269112348557e-02
1.345686893910169601e-02
3.326209262013435364e-02
-5.712394416332244873e-02
9.046389721333980560e-03
2.247380651533603668e-02
-2.978462725877761841e-02
1.215065456926822662e-02
2.976590394973754883e-02
-3.922211006283760071e-03
-2.010117284953594208e-02
3.020570438820868731e-04
-2.526496164500713348e-02
-2.560652792453765869e-02
6.772106885910034180e-02
4.937231913208961487e-02
-5.068431794643402100e-02
1.900583878159523010e-02
-4.422003403306007385e-02
2.101037837564945221e-02
-1.155542954802513123e-02
1.673156768083572388e-02
5.205599591135978699e-02
-1.824973523616790771e-02
-5.096361413598060608e-02
-4.798112437129020691e-02
2.941657975316047668e-02
-2.107723616063594818e-02
1.130619458854198456e-02
3.459404455497860909e-03
1.629999466240406036e-02
-2.373776584863662720e-02
5.740859080106019974e-03
-2.695622481405735016e-02
-4.674350842833518982e-02
-2.244826592504978180e-02
-8.874270133674144745e-03
1.778051629662513733e-02
-2.301268104929476976e-04
-1.188673358410596848e-02
3.070851974189281464e-02
-3.109801793470978737e-03
3.896706178784370422e-02
-3.129924833774566650e-02
-2.502283640205860138e-02
5.169747397303581238e-02
1.914012618362903595e-02
9.887493401765823364e-02
-4.629857465624809265e-02
-2.654259651899337769e-02
-4.156747087836265564e-02
-1.370535977184772491e-02
-1.460693404078483582e-02
2.814526855945587158e-02
2.721500396728515625e-02
-3.945249598473310471e-03
-6.529156118631362915e-02
4.725295305252075195e-02
-1.977704279124736786e-02
-4.223527759313583374e-02
6.126023083925247192e-02
-5.403979122638702393e-02
-3.858248144388198853e-02
-5.279066972434520721e-03
1.086862175725400448e-03
2.642750926315784454e-02
8.503693155944347382e-03
-2.992095611989498138e-02
4.970104992389678955e-02
-2.111713401973247528e-02
-1.615567877888679504e-02
-2.890621498227119446e-02
-4.942889884114265442e-02
3.195970552042126656e-03
5.768439173698425293e-02
1.100301928818225861e-02
5.448214244097471237e-03
-2.019967138767242432e-02
8.698835968971252441e-03
-2.446808293461799622e-02
1.685322076082229614e-02
-1.310413889586925507e-02
9.277254343032836914e-02
5.075062625110149384e-03
-3.460609912872314453e-02
-3.892770037055015564e-02
-3.857359290122985840e-02
3.884508274495601654e-03
3.726122900843620300e-02
4.007329232990741730e-03
-1.424819789826869965e-02
-5.282600410282611847e-03
-4.666305705904960632e-02
-4.556439816951751709e-02
-9.517271071672439575e-03
-6.785851903259754181e-03
2.058729995042085648e-03
-2.055669017136096954e-02
1.751980926201213151e-05
7.788907736539840698e-02
-1.372519694268703461e-02
2.635379694402217865e-02
-1.623540744185447693e-02
1.778075844049453735e-02
3.138223290443420410e-02
-1.743522845208644867e-02
-2.515759505331516266e-02
2.028389833867549896e-02
-1.574397087097167969e-02
3.130019828677177429e-02
-4.586088284850120544e-02
-4.164920747280120850e-02
1.898023299872875214e-02
-6.029511801898479462e-03
-2.131934650242328644e-02
-5.682710185647010803e-02
-1.581471040844917297e-02
2.111685834825038910e-02
-3.793660551309585571e-02
9.096823632717132568e-03
-2.248357236385345459e-02
1.095579098910093307e-02
5.076646432280540466e-02
-4.862608015537261963e-02
6.898131221532821655e-03
-4.182409122586250305e-02
-2.471035346388816833e-02
7.202430069446563721e-02
-2.224312536418437958e-02
-2.969283610582351685e-03
-1.962525025010108948e-02
-8.450221270322799683e-03
-1.217222865670919418e-02
-2.123381756246089935e-02
-1.558840740472078323e-02
9.278799407184123993e-03
1.837102137506008148e-02
4.325543344020843506e-02
4.106213524937629700e-02
-2.849166654050350189e-02
4.482590407133102417e-02
-4.719298705458641052e-02
3.178918361663818359e-02
-4.145474359393119812e-02
-1.510142255574464798e-02
1.007410511374473572e-02
2.097642794251441956e-02
-6.518962327390909195e-03
3.698634728789329529e-02
-1.542750862427055836e-03
1.986908540129661560e-02
-3.457286162301898003e-03
2.582767046988010406e-02
-2.851991914212703705e-02
-4.441845044493675232e-02
-1.397442258894443512e-02
-1.883092150092124939e-02
1.861349679529666901e-02
-5.608381330966949463e-02
7.970354519784450531e-03
3.094147250521928072e-04
6.137269549071788788e-03
1.242871955037117004e-02
3.720194101333618164e-02
1.784426346421241760e-02
-1.449842844158411026e-02
5.213884264230728149e-02
-5.561467260122299194e-03
2.430626749992370605e-02
5.026841536164283752e-03
1.950601860880851746e-02
2.492577582597732544e-02
4.085634276270866394e-02
-4.317239671945571899e-02
-1.335110329091548920e-02
3.434395650401711464e-03
9.660703130066394806e-03
-2.005756646394729614e-02
-4.887314513325691223e-02
-4.342939704656600952e-02
-9.469562210142612457e-03
1.628170721232891083e-02
-4.450051486492156982e-02
2.594838291406631470e-02
3.405406698584556580e-02
3.238664008677005768e-03
-3.980122506618499756e-02
4.845727235078811646e-02
-3.762664645910263062e-02
-1.861240714788436890e-03
-5.336329340934753418e-02
3.962375223636627197e-02
1.347875036299228668e-02
3.782273456454277039e-02
6.758230179548263550e-02
-3.463253751397132874e-02
-4.847169667482376099e-02
2.081794477999210358e-02
6.066986918449401855e-02
2.841860055923461914e-02
-1.507571619004011154e-02
4.839913174510002136e-02
-1.690528169274330139e-02
-1.451292540878057480e-03
4.922160506248474121e-02
-9.947264567017555237e-03
1.706793718039989471e-02
-2.939275652170181274e-02
-1.995946653187274933e-02
-3.894944489002227783e-02
-3.191469237208366394e-02
-4.523345082998275757e-02
-8.121433784253895283e-04
-1.101323589682579041e-02
-3.995290491729974747e-03
-1.301093772053718567e-02
-3.828329592943191528e-02
5.097955465316772461e-03
6.390053778886795044e-02
2.010540571063756943e-03
2.624446339905261993e-02
-5.478693917393684387e-02
1.713314279913902283e-02
-1.226793602108955383e-02
3.913163673132658005e-03
1.960116811096668243e-02
2.278937026858329773e-02
2.194004831835627556e-03
8.494395762681961060e-02
-2.885562181472778320e-02
1.157574821263551712e-02
1.087680342607200146e-03
2.579619921743869781e-02
2.296588942408561707e-02
-7.424443215131759644e-02
2.469122223556041718e-02
-2.921260148286819458e-02
1.454220619052648544e-02
1.763859204947948456e-02
5.673557892441749573e-02
1.122093945741653442e-02
3.095321729779243469e-02
-3.025372885167598724e-02
-2.159474790096282959e-02
1.493568625301122665e-02
4.365086555480957031e-02
-5.266908556222915649e-02
-1.958173885941505432e-02
1.317892223596572876e-02
-3.827541321516036987e-02
-3.417619317770004272e-02
-1.414708234369754791e-02
-1.648312993347644806e-02
-1.309584011323750019e-03
-4.739775136113166809e-02
-2.944528497755527496e-02
-2.538640052080154419e-02
-4.055480286478996277e-02
-1.867737062275409698e-02
-3.325817408040165901e-03
2.418886870145797729e-02
-3.878619149327278137e-02
-3.579955920577049255e-02
3.208658657968044281e-03
-3.990836814045906067e-02
-1.241380441933870316e-02
-5.887766554951667786e-02
4.287573322653770447e-02
2.259191125631332397e-02
-3.737136721611022949e-02
4.977281205356121063e-03
3.147812187671661377e-02
-2.538099884986877441e-02
-2.969909831881523132e-02
-5.578185990452766418e-02
-2.760262787342071533e-02
5.434615537524223328e-02
3.846499137580394745e-03
-2.422330901026725769e-02
1.436897553503513336e-02
1.244836673140525818e-02
1.642850041389465332e-02
1.814568787813186646e-02
-2.630727738142013550e-02
-5.567475035786628723e-02
5.038097035139799118e-03
-3.176661208271980286e-02
2.081543579697608948e-02
2.103836834430694580e-02
4.890822339802980423e-03
-4.051889479160308838e-02
2.125482447445392609e-02
-3.023294545710086823e-02
-2.083641476929187775e-02
2.289133891463279724e-02
4.165408760309219360e-02
3.226301819086074829e-02
1.004334166646003723e-02
-1.660723797976970673e-02
2.420355565845966339e-02
2.939977683126926422e-02
8.466083818348124623e-05
-1.081688888370990753e-02
2.968146279454231262e-02
8.518062531948089600e-03
-2.533151954412460327e-02
4.076624289155006409e-02
2.130835130810737610e-02
-3.412260115146636963e-02
-1.090424787253141403e-02
6.909500807523727417e-03
3.733872622251510620e-02
6.483811140060424805e-02
2.424393408000469208e-02
3.070774674415588379e-02
4.074265807867050171e-02
-2.338829450309276581e-02
-4.206707701086997986e-02
2.869000285863876343e-02
3.825077787041664124e-02
-3.764974186196923256e-03
2.217872440814971924e-02
1.282132416963577271e-02
3.379949834197759628e-03
6.305781006813049316e-02
-5.292307212948799133e-02
2.599902451038360596e-02
1.499000750482082367e-02
-4.101312160491943359e-02
9.119633468799293041e-04
2.514019981026649475e-02
5.487479269504547119e-02
5.104106664657592773e-02
-4.509630054235458374e-02
-4.774247109889984131e-02
2.961017191410064697e-02
3.095703013241291046e-02
1.656784676015377045e-02
-2.405885979533195496e-02
6.078053638339042664e-02
3.500282764434814453e-02
5.787564441561698914e-02
1.987436553463339806e-03
2.816911973059177399e-02
-2.075644209980964661e-02
-4.554700478911399841e-02
4.183339700102806091e-02
-2.402119897305965424e-02
1.900491653941571712e-03
2.448103576898574829e-02
2.979575470089912415e-02
5.824119597673416138e-02
3.522539744153618813e-03
4.463764280080795288e-02
4.515101388096809387e-02
2.253462094813585281e-03
-2.163876406848430634e-02
-1.313648559153079987e-02
-2.657129801809787750e-02
-3.597667813301086426e-02
-2.934289351105690002e-02
6.083204224705696106e-02
3.969336673617362976e-02
3.633983433246612549e-02
8.163703605532646179e-03
1.665846072137355804e-02
9.510053321719169617e-03
2.624384872615337372e-02
2.811587601900100708e-02
2.019100636243820190e-02
-4.124561697244644165e-02
4.387469589710235596e-02
2.557897940278053284e-02
4.830365255475044250e-02
-3.776699304580688477e-03
-5.239136144518852234e-02
4.862848669290542603e-02
9.674432687461376190e-03
1.398890558630228043e-02
-1.661495491862297058e-02
2.600060962140560150e-02
2.082783356308937073e-02
-1.479145721532404423e-03
2.096335031092166901e-02
3.252827748656272888e-02
-7.792305201292037964e-03
-2.312974631786346436e-02
-1.452804822474718094e-02
1.127197640016674995e-03
4.805261641740798950e-02
-1.831200346350669861e-02
1.354677230119705200e-02
2.595605328679084778e-03
2.874515764415264130e-02
6.770012527704238892e-02
4.245566669851541519e-03
4.592875391244888306e-02
-1.080615445971488953e-02
2.236778102815151215e-02
2.264864556491374969e-02
-1.813920028507709503e-02
-1.551258191466331482e-02
-7.395315915346145630e-03
1.146716810762882233e-02
4.467437043786048889e-02
6.396058481186628342e-03
-4.875520616769790649e-02
-9.216791018843650818e-03
-3.255112841725349426e-02
1.971381902694702148e-02
5.179820209741592407e-02
4.060572013258934021e-02
4.621618613600730896e-02
-1.489821262657642365e-02
-2.181521058082580566e-02
2.401374652981758118e-02
1.232369616627693176e-02
-1.267806347459554672e-02
-9.925145423039793968e-04
4.516830667853355408e-02
-1.875812187790870667e-02
1.800873689353466034e-02
-1.537976227700710297e-02
2.217762172222137451e-02
6.590727716684341431e-02
-1.103796623647212982e-02
1.404131669551134109e-02
-3.920883685350418091e-02
5.611377954483032227e-02
5.314019322395324707e-02
3.418910503387451172e-02
1.319155003875494003e-02
4.265623539686203003e-02
-3.298990661278367043e-03
-3.644424676895141602e-02
-6.270505255088210106e-04
-2.794817835092544556e-02
2.315792255103588104e-03
4.768331348896026611e-02
-2.591516822576522827e-02
5.647429823875427246e-02
4.633714631199836731e-02
4.835051670670509338e-02
1.855721883475780487e-02
3.893937915563583374e-02
-8.409354835748672485e-03
1.657483371673151851e-04
3.230392560362815857e-02
2.440428175032138824e-02
3.215390071272850037e-02
3.929555788636207581e-02
4.382776841521263123e-02
-1.151895243674516678e-02
5.047675967216491699e-02
3.762652724981307983e-02
-2.282549254596233368e-02
2.339428663253784180e-02
2.034376375377178192e-03
9.935562498867511749e-03
-3.705786308273673058e-03
2.044558757916092873e-03
3.519523888826370239e-02
3.383794426918029785e-02
4.703235626220703125e-02
1.164592243731021881e-02
1.295593939721584320e-02
-2.205186896026134491e-02
3.533477336168289185e-02
-2.561976201832294464e-02
3.927022963762283325e-02
-1.438738778233528137e-02
4.136848263442516327e-03
1.370854396373033524e-02
-1.345828920602798462e-02
-3.388739749789237976e-02
6.753064226359128952e-03
-6.658624857664108276e-03
-1.487262453883886337e-02
2.845118008553981781e-02
3.652505204081535339e-02
2.587421052157878876e-02
1.084026414901018143e-02
4.005601629614830017e-02
1.683875918388366699e-02
6.471687555313110352e-02
-2.097801305353641510e-02
7.072100043296813965e-02
-1.494779903441667557e-02
-2.854340244084596634e-03
5.166263133287429810e-02
-1.574533618986606598e-02
-1.213592663407325745e-02
1.715766638517379761e-02
3.343541920185089111e-02
1.280251424759626389e-02
-3.577321022748947144e-02
4.278767481446266174e-02
5.758656933903694153e-02
7.178205996751785278e-03
7.668766193091869354e-04
1.642156206071376801e-02
-1.566466130316257477e-02
2.432203292846679688e-02
-1.243459433317184448e-02
2.026485651731491089e-02
-1.830702647566795349e-02
5.128373857587575912e-03
-2.546160481870174408e-03
4.313745722174644470e-02
-1.100812666118144989e-02
3.529353812336921692e-02
1.566192135214805603e-02
6.927974522113800049e-02
2.448255382478237152e-02
1.548281498253345490e-02
8.180959150195121765e-03
2.933862619102001190e-02
-9.820317849516868591e-03
4.681997001171112061e-02
4.357862472534179688e-02
-1.110956422053277493e-03
-1.750086806714534760e-02
-1.239467598497867584e-02
3.436213731765747070e-02
-1.837328076362609863e-02
1.311448682099580765e-02
-8.182560093700885773e-03
1.704804785549640656e-02
4.394917562603950500e-02
5.000944063067436218e-02
2.242325060069561005e-02
7.623306661844253540e-02
-2.105255052447319031e-02
-2.620005980134010315e-02
9.232563897967338562e-03
2.026359736919403076e-02
-9.175091050565242767e-03
-2.447596192359924316e-02
-3.321073204278945923e-02
2.871730923652648926e-02
3.505469113588333130e-02
5.992516130208969116e-02
2.731069223955273628e-03
7.716003339737653732e-03
3.423723578453063965e-02
3.281210362911224365e-02
-3.081309981644153595e-02
3.638140484690666199e-02
-1.384784001857042313e-02
3.942542895674705505e-02
-5.200459621846675873e-03
-5.012381821870803833e-03
2.341871336102485657e-02
9.029059670865535736e-03
9.884256869554519653e-03
-3.760844841599464417e-02
3.680327907204627991e-02
4.131904244422912598e-02
-3.793015785049647093e-04
6.325182970613241196e-03
-2.017249353229999542e-02
-1.512362807989120483e-02
2.793137915432453156e-02
-7.936646230518817902e-03
-2.025474607944488525e-02
9.760194458067417145e-03
4.042556509375572205e-02
-2.218135632574558258e-02
3.330225124955177307e-02
1.816421933472156525e-02
-1.693846657872200012e-02
-3.157028555870056152e-02
2.333440631628036499e-02
6.656343466602265835e-04
3.330553323030471802e-02
-2.243838738650083542e-03
8.275581058114767075e-04
1.798239187337458134e-03
4.178290441632270813e-02
7.586247473955154419e-02
3.701658174395561218e-02
3.992414101958274841e-02
-3.407880291342735291e-02
-3.729759901762008667e-02
3.357858583331108093e-02
4.279386624693870544e-02
-8.472644723951816559e-03
1.685536466538906097e-02
1.512855757027864456e-02
-2.050875686109066010e-02
-2.898004464805126190e-02
3.304374217987060547e-02
1.276887208223342896e-02
-1.152359694242477417e-02
4.844431206583976746e-02
1.611354574561119080e-02
7.641160860657691956e-03
-1.351730804890394211e-02
-7.086825557053089142e-03
-5.563323386013507843e-03
5.368745326995849609e-02
3.083537146449089050e-02
4.888850823044776917e-02
2.875656820833683014e-02
3.758407756686210632e-02
6.751349661499261856e-03
-1.423333305865526199e-02
9.328826516866683960e-02
1.888689957559108734e-02
-2.904138273152057081e-05
3.850712254643440247e-02
-1.879953593015670776e-02
4.486025124788284302e-02
-5.957849207334220409e-04
-4.028427600860595703e-02
1.109917182475328445e-02
7.772673852741718292e-04
5.323198437690734863e-02
1.574503490701317787e-03
-1.039591245353221893e-02
8.105332963168621063e-03
-1.846991293132305145e-02
5.315334349870681763e-02
3.681850805878639221e-02
-1.163497660309076309e-02
-3.073278814554214478e-02
-8.254555054008960724e-03
2.897448651492595673e-02
-8.965271525084972382e-03
1.746931346133351326e-03
-2.223289106041193008e-03
7.634331937879323959e-03
7.153870165348052979e-02
2.448287606239318848e-02
-4.810844361782073975e-02
2.733544446527957916e-02
-2.715658396482467651e-02
2.851620875298976898e-02
-2.240053191781044006e-02
4.472447093576192856e-03
3.118354268372058868e-02
2.482251822948455811e-02
-1.545681850984692574e-03
-1.633479259908199310e-02
-3.660736978054046631e-02
6.301937997341156006e-02
-2.283242903649806976e-02
2.308060787618160248e-02
2.063244767487049103e-02
2.491362392902374268e-02
4.105939343571662903e-02
5.946087464690208435e-02
2.770861610770225525e-02
4.848145693540573120e-02
-1.736277714371681213e-02
6.393591314554214478e-02
3.925805166363716125e-02
2.704235725104808807e-03
3.986350074410438538e-02
-2.689615450799465179e-02
5.401601642370223999e-02
2.983935363590717316e-02
3.385265544056892395e-02
-1.459937356412410736e-02
6.506874412298202515e-02
7.738412357866764069e-03
-1.052740961313247681e-02
-2.803860232234001160e-02
-2.412793226540088654e-02
-6.742539349943399429e-03
-2.991474233567714691e-02
-3.298497572541236877e-02
-3.558021411299705505e-02
-4.940291400998830795e-04
5.718041211366653442e-02
1.555593870580196381e-02
6.226578727364540100e-03
4.369762912392616272e-02
1.430169027298688889e-02
2.438824251294136047e-02
-3.329423069953918457e-02
2.022789791226387024e-02
1.436199992895126343e-02
1.664255931973457336e-02
2.012477070093154907e-02
-9.046904742717742920e-03
2.120544202625751495e-02
3.894980251789093018e-02
2.791028469800949097e-02
2.038394287228584290e-02
3.797955811023712158e-02
-1.009071990847587585e-02
2.747410535812377930e-02
4.456705227494239807e-02
8.212421089410781860e-03
4.448758065700531006e-02
-1.935873180627822876e-02
5.470247566699981689e-02
1.147458236664533615e-02
-4.113754630088806152e-02
-2.130666188895702362e-02
-2.889752388000488281e-02
-1.645812392234802246e-02
-1.734337769448757172e-02
-1.744917407631874084e-02
1.334017608314752579e-02
1.994369924068450928e-02
-5.525491666048765182e-03
1.414164155721664429e-02
6.409849738702178001e-04
-4.773778840899467468e-02
-1.667023636400699615e-02
1.792447827756404877e-02
3.548621200025081635e-03
-4.846508149057626724e-03
4.921682551503181458e-02
-4.196422919631004333e-02
-3.719312371686100960e-03
-3.378978744149208069e-02
-6.952091120183467865e-03
3.202320635318756104e-02
3.685213625431060791e-02
1.383986882865428925e-02
2.220780588686466217e-02
1.342782285064458847e-03
2.082716906443238258e-03
3.870606049895286560e-02
-2.337433397769927979e-02
4.365380108356475830e-02
-2.229944244027137756e-02
4.313051700592041016e-02
-1.146755748777650297e-04
-2.670625597238540649e-02
-1.806372590363025665e-02
-8.513924665749073029e-03
-5.816880613565444946e-03
1.215930562466382980e-02
5.857886746525764465e-02
-1.332343835383653641e-02
4.659727215766906738e-02
-1.963634975254535675e-02
4.614789783954620361e-02
-2.283269725739955902e-02
2.501432038843631744e-02
5.058493837714195251e-02
1.982802711427211761e-02
3.773441538214683533e-02
2.856647036969661713e-02
-8.297446183860301971e-03
-9.686578065156936646e-03
6.309835612773895264e-02
1.942129991948604584e-02
-6.628177594393491745e-03
3.378562629222869873e-02
-9.591629728674888611e-03
2.028702013194561005e-02
1.921664550900459290e-02
8.889023214578628540e-02
2.357216924428939819e-02
1.591712981462478638e-02
1.171842496842145920e-02
1.411658991128206253e-02
4.078457877039909363e-02
5.160129070281982422e-02
-2.094471827149391174e-02
-2.770503517240285873e-03
4.897397011518478394e-02
2.229061163961887360e-02
-2.605211921036243439e-02
3.114132024347782135e-02
-7.907536812126636505e-03
3.964441269636154175e-02
2.095992118120193481e-02
1.556020788848400116e-02
4.153395071625709534e-02
2.548826113343238831e-02
1.269644126296043396e-02
-4.101207479834556580e-02
-2.160069532692432404e-03
1.937346649356186390e-03
-1.366958394646644592e-02
2.058754442259669304e-03
6.426581740379333496e-02
-9.268717840313911438e-03
-1.003100629895925522e-02
4.159063845872879028e-02
3.554706647992134094e-02
-2.604107186198234558e-02
7.128346711397171021e-02
1.451802812516689301e-02
4.043100774288177490e-02
3.664871305227279663e-02
6.024957820773124695e-02
1.926919072866439819e-02
2.313092909753322601e-02
1.464288681745529175e-02
-6.688979919999837875e-03
3.110455162823200226e-02
2.544153947383165359e-03
4.906387999653816223e-02
5.637869238853454590e-02
2.467223070561885834e-02
3.912090137600898743e-02
1.513557694852352142e-02
-3.287834674119949341e-02
5.203039851039648056e-03
-5.973500199615955353e-03
-2.386391721665859222e-02
-4.001914709806442261e-02
5.726960953325033188e-03
-1.360799185931682587e-02
-2.176688238978385925e-02
-5.272452905774116516e-02
-3.678313642740249634e-02
3.609358100220561028e-03
-1.530304737389087677e-02
-6.366424262523651123e-03
-4.337771236896514893e-02
3.036756254732608795e-02
-3.728865832090377808e-02
-5.463418737053871155e-02
-2.776832133531570435e-02
-5.911006778478622437e-02
1.526850927621126175e-02
-2.177828177809715271e-02
-3.966446593403816223e-02
-3.404547646641731262e-02
3.263601392973214388e-04
2.137819305062294006e-02
-5.869086086750030518e-02
-1.813114993274211884e-02
-3.655617684125900269e-02
4.547883570194244385e-02
1.046983059495687485e-02
-2.615807577967643738e-02
-3.716504899784922600e-03
1.620069146156311035e-02
-9.453167207539081573e-03
-5.071790888905525208e-02
-2.178233489394187927e-02
-4.032204300165176392e-02
5.782090127468109131e-03
-7.732073776423931122e-03
3.127625957131385803e-02
2.378856996074318886e-03
9.958982467651367188e-03
2.400553040206432343e-02
-1.223742845468223095e-03
1.349436771124601364e-02
-2.144308760762214661e-02
2.443391643464565277e-02
1.730143837630748749e-02
-1.053645927459001541e-02
-4.293727688491344452e-03
-3.083535120822489262e-04
-1.315883267670869827e-02
-3.593144938349723816e-02
2.466898411512374878e-02
-1.104654162190854549e-03
1.711869426071643829e-02
3.849136084318161011e-02
1.545258052647113800e-02
-5.032954365015029907e-02
3.761466220021247864e-02
2.379834093153476715e-02
1.841764338314533234e-02
-3.881135256960988045e-03
-8.760094642639160156e-02
2.642467152327299118e-03
4.527300130575895309e-03
-2.203322714194655418e-03
-3.748958464711904526e-03
-1.017375662922859192e-02
2.313043363392353058e-02
1.301545184105634689e-02
9.033266454935073853e-02
1.050557382404804230e-02
4.386055283248424530e-03
-3.193650767207145691e-02
1.470797415822744370e-02
-8.030530065298080444e-03
-2.850065706297755241e-03
2.814183384180068970e-02
-5.225926637649536133e-03
-1.298239734023809433e-02
-3.076583892107009888e-02
2.071614749729633331e-02
-6.613660603761672974e-02
1.459141727536916733e-02
-2.426237054169178009e-02
-2.068513073027133942e-02
9.352489374577999115e-03
1.474023330956697464e-02
3.217082843184471130e-02
-3.945744037628173828e-02
2.350496500730514526e-02
1.513002905994653702e-02
-1.197039708495140076e-02
4.616926424205303192e-03
-4.620260000228881836e-02
5.537618417292833328e-03
-3.889698162674903870e-02
-2.894430886954069138e-03
1.280878018587827682e-02
6.631355267018079758e-03
3.624124079942703247e-02
-4.698354005813598633e-02
1.130386441946029663e-02
-2.376588061451911926e-02
2.052390389144420624e-02
2.773457206785678864e-03
-2.277853665873408318e-03
-6.756903138011693954e-03
1.430932711809873581e-02
4.488693550229072571e-02
3.496015269774943590e-04
4.747780784964561462e-02
2.735707722604274750e-02
-4.741868004202842712e-02
2.589858835563063622e-03
3.522877395153045654e-02
4.343287553638219833e-03
4.927770234644412994e-03
1.192533969879150391e-02
-1.973183080554008484e-02
3.386265039443969727e-02
-2.097875345498323441e-03
-4.333027638494968414e-03
-1.960972696542739868e-02
5.887839943170547485e-02
-5.451445654034614563e-02
7.662644065931090154e-07
-8.927012793719768524e-03
-6.229936610907316208e-03
-3.820250928401947021e-02
5.256352014839649200e-03
3.710851073265075684e-02
3.217418212443590164e-03
3.154090419411659241e-02
-2.111693285405635834e-02
-5.805057287216186523e-02
-8.446438238024711609e-03
-4.164812341332435608e-02
1.690864004194736481e-02
-9.399883449077606201e-03
-3.110054647549986839e-03
5.480124428868293762e-02
7.128045894205570221e-03
-6.000621709972620010e-03
-3.135761991143226624e-02
-8.850014419294893742e-04
4.148351028561592102e-03
1.774320565164089203e-02
1.722876541316509247e-02
3.874366730451583862e-02
-5.459628254175186157e-02
-4.624044959200546145e-05
2.791750303003937006e-04
2.733636880293488503e-03
5.592864006757736206e-03
3.525676578283309937e-02
-1.545095257461071014e-02
3.978988155722618103e-03
3.357024490833282471e-02
1.743349432945251465e-02
-1.887826994061470032e-02
-2.128405496478080750e-02
1.802463270723819733e-02
-1.171462354250252247e-03
-1.688925363123416901e-02
1.845222152769565582e-02
3.932121396064758301e-02
-4.511969536542892456e-02
-4.909505322575569153e-02
-1.392408739775419235e-02
-3.629517555236816406e-02
-1.808228343725204468e-02
-4.657277837395668030e-02
-5.982121918350458145e-03
-6.966395769268274307e-03
-4.701430350542068481e-02
5.510434508323669434e-03
-8.286163210868835449e-03
1.872756984084844589e-03
1.699743606150150299e-02
-1.109300740063190460e-02
-7.330399937927722931e-03
-7.168485224246978760e-02
-4.370335955172777176e-03
2.958381734788417816e-02
-4.356393218040466309e-02
-1.679800078272819519e-02
-4.836907610297203064e-02
-2.584020607173442841e-02
-3.252608329057693481e-02
-5.648412741720676422e-03
1.003026217222213745e-02
1.519627962261438370e-02
1.510971505194902420e-02
-4.766430333256721497e-02
-3.533285483717918396e-02
-2.515076473355293274e-02
-2.212389744818210602e-02
2.624425105750560760e-02
1.970428042113780975e-02
-3.058848436921834946e-03
-5.189351364970207214e-02
-2.022150531411170959e-02
-4.314541444182395935e-02
2.797929383814334869e-02
3.271727636456489563e-02
9.057935327291488647e-03
-3.722289949655532837e-02
-1.458967011421918869e-02
1.796437427401542664e-02
-3.988477587699890137e-02
-1.004114001989364624e-02
2.245001494884490967e-02
-4.969834350049495697e-03
-6.879793107509613037e-02
1.417265925556421280e-02
-1.081814430654048920e-02
1.298722904175519943e-02
-4.421199113130569458e-02
1.863116770982742310e-02
-6.946657598018646240e-02
-2.230541035532951355e-02
-1.831659860908985138e-02
1.905748434364795685e-02
-5.163344740867614746e-02
-3.466005623340606689e-02
6.810793653130531311e-03
-2.815675549209117889e-02
-3.842354565858840942e-02
-5.335218459367752075e-02
-4.700067639350891113e-02
-2.312088198959827423e-02
1.316955965012311935e-02
-6.198856607079505920e-02
-1.225102925673127174e-03
-9.423281997442245483e-03
-1.678103394806385040e-02
1.359460595995187759e-02
4.202771931886672974e-02
-2.097759768366813660e-02
-1.890942687168717384e-03
4.058410413563251495e-03
-4.340962693095207214e-02
2.681787312030792236e-02
-2.493651770055294037e-02
-2.690714038908481598e-02
-2.553927898406982422e-02
2.333474904298782349e-02
-1.784075237810611725e-02
-2.519505098462104797e-02
-1.994006521999835968e-02
-4.534597694873809814e-02
8.040019869804382324e-02
-1.108053256757557392e-03
-4.718481749296188354e-02
-2.840256784111261368e-03
-1.463841088116168976e-02
8.691921830177307129e-03
-2.624415978789329529e-02
1.716178841888904572e-02
3.971999511122703552e-02
1.363034080713987350e-02
-3.422754118219017982e-03
-4.791018739342689514e-02
-4.463352635502815247e-02
-3.197826817631721497e-02
-6.666601635515689850e-03
-3.491675108671188354e-02
-5.973995104432106018e-02
4.352160263806581497e-03
1.735305972397327423e-02
1.347814034670591354e-02
1.621622033417224884e-02
1.120253745466470718e-02
-5.879571661353111267e-02
-2.028960298048332334e-04
-2.851203456521034241e-02
4.813439771533012390e-02
-4.791394993662834167e-02
2.588284260127693415e-04
-4.023539647459983826e-02
-3.557471930980682373e-02
1.658472605049610138e-02
-6.134441494941711426e-02
-5.186100676655769348e-02
-6.716180592775344849e-02
1.384616177529096603e-02
-2.220157533884048462e-02
-6.748434156179428101e-03
-4.866247624158859253e-02
-1.970342546701431274e-02
4.973843693733215332e-03
-4.293717071413993835e-02
8.108324982458725572e-05
1.040926482528448105e-02
2.470422536134719849e-03
-3.772921115159988403e-02
-5.937598645687103271e-02
-4.090550169348716736e-02
2.812806703150272369e-02
-5.392078310251235962e-02
7.167387520894408226e-04
-4.485068097710609436e-02
-3.605156391859054565e-02
-5.339618772268295288e-02
-5.153866484761238098e-02
-2.154463902115821838e-02
2.524239756166934967e-02
-4.679294675588607788e-02
5.254524759948253632e-03
4.314929991960525513e-02
-1.663571037352085114e-02
-2.545286901295185089e-02
1.773411221802234650e-02
1.412070915102958679e-02
-3.376786410808563232e-02
-3.394193574786186218e-02
3.512220084667205811e-02
3.730065375566482544e-02
-2.237027324736118317e-02
-6.186476349830627441e-02
-1.527518406510353088e-02
1.581006124615669250e-02
-4.874430224299430847e-02
1.437252480536699295e-02
-2.597382105886936188e-02
4.738105053547769785e-05
2.170633524656295776e-02
-5.168190971016883850e-02
-2.615835890173912048e-02
-1.784063130617141724e-02
-1.263004262000322342e-02
-8.793743327260017395e-03
5.730075389146804810e-02
1.825011894106864929e-02
-4.435649141669273376e-02
-9.184450842440128326e-03
-4.246323183178901672e-02
9.001873433589935303e-03
2.092975378036499023e-02
5.996157228946685791e-02
-3.759453073143959045e-03
-3.681750223040580750e-02
-5.626050289720296860e-03
-5.516880750656127930e-02
2.803563512861728668e-02
2.344131655991077423e-02
-4.565824195742607117e-02
3.411861602216959000e-03
6.421552971005439758e-03
2.009355090558528900e-02
3.278600983321666718e-03
-3.991150297224521637e-03
-2.629315853118896484e-02
-4.127430263906717300e-03
-2.947184816002845764e-02
-2.554231882095336914e-02
-3.903404623270034790e-02
-1.835981849581003189e-03
-1.000487152487039566e-02
4.663200583308935165e-03
1.785290613770484924e-02
2.794680651277303696e-03
-3.441806510090827942e-02
4.531136155128479004e-02
2.640157379209995270e-02
-6.020250264555215836e-03
4.546150937676429749e-02
2.007743902504444122e-02
5.490130279213190079e-03
-5.281526222825050354e-02
4.885688796639442444e-02
-5.189841613173484802e-02
-2.522245794534683228e-02
-3.940208256244659424e-02
-4.369865730404853821e-02
-3.993995487689971924e-02
-2.925532311201095581e-02
-4.720810428261756897e-02
-3.392999642528593540e-04
2.447309717535972595e-02
-2.506617456674575806e-02
3.195865824818611145e-02
1.288760825991630554e-02
4.584893584251403809e-03
1.108127273619174957e-02
-4.832816869020462036e-02
-1.210795901715755463e-02
-5.708072800189256668e-03
-1.720175705850124359e-02
-6.173651199787855148e-03
-3.721728548407554626e-02
1.919486746191978455e-02
8.731581270694732666e-03
-3.664894727990031242e-03
-5.577167496085166931e-02
-4.004126042127609253e-02
1.398415304720401764e-02
-6.045024842023849487e-03
-4.324389994144439697e-02
2.645450178533792496e-03
-5.224086344242095947e-02
-4.544946551322937012e-02
4.730173572897911072e-02
-1.337319426238536835e-02
-4.367213323712348938e-02
-2.186928130686283112e-02
-6.568527221679687500e-02
-1.526034786365926266e-03
2.180266194045543671e-02
5.148417782038450241e-03
-3.287962079048156738e-02
-4.192573949694633484e-02
1.355396932922303677e-03
-1.324851345270872116e-02
1.211777608841657639e-02
2.505191974341869354e-02
2.473649010062217712e-02
-3.038018941879272461e-02
-1.475270651280879974e-02
-1.062949467450380325e-02
-4.532963037490844727e-02
-1.232635881751775742e-02
-5.563924834132194519e-02
-1.254747621715068817e-03
2.375174127519130707e-02
-5.411085113883018494e-02
7.930118590593338013e-03
-1.003935094922780991e-02
1.106010191142559052e-02
-4.236476495862007141e-02
1.274290960282087326e-02
-6.853793561458587646e-02
-1.202663034200668335e-02
-3.448578715324401855e-02
-2.727583423256874084e-02
-5.985585972666740417e-02
7.205840200185775757e-03
4.886527080088853836e-03
-7.224519550800323486e-02
-4.744789749383926392e-02
-4.142593964934349060e-02
-5.088120326399803162e-02
-2.385406196117401123e-02
-1.005389261990785599e-02
-6.344012171030044556e-02
-2.848986722528934479e-02
3.219521790742874146e-02
-4.173353314399719238e-02
-2.902913372963666916e-03
-2.256265608593821526e-03
-2.275647781789302826e-02
2.767861075699329376e-02
1.979046501219272614e-02
-2.329400554299354553e-02
-1.587001979351043701e-02
1.828477904200553894e-02
-3.265016153454780579e-02
5.133559182286262512e-02
-4.636874794960021973e-02
-3.704928094521164894e-03
3.583505051210522652e-03
-1.598919741809368134e-02
-2.984118461608886719e-02
1.460045762360095978e-02
-4.649341851472854614e-02
6.434761919081211090e-03
-8.658144506625831127e-04
3.368753823451697826e-04
-2.416849136352539062e-02
1.191527489572763443e-02
2.688053250312805176e-02
1.119992462918162346e-03
-4.080075025558471680e-02
-1.287031080573797226e-02
-5.167291685938835144e-02
-3.549982793629169464e-03
1.169967930763959885e-02
3.810992836952209473e-02
-3.948484733700752258e-02
-8.826602250337600708e-03
2.381856925785541534e-02
-1.232539955526590347e-02
4.707394633442163467e-03
-1.474883500486612320e-02
3.274198994040489197e-02
-7.957123219966888428e-03
2.710853237658739090e-03
-3.079141490161418915e-02
4.128368571400642395e-02
1.106337178498506546e-02
9.832134470343589783e-03
-4.761286824941635132e-02
1.599346660077571869e-02
1.147674862295389175e-02
6.611192598938941956e-03
2.049917168915271759e-02
-5.153730511665344238e-02
-2.777176164090633392e-02
-2.484012395143508911e-02
4.269855562597513199e-04
1.251581124961376190e-02
1.636621076613664627e-03
-1.758572459220886230e-02
2.789492532610893250e-02
1.065657753497362137e-02
2.953609265387058258e-02
-2.754112519323825836e-02
-6.097993627190589905e-02
-4.792930185794830322e-02
-4.252893850207328796e-02
1.563083752989768982e-02
4.471996426582336426e-02
-4.608653113245964050e-02
-1.101691182702779770e-02
4.533215984702110291e-02
-4.946221597492694855e-04
-2.292211726307868958e-02
1.474827527999877930e-02
-3.166680922731757164e-03
2.743039652705192566e-02
-4.084264114499092102e-02
1.864973641932010651e-02
2.299618348479270935e-02
3.006525337696075439e-02
2.352637611329555511e-02
9.174234583042562008e-04
2.413637004792690277e-03
-2.246266417205333710e-02
-4.280622676014900208e-02
5.018093809485435486e-02
9.118456393480300903e-02
2.521845325827598572e-02
7.200443744659423828e-02
6.324812769889831543e-02
-2.351931761950254440e-03
5.478037893772125244e-02
2.390518970787525177e-02
3.061004914343357086e-02
5.925123021006584167e-02
-5.506071820855140686e-02
1.071522478014230728e-02
-4.401679337024688721e-02
4.664496704936027527e-02
2.322419174015522003e-02
-7.388649974018335342e-03
-9.195508435368537903e-03
3.766695410013198853e-02
6.973027437925338745e-02
-1.088257133960723877e-02
4.123349860310554504e-02
2.430295804515480995e-03
5.216436460614204407e-03
1.912297494709491730e-02
9.528354741632938385e-03
-1.341237593442201614e-02
3.539550304412841797e-02
2.016905695199966431e-02
4.899900406599044800e-02
1.481508743017911911e-02
-1.199042983353137970e-02
8.413504809141159058e-03
1.350068952888250351e-02
-2.366821840405464172e-02
5.726661533117294312e-03
5.090084671974182129e-02
-2.084832079708576202e-02
3.495884593576192856e-03
-1.752698048949241638e-02
-2.003003843128681183e-02
-5.598242860287427902e-03
1.899454277008771896e-03
-1.411383878439664841e-02
5.689394474029541016e-02
1.783491298556327820e-02
-3.313671424984931946e-02
2.793524786829948425e-02
-1.950927451252937317e-02
-6.713242270052433014e-03
-1.160536054521799088e-02
5.302006378769874573e-02
-2.211306802928447723e-02
8.588411659002304077e-02
1.140515203587710857e-03
3.211248666048049927e-02
6.232859939336776733e-02
1.755871810019016266e-02
1.165209338068962097e-02
-5.742758978158235550e-03
1.129178050905466080e-02
-2.568173967301845551e-02
4.442933201789855957e-02
3.868173435330390930e-02
5.871719121932983398e-02
-4.971040785312652588e-02
2.957949042320251465e-02
-4.089803900569677353e-03
4.663486778736114502e-02
6.472323002526536584e-05
-3.171474114060401917e-02
-4.803517367690801620e-03
6.179534364491701126e-03
-2.112133428454399109e-02
-3.971520811319351196e-02
-1.670061424374580383e-02
-3.767412155866622925e-02
-7.786204223521053791e-04
-3.629763377830386162e-03
2.787468209862709045e-02
3.255441412329673767e-02
-7.707916200160980225e-03
-2.510443516075611115e-02
4.828428849577903748e-02
2.507622912526130676e-02
3.362280875444412231e-02
4.657680913805961609e-02
5.269615910947322845e-03
5.344376713037490845e-02
6.562073249369859695e-03
3.621889278292655945e-02
-2.443067543208599091e-02
1.024559140205383301e-02
-4.447682294994592667e-03
7.529622316360473633e-02
-1.934157498180866241e-02
2.587242051959037781e-02
1.833542133681476116e-03
-1.653494685888290405e-02
2.368955174461007118e-03
-2.798679284751415253e-02
5.440953001379966736e-02
-4.508472047746181488e-03
6.379552930593490601e-02
1.324353739619255066e-02
-1.788770034909248352e-02
2.251765131950378418e-02
1.892465539276599884e-02
1.490890979766845703e-02
3.544166311621665955e-02
-6.180324591696262360e-03
-3.343587508425116539e-03
-2.465460216626524925e-03
7.831820286810398102e-03
1.295858644880354404e-03
4.278662428259849548e-02
4.279946163296699524e-02
-1.096654031425714493e-02
-2.338563837110996246e-02
4.865454509854316711e-02
-5.253202095627784729e-02
-6.598942447453737259e-03
1.129148341715335846e-02
2.327242307364940643e-02
-5.531610921025276184e-03
8.055029436945915222e-03
2.456278540194034576e-02
1.985159888863563538e-02
-4.170068074017763138e-03
-3.256555274128913879e-02
-4.349400475621223450e-02
5.995375663042068481e-02
4.730173200368881226e-02
4.034769535064697266e-02
5.207772552967071533e-02
1.474950928241014481e-02
5.325653590261936188e-03
1.743829809129238129e-02
1.173999346792697906e-02
2.792587690055370331e-02
-6.518828682601451874e-03
8.074544370174407959e-03
5.431377887725830078e-02
2.682013437151908875e-02
5.516302958130836487e-02
-1.885093562304973602e-02
5.260608717799186707e-02
4.500398784875869751e-02
-2.692115493118762970e-03
-6.122280377894639969e-03
5.402484536170959473e-02
-1.156156230717897415e-02
-4.372189752757549286e-03
-1.984777487814426422e-02
-2.879760600626468658e-02
2.380841225385665894e-02
-5.885118246078491211e-02
-3.260889649391174316e-02
1.674464717507362366e-02
1.324067357927560806e-02
-7.597685325890779495e-03
1.198218204081058502e-02
3.673831000924110413e-02
1.615536026656627655e-02
-2.225262671709060669e-02
1.231492310762405396e-02
5.206852033734321594e-02
-5.035950336605310440e-03
2.988283336162567139e-02
1.666167564690113068e-02
-2.878824248909950256e-02
-4.258715547621250153e-03
-3.755657374858856201e-02
4.032009840011596680e-02
5.321343615651130676e-02
2.073110081255435944e-02
2.608647383749485016e-02
2.044433727860450745e-02
1.761743426322937012e-02
5.614666640758514404e-02
-3.052163869142532349e-03
5.992182064801454544e-03
1.339332852512598038e-02
-9.684633463621139526e-03
-5.152587220072746277e-02
-5.874292925000190735e-03
1.227858196943998337e-02
6.574206054210662842e-02
3.408480435609817505e-02
4.163450747728347778e-02
2.755539305508136749e-02
-2.507114037871360779e-02
-1.672791875898838043e-02
1.228021644055843353e-02
1.342814229428768158e-02
5.487838760018348694e-03
7.233446231111884117e-04
3.581360727548599243e-02
-3.934182599186897278e-02
3.143148869276046753e-02
3.045434877276420593e-02
1.856113225221633911e-02
3.348852694034576416e-02
-3.137860819697380066e-02
3.630770661402493715e-04
3.110451623797416687e-02
-1.332360506057739258e-02
-3.232083842158317566e-02
6.817408651113510132e-02
4.398998245596885681e-02
-2.320423722267150879e-02
3.711634129285812378e-02
4.672525450587272644e-02
3.731481358408927917e-02
1.732413098216056824e-02
3.059063851833343506e-02
2.524034492671489716e-02
-3.477567061781883240e-02
3.920424357056617737e-02
3.062478639185428619e-02
6.772324442863464355e-02
3.342379583045840263e-03
8.840149268507957458e-03
-1.619974710047245026e-02
-1.158464513719081879e-02
3.090922906994819641e-02
2.992101758718490601e-02
2.715472877025604248e-02
3.341146185994148254e-02
-2.740853652358055115e-02
8.950115740299224854e-02
-7.733707316219806671e-04
-1.000108942389488220e-02
4.114690795540809631e-02
4.025124013423919678e-03
7.745220512151718140e-02
1.154112257063388824e-02
7.057900074869394302e-03
-3.582744393497705460e-03
2.907523652538657188e-03
-2.518369257450103760e-02
4.498899355530738831e-02
5.390578135848045349e-02
-3.476858139038085938e-03
-2.351026795804500580e-02
-2.985115349292755127e-02
1.436311635188758373e-03
-3.194287419319152832e-02
1.207887846976518631e-02
-2.373592369258403778e-02
5.371904373168945312e-02
2.546642906963825226e-02
-1.540578436106443405e-02
5.718150362372398376e-02
-1.001313515007495880e-02
-4.692118614912033081e-02
1.706507802009582520e-02
-3.372146189212799072e-02
3.292296081781387329e-02
5.503453314304351807e-02
4.502798616886138916e-02
1.593741215765476227e-02
3.145667910575866699e-02
1.919661648571491241e-02
-1.270675938576459885e-02
4.013747349381446838e-02
-4.969338327646255493e-02
4.880335181951522827e-02
-3.088108450174331665e-02
3.669443726539611816e-02
3.153764083981513977e-02
4.068359360098838806e-02
3.476470708847045898e-02
1.558720599859952927e-02
-5.440441519021987915e-02
-3.932551294565200806e-02
8.502459386363625526e-04
2.507891319692134857e-02
5.479739233851432800e-02
3.932183980941772461e-02
-2.194697223603725433e-02
4.809596389532089233e-02
-1.634991727769374847e-02
3.564455732703208923e-02
-3.880811110138893127e-02
-4.690638557076454163e-02
-3.025179728865623474e-02
-1.790559291839599609e-02
1.046047545969486237e-02
5.505158565938472748e-03
2.327215299010276794e-02
3.349432349205017090e-02
-1.505643688142299652e-02
4.565126448869705200e-02
-4.096884280443191528e-03
4.540394246578216553e-02
5.728667974472045898e-02
3.366994485259056091e-02
1.081430353224277496e-02
3.518025204539299011e-02
6.740112602710723877e-02
5.547905340790748596e-02
2.929455041885375977e-02
-1.216574944555759430e-02
-3.218634752556681633e-03
3.457102179527282715e-02
4.398456215858459473e-02
1.378114521503448486e-02
-1.540620112791657448e-03
1.476496178656816483e-02
4.604511708021163940e-02
-2.454299293458461761e-02
3.996919095516204834e-02
6.905175279825925827e-03
2.813390456140041351e-02
4.358480498194694519e-02
-2.454952104017138481e-03
-6.410611327737569809e-03
1.985300146043300629e-02
-3.544955328106880188e-02
-8.134513162076473236e-03
5.236988142132759094e-02
2.994482591748237610e-02
4.544162005186080933e-02
1.245026104152202606e-02
-2.351445890963077545e-02
-1.346015278249979019e-02
-7.881634868681430817e-03
-7.529329508543014526e-03
2.161308750510215759e-02
2.590638399124145508e-02
2.605688292533159256e-03
8.859442546963691711e-03
1.659282855689525604e-02
-2.938101068139076233e-02
8.588463999330997467e-03
1.227738242596387863e-02
1.408720202744007111e-02
2.673330716788768768e-02
4.928576527163386345e-04
-9.077224880456924438e-03
-7.737424224615097046e-03
1.737183332443237305e-02
4.665440320968627930e-02
-2.081662975251674652e-02
3.889184072613716125e-02
-5.548299849033355713e-02
-4.198126867413520813e-02
3.687617927789688110e-02
-8.073667064309120178e-03
7.814623415470123291e-02
4.439496435225009918e-03
7.258038222789764404e-02
-4.065299406647682190e-02
-2.206807769834995270e-02
5.344133824110031128e-02
-1.443498581647872925e-02
1.475019752979278564e-02
-1.262801419943571091e-02
2.048780396580696106e-02
-2.356888726353645325e-02
2.021551132202148438e-02
2.592951245605945587e-02
-3.911700844764709473e-02
6.928992271423339844e-02
5.936246365308761597e-02
2.593421004712581635e-02
1.577619276940822601e-02
2.903785370290279388e-02
5.576760508120059967e-03
-3.767788037657737732e-02
-2.452651597559452057e-02
-3.497564047574996948e-02
4.486951231956481934e-02
4.886199720203876495e-03
1.276576425880193710e-02
-6.923541426658630371e-03
6.941441679373383522e-04
2.173514105379581451e-02
3.932198043912649155e-03
1.930956169962882996e-02
-3.174696862697601318e-02
2.409617649391293526e-03
-1.957045122981071472e-02
3.194977343082427979e-02
1.329655945301055908e-02
-2.577660419046878815e-02
-4.007463343441486359e-03
-1.302922237664461136e-02
2.817723155021667480e-02
-2.637647092342376709e-02
-1.492472644895315170e-02
5.071304738521575928e-02
7.304486352950334549e-03
4.760737717151641846e-02
2.109496667981147766e-02
4.416602104902267456e-02
3.658613562583923340e-02
3.081611543893814087e-02
-1.865252479910850525e-02
1.568065956234931946e-02
1.888382062315940857e-02
-1.069333218038082123e-02
1.100875530391931534e-02
2.498158253729343414e-02
5.108681041747331619e-03
-2.001844905316829681e-02
-2.379577606916427612e-02
2.243614196777343750e-02
2.597049623727798462e-02
-1.681238599121570587e-02
4.662867169827222824e-03
-2.046577259898185730e-02
-3.790552495047450066e-03
-1.831825822591781616e-02
-5.212435498833656311e-02
-2.862032316625118256e-02
-5.492276046425104141e-03
4.115965217351913452e-02
9.798514656722545624e-03
-1.677485741674900055e-02
-4.072761628776788712e-03
-7.026481628417968750e-02
-1.149361208081245422e-02
1.305933017283678055e-02
4.128230735659599304e-02
1.130065415054559708e-02
4.618539661169052124e-02
-3.638802841305732727e-02
-1.371340826153755188e-02
3.815781697630882263e-02
-5.954518914222717285e-03
-2.490613376721739769e-03
2.082032524049282074e-02
1.853659749031066895e-02
-2.621072344481945038e-02
5.317197367548942566e-02
2.896522171795368195e-02
-1.119856629520654678e-02
2.532443776726722717e-02
-8.426022715866565704e-03
1.338093634694814682e-02
-3.072986193001270294e-02
-2.874426776543259621e-03
-2.323173172771930695e-02
4.783801268786191940e-03
-2.724508568644523621e-02
-8.486270671710371971e-04
-5.446628667414188385e-03
-3.724519908428192139e-02
-1.984439976513385773e-02
-2.398825436830520630e-02
-7.122067734599113464e-03
-3.138267248868942261e-02
3.486734628677368164e-02
4.170016199350357056e-02
6.984990835189819336e-02
2.668074145913124084e-02
8.283142000436782837e-03
-4.557811468839645386e-02
-3.255216032266616821e-02
2.943301387131214142e-02
2.809052541851997375e-02
3.904215991497039795e-03
-3.870828822255134583e-02
2.295234613120555878e-02
3.172695636749267578e-02
-8.171087130904197693e-03
4.485622793436050415e-02
2.182726934552192688e-02
6.339559331536293030e-03
6.060042884200811386e-03
3.671404346823692322e-02
9.136945009231567383e-02
-3.645595163106918335e-03
4.479718208312988281e-02
-2.863522060215473175e-02
1.009917352348566055e-02
5.734888464212417603e-02
1.351141091436147690e-02
-1.298268605023622513e-02
-5.119525012560188770e-04
-1.574060507118701935e-02
1.627643592655658722e-02
2.148563042283058167e-02
-1.726983301341533661e-02
7.185849547386169434e-02
2.269691415131092072e-02
5.732516944408416748e-02
1.876736432313919067e-02
1.901665818877518177e-03
1.041574217379093170e-02
-2.626457437872886658e-02
2.191189490258693695e-02
-1.697517000138759613e-02
4.815834388136863708e-02
2.822582609951496124e-02
-3.711167350411415100e-02
2.874142676591873169e-02
4.439775645732879639e-02
2.818231657147407532e-02
-5.367003753781318665e-02
9.798576124012470245e-03
1.162037224275991321e-04
-9.195875376462936401e-03
-7.312048971652984619e-02
-6.047341972589492798e-03
-3.937841206789016724e-02
-2.877877838909626007e-02
3.809639066457748413e-02
2.297446504235267639e-02
9.116605669260025024e-02
1.600227318704128265e-03
-2.295510098338127136e-02
-6.118736695498228073e-03
-5.712932348251342773e-02
-4.150971770286560059e-02
7.861894555389881134e-03
4.121076688170433044e-02
-4.232901334762573242e-02
-4.079673439264297485e-02
4.263243079185485840e-02
1.144088525325059891e-02
-2.534510754048824310e-02
1.206939201802015305e-02
-4.401956126093864441e-02
3.055960172787308693e-03
3.066388890147209167e-02
3.497869148850440979e-02
-1.563575700856745243e-03
1.040757284499704838e-03
1.028517493978142738e-03
-1.579790189862251282e-02
7.377718109637498856e-03
3.850876912474632263e-02
-4.201085120439529419e-02
2.326057851314544678e-02
-2.897812053561210632e-02
1.477518025785684586e-02
-7.262976467609405518e-02
-3.178913518786430359e-02
-2.260619215667247772e-02
3.385814651846885681e-02
-4.290173575282096863e-02
-3.987720701843500137e-03
-1.104792393743991852e-02
3.724063560366630554e-02
2.697361633181571960e-04
-1.383479405194520950e-02
2.904342836700379848e-04
9.092031978070735931e-03
-1.965831220149993896e-02
-4.937727935612201691e-03
-4.737013205885887146e-02
7.175209932029247284e-03
-1.587518118321895599e-02
3.648137301206588745e-02
3.695629769936203957e-03
-4.544793814420700073e-02
3.141517192125320435e-02
-2.973126806318759918e-02
1.667893305420875549e-02
1.324437744915485382e-02
-9.746341966092586517e-03
3.803504258394241333e-02
-8.196599036455154419e-02
-1.173281297087669373e-02
-6.147299706935882568e-02
5.468947812914848328e-02
2.644464559853076935e-02
-6.348917633295059204e-02
2.386222220957279205e-02
-1.136580575257539749e-02
-4.649424180388450623e-02
5.179394781589508057e-02
-3.208542987704277039e-02
4.097279533743858337e-02
-4.912941716611385345e-03
-5.148993432521820068e-02
3.324262797832489014e-02
1.812580274417996407e-03
-3.972058370709419250e-02
-3.818679833784699440e-03
-8.171070367097854614e-03
-2.371217356994748116e-03
1.566153764724731445e-02
-3.455844894051551819e-02
-2.664648182690143585e-02
2.273918874561786652e-02
-4.130749404430389404e-02
2.726176008582115173e-02
-3.728998079895973206e-02
3.971473313868045807e-03
-4.628758877515792847e-02
2.474527060985565186e-02
-5.641595646739006042e-02
1.952814124524593353e-02
2.543583326041698456e-02
-3.886135667562484741e-02
-1.996071776375174522e-03
-4.737738892436027527e-02
1.983368024230003357e-02
-6.271000020205974579e-03
2.797966264188289642e-02
6.246555596590042114e-02
1.452619209885597229e-02
-1.360070519149303436e-02
7.230736315250396729e-03
2.348586358129978180e-02
-7.555048912763595581e-02
-1.330199651420116425e-02
2.342377416789531708e-02
3.480097278952598572e-02
4.186229780316352844e-02
-5.374499596655368805e-03
1.830785349011421204e-02
5.113597214221954346e-02
-1.486475300043821335e-02
-3.286562487483024597e-02
-4.916477482765913010e-03
-6.668672710657119751e-02
1.336849108338356018e-02
-6.337403785437345505e-03
5.771108716726303101e-02
6.422274746000766754e-03
-1.740875840187072754e-02
-1.495834533125162125e-02
1.163827069103717804e-02
-1.656203380662191194e-06
9.541600011289119720e-03
-3.515690192580223083e-02
1.019882336258888245e-01
3.843896090984344482e-03
7.407231628894805908e-02
-3.751151636242866516e-02
-3.423069417476654053e-02
-4.624309018254280090e-02
4.019515588879585266e-02
5.094255506992340088e-02
2.389556961134076118e-03
2.240126719698309898e-03
1.308885589241981506e-02
1.407189201563596725e-02
7.298680394887924194e-02
1.532454625703394413e-03
1.427442207932472229e-02
4.758989438414573669e-03
-2.214333275333046913e-03
5.792324617505073547e-02
-4.169964417815208435e-02
-4.024633020162582397e-02
5.965532734990119934e-02
4.445321974344551563e-04
-4.952423647046089172e-02
4.206251725554466248e-02
-6.232659518718719482e-02
2.801533415913581848e-02
-9.533712640404701233e-03
-2.879883907735347748e-02
4.683065414428710938e-02
7.589781191200017929e-03
-3.014440461993217468e-02
3.216799348592758179e-02
2.215907163918018341e-02
-5.005458369851112366e-02
-4.701584577560424805e-03
-9.825298562645912170e-03
-1.723586395382881165e-02
-3.392970561981201172e-02
-2.401660755276679993e-02
-1.878061797469854355e-03
2.179374732077121735e-02
5.321875587105751038e-02
1.426657289266586304e-02
-4.359994828701019287e-02
2.426525950431823730e-02
2.054577507078647614e-02
-1.128448843955993652e-01
1.851489534601569176e-03
1.314579229801893234e-02
-5.513825640082359314e-02
2.073366194963455200e-03
-1.299480441957712173e-02
-2.838193997740745544e-02
-3.442248702049255371e-02
-1.667864248156547546e-02
9.500886313617229462e-03
-8.233835920691490173e-03
-7.033013971522450447e-04
2.781448140740394592e-02
-7.746613584458827972e-03
6.109316647052764893e-02
5.703327059745788574e-02
-2.470210939645767212e-02
2.423723228275775909e-02
2.669334353413432837e-04
2.461484074592590332e-02
-1.925932615995407104e-02
7.519442122429609299e-03
1.037670522928237915e-01
-1.773610711097717285e-02
3.492651507258415222e-02
3.206595033407211304e-02
-2.776582539081573486e-02
-5.824542418122291565e-02
8.785526268184185028e-03
-3.845197334885597229e-02
3.612320497632026672e-02
-2.311442792415618896e-02
6.719841063022613525e-02
1.179008278995752335e-02
-5.158699117600917816e-03
4.119740054011344910e-02
3.485158318653702736e-03
5.154638551175594330e-03
8.734356611967086792e-02
1.860751304775476456e-03
4.399941489100456238e-02
5.665323510766029358e-02
4.391888529062271118e-02
-2.738815359771251678e-02
2.120032906532287598e-03
1.364762429147958755e-02
-2.329829335212707520e-02
-3.367409808561205864e-03
-4.122693557292222977e-03
-1.802210509777069092e-02
4.310091584920883179e-02
-6.273648887872695923e-02
-5.251816287636756897e-02
1.886252500116825104e-02
3.823506878688931465e-03
2.571979304775595665e-03
-7.673756219446659088e-03
1.255948543548583984e-01
3.319228440523147583e-02
-9.381842683069407940e-04
2.008477784693241119e-02
-1.220931019634008408e-02
-3.273748233914375305e-02
1.677957177162170410e-02
1.160998083651065826e-02
-3.381377831101417542e-02
4.568469524383544922e-02
-4.562002792954444885e-02
-4.287392273545265198e-02
-6.765422970056533813e-02
-4.085876047611236572e-02
1.741123571991920471e-02
2.648896165192127228e-02
4.440097883343696594e-02
-3.124832175672054291e-03
-1.352946739643812180e-03
-9.756237268447875977e-03
-5.545883625745773315e-02
1.354738045483827591e-02
-8.645043522119522095e-02
-9.693956235423684120e-04
-1.415473967790603638e-02
9.687624871730804443e-03
-2.325287461280822754e-02
-7.694278657436370850e-02
-3.570560738444328308e-02
-4.099139012396335602e-03
-1.673227176070213318e-02
3.668217733502388000e-02
-3.430930431932210922e-03
-1.075530052185058594e-02
-1.130402367562055588e-02
-4.950865637511014938e-03
-5.551530979573726654e-03
-5.051541328430175781e-02
-2.601956762373447418e-02
2.833862602710723877e-02
-4.830280318856239319e-02
-3.701793029904365540e-02
7.378795649856328964e-03
1.569679565727710724e-02
-3.937725722789764404e-02
-2.475371398031711578e-02
2.071558870375156403e-02
-5.758525058627128601e-02
-3.108523041009902954e-02
-5.665047094225883484e-03
5.435323715209960938e-02
3.387724608182907104e-02
-1.067225355654954910e-02
-4.658802598714828491e-02
-2.937743812799453735e-02
-6.925600767135620117e-02
2.213042229413986206e-02
-4.741727560758590698e-02
-9.405012242496013641e-03
4.736977163702249527e-03
3.539026156067848206e-02
-1.411275379359722137e-02
-3.673726459965109825e-03
4.476693272590637207e-02
-2.824993431568145752e-02
3.088348731398582458e-02
5.289201438426971436e-02
-1.445422694087028503e-02
-5.920480564236640930e-02
8.051264286041259766e-02
-5.486478563398122787e-03
-3.120555356144905090e-02
6.648642569780349731e-02
-2.264959551393985748e-02
3.853782638907432556e-02
-7.587494328618049622e-03
-4.488785564899444580e-02
3.494465490803122520e-03
-2.959321253001689911e-02
-6.527409702539443970e-02
-3.476941492408514023e-03
9.561466425657272339e-02
-7.781127840280532837e-02
5.402037501335144043e-02
4.013037309050559998e-02
2.461178600788116455e-02
-3.291174396872520447e-02
2.258314006030559540e-02
7.507805526256561279e-02
-6.579508632421493530e-02
3.816755861043930054e-02
2.397827059030532837e-02
5.787850357592105865e-03
-2.315345965325832367e-02
5.029146745800971985e-02
5.660795606672763824e-03
-8.989324793219566345e-03
-3.270643949508666992e-02
2.465305291116237640e-02
-2.133621461689472198e-02
6.198853719979524612e-03
2.188760321587324142e-03
1.094393525272607803e-02
-1.505393162369728088e-02
-3.169576451182365417e-02
8.180741965770721436e-02
6.997203081846237183e-02
-9.018766880035400391e-02
1.237065438181161880e-02
2.579403109848499298e-02
1.371673215180635452e-02
3.894382156431674957e-03
-3.861914202570915222e-02
9.980537742376327515e-02
1.323634013533592224e-02
8.559489622712135315e-03
4.181615263223648071e-02
-1.723887585103511810e-02
-8.769239298999309540e-03
5.426355078816413879e-02
7.186867762356996536e-03
1.619965769350528717e-02
2.253412455320358276e-02
5.476175341755151749e-03
-4.967440664768218994e-02
-9.879760444164276123e-03
-7.484734803438186646e-02
-3.340004384517669678e-02
-4.522584378719329834e-02
-2.481997013092041016e-02
1.852828264236450195e-02
-6.160960067063570023e-03
2.320247143507003784e-02
-2.413799753412604332e-03
-4.320053756237030029e-02
2.044476382434368134e-02
-9.959341026842594147e-03
5.463986843824386597e-02
1.056472305208444595e-02
-1.408437266945838928e-02
4.049293696880340576e-02
2.527412958443164825e-02
-1.150985620915889740e-02
-7.598242722451686859e-03
-8.638955652713775635e-02
-1.989903859794139862e-02
-4.492681473493576050e-03
4.392839595675468445e-02
-1.737036742269992828e-02
-9.704443812370300293e-02
-5.062710866332054138e-02
-3.130384907126426697e-02
-4.739349707961082458e-02
-1.535183098167181015e-02
8.097530901432037354e-02
4.400210082530975342e-02
-4.093142971396446228e-02
-6.027395837008953094e-03
2.430736459791660309e-02
-3.403916954994201660e-02
5.200919508934020996e-02
-1.982374489307403564e-02
-3.143061324954032898e-02
3.562369383871555328e-03
-7.362994551658630371e-02
6.287457793951034546e-02
6.451268494129180908e-02
-3.091136924922466278e-02
3.833719715476036072e-02
4.530443251132965088e-02
6.413995753973722458e-03
-5.116730555891990662e-02
2.932634437456727028e-03
2.938188053667545319e-02
-2.131685800850391388e-02
1.289838645607233047e-02
3.263745084404945374e-02
3.965425863862037659e-02
-3.587627410888671875e-02
-4.479845054447650909e-03
7.226202636957168579e-02
1.880393736064434052e-02
-1.997024007141590118e-02
1.569084823131561279e-02
-5.410397052764892578e-02
1.248757541179656982e-01
-1.503735780715942383e-03
7.118616718798875809e-03
3.573161736130714417e-02
3.598886728286743164e-02
8.733637630939483643e-02
-6.340760271996259689e-03
3.560651093721389771e-02
-2.969077415764331818e-02
3.263648599386215210e-02
2.928118966519832611e-02
7.333847135305404663e-02
1.093517150729894638e-02
-2.280898950994014740e-02
5.864696577191352844e-03
1.871753111481666565e-02
8.929368108510971069e-02
1.229989808052778244e-02
9.654853492975234985e-02
4.762316122651100159e-03
1.166424620896577835e-02
-7.982737384736537933e-03
6.497580558061599731e-02
-8.263295143842697144e-02
1.439580973237752914e-02
1.092177722603082657e-02
-1.316256914287805557e-02
6.731283664703369141e-02
-5.229824222624301910e-03
1.006525829434394836e-01
-3.248171135783195496e-02
1.014664769172668457e-02
-1.232854742556810379e-02
4.491107538342475891e-02
-3.896258072927594185e-03
-5.902335047721862793e-02
-5.190625786781311035e-02
-1.905294880270957947e-02
-4.982065036892890930e-02
-2.500201575458049774e-03
-3.928568214178085327e-02
-8.811704814434051514e-03
-2.759509161114692688e-02
1.466986257582902908e-02
-5.506591126322746277e-02
-2.685691602528095245e-02
-2.145683765411376953e-02
2.260643802583217621e-02
-2.088436856865882874e-02
4.211474675685167313e-03
-4.682041332125663757e-02
5.035099014639854431e-02
7.172416895627975464e-03
3.551958128809928894e-02
-8.698245510458946228e-03
-5.190154537558555603e-02
-1.901227980852127075e-02
2.489367499947547913e-02
1.609882526099681854e-02
-4.447777755558490753e-03
-2.505365945398807526e-02
-4.183281958103179932e-02
-2.637639699969440699e-04
-5.311797559261322021e-02
-3.231641137972474098e-03
-7.551082968711853027e-02
6.700465746689587831e-05
-2.084432356059551239e-02
8.599168807268142700e-02
4.274702444672584534e-02
9.897750802338123322e-03
-7.224830240011215210e-02
-2.917406521737575531e-02
-1.319725066423416138e-02
-6.367108784615993500e-03
-2.674489840865135193e-02
1.786940963938832283e-03
-5.882741510868072510e-02
-4.408553987741470337e-02
4.882355406880378723e-02
-7.632014900445938110e-02
-3.902395069599151611e-02
5.017991364002227783e-02
8.805916458368301392e-02
-2.460319921374320984e-02
-7.918842136859893799e-03
-2.819890901446342468e-02
3.101992979645729065e-02
3.244434669613838196e-02
4.783067479729652405e-02
-4.355869442224502563e-02
4.553090780973434448e-02
-3.371598944067955017e-02
-8.754389360547065735e-03
-3.207723051309585571e-02
-4.367299377918243408e-02
-9.581357240676879883e-03
-4.306066781282424927e-02
1.163010299205780029e-02
-2.413372509181499481e-02
-4.562509059906005859e-02
3.554537892341613770e-02
-2.824677526950836182e-02
3.235473111271858215e-02
2.283246256411075592e-02
-1.488410029560327530e-02
5.506845563650131226e-02
4.292196780443191528e-02
-8.770077489316463470e-03
7.907386869192123413e-02
-9.383643977344036102e-03
-2.513035945594310760e-02
2.584027126431465149e-02
3.056279569864273071e-02
3.945383056998252869e-02
1.240873429924249649e-02
-1.568928174674510956e-02
2.801553346216678619e-02
1.526369433850049973e-02
-1.362195424735546112e-02
-4.533503949642181396e-02
-6.611138116568326950e-03
-5.801336467266082764e-02
4.801549389958381653e-02
1.436705794185400009e-02
5.173860117793083191e-02
1.901014521718025208e-02
-1.732336170971393585e-02
6.155618466436862946e-03
-2.400345914065837860e-02
-2.031223103404045105e-02
-1.511101424694061279e-02
-1.965378597378730774e-02
2.836952172219753265e-02
3.906597197055816650e-02
-2.856077067553997040e-02
5.970909725874662399e-03
-4.516996815800666809e-02
-7.175438571721315384e-03
3.981004282832145691e-02
-2.763058431446552277e-02
-1.057977136224508286e-02
2.279770746827125549e-02
-2.958480641245841980e-02
-1.138960290700197220e-02
-3.073299862444400787e-02
6.704356521368026733e-03
-4.446901008486747742e-02
-5.276294052600860596e-02
5.348362401127815247e-02
-5.787141993641853333e-02
-5.134515464305877686e-02
-4.303694516420364380e-02
-2.026907866820693016e-03
3.536291653290390968e-03
-2.299041673541069031e-02
-2.460966072976589203e-02
-2.686915360391139984e-02
5.888302996754646301e-02
-4.643553122878074646e-02
-3.244659677147865295e-02
5.457317456603050232e-02
5.614142492413520813e-02
3.771191462874412537e-03
2.333546243607997894e-02
-3.672291710972785950e-02
-8.903453499078750610e-02
3.169286996126174927e-03
-7.566818967461585999e-03
-3.788372734561562538e-03
-6.256829947233200073e-02
5.509593989700078964e-03
6.862540543079376221e-02
4.917827993631362915e-02
-3.341677039861679077e-02
-1.289129909127950668e-02
1.180502027273178101e-02
-3.461639583110809326e-02
2.984466031193733215e-02
3.916763700544834137e-03
-3.904903307557106018e-03
1.630282029509544373e-02
-1.108395028859376907e-02
4.378962144255638123e-02
-3.582346439361572266e-02
-5.898950621485710144e-02
-3.673130646347999573e-02
-2.786694094538688660e-02
1.468930579721927643e-02
5.934678018093109131e-02
-1.494828052818775177e-02
3.310017287731170654e-02
3.442030772566795349e-02
-2.916045859456062317e-02
2.990456856787204742e-02
-1.532012224197387695e-02
-5.717591848224401474e-03
4.603503271937370300e-03
-2.429689280688762665e-02
6.271673738956451416e-02
2.141549438238143921e-02
1.056698989123106003e-02
-5.637997016310691833e-02
-5.435694754123687744e-02
-5.114081501960754395e-02
-1.238575670868158340e-03
2.411475777626037598e-02
-3.060607053339481354e-02
-9.074789471924304962e-03
-4.435693100094795227e-02
-1.837091892957687378e-02
-2.745978720486164093e-02
-1.145661342889070511e-02
-4.927785135805606842e-03
-2.707051485776901245e-02
2.026521228253841400e-02
7.327506784349679947e-03
-3.309503197669982910e-02
-1.828422211110591888e-02
1.596146821975708008e-02
-5.239832773804664612e-02
6.698362529277801514e-02
1.912234537303447723e-02
2.336383238434791565e-02
6.873738765716552734e-02
-2.173985540866851807e-02
3.821774572134017944e-02
-5.379039794206619263e-02
-2.527809888124465942e-02
-4.882229864597320557e-02
-8.247013203799724579e-03
-3.439570590853691101e-02
-6.557618826627731323e-02
2.707955427467823029e-02
2.001346461474895477e-02
3.305049985647201538e-02
8.915153332054615021e-03
9.969081729650497437e-03
-9.729770943522453308e-03
-5.752238444983959198e-03
-1.894610561430454254e-02
1.895667053759098053e-02
5.848690867424011230e-03
3.824966959655284882e-03
-2.593322284519672394e-02
-3.453220054507255554e-02
-4.111490398645401001e-02
-1.370978821069002151e-02
9.427924640476703644e-03
1.014332920312881470e-01
-4.119188338518142700e-02
-3.091679885983467102e-02
-1.801021769642829895e-02
-2.303282357752323151e-02
-5.354357510805130005e-02
-4.111469164490699768e-02
-3.626671805977821350e-02
1.511129550635814667e-02
-3.922041878104209900e-02
-6.033436581492424011e-02
-4.898160113953053951e-04
-3.613208979368209839e-02
-2.305761538445949554e-02
-4.311611130833625793e-02
5.759887024760246277e-02
-4.246382974088191986e-03
-4.216726869344711304e-02
-6.152597442269325256e-02
3.636242449283599854e-02
2.483145892620086670e-02
-4.504715278744697571e-02
-3.898027166724205017e-02
3.694147244095802307e-02
-1.070332713425159454e-02
3.193543106317520142e-02
2.112890966236591339e-02
3.038722649216651917e-02
2.839904837310314178e-02
2.977128326892852783e-02
-1.849407888948917389e-02
-4.653180018067359924e-02
2.995925955474376678e-02
-3.847684478387236595e-03
3.567759692668914795e-02
-3.136103227734565735e-02
4.278235509991645813e-02
-1.107746153138577938e-03
-3.220184519886970520e-02
-3.283773548901081085e-03
8.308880962431430817e-03
-8.257666602730751038e-03
1.796823553740978241e-02
1.614074409008026123e-02
4.236255772411823273e-03
4.453045874834060669e-02
4.687908664345741272e-02
-3.075256384909152985e-02
4.304185137152671814e-02
-3.181895241141319275e-02
2.693441929295659065e-03
1.050003524869680405e-02
2.035002782940864563e-02
3.203243762254714966e-02
2.832067012786865234e-02
-4.948945716023445129e-02
2.833455428481101990e-02
3.463466465473175049e-02
2.139772661030292511e-02
4.663080908358097076e-03
-4.195240512490272522e-02
-2.646887488663196564e-02
6.288505345582962036e-02
-4.895905032753944397e-03
-3.404952958226203918e-02
3.332880139350891113e-02
1.063349097967147827e-02
-7.589782588183879852e-03
4.072403069585561752e-03
1.003210898488759995e-02
-4.351138696074485779e-02
1.973751466721296310e-03
-6.691394001245498657e-02
-7.174361497163772583e-02
3.573075681924819946e-02
2.364544430747628212e-03
-1.969942077994346619e-02
3.951780963689088821e-03
6.690409034490585327e-02
3.593783453106880188e-02
-1.912455889396369457e-03
4.666024819016456604e-02
3.990821540355682373e-02
-3.014053776860237122e-02
-3.831784054636955261e-02
-3.689115867018699646e-02
6.717646028846502304e-03
-7.379768416285514832e-03
-3.728095069527626038e-02
-4.796086624264717102e-02
-5.825390107929706573e-03
3.132353723049163818e-02
7.588335312902927399e-03
-3.395052254199981689e-02
-2.331894123926758766e-03
2.855818159878253937e-02
1.203207671642303467e-02
-4.800845310091972351e-02
1.504769455641508102e-02
5.626833811402320862e-02
-1.321266591548919678e-02
-1.351207494735717773e-02
-6.338895764201879501e-03
1.148513425141572952e-02
-2.226315066218376160e-02
-5.342019349336624146e-02
3.776460886001586914e-02
-1.528752129524946213e-02
4.917499050498008728e-02
2.864754525944590569e-03
-3.264104947447776794e-02
4.514594003558158875e-02
-1.044239476323127747e-02
-1.804269291460514069e-02
-2.981749549508094788e-02
-6.291534751653671265e-03
-2.944806218147277832e-02
2.381569333374500275e-02
-4.727654531598091125e-02
3.496821597218513489e-02
4.051270708441734314e-02
-8.084821514785289764e-03
-3.646674007177352905e-02
-2.910233102738857269e-02
-1.813152059912681580e-02
7.027597725391387939e-02
-1.479916274547576904e-02
5.443224799819290638e-04
4.898135736584663391e-02
-1.073225773870944977e-02
4.393715783953666687e-02
-2.283197082579135895e-02
-5.189392343163490295e-02
-5.223580822348594666e-02
1.004422642290592194e-02
-5.197826400399208069e-02
1.092739403247833252e-02
3.754012659192085266e-02
-6.162063218653202057e-03
2.931171841919422150e-02
-9.896090254187583923e-03
3.350041434168815613e-02
-1.632780767977237701e-02
-4.240256920456886292e-02
-1.440221350640058517e-02
-2.547698095440864563e-02
2.111109532415866852e-02
1.534851267933845520e-02
-3.626696765422821045e-02
-6.012400845065712929e-04
1.138257328420877457e-02
1.324385032057762146e-02
2.451701089739799500e-03
3.279694169759750366e-02
-1.649122498929500580e-02
-6.094203516840934753e-02
-4.582566395401954651e-02
1.884083822369575500e-02
-4.465970024466514587e-02
1.936209015548229218e-02
-6.605273485183715820e-02
5.102258920669555664e-02
7.879991084337234497e-02
3.137318044900894165e-02
-2.950550988316535950e-02
-3.502147272229194641e-02
3.877481818199157715e-02
-1.333633344620466232e-02
-2.421990223228931427e-02
3.021464124321937561e-02
-4.171385243535041809e-02
-6.119016092270612717e-03
-2.407084964215755463e-02
-2.340855821967124939e-02
-5.109167192131280899e-03
2.625381946563720703e-02
-6.994691677391529083e-03
-3.844574093818664551e-02
5.322143808007240295e-02
6.443415582180023193e-02
-3.079503588378429413e-02
-4.236527532339096069e-02
5.591253191232681274e-02
4.789243265986442566e-02
-1.458956301212310791e-02
-3.129309788346290588e-02
-1.105228345841169357e-02
1.075969450175762177e-02
3.189999610185623169e-02
4.758529737591743469e-02
1.812365651130676270e-02
8.613041788339614868e-02
-3.915900737047195435e-02
-1.076302677392959595e-02
-2.351495251059532166e-02
3.785925731062889099e-02
1.142746210098266602e-02
-3.965732082724571228e-02
-4.094030708074569702e-02
2.474303916096687317e-02
9.874749928712844849e-03
-1.096058171242475510e-02
1.546312589198350906e-02
2.709956280887126923e-02
3.022127412259578705e-02
-1.529498305171728134e-02
3.795727342367172241e-02
-3.784199059009552002e-02
7.192048244178295135e-03
-2.791785448789596558e-02
7.491700351238250732e-02
-3.696487471461296082e-02
1.907286979258060455e-02
-2.080984972417354584e-02
6.820571608841419220e-03
1.878758333623409271e-02
-2.754299901425838470e-02
-1.612225174903869629e-02
-1.065658871084451675e-02
2.304646186530590057e-02
1.600877195596694946e-02
6.573935970664024353e-03
-5.363161116838455200e-02
-5.112222209572792053e-02
3.974050655961036682e-02
1.956740207970142365e-02
-5.545193329453468323e-02
-5.844090133905410767e-02
-9.220103733241558075e-03
2.667851559817790985e-02
-6.233560293912887573e-02
1.671147160232067108e-02
6.809991784393787384e-03
-2.874962612986564636e-02
4.970609024167060852e-02
3.590228036046028137e-02
-8.158234879374504089e-03
-3.268511220812797546e-02
-3.214941918849945068e-02
-3.097942285239696503e-02
-7.129863835871219635e-03
-5.104759242385625839e-03
-8.246919140219688416e-03
4.536401946097612381e-03
-2.857228368520736694e-02
5.074625369161367416e-03
1.951077394187450409e-02
-1.939335279166698456e-02
-1.258650561794638634e-03
-1.907402882352471352e-03
-2.987910993397235870e-02
-4.913261160254478455e-02
6.211190670728683472e-02
4.210514947772026062e-02
-9.150238474830985069e-04
-2.924839034676551819e-03
-5.166306719183921814e-02
7.106696255505084991e-03
8.778735995292663574e-02
-5.576796084642410278e-02
-2.151295170187950134e-02
-8.040700107812881470e-03
-7.153376191854476929e-02
3.421533852815628052e-02
-5.156062170863151550e-02
8.204269222915172577e-03
-8.018608205020427704e-03
-3.530466929078102112e-02
5.355992540717124939e-02
3.260926157236099243e-02
-8.214926347136497498e-03
2.242546156048774719e-02
2.025749767199158669e-03
7.705055922269821167e-02
-2.313139289617538452e-02
1.844860613346099854e-02
-1.004875637590885162e-02
2.495267195627093315e-03
-2.628342015668749809e-03
3.906532749533653259e-02
-3.020131262019276619e-03
5.922857671976089478e-03
-1.585183292627334595e-02
-4.466328769922256470e-02
-8.137827739119529724e-03
-1.832071878015995026e-02
-4.496316984295845032e-02
4.108853638172149658e-02
-3.843954950571060181e-02
3.515797480940818787e-02
2.098285034298896790e-02
-3.070993907749652863e-02
1.516042742878198624e-02
4.778049886226654053e-03
4.252943396568298340e-02
-2.882580086588859558e-02
1.570514030754566193e-02
2.924705669283866882e-02
-2.630576305091381073e-02
1.178084034472703934e-02
-2.977286651730537415e-02
-6.712542846798896790e-03
2.830432541668415070e-02
5.872338637709617615e-02
2.588955685496330261e-02
6.422992050647735596e-02
-1.004686113446950912e-02
-2.067448571324348450e-02
-2.052816189825534821e-02
-5.271180719137191772e-02
-7.156341802328824997e-03
1.016512280330061913e-03
2.594513632357120514e-02
4.570886027067899704e-03
3.064479306340217590e-02
-1.033219601958990097e-02
-2.887223474681377411e-02
-1.368127763271331787e-02
1.809329912066459656e-02
4.536693915724754333e-02
2.189875580370426178e-02
4.490129183977842331e-03
2.531892806291580200e-02
-6.319305300712585449e-02
-1.883452385663986206e-02
2.210271358489990234e-02
-7.619152776896953583e-03
2.225592732429504395e-02
4.674829542636871338e-02
3.767033293843269348e-02
1.853084773756563663e-03
-6.476672366261482239e-03
-2.563107945024967194e-02
2.959058247506618500e-02
1.232460979372262955e-02
5.568583495914936066e-03
2.567768283188343048e-02
2.356834523379802704e-02
-1.707793958485126495e-02
8.007388561964035034e-03
-4.483582824468612671e-02
3.161070169880986214e-03
4.585382342338562012e-02
5.216667428612709045e-02
3.257447155192494392e-03
-2.425389364361763000e-03
4.589868336915969849e-02
-3.119617700576782227e-02
-3.191243112087249756e-02
-4.522870108485221863e-02
-2.762893587350845337e-02
-1.751259085722267628e-03
3.728594630956649780e-02
4.668616130948066711e-02
-4.904850199818611145e-02
1.885749027132987976e-02
-3.604738786816596985e-02
-5.864429846405982971e-02
1.874305494129657745e-02
5.486959591507911682e-02
-2.656243555247783661e-02
-1.299809897318482399e-03
-3.092596598435193300e-04
-1.934739761054515839e-03
1.226766686886548996e-02
-5.409544333815574646e-02
-4.869738593697547913e-02
-2.011542581021785736e-02
-2.834904566407203674e-02
9.185633622109889984e-03
1.076221745461225510e-02
2.507659606635570526e-03
3.733671456575393677e-02
-7.479602470993995667e-03
-2.363387309014797211e-02
-6.276866793632507324e-02
3.557361662387847900e-02
-2.583203464746475220e-02
1.580956624820828438e-03
-1.505875121802091599e-02
-2.739033475518226624e-02
-3.831357508897781372e-02
-3.604018688201904297e-02
3.733205050230026245e-02
1.211474090814590454e-02
-5.588071793317794800e-02
2.276709489524364471e-02
5.163030233234167099e-03
2.441034466028213501e-02
2.040037885308265686e-03
4.461490735411643982e-02
-2.551193721592426300e-02
3.526246175169944763e-02
-2.284177392721176147e-02
-3.844181820750236511e-02
-2.040137909352779388e-02
3.799612075090408325e-02
-4.976679757237434387e-02
-2.558665350079536438e-02
1.837133988738059998e-02
-1.172723062336444855e-02
1.038108393549919128e-02
-3.012004308402538300e-02
5.314713343977928162e-03
-2.843528427183628082e-02
-1.933794264914467931e-04
5.988295190036296844e-03
1.738535240292549133e-02
-3.091022185981273651e-02
4.774720946443267167e-05
-2.497101202607154846e-02
-1.139211468398571014e-02
4.455709829926490784e-03
-1.133149024099111557e-02
2.905528992414474487e-02
-1.605406403541564941e-02
4.534291848540306091e-02
1.617409288883209229e-02
-2.052987553179264069e-02
3.074716404080390930e-02
-2.606865949928760529e-02
6.345845758914947510e-02
3.769166395068168640e-02
6.808441877365112305e-02
6.076914444565773010e-02
1.793578825891017914e-02
1.139103807508945465e-02
-4.085924010723829269e-03
1.518197730183601379e-02
1.732491143047809601e-02
-4.481866955757141113e-02
3.435209766030311584e-02
4.990582820028066635e-03
-6.852003931999206543e-02
-3.584740683436393738e-02
-2.114849723875522614e-02
-4.624995961785316467e-02
-6.496470421552658081e-02
-1.261256728321313858e-02
-2.301472704857587814e-03
-2.517850510776042938e-02
-1.858721114695072174e-02
4.781762138009071350e-03
3.172831237316131592e-02
-1.428534742444753647e-02
-1.746002119034528732e-03
2.873543836176395416e-02
3.033227287232875824e-02
7.875967770814895630e-03
9.238505735993385315e-03
5.891059059649705887e-03
5.448438972234725952e-02
3.714420646429061890e-02
-1.137732062488794327e-02
-3.468508273363113403e-02
1.791365072131156921e-02
1.330109778791666031e-02
2.564218454062938690e-02
-4.494707286357879639e-02
-3.038700297474861145e-02
1.503009255975484848e-02
-3.690455108880996704e-02
-1.843623071908950806e-02
-1.581282541155815125e-02
-3.354333341121673584e-02
6.459992844611406326e-03
3.876509889960289001e-02
-4.155640304088592529e-02
1.898440718650817871e-02
-1.678450591862201691e-02
-3.853904455900192261e-02
2.881179936230182648e-02
-5.956160835921764374e-03
2.966131083667278290e-02
-4.197733476758003235e-02
3.538645431399345398e-02
-4.458988830447196960e-02
-6.661727279424667358e-02
9.324757382273674011e-03
-5.977489426732063293e-02
-2.795195765793323517e-02
2.466038428246974945e-02
-3.296079346910119057e-03
1.442373450845479965e-02
5.973051860928535461e-02
-3.720702975988388062e-02
-7.197568193078041077e-03
1.252173539251089096e-02
-2.191854082047939301e-02
9.362746961414813995e-03
5.551331862807273865e-02
-1.243532542139291763e-02
-8.305927738547325134e-03
-7.483567297458648682e-02
-5.012450739741325378e-02
3.280579671263694763e-02
1.773146353662014008e-02
-4.144378006458282471e-02
3.037022985517978668e-02
-4.337604623287916183e-03
7.376376539468765259e-02
-5.980363115668296814e-02
2.326704002916812897e-02
7.503913249820470810e-03
-8.875010535120964050e-03
9.274529293179512024e-03
8.726471662521362305e-02
2.335528656840324402e-02
2.203723974525928497e-02
7.850273512303829193e-03
4.448067862540483475e-03
-1.993844844400882721e-02
4.314840957522392273e-02
-2.329010143876075745e-02
-5.101905670017004013e-03
-3.680499643087387085e-02
3.489812463521957397e-02
5.030511319637298584e-02
-4.103925824165344238e-02
-4.055459052324295044e-02
-1.626328378915786743e-02
7.003914564847946167e-02
2.090687677264213562e-02
1.894573494791984558e-02
-6.375878304243087769e-02
2.121796272695064545e-02
2.627601614221930504e-03
-3.007233701646327972e-02
2.245300263166427612e-02
1.915789023041725159e-02
-3.077265061438083649e-02
1.076627243310213089e-02
-4.246100783348083496e-03
3.593928366899490356e-02
3.248240798711776733e-02
1.730909943580627441e-02
6.020111963152885437e-02
-1.287231780588626862e-02
-2.658798918128013611e-02
-1.424597576260566711e-02
-3.031359612941741943e-02
2.048313617706298828e-02
3.149824962019920349e-02
2.246033214032649994e-02
9.188260138034820557e-02
-1.138855051249265671e-02
-3.341205418109893799e-02
1.447916310280561447e-02
-4.455685615539550781e-02
-3.036759793758392334e-02
2.982574515044689178e-03
-4.705957323312759399e-02
-6.525672972202301025e-03
-4.101254791021347046e-02
-4.298088699579238892e-02
-2.814696356654167175e-02
-3.201752528548240662e-02
1.992284134030342102e-02
-4.841431975364685059e-02
4.270901903510093689e-02
-6.199842784553766251e-03
-6.917162239551544189e-02
-2.822727151215076447e-02
1.454974431544542313e-02
1.369614806026220322e-02
-3.973332047462463379e-02
-5.339854862540960312e-03
-3.603335237130522728e-03
6.944178044795989990e-02
-1.383435539901256561e-02
2.134696207940578461e-02
-3.364730998873710632e-02
-5.880822613835334778e-02
2.921652235090732574e-02
-3.268286213278770447e-02
5.287987366318702698e-02
-1.600266434252262115e-02
-1.366477645933628082e-02
1.693297922611236572e-02
-1.790240406990051270e-03
1.195344142615795135e-02
-2.915832772850990295e-02
1.009333878755569458e-02
-1.820260658860206604e-02
1.708421669900417328e-02
-1.471216231584548950e-02
-4.267397150397300720e-02
7.154624909162521362e-02
-6.234977394342422485e-03
-3.146909922361373901e-02
4.072157293558120728e-02
-8.848166093230247498e-03
-1.204256247729063034e-02
-4.906971380114555359e-02
-5.477704852819442749e-02
-2.668717689812183380e-02
1.785744354128837585e-02
4.043735191226005554e-02
-9.795158170163631439e-03
1.454885676503181458e-02
-2.106454782187938690e-02
1.467969175428152084e-02
-3.974832966923713684e-02
-1.442790729925036430e-03
-1.051681581884622574e-02
-8.034082129597663879e-03
-2.641873247921466827e-02
-2.414475940167903900e-02
-3.779134154319763184e-02
-5.742710083723068237e-02
5.824043601751327515e-02
2.804578654468059540e-02
1.189865288324654102e-04
-1.305363047868013382e-02
-1.531560625880956650e-02
1.275467965751886368e-02
1.957061886787414551e-02
-4.330505803227424622e-02
-4.834115132689476013e-02
-1.607903279364109039e-03
-4.511386901140213013e-02
-9.679605253040790558e-03
2.123908512294292450e-02
-8.101055398583412170e-03
-3.773564845323562622e-02
-6.652146112173795700e-03
-1.163468230515718460e-02
3.453332185745239258e-02
-1.243519317358732224e-02
-3.386156633496284485e-02
1.975988224148750305e-02
-3.387785330414772034e-02
4.547986388206481934e-02
-2.160959877073764801e-02
-1.862161979079246521e-02
-4.994492605328559875e-02
-4.836235567927360535e-02
-2.885578759014606476e-02
5.427162721753120422e-02
-1.068557612597942352e-02
-1.596566662192344666e-02
1.327926293015480042e-02
-3.532889857888221741e-02
-3.408914897590875626e-03
3.220133855938911438e-02
4.566056653857231140e-02
-1.236168481409549713e-02
-5.016510933637619019e-02
-4.751114919781684875e-02
-3.419608250260353088e-02
1.286904606968164444e-02
-4.180954769253730774e-02
5.282744392752647400e-02
-2.927923388779163361e-02
1.284291595220565796e-02
1.610179618000984192e-02
-3.545927628874778748e-02
3.030601888895034790e-02
4.906472936272621155e-02
-2.318404242396354675e-02
-5.424826964735984802e-02
4.743018001317977905e-02
-7.475327700376510620e-03
1.536008622497320175e-02
-4.542536661028862000e-02
1.838465407490730286e-02
-3.408477827906608582e-02
3.269038721919059753e-02
-8.472136105410754681e-04
-4.672478139400482178e-02
1.540509704500436783e-02
-3.334847465157508850e-02
1.538683427497744560e-03
-4.646904300898313522e-03
4.034920409321784973e-02
-2.415695227682590485e-02
1.774745434522628784e-02
-2.140172757208347321e-03
-2.184209041297435760e-02
6.575556099414825439e-02
-3.740300657227635384e-03
7.518865168094635010e-03
-3.073403798043727875e-02
9.776576189324259758e-04
8.829617872834205627e-03
-3.602308686822652817e-03
