9.231043606996536255e-02
3.276431816630065441e-04
-8.028611540794372559e-03
5.228573456406593323e-02
7.722897827625274658e-02
5.760936439037322998e-02
8.220953866839408875e-03
4.381574690341949463e-02
7.615300267934799194e-02
1.021616812795400620e-02
1.541156973689794540e-02
1.727923005819320679e-02
6.591486930847167969e-02
4.214722663164138794e-02
1.013127155601978302e-02
3.876988962292671204e-02
6.845231167972087860e-03
-3.694085637107491493e-03
-9.575854986906051636e-03
6.236612424254417419e-02
6.313048303127288818e-02
5.989333614706993103e-03
1.720713451504707336e-02
6.706830859184265137e-02
2.576600573956966400e-02
4.842488467693328857e-02
4.857499524950981140e-02
5.866765230894088745e-02
-3.522029379382729530e-03
-2.768749557435512543e-02
2.163212373852729797e-02
-1.692395098507404327e-02
-3.673724457621574402e-02
-4.065887257456779480e-02
7.345136255025863647e-02
-5.769981816411018372e-02
4.019081965088844299e-02
5.594478920102119446e-02
1.500980183482170105e-02
7.659385353326797485e-02
5.743264034390449524e-02
1.334811747074127197e-02
2.332986565306782722e-03
-4.294815286993980408e-02
-1.321082189679145813e-02
-2.730246260762214661e-02
2.867773547768592834e-02
9.492934495210647583e-02
5.385277792811393738e-02
2.304300665855407715e-02
-6.277777254581451416e-02
-8.045409806072711945e-03
6.477524340152740479e-02
2.886954508721828461e-02
3.050080686807632446e-02
7.211086899042129517e-02
-3.918222617357969284e-03
4.221195355057716370e-02
9.333521872758865356e-02
8.250271528959274292e-02
5.877256393432617188e-02
3.961321711540222168e-02
5.731311626732349396e-03
6.088148429989814758e-02
6.917245686054229736e-02
2.204213291406631470e-02
4.001084715127944946e-02
-1.563911512494087219e-02
7.552892901003360748e-03
1.317057292908430099e-02
2.105081826448440552e-02
4.377966374158859253e-02
4.388259723782539368e-02
-5.066626705229282379e-03
-8.635718375444412231e-03
2.826289646327495575e-02
-2.636612020432949066e-02
6.209759786725044250e-02
1.599841006100177765e-02
-4.271873459219932556e-02
3.270904719829559326e-02
-3.942876309156417847e-02
1.516957208514213562e-02
6.462886929512023926e-02
3.604650264605879784e-03
-3.396876901388168335e-02
-3.323382511734962463e-02
5.715865641832351685e-02
-1.885087601840496063e-02
-3.053933754563331604e-02
4.450346529483795166e-02
1.036275252699851990e-01
5.878214910626411438e-02
-6.474004685878753662e-02
-1.726669445633888245e-02
2.079499140381813049e-02
9.052724577486515045e-03
-7.671722560189664364e-04
5.675651133060455322e-02
4.623398184776306152e-02
5.382551997900009155e-02
3.273867769166827202e-03
5.480966530740261078e-03
9.029674530029296875e-02
4.124588519334793091e-02
3.228730708360671997e-02
-4.726611450314521790e-02
4.951975122094154358e-02
-3.228708729147911072e-02
6.258692592382431030e-02
2.686938643455505371e-02
1.305797509849071503e-02
3.880737721920013428e-02
-3.260344266891479492e-02
1.758689992129802704e-02
-1.627360284328460693e-02
1.061785146594047546e-01
5.979407578706741333e-03
-1.246487814933061600e-02
-2.554741688072681427e-02
2.396544627845287323e-02
2.417259849607944489e-02
-4.353613033890724182e-02
1.652759267017245293e-03
3.150558844208717346e-02
-3.109688684344291687e-02
1.909844577312469482e-02
-1.382037997245788574e-02
7.772847265005111694e-02
7.556859869509935379e-03
-3.339603543281555176e-02
-4.159011878073215485e-03
-1.222200971096754074e-02
2.717539668083190918e-03
-5.905297398567199707e-02
-6.206738296896219254e-03
-2.061285637319087982e-02
1.771060004830360413e-02
6.865225732326507568e-02
7.707068324089050293e-02
1.259244792163372040e-02
-2.170351566746830940e-03
-1.659041037783026695e-03
-2.379002608358860016e-02
2.256943844258785248e-02
1.237074472010135651e-02
-8.207537233829498291e-03
6.479173898696899414e-02
-2.601408027112483978e-02
1.557569857686758041e-02
3.135359659790992737e-02
-1.670032925903797150e-02
-1.050849910825490952e-02
2.371688187122344971e-02
7.305837236344814301e-03
1.556807477027177811e-02
5.828133784234523773e-03
2.489774860441684723e-02
3.860796242952346802e-02
2.367729507386684418e-02
2.176665514707565308e-02
-7.582636550068855286e-03
8.661413192749023438e-02
-1.456404011696577072e-02
-3.008379414677619934e-02
-8.533706888556480408e-03
-6.240680068731307983e-02
3.325756266713142395e-02
3.436110913753509521e-02
-3.025831840932369232e-02
4.108015913516283035e-03
-1.231736503541469574e-02
-2.903562039136886597e-03
-3.978332504630088806e-02
-5.442054942250251770e-02
5.720539018511772156e-02
1.265817042440176010e-02
3.060704842209815979e-02
-5.727262049913406372e-02
3.894221410155296326e-02
-4.333756864070892334e-02
7.165589369833469391e-03
-1.989906094968318939e-02
4.516075178980827332e-02
6.160630285739898682e-02
-2.390561392530798912e-03
3.137674182653427124e-02
6.324782967567443848e-02
4.727358743548393250e-02
2.043111808598041534e-02
1.763226278126239777e-02
-3.406718373298645020e-02
4.159138537943363190e-03
1.047153025865554810e-02
8.409964852035045624e-03
2.296980842947959900e-02
8.171601220965385437e-03
3.322016075253486633e-02
-2.785790711641311646e-02
7.482525892555713654e-03
3.034494444727897644e-02
-9.119108319282531738e-02
2.896600402891635895e-02
-3.630979917943477631e-03
4.787547886371612549e-02
1.912457682192325592e-02
5.124656111001968384e-02
9.352106600999832153e-03
5.635232105851173401e-02
1.961069740355014801e-02
-2.178570441901683807e-02
-6.852383958175778389e-04
6.111435592174530029e-03
-2.453346177935600281e-02
2.602918073534965515e-02
1.450874097645282745e-02
6.896986812353134155e-02
3.737106546759605408e-02
-2.899993769824504852e-02
-3.330640494823455811e-02
-3.669113386422395706e-03
2.409285679459571838e-02
1.299719978123903275e-02
3.485105931758880615e-02
6.238053739070892334e-02
7.644558791071176529e-03
2.883873181417584419e-03
3.734777495265007019e-02
4.129131883382797241e-02
8.635810762643814087e-02
1.404966879636049271e-02
4.269769042730331421e-02
-1.543694920837879181e-02
4.745089262723922729e-02
5.563206598162651062e-02
-3.115513734519481659e-02
-2.024577185511589050e-02
-1.915458962321281433e-02
-1.295310631394386292e-02
4.969377070665359497e-02
6.100233644247055054e-02
-2.563195489346981049e-02
2.050329558551311493e-02
3.263349831104278564e-02
5.440449342131614685e-02
-8.598139509558677673e-03
6.334744393825531006e-02
9.107609279453754425e-03
4.092507809400558472e-02
-3.587600949686020613e-04
2.271146886050701141e-02
2.179736085236072540e-02
2.463268814608454704e-03
2.123585902154445648e-02
5.808811634778976440e-03
3.891745815053582191e-03
