-2.313664555549621582e-01
2.536168694496154785e-01
8.533871173858642578e-02
2.324872277677059174e-02
-2.001696079969406128e-02
-1.398318111896514893e-01
1.029398217797279358e-01
1.127414181828498840e-01
-1.680574566125869751e-01
3.563497215509414673e-02
-8.060500770807266235e-02
-8.612819015979766846e-02
-1.316284984350204468e-01
1.492688655853271484e-01
1.142620742321014404e-01
1.189797967672348022e-01
-1.917915046215057373e-02
2.169541567564010620e-01
-6.275373697280883789e-02
-1.041140258312225342e-01
-6.232768297195434570e-02
1.676115207374095917e-02
1.053458601236343384e-01
-1.149597913026809692e-01
-2.347733825445175171e-01
-1.608722507953643799e-01
-1.472371816635131836e-01
1.188214197754859924e-01
3.534650057554244995e-02
-4.889723658561706543e-02
-1.867035180330276489e-01
-9.356296807527542114e-02
1.097911386750638485e-03
-2.827048115432262421e-02
8.979563415050506592e-02
9.585010260343551636e-02
-1.092572361230850220e-01
4.504698887467384338e-02
2.318874699994921684e-03
8.100470900535583496e-02
-1.791308671236038208e-01
2.160464525222778320e-01
-9.619685262441635132e-02
1.652859449386596680e-01
2.421791404485702515e-01
4.942192509770393372e-02
1.343494802713394165e-01
-2.261102497577667236e-01
7.171870768070220947e-02
1.263979077339172363e-01
2.383603155612945557e-02
1.721466481685638428e-01
-1.007192209362983704e-01
2.127992920577526093e-02
-1.475003212690353394e-01
1.505299359560012817e-01
-6.014764308929443359e-02
2.176048457622528076e-01
-1.725966781377792358e-01
2.561255544424057007e-02
-1.637075543403625488e-01
-8.671339601278305054e-02
-3.493527695536613464e-02
6.525135785341262817e-02
-2.615751624107360840e-01
-7.224145531654357910e-02
-1.034178808331489563e-01
-7.781362533569335938e-02
6.723314523696899414e-02
-9.107090532779693604e-02
-1.644046045839786530e-02
1.512439996004104614e-01
-3.798978775739669800e-02
5.486600473523139954e-02
-1.760215312242507935e-01
-8.621857315301895142e-02
5.061193183064460754e-02
-7.605137676000595093e-02
6.495241820812225342e-02
-8.435561507940292358e-02
4.022226482629776001e-02
-3.345496952533721924e-03
-1.808895322028547525e-04
8.466088026762008667e-02
5.846603214740753174e-02
-7.587017118930816650e-02
-7.441616151481866837e-03
-1.359618604183197021e-01
-1.214584633708000183e-01
-9.427375346422195435e-02
4.348221048712730408e-02
-1.647771745920181274e-01
-1.278366148471832275e-01
-2.759337425231933594e-02
-5.986006930470466614e-02
-1.232885047793388367e-01
-9.955943375825881958e-02
1.407370120286941528e-01
-4.088979586958885193e-02
1.176551356911659241e-01
1.162706911563873291e-01
-4.396808147430419922e-02
-2.146764546632766724e-01
-1.252008825540542603e-01
-6.185548380017280579e-02
-3.837054222822189331e-02
-1.834040135145187378e-02
-1.037869006395339966e-01
1.999970898032188416e-02
1.748524606227874756e-02
8.279521763324737549e-02
-5.681472644209861755e-02
-6.437167525291442871e-02
6.803588569164276123e-02
1.307623386383056641e-01
-2.477161213755607605e-02
-4.648790135979652405e-02
-1.368772536516189575e-01
8.354665338993072510e-02
1.108728274703025818e-01
-1.458794474601745605e-01
-1.524703353643417358e-01
2.479635551571846008e-02
6.591293960809707642e-02
1.093733385205268860e-01
2.931769564747810364e-02
1.798591949045658112e-02
-1.982853002846240997e-02
-1.045008748769760132e-01
-1.270166411995887756e-02
1.040666829794645309e-02
-1.809191852807998657e-01
1.488240957260131836e-01
-9.864941239356994629e-02
9.051900357007980347e-02
3.710939735174179077e-02
1.887168735265731812e-01
6.075151264667510986e-02
-4.525808990001678467e-02
-1.837794780731201172e-01
-4.807029291987419128e-02
1.611393392086029053e-01
1.100861504673957825e-01
-1.448851823806762695e-01
-2.636561095714569092e-01
1.331780999898910522e-01
1.556124538183212280e-01
-1.552319619804620743e-02
2.414407283067703247e-01
-7.730065286159515381e-02
1.924134790897369385e-01
1.307299584150314331e-01
1.313763558864593506e-01
1.136458665132522583e-02
-1.023288667201995850e-01
-9.508744627237319946e-02
1.055337935686111450e-01
-1.313806027173995972e-01
-6.853108853101730347e-02
5.534623935818672180e-02
-4.833102598786354065e-02
-3.676596796140074730e-03
-1.400195658206939697e-01
9.471596032381057739e-02
-1.065172329545021057e-01
4.285667091608047485e-04
1.706551611423492432e-01
1.278917789459228516e-01
-4.050340875983238220e-02
-2.046064734458923340e-01
5.262171849608421326e-03
-1.432794425636529922e-02
8.677336573600769043e-02
-1.114335507154464722e-01
-5.472410470247268677e-03
-1.503652334213256836e-02
-1.661769859492778778e-02
-1.030991002917289734e-01
1.199984401464462280e-01
-1.402743458747863770e-01
2.390841394662857056e-02
5.764816328883171082e-02
-7.532444596290588379e-02
-8.683931082487106323e-02
-1.185681149363517761e-01
5.453293770551681519e-02
2.106239199638366699e-01
-2.866027504205703735e-02
6.976694613695144653e-02
-5.899248179048299789e-03
2.041561156511306763e-01
1.167843788862228394e-01
1.380394548177719116e-01
-6.021187454462051392e-02
-2.586407028138637543e-02
-1.378756463527679443e-01
2.626376599073410034e-02
-3.806020691990852356e-02
1.098352968692779541e-01
1.533648222684860229e-01
-2.464032471179962158e-01
1.629625111818313599e-01
-1.782207936048507690e-01
2.083669155836105347e-01
-2.317309752106666565e-02
-7.740966230630874634e-02
1.185958608984947205e-01
-2.631161920726299286e-02
1.393712908029556274e-01
-1.078737229108810425e-01
2.671744674444198608e-02
3.298362344503402710e-02
-5.914765596389770508e-02
1.453680545091629028e-01
9.141635894775390625e-02
6.769888848066329956e-02
-1.475352197885513306e-01
-1.383069175062701106e-04
5.593210458755493164e-02
-6.382229179143905640e-02
1.311974972486495972e-01
9.533937275409698486e-02
-7.302858680486679077e-02
-1.663821786642074585e-01
-1.353482343256473541e-02
-5.425131414085626602e-03
-1.293374598026275635e-01
1.514954417943954468e-01
1.493234932422637939e-01
-1.833212226629257202e-01
2.131046503782272339e-01
-1.401175111532211304e-01
2.056599780917167664e-02
2.697092108428478241e-02
5.230887979269027710e-02
-7.850521802902221680e-02
1.671009212732315063e-01
-2.145088464021682739e-01
-2.210540510714054108e-02
-2.039685398340225220e-01
-1.066147685050964355e-01
-7.247085869312286377e-02
-2.377435564994812012e-02
6.782071292400360107e-02
-2.004411444067955017e-02
-1.172607298940420151e-02
-1.426384299993515015e-01
-9.527212381362915039e-02
5.742286145687103271e-02
-9.483298659324645996e-02
-5.086304992437362671e-02
-5.678562447428703308e-02
-7.733808457851409912e-02
7.167674601078033447e-02
3.325152024626731873e-02
-1.239045262336730957e-01
4.420849308371543884e-02
-2.574990391731262207e-01
8.876142650842666626e-02
1.103135719895362854e-01
1.633195579051971436e-01
1.833756864070892334e-01
8.141165226697921753e-02
-1.130151897668838501e-01
-7.144661992788314819e-02
2.160817198455333710e-02
-2.346283197402954102e-01
1.321056485176086426e-01
1.552516408264636993e-02
-1.790128499269485474e-01
-2.478227466344833374e-01
1.319101154804229736e-01
4.126217961311340332e-02
-2.250437438488006592e-01
3.534174058586359024e-03
1.004557460546493530e-01
1.765042990446090698e-01
-9.275968372821807861e-02
-7.758238166570663452e-02
-1.047107651829719543e-01
1.474204659461975098e-01
-2.798289619386196136e-02
-3.339994698762893677e-02
1.942205615341663361e-02
9.758394956588745117e-02
-5.637215822935104370e-02
-2.036654762923717499e-02
7.813572138547897339e-02
-1.642573028802871704e-01
1.245685443282127380e-01
1.360100954771041870e-01
-6.163424998521804810e-02
1.011443212628364563e-01
-4.175272583961486816e-02
-8.386799693107604980e-02
-3.094235360622406006e-01
-2.367570400238037109e-01
-7.311297208070755005e-02
8.808425813913345337e-02
-1.236752048134803772e-01
-2.012047767639160156e-01
1.086414605379104614e-01
1.282709240913391113e-01
-1.177111789584159851e-01
-1.360644586384296417e-02
-3.461881726980209351e-02
-2.338136881589889526e-01
-1.534375697374343872e-01
4.713870584964752197e-02
7.181634008884429932e-02
-1.028336212038993835e-01
-8.442375808954238892e-02
-7.980145514011383057e-03
-7.802025228738784790e-02
-1.441367417573928833e-01
-8.492869883775711060e-02
-3.639113530516624451e-02
-7.926460355520248413e-02
4.987309686839580536e-03
9.280391037464141846e-02
1.249154955148696899e-01
-1.141789853572845459e-01
1.126687526702880859e-01
1.510427445173263550e-01
-5.001034587621688843e-02
-3.955397009849548340e-02
4.520887881517410278e-02
-2.472762316465377808e-01
2.380045205354690552e-01
1.362020969390869141e-01
1.460724174976348877e-01
1.865676045417785645e-01
-1.530658006668090820e-01
7.590286433696746826e-02
-1.370016634464263916e-01
8.427721261978149414e-02
-1.091823726892471313e-01
-1.811018139123916626e-01
-5.750416964292526245e-02
1.340605914592742920e-01
-6.270863115787506104e-02
3.328736498951911926e-02
-1.263738721609115601e-01
1.064989939332008362e-01
1.259661614894866943e-01
8.189216256141662598e-02
-1.899158805608749390e-01
2.212003618478775024e-02
-9.919043630361557007e-02
6.218310445547103882e-02
-2.063133716583251953e-01
1.762405186891555786e-01
-1.635701507329940796e-01
-2.132574915885925293e-01
1.441852003335952759e-01
1.560476124286651611e-01
-1.370031088590621948e-01
5.751171335577964783e-02
1.926580965518951416e-01
1.233235746622085571e-02
2.605455517768859863e-01
1.478189527988433838e-01
1.348145902156829834e-01
1.648265272378921509e-01
-8.891623467206954956e-02
-4.327841103076934814e-02
-1.444488912820816040e-01
-3.279684856534004211e-02
-4.328895360231399536e-03
-2.831098139286041260e-01
-1.634710133075714111e-01
1.065877676010131836e-01
-9.605173021554946899e-02
-1.706939190626144409e-01
1.570344553329050541e-03
1.623938530683517456e-01
-9.643909521400928497e-03
1.159504987299442291e-02
-1.470140665769577026e-01
1.202396210283041000e-02
-2.140272706747055054e-01
9.874057024717330933e-02
-1.880404166877269745e-02
1.333186328411102295e-01
2.355713546276092529e-01
-4.152993857860565186e-02
-2.853707671165466309e-01
8.180253207683563232e-02
-2.050407528877258301e-01
-1.735587604343891144e-02
-2.856837511062622070e-01
-1.198026239871978760e-01
-3.372634351253509521e-01
1.534582674503326416e-01
-9.779473394155502319e-02
-8.845294266939163208e-02
-2.212040126323699951e-01
-9.193221479654312134e-02
4.096261784434318542e-02
1.220169067382812500e-01
1.683712899684906006e-01
-1.491613388061523438e-01
-3.367573022842407227e-02
-9.716674685478210449e-02
-1.306362450122833252e-01
1.426366716623306274e-02
-8.706511557102203369e-02
-4.508906975388526917e-02
-2.487071454524993896e-01
9.965918213129043579e-02
-5.696663632988929749e-03
1.164921969175338745e-01
-1.759568788111209869e-02
-2.302132360637187958e-02
7.025063037872314453e-02
-2.619574368000030518e-01
1.706499606370925903e-02
1.946889609098434448e-01
1.072699278593063354e-01
-1.381672024726867676e-01
-1.541333943605422974e-01
1.013955101370811462e-01
-7.990475744009017944e-02
2.336937785148620605e-01
1.682520955801010132e-01
1.256633251905441284e-01
2.569668591022491455e-01
2.497557550668716431e-02
-1.412935107946395874e-01
8.519705384969711304e-02
1.181654259562492371e-01
-1.306959390640258789e-01
-7.028593122959136963e-02
8.338245004415512085e-02
-2.315156608819961548e-01
1.298547387123107910e-01
-1.415371596813201904e-01
-8.554220944643020630e-02
1.883833855390548706e-01
-4.466445744037628174e-02
8.687478303909301758e-02
-4.535934329032897949e-02
-1.633396148681640625e-01
1.540815085172653198e-01
4.651385545730590820e-02
-2.682225108146667480e-01
-1.600721478462219238e-01
1.520385891199111938e-01
-1.449077129364013672e-01
-9.142334014177322388e-02
2.611464634537696838e-02
-2.135291695594787598e-01
6.046139076352119446e-02
9.501646459102630615e-02
-2.329096198081970215e-01
-1.338302344083786011e-01
2.138247638940811157e-01
-2.015668451786041260e-01
4.595720395445823669e-02
2.124912478029727936e-02
1.408940106630325317e-01
-1.804762035608291626e-01
-1.599995195865631104e-01
2.335162274539470673e-02
1.843384504318237305e-01
-1.693021357059478760e-01
2.291970700025558472e-02
1.341747939586639404e-01
1.185156479477882385e-01
-2.149881571531295776e-01
9.640363045036792755e-03
5.334530025720596313e-02
2.299290895462036133e-02
-1.474078446626663208e-01
1.848015338182449341e-01
-1.206185445189476013e-01
-2.333894930779933929e-02
2.318411022424697876e-01
6.872906535863876343e-02
3.752101957798004150e-02
-1.239366680383682251e-01
-2.767784334719181061e-02
1.526381671428680420e-01
-9.655029326677322388e-02
-7.779722660779953003e-02
-2.070217765867710114e-02
-1.334222704172134399e-01
-1.129035055637359619e-01
-4.537071287631988525e-02
2.180465869605541229e-02
-3.470404818654060364e-02
-2.088932543992996216e-01
-5.528467521071434021e-02
1.342054605484008789e-01
-1.231476962566375732e-01
5.803718417882919312e-02
-6.986983865499496460e-02
1.404637545347213745e-01
-1.389511525630950928e-01
-4.603615030646324158e-02
-4.893876239657402039e-02
6.940804421901702881e-02
2.324622124433517456e-01
-1.473336219787597656e-01
1.357135269790887833e-02
1.851417124271392822e-01
-7.481748610734939575e-02
4.896828904747962952e-02
-1.058638840913772583e-01
7.219440769404172897e-03
-2.252376377582550049e-01
-2.351807616651058197e-02
-9.705792181193828583e-03
1.007468998432159424e-01
-2.880640327930450439e-02
4.058927297592163086e-02
1.205674409866333008e-01
-1.379187554121017456e-01
-1.137836724519729614e-01
2.084849178791046143e-01
-1.364289410412311554e-02
1.646846085786819458e-01
1.823561266064643860e-02
7.794226706027984619e-02
6.983694434165954590e-02
1.115370914340019226e-01
5.483072623610496521e-02
1.829717755317687988e-01
1.620044410228729248e-01
4.067775234580039978e-02
-6.193276867270469666e-02
5.275435745716094971e-02
-1.911279000341892242e-02
6.574421375989913940e-02
-6.866740062832832336e-03
1.276198178529739380e-01
8.631042391061782837e-02
-7.539559155702590942e-02
7.969257980585098267e-02
8.421322703361511230e-02
5.874867737293243408e-02
9.050620347261428833e-02
-1.434946805238723755e-01
-5.363253504037857056e-02
-3.460200875997543335e-02
-4.842323437333106995e-02
5.105052888393402100e-02
-2.318383194506168365e-02
-6.552700698375701904e-02
1.152672246098518372e-01
-3.275759890675544739e-02
-1.715081185102462769e-02
1.172528415918350220e-01
3.429336100816726685e-02
9.412758052349090576e-02
1.030636429786682129e-01
-7.348918169736862183e-02
8.771666884422302246e-02
-3.565599769353866577e-02
-6.434852257370948792e-04
-7.543368637561798096e-02
1.119958087801933289e-01
-3.260523779317736626e-03
-9.100301191210746765e-03
1.496276557445526123e-01
-9.130511432886123657e-02
3.490657731890678406e-02
9.222671389579772949e-02
-2.917495928704738617e-02
1.852418854832649231e-02
-8.652115613222122192e-02
-1.002079918980598450e-01
-5.709641054272651672e-02
-1.549967527389526367e-01
-1.564237326383590698e-01
-1.142298206686973572e-01
6.184373795986175537e-02
-1.096836552023887634e-01
-1.381935477256774902e-01
2.198702096939086914e-01
-9.546205401420593262e-02
9.375430643558502197e-02
1.687411069869995117e-01
1.795001924037933350e-01
5.581842362880706787e-02
-3.594306111335754395e-02
1.330720447003841400e-02
-1.013997569680213928e-01
-3.521668910980224609e-02
4.012907389551401138e-03
6.385691463947296143e-02
1.292101889848709106e-01
1.913608796894550323e-02
-8.571917191147804260e-03
-2.795419096946716309e-02
1.698205247521400452e-02
6.454150378704071045e-02
1.361394971609115601e-01
8.454766869544982910e-02
-4.640762135386466980e-02
-4.323929548263549805e-02
-4.698621481657028198e-02
4.062738269567489624e-03
-1.529889646917581558e-02
4.572714865207672119e-02
8.530785143375396729e-02
-4.917252063751220703e-02
2.105639874935150146e-01
-2.861527726054191589e-02
-3.644224628806114197e-02
-1.917488574981689453e-01
3.177520632743835449e-02
2.984989667311310768e-03
1.918255239725112915e-01
8.592145144939422607e-02
-1.547405123710632324e-01
-7.079053670167922974e-02
6.439851969480514526e-02
-2.361505478620529175e-02
2.416349761188030243e-02
1.683540642261505127e-01
-4.832859709858894348e-02
-1.499709486961364746e-02
1.363580226898193359e-01
4.944644868373870850e-02
5.814959853887557983e-02
1.543276309967041016e-01
-6.611337512731552124e-02
1.359238028526306152e-01
2.308469265699386597e-02
-7.294570654630661011e-02
-3.492828086018562317e-02
-6.585996598005294800e-04
1.898167878389358521e-01
1.079002246260643005e-01
-7.695297151803970337e-02
1.291598286479711533e-02
4.510638490319252014e-02
-1.454444378614425659e-01
-5.492673814296722412e-02
-7.125651463866233826e-03
1.034249588847160339e-01
-1.281655579805374146e-01
-9.296130388975143433e-02
3.846372663974761963e-02
-1.365794092416763306e-01
2.611080184578895569e-02
1.438071727752685547e-01
4.910845682024955750e-02
2.188300490379333496e-01
-9.210831671953201294e-02
1.442822366952896118e-01
4.942521452903747559e-02
5.545745044946670532e-02
3.398037329316139221e-02
2.256220579147338867e-02
4.069910943508148193e-02
1.860988326370716095e-02
-8.707346767187118530e-02
-8.324208110570907593e-02
1.239305734634399414e-01
-1.458487510681152344e-01
-6.151973083615303040e-02
-1.693491451442241669e-02
-4.309608787298202515e-02
4.531522840261459351e-02
1.026316806674003601e-01
-2.989334519952535629e-03
-2.714001573622226715e-02
1.054858509451150894e-02
3.024993650615215302e-02
2.061338424682617188e-01
-1.786081865429878235e-02
1.178180351853370667e-01
5.694790929555892944e-02
2.309181988239288330e-01
-9.601520001888275146e-02
-1.137097328901290894e-01
-4.333699494600296021e-02
-1.201274842023849487e-01
7.667544763535261154e-03
1.180034428834915161e-01
1.929524093866348267e-01
-7.974508404731750488e-02
-1.168791502714157104e-01
-1.463330984115600586e-01
-7.711033103987574577e-04
-7.946088165044784546e-02
5.525722354650497437e-02
-3.742357343435287476e-02
5.785097554326057434e-02
2.153909504413604736e-01
-3.545260429382324219e-02
-1.279108412563800812e-02
-1.286544501781463623e-01
-2.027166448533535004e-02
-6.257548928260803223e-02
-1.168302223086357117e-01
-9.132912009954452515e-02
-5.266954377293586731e-02
4.859790788032114506e-04
3.050884418189525604e-02
9.843260794878005981e-02
5.335368961095809937e-02
-5.433434620499610901e-02
9.542181342840194702e-02
-6.805024296045303345e-02
-2.140483260154724121e-02
-7.243016362190246582e-02
-4.744563251733779907e-03
6.582340598106384277e-02
4.571856465190649033e-03
-1.950940191745758057e-01
-1.116999238729476929e-01
1.517452150583267212e-01
8.751128613948822021e-02
1.087959036231040955e-01
2.157202214002609253e-01
-1.110038068145513535e-02
-4.802931100130081177e-02
7.167892530560493469e-03
1.565908193588256836e-01
1.044012457132339478e-01
-1.223848387598991394e-02
-7.381569594144821167e-02
1.535723954439163208e-01
1.073506623506546021e-01
-1.030987277626991272e-01
1.720667034387588501e-01
1.404634565114974976e-01
-5.144252255558967590e-02
-1.296898573637008667e-01
1.555393487215042114e-01
-1.469937562942504883e-01
1.210330277681350708e-01
2.027158439159393311e-02
4.605273157358169556e-02
8.565470576286315918e-03
1.754977740347385406e-02
-5.032421275973320007e-02
-1.613934524357318878e-02
1.792173534631729126e-01
1.089287456125020981e-02
-6.593196839094161987e-02
-7.355935871601104736e-03
-1.055444851517677307e-01
9.700322151184082031e-02
2.600661851465702057e-02
-8.707252144813537598e-02
-1.170030701905488968e-02
1.029612794518470764e-01
1.347256153821945190e-01
5.597042292356491089e-02
1.276447325944900513e-01
1.612765640020370483e-01
-3.281323984265327454e-02
1.311816722154617310e-01
8.440434187650680542e-02
2.961669676005840302e-02
-1.502825766801834106e-01
6.561842560768127441e-02
-2.040110230445861816e-01
-4.100365191698074341e-02
-2.250642701983451843e-02
-4.487284272909164429e-02
-1.661519892513751984e-02
5.678778514266014099e-02
1.243057474493980408e-01
-1.631733775138854980e-02
-3.541591390967369080e-02
8.018268644809722900e-02
1.471716463565826416e-01
1.380938887596130371e-01
-1.083673462271690369e-01
-1.045599952340126038e-01
7.410994172096252441e-02
1.453280001878738403e-01
-3.427112475037574768e-02
2.180899232625961304e-01
7.088887691497802734e-02
1.460424512624740601e-01
-9.248246997594833374e-02
-1.737335696816444397e-02
-7.659953832626342773e-02
7.294084131717681885e-02
1.954451650381088257e-01
-5.505160242319107056e-02
3.529510647058486938e-02
-4.632865265011787415e-02
-6.244902685284614563e-02
-1.758586019277572632e-01
1.069545820355415344e-01
9.429512917995452881e-02
-7.726344466209411621e-02
1.301155076362192631e-03
-9.458961337804794312e-02
-1.284305453300476074e-01
-3.056060150265693665e-02
8.719523996114730835e-02
4.200065508484840393e-03
1.104986369609832764e-01
-3.026496246457099915e-02
-7.610442489385604858e-02
-1.381057500839233398e-01
1.167491525411605835e-01
1.081576570868492126e-01
-7.082412391901016235e-02
1.484435051679611206e-01
-4.559041932225227356e-02
-8.720293641090393066e-03
-4.709313437342643738e-02
1.570426970720291138e-01
6.895584519952535629e-03
-1.308852434158325195e-01
-1.250107139348983765e-01
3.494282439351081848e-02
-1.097079366445541382e-01
-3.920684754848480225e-02
1.274508982896804810e-01
-7.548709865659475327e-03
4.771601036190986633e-02
7.607220672070980072e-03
-1.359006613492965698e-01
5.469055101275444031e-02
-4.226738959550857544e-02
3.887505736202001572e-03
-2.449536174535751343e-01
-1.308076977729797363e-01
-1.234724223613739014e-01
1.382390111684799194e-01
2.270377241075038910e-03
-4.000908136367797852e-02
-1.981197856366634369e-02
-3.426911775022745132e-03
-8.354757726192474365e-02
1.060100942850112915e-01
-1.918627917766571045e-01
-8.458651602268218994e-03
2.015879936516284943e-02
1.354488283395767212e-01
1.001637876033782959e-01
-5.046616867184638977e-02
-1.710632443428039551e-02
3.367746621370315552e-02
-2.912202477455139160e-02
2.582069486379623413e-02
1.327508687973022461e-01
2.740271389484405518e-02
1.927576027810573578e-02
4.635628685355186462e-02
3.866653516888618469e-02
-6.755722314119338989e-02
2.081588804721832275e-01
1.067365407943725586e-01
1.606701165437698364e-01
-2.299520745873451233e-02
6.398221477866172791e-03
-6.899622082710266113e-02
1.851000241003930569e-03
3.068102598190307617e-01
1.382096409797668457e-01
1.035439074039459229e-01
3.711291402578353882e-02
8.454768359661102295e-02
2.215840667486190796e-01
3.401538357138633728e-02
-1.347570121288299561e-01
8.938665501773357391e-03
-1.022694408893585205e-01
1.862668544054031372e-01
-1.662267930805683136e-02
2.528754249215126038e-02
-2.744271792471408844e-02
2.379589900374412537e-02
-7.789138704538345337e-02
-4.109511896967887878e-02
9.118080884218215942e-02
2.520306408405303955e-01
-1.501302719116210938e-01
1.280288845300674438e-01
2.809147350490093231e-02
1.055581569671630859e-01
8.375811576843261719e-02
7.936233282089233398e-02
1.860436946153640747e-01
1.865284889936447144e-01
-1.011127047240734100e-02
-2.100052312016487122e-03
-1.106909289956092834e-01
1.325424462556838989e-01
-2.436946332454681396e-02
3.517602803185582161e-03
-9.090594202280044556e-02
-1.106016570702195168e-03
5.781006067991256714e-02
1.232023686170578003e-01
2.579395659267902374e-02
-7.596969604492187500e-02
1.069189906120300293e-01
9.061237424612045288e-02
3.410225361585617065e-02
-1.615280099213123322e-02
2.552291378378868103e-02
1.020953580737113953e-01
2.472578734159469604e-02
8.306486159563064575e-02
-8.112211711704730988e-03
-5.126461386680603027e-03
1.539026945829391479e-01
5.256725940853357315e-03
-1.387998014688491821e-01
5.417402833700180054e-03
1.275461465120315552e-01
3.699003532528877258e-02
-1.956277489662170410e-01
-1.602501571178436279e-01
5.355496332049369812e-02
-1.190679371356964111e-01
-1.035927832126617432e-01
-8.900285512208938599e-02
-8.206567913293838501e-02
2.036710828542709351e-02
7.240416854619979858e-02
7.799991965293884277e-02
-1.328796148300170898e-01
1.731357425451278687e-01
-1.337406039237976074e-01
9.283020347356796265e-02
9.784081019461154938e-03
-5.796981276944279671e-04
-6.685139983892440796e-02
-6.929483264684677124e-02
-4.342855419963598251e-03
-1.296515613794326782e-01
-9.185682982206344604e-03
-6.122941523790359497e-02
8.555285632610321045e-03
5.740122497081756592e-02
3.717854560818523169e-04
2.955107204616069794e-02
-1.582568138837814331e-02
-3.967206552624702454e-02
-6.891369819641113281e-02
1.803642883896827698e-02
7.039653509855270386e-02
-2.784204110503196716e-02
2.439937181770801544e-02
1.033032089471817017e-01
-8.672152180224657059e-04
2.049781680107116699e-01
-1.053079292178153992e-01
6.911027431488037109e-02
4.506685584783554077e-02
-5.184207111597061157e-02
-2.011121362447738647e-01
-4.720724746584892273e-02
-5.766234826296567917e-03
-1.069230213761329651e-01
7.491862773895263672e-02
4.951124265789985657e-02
-1.144722774624824524e-01
2.151987887918949127e-02
-6.586875766515731812e-02
1.499312669038772583e-01
-2.351698279380798340e-02
3.373702988028526306e-02
1.838499866425991058e-02
-1.135618090629577637e-01
-1.447359472513198853e-01
-2.164120785892009735e-02
8.107410371303558350e-02
6.670476403087377548e-03
-2.646011486649513245e-02
9.123691916465759277e-02
-1.080988943576812744e-01
-1.483476608991622925e-01
-3.042366169393062592e-02
2.748453021049499512e-01
2.990853786468505859e-02
2.715892158448696136e-02
-2.283218950033187866e-01
-2.117849439382553101e-01
2.176491543650627136e-02
-9.367338567972183228e-02
2.530160844326019287e-01
-6.389798223972320557e-02
-1.254707202315330505e-02
1.022919788956642151e-01
2.386062033474445343e-02
-2.646797895431518555e-02
9.541338682174682617e-02
2.551691979169845581e-02
5.172431468963623047e-02
-7.195004075765609741e-02
2.881526574492454529e-02
-1.192942112684249878e-01
2.017590776085853577e-02
4.524358734488487244e-02
-1.403400301933288574e-01
1.440409421920776367e-01
-1.092028319835662842e-01
-9.259963035583496094e-02
-5.862053483724594116e-02
2.021938413381576538e-01
4.943626374006271362e-02
2.827364392578601837e-02
4.070480912923812866e-02
1.680313050746917725e-01
-7.564091682434082031e-02
3.584362193942070007e-02
8.310507237911224365e-02
-1.892942339181900024e-01
4.233425483107566833e-02
-4.201800376176834106e-02
-1.147997528314590454e-01
-8.285665884613990784e-03
-9.377471357583999634e-02
-6.489025056362152100e-02
-8.967743813991546631e-02
-4.411181434988975525e-02
1.810939908027648926e-01
2.424829825758934021e-02
-4.950769245624542236e-02
1.718752086162567139e-01
2.136855423450469971e-01
-1.189758032560348511e-01
-3.947177901864051819e-02
1.402109162881970406e-03
-1.055860370397567749e-01
-1.530728191137313843e-01
7.591260224580764771e-02
-5.264496058225631714e-02
-3.942117094993591309e-02
2.300260812044143677e-01
-1.076247990131378174e-01
7.036446779966354370e-02
-1.231940016150474548e-01
3.345510736107826233e-02
7.249247282743453979e-02
3.421092033386230469e-02
-8.567539602518081665e-02
-1.471075862646102905e-01
6.435087323188781738e-02
-1.044996976852416992e-01
-5.606658384203910828e-02
-9.309394657611846924e-02
2.114715129137039185e-01
-1.885118633508682251e-01
1.523815095424652100e-01
1.434349715709686279e-01
1.382156461477279663e-01
3.858485817909240723e-02
6.522940844297409058e-02
-2.121024765074253082e-02
2.531049549579620361e-01
1.541592776775360107e-01
-2.182120382785797119e-01
-5.330068618059158325e-02
-7.206283509731292725e-02
1.537729427218437195e-02
-1.397365331649780273e-01
-1.549613624811172485e-01
1.885860115289688110e-01
-1.502892374992370605e-01
-1.452105492353439331e-01
-1.065192371606826782e-01
-3.494800999760627747e-02
-1.271204501390457153e-01
1.638841778039932251e-01
6.681071221828460693e-02
1.857627183198928833e-02
-5.018993839621543884e-02
3.492753580212593079e-02
-2.534041702747344971e-01
-1.432078629732131958e-01
-7.928154431283473969e-03
1.138428822159767151e-01
1.493997033685445786e-02
2.447636574506759644e-01
-9.635549038648605347e-02
2.224247306585311890e-01
-2.068070769309997559e-01
-1.140151172876358032e-03
1.415292266756296158e-02
1.114620044827461243e-01
4.625892266631126404e-02
3.048253357410430908e-01
4.194651916623115540e-02
5.625192448496818542e-02
2.403549700975418091e-01
6.645629554986953735e-02
-1.212992221117019653e-01
2.132155299186706543e-01
-7.978347688913345337e-02
5.481097847223281860e-02
-1.634435504674911499e-01
5.490138381719589233e-02
6.319820135831832886e-02
-2.599634230136871338e-02
-2.748494409024715424e-02
1.396425217390060425e-01
6.857237964868545532e-02
-1.668912172317504883e-02
-3.274290636181831360e-02
1.337817609310150146e-01
-2.024422138929367065e-01
1.804252713918685913e-01
6.281859241425991058e-03
-8.134318143129348755e-02
-1.567429164424538612e-03
-1.197691336274147034e-01
-1.220233365893363953e-02
-5.756330862641334534e-02
1.980233341455459595e-01
-3.834970295429229736e-02
-9.236896038055419922e-02
-3.158908784389495850e-01
1.225789487361907959e-01
-1.471322476863861084e-01
-7.963171601295471191e-02
-3.292403370141983032e-02
1.594099998474121094e-01
-1.686392351984977722e-02
-1.228985860943794250e-01
1.154276821762323380e-02
-2.081672698259353638e-01
7.536741322837769985e-04
2.052531838417053223e-01
8.427423238754272461e-02
-9.106297791004180908e-02
-2.814316377043724060e-02
-1.891746185719966888e-02
-1.459087878465652466e-01
-1.644156426191329956e-01
-2.012887224555015564e-02
1.587610319256782532e-02
-1.227885708212852478e-01
2.719347365200519562e-02
-2.169300317764282227e-01
1.697705537080764771e-01
-1.427316218614578247e-01
4.270102945156395435e-04
1.869053021073341370e-02
-3.830248117446899414e-02
1.610416471958160400e-01
-7.112386077642440796e-02
-1.160496845841407776e-02
-7.012943923473358154e-02
-5.480698123574256897e-02
-1.753275282680988312e-02
1.666579246520996094e-01
-4.945864900946617126e-02
1.434128382243216038e-03
-4.398817941546440125e-02
-9.978001564741134644e-02
-1.030621156096458435e-01
-1.333343237638473511e-01
2.522356808185577393e-01
6.149467825889587402e-02
-1.588815748691558838e-01
-1.384244263172149658e-01
-1.403384506702423096e-01
1.561566442251205444e-01
-8.886624127626419067e-02
-2.083283811807632446e-01
-5.912530049681663513e-02
6.219967617653310299e-04
-7.464633136987686157e-02
-1.807027161121368408e-01
3.925595059990882874e-02
5.875435471534729004e-02
8.299563080072402954e-02
-5.281010642647743225e-02
1.351049840450286865e-01
1.477608829736709595e-01
1.313602775335311890e-01
-6.835251301527023315e-02
2.295997291803359985e-01
1.042667701840400696e-01
-1.204745098948478699e-01
-1.419974118471145630e-01
-1.078809648752212524e-01
5.105297639966011047e-02
-1.770551800727844238e-01
1.721297055482864380e-01
9.187396062770858407e-05
-1.011694446206092834e-01
6.514090113341808319e-03
1.976847201585769653e-01
-1.127018034458160400e-01
-8.398412168025970459e-02
3.747803717851638794e-02
-1.117968559265136719e-02
-8.538786321878433228e-02
5.609865114092826843e-02
-1.703338623046875000e-01
1.028868407011032104e-01
2.036053501069545746e-02
1.491479109972715378e-03
-6.994318217039108276e-02
-1.023847311735153198e-01
1.232525333762168884e-01
-1.173563953489065170e-02
-6.694494932889938354e-02
-1.212678253650665283e-01
-4.715517535805702209e-02
5.264341458678245544e-02
3.886832669377326965e-02
1.148748844861984253e-01
1.147601604461669922e-01
6.808792054653167725e-02
-1.239915285259485245e-02
-6.243191892281174660e-04
5.036209151148796082e-02
-3.936864435672760010e-02
2.599081210792064667e-02
-1.144429519772529602e-01
-6.377449631690979004e-02
1.071074903011322021e-01
-8.073573559522628784e-02
5.207474529743194580e-02
1.685930490493774414e-01
1.539846062660217285e-01
1.588296294212341309e-01
-5.870944820344448090e-03
1.661507934331893921e-01
-1.227983012795448303e-01
-1.201538220047950745e-01
-3.517938032746315002e-02
-1.896346569992601871e-03
2.706076484173536301e-03
3.884028643369674683e-02
-1.853333786129951477e-02
-1.763689815998077393e-01
1.810814589262008667e-01
-6.200045347213745117e-02
1.038373634219169617e-02
5.711608752608299255e-02
4.265582934021949768e-02
1.829678937792778015e-02
-1.465721577405929565e-01
-8.246626704931259155e-02
-5.452573671936988831e-02
-1.893155276775360107e-02
2.534758485853672028e-02
-5.266768485307693481e-02
1.777927391231060028e-02
9.889122098684310913e-02
1.569549292325973511e-01
9.457974135875701904e-02
6.507271528244018555e-02
-9.159945696592330933e-02
-1.888297796249389648e-01
-5.345560144633054733e-03
1.468647271394729614e-01
-1.059418991208076477e-01
2.041239887475967407e-01
2.253344058990478516e-01
-1.299064457416534424e-01
-1.379041075706481934e-01
1.061221882700920105e-01
-5.695781856775283813e-02
1.093200966715812683e-01
-7.753318548202514648e-02
9.932108223438262939e-03
6.821821443736553192e-03
-1.880271136760711670e-01
9.764423221349716187e-02
-1.756815910339355469e-01
-2.270907163619995117e-02
1.719057857990264893e-01
1.965944916009902954e-01
9.541599452495574951e-02
8.380447328090667725e-02
1.197031512856483459e-01
-5.825481936335563660e-02
-1.700752973556518555e-01
-6.234905496239662170e-02
1.629559844732284546e-01
-2.703070342540740967e-01
3.991924971342086792e-02
-2.986078709363937378e-02
-3.952571749687194824e-02
-8.331485092639923096e-02
6.986466050148010254e-02
1.843313723802566528e-01
-5.146747455000877380e-03
-9.669767320156097412e-02
1.809510588645935059e-01
-2.140887379646301270e-01
-2.547947317361831665e-02
-1.327031552791595459e-01
-1.313374936580657959e-01
-1.750807911157608032e-01
-1.115503907203674316e-01
-9.725657105445861816e-02
1.570524461567401886e-02
2.477549761533737183e-02
1.116085723042488098e-01
-2.403348870575428009e-02
8.968353271484375000e-02
-1.979476585984230042e-02
-1.414662450551986694e-01
-1.623286865651607513e-02
-1.653715521097183228e-01
1.807141602039337158e-01
-1.355787664651870728e-01
-3.403436625376343727e-03
-8.597338199615478516e-02
1.027086898684501648e-01
1.281743198633193970e-01
-1.923417598009109497e-01
2.076529711484909058e-01
1.084534227848052979e-01
-5.773179233074188232e-02
5.992335453629493713e-02
6.955359876155853271e-02
8.834448643028736115e-03
-8.688779920339584351e-02
1.848579496145248413e-01
1.473687589168548584e-01
1.661633700132369995e-01
-7.628863304853439331e-02
-5.738094076514244080e-02
6.496208161115646362e-02
-1.815282404422760010e-01
-1.154258847236633301e-01
9.426032006740570068e-02
2.137289941310882568e-01
7.329772412776947021e-02
1.700146347284317017e-01
1.100836973637342453e-02
7.132130209356546402e-03
-6.493078172206878662e-02
1.254102215170860291e-02
-3.200859948992729187e-02
-6.394216418266296387e-02
-1.755881458520889282e-01
1.900550127029418945e-01
1.673284620046615601e-01
2.037740498781204224e-01
-7.522157579660415649e-02
-1.266383677721023560e-01
8.814888447523117065e-02
4.153649508953094482e-02
2.226868830621242523e-02
-4.423810914158821106e-02
4.258199036121368408e-02
7.710364460945129395e-02
5.611490085721015930e-02
-1.383196413516998291e-01
6.282975431531667709e-03
5.022859200835227966e-02
-1.405025869607925415e-01
1.312724053859710693e-01
-8.916813880205154419e-02
-6.631708145141601562e-02
-8.723644539713859558e-03
4.707283154129981995e-02
-1.828356459736824036e-02
-6.690064072608947754e-02
2.536073625087738037e-01
-9.624925255775451660e-02
-4.096989706158638000e-02
-2.951818890869617462e-02
-4.320793971419334412e-02
-1.279098540544509888e-01
2.157183885574340820e-01
-5.799836362712085247e-04
-9.816583245992660522e-02
1.797009706497192383e-01
8.790437132120132446e-02
1.563070863485336304e-01
2.029199600219726562e-01
-4.778616596013307571e-03
-1.567459702491760254e-01
-8.454989641904830933e-02
4.407629370689392090e-02
4.859521985054016113e-02
-1.772183692082762718e-03
-7.757582515478134155e-02
1.593836495885625482e-04
5.774496868252754211e-02
1.450964063405990601e-01
-1.905898004770278931e-01
-1.028444394469261169e-01
-9.906616993248462677e-03
-9.729799628257751465e-02
-1.501126289367675781e-01
2.265672199428081512e-02
2.260799258947372437e-01
-9.684612601995468140e-02
-4.684530571103096008e-02
4.275238886475563049e-02
-6.906986236572265625e-02
-5.520142614841461182e-02
6.368368864059448242e-02
1.600156128406524658e-01
3.501585125923156738e-02
1.135150790214538574e-01
-9.821514599025249481e-03
-5.514182522892951965e-02
-1.243568360805511475e-01
1.910633593797683716e-01
5.416749045252799988e-04
-1.708943694829940796e-01
-1.066236644983291626e-01
-9.157299995422363281e-03
2.367234410485252738e-04
-8.689481765031814575e-02
2.261245399713516235e-01
1.700009256601333618e-01
1.206180751323699951e-01
1.515211611986160278e-01
-1.320877820253372192e-01
-9.040525555610656738e-02
1.259929984807968140e-01
-6.886301189661026001e-02
-4.545870237052440643e-03
6.014299765229225159e-02
-2.953604795038700104e-03
-1.823380440473556519e-01
1.046562194824218750e-02
-6.070802733302116394e-02
7.773050665855407715e-02
-6.668278574943542480e-02
-6.794647127389907837e-02
4.732516035437583923e-02
-5.916306376457214355e-02
2.456528246402740479e-01
-1.037441045045852661e-01
1.508190482854843140e-02
-1.258677840232849121e-01
-2.271983474493026733e-01
-1.322328597307205200e-01
-1.687534153461456299e-01
8.597844094038009644e-02
-1.124698445200920105e-01
-1.216744112753076479e-05
-9.201005101203918457e-03
-8.143452554941177368e-02
-1.014154925942420959e-01
-5.766649171710014343e-02
-1.723890602588653564e-01
4.091696441173553467e-02
6.285791844129562378e-02
-9.083575010299682617e-02
-2.468791604042053223e-01
-1.534537523984909058e-01
1.025942806154489517e-02
-1.258765459060668945e-01
1.700315773487091064e-01
-1.662158779799938202e-02
-2.543301321566104889e-02
1.991447433829307556e-02
1.094871535897254944e-01
2.978457510471343994e-02
-1.807626783847808838e-01
-3.841088037006556988e-04
-1.518866121768951416e-01
-3.242180868983268738e-02
3.330251947045326233e-02
-1.143753305077552795e-01
2.185894995927810669e-01
-1.566280275583267212e-01
1.707515269517898560e-01
1.397415995597839355e-01
-9.086225181818008423e-03
-2.115930430591106415e-02
7.938101887702941895e-02
-3.692540898919105530e-02
-7.113409042358398438e-02
1.148178204894065857e-01
-3.851706162095069885e-02
1.268579959869384766e-01
1.352983266115188599e-01
-1.689678579568862915e-01
-1.316297352313995361e-01
-4.693948850035667419e-02
-1.523424685001373291e-01
1.452373415231704712e-01
-1.039145588874816895e-01
-8.551404625177383423e-02
-2.446422539651393890e-02
2.683000452816486359e-02
-1.175123751163482666e-01
-6.159458681941032410e-02
1.527087483555078506e-02
-5.799464136362075806e-02
-1.095868796110153198e-01
-1.354334875941276550e-02
2.999652549624443054e-02
1.940698176622390747e-01
-1.655591428279876709e-01
-4.409538581967353821e-02
-2.816968262195587158e-01
5.431541055440902710e-02
-7.235667109489440918e-02
-3.124657273292541504e-02
8.811226487159729004e-02
-9.808532893657684326e-02
-1.215366870164871216e-01
-4.456489160656929016e-02
-3.788737207651138306e-02
1.672961264848709106e-01
-1.117881461977958679e-01
-1.730631291866302490e-01
3.987184539437294006e-02
6.365714967250823975e-02
3.232829645276069641e-02
-1.268910914659500122e-01
2.032919377088546753e-01
-1.334560848772525787e-02
1.262787431478500366e-01
-4.444442689418792725e-02
3.251031786203384399e-02
-6.724851578474044800e-02
1.589791178703308105e-01
-1.165379062294960022e-01
-1.118393093347549438e-01
-8.618129044771194458e-02
-3.805910795927047729e-02
-8.510830998420715332e-02
4.509373381733894348e-02
-1.293431371450424194e-01
-1.591583043336868286e-01
-2.294560521841049194e-01
2.083802670240402222e-01
3.603728488087654114e-02
1.877867877483367920e-01
2.643904983997344971e-01
2.263857796788215637e-02
2.377239018678665161e-01
9.874108433723449707e-02
-8.007422089576721191e-02
4.407368134707212448e-03
-8.873511105775833130e-02
-9.717556089162826538e-02
1.392310410737991333e-01
-1.934331059455871582e-01
4.958372563123703003e-02
2.538262009620666504e-01
2.073264569044113159e-01
-7.642162591218948364e-02
1.194200143218040466e-01
-1.090413108468055725e-01
-9.073048084974288940e-02
-1.435107588768005371e-01
4.208151996135711670e-02
-3.243777155876159668e-02
-9.245074540376663208e-02
7.565759122371673584e-02
-1.380119621753692627e-01
-8.679641783237457275e-02
1.634862124919891357e-01
1.861543655395507812e-01
-1.182643845677375793e-01
-1.051002442836761475e-01
6.069554388523101807e-02
-1.125342398881912231e-01
-3.367779776453971863e-02
-5.136435106396675110e-02
7.561314851045608521e-02
1.131319999694824219e-01
1.508825719356536865e-01
-8.376007527112960815e-02
-8.108242414891719818e-03
-6.193029880523681641e-02
-1.040169447660446167e-01
2.512487173080444336e-01
-1.450383216142654419e-01
-1.335340589284896851e-01
2.339016199111938477e-01
-1.440680921077728271e-01
-2.234611660242080688e-02
1.112633720040321350e-01
-1.477424353361129761e-01
4.828371852636337280e-02
-4.082762822508811951e-02
-1.909767091274261475e-02
-2.123034931719303131e-02
7.561937905848026276e-03
-7.704436033964157104e-02
-9.632981568574905396e-02
1.415361911058425903e-01
-1.621611602604389191e-02
-7.084142416715621948e-03
-8.784164488315582275e-02
3.984138742089271545e-02
1.769167184829711914e-01
-1.303786635398864746e-01
-4.643226566258817911e-04
1.233287602663040161e-01
-2.591693103313446045e-01
1.306575983762741089e-01
1.825387626886367798e-01
5.286649614572525024e-02
-2.376754023134708405e-02
1.194589585065841675e-01
8.635517954826354980e-02
-2.390153333544731140e-02
-6.120109930634498596e-02
6.164911389350891113e-02
6.327855587005615234e-02
-3.782403841614723206e-02
-5.813148245215415955e-02
-6.260909722186625004e-04
-1.693170964717864990e-01
-1.311106234788894653e-01
9.144484251737594604e-02
3.761116787791252136e-02
-8.127871900796890259e-02
1.628824323415756226e-01
-2.269272804260253906e-01
-1.268887668848037720e-01
-4.147807508707046509e-02
-1.713042259216308594e-01
-9.623520076274871826e-02
1.550627220422029495e-02
1.209128871560096741e-01
-1.458568312227725983e-02
-8.413352817296981812e-02
-1.111265458166599274e-02
-9.407107718288898468e-03
1.316084563732147217e-01
-8.952479064464569092e-02
1.409009844064712524e-01
-1.909416317939758301e-01
-4.273777082562446594e-02
1.940907686948776245e-01
-1.066823825240135193e-01
-1.213282868266105652e-01
-5.654360167682170868e-03
5.954100191593170166e-02
2.173150181770324707e-01
2.401892691850662231e-01
-4.832875356078147888e-02
4.030775278806686401e-03
2.208408415317535400e-01
4.184682667255401611e-02
-2.360267378389835358e-02
-1.841065138578414917e-01
1.648402363061904907e-01
-7.697773724794387817e-02
-1.096860393881797791e-01
-4.687038809061050415e-02
-8.299433439970016479e-02
-3.175706416368484497e-02
3.113214485347270966e-02
1.148349195718765259e-01
-1.266180723905563354e-01
-7.427693158388137817e-02
4.168908577412366867e-03
-3.478188440203666687e-02
2.083393782377243042e-01
1.493750661611557007e-01
-7.731650024652481079e-02
-1.286690086126327515e-01
-2.984525635838508606e-02
1.103263795375823975e-01
-2.068899720907211304e-01
3.127761185169219971e-02
1.136561576277017593e-02
-8.086176961660385132e-02
-3.948654234409332275e-02
-1.333609521389007568e-01
-1.433468312025070190e-01
1.290073692798614502e-01
-2.085562348365783691e-01
2.186521589756011963e-01
7.458222657442092896e-02
-1.747145503759384155e-01
4.991354793310165405e-02
3.119169548153877258e-02
-6.786674261093139648e-02
-2.217057794332504272e-01
-1.552551686763763428e-01
-1.143501326441764832e-01
1.136484444141387939e-01
-1.572057045996189117e-02
1.572554111480712891e-01
-1.135285664349794388e-02
-7.869550026953220367e-03
-1.059508100152015686e-01
-1.373542696237564087e-01
-1.928484253585338593e-02
1.084164008498191833e-01
-1.818184368312358856e-02
1.781975030899047852e-01
-4.249414801597595215e-02
1.516034305095672607e-01
-8.937126398086547852e-02
-1.033905819058418274e-01
5.102092772722244263e-02
1.719224005937576294e-01
-1.584222167730331421e-01
-8.229012787342071533e-02
1.099051907658576965e-01
-1.737835630774497986e-02
2.947464818134903908e-04
-7.795029878616333008e-02
1.207199245691299438e-01
-5.179786309599876404e-02
1.932608634233474731e-01
-1.660881787538528442e-01
2.150823920965194702e-02
-1.000925227999687195e-01
1.240431517362594604e-01
-6.291601061820983887e-02
5.879159644246101379e-02
-9.135659039020538330e-02
-3.067080304026603699e-02
-1.691796779632568359e-01
-7.999848574399948120e-02
1.168491616845130920e-01
-2.097807377576828003e-01
2.627520635724067688e-02
-1.298476010560989380e-01
-5.101686343550682068e-02
1.932752132415771484e-01
-3.326651826500892639e-02
1.397678554058074951e-01
1.996723860502243042e-01
1.209519952535629272e-01
1.476610004901885986e-01
-7.656498253345489502e-02
-1.382520049810409546e-01
1.705113053321838379e-01
-1.059033945202827454e-01
-7.543913275003433228e-02
1.158829126507043839e-02
-4.159380216151475906e-03
5.258199945092201233e-02
1.756196171045303345e-01
6.057909503579139709e-02
-3.502527624368667603e-02
1.215316057205200195e-01
8.520679175853729248e-02
1.181900650262832642e-01
-9.813652932643890381e-02
-1.375142368488013744e-03
3.938340395689010620e-02
1.800669729709625244e-01
1.838031858205795288e-01
6.059110164642333984e-02
-2.884581685066223145e-01
1.207464784383773804e-01
-2.485508657991886139e-02
1.542874872684478760e-01
-1.142199784517288208e-01
1.667350679636001587e-01
3.498735139146447182e-03
-9.938683360815048218e-02
-2.036935985088348389e-01
-7.974530011415481567e-02
-1.273296177387237549e-01
-5.596026778221130371e-02
-4.068684950470924377e-02
-5.405065789818763733e-02
1.558803617954254150e-01
1.779606044292449951e-01
-1.851376029662787914e-03
-4.024414718151092529e-02
-1.157310977578163147e-01
-1.664358004927635193e-02
4.988996312022209167e-02
4.681001231074333191e-02
-8.977747522294521332e-03
3.260704874992370605e-01
1.608114689588546753e-01
3.351125633344054222e-03
-1.523141860961914062e-01
-3.446686267852783203e-02
1.022901609539985657e-01
-5.942667368799448013e-03
-1.251947730779647827e-01
-1.377607733011245728e-01
-2.080653328448534012e-03
-9.997814893722534180e-02
-1.132729053497314453e-01
-1.134341508150100708e-01
-7.940738648176193237e-02
1.924733078340068460e-04
2.939721941947937012e-02
7.660172879695892334e-02
-9.005504660308361053e-03
4.563319683074951172e-02
-3.727231919765472412e-02
-3.550780192017555237e-02
1.991874724626541138e-01
1.109344586730003357e-01
-1.961225271224975586e-01
-1.403712034225463867e-01
6.397701799869537354e-02
-1.497913748025894165e-01
-1.703567951917648315e-01
-1.750836521387100220e-01
-1.090906634926795959e-01
-1.942240297794342041e-01
-1.907748430967330933e-01
1.612187772989273071e-01
-2.473715506494045258e-02
4.207905381917953491e-02
1.022933423519134521e-01
-7.858466356992721558e-03
8.826182037591934204e-02
3.067158535122871399e-02
-1.769723892211914062e-01
-8.576413244009017944e-02
-1.112720444798469543e-01
-8.605121821165084839e-02
-1.604170799255371094e-01
8.243629336357116699e-02
1.155549064278602600e-01
-5.623942986130714417e-02
9.321858733892440796e-02
7.091569155454635620e-02
4.165179654955863953e-02
-6.229691952466964722e-02
-5.835957080125808716e-02
1.839167065918445587e-02
2.182230651378631592e-01
-4.227617755532264709e-02
4.032729938626289368e-02
-1.417032778263092041e-01
-2.538979351520538330e-01
1.829991699196398258e-03
1.606834232807159424e-01
-8.957364410161972046e-02
2.608360350131988525e-01
5.604328215122222900e-02
-3.448035195469856262e-02
1.235263515263795853e-02
1.765945553779602051e-01
1.806931495666503906e-01
-1.915693432092666626e-01
-1.596206724643707275e-01
1.425666362047195435e-01
-7.333709392696619034e-03
1.064794734120368958e-01
6.018226500600576401e-03
9.068126976490020752e-02
-5.737786367535591125e-02
-1.138978973031044006e-01
-9.657430648803710938e-02
-1.326159536838531494e-01
8.003500849008560181e-02
-1.867465116083621979e-02
9.529457986354827881e-02
1.223886609077453613e-01
1.954723298549652100e-01
-8.472406119108200073e-02
-6.739624589681625366e-02
2.055867463350296021e-01
-1.441841423511505127e-01
-1.194493621587753296e-01
6.052171066403388977e-02
-8.204684592783451080e-03
5.361486598849296570e-02
-8.048909902572631836e-02
3.333586454391479492e-02
7.184221595525741577e-02
1.666933447122573853e-01
6.153435632586479187e-02
-3.822812438011169434e-02
-1.176205500960350037e-01
-4.372937232255935669e-02
8.440547436475753784e-02
-1.013188064098358154e-02
1.017818413674831390e-02
-1.546612828969955444e-01
6.910064816474914551e-02
-6.084070727229118347e-02
6.427377462387084961e-02
1.024274504743516445e-03
-1.879871487617492676e-01
-1.405402552336454391e-02
-3.941668570041656494e-02
1.844359636306762695e-01
-3.714308515191078186e-02
-1.189955472946166992e-01
8.652701042592525482e-03
-5.635944008827209473e-02
-5.537445098161697388e-02
1.534299552440643311e-01
-1.550461351871490479e-01
2.314085364341735840e-01
5.705077946186065674e-02
1.019013226032257080e-01
-1.376496721059083939e-02
-4.044126346707344055e-02
-1.788132190704345703e-01
3.080072253942489624e-02
1.576369814574718475e-02
-8.744787424802780151e-02
4.183040559291839600e-02
1.711441553197801113e-03
2.404728233814239502e-01
-1.325479149818420410e-01
-4.954999685287475586e-02
1.721140593290328979e-01
-2.200486958026885986e-01
-1.440437510609626770e-02
1.814025640487670898e-01
3.488561511039733887e-02
7.454289495944976807e-02
5.988199263811111450e-02
2.451604604721069336e-02
1.351905986666679382e-02
-1.762866415083408356e-02
-5.568217113614082336e-02
-1.785866916179656982e-01
-6.136424839496612549e-02
1.321565657854080200e-01
2.379213273525238037e-02
-1.751764714717864990e-01
1.441840827465057373e-01
-5.038511473685503006e-03
5.077524110674858093e-02
1.399931460618972778e-01
-1.255137920379638672e-01
1.137241255491971970e-02
1.063035707920789719e-02
1.000103950500488281e-01
-1.179086230695247650e-02
-1.795568764209747314e-01
-5.444842204451560974e-02
2.414816915988922119e-01
1.918043009936809540e-02
-6.601624190807342529e-02
1.343710422515869141e-01
1.379055976867675781e-01
1.605228632688522339e-01
1.532489508390426636e-01
-1.298464089632034302e-01
-3.318427503108978271e-02
-1.277785599231719971e-01
-5.325183272361755371e-02
1.469573527574539185e-01
1.398144513368606567e-01
-3.050608374178409576e-02
-7.609345018863677979e-02
-2.077329158782958984e-02
2.404127083718776703e-02
-2.016239799559116364e-02
1.046290039084851742e-03
-8.952211588621139526e-02
-6.353344768285751343e-02
1.263069952983641997e-05
2.450515031814575195e-01
1.371762752532958984e-01
1.173592731356620789e-01
6.920520216226577759e-02
-1.879882961511611938e-01
-3.632482886314392090e-02
-1.231781095266342163e-01
1.385324895381927490e-01
-6.590382009744644165e-02
3.012199513614177704e-02
-2.900784909725189209e-01
1.108228564262390137e-01
-8.131623268127441406e-03
-2.157117128372192383e-01
-7.860378921031951904e-02
5.110277608036994934e-02
-8.061809465289115906e-03
1.471968591213226318e-01
-5.613411217927932739e-02
1.343934834003448486e-01
6.975568365305662155e-03
-1.673827469348907471e-01
2.315062880516052246e-01
2.095240503549575806e-01
2.300733700394630432e-02
-2.405000105500221252e-02
-7.150432467460632324e-02
-1.225170046091079712e-01
-1.639761626720428467e-01
-3.333353251218795776e-02
-1.439391076564788818e-01
1.011518612504005432e-01
2.620769143104553223e-01
-9.993568807840347290e-02
-1.628002971410751343e-01
8.437580615282058716e-02
1.723904609680175781e-01
1.535614281892776489e-01
3.193507492542266846e-01
8.270065486431121826e-02
-1.074948757886886597e-01
-1.795854419469833374e-02
7.383108884096145630e-02
1.327251195907592773e-01
4.419790580868721008e-02
1.518159061670303345e-01
1.236080676317214966e-01
-5.377769470214843750e-02
5.538851767778396606e-02
-5.464430153369903564e-02
-1.872697621583938599e-01
-1.190932244062423706e-01
1.659661680459976196e-01
-8.156693726778030396e-02
3.369848802685737610e-02
-1.168319731950759888e-01
1.030131801962852478e-01
4.778068140149116516e-02
-7.659935206174850464e-02
2.079594284296035767e-01
2.134458273649215698e-01
8.865123242139816284e-02
1.194803416728973389e-01
-1.438082903623580933e-01
-4.268614202737808228e-02
6.981658190488815308e-02
2.725099585950374603e-02
-1.504935920238494873e-01
1.225493997335433960e-01
3.326858580112457275e-02
1.563724875450134277e-01
-2.745715901255607605e-02
2.036833204329013824e-02
-9.435535967350006104e-02
8.223380148410797119e-02
-6.317165493965148926e-02
-1.578782647848129272e-01
-1.552963852882385254e-01
1.475829817354679108e-02
1.516219675540924072e-01
-1.196116134524345398e-01
1.777374893426895142e-01
1.989791095256805420e-01
-1.395494490861892700e-01
1.461646109819412231e-01
1.127761155366897583e-01
7.769584655761718750e-02
1.367988884449005127e-01
-1.619722247123718262e-01
1.810250431299209595e-02
3.467057272791862488e-02
-5.123228952288627625e-02
1.234602332115173340e-01
1.843728311359882355e-02
1.954823732376098633e-02
1.001224070787429810e-01
-1.288817375898361206e-01
9.883160889148712158e-02
2.068496346473693848e-01
5.459439754486083984e-02
4.343258216977119446e-02
-1.624801903963088989e-01
9.611213952302932739e-02
2.794133871793746948e-02
1.437519639730453491e-01
-4.153407737612724304e-02
6.750053167343139648e-02
3.012697212398052216e-02
-8.924340456724166870e-02
2.546240091323852539e-01
-6.498564034700393677e-02
5.912931263446807861e-02
7.961982488632202148e-02
1.389466319233179092e-02
-7.164617627859115601e-02
-4.094864055514335632e-02
8.929759263992309570e-02
8.158607780933380127e-02
2.909943647682666779e-02
-5.330354906618595123e-03
7.921514660120010376e-02
1.663642562925815582e-02
1.198257580399513245e-01
-6.069145724177360535e-02
2.701011486351490021e-02
6.842244882136583328e-03
-9.610145539045333862e-02
-9.248206019401550293e-02
-1.508552879095077515e-01
-5.098906159400939941e-02
-7.677684724330902100e-02
1.385719180107116699e-01
5.636788532137870789e-02
1.079169381409883499e-02
1.335276365280151367e-01
3.259542956948280334e-02
-4.135308414697647095e-02
1.238177623599767685e-02
2.970207668840885162e-02
1.304849535226821899e-01
-1.015153303742408752e-01
-1.012984663248062134e-02
7.173125445842742920e-02
6.880299001932144165e-02
-1.135735437273979187e-01
-8.503477089107036591e-03
2.496190369129180908e-01
1.754735037684440613e-02
-1.953269122168421745e-03
9.841184318065643311e-02
2.046683281660079956e-01
-1.126714572310447693e-01
-1.872739195823669434e-02
1.311593949794769287e-01
2.567416988313198090e-03
-5.078263953328132629e-02
3.800629079341888428e-02
2.290261164307594299e-02
2.648743614554405212e-02
5.001858621835708618e-02
-3.384464979171752930e-02
1.097710244357585907e-02
-6.875085085630416870e-02
-9.014090150594711304e-02
5.926315113902091980e-02
-1.516965031623840332e-01
-2.173856087028980255e-02
-4.731025174260139465e-02
3.264479339122772217e-02
-7.190354913473129272e-02
1.079832389950752258e-01
2.037629671394824982e-02
-1.392310857772827148e-01
-1.142809987068176270e-01
-1.366532174870371819e-03
-1.709068194031715393e-02
7.750049978494644165e-02
2.062442600727081299e-01
-1.049303486943244934e-01
7.729528006166219711e-03
6.730829924345016479e-02
-1.745952665805816650e-02
-2.973386459052562714e-02
1.159630063921213150e-02
-2.924758009612560272e-02
4.259200766682624817e-02
-1.628635637462139130e-02
4.183644801378250122e-02
-9.010633081197738647e-02
-4.267912358045578003e-03
1.714533269405364990e-01
1.002724915742874146e-01
-6.842312961816787720e-02
5.336285755038261414e-02
-3.904129192233085632e-02
1.381256431341171265e-01
5.503014102578163147e-02
1.319800764322280884e-01
-2.361038699746131897e-02
5.256937816739082336e-02
7.640023529529571533e-02
2.001937851309776306e-02
4.654755815863609314e-02
-4.541955515742301941e-02
-1.662158407270908356e-02
-2.877272432669997215e-03
1.612029671669006348e-01
-3.647637087851762772e-03
2.060314416885375977e-01
-1.997864805161952972e-03
-1.285015046596527100e-01
-3.469593450427055359e-02
-1.185700073838233948e-01
1.774740368127822876e-01
-1.741682365536689758e-02
1.853631585836410522e-01
1.960918456315994263e-01
-6.792540103197097778e-02
-1.296829879283905029e-01
3.834318835288286209e-03
-9.576167911291122437e-02
1.201893612742424011e-01
3.018723800778388977e-02
1.538695860654115677e-02
4.750818386673927307e-02
-1.045977417379617691e-02
3.537250310182571411e-02
3.231962025165557861e-02
-3.465146571397781372e-02
1.757673025131225586e-01
-9.321541339159011841e-02
1.192687228322029114e-01
-1.780544407665729523e-02
4.804723337292671204e-02
-6.852176040410995483e-02
2.822099253535270691e-02
-1.064463630318641663e-01
-1.573844254016876221e-02
5.894304439425468445e-02
5.571931973099708557e-02
4.221859946846961975e-02
-7.087232172489166260e-02
1.901683658361434937e-01
-4.525331780314445496e-02
7.043338567018508911e-02
9.821827523410320282e-03
8.154806494712829590e-02
-1.756411045789718628e-02
-4.931947216391563416e-02
3.308363631367683411e-02
4.623977001756429672e-03
4.723807796835899353e-02
-7.023417204618453979e-02
-1.535206474363803864e-02
2.548014819622039795e-01
5.024233460426330566e-02
-8.886969089508056641e-02
-1.072100624442100525e-01
9.324393421411514282e-02
1.214411109685897827e-02
-6.097923964262008667e-02
3.590241447091102600e-02
-4.949293658137321472e-02
1.620563566684722900e-01
2.327052503824234009e-02
-2.103349752724170685e-02
8.549458533525466919e-02
-4.886330291628837585e-02
-1.661662384867668152e-02
-3.670204803347587585e-02
-4.553059581667184830e-03
5.625761672854423523e-02
1.085023209452629089e-01
-5.373229458928108215e-02
6.897915154695510864e-02
-4.894107114523649216e-03
5.698624253273010254e-02
-4.725958406925201416e-02
-1.000836342573165894e-01
-2.032882906496524811e-02
1.055381372570991516e-01
2.248073928058147430e-02
7.990865409374237061e-02
1.409435719251632690e-01
-1.191531345248222351e-01
3.345966339111328125e-02
-9.746339917182922363e-02
3.469877690076828003e-02
-1.768408901989459991e-02
1.996299028396606445e-01
-1.095090284943580627e-01
8.083000779151916504e-02
-4.101869091391563416e-02
2.326057665050029755e-02
-3.726450726389884949e-02
-1.392113715410232544e-01
-1.027936488389968872e-01
-3.098920732736587524e-02
4.712100699543952942e-02
1.456339843571186066e-02
2.120150951668620110e-03
2.130189677700400352e-03
-4.978857934474945068e-02
7.425908744335174561e-02
-8.710836619138717651e-02
4.532682150602340698e-02
-8.028578013181686401e-02
-2.243400318548083305e-03
1.176171377301216125e-01
-2.001183331012725830e-01
-3.048650361597537994e-02
2.672638185322284698e-02
6.411674898117780685e-03
-2.771524786949157715e-01
5.070297420024871826e-02
-1.129313856363296509e-01
4.494166001677513123e-02
-1.610349118709564209e-01
8.822279423475265503e-02
-4.831118136644363403e-02
1.364210527390241623e-02
-3.145877644419670105e-02
6.903224438428878784e-02
-6.909256428480148315e-02
2.238678000867366791e-02
-9.804973006248474121e-02
2.935709245502948761e-02
1.576506644487380981e-01
-1.610929965972900391e-01
-9.000592678785324097e-02
1.183159127831459045e-01
6.721995770931243896e-03
1.144413650035858154e-02
2.175738364458084106e-01
2.320316880941390991e-01
1.194674288854002953e-03
5.074954777956008911e-02
2.021514251828193665e-02
7.419976405799388885e-03
1.355881839990615845e-01
-8.702825754880905151e-02
1.530153602361679077e-01
5.300027877092361450e-02
1.321994233876466751e-02
1.818683743476867676e-01
-8.696382492780685425e-02
-5.415576323866844177e-02
-6.649561971426010132e-02
3.127042576670646667e-02
-1.285808384418487549e-01
3.488738834857940674e-02
5.228998139500617981e-02
-9.648668579757213593e-03
-2.272763103246688843e-01
9.692725539207458496e-02
3.832681104540824890e-02
1.753052622079849243e-01
-1.236550360918045044e-01
1.094646677374839783e-01
-1.721442788839340210e-01
1.067334786057472229e-01
3.769673407077789307e-03
2.880861796438694000e-02
-2.712360620498657227e-01
-8.341927826404571533e-02
3.354053199291229248e-02
-3.926283493638038635e-02
6.078337877988815308e-02
1.366170197725296021e-01
1.602672338485717773e-01
-1.368584930896759033e-01
1.022673472762107849e-01
5.005549266934394836e-02
-1.251967996358871460e-01
-9.057608991861343384e-02
4.410285502672195435e-02
-8.440249413251876831e-02
-3.783869370818138123e-02
7.252223789691925049e-02
-1.244112197309732437e-02
-2.837601304054260254e-02
3.954679518938064575e-02
-5.374211817979812622e-02
-2.416994050145149231e-02
5.669488757848739624e-02
-1.420160979032516479e-01
1.035286039113998413e-01
8.659474551677703857e-02
-3.143034875392913818e-02
4.955834522843360901e-02
2.555732987821102142e-02
-1.104809492826461792e-01
-6.170338019728660583e-02
-1.415648497641086578e-02
-1.245180070400238037e-01
2.003881335258483887e-01
-9.805224090814590454e-02
-7.350029796361923218e-02
2.818533591926097870e-02
3.091420605778694153e-02
-2.248164452612400055e-02
-2.019303292036056519e-02
4.331652447581291199e-02
-4.550529271364212036e-02
-6.943717598915100098e-02
-2.566365897655487061e-02
1.365351080894470215e-01
-1.421754658222198486e-01
1.564186438918113708e-02
1.591410785913467407e-01
5.851116403937339783e-02
-1.318536847829818726e-01
1.613299399614334106e-01
-2.034237422049045563e-02
5.409979075193405151e-02
-1.248485129326581955e-02
-5.625480785965919495e-02
1.894799433648586273e-02
-2.936477586627006531e-02
-1.217602640390396118e-01
-1.243616938591003418e-01
8.482390642166137695e-02
-1.984719932079315186e-01
-2.282204478979110718e-02
1.260403245687484741e-01
-5.019471421837806702e-02
-1.771794818341732025e-02
-7.077259570360183716e-02
2.891887351870536804e-02
-5.075787752866744995e-02
6.643524765968322754e-02
-2.375627495348453522e-02
1.365811675786972046e-01
1.447422355413436890e-01
8.770626783370971680e-02
5.450423061847686768e-02
3.724206006154417992e-03
-8.037748187780380249e-02
-4.167578741908073425e-02
-4.074990004301071167e-02
-1.145810484886169434e-01
-4.606504365801811218e-02
6.679809093475341797e-02
-2.263094298541545868e-02
-6.602104287594556808e-03
-1.616301983594894409e-01
-1.397444028407335281e-02
-1.916275322437286377e-01
-1.962447315454483032e-01
8.717097342014312744e-02
-1.220751330256462097e-01
-1.078473124653100967e-02
-4.043419659137725830e-02
1.181494221091270447e-01
-1.381218880414962769e-01
1.728410273790359497e-01
-8.795949816703796387e-02
-1.472374945878982544e-01
-1.997704356908798218e-01
-8.556073904037475586e-02
8.780051767826080322e-02
-6.595381349325180054e-02
4.511621221899986267e-02
5.110131204128265381e-02
-2.394272014498710632e-02
1.005601733922958374e-01
2.088083652779459953e-03
-1.072462797164916992e-01
-8.110429346561431885e-02
1.785125881433486938e-01
-1.055805832147598267e-01
-1.655460000038146973e-01
3.816586360335350037e-02
-1.338930875062942505e-01
-9.505664557218551636e-02
1.460108458995819092e-01
-5.569771304726600647e-02
2.973131276667118073e-02
-3.439138457179069519e-02
1.353459954261779785e-01
7.220177352428436279e-02
2.690624073147773743e-02
-6.561733037233352661e-02
-7.427039742469787598e-02
2.472031563520431519e-01
7.494676113128662109e-02
-8.278997987508773804e-02
1.587191820144653320e-01
-1.955806910991668701e-01
2.772921882569789886e-02
4.995117336511611938e-02
2.140210382640361786e-02
-1.569160819053649902e-01
9.567601978778839111e-02
1.195693835616111755e-01
2.718515694141387939e-02
1.111913248896598816e-01
-1.455327868461608887e-01
-3.320900350809097290e-02
-1.508539170026779175e-01
-6.029806565493345261e-03
8.943057805299758911e-02
1.383589059114456177e-01
1.120803654193878174e-01
-1.200839132070541382e-01
1.158585846424102783e-01
2.911826409399509430e-02
5.069880187511444092e-02
1.156316027045249939e-01
-6.434955447912216187e-02
2.627104334533214569e-02
-2.258190186694264412e-03
-7.906775921583175659e-02
-2.058637440204620361e-01
1.298029571771621704e-01
9.163659065961837769e-02
-1.443044543266296387e-01
1.677448451519012451e-01
1.039078384637832642e-01
-4.078618437051773071e-02
1.138999834656715393e-01
1.335232052952051163e-03
8.407498896121978760e-02
5.534913763403892517e-02
-1.285605579614639282e-01
-2.115815877914428711e-02
1.577606773935258389e-03
-1.701664552092552185e-02
3.662130981683731079e-02
-3.365495055913925171e-02
1.658144146203994751e-01
1.180632971227169037e-02
7.208917289972305298e-02
-4.097694903612136841e-02
6.927105784416198730e-02
-4.619830846786499023e-02
5.471393838524818420e-02
2.005582898855209351e-01
-2.031697332859039307e-01
1.899969130754470825e-01
4.992800205945968628e-02
8.227519690990447998e-03
3.530988097190856934e-02
-1.497701406478881836e-01
-4.605353996157646179e-02
2.023355662822723389e-02
-9.950946271419525146e-02
6.494398415088653564e-02
4.659201949834823608e-02
-1.154444292187690735e-01
-1.339390501379966736e-02
1.316361725330352783e-01
-5.741337686777114868e-02
-1.315925270318984985e-01
3.668028861284255981e-02
2.556516416370868683e-02
1.304072588682174683e-01
-4.196680188179016113e-01
-7.277246564626693726e-02
-7.724934816360473633e-02
3.896502405405044556e-02
-3.607423044741153717e-03
-4.769685491919517517e-02
-1.951679028570652008e-02
6.046936288475990295e-02
-1.300119310617446899e-01
7.234229892492294312e-02
-4.520971328020095825e-02
1.549241095781326294e-01
-1.851206123828887939e-01
2.184366881847381592e-01
-1.765777766704559326e-01
9.338575601577758789e-02
1.888012886047363281e-02
-2.252049744129180908e-02
8.934404700994491577e-02
8.133537322282791138e-02
-7.794531434774398804e-02
-8.400904387235641479e-02
-1.672665774822235107e-01
2.076437138020992279e-02
1.047861427068710327e-01
1.064221560955047607e-02
-2.898546168580651283e-03
-2.379664406180381775e-02
-6.521701812744140625e-03
-1.321553438901901245e-01
-4.047009721398353577e-02
-6.138781085610389709e-02
2.282355874776840210e-01
8.677129447460174561e-02
-4.936587437987327576e-02
-1.496029496192932129e-01
-7.835964858531951904e-02
-1.048824638128280640e-01
1.819010376930236816e-01
4.520624876022338867e-02
-5.484687536954879761e-02
4.933389648795127869e-02
3.170379623770713806e-02
6.806982308626174927e-02
-8.765094913542270660e-03
-6.338445842266082764e-02
-2.491893060505390167e-02
6.310503929853439331e-02
-6.360962986946105957e-02
6.702412664890289307e-02
-1.581573486328125000e-01
-1.838767081499099731e-01
-1.101452670991420746e-02
-9.603394567966461182e-02
