-5.817544832825660706e-02
-6.475975387729704380e-04
1.031524688005447388e-01
-7.889126241207122803e-02
-9.433782659471035004e-03
9.124767035245895386e-02
8.111899346113204956e-02
7.480658590793609619e-02
5.792720988392829895e-02
-1.028247103095054626e-01
-4.959763959050178528e-02
2.041938714683055878e-02
9.161745011806488037e-02
-2.603240497410297394e-02
8.286510407924652100e-02
1.855802983045578003e-01
-1.362461224198341370e-02
-9.950834512710571289e-02
1.455498933792114258e-01
-8.953439444303512573e-02
-1.893035136163234711e-02
-2.371722459793090820e-02
9.173975139856338501e-02
-3.320562839508056641e-02
-9.665161371231079102e-02
-2.837958745658397675e-02
2.028955705463886261e-02
3.573900461196899414e-02
9.717887267470359802e-03
1.678449958562850952e-01
-9.922965615987777710e-02
5.959714576601982117e-02
1.352365463972091675e-01
-8.482050150632858276e-02
1.037231609225273132e-01
1.093320846557617188e-01
9.322980791330337524e-02
5.635875463485717773e-02
-6.972209364175796509e-02
-2.560164779424667358e-02
1.580783426761627197e-01
3.451707214117050171e-02
-1.021262779831886292e-01
3.008317900821566582e-03
2.363472804427146912e-02
3.287488594651222229e-02
8.728814125061035156e-02
-1.475234478712081909e-01
1.371286362409591675e-01
-1.436968147754669189e-01
8.170015364885330200e-02
7.538568973541259766e-02
1.075448468327522278e-01
1.153940707445144653e-01
1.294015944004058838e-01
1.237713694572448730e-01
1.661932468414306641e-02
-1.017404049634933472e-01
-8.421840518712997437e-02
5.432075262069702148e-02
-4.474535956978797913e-02
5.495116114616394043e-02
1.291042715311050415e-01
4.405073821544647217e-03
-1.734036505222320557e-01
1.295060515403747559e-01
-3.121773339807987213e-02
4.286224395036697388e-02
1.357720606029033661e-02
9.905185550451278687e-02
-3.119165636599063873e-02
-6.715898960828781128e-02
-5.965259298682212830e-02
2.033461071550846100e-02
6.709581939503550529e-04
5.525394156575202942e-02
2.005534023046493530e-01
3.461933508515357971e-02
-1.273780018091201782e-01
-3.734781965613365173e-02
-7.207965105772018433e-02
-8.023844659328460693e-02
-2.085006609559059143e-02
-1.311653256416320801e-01
-1.030827537178993225e-01
-6.405354291200637817e-02
-6.639564037322998047e-02
3.783129900693893433e-02
-1.133152619004249573e-01
2.400568313896656036e-02
5.878763273358345032e-02
-2.152890525758266449e-02
-1.064422205090522766e-01
6.279038637876510620e-02
6.654125452041625977e-02
2.919702557846903801e-03
1.475921869277954102e-01
3.057064674794673920e-02
2.972050383687019348e-02
-6.041362509131431580e-02
-1.412223093211650848e-02
-1.012971028685569763e-01
-9.565731510519981384e-03
-1.375817209482192993e-01
5.512489378452301025e-02
1.463971659541130066e-02
2.255334286019206047e-03
-6.091200560331344604e-02
7.888647913932800293e-02
4.633648321032524109e-02
3.414731100201606750e-02
5.503228167071938515e-04
9.722016751766204834e-02
-1.440191864967346191e-01
-2.208829857409000397e-02
-4.779141768813133240e-02
-1.382254064083099365e-02
-1.333668455481529236e-02
-6.033867225050926208e-02
8.055147528648376465e-02
4.583775997161865234e-02
-4.439682513475418091e-02
1.723278127610683441e-02
7.802116870880126953e-02
1.551973968744277954e-01
-6.678592413663864136e-02
4.275655373930931091e-02
9.376313537359237671e-02
1.054119393229484558e-01
-1.133845895528793335e-01
-7.138936221599578857e-02
-6.630911678075790405e-02
-9.629324078559875488e-02
-1.552752256393432617e-01
-5.480297259055078030e-04
5.457212403416633606e-02
-2.943966537714004517e-02
-1.154230758547782898e-01
-2.401144988834857941e-02
1.116536185145378113e-01
-4.086185991764068604e-02
-1.331331878900527954e-01
3.545387461781501770e-02
-7.803327590227127075e-02
-4.517364129424095154e-02
-2.206592075526714325e-02
5.317911133170127869e-02
8.855916559696197510e-02
5.251257866621017456e-02
-7.290699332952499390e-02
-1.433029025793075562e-01
1.077241972088813782e-01
4.819380864500999451e-02
1.649675890803337097e-03
-1.583425104618072510e-01
5.726404488086700439e-02
-3.457623766735196114e-03
4.727463424205780029e-02
1.083919033408164978e-01
6.006435677409172058e-02
-1.281256675720214844e-01
-4.533449187874794006e-02
-4.144019261002540588e-02
-2.984135411679744720e-02
-1.445251852273941040e-01
-3.149847965687513351e-03
-8.341780304908752441e-02
7.596857100725173950e-02
-1.136770769953727722e-01
1.419847272336483002e-02
1.318998485803604126e-01
-1.851120963692665100e-02
3.129160404205322266e-02
-6.397966295480728149e-03
-3.313953801989555359e-02
-2.846852131187915802e-02
-4.769243299961090088e-02
-8.790174871683120728e-02
-1.530950702726840973e-02
-5.295394919812679291e-03
2.377901040017604828e-02
-3.590823337435722351e-02
-1.325295679271221161e-02
2.102785278111696243e-03
8.582734316587448120e-02
-1.506154984235763550e-01
1.075906977057456970e-01
1.338176429271697998e-01
-3.535720705986022949e-02
-4.638418182730674744e-02
9.235991537570953369e-02
-2.595847845077514648e-02
1.000874638557434082e-01
1.319262087345123291e-01
1.055138837546110153e-02
-1.105055212974548340e-01
6.298957765102386475e-02
2.343750186264514923e-02
5.862409994006156921e-02
5.128394439816474915e-02
1.388790179044008255e-02
-1.431174576282501221e-01
1.401482820510864258e-01
-1.511683017015457153e-01
3.328363597393035889e-02
-1.269743032753467560e-02
8.123365789651870728e-02
7.907622307538986206e-02
5.903272330760955811e-02
8.795221149921417236e-02
6.942781060934066772e-02
9.035197086632251740e-03
8.023592829704284668e-02
8.592804521322250366e-02
-7.913223654031753540e-02
-1.508049964904785156e-01
-2.084038406610488892e-02
1.018546745181083679e-01
5.372829735279083252e-02
3.065630421042442322e-02
1.514883339405059814e-02
1.472865603864192963e-02
3.966140374541282654e-02
-3.115202672779560089e-02
-8.367784321308135986e-02
7.776443660259246826e-02
1.668757796287536621e-01
-5.312898010015487671e-02
-8.267737925052642822e-02
-1.187040656805038452e-02
4.977512359619140625e-02
2.362630330026149750e-02
-3.084719926118850708e-02
4.143172129988670349e-02
5.371735990047454834e-02
-3.934609517455101013e-02
5.306820571422576904e-02
1.064454466104507446e-01
-5.302451923489570618e-02
1.014519631862640381e-01
1.499353647232055664e-01
9.040560573339462280e-02
-2.832376211881637573e-02
1.069477386772632599e-02
2.600857801735401154e-02
1.331392675638198853e-01
6.902793049812316895e-02
2.289131656289100647e-02
-5.868402123451232910e-02
-1.059573963284492493e-01
-2.858099341392517090e-02
-2.034890279173851013e-02
1.195298731327056885e-01
3.395432606339454651e-02
6.725977361202239990e-02
-1.848714984953403473e-02
1.032934710383415222e-01
-9.621399641036987305e-02
-1.637862324714660645e-01
-2.492430247366428375e-02
-1.259566545486450195e-01
8.290574699640274048e-02
1.072986945509910583e-01
-6.048362702131271362e-02
2.932068426162004471e-03
-9.161588549613952637e-02
6.877963989973068237e-02
5.798901617527008057e-02
-1.006546840071678162e-01
-1.809362322092056274e-02
-8.958942443132400513e-02
-1.142424158751964569e-02
-3.424154222011566162e-02
7.495179772377014160e-02
1.166801229119300842e-01
-8.261529356241226196e-02
-8.902355283498764038e-02
-1.903701946139335632e-02
1.069303601980209351e-01
5.888069421052932739e-02
-1.109826937317848206e-01
-1.136958301067352295e-01
-8.915030211210250854e-02
1.541879028081893921e-02
-1.223237738013267517e-01
2.432010881602764130e-02
-8.328572660684585571e-02
-1.566726416349411011e-01
7.775267213582992554e-02
-6.686582416296005249e-02
1.092913150787353516e-01
-2.683599852025508881e-02
-6.944270431995391846e-02
-8.835855871438980103e-02
-1.203627325594425201e-02
2.431836212053894997e-03
-1.221794933080673218e-01
1.542023941874504089e-02
5.372968502342700958e-03
-1.679431274533271790e-02
-1.402235776185989380e-01
-1.448851376771926880e-01
-8.563002198934555054e-02
-8.907875418663024902e-02
-1.107795014977455139e-01
-1.490503251552581787e-01
-7.949727028608322144e-02
-1.192175038158893585e-02
1.867909566499292850e-03
1.282648444175720215e-01
6.683631241321563721e-02
-8.536855131387710571e-02
-2.322177588939666748e-02
8.682482689619064331e-02
-4.303578659892082214e-02
9.584931284189224243e-02
-1.072887405753135681e-01
3.857590258121490479e-02
-3.586761280894279480e-02
1.580765843391418457e-01
6.580144166946411133e-02
-1.032953411340713501e-01
-6.313927471637725830e-02
-5.324617400765419006e-02
-5.932741984724998474e-02
-7.459202408790588379e-02
4.126436263322830200e-02
-6.257949024438858032e-02
2.813306264579296112e-02
-1.430882066488265991e-01
-8.699598163366317749e-02
-1.019752174615859985e-01
1.309125218540430069e-02
-8.676154166460037231e-02
-3.848178684711456299e-02
-8.882836252450942993e-02
-5.008219555020332336e-02
-1.175630092620849609e-01
1.431425511837005615e-01
5.371528863906860352e-02
-8.083554357290267944e-02
-8.201399445533752441e-02
-2.136920019984245300e-02
-4.015478119254112244e-02
3.775617852807044983e-02
-1.126400455832481384e-01
1.114837601780891418e-01
-7.358272373676300049e-02
1.007656753063201904e-01
-6.074873358011245728e-02
-1.231470406055450439e-01
1.834442093968391418e-02
6.713404506444931030e-02
-7.706312090158462524e-02
2.902393229305744171e-02
-7.371793687343597412e-02
1.270291358232498169e-01
-4.781331866979598999e-02
-1.281841397285461426e-01
-1.047251224517822266e-01
-1.002633497118949890e-01
2.316144481301307678e-02
-1.413326263427734375e-01
-2.682977169752120972e-02
-1.084683313965797424e-01
-7.719996571540832520e-02
9.157118201255798340e-02
-1.024473160505294800e-01
-1.151868477463722229e-01
1.069114636629819870e-02
-8.339632768183946609e-04
-5.518025904893875122e-02
-2.528763189911842346e-02
4.822381958365440369e-02
-2.460676990449428558e-02
1.115879490971565247e-01
-1.128841862082481384e-01
4.297944530844688416e-02
-5.434500053524971008e-02
-1.193237453699111938e-01
9.920386224985122681e-02
-7.626724988222122192e-02
5.057887732982635498e-02
7.939043641090393066e-02
1.121544092893600464e-01
5.180282518267631531e-03
-6.521861255168914795e-02
-1.191305741667747498e-01
1.400743275880813599e-01
-2.440047077834606171e-02
-1.171158999204635620e-01
9.723994135856628418e-02
1.396674215793609619e-01
1.401793509721755981e-01
-6.317239254713058472e-02
1.139359995722770691e-01
-2.488017082214355469e-02
-5.190711840987205505e-02
-1.148903090506792068e-02
-1.312346458435058594e-01
-8.640698157250881195e-03
3.328165784478187561e-02
-7.443040609359741211e-02
4.849320650100708008e-02
-7.900252938270568848e-02
1.514623058028519154e-03
-8.293371647596359253e-02
-3.732195124030113220e-02
-3.451862139627337456e-03
9.029398113489151001e-02
1.317987963557243347e-02
9.229138493537902832e-02
-1.461026221513748169e-01
-4.263888299465179443e-02
-1.042007133364677429e-01
-2.566043473780155182e-02
1.832368597388267517e-02
4.555099457502365112e-02
-2.130481600761413574e-02
4.301128163933753967e-02
1.603771187365055084e-02
8.370156586170196533e-02
1.276877373456954956e-01
6.532567739486694336e-02
-5.082942917943000793e-02
6.634283065795898438e-02
7.638978958129882812e-02
-6.986432522535324097e-02
-1.298414170742034912e-01
-1.310524642467498779e-01
3.385591506958007812e-02
2.386379428207874298e-02
2.492651902139186859e-02
3.714346513152122498e-02
1.618302799761295319e-02
-1.692565530538558960e-02
1.189590767025947571e-01
9.091007709503173828e-02
-3.814722970128059387e-02
7.222182303667068481e-02
-1.913811080157756805e-02
-7.169335335493087769e-02
-7.287790626287460327e-02
-3.160504996776580811e-02
1.667858101427555084e-02
-8.082532882690429688e-02
-8.277947455644607544e-02
-5.372719839215278625e-03
-6.155994161963462830e-02
-9.822667390108108521e-02
6.578766554594039917e-02
8.008419722318649292e-02
-1.025584042072296143e-01
6.412470340728759766e-02
-1.081610247492790222e-01
-9.624313563108444214e-02
1.328209638595581055e-01
-3.761105984449386597e-02
-6.803950667381286621e-02
1.274466961622238159e-01
2.369221299886703491e-02
-3.313728049397468567e-02
-5.826733261346817017e-02
-1.329273730516433716e-01
5.326244607567787170e-02
-5.032777786254882812e-02
1.342452224344015121e-02
2.224958688020706177e-02
-1.124672591686248779e-01
-9.480475448071956635e-03
1.069593876600265503e-01
6.441046297550201416e-02
-3.566213417798280716e-04
-7.146106660366058350e-02
1.464233100414276123e-01
-1.043837442994117737e-01
-1.378421299159526825e-02
-9.821241348981857300e-02
-9.702800214290618896e-02
-7.082630693912506104e-02
4.366506636142730713e-02
-2.617545053362846375e-02
5.766736343502998352e-02
-5.400709807872772217e-02
6.145577412098646164e-03
-3.906241804361343384e-02
7.845729589462280273e-02
2.045411989092826843e-02
-1.579814851284027100e-01
4.809168353676795959e-02
-1.283216327428817749e-01
1.159885618835687637e-02
-1.774945408105850220e-01
-1.798219531774520874e-01
-2.538611367344856262e-02
3.984246775507926941e-02
-7.679788395762443542e-03
-1.186001151800155640e-01
8.615102618932723999e-03
-1.447724550962448120e-01
-4.446896165609359741e-02
8.045691251754760742e-02
8.396960794925689697e-02
-1.498655602335929871e-02
7.310050725936889648e-02
5.114156380295753479e-02
3.498067334294319153e-02
-1.005094274878501892e-01
-5.681999772787094116e-02
-1.476343572139739990e-01
-5.762806162238121033e-02
1.190459653735160828e-01
-7.458935491740703583e-03
-5.326448939740657806e-03
-1.049940884113311768e-01
1.621043868362903595e-02
1.075570732355117798e-01
4.977216571569442749e-02
5.701219290494918823e-02
-1.118013411760330200e-01
2.481990121304988861e-02
-4.074532538652420044e-02
2.640713751316070557e-02
-7.515520602464675903e-02
2.167739719152450562e-02
2.561581321060657501e-02
7.693874090909957886e-02
-3.003829345107078552e-02
-1.380069367587566376e-02
1.237251143902540207e-02
8.111929893493652344e-02
-3.721580654382705688e-02
7.009223848581314087e-02
1.390445232391357422e-01
-2.669342048466205597e-02
-1.392470449209213257e-01
1.240418180823326111e-01
-7.039406895637512207e-02
-1.097479611635208130e-01
1.279380172491073608e-03
-7.487830705940723419e-03
-5.841372907161712646e-02
1.008584201335906982e-01
1.190557843074202538e-03
-1.066083181649446487e-02
-1.114080101251602173e-01
-2.378109283745288849e-02
-2.499249018728733063e-02
-8.713974058628082275e-02
-6.719123572111129761e-02
3.510661795735359192e-02
-1.022867187857627869e-01
2.745715342462062836e-02
6.554127484560012817e-02
1.816091239452362061e-01
1.062473431229591370e-01
1.665545813739299774e-02
3.368682414293289185e-02
2.481040731072425842e-02
4.043071344494819641e-02
7.166085299104452133e-03
1.452391850762069225e-03
1.093835383653640747e-01
-3.833849728107452393e-02
-2.985460124909877777e-02
5.002828314900398254e-02
5.160930752754211426e-02
-1.531808823347091675e-01
-4.237144440412521362e-02
1.416524685919284821e-02
-5.728970840573310852e-02
6.246662884950637817e-02
-9.409743547439575195e-02
-1.089506894350051880e-01
-3.190895542502403259e-02
1.963440701365470886e-02
6.913254410028457642e-02
-7.444690912961959839e-02
-1.528255939483642578e-01
-1.454734206199645996e-01
-1.319670677185058594e-01
-2.273500338196754456e-02
9.951889514923095703e-02
-1.684338152408599854e-01
-1.034586038440465927e-02
-9.954094886779785156e-02
7.106664031744003296e-02
9.383247792720794678e-02
-1.975940354168415070e-02
8.787846565246582031e-02
-1.073976084589958191e-01
2.381003089249134064e-02
-6.181934475898742676e-02
5.621641129255294800e-02
4.160575568675994873e-02
3.895878419280052185e-02
-1.283054351806640625e-01
-3.463613241910934448e-02
7.923676073551177979e-02
7.498215138912200928e-02
5.023811757564544678e-02
1.439595967531204224e-01
1.445722579956054688e-01
8.989481627941131592e-02
1.067810654640197754e-01
-1.154121235013008118e-01
7.629367709159851074e-02
-1.226210296154022217e-01
-3.850896283984184265e-02
-1.171480566263198853e-01
7.078917697072029114e-04
-9.120065718889236450e-02
3.069109655916690826e-02
-7.263468950986862183e-02
-6.821391731500625610e-02
9.230222553014755249e-02
-3.184349089860916138e-02
1.050489097833633423e-01
5.334609188139438629e-03
2.660382539033889771e-02
-2.054986730217933655e-02
-3.008394874632358551e-02
-1.636677533388137817e-01
2.261748351156711578e-02
-8.101291209459304810e-02
-1.399353593587875366e-01
9.600543975830078125e-02
4.548931494355201721e-03
1.834329217672348022e-02
-6.306738406419754028e-02
1.436685174703598022e-01
2.235591262578964233e-01
1.354288607835769653e-01
1.253072023391723633e-01
-4.214232042431831360e-02
-4.501105099916458130e-02
-1.097455248236656189e-01
-6.073258444666862488e-02
2.666814066469669342e-02
8.892670273780822754e-02
-5.385478585958480835e-02
6.149016693234443665e-02
9.133223444223403931e-02
1.670960523188114166e-02
-1.085371598601341248e-01
6.499287486076354980e-02
2.728098072111606598e-02
-4.333997890353202820e-02
-8.789606392383575439e-02
-8.263294398784637451e-02
8.374682813882827759e-02
3.252979367971420288e-02
-1.405668109655380249e-01
-5.820728093385696411e-02
-9.150926023721694946e-02
-5.102076008915901184e-02
-8.342618495225906372e-02
-1.003584563732147217e-01
-5.371878296136856079e-02
7.869768142700195312e-02
3.052079491317272186e-02
4.040427133440971375e-02
-5.562310293316841125e-02
-1.468085795640945435e-01
-1.517983153462409973e-02
-4.952273145318031311e-02
6.218307837843894958e-02
4.599369317293167114e-02
1.669705808162689209e-01
-8.656265586614608765e-02
-9.292585402727127075e-02
-8.353593945503234863e-02
-1.065896227955818176e-01
-1.087971627712249756e-01
-1.331984251737594604e-01
2.969977632164955139e-02
-1.571446657180786133e-02
1.207895204424858093e-01
-4.820578917860984802e-02
8.556792885065078735e-02
-2.772569097578525543e-02
-2.329382486641407013e-02
-1.332503557205200195e-02
-6.212083995342254639e-02
-1.119542643427848816e-01
-8.432426303625106812e-02
1.267526596784591675e-01
6.318410485982894897e-02
-1.565331220626831055e-01
-4.273532703518867493e-02
-1.536720618605613708e-02
6.033320352435112000e-02
-7.158242911100387573e-02
-1.469747070223093033e-02
-7.781476015225052834e-04
9.410925954580307007e-02
2.599347196519374847e-02
-4.053420946002006531e-02
-5.818441882729530334e-02
-1.291406452655792236e-01
-9.067766368389129639e-02
-3.508776053786277771e-02
7.781045138835906982e-02
-1.241900622844696045e-01
1.104257032275199890e-01
3.377200663089752197e-02
-6.272449344396591187e-02
-2.854100801050662994e-02
-4.489467293024063110e-02
1.370280515402555466e-03
-4.385606944561004639e-02
3.386880457401275635e-02
1.060432288795709610e-03
-4.425391554832458496e-02
6.035373732447624207e-02
-1.406698077917098999e-01
-2.948059327900409698e-02
1.039488762617111206e-01
7.193052768707275391e-02
-1.408886443823575974e-02
-3.175974264740943909e-02
-2.937472239136695862e-02
-3.134721145033836365e-02
1.344548463821411133e-01
-2.757295407354831696e-02
9.019181132316589355e-02
-3.986344859004020691e-02
-9.615799784660339355e-02
-2.287643961608409882e-03
-7.644894532859325409e-03
-2.933374838903546333e-03
-1.684451662003993988e-02
5.297306552529335022e-02
9.842474246397614479e-04
8.041482418775558472e-02
9.580148756504058838e-02
4.202579706907272339e-02
-1.850101165473461151e-02
1.019142642617225647e-01
-9.847040474414825439e-02
5.550064891576766968e-02
6.662931293249130249e-02
1.471709609031677246e-01
-8.024391531944274902e-02
-1.042041629552841187e-01
1.924910955131053925e-02
-5.095208063721656799e-03
-2.978181093931198120e-02
-4.029867798089981079e-02
-3.262138459831476212e-03
-1.036807298660278320e-01
8.904828876256942749e-02
-1.271233335137367249e-02
7.462166994810104370e-02
-1.373785287141799927e-01
5.676538497209548950e-02
1.211631000041961670e-01
1.137340888381004333e-01
1.287851631641387939e-01
-1.453919894993305206e-02
-1.036859899759292603e-01
1.319047063589096069e-01
-3.983936738222837448e-03
9.431821852922439575e-02
1.172132715582847595e-01
-1.314007937908172607e-01
3.604244813323020935e-02
-1.434038579463958740e-01
4.716812446713447571e-02
2.213630080223083496e-02
1.556633878499269485e-02
-1.250079721212387085e-01
3.066871687769889832e-02
1.111478134989738464e-01
1.274769455194473267e-01
1.152012199163436890e-01
-9.288973174989223480e-03
5.712064355611801147e-02
8.582949638366699219e-02
7.288079708814620972e-02
1.524076610803604126e-01
1.102352961897850037e-01
7.230394333600997925e-02
-3.095456957817077637e-02
1.287334859371185303e-01
-9.560745954513549805e-02
8.599524199962615967e-02
1.051306873559951782e-01
-2.006325125694274902e-02
-8.033189177513122559e-02
4.376421216875314713e-03
-9.073889814317226410e-03
6.147471070289611816e-02
1.118523180484771729e-01
1.178257688879966736e-01
-1.655139774084091187e-02
-5.939592421054840088e-02
1.405980288982391357e-01
-8.893872611224651337e-03
1.309570670127868652e-01
5.170308426022529602e-02
8.835109323263168335e-02
3.681376576423645020e-02
-4.880242515355348587e-03
-3.111033141613006592e-02
1.281266808509826660e-01
-6.520621478557586670e-03
1.084651872515678406e-01
2.786539308726787567e-02
1.297864466905593872e-01
-2.147639356553554535e-02
-5.584647506475448608e-02
1.455866359174251556e-02
-4.997271671891212463e-02
-5.663209408521652222e-02
1.232113912701606750e-01
-1.440126895904541016e-01
3.827405453193932772e-04
-2.489516511559486389e-02
5.370975658297538757e-02
-3.410275280475616455e-02
1.414325833320617676e-01
8.167288452386856079e-02
8.588922023773193359e-02
-7.569996267557144165e-02
7.378438115119934082e-02
5.716176703572273254e-02
3.760401159524917603e-02
9.715420007705688477e-02
-3.501858562231063843e-02
-1.362227834761142731e-02
7.846774533390998840e-03
-9.748993068933486938e-02
4.458534717559814453e-02
1.187652200460433960e-01
-5.076152086257934570e-02
7.392223924398422241e-02
6.862105429172515869e-02
-9.253348410129547119e-02
4.057658091187477112e-02
-2.807318419218063354e-02
2.980206161737442017e-02
-4.934692382812500000e-02
2.494551800191402435e-02
7.538194954395294189e-02
3.055602312088012695e-02
3.649298474192619324e-02
-4.971401393413543701e-02
-4.791409894824028015e-02
2.217224054038524628e-02
1.177407354116439819e-01
-1.264825314283370972e-01
5.887085944414138794e-02
-1.319963932037353516e-01
-3.948105126619338989e-02
-6.546159740537405014e-03
-1.341041922569274902e-01
-1.273782849311828613e-01
-2.615369670093059540e-02
5.961548537015914917e-02
-4.001019988209009171e-03
-3.179787471890449524e-02
5.233666673302650452e-02
-1.281929463148117065e-01
-1.321512460708618164e-01
6.588239222764968872e-02
-7.140953838825225830e-02
-1.395388543605804443e-01
7.768277078866958618e-02
-8.460339903831481934e-02
-1.272952929139137268e-02
2.941147796809673309e-02
1.242106780409812927e-01
-9.600318968296051025e-02
-1.286219954490661621e-01
-4.963101819157600403e-02
1.476714480668306351e-02
-1.237366721034049988e-02
-7.746414095163345337e-02
-3.646418079733848572e-02
-1.239471584558486938e-01
-8.652038127183914185e-02
-2.408125437796115875e-02
-9.301904588937759399e-02
8.573143184185028076e-02
2.219160273671150208e-02
-5.341202765703201294e-02
1.611080616712570190e-01
-1.458998173475265503e-01
9.083601832389831543e-02
7.571804523468017578e-02
-4.052297398447990417e-02
2.464724890887737274e-02
6.400635931640863419e-03
1.187640577554702759e-01
-1.426954939961433411e-02
-6.959359347820281982e-02
4.171387478709220886e-02
1.535524725914001465e-01
-4.614933580160140991e-02
1.163471192121505737e-01
4.298881068825721741e-02
9.717200696468353271e-02
-2.381613478064537048e-02
-5.908075347542762756e-02
-9.919117391109466553e-02
4.867032542824745178e-02
-1.031251158565282822e-02
4.803435876965522766e-03
9.288645535707473755e-02
-4.906627535820007324e-02
-1.465724706649780273e-01
3.910921141505241394e-02
-8.113030344247817993e-02
-1.035080552101135254e-01
2.046125940978527069e-03
-8.908630162477493286e-02
8.845024555921554565e-02
-5.542976781725883484e-02
-8.549807965755462646e-02
1.267603337764739990e-01
1.041958294808864594e-02
1.314893066883087158e-01
-6.844349950551986694e-02
2.427721954882144928e-02
7.661524415016174316e-02
-4.870112240314483643e-02
1.167138665914535522e-02
2.679784409701824188e-02
1.039088424295186996e-02
1.961823552846908569e-02
-1.051487773656845093e-01
-6.445778906345367432e-02
1.148731335997581482e-01
-2.782827988266944885e-02
-7.883050292730331421e-02
-2.251012995839118958e-02
-9.168030321598052979e-02
6.632019579410552979e-02
-8.584103733301162720e-02
-2.025817707180976868e-02
7.467027753591537476e-02
-6.954381614923477173e-02
9.023171663284301758e-02
-4.814365133643150330e-02
1.276225745677947998e-01
1.263596415519714355e-01
-2.355278469622135162e-03
-8.439345657825469971e-02
-2.079277113080024719e-02
-4.743285849690437317e-02
3.968732804059982300e-02
5.486877635121345520e-02
9.354776144027709961e-02
-1.444211751222610474e-01
1.489367522299289703e-02
8.804309368133544922e-02
-7.638383656740188599e-02
5.796611681580543518e-02
-1.218242794275283813e-01
1.160844936966896057e-01
8.576692640781402588e-02
7.610663305968046188e-03
-2.926572225987911224e-02
4.243895411491394043e-02
7.277140766382217407e-02
-9.032771736383438110e-02
-3.921233862638473511e-02
-6.757707893848419189e-02
1.502071972936391830e-02
-4.292395710945129395e-02
-1.238172203302383423e-01
6.176020577549934387e-02
-8.518269285559654236e-03
8.554986119270324707e-02
5.568815395236015320e-02
-3.972185403108596802e-02
7.687175273895263672e-02
4.022004082798957825e-02
-5.811318382620811462e-02
-9.335442632436752319e-02
-7.247643917798995972e-02
-5.694143101572990417e-02
-9.378456324338912964e-02
-5.919457413256168365e-03
5.886070430278778076e-03
8.734834939241409302e-02
-1.792549490928649902e-01
5.734895914793014526e-02
-2.197915688157081604e-02
1.602442860603332520e-01
6.078045815229415894e-03
3.727264329791069031e-02
-7.978559285402297974e-02
-4.293581843376159668e-02
3.086004965007305145e-02
-1.368389129638671875e-01
7.672387361526489258e-02
-1.373885124921798706e-01
7.960896193981170654e-02
3.297181800007820129e-02
9.499846398830413818e-02
1.220917478203773499e-01
-1.680942811071872711e-02
1.153556928038597107e-01
-1.123213991522789001e-01
5.905224755406379700e-02
2.000598981976509094e-02
-5.024099722504615784e-02
-4.834005981683731079e-02
-3.154640272259712219e-02
-6.982613354921340942e-02
-1.016275435686111450e-01
1.341362204402685165e-02
9.021147340536117554e-02
-1.903145387768745422e-02
-1.425154656171798706e-01
-3.326105326414108276e-02
-4.767844825983047485e-02
1.095983162522315979e-01
-5.178289487957954407e-02
1.353820115327835083e-01
7.674114406108856201e-02
-1.408891081809997559e-01
-7.572733610868453979e-02
-4.201010987162590027e-02
-1.017466560006141663e-02
3.536619991064071655e-02
-5.054251849651336670e-02
-1.131032630801200867e-01
-1.260128170251846313e-01
4.891023784875869751e-02
-1.887284219264984131e-01
-3.193703666329383850e-02
-8.106879144906997681e-02
-1.635328829288482666e-01
-2.290494181215763092e-02
-2.282365690916776657e-03
4.697115719318389893e-02
1.038597077131271362e-01
1.170502826571464539e-01
4.330425709486007690e-02
-1.480169743299484253e-01
2.740759588778018951e-02
7.982511073350906372e-02
6.490910798311233521e-02
6.389030814170837402e-02
4.961147531867027283e-02
5.543811991810798645e-02
-8.824013173580169678e-02
-1.022972762584686279e-01
8.990342170000076294e-02
-4.040512070059776306e-02
-7.376641780138015747e-02
-1.135189235210418701e-01
-9.198170155286788940e-02
-4.210404679179191589e-02
-1.168709322810173035e-01
-1.100998893380165100e-01
-4.866722226142883301e-02
-7.531221956014633179e-02
-7.482124865055084229e-02
-1.171956807374954224e-01
-1.392390727996826172e-01
8.745216578245162964e-02
1.156071946024894714e-01
-3.210194036364555359e-02
-1.700784862041473389e-01
-7.682688534259796143e-02
-8.734086155891418457e-02
-1.885144039988517761e-02
-1.142368167638778687e-01
-7.652088999748229980e-02
5.839577689766883850e-02
-4.035735875368118286e-02
-8.888547867536544800e-02
8.155249059200286865e-02
-9.010789543390274048e-02
-3.665279224514961243e-02
-4.726060200482606888e-03
-1.087943539023399353e-01
6.226796656847000122e-02
6.569525599479675293e-02
-1.741356402635574341e-02
-9.172869473695755005e-02
7.097567617893218994e-02
-2.443689154461026192e-03
-2.102185040712356567e-01
-1.152423098683357239e-01
1.163736656308174133e-01
1.913261041045188904e-02
-1.717422716319561005e-02
-5.800150334835052490e-02
-2.001128718256950378e-02
1.367353796958923340e-01
1.912060566246509552e-02
-4.621337726712226868e-02
7.406390458345413208e-02
3.653523325920104980e-02
-1.546326130628585815e-01
8.976468816399574280e-03
-1.496696099638938904e-02
-6.257896870374679565e-02
-1.889692060649394989e-02
3.081673383712768555e-02
-1.965972408652305603e-02
-1.314994972199201584e-02
-4.498482868075370789e-02
1.344467699527740479e-01
5.838345363736152649e-02
1.434230012819170952e-03
8.535727113485336304e-02
-1.317691653966903687e-01
-1.514764726161956787e-01
1.683489419519901276e-02
-8.041380345821380615e-02
8.336094766855239868e-02
-6.306805182248353958e-03
-1.586766093969345093e-01
-8.866669237613677979e-02
-3.427460044622421265e-02
1.406430602073669434e-01
-4.789241775870323181e-02
-7.767582684755325317e-02
-4.405103996396064758e-02
2.920128777623176575e-02
-6.077237054705619812e-02
4.883586615324020386e-02
3.731346130371093750e-02
-9.106054902076721191e-02
2.559269964694976807e-02
5.209521204233169556e-02
-1.712887287139892578e-01
6.623092107474803925e-03
1.215661540627479553e-01
-2.604307420551776886e-02
8.834470808506011963e-02
2.584443800151348114e-02
-3.747348859906196594e-02
-3.045778907835483551e-02
1.934918574988842010e-02
-2.277211658656597137e-02
-8.111182600259780884e-02
-2.530637383460998535e-02
9.666430205106735229e-02
1.307094842195510864e-02
-1.195081844925880432e-01
-7.010760158300399780e-02
5.364761501550674438e-02
-6.858633458614349365e-02
1.635717973113059998e-02
6.283619999885559082e-02
1.290581375360488892e-01
6.956883519887924194e-02
1.253592222929000854e-02
-4.630724340677261353e-02
7.345610111951828003e-02
6.904895603656768799e-02
5.514105036854743958e-02
-1.315186321735382080e-01
-2.366741420701146126e-03
-3.703374788165092468e-02
5.149899795651435852e-02
3.313247859477996826e-02
-1.183748766779899597e-01
8.696338161826133728e-03
-1.704507390968501568e-03
9.083505719900131226e-02
-2.603695355355739594e-02
1.624694466590881348e-01
1.307382285594940186e-01
-7.007878273725509644e-02
2.171161212027072906e-02
-4.787700623273849487e-02
1.201022043824195862e-01
6.102814152836799622e-02
9.281858056783676147e-02
-2.988597936928272247e-02
-6.441151490435004234e-04
-4.522101487964391708e-03
-7.485996186733245850e-02
1.927348040044307709e-02
-8.610142394900321960e-03
5.768239125609397888e-02
-1.126843765377998352e-01
-7.135836780071258545e-02
1.410109251737594604e-01
7.860721088945865631e-03
9.919310361146926880e-02
-6.981710344552993774e-02
1.001601666212081909e-01
-5.070294812321662903e-02
7.041935622692108154e-02
1.247241348028182983e-01
8.768378198146820068e-02
3.128809481859207153e-02
7.643612474203109741e-02
6.025152653455734253e-02
1.116363629698753357e-01
3.440101817250251770e-02
-1.103606447577476501e-01
1.143724173307418823e-01
-1.807142980396747589e-02
4.920599609613418579e-02
-4.605097323656082153e-02
1.142464876174926758e-01
1.051110252737998962e-01
4.964227229356765747e-02
9.108910709619522095e-02
-8.978504687547683716e-02
4.896977916359901428e-02
-3.994641825556755066e-02
2.036462724208831787e-02
7.016894966363906860e-02
-1.204566583037376404e-01
2.239125967025756836e-02
1.214965879917144775e-01
-2.688989229500293732e-02
-4.300189763307571411e-02
-3.867201879620552063e-02
-2.494201250374317169e-02
1.268954295665025711e-02
3.661775588989257812e-02
-9.644234180450439453e-02
-1.941403187811374664e-02
1.340330541133880615e-01
-1.141002625226974487e-01
9.074500761926174164e-03
-1.242657750844955444e-01
-8.097514510154724121e-02
-2.241826429963111877e-02
-1.310595311224460602e-02
-6.487575825303792953e-03
-2.170233288779854774e-03
9.734469652175903320e-02
-9.724763035774230957e-02
-6.731336563825607300e-02
-7.163931429386138916e-02
8.908583782613277435e-03
2.540716528892517090e-02
5.111077800393104553e-02
-1.325810402631759644e-01
-1.921637356281280518e-02
-9.014361537992954254e-03
1.027672644704580307e-02
-5.382994934916496277e-02
2.746355161070823669e-02
4.946704208850860596e-02
-1.298770755529403687e-01
6.471661478281021118e-02
5.615794658660888672e-02
-1.006473451852798462e-01
-4.890987649559974670e-03
1.040886193513870239e-01
-1.231758520007133484e-01
-1.307336241006851196e-01
7.354240864515304565e-02
1.105057522654533386e-01
-1.299753785133361816e-01
-5.099842324852943420e-02
-7.184779644012451172e-02
-1.397512257099151611e-01
-1.626127511262893677e-01
-6.572605110704898834e-03
-1.326313056051731110e-02
-8.204472064971923828e-02
-7.338818907737731934e-02
1.033299192786216736e-01
-6.760653108358383179e-02
6.101086735725402832e-02
-8.256589621305465698e-02
6.013306975364685059e-02
6.305442005395889282e-02
6.685210764408111572e-02
1.005849689245223999e-01
-1.087021827697753906e-01
-1.123667210340499878e-01
1.195794418454170227e-01
1.357837617397308350e-01
-9.617831557989120483e-03
1.198459975421428680e-02
1.103016957640647888e-01
-2.597729116678237915e-02
-4.746513813734054565e-02
5.717089399695396423e-02
-9.038991294801235199e-03
-1.031068041920661926e-01
8.496700227260589600e-02
-4.647582024335861206e-02
-4.739981517195701599e-02
3.649743646383285522e-02
-1.353926584124565125e-02
-2.757478877902030945e-02
1.424010843038558960e-01
-9.238497354090213776e-03
-8.775891363620758057e-02
-7.545821834355592728e-03
4.544363543391227722e-02
1.142921205610036850e-02
6.887052208185195923e-02
-3.817623853683471680e-02
9.099625051021575928e-02
-8.384567499160766602e-02
4.016040265560150146e-02
-9.415409876964986324e-04
-7.112502306699752808e-02
9.135451912879943848e-02
-1.266629546880722046e-01
1.151816025376319885e-01
4.005905240774154663e-02
1.360773742198944092e-01
1.337630152702331543e-01
9.129049628973007202e-02
1.662189662456512451e-01
1.046277135610580444e-01
9.535611420869827271e-02
8.380603790283203125e-02
1.708949357271194458e-01
1.387848705053329468e-01
-3.039072267711162567e-02
8.941912651062011719e-02
-6.579901278018951416e-02
7.736162841320037842e-02
1.003832221031188965e-01
-2.989754639565944672e-02
-2.628941647708415985e-02
-5.717575922608375549e-02
1.520476788282394409e-01
-5.508322734385728836e-03
-1.009973138570785522e-01
9.101671725511550903e-02
-4.229361563920974731e-02
9.401118382811546326e-03
1.116952672600746155e-01
-8.157145231962203979e-02
7.241660356521606445e-02
-1.472899168729782104e-01
5.135998129844665527e-02
-6.722830981016159058e-02
9.368083626031875610e-02
-2.206049859523773193e-02
4.011642560362815857e-02
8.220674842596054077e-02
-1.776776090264320374e-02
-5.358251929283142090e-02
8.815109729766845703e-03
-5.669381096959114075e-02
6.108736246824264526e-02
6.540379673242568970e-02
-1.550349146127700806e-01
3.853330761194229126e-02
-4.983079433441162109e-02
1.034429818391799927e-01
2.008895389735698700e-02
1.313798725605010986e-01
6.326518207788467407e-02
1.392453908920288086e-01
6.825753953307867050e-03
9.957294911146163940e-03
6.775410473346710205e-02
-8.910565078258514404e-02
7.812094688415527344e-02
-1.535475850105285645e-01
-2.099299803376197815e-02
-1.190385594964027405e-01
7.390416413545608521e-02
7.224889099597930908e-02
-8.129101246595382690e-02
-5.709169805049896240e-02
7.690730690956115723e-02
-1.580307185649871826e-01
1.338311135768890381e-01
-6.073269248008728027e-02
-3.576172515749931335e-02
-1.211057007312774658e-01
7.752206176519393921e-02
-9.792134165763854980e-03
-1.199845448136329651e-01
1.015594154596328735e-01
-1.078000813722610474e-01
-3.075351566076278687e-02
-6.243767216801643372e-02
-6.093844771385192871e-02
5.493048951029777527e-02
-5.341660976409912109e-02
-6.010201945900917053e-02
-3.258331120014190674e-02
-1.356674730777740479e-01
5.564790964126586914e-02
-1.037517786026000977e-01
1.264389157295227051e-01
3.149306576233357191e-04
1.240397244691848755e-01
-2.114588767290115356e-02
2.867941185832023621e-02
-1.649543046951293945e-01
1.329813599586486816e-01
-8.583319187164306641e-02
1.030216440558433533e-01
-4.645631834864616394e-02
-7.124903798103332520e-02
-5.746545735746622086e-03
1.343137770891189575e-01
4.139528796076774597e-02
1.280654370784759521e-01
-9.729742258787155151e-02
1.671998575329780579e-02
-9.414776414632797241e-02
4.552432149648666382e-02
3.104182332754135132e-02
-1.168344095349311829e-01
1.278024073690176010e-02
-4.668370634317398071e-02
9.424128569662570953e-03
8.513614535331726074e-03
-3.739102557301521301e-02
-6.173158809542655945e-02
8.191161789000034332e-03
5.890794098377227783e-02
3.143261373043060303e-02
5.408067256212234497e-02
8.096859604120254517e-02
9.141438454389572144e-02
5.520207062363624573e-02
1.145577430725097656e-01
-6.364985369145870209e-03
7.671876996755599976e-02
4.565948620438575745e-02
-3.862990438938140869e-02
-9.765554219484329224e-02
1.570859737694263458e-02
-2.200205065310001373e-02
-1.757083535194396973e-01
-1.183101385831832886e-01
-9.581042826175689697e-02
1.371401101350784302e-01
2.263057418167591095e-02
3.758614882826805115e-03
-1.355869919061660767e-01
-2.103354595601558685e-02
1.061848774552345276e-01
-8.963628113269805908e-02
-3.350743791088461876e-03
3.624781221151351929e-02
1.305329948663711548e-01
2.403437346220016479e-02
-7.882176339626312256e-02
-4.223962500691413879e-02
6.778350565582513809e-03
1.128950268030166626e-01
-5.672682076692581177e-02
-4.117815941572189331e-02
-2.275076955556869507e-01
-1.523196697235107422e-01
3.315393254160881042e-02
-1.288048774003982544e-01
1.988348662853240967e-01
7.210104959085583687e-04
-2.353803068399429321e-02
-2.328619509935379028e-01
-8.422698825597763062e-02
-1.020930930972099304e-01
-1.844655163586139679e-02
-3.929388150572776794e-02
-8.265717327594757080e-02
6.007025018334388733e-03
-5.885281786322593689e-02
6.589136272668838501e-02
-5.223697051405906677e-03
-1.505825966596603394e-01
-5.482917279005050659e-02
-4.953851923346519470e-03
-1.831625960767269135e-02
-1.124780327081680298e-01
2.891865000128746033e-02
-7.011289894580841064e-02
-1.695115119218826294e-02
-1.834163814783096313e-02
-1.066731289029121399e-01
1.001875624060630798e-01
6.898629665374755859e-02
1.723621189594268799e-01
-6.475510075688362122e-03
1.103970035910606384e-02
-7.640574872493743896e-02
-8.536450564861297607e-02
6.883164495229721069e-02
9.086642414331436157e-02
4.347691312432289124e-02
5.562738329172134399e-02
-3.262387216091156006e-02
1.392804086208343506e-01
-2.314455620944499969e-02
-7.886110246181488037e-02
1.178276017308235168e-01
4.219348356127738953e-02
-7.422418892383575439e-02
9.199284762144088745e-02
-1.047165840864181519e-01
-8.396732062101364136e-02
2.697340957820415497e-02
-8.648983389139175415e-02
-7.693140953779220581e-02
-1.091835573315620422e-01
-1.278781704604625702e-02
-3.816579701378941536e-03
2.684666588902473450e-02
-8.626911044120788574e-02
-6.493839621543884277e-02
4.475010931491851807e-02
1.869803480803966522e-02
3.418676927685737610e-02
4.624335840344429016e-02
1.253354400396347046e-01
1.170975938439369202e-01
2.856391668319702148e-02
7.433678489178419113e-03
2.369220741093158722e-02
9.149705991148948669e-03
5.537566170096397400e-02
-1.104119420051574707e-02
1.248698681592941284e-02
7.009927928447723389e-02
-1.104694381356239319e-01
1.826870627701282501e-02
1.129754185676574707e-01
-8.454480767250061035e-02
5.419946089386940002e-02
6.988970935344696045e-02
9.254934266209602356e-03
-1.399806467816233635e-03
1.473481804132461548e-01
-3.777837380766868591e-02
-1.292977333068847656e-01
-2.936414070427417755e-02
1.160841658711433411e-01
5.866703018546104431e-02
4.517531488090753555e-03
1.322125550359487534e-02
-6.557728350162506104e-02
-1.120250597596168518e-01
1.818490773439407349e-02
-3.266399726271629333e-02
2.629329264163970947e-02
1.310549825429916382e-01
-4.951576516032218933e-02
8.544354140758514404e-02
7.852379232645034790e-02
3.949813917279243469e-02
-1.222874596714973450e-02
-8.467260003089904785e-02
-1.151640340685844421e-01
-2.934451587498188019e-02
3.488351032137870789e-02
-1.187876835465431213e-01
3.083809278905391693e-02
5.178311467170715332e-02
-9.671610593795776367e-02
-1.081375926733016968e-01
-5.557814147323369980e-03
-1.052962020039558411e-01
-9.429625421762466431e-02
1.084456145763397217e-01
5.736086517572402954e-03
-1.994854658842086792e-01
4.715690016746520996e-02
1.168774142861366272e-01
-1.902704313397407532e-02
-6.703469157218933105e-02
-4.209535196423530579e-02
1.239909753203392029e-01
5.841530114412307739e-02
5.473057180643081665e-02
1.038808524608612061e-01
-1.059803739190101624e-01
1.314652711153030396e-01
-1.403122395277023315e-01
-9.062990546226501465e-02
-9.745170176029205322e-02
-1.779830306768417358e-01
-6.372211128473281860e-02
-7.367712259292602539e-02
-1.615101248025894165e-01
-1.060294583439826965e-01
5.935144796967506409e-02
7.595997303724288940e-02
1.029378101229667664e-01
-8.563040941953659058e-02
8.094460517168045044e-02
9.568805992603302002e-02
5.178496614098548889e-02
3.555641323328018188e-02
1.416880041360855103e-01
-1.255355626344680786e-01
2.341954968869686127e-02
1.847643963992595673e-02
-5.091276392340660095e-02
3.197101131081581116e-02
2.943319268524646759e-02
1.092725782655179501e-03
1.080247294157743454e-02
-1.092879176139831543e-01
-1.401187479496002197e-01
-9.893525391817092896e-02
-9.665402583777904510e-03
-1.399061232805252075e-01
1.342719327658414841e-02
-1.410436630249023438e-01
-8.085462450981140137e-02
-2.796533331274986267e-02
9.848327189683914185e-02
4.322877619415521622e-03
8.336494863033294678e-02
1.008292213082313538e-01
-4.893128946423530579e-02
1.215777359902858734e-02
-5.961522087454795837e-02
-1.094784364104270935e-01
-7.137326989322900772e-03
6.118724122643470764e-03
-1.443818807601928711e-01
-1.004737839102745056e-01
5.722732469439506531e-02
1.584391109645366669e-02
-3.626562282443046570e-02
1.103243827819824219e-01
4.634381458163261414e-02
-3.845362516585737467e-04
-6.127934530377388000e-02
-1.191518232226371765e-01
7.388693839311599731e-02
9.129131585359573364e-02
6.035388633608818054e-02
-1.110125333070755005e-01
-5.771331489086151123e-02
-2.331697344779968262e-01
-1.050854474306106567e-01
5.260448902845382690e-02
-1.147484686225652695e-02
-1.122437193989753723e-01
-9.729474037885665894e-02
-1.620978862047195435e-01
-1.200716048479080200e-01
-5.967962369322776794e-02
5.907080136239528656e-03
-1.655544638633728027e-01
5.592608079314231873e-02
1.913547515869140625e-03
9.758659452199935913e-02
-8.737557381391525269e-02
7.086691260337829590e-02
3.956611827015876770e-02
-5.497445235960185528e-04
6.228634715080261230e-02
-1.147178113460540771e-01
-4.417742788791656494e-02
-1.111529618501663208e-01
7.307825237512588501e-02
-1.093319710344076157e-02
5.696968734264373779e-02
5.129875987768173218e-02
2.100155130028724670e-02
-1.040216311812400818e-01
1.298505961894989014e-01
-1.250301599502563477e-01
-5.138665065169334412e-02
-1.148415915668010712e-02
-6.345929205417633057e-02
-6.879725307226181030e-02
-3.225376829504966736e-02
5.677502229809761047e-02
-1.793928211554884911e-03
-1.191661283373832703e-01
-2.538738772273063660e-02
-1.020275354385375977e-01
1.183655858039855957e-01
-9.878213703632354736e-02
5.045391991734504700e-02
-9.241192787885665894e-02
-7.715976238250732422e-02
-2.384917996823787689e-02
-1.217722892761230469e-01
-1.475984044373035431e-02
6.052598729729652405e-02
-8.417953550815582275e-02
-5.929614230990409851e-02
3.073698841035366058e-02
-1.129495427012443542e-01
-5.109499767422676086e-02
3.373471647500991821e-02
8.472939580678939819e-02
-6.168325990438461304e-02
-9.817916154861450195e-02
-1.063602194190025330e-01
2.803197689354419708e-02
-1.209621950984001160e-01
7.374607026576995850e-02
-8.814793080091476440e-02
-1.032770276069641113e-01
-1.847457587718963623e-01
-1.116449013352394104e-01
8.079278469085693359e-02
-1.235423311591148376e-01
8.955661207437515259e-02
-9.050033986568450928e-02
3.565841168165206909e-02
1.097858026623725891e-01
-1.816425472497940063e-01
-9.624100290238857269e-03
7.857435196638107300e-02
-8.127595484256744385e-02
-1.207760721445083618e-01
4.349787160754203796e-02
-1.548596173524856567e-01
1.351697184145450592e-02
3.425714746117591858e-02
-8.426755666732788086e-03
9.259168058633804321e-02
7.869065552949905396e-02
6.925144791603088379e-02
1.188337877392768860e-01
7.188504189252853394e-02
-1.311848312616348267e-01
-1.041438058018684387e-01
-5.593927577137947083e-02
-2.240756340324878693e-02
4.191214963793754578e-02
7.240565866231918335e-02
-5.145604908466339111e-02
-4.301523417234420776e-02
5.614718794822692871e-02
6.243982538580894470e-02
-3.444245457649230957e-02
-1.277532055974006653e-02
-1.055329889059066772e-01
3.746656700968742371e-02
-5.542472377419471741e-02
-6.203547865152359009e-02
-1.210148409008979797e-01
9.893090277910232544e-02
-8.394834399223327637e-02
-1.613900624215602875e-02
3.789525851607322693e-02
-1.266445368528366089e-01
-5.136332660913467407e-02
-9.580083936452865601e-02
-2.238808665424585342e-03
4.247822612524032593e-02
-6.776173412799835205e-02
-9.832628071308135986e-02
-1.361390799283981323e-01
4.364478215575218201e-02
-1.299193948507308960e-01
-7.308804243803024292e-02
-9.212865680456161499e-02
2.980879694223403931e-02
7.373115047812461853e-03
1.979220658540725708e-03
-6.574433296918869019e-02
-5.598609894514083862e-02
8.171712607145309448e-02
7.677633315324783325e-02
-7.466700673103332520e-02
-1.207795813679695129e-01
8.863418363034725189e-03
-8.165609836578369141e-02
-1.899067661724984646e-03
1.170512735843658447e-01
9.893187135457992554e-02
1.740145683288574219e-02
2.629075199365615845e-02
7.375559955835342407e-02
-6.095242127776145935e-02
-1.188173592090606689e-01
7.185322046279907227e-02
-7.355481386184692383e-02
2.715593017637729645e-02
1.316769421100616455e-01
-1.055381000041961670e-01
-2.092949301004409790e-02
-9.624204039573669434e-02
-1.706408411264419556e-01
-1.081124544143676758e-01
-1.991260424256324768e-02
-6.964312493801116943e-02
-3.314160043373703957e-03
1.066833734512329102e-02
-6.943564116954803467e-02
-3.454312682151794434e-02
-1.439101696014404297e-01
5.306592211127281189e-02
7.429365068674087524e-02
-1.102492436766624451e-01
5.650476552546024323e-03
-1.225661039352416992e-01
-1.126143932342529297e-01
1.674727909266948700e-02
-4.652355983853340149e-02
-4.655826836824417114e-02
6.281287223100662231e-02
2.869696472771465778e-04
-5.478752404451370239e-02
6.720002740621566772e-03
-1.112887337803840637e-01
-1.775601357221603394e-01
-7.216295227408409119e-03
9.424943476915359497e-02
1.188688129186630249e-01
5.826544761657714844e-02
8.687283843755722046e-03
8.351150900125503540e-02
-6.795985996723175049e-02
-8.200695365667343140e-02
5.374730005860328674e-02
-9.253174811601638794e-02
5.892844498157501221e-02
1.101582422852516174e-01
1.179419234395027161e-01
-1.550751477479934692e-01
-5.126211792230606079e-02
-1.316007692366838455e-02
-7.278814911842346191e-03
-2.914678677916526794e-02
3.116353414952754974e-02
-3.076761029660701752e-02
-1.744479835033416748e-01
1.002551913261413574e-01
6.060278788208961487e-02
-1.289363503456115723e-01
3.300496563315391541e-02
3.892702236771583557e-02
7.647680491209030151e-02
1.277384459972381592e-01
7.351664453744888306e-02
-1.095578819513320923e-02
-3.487695753574371338e-02
-2.591390162706375122e-02
-3.744458779692649841e-02
-1.197122316807508469e-02
5.053174495697021484e-02
3.764567896723747253e-02
-5.444937199354171753e-02
7.973210513591766357e-02
5.918277427554130554e-02
5.554461479187011719e-02
2.405473589897155762e-02
2.109172753989696503e-02
-7.245538383722305298e-02
-4.679749533534049988e-02
-6.243171542882919312e-02
3.899525478482246399e-02
5.462369695305824280e-02
-1.438483744859695435e-01
6.400444358587265015e-02
-3.245783224701881409e-02
-6.970944255590438843e-02
-1.071778908371925354e-01
5.579371377825737000e-02
1.014113798737525940e-01
-4.115371778607368469e-02
1.358099430799484253e-01
-9.097463637590408325e-02
3.386263502761721611e-03
8.011285215616226196e-02
1.024893298745155334e-01
-8.295866847038269043e-02
-9.298745542764663696e-02
-7.916152477264404297e-02
-1.132196839898824692e-02
2.674655243754386902e-02
1.859937608242034912e-01
-5.661008879542350769e-02
7.191535085439682007e-02
2.737030200660228729e-02
-4.436809569597244263e-02
5.011303722858428955e-02
-9.364500641822814941e-02
1.463117748498916626e-01
1.498751528561115265e-02
-1.623163074254989624e-01
5.354797095060348511e-02
1.526707410812377930e-01
-4.939121380448341370e-02
8.530640602111816406e-02
2.506662532687187195e-02
7.427552342414855957e-02
5.345553532242774963e-02
-8.979650586843490601e-02
-1.325317919254302979e-01
-3.108596429228782654e-02
1.155931800603866577e-01
-8.842518180608749390e-02
9.108358621597290039e-02
-2.934603579342365265e-02
3.436264395713806152e-02
1.422786619514226913e-02
5.900361016392707825e-02
-1.061389874666929245e-02
1.683546155691146851e-01
-1.250678300857543945e-01
1.689479127526283264e-02
-9.347371011972427368e-02
6.669018417596817017e-02
9.035748988389968872e-02
2.200917154550552368e-02
5.521311238408088684e-02
-8.838319033384323120e-02
4.389426484704017639e-02
8.128870278596878052e-02
-8.052529394626617432e-02
-9.551819413900375366e-02
-1.079936772584915161e-01
8.703279495239257812e-02
8.514137566089630127e-02
3.362791985273361206e-02
5.367741733789443970e-02
9.932498447597026825e-03
5.506844818592071533e-02
4.057322070002555847e-02
-6.969681940972805023e-03
-6.447040289640426636e-02
1.301750689744949341e-01
-7.949293404817581177e-02
4.870397504419088364e-03
5.855286866426467896e-02
5.978808179497718811e-02
7.147687673568725586e-02
-8.856358379125595093e-02
-9.566449373960494995e-02
5.220622196793556213e-02
8.394337445497512817e-02
1.183512583374977112e-01
-3.051479533314704895e-02
1.261232048273086548e-01
-1.933458633720874786e-02
1.330526638776063919e-02
9.068437665700912476e-02
-8.124624192714691162e-02
1.262956112623214722e-01
4.377005249261856079e-02
-1.823828741908073425e-02
-3.621143847703933716e-02
-3.658343479037284851e-02
4.749012738466262817e-02
1.201303303241729736e-01
-6.165217235684394836e-02
9.427081793546676636e-02
5.531841889023780823e-02
-2.402411960065364838e-02
1.465739458799362183e-01
1.215650290250778198e-01
2.039214596152305603e-03
5.749622359871864319e-03
-1.344738453626632690e-01
1.275640130043029785e-01
-9.580902010202407837e-02
1.887533254921436310e-02
-1.136890053749084473e-01
-1.088635474443435669e-01
1.035275310277938843e-01
-2.477393858134746552e-02
4.667540639638900757e-02
7.300305366516113281e-02
7.611037790775299072e-02
6.947922706604003906e-02
4.059258103370666504e-02
-4.617317393422126770e-02
-7.555336505174636841e-02
-2.291790768504142761e-02
-8.318135887384414673e-02
4.788814857602119446e-02
8.166618645191192627e-02
-1.029073596000671387e-01
-1.453970372676849365e-01
7.342525571584701538e-02
1.210276037454605103e-02
1.163525655865669250e-01
1.032702848315238953e-01
1.351918373256921768e-02
-8.042468875646591187e-02
8.583758957684040070e-03
-1.153245493769645691e-01
7.357031106948852539e-02
1.584975048899650574e-02
-2.611262258142232895e-03
7.593677937984466553e-02
7.227461040019989014e-02
-8.374927192926406860e-02
-7.861142605543136597e-02
-9.465628117322921753e-02
-1.536013931035995483e-01
6.310200691223144531e-02
-1.102508418262004852e-02
-1.569170504808425903e-01
6.294862180948257446e-02
-5.754980072379112244e-02
1.654350459575653076e-01
1.706539690494537354e-01
-7.650001347064971924e-02
1.510883215814828873e-02
-5.875501409173011780e-02
-9.607896953821182251e-02
-2.157283714041113853e-03
-6.863823533058166504e-02
-2.706728875637054443e-02
-1.089003868401050568e-02
1.294692698866128922e-02
9.568755328655242920e-02
8.772987872362136841e-02
4.129839688539505005e-02
1.150729432702064514e-01
1.422102935612201691e-02
-8.704940229654312134e-02
7.762594521045684814e-02
-1.264087557792663574e-01
-5.905026569962501526e-02
1.721905916929244995e-01
-1.410402208566665649e-01
5.038397759199142456e-02
-7.981643080711364746e-02
-1.901696436107158661e-03
-3.787019476294517517e-02
-4.111843556165695190e-02
-1.015593335032463074e-01
-2.663145400583744049e-02
-1.244678720831871033e-01
-7.123212516307830811e-02
1.148893535137176514e-01
-5.647382140159606934e-02
-1.340371221303939819e-01
-1.288484316319227219e-02
4.695907607674598694e-02
7.775313407182693481e-02
1.599612832069396973e-02
-1.049444228410720825e-01
1.429450348950922489e-03
-1.043288633227348328e-01
4.896290972828865051e-02
7.620587199926376343e-02
9.076307713985443115e-02
-4.727631807327270508e-03
-2.711333520710468292e-02
4.367391020059585571e-02
-1.435494124889373779e-01
1.195016726851463318e-01
-4.507705196738243103e-02
5.848799645900726318e-02
-3.311136504635214806e-03
1.028578206896781921e-01
9.090124070644378662e-02
-7.034431397914886475e-02
-9.024372696876525879e-02
-3.777401521801948547e-02
-6.727032363414764404e-02
-1.022862046957015991e-01
-7.388011366128921509e-02
5.013523995876312256e-02
1.016672551631927490e-01
-7.929503917694091797e-02
-7.339248061180114746e-02
2.201821655035018921e-02
-7.046182453632354736e-02
-1.121437177062034607e-02
-4.153583943843841553e-02
2.868185518309473991e-03
1.501192748546600342e-01
1.444932655431330204e-03
3.873108327388763428e-02
-1.072424799203872681e-01
9.433218836784362793e-02
-1.048773005604743958e-01
-8.421940356492996216e-02
9.262497536838054657e-03
-3.965763747692108154e-02
9.377503767609596252e-03
5.175245460122823715e-03
-1.557473987340927124e-01
-2.253493480384349823e-02
-2.687020599842071533e-02
7.673691958189010620e-02
-2.291795052587985992e-02
3.409041464328765869e-02
1.519581675529479980e-01
-1.390666663646697998e-01
7.810848299413919449e-03
6.379055231809616089e-02
1.148459985852241516e-01
-2.086896821856498718e-02
-9.226792305707931519e-02
1.272713243961334229e-01
-3.051126375794410706e-02
2.742708660662174225e-02
-4.413029551506042480e-02
5.989599227905273438e-02
-7.568538188934326172e-02
9.354012459516525269e-02
-3.686485067009925842e-02
-1.596260815858840942e-02
3.545065596699714661e-02
-8.767976611852645874e-02
6.686961278319358826e-03
-5.521626677364110947e-03
9.007985144853591919e-02
4.686440527439117432e-02
8.957280777394771576e-03
-6.958553940057754517e-02
9.330163151025772095e-02
1.257497519254684448e-01
-1.400090288370847702e-02
7.633202522993087769e-02
5.151053890585899353e-02
-1.324114799499511719e-01
1.149399876594543457e-01
4.026607796549797058e-02
-1.023397073149681091e-01
-8.066920936107635498e-02
-1.130187883973121643e-01
9.233534336090087891e-02
1.053402945399284363e-01
1.017938777804374695e-01
-1.181616708636283875e-01
-9.094726294279098511e-02
7.146257162094116211e-02
-6.474231183528900146e-02
-8.132155053317546844e-03
-4.766346514225006104e-02
1.293189823627471924e-01
-9.619540534913539886e-03
1.177197471261024475e-01
-2.518303692340850830e-02
4.140217602252960205e-02
-1.167551800608634949e-01
-4.935525823384523392e-03
-4.745344072580337524e-02
-1.101932227611541748e-01
-1.217967271804809570e-01
1.160817295312881470e-01
1.401569247245788574e-01
-1.358361840248107910e-01
1.610542386770248413e-01
7.461597025394439697e-02
-3.433719649910926819e-02
-9.633028507232666016e-02
8.589838445186614990e-02
1.127008795738220215e-01
-4.900957271456718445e-02
-2.548076026141643524e-02
4.275261610746383667e-02
-3.413870930671691895e-02
5.228311568498611450e-02
4.677284508943557739e-02
-1.932742074131965637e-02
-3.545025363564491272e-02
-7.479655742645263672e-02
5.726711824536323547e-02
1.109823118895292282e-02
-4.191268980503082275e-02
7.813245803117752075e-02
-4.718562215566635132e-02
9.127201139926910400e-02
1.626526713371276855e-01
-5.190470442175865173e-02
-7.628291100263595581e-02
-2.108216732740402222e-01
6.245016679167747498e-02
-1.314749661833047867e-02
8.178277313709259033e-02
-7.615561038255691528e-02
1.176494285464286804e-01
6.554815173149108887e-02
-5.987132899463176727e-03
2.632839046418666840e-02
-1.017189994454383850e-01
3.770369291305541992e-02
-1.882839053869247437e-01
9.134585410356521606e-02
1.416015718132257462e-02
1.240058019757270813e-01
4.220613092184066772e-02
-7.835576683282852173e-02
-1.028836239129304886e-02
-2.435109205543994904e-02
2.623153477907180786e-02
-8.056106418371200562e-02
6.312903016805648804e-02
5.296385660767555237e-02
-1.447673738002777100e-01
6.119635328650474548e-02
1.279821433126926422e-02
-1.284927278757095337e-01
2.079677209258079529e-02
-7.360105961561203003e-02
-8.627412840723991394e-03
7.877360284328460693e-02
4.232872650027275085e-02
1.537201106548309326e-01
2.369179949164390564e-02
-1.818490680307149887e-03
5.727326124906539917e-02
-3.419452160596847534e-02
3.940436989068984985e-02
3.366170451045036316e-02
-1.335262656211853027e-01
-6.093148887157440186e-02
-1.132018864154815674e-01
-2.695276588201522827e-02
6.419542431831359863e-02
-1.290730535984039307e-01
-2.051216363906860352e-02
-1.893790811300277710e-01
-2.997853048145771027e-02
1.025736480951309204e-01
-1.595138758420944214e-02
5.999723821878433228e-02
6.963563710451126099e-02
-5.308153573423624039e-03
2.862937562167644501e-02
-1.234459206461906433e-01
-4.940275102853775024e-02
-9.455847740173339844e-02
-1.955553516745567322e-02
-7.443690206855535507e-03
-8.640379458665847778e-02
-1.046429276466369629e-01
-1.242179702967405319e-02
2.460641786456108093e-02
9.339269250631332397e-02
3.539747744798660278e-02
7.117818295955657959e-02
9.955937415361404419e-02
8.616502583026885986e-02
-5.442974343895912170e-02
-7.991009950637817383e-02
-3.896401077508926392e-02
-4.007970541715621948e-02
9.693665802478790283e-02
-1.761851459741592407e-01
1.835975795984268188e-02
4.167514294385910034e-02
1.876375377178192139e-01
-7.640849798917770386e-02
6.490169465541839600e-02
7.592371851205825806e-02
-1.051871329545974731e-01
1.732324808835983276e-02
-4.296366125345230103e-03
7.942525297403335571e-02
2.913901023566722870e-02
-3.486388176679611206e-02
3.038442879915237427e-02
-1.201553121209144592e-01
7.672073692083358765e-02
-1.227831169962882996e-01
5.085572600364685059e-02
5.356782674789428711e-02
-5.641525983810424805e-02
3.191766142845153809e-02
-1.157083287835121155e-01
-8.332495391368865967e-02
1.144445165991783142e-01
-2.158018015325069427e-02
-7.366814464330673218e-02
7.235491275787353516e-02
6.954924762248992920e-02
-5.883453413844108582e-03
5.031054839491844177e-03
8.015143126249313354e-02
-9.831276722252368927e-03
-1.181899309158325195e-01
-3.266857936978340149e-02
-4.331618919968605042e-02
-3.216685727238655090e-02
5.166450515389442444e-03
-1.548831462860107422e-01
-9.909081459045410156e-02
-1.620703637599945068e-01
1.979260332882404327e-02
-4.733491316437721252e-02
3.051826544106006622e-02
-8.853433653712272644e-03
6.136305164545774460e-03
-8.954917639493942261e-02
-1.161131486296653748e-01
-1.211155429482460022e-01
7.406238466501235962e-02
-1.141030937433242798e-01
1.419595628976821899e-01
9.556028991937637329e-02
8.326366543769836426e-02
1.018745973706245422e-01
-1.021036729216575623e-01
-1.516490280628204346e-01
1.358447223901748657e-01
3.798650205135345459e-02
6.473212689161300659e-02
-1.045830920338630676e-01
3.327020630240440369e-02
9.002839773893356323e-02
2.486285055056214333e-03
-7.505153119564056396e-02
-2.235276810824871063e-02
-3.245889768004417419e-02
-1.754202246665954590e-01
-4.028340801596641541e-02
-6.546808034181594849e-02
-2.038374776020646095e-03
-7.297701388597488403e-02
2.105472795665264130e-02
-2.808687509968876839e-03
2.857480570673942566e-02
1.280915588140487671e-01
5.413853004574775696e-02
-1.073622703552246094e-01
4.802425950765609741e-02
-1.130257640033960342e-02
-2.531548589468002319e-02
8.103407919406890869e-02
9.552326053380966187e-02
-2.293766662478446960e-02
1.167077049612998962e-01
1.107134148478507996e-01
9.753615409135818481e-02
-7.631282508373260498e-02
1.164060737937688828e-02
2.748209238052368164e-02
-1.026395335793495178e-02
6.749483942985534668e-02
-9.554128348827362061e-02
2.179566025733947754e-02
5.707553401589393616e-02
3.785858675837516785e-02
1.509610116481781006e-01
1.391912698745727539e-01
1.779904812574386597e-01
3.972671180963516235e-02
-1.084929630160331726e-01
8.969617635011672974e-02
-1.024631410837173462e-01
-2.088947221636772156e-02
1.514383107423782349e-01
1.658982485532760620e-01
-3.717082366347312927e-02
-1.167069282382726669e-02
7.225144654512405396e-02
-1.034709587693214417e-01
-7.273191213607788086e-02
7.789953052997589111e-02
6.899075116962194443e-03
1.980205811560153961e-02
2.108287438750267029e-02
-7.993754744529724121e-02
1.291992962360382080e-01
1.081461384892463684e-01
-7.564816623926162720e-02
4.632670804858207703e-02
7.123290561139583588e-03
-1.147687807679176331e-02
-2.673649042844772339e-02
1.902873367071151733e-01
5.114262551069259644e-02
1.237816140055656433e-01
1.540051251649856567e-01
-2.898414619266986847e-02
8.680337667465209961e-02
-1.204912811517715454e-01
9.963074326515197754e-02
-7.877939194440841675e-02
6.298317760229110718e-02
-6.142579764127731323e-02
-9.947834163904190063e-02
-1.087293848395347595e-01
-3.974898904561996460e-02
-8.955194801092147827e-02
-1.355549991130828857e-01
-1.531951874494552612e-01
4.792078956961631775e-02
1.237543821334838867e-01
9.851485490798950195e-02
-8.737416565418243408e-02
8.221077173948287964e-02
1.150160357356071472e-01
1.327172666788101196e-01
-1.044223736971616745e-02
-9.632591158151626587e-02
-1.021032035350799561e-01
-5.994432047009468079e-02
-1.555478423833847046e-01
6.420379132032394409e-02
-4.587115719914436340e-02
-1.337687075138092041e-01
-1.164931431412696838e-01
-6.932456791400909424e-02
9.666490554809570312e-02
3.378224745392799377e-02
-2.181775926146656275e-04
-4.323402792215347290e-02
-3.736097738146781921e-02
7.873500138521194458e-02
7.545655220746994019e-02
1.313983052968978882e-01
6.726893782615661621e-02
1.650447547435760498e-01
-1.394455600529909134e-02
-1.490167230367660522e-01
-7.416054606437683105e-02
-2.685583196580410004e-02
1.884640380740165710e-02
1.155580580234527588e-01
-5.864411965012550354e-02
-9.182710945606231689e-02
-2.594290487468242645e-02
-1.279738694429397583e-01
9.539482742547988892e-02
-3.164223209023475647e-02
3.927896171808242798e-02
3.696011006832122803e-02
-4.526076465845108032e-02
9.978619962930679321e-02
-3.916140273213386536e-02
-9.663762152194976807e-02
4.033956304192543030e-02
5.520481243729591370e-02
-1.482986658811569214e-01
1.115314662456512451e-01
-1.434511542320251465e-01
1.576434262096881866e-02
9.658040851354598999e-02
-3.405343368649482727e-02
4.595748335123062134e-02
1.753015071153640747e-02
5.095619708299636841e-02
-1.822127215564250946e-02
-8.102606236934661865e-02
-1.348350644111633301e-01
4.906815662980079651e-02
1.853236183524131775e-02
-1.196828186511993408e-01
9.565116465091705322e-02
8.467263728380203247e-02
-6.277783960103988647e-02
-1.117541175335645676e-02
1.255494952201843262e-01
-7.482726871967315674e-02
1.518479362130165100e-02
-1.868525706231594086e-02
6.711357086896896362e-02
-4.260030575096607208e-03
-1.234202273190021515e-02
3.780289366841316223e-02
9.312283992767333984e-02
-4.210894927382469177e-02
1.225953027606010437e-01
1.335773337632417679e-02
-1.359937191009521484e-01
-1.220305413007736206e-01
-9.941384941339492798e-02
-2.328259311616420746e-02
-1.100189909338951111e-01
-2.951659262180328369e-02
3.396743163466453552e-02
-1.310092806816101074e-01
4.961750470101833344e-03
-9.532842040061950684e-02
-1.267874240875244141e-01
4.065055027604103088e-02
-6.217418238520622253e-02
-2.609731256961822510e-02
-1.741980947554111481e-02
4.563543014228343964e-03
-9.368500858545303345e-02
-3.734907880425453186e-02
5.746250599622726440e-02
-4.135915264487266541e-02
4.428839683532714844e-02
1.910528726875782013e-02
2.855200087651610374e-03
9.986163675785064697e-02
-3.726126626133918762e-02
-1.449186205863952637e-01
1.637808419764041901e-02
-1.228739321231842041e-01
-7.762017101049423218e-02
1.216141730546951294e-01
9.624586254358291626e-02
1.019432768225669861e-01
6.413926370441913605e-03
6.323895603418350220e-02
3.379074856638908386e-02
9.342479705810546875e-02
1.534911524504423141e-02
2.812971360981464386e-02
6.957655306905508041e-03
-1.682136058807373047e-01
-1.009951904416084290e-01
-2.361941151320934296e-02
6.790224462747573853e-02
3.478526696562767029e-02
2.195079997181892395e-02
6.989366561174392700e-02
-2.416177839040756226e-02
-8.857102692127227783e-02
1.502296626567840576e-01
1.052539423108100891e-01
1.197765171527862549e-01
4.805491492152214050e-02
-7.188961654901504517e-02
-6.498743779957294464e-03
-1.107377037405967712e-01
-3.801401704549789429e-02
-7.107967883348464966e-02
4.961724951863288879e-02
8.553595095872879028e-02
-4.663434997200965881e-02
-1.063544526696205139e-01
-1.601512171328067780e-02
-7.719155400991439819e-03
4.635519534349441528e-02
5.039136111736297607e-02
1.785501390695571899e-01
-1.094221547245979309e-01
9.337824583053588867e-02
1.226641237735748291e-02
-2.357715973630547523e-03
2.966689132153987885e-02
-3.721813904121518135e-03
3.387748822569847107e-02
7.144498825073242188e-02
-7.039924710988998413e-02
-4.620924964547157288e-02
-2.971459180116653442e-02
-1.614885963499546051e-02
6.313521414995193481e-03
3.579736873507499695e-02
-2.099910005927085876e-02
-3.962391614913940430e-02
8.000310510396957397e-02
-2.458880469202995300e-02
9.082312136888504028e-02
-1.040990948677062988e-01
6.943974643945693970e-02
-5.479209870100021362e-02
1.592820435762405396e-01
7.932711392641067505e-02
-1.137895211577415466e-01
1.693080812692642212e-01
-4.063828289508819580e-02
9.405408799648284912e-02
-1.310869008302688599e-01
1.452436894178390503e-01
-3.534900769591331482e-02
1.276040971279144287e-01
8.749800920486450195e-02
1.391510218381881714e-01
1.034709289669990540e-01
-1.697893440723419189e-01
9.896177798509597778e-02
-3.711828263476490974e-03
1.068459972739219666e-01
-1.141150742769241333e-01
-4.941888153553009033e-02
-2.911931276321411133e-02
-7.444941997528076172e-02
7.736442983150482178e-02
-1.068730428814888000e-01
-8.422289043664932251e-02
-3.621366992592811584e-02
1.308665573596954346e-01
-8.880862593650817871e-02
-7.661022711545228958e-03
-6.633461266756057739e-02
-1.006611883640289307e-01
-1.670885272324085236e-02
9.452857077121734619e-03
-5.001226905733346939e-03
-5.787105858325958252e-02
-7.111816853284835815e-02
-9.745078533887863159e-02
-2.461572410538792610e-03
-8.860402554273605347e-02
-1.001334115862846375e-01
2.333211526274681091e-02
8.124682120978832245e-03
1.174499168992042542e-01
-1.587267071008682251e-01
1.223119199275970459e-01
-1.356581300497055054e-01
6.272946298122406006e-02
-3.239893913269042969e-02
-4.623471200466156006e-02
1.078843399882316589e-01
-9.357085824012756348e-02
-4.877457860857248306e-03
1.031320318579673767e-01
1.103625223040580750e-01
7.168750464916229248e-02
-1.289404090493917465e-02
1.268173009157180786e-01
1.190639510750770569e-01
5.363794043660163879e-02
3.383859619498252869e-02
9.463012218475341797e-02
-9.251618385314941406e-02
6.162933423183858395e-04
-5.751168727874755859e-02
1.561595872044563293e-02
4.740860313177108765e-02
1.125877201557159424e-01
-8.609858341515064240e-03
-9.596213349141180515e-04
-1.893346160650253296e-01
-5.452404543757438660e-02
-7.974841445684432983e-02
1.614451259374618530e-01
-8.216668851673603058e-03
2.059805020689964294e-02
4.043217748403549194e-02
-9.237144887447357178e-02
-9.456682018935680389e-03
-7.532799988985061646e-02
-1.065721828490495682e-02
1.438252776861190796e-01
5.197634920477867126e-02
4.019687324762344360e-02
-4.949877783656120300e-02
9.235492348670959473e-02
3.269306197762489319e-02
2.685136348009109497e-02
-9.973318129777908325e-02
-8.599148690700531006e-02
-8.036995679140090942e-02
-7.517680525779724121e-02
-1.649603433907032013e-02
-1.423449516296386719e-01
3.195198997855186462e-02
-4.424770176410675049e-02
-3.770384937524795532e-02
-2.491966634988784790e-02
-1.126893982291221619e-01
-2.193565294146537781e-02
7.796309073455631733e-04
-1.265331506729125977e-01
-6.126428768038749695e-02
-3.681690245866775513e-02
4.111625254154205322e-02
1.054231598973274231e-01
1.065545976161956787e-01
-1.318863034248352051e-02
-6.818435341119766235e-02
5.455040931701660156e-02
-6.967191398143768311e-02
2.367944456636905670e-02
2.511660382151603699e-02
1.125529333949089050e-01
-8.004923909902572632e-02
9.844109416007995605e-02
-9.615011513233184814e-03
-6.244971230626106262e-02
-4.339125379920005798e-02
1.433968096971511841e-01
-8.310230076313018799e-02
-1.157463416457176208e-01
8.060981333255767822e-02
6.359236687421798706e-02
4.314448684453964233e-02
5.656600464135408401e-03
5.989707633852958679e-02
8.119548857212066650e-02
-1.127409785985946655e-01
5.236887186765670776e-02
1.010287255048751831e-01
8.526583015918731689e-02
-4.845904558897018433e-02
-1.296909619122743607e-02
-1.355574280023574829e-01
1.385864522308111191e-02
-8.594612777233123779e-02
2.312432415783405304e-02
1.741405725479125977e-01
3.961424902081489563e-02
-5.102871451526880264e-03
-1.287615299224853516e-01
1.653266698122024536e-02
-7.519835233688354492e-02
6.907266378402709961e-02
-6.484611332416534424e-02
2.375365234911441803e-03
-9.214121848344802856e-03
-1.894902288913726807e-01
1.419908404350280762e-01
-4.385959729552268982e-02
-1.712866276502609253e-01
-1.873249262571334839e-01
4.192038625478744507e-02
1.051028594374656677e-01
1.034954488277435303e-01
-1.243683174252510071e-01
4.059118404984474182e-02
-7.855989038944244385e-02
-4.141346085816621780e-03
1.495941281318664551e-01
-6.504322588443756104e-02
2.658255770802497864e-02
-8.687734603881835938e-02
-8.323995396494865417e-03
1.300269179046154022e-02
-8.460920304059982300e-02
7.599541451781988144e-03
5.040961503982543945e-02
-6.599872559309005737e-02
-5.420683324337005615e-02
-2.530753985047340393e-02
-4.440836235880851746e-02
-5.726899951696395874e-02
1.307281255722045898e-01
4.875367507338523865e-02
1.110058128833770752e-01
-4.629412665963172913e-02
-7.533287256956100464e-02
-1.377338618040084839e-01
6.356386840343475342e-02
3.264907747507095337e-02
-4.784741252660751343e-02
7.983128726482391357e-02
1.170267909765243530e-01
7.053299993276596069e-02
5.155768617987632751e-02
-1.656037420034408569e-01
2.396623417735099792e-02
-3.547748923301696777e-02
-9.572869166731834412e-03
-9.583839774131774902e-02
-3.440274298191070557e-02
5.172493308782577515e-02
-5.553720891475677490e-02
1.763611435890197754e-01
-8.080407045781612396e-03
7.320245355367660522e-02
-1.497443318367004395e-01
1.449756510555744171e-02
-1.836229264736175537e-01
-1.744034379953518510e-04
-9.417657554149627686e-02
4.004189372062683105e-02
1.229090765118598938e-01
1.841235756874084473e-01
4.615308716893196106e-03
-1.403353177011013031e-02
2.114449068903923035e-02
-3.394148871302604675e-02
-7.400583475828170776e-02
-6.246259063482284546e-02
7.390296459197998047e-02
9.740630537271499634e-02
-3.781419992446899414e-02
6.102896109223365784e-02
-7.132685184478759766e-02
-2.799923764541745186e-03
-7.291076332330703735e-02
-9.508874267339706421e-02
3.019563667476177216e-02
9.889263659715652466e-02
-3.460166603326797485e-02
7.077018171548843384e-02
6.857186555862426758e-02
-1.163869649171829224e-01
5.379925295710563660e-02
1.101912111043930054e-01
6.473507732152938843e-02
5.076343566179275513e-02
-2.562553808093070984e-02
1.030129045248031616e-01
4.767389968037605286e-02
6.938019394874572754e-02
3.871068730950355530e-02
5.451644212007522583e-02
-1.828227490186691284e-01
6.468407809734344482e-02
6.649780273437500000e-02
-5.025248602032661438e-02
1.676111482083797455e-02
-8.353251218795776367e-02
2.847877889871597290e-02
3.031225502490997314e-02
1.159622445702552795e-01
8.313544094562530518e-02
9.738284163177013397e-03
8.863578736782073975e-02
8.929891139268875122e-02
1.645594239234924316e-01
-1.133315861225128174e-01
-3.872170113027095795e-03
-3.951752185821533203e-02
-6.347246468067169189e-02
1.523421257734298706e-01
1.568111032247543335e-01
-1.303312778472900391e-01
-2.549749799072742462e-02
-5.624433979392051697e-02
9.368376433849334717e-02
-5.319572240114212036e-02
6.584631651639938354e-02
-8.874455839395523071e-02
8.640873432159423828e-02
1.050291657447814941e-01
7.213754206895828247e-02
-1.004433184862136841e-01
-8.693221956491470337e-02
6.677130609750747681e-02
1.186641603708267212e-01
-2.549766935408115387e-02
-3.257231414318084717e-02
-1.792215555906295776e-02
6.588406860828399658e-02
6.009086035192012787e-03
3.059560246765613556e-02
-7.487018406391143799e-02
-8.853620290756225586e-02
6.415034830570220947e-02
-3.394847735762596130e-02
-1.694468259811401367e-01
1.318968832492828369e-01
-2.048875205218791962e-03
9.028024226427078247e-02
-9.910938888788223267e-02
-2.263348177075386047e-02
6.477655470371246338e-02
2.299541048705577850e-02
-9.875755012035369873e-02
3.226748481392860413e-02
9.019615501165390015e-02
-6.829375866800546646e-03
-5.877739563584327698e-02
-1.134717557579278946e-02
-8.526140451431274414e-02
-2.923693321645259857e-02
-8.518878370523452759e-02
1.247090324759483337e-01
8.161562681198120117e-02
5.754243582487106323e-02
-1.181210726499557495e-01
1.217344701290130615e-01
9.731859713792800903e-02
5.308203399181365967e-02
-1.838948577642440796e-02
-4.249842837452888489e-02
-1.122078374028205872e-01
-2.240946982055902481e-03
8.031357824802398682e-02
1.065295562148094177e-01
3.315848857164382935e-02
6.573907565325498581e-03
9.262977540493011475e-02
-1.441359817981719971e-01
-2.279174141585826874e-02
1.127828732132911682e-01
1.092306151986122131e-01
3.878911212086677551e-02
5.492834001779556274e-02
9.699659794569015503e-02
7.302399724721908569e-02
-9.886891394853591919e-02
-1.201666370034217834e-01
1.024128124117851257e-01
4.095343127846717834e-02
-6.284660845994949341e-02
-3.439311683177947998e-02
-8.498394489288330078e-02
4.918937385082244873e-02
5.754321441054344177e-02
-5.140772555023431778e-03
-1.519194710999727249e-02
-1.227031424641609192e-01
1.155922003090381622e-02
8.102738112211227417e-02
9.794217348098754883e-02
5.542997643351554871e-02
8.544941246509552002e-02
-2.074311673641204834e-02
4.913866892457008362e-02
2.486647665500640869e-02
7.998005300760269165e-02
4.805979132652282715e-02
8.021108806133270264e-02
2.642280422151088715e-02
-1.348375976085662842e-01
-6.225714460015296936e-02
1.280549615621566772e-01
-4.712106660008430481e-03
-4.756480455398559570e-02
1.733437180519104004e-03
-1.525826659053564072e-02
9.592011570930480957e-02
-1.388079375028610229e-01
7.909269630908966064e-02
7.123304158449172974e-02
1.204258203506469727e-01
1.003948450088500977e-01
-4.560803528875112534e-03
7.920603454113006592e-02
5.696495622396469116e-02
-2.149428613483905792e-02
-1.739280484616756439e-02
1.024657487869262695e-01
-3.457301482558250427e-02
1.035213470458984375e-01
4.287669435143470764e-02
9.782560914754867554e-02
1.102593615651130676e-01
1.097601279616355896e-01
1.364327073097229004e-01
2.883258834481239319e-02
-5.362532660365104675e-02
-6.401133537292480469e-02
-6.852731108665466309e-02
1.078666672110557556e-01
-5.280467867851257324e-02
1.004045605659484863e-01
7.568885572254657745e-03
-1.547195017337799072e-02
2.305403910577297211e-02
-1.566123031079769135e-02
-1.209143474698066711e-01
-4.754706844687461853e-02
8.421190828084945679e-02
1.177034527063369751e-01
-1.884061261080205441e-03
-5.469388887286186218e-02
-2.991071902215480804e-02
1.789845079183578491e-01
-8.603812754154205322e-02
-8.905122429132461548e-02
4.538153484463691711e-02
1.837923750281333923e-02
6.451863050460815430e-02
9.380896389484405518e-02
9.350699931383132935e-02
4.630606994032859802e-02
1.296808868646621704e-01
7.541970908641815186e-02
4.620378464460372925e-02
-1.132691353559494019e-01
-1.144540216773748398e-02
6.482540816068649292e-02
-6.064474210143089294e-02
5.135377123951911926e-02
1.386427879333496094e-01
3.710400313138961792e-02
-1.051955744624137878e-01
-6.998065114021301270e-02
1.363493949174880981e-01
8.416793495416641235e-02
9.218959137797355652e-03
-4.687100648880004883e-02
-2.042282968759536743e-01
-9.179928153753280640e-02
-2.978530898690223694e-02
-2.279429435729980469e-01
5.679298937320709229e-02
-2.876467257738113403e-02
-2.106646774336695671e-03
-2.466724254190921783e-02
8.562746457755565643e-03
2.739810571074485779e-02
8.840238302946090698e-02
-7.588009536266326904e-02
-3.316320106387138367e-02
-6.723086535930633545e-02
-1.436709761619567871e-01
1.063447445631027222e-01
-4.026355966925621033e-02
-1.693760305643081665e-01
-3.547897934913635254e-02
3.447232395410537720e-02
4.968142509460449219e-02
9.496983885765075684e-02
1.429796814918518066e-01
3.130147233605384827e-02
-1.205797716975212097e-01
1.298101991415023804e-01
-9.355743974447250366e-02
2.915782667696475983e-02
-1.452733576297760010e-01
-9.426159411668777466e-02
2.593634650111198425e-02
-1.056678965687751770e-01
-6.894009560346603394e-02
-9.257278591394424438e-02
-1.285482347011566162e-01
5.524381622672080994e-02
1.234202384948730469e-01
-4.753113258630037308e-03
3.966589272022247314e-02
3.270553052425384521e-02
-3.322016447782516479e-02
-6.297509185969829559e-03
-1.797608882188796997e-01
4.199109971523284912e-02
4.441724345088005066e-02
1.316233575344085693e-01
-1.671094745397567749e-01
4.404202848672866821e-02
1.373891234397888184e-01
4.908900707960128784e-02
7.498528342694044113e-03
9.354356676340103149e-02
-1.183533892035484314e-01
6.088672578334808350e-02
-1.056312993168830872e-01
-1.383120194077491760e-02
1.354086995124816895e-01
5.994348973035812378e-02
-1.718822307884693146e-02
-2.226193062961101532e-02
-6.753128021955490112e-02
7.167185842990875244e-02
4.548330977559089661e-02
-8.851577341556549072e-02
-1.300002187490463257e-01
9.597960859537124634e-02
2.831155434250831604e-02
6.694943457841873169e-02
1.375631093978881836e-01
-5.063903518021106720e-03
-3.178282082080841064e-02
-5.900850892066955566e-02
5.413848906755447388e-02
9.578603506088256836e-02
8.153740316629409790e-02
1.986701786518096924e-02
8.889221400022506714e-02
1.797880977392196655e-01
-4.430407658219337463e-02
8.595727384090423584e-02
4.122054204344749451e-03
-9.030401706695556641e-02
1.238785013556480408e-01
-6.899564713239669800e-02
1.606754511594772339e-01
-1.393583789467811584e-02
5.679200962185859680e-02
1.322240978479385376e-01
5.056248605251312256e-02
3.954107686877250671e-02
-7.925879955291748047e-02
1.104537248611450195e-01
-8.907248824834823608e-02
1.481396425515413284e-02
-1.080713719129562378e-01
-1.256955116987228394e-01
2.701441012322902679e-02
-7.325370609760284424e-02
8.867602050304412842e-02
7.543668895959854126e-02
1.412228792905807495e-01
8.762747794389724731e-02
1.620265422388911247e-03
-1.954345218837261200e-02
-6.086719036102294922e-02
1.253871619701385498e-01
7.164027541875839233e-02
1.643747985363006592e-01
-1.628584973514080048e-02
1.392987668514251709e-01
-1.404719986021518707e-02
1.178082749247550964e-01
5.260134860873222351e-02
1.085138320922851562e-01
-1.943355612456798553e-02
1.079943999648094177e-01
-1.298443078994750977e-01
1.494577433913946152e-02
1.139860041439533234e-02
-1.039451286196708679e-01
-1.176070654764771461e-03
-1.022399663925170898e-01
-6.319570238701999187e-04
-4.616967216134071350e-02
-1.066524460911750793e-01
-2.188512235879898071e-01
8.801580965518951416e-02
4.272377118468284607e-02
2.125872522592544556e-01
-4.132134467363357544e-02
-1.451019104570150375e-02
-1.299274992197751999e-02
5.442793481051921844e-03
1.103698685765266418e-01
-3.044801391661167145e-02
-8.691251277923583984e-03
-5.614207312464714050e-02
1.627870090305805206e-02
-8.847698569297790527e-02
8.463764563202857971e-03
5.926853790879249573e-02
-4.995463043451309204e-02
1.360331624746322632e-01
-3.826043976005166769e-04
9.739364683628082275e-02
-1.225015148520469666e-02
-1.498401015996932983e-01
2.031980454921722412e-02
-2.414969354867935181e-02
-7.569861412048339844e-02
-3.040817938745021820e-02
-9.860874712467193604e-02
-5.763644352555274963e-02
-9.795521944761276245e-02
-2.179958075284957886e-01
-1.956470161676406860e-01
-4.943729937076568604e-02
8.763510733842849731e-02
-5.935154110193252563e-02
8.066156506538391113e-02
6.607162952423095703e-02
2.119616139680147171e-03
-2.762647569179534912e-01
-5.397611856460571289e-02
-4.615087062120437622e-02
-6.553002446889877319e-02
8.864525705575942993e-02
-1.365585774183273315e-01
1.622318476438522339e-01
-5.579460412263870239e-02
-8.283732086420059204e-02
-1.007233858108520508e-01
-9.445549547672271729e-02
-6.585764884948730469e-02
-1.018245965242385864e-01
-3.170881271362304688e-01
-3.000625222921371460e-02
-1.763749681413173676e-02
1.219862792640924454e-02
-1.168360933661460876e-01
-2.253435365855693817e-02
-4.981932695955038071e-03
1.412755995988845825e-01
1.816413737833499908e-02
1.645057578571140766e-03
5.160361900925636292e-02
-7.760108262300491333e-02
1.551275551319122314e-01
-2.028443217277526855e-01
-1.208345666527748108e-01
2.540437690913677216e-02
-5.119179561734199524e-02
7.927002757787704468e-02
6.783095002174377441e-02
2.259735949337482452e-02
-6.197690963745117188e-02
-1.124282330274581909e-01
9.787989547476172447e-04
-1.495074331760406494e-01
2.957717701792716980e-02
7.298642396926879883e-02
2.285418659448623657e-02
5.926917120814323425e-02
-3.744286298751831055e-02
-4.100517183542251587e-02
1.350237615406513214e-02
3.635328635573387146e-02
-8.286412060260772705e-02
9.056570380926132202e-02
-7.098560780286788940e-02
-1.537910103797912598e-01
-3.283350542187690735e-02
-7.439945638179779053e-02
-1.599290668964385986e-01
3.837741538882255554e-02
-5.750887840986251831e-02
1.008969917893409729e-01
8.473777770996093750e-02
-2.100513875484466553e-01
-2.181480824947357178e-01
1.605730801820755005e-01
4.084269702434539795e-02
5.054816976189613342e-02
-7.460772246122360229e-02
3.692880272865295410e-03
-1.161595340818166733e-02
8.086114190518856049e-03
7.012026011943817139e-02
-4.099397733807563782e-02
8.079510182142257690e-02
-5.159735679626464844e-02
-1.652843803167343140e-01
8.164025843143463135e-02
-1.825008355081081390e-02
-4.475481342524290085e-03
-2.041762694716453552e-02
6.442878395318984985e-02
-1.822646260261535645e-01
-6.433364003896713257e-02
-1.110087707638740540e-01
-1.465796232223510742e-01
8.841165155172348022e-02
-1.472082175314426422e-02
5.216248705983161926e-02
-5.259016156196594238e-02
-3.674951940774917603e-02
5.914884805679321289e-02
-3.247082233428955078e-02
9.424754232168197632e-02
1.974518969655036926e-02
-5.826147273182868958e-02
2.567517571151256561e-03
4.904658067971467972e-03
1.113131120800971985e-01
-4.013754427433013916e-02
3.402389585971832275e-02
-1.528493911027908325e-01
4.413343220949172974e-02
7.389821857213973999e-02
1.145028993487358093e-01
-4.483895003795623779e-02
-1.583424210548400879e-01
9.304116666316986084e-02
1.739372014999389648e-01
-1.538885682821273804e-01
-1.165442094206809998e-01
-1.124581508338451385e-02
8.049950748682022095e-02
4.499910026788711548e-02
-7.522290199995040894e-02
-1.015771031379699707e-01
-3.204880654811859131e-02
4.907892644405364990e-02
-6.415371783077716827e-03
1.257523596286773682e-01
1.596259474754333496e-01
3.949047252535820007e-02
-1.540034916251897812e-02
-1.186184361577033997e-01
-1.669690012931823730e-02
5.792867019772529602e-02
-1.008895859122276306e-01
-1.359280943870544434e-01
1.321274638175964355e-01
1.192576810717582703e-01
-1.545781828463077545e-02
1.361038070172071457e-02
3.068822622299194336e-02
5.929841473698616028e-02
-1.336520016193389893e-01
7.025418430566787720e-02
-3.484344854950904846e-02
2.841490320861339569e-02
-1.228189654648303986e-02
3.432093933224678040e-02
-5.817683413624763489e-02
-5.246638786047697067e-03
-1.374063044786453247e-01
-4.036229848861694336e-02
1.433228701353073120e-01
-8.120504021644592285e-02
-9.049739688634872437e-02
9.449426829814910889e-02
3.275530040264129639e-02
4.866493120789527893e-02
2.428145334124565125e-02
-8.730430155992507935e-02
6.156643852591514587e-02
-1.177559867501258850e-01
-9.256406128406524658e-02
1.690739020705223083e-02
1.180704087018966675e-01
5.640123784542083740e-02
-1.298866420984268188e-01
-1.327448040246963501e-01
6.782723218202590942e-02
-5.571275949478149414e-02
-1.357611566781997681e-01
8.364631235599517822e-02
-6.567198038101196289e-02
-6.689326465129852295e-02
1.410749554634094238e-01
-6.341414153575897217e-02
1.005272343754768372e-01
-2.352320589125156403e-02
4.582246392965316772e-02
-8.648613840341567993e-02
2.198395319283008575e-02
-4.817292466759681702e-02
-8.240695297718048096e-02
-9.038708359003067017e-02
-9.310895204544067383e-02
-8.515781164169311523e-02
-1.663197427988052368e-01
9.564710408449172974e-02
-1.245344523340463638e-02
4.939228296279907227e-02
-7.307564467191696167e-02
1.037419736385345459e-01
-1.165151596069335938e-01
5.067527666687965393e-02
-3.040860034525394440e-02
-9.137792140245437622e-02
1.208432540297508240e-01
3.633712604641914368e-02
1.220791041851043701e-01
4.232460260391235352e-02
-3.197212936356663704e-03
5.425730347633361816e-02
8.327377587556838989e-02
-1.474779378622770309e-02
-5.280508194118738174e-03
2.438511513173580170e-02
-3.215702995657920837e-02
-2.174127250909805298e-01
-3.309429436922073364e-02
-1.635301113128662109e-01
5.772814154624938965e-02
-7.942841947078704834e-02
1.861892342567443848e-01
-9.151420742273330688e-02
-1.279838532209396362e-01
-8.853874355554580688e-02
-5.680551752448081970e-02
6.039392575621604919e-02
1.022787764668464661e-02
4.531638324260711670e-02
4.658493772149085999e-02
4.347065091133117676e-02
-6.355108320713043213e-02
-6.178977340459823608e-02
-7.223359495401382446e-02
-1.046420037746429443e-01
-1.354242116212844849e-01
1.264524608850479126e-01
-4.088780656456947327e-02
-3.857101500034332275e-02
-8.086645603179931641e-02
-7.857748866081237793e-02
-9.706526994705200195e-02
3.194637596607208252e-02
4.102369025349617004e-02
3.472853451967239380e-02
1.256548240780830383e-02
1.468796841800212860e-02
-1.088048815727233887e-01
-1.013965532183647156e-02
-1.400750875473022461e-01
-8.127169311046600342e-02
1.008915379643440247e-01
-9.450311958789825439e-02
5.563770234584808350e-02
8.310070633888244629e-02
1.229715496301651001e-01
1.641329750418663025e-02
-6.264545768499374390e-02
-1.185188964009284973e-01
-3.871522098779678345e-02
3.482205327600240707e-03
-2.299292013049125671e-02
8.618646115064620972e-02
-6.847404688596725464e-02
1.200388558208942413e-02
-4.286409914493560791e-02
-1.093594282865524292e-01
-2.766938880085945129e-03
1.259981691837310791e-01
4.595925565809011459e-03
5.420722812414169312e-02
4.911565035581588745e-02
-5.676613748073577881e-02
1.324243098497390747e-02
1.018339022994041443e-02
6.929634511470794678e-02
9.991473704576492310e-02
2.064865268766880035e-02
1.533571481704711914e-01
1.238693147897720337e-01
7.077755779027938843e-02
-1.211109012365341187e-01
-7.109482772648334503e-03
7.658589631319046021e-02
5.012639611959457397e-02
8.371189236640930176e-03
4.367138072848320007e-02
1.070909202098846436e-01
6.028408929705619812e-02
-3.170695528388023376e-02
1.208634078502655029e-01
1.184506639838218689e-01
9.368377178907394409e-02
4.346655309200286865e-02
5.986241996288299561e-02
-1.243884041905403137e-01
1.258744159713387489e-03
-8.811054378747940063e-02
-3.035122528672218323e-02
-1.205225065350532532e-01
-8.877512067556381226e-02
-4.337466135621070862e-02
5.393495410680770874e-02
-3.575464710593223572e-02
2.704310603439807892e-02
5.328360944986343384e-02
-4.765732213854789734e-02
-9.916870296001434326e-02
-1.020164191722869873e-01
9.183885157108306885e-02
4.999008402228355408e-02
3.325983136892318726e-02
5.515413358807563782e-02
-1.173873990774154663e-01
6.827729195356369019e-02
1.331328041851520538e-02
-9.560562670230865479e-02
-1.078175082802772522e-01
1.256242692470550537e-01
9.541872143745422363e-02
-6.606548279523849487e-02
6.532277911901473999e-02
-1.017178520560264587e-01
-2.660470316186547279e-03
-8.558844029903411865e-02
8.309087716042995453e-03
-1.092113833874464035e-02
3.118445724248886108e-02
-4.860242828726768494e-02
2.361653558909893036e-02
-3.453392162919044495e-02
1.115118619054555893e-02
1.542368996888399124e-02
-3.537670522928237915e-02
-6.063353270292282104e-02
1.015257462859153748e-01
-1.042999699711799622e-01
-7.196620851755142212e-02
-8.923844993114471436e-02
1.177151575684547424e-01
-2.010201476514339447e-02
6.195301562547683716e-02
7.836075872182846069e-02
3.668854013085365295e-03
-6.074099615216255188e-02
-2.582753449678421021e-02
-1.341852843761444092e-01
1.174191460013389587e-01
8.357076346874237061e-02
7.810482382774353027e-02
-5.792637541890144348e-02
-5.352659616619348526e-03
-3.763961419463157654e-02
-1.081237494945526123e-01
-6.346946954727172852e-02
6.157585605978965759e-02
7.787523418664932251e-02
-2.704067714512348175e-02
1.037499457597732544e-01
5.617588758468627930e-02
9.174419194459915161e-02
-1.351540833711624146e-01
-1.799217611551284790e-01
1.126021519303321838e-02
1.142178475856781006e-01
-7.593030482530593872e-02
-1.106111407279968262e-01
-5.267360433936119080e-02
-7.049641013145446777e-02
3.758385428227484226e-04
2.688590064644813538e-02
6.044339761137962341e-02
-5.400139838457107544e-02
-2.667971141636371613e-02
-6.855429708957672119e-02
1.162625104188919067e-01
-1.092433929443359375e-01
3.634618222713470459e-02
-2.105900831520557404e-02
-1.235972493886947632e-01
-3.177482634782791138e-02
4.318055137991905212e-02
-4.408660531044006348e-02
-1.413887888193130493e-01
-1.093341633677482605e-01
-5.212800577282905579e-02
-9.057322144508361816e-02
-1.217030803672969341e-04
3.998965397477149963e-02
-9.597995877265930176e-02
-6.371027231216430664e-02
-1.334164440631866455e-01
-2.791049145162105560e-02
1.714725792407989502e-02
-7.813570648431777954e-02
-7.719267159700393677e-02
4.417241737246513367e-02
1.229194030165672302e-01
1.346030645072460175e-02
8.284579962491989136e-02
1.158910840749740601e-01
7.694819569587707520e-02
-3.139198198914527893e-02
8.273983001708984375e-02
1.068521887063980103e-01
8.621625602245330811e-02
-1.141549423336982727e-01
3.824865445494651794e-02
-1.431400030851364136e-01
-9.084334596991539001e-03
-9.021471440792083740e-02
1.316473931074142456e-01
-3.214524313807487488e-02
-6.210094690322875977e-02
8.880637586116790771e-03
-1.038764938712120056e-01
-1.209891363978385925e-01
-4.376618191599845886e-02
5.816232413053512573e-02
-1.358960522338747978e-03
-4.187021031975746155e-02
-1.044692844152450562e-01
-1.085105687379837036e-01
-4.328257218003273010e-02
-1.149718761444091797e-01
-1.035911887884140015e-01
2.505012042820453644e-02
-1.383553817868232727e-02
-4.940695688128471375e-02
7.547848671674728394e-02
4.474360961467027664e-03
-3.588017821311950684e-02
7.706077396869659424e-02
1.774310320615768433e-02
-1.062990948557853699e-01
1.011908575892448425e-01
-1.266325265169143677e-02
-5.525854974985122681e-02
2.681008726358413696e-02
2.651262655854225159e-02
-4.199638590216636658e-02
-1.446257382631301880e-01
5.173865705728530884e-02
-4.201698303222656250e-02
-1.186063960194587708e-01
6.252659112215042114e-02
7.702796906232833862e-02
-9.438824653625488281e-02
1.469171941280364990e-01
1.414429862052202225e-02
1.066091954708099365e-01
-2.051072567701339722e-02
-1.056529283523559570e-01
7.145083695650100708e-02
-6.378570199012756348e-02
3.204260021448135376e-02
-1.043567247688770294e-02
-1.264864355325698853e-01
-7.620193809270858765e-02
4.948078421875834465e-04
-2.014230377972126007e-02
-9.729140438139438629e-03
-7.008113712072372437e-02
6.525415927171707153e-02
1.569039672613143921e-01
-9.622575342655181885e-02
7.867009937763214111e-02
1.373877841979265213e-02
-1.284571923315525055e-02
2.613711915910243988e-02
5.510817468166351318e-02
7.468682527542114258e-02
1.065664142370223999e-01
1.157519519329071045e-01
-4.180233925580978394e-02
-6.874408572912216187e-02
-6.635040044784545898e-02
7.926192134618759155e-02
4.221050068736076355e-02
-4.008340183645486832e-03
-8.901845663785934448e-02
-3.934285789728164673e-02
5.967988446354866028e-02
-8.004566282033920288e-02
6.587277352809906006e-02
-9.796445816755294800e-02
6.410580873489379883e-02
-1.370610892772674561e-01
1.513262689113616943e-01
-1.820237748324871063e-02
3.183880820870399475e-02
-6.542310863733291626e-02
-7.475585490465164185e-02
-1.245446652173995972e-01
4.427338019013404846e-02
-3.542351722717285156e-02
-1.842574775218963623e-01
-7.875274121761322021e-02
1.742148213088512421e-02
-1.204954832792282104e-02
-8.644095622003078461e-03
2.412038482725620270e-02
-1.597594469785690308e-02
-3.108713962137699127e-02
1.274258643388748169e-01
-2.845083735883235931e-02
-7.978828251361846924e-02
7.735487073659896851e-02
1.077224984765052795e-01
1.003220751881599426e-01
1.323448270559310913e-01
7.347962819039821625e-03
-5.403695628046989441e-02
5.292455106973648071e-02
1.185726001858711243e-01
-9.826952219009399414e-02
-1.018084213137626648e-01
-7.123095542192459106e-02
-1.311611942946910858e-02
1.203244775533676147e-01
1.176531892269849777e-02
-3.560845181345939636e-02
-2.580014988780021667e-02
-3.215180709958076477e-02
4.527875408530235291e-02
-4.954556003212928772e-02
-7.313439622521400452e-03
1.008924469351768494e-01
-2.898817136883735657e-02
9.883636236190795898e-02
-7.020642608404159546e-02
1.567919850349426270e-01
2.491347119212150574e-02
-9.642287343740463257e-02
6.610766053199768066e-02
1.062297299504280090e-01
-2.807016111910343170e-02
-1.670749485492706299e-01
-1.326887160539627075e-01
-6.459423899650573730e-02
-1.708831696305423975e-04
4.425582941621541977e-03
3.355416655540466309e-02
-3.200811147689819336e-02
-1.528694927692413330e-01
-1.725042797625064850e-02
-4.298173636198043823e-02
1.498908251523971558e-01
6.779429316520690918e-02
4.296210408210754395e-02
1.379000395536422729e-01
-5.184446461498737335e-03
-7.422467321157455444e-02
6.426451727747917175e-03
-5.850412417203187943e-03
-1.235014125704765320e-01
-6.959921121597290039e-02
4.893617331981658936e-02
1.465739160776138306e-01
1.084429398179054260e-01
-8.747316896915435791e-02
9.959032386541366577e-02
1.603977009654045105e-02
7.410254329442977905e-02
3.274556621909141541e-02
1.688465923070907593e-01
5.219198390841484070e-02
4.442103207111358643e-02
9.330487251281738281e-02
4.088396579027175903e-02
1.399599201977252960e-02
8.287053555250167847e-02
-2.422649599611759186e-02
7.716542482376098633e-02
1.522683352231979370e-01
-1.495861168950796127e-02
1.598287522792816162e-01
-4.836085811257362366e-02
3.474633395671844482e-02
-3.049643477424979210e-03
4.018630087375640869e-02
2.377233654260635376e-02
5.574217066168785095e-02
1.066298261284828186e-01
3.942989930510520935e-02
-2.796431444585323334e-02
7.689116522669792175e-03
-3.641902701929211617e-03
-3.027463890612125397e-02
1.016023457050323486e-01
1.020560786128044128e-02
-3.614396601915359497e-02
-1.524094678461551666e-02
5.191791057586669922e-02
-6.717512756586074829e-02
1.122467685490846634e-02
6.222610548138618469e-02
-4.246328026056289673e-02
1.156427934765815735e-01
9.867010265588760376e-02
-7.425463199615478516e-02
-6.800501048564910889e-02
-1.343651395291090012e-02
-9.981722384691238403e-02
7.984340935945510864e-02
3.603097051382064819e-02
-4.774411022663116455e-02
9.729385375976562500e-02
9.183736890554428101e-02
-8.738426864147186279e-02
1.465928405523300171e-01
-3.261085227131843567e-02
-1.465280354022979736e-01
-9.400500357151031494e-02
-8.344265818595886230e-02
8.570697903633117676e-02
-2.061206474900245667e-02
4.913311451673507690e-02
-8.857714943587779999e-03
-7.011836767196655273e-02
8.701243996620178223e-02
1.389141101390123367e-02
1.082635894417762756e-01
1.203610096126794815e-02
-5.006764829158782959e-02
1.250569224357604980e-01
-8.789765089750289917e-02
-6.399235129356384277e-02
4.312846437096595764e-02
-4.736177995800971985e-02
1.421138737350702286e-02
8.978248387575149536e-02
-1.343787088990211487e-02
-1.163117811083793640e-01
-7.992290705442428589e-02
-5.023570358753204346e-02
7.143306732177734375e-02
6.178972776979207993e-03
8.383055031299591064e-02
4.247428476810455322e-02
8.039329200983047485e-02
-5.513726547360420227e-02
8.512628823518753052e-02
1.286361813545227051e-01
-1.536651998758316040e-01
1.577450186014175415e-01
2.645733579993247986e-02
-4.240755364298820496e-02
5.599411949515342712e-02
1.907669007778167725e-02
1.100456416606903076e-01
-1.448716968297958374e-01
-1.400609966367483139e-02
-6.839589774608612061e-02
7.803046703338623047e-02
-8.141362667083740234e-02
-1.297654658555984497e-01
1.171094551682472229e-02
-1.137862801551818848e-01
1.166140437126159668e-01
-1.018743664026260376e-01
-4.542882367968559265e-02
1.397032290697097778e-01
3.948089107871055603e-02
1.094637345522642136e-02
-1.079030930995941162e-01
-4.599355161190032959e-02
3.325976058840751648e-02
1.103326398879289627e-02
-1.125135719776153564e-01
-2.143329940736293793e-02
8.448820561170578003e-02
-4.209305346012115479e-02
-2.453060820698738098e-02
-2.902542985975742340e-02
-8.918812125921249390e-02
3.458119556307792664e-02
1.163574680685997009e-01
-1.080659776926040649e-01
-9.989419579505920410e-02
-9.467791020870208740e-02
9.209091961383819580e-02
-9.892571717500686646e-02
1.061042547225952148e-01
-8.370635658502578735e-02
1.767606288194656372e-02
-8.791401982307434082e-02
-2.851968444883823395e-02
-4.715583473443984985e-02
-3.750473633408546448e-02
1.350117325782775879e-01
1.102274954319000244e-01
7.425484806299209595e-02
-6.795208156108856201e-02
9.544961154460906982e-03
1.921734511852264404e-01
-8.916176110506057739e-02
1.529105454683303833e-01
-8.723447471857070923e-02
-4.529544152319431305e-03
6.632485240697860718e-02
4.707485437393188477e-02
4.352607578039169312e-02
-7.123728096485137939e-02
3.513270616531372070e-02
-3.195305913686752319e-02
-1.525510996580123901e-01
-1.318503171205520630e-01
-1.362477689981460571e-01
-1.259674280881881714e-01
8.707394450902938843e-02
-7.817560434341430664e-02
9.045857191085815430e-02
1.332095861434936523e-01
-2.446028403937816620e-02
-2.950606495141983032e-02
1.946868002414703369e-01
1.699508167803287506e-02
-3.862939774990081787e-02
-6.702486425638198853e-02
-3.570810891687870026e-03
-2.881396748125553131e-02
8.895701169967651367e-02
9.976826608180999756e-02
4.665970429778099060e-02
-1.569667831063270569e-02
4.183916747570037842e-02
7.097987458109855652e-03
-5.650244280695915222e-02
-2.949269721284508705e-03
6.845197081565856934e-02
1.079659312963485718e-01
-3.476085886359214783e-02
2.709309570491313934e-03
-9.935729950666427612e-02
-1.706927120685577393e-01
-1.674943789839744568e-02
-9.961046278476715088e-02
2.993024652823805809e-03
6.621289253234863281e-02
-1.030225157737731934e-01
-7.383406162261962891e-02
7.213700562715530396e-02
-5.621835961937904358e-02
-4.820087179541587830e-02
-1.553249172866344452e-02
-4.869563505053520203e-02
-5.571541562676429749e-02
-1.551939826458692551e-02
8.339081704616546631e-02
2.649097889661788940e-02
5.921608582139015198e-02
-2.140239253640174866e-02
1.140053272247314453e-01
-6.843445450067520142e-02
-2.112021595239639282e-01
-1.083784848451614380e-01
1.404804438352584839e-01
-5.091784894466400146e-02
-1.029542982578277588e-01
2.978357113897800446e-02
-6.061327829957008362e-02
-1.009433418512344360e-01
-4.847466945648193359e-02
-1.193742733448743820e-02
-1.558916121721267700e-01
-1.150379031896591187e-01
-1.041591316461563110e-01
9.282175451517105103e-02
-2.884325571358203888e-02
-1.794237270951271057e-02
1.352025289088487625e-02
-2.650749869644641876e-02
9.154788404703140259e-02
1.692189980531111360e-04
-1.198337301611900330e-01
-6.421817094087600708e-02
-1.389833539724349976e-01
-8.897805213928222656e-02
-6.800919026136398315e-02
6.051871925592422485e-02
4.041671380400657654e-02
5.356424674391746521e-02
-4.734317213296890259e-02
3.696520254015922546e-02
-4.708457738161087036e-02
2.007072977721691132e-02
1.296742726117372513e-02
-1.511417776346206665e-01
-1.264347583055496216e-01
1.307740900665521622e-02
-5.484840273857116699e-02
-1.847397089004516602e-01
-2.552315406501293182e-02
-7.128036767244338989e-02
-1.335776895284652710e-01
1.145202293992042542e-01
-1.403383314609527588e-01
5.881235376000404358e-02
-8.445801585912704468e-02
-4.447784647345542908e-02
1.232140958309173584e-01
9.973666816949844360e-02
-1.037304848432540894e-01
-1.264569014310836792e-01
1.566151273436844349e-03
-9.690685570240020752e-02
1.005256846547126770e-01
6.250877678394317627e-02
-6.425973773002624512e-02
8.535087853670120239e-02
1.989403553307056427e-02
5.850806459784507751e-02
6.553047802299261093e-03
7.878632098436355591e-02
-1.003023330122232437e-02
-1.457623690366744995e-01
4.999464750289916992e-02
4.453818500041961670e-02
1.401836425065994263e-01
-2.033349685370922089e-02
-1.904604770243167877e-02
-4.795337095856666565e-02
7.792047690600156784e-04
1.861647143959999084e-02
1.099214926362037659e-01
8.589448779821395874e-02
-1.276892330497503281e-02
