2.546965777873992920e-01
3.472498655319213867e-01
4.886556565761566162e-01
-2.714144289493560791e-01
2.128461897373199463e-01
-5.531092286109924316e-01
-6.454738229513168335e-02
-4.838976263999938965e-01
-1.076976675540208817e-02
-3.131019324064254761e-02
1.676554679870605469e-01
2.373733818531036377e-01
1.492306441068649292e-01
4.548570886254310608e-02
3.021587133407592773e-01
-3.003520071506500244e-01
-3.326238393783569336e-01
3.983246386051177979e-01
-3.777491152286529541e-01
-7.277270406484603882e-02
-2.712391018867492676e-01
-5.615051835775375366e-02
5.116122364997863770e-01
-3.586610853672027588e-01
-3.968820571899414062e-01
-3.677049875259399414e-01
1.787796169519424438e-01
3.014636924490332603e-03
5.134087204933166504e-01
5.391996502876281738e-01
-7.070893887430429459e-03
1.157675385475158691e-01
7.045669108629226685e-02
-4.359780848026275635e-01
4.929033219814300537e-01
2.267618030309677124e-01
4.990056455135345459e-01
5.070242881774902344e-01
6.848660111427307129e-02
-2.454417943954467773e-01
1.131712794303894043e-01
5.141645073890686035e-01
4.078917801380157471e-01
-5.686030983924865723e-01
-2.803296446800231934e-01
4.977886378765106201e-01
-4.639366865158081055e-01
3.758870661258697510e-01
-1.634433716535568237e-01
4.489658772945404053e-01
1.846130341291427612e-01
-1.152704507112503052e-01
2.702347338199615479e-01
5.535632371902465820e-01
-3.209172189235687256e-01
-3.074598014354705811e-01
4.260115027427673340e-01
-3.313681483268737793e-01
4.973247945308685303e-01
-2.602655589580535889e-01
-4.170275330543518066e-01
-4.252147972583770752e-01
-4.666525125503540039e-01
4.268641769886016846e-01
