-2.367018908262252808e-02
-5.063916742801666260e-02
1.659164577722549438e-02
4.816333577036857605e-02
-3.323074802756309509e-02
-7.380165625363588333e-03
-9.341143816709518433e-02
7.413648068904876709e-02
-1.875275373458862305e-02
2.258289232850074768e-02
-4.128198698163032532e-02
4.978584591299295425e-03
-3.057977557182312012e-02
-1.970962993800640106e-02
-5.036735907196998596e-02
-1.868023164570331573e-02
-7.511311769485473633e-02
7.539958506822586060e-02
-8.373115211725234985e-02
-7.597642391920089722e-02
-1.530104316771030426e-02
-5.019047856330871582e-02
6.338693946599960327e-02
2.107093110680580139e-02
6.706108897924423218e-02
-1.945863291621208191e-02
4.931261390447616577e-02
5.685486644506454468e-02
-5.314793810248374939e-02
-3.327344730496406555e-02
-1.710651256144046783e-02
-4.426597431302070618e-02
3.467246191576123238e-03
-3.383984789252281189e-02
8.127412199974060059e-02
-6.291144993156194687e-03
-4.002080485224723816e-02
-7.348585408180952072e-03
-7.928026467561721802e-02
-2.126609161496162415e-02
-5.871517583727836609e-02
7.378683984279632568e-02
2.849068120121955872e-02
-6.947149336338043213e-02
-8.264479786157608032e-02
-8.071713894605636597e-02
7.099553942680358887e-02
3.324098512530326843e-02
9.996498934924602509e-03
5.744737759232521057e-02
-7.873998582363128662e-02
-8.601225167512893677e-02
6.016333587467670441e-03
1.845175586640834808e-02
5.122433230280876160e-02
4.888252913951873779e-02
8.089897781610488892e-02
1.139366440474987030e-02
9.108476340770721436e-02
-3.103991039097309113e-02
5.093281716108322144e-02
2.471956191584467888e-03
-4.172271583229303360e-03
4.048637673258781433e-02
9.374070167541503906e-02
5.413570627570152283e-02
4.222695529460906982e-02
-4.813343659043312073e-02
-2.063125185668468475e-02
-5.381985101848840714e-03
6.688584387302398682e-02
-5.531376972794532776e-02
-7.105763256549835205e-02
8.505228161811828613e-02
6.663482636213302612e-02
-3.405801579356193542e-02
1.735285669565200806e-02
6.281739473342895508e-02
5.642521381378173828e-02
3.442839905619621277e-02
-1.434811018407344818e-02
-3.834870457649230957e-02
-4.430355131626129150e-02
5.094728618860244751e-02
5.231926217675209045e-02
-3.361918777227401733e-02
-1.411891262978315353e-02
-6.526786834001541138e-02
3.996425494551658630e-02
5.216000974178314209e-02
-8.412634581327438354e-02
-1.804524846374988556e-02
6.425404548645019531e-02
4.319359082728624344e-03
-6.033156439661979675e-02
6.967930495738983154e-02
1.699537783861160278e-02
-3.310304880142211914e-02
-8.003322780132293701e-02
-3.035354195162653923e-03
-3.953094035387039185e-02
-1.829209923744201660e-02
-6.193735077977180481e-02
-4.134812578558921814e-02
1.032806653529405594e-02
-1.728482195176184177e-03
-9.149366617202758789e-02
-2.328536100685596466e-02
-4.400301724672317505e-02
-3.382605314254760742e-02
-9.802680462598800659e-02
5.039137974381446838e-02
1.650654152035713196e-02
1.312372740358114243e-02
-7.139568775892257690e-02
-2.807373926043510437e-02
-2.770898677408695221e-02
6.908596307039260864e-02
8.842899464070796967e-03
-1.080115046352148056e-02
7.475247979164123535e-02
-3.521238267421722412e-02
-3.536313772201538086e-02
3.530354425311088562e-02
-6.285250931978225708e-02
8.060627430677413940e-02
-7.973024249076843262e-02
-5.009991303086280823e-02
3.274518996477127075e-02
-1.521356869488954544e-03
2.329352498054504395e-02
-4.865600541234016418e-02
-3.500777855515480042e-02
-6.435549259185791016e-02
-2.377573214471340179e-02
-2.432529442012310028e-02
-7.079155649989843369e-03
6.839346885681152344e-02
-1.142413169145584106e-02
-1.038350164890289307e-02
2.791783399879932404e-02
2.693880163133144379e-02
4.347213543951511383e-03
-1.999245211482048035e-02
-2.325813099741935730e-02
1.584996469318866730e-02
6.034838035702705383e-03
4.007137194275856018e-02
7.885587960481643677e-02
-5.524161458015441895e-02
6.560024619102478027e-02
-6.498715281486511230e-02
-4.198592156171798706e-03
-5.374065041542053223e-02
7.740195840597152710e-02
-4.914861172437667847e-02
5.044778436422348022e-02
4.148063808679580688e-02
-4.997704178094863892e-02
-4.043501615524291992e-02
-2.036746591329574585e-02
8.505161106586456299e-02
5.643069744110107422e-02
-7.453706860542297363e-02
5.931303650140762329e-02
2.740483731031417847e-03
-8.776295930147171021e-02
-4.588323459029197693e-02
6.957519333809614182e-03
-5.349560454487800598e-02
-5.313362181186676025e-02
2.264373190701007843e-02
-2.453435026109218597e-02
7.347017526626586914e-02
6.755022704601287842e-02
-5.944234877824783325e-02
-6.232960522174835205e-02
-3.924564272165298462e-02
-3.021515905857086182e-02
6.224883720278739929e-02
-8.607093989849090576e-02
8.110301196575164795e-02
-4.525537416338920593e-02
4.522281140089035034e-02
4.213814437389373779e-02
3.719386458396911621e-02
-6.260735914111137390e-03
8.506376296281814575e-02
-8.003341034054756165e-03
-7.945021986961364746e-02
-9.437450021505355835e-02
-4.028172697871923447e-03
-1.410954631865024567e-02
-8.658090978860855103e-02
3.861430287361145020e-02
-5.744885653257369995e-03
-4.800745472311973572e-02
-3.750888630747795105e-02
3.373995050787925720e-02
-1.584508921951055527e-03
7.483234256505966187e-02
2.851279638707637787e-02
4.383968189358711243e-02
3.527047485113143921e-02
-9.123656898736953735e-02
1.578438910655677319e-03
-8.449967205524444580e-02
-8.574872463941574097e-02
-8.330404758453369141e-02
-4.087485745549201965e-02
-6.305044889450073242e-02
-9.288910077884793282e-04
2.889354154467582703e-02
-8.114210516214370728e-02
-8.026423305273056030e-02
1.564107462763786316e-02
3.266208246350288391e-02
5.957806855440139771e-02
-8.937105536460876465e-02
-1.736086234450340271e-02
-3.938923776149749756e-02
-1.971055753529071808e-02
6.351242959499359131e-02
-3.119686804711818695e-02
-5.197555944323539734e-02
-3.785765171051025391e-02
7.377508282661437988e-02
-3.892563283443450928e-02
-8.738875389099121094e-02
7.806032430380582809e-03
6.208717450499534607e-02
-1.888303458690643311e-02
5.687878280878067017e-02
-6.179877370595932007e-02
-2.040717937052249908e-02
-3.225910291075706482e-02
-2.710791304707527161e-02
-5.296377465128898621e-02
1.218469906598329544e-02
-2.804861404001712799e-02
-1.767098531126976013e-02
-1.087426301091909409e-02
6.918742507696151733e-02
-6.631150096654891968e-02
8.822781592607498169e-02
5.308201536536216736e-02
-7.757727056741714478e-02
7.832302153110504150e-02
-2.282444387674331665e-02
-4.284291993826627731e-03
-1.521621737629175186e-02
-2.872356399893760681e-02
2.635943703353404999e-02
1.121494080871343613e-02
-8.014335483312606812e-02
3.546322882175445557e-02
-6.332506309263408184e-04
5.281298607587814331e-02
-3.693449124693870544e-02
-2.089458145201206207e-02
-5.439284443855285645e-02
-7.029376178979873657e-02
8.201449364423751831e-02
5.176334083080291748e-02
-4.803720396012067795e-03
8.216989040374755859e-02
3.715759841725230217e-03
6.645596027374267578e-02
4.246928542852401733e-02
-2.964617125689983368e-02
-4.736683145165443420e-02
8.075970411300659180e-02
5.224793404340744019e-02
2.590202493593096733e-03
-7.887087762355804443e-02
-8.619312942028045654e-02
4.752995446324348450e-02
-4.194416478276252747e-02
-6.225466728210449219e-02
1.460888073779642582e-03
6.271289288997650146e-02
-4.501135274767875671e-02
5.642968788743019104e-02
4.486411064863204956e-02
5.055881664156913757e-02
1.094270497560501099e-02
-4.801936075091362000e-02
-6.636499613523483276e-02
-5.841192323714494705e-03
3.578468784689903259e-02
-9.237436205148696899e-02
6.619998067617416382e-02
6.604375690221786499e-02
-1.089282333850860596e-02
-8.157791197299957275e-02
4.635850712656974792e-02
-7.412203401327133179e-02
3.814213722944259644e-02
6.202743947505950928e-02
-4.940712451934814453e-02
-1.397930737584829330e-02
-6.860860437154769897e-02
-8.411636203527450562e-02
4.083902761340141296e-02
-3.387552127242088318e-02
-6.177254021167755127e-02
4.881239496171474457e-03
-8.362431824207305908e-02
4.110103473067283630e-03
-6.012566760182380676e-02
5.052207037806510925e-02
3.052314370870590210e-02
7.053130120038986206e-02
-7.896694540977478027e-02
-2.785113267600536346e-02
1.018892750144004822e-01
-4.335640370845794678e-02
-9.657680988311767578e-02
-2.966488339006900787e-02
-8.339585363864898682e-02
6.737878918647766113e-02
2.651370130479335785e-02
3.240175917744636536e-02
7.663908600807189941e-02
1.053551211953163147e-01
6.876102648675441742e-03
-8.352786302566528320e-03
-1.115991454571485519e-02
2.089277468621730804e-02
-4.382894560694694519e-02
-8.563005179166793823e-02
4.523081704974174500e-02
7.871950417757034302e-02
6.288246065378189087e-02
-8.738195151090621948e-02
-3.065659292042255402e-02
1.015584394335746765e-01
-6.183528900146484375e-02
-6.716615706682205200e-02
1.556839980185031891e-02
7.368433475494384766e-02
-9.418214112520217896e-02
4.909504950046539307e-02
-5.255074054002761841e-02
-1.489057112485170364e-02
4.374980553984642029e-02
-3.076121211051940918e-02
1.683014817535877228e-02
-4.173449054360389709e-02
-8.644597232341766357e-02
3.623890876770019531e-02
-4.365652799606323242e-02
-3.761166706681251526e-02
6.713125854730606079e-02
-7.160188257694244385e-02
-3.960770741105079651e-02
-5.292457342147827148e-02
7.717555761337280273e-02
4.956059902906417847e-02
-7.224925607442855835e-02
3.645402938127517700e-02
4.166276380419731140e-02
5.456037446856498718e-02
-9.321293793618679047e-03
4.318137839436531067e-02
4.985440149903297424e-02
-3.593800589442253113e-03
-7.875291258096694946e-02
1.356871612370014191e-02
-4.085974767804145813e-02
8.462977409362792969e-02
-5.285234004259109497e-02
3.528011590242385864e-02
-5.762432515621185303e-02
3.584683872759342194e-03
-8.247444033622741699e-02
-5.034141242504119873e-02
-1.101423613727092743e-02
-8.382148295640945435e-02
-3.294156119227409363e-02
7.203246932476758957e-03
5.034990608692169189e-02
3.146740421652793884e-02
7.070043683052062988e-02
8.412842452526092529e-02
5.749624595046043396e-02
8.658981323242187500e-02
-2.355607040226459503e-02
-6.187952682375907898e-02
-5.694245547056198120e-02
5.098949000239372253e-02
-2.113851346075534821e-02
4.732539132237434387e-02
4.778562113642692566e-02
7.898737490177154541e-02
7.415719330310821533e-02
1.442098617553710938e-02
-3.176417574286460876e-02
6.502524018287658691e-02
-7.084034383296966553e-02
4.692949727177619934e-02
5.897436756640672684e-03
-8.477361500263214111e-02
-2.064822940155863762e-03
3.236539429053664207e-03
7.476529479026794434e-02
5.372226983308792114e-02
-5.900513008236885071e-02
6.153173744678497314e-02
-4.771677404642105103e-02
-1.405900996178388596e-02
-9.297404438257217407e-02
1.175210811197757721e-02
1.573666185140609741e-02
-7.570169121026992798e-02
7.645014673471450806e-02
6.852812319993972778e-02
3.990842774510383606e-02
8.258119970560073853e-02
7.534695416688919067e-02
-1.086126896552741528e-03
-3.273216634988784790e-02
-8.269669115543365479e-02
-2.374339848756790161e-02
-7.565875351428985596e-02
8.382216095924377441e-02
9.035041928291320801e-02
8.427661960013210773e-04
-5.685922130942344666e-02
-1.632554456591606140e-02
-3.621855378150939941e-02
-5.255219340324401855e-02
-5.770894885063171387e-02
-7.075867056846618652e-02
-2.599548734724521637e-02
2.752680517733097076e-02
-6.122473254799842834e-02
-4.102975875139236450e-02
-3.240073844790458679e-02
-9.404253214597702026e-02
5.124021321535110474e-02
-1.853197813034057617e-02
-7.148151844739913940e-02
4.986424930393695831e-03
9.071935713291168213e-02
5.684470385313034058e-02
-2.614616043865680695e-02
-6.352239102125167847e-02
-6.835921108722686768e-02
7.445543259382247925e-02
-9.032620489597320557e-02
-2.779932878911495209e-02
1.213997788727283478e-02
-7.414051890373229980e-02
-5.735991150140762329e-02
1.709745265543460846e-02
6.555037200450897217e-02
-3.582549840211868286e-02
5.405373871326446533e-02
5.878835916519165039e-02
-6.651340425014495850e-02
-4.746069014072418213e-02
5.973250418901443481e-02
8.362989127635955811e-02
-2.614129334688186646e-02
-6.500103627331554890e-04
-2.721680328249931335e-02
-5.031829327344894409e-02
4.376197606325149536e-02
-1.561408769339323044e-02
-3.431417420506477356e-02
-6.665360927581787109e-02
-7.312328089028596878e-03
6.560364365577697754e-02
2.407105872407555580e-03
5.524342879652976990e-02
4.045623913407325745e-02
8.374493569135665894e-02
-7.140310853719711304e-02
7.126507163047790527e-02
8.650137111544609070e-03
-7.217119634151458740e-02
1.662456244230270386e-02
-4.141903296113014221e-02
-3.776630386710166931e-02
-6.872501224279403687e-02
7.547567784786224365e-02
-8.467179536819458008e-02
-8.610207587480545044e-02
1.030775532126426697e-02
-6.685499101877212524e-02
-3.646824136376380920e-02
-6.984806060791015625e-02
-5.740264430642127991e-02
4.497154802083969116e-02
5.346354469656944275e-02
-3.229043632745742798e-02
-4.700903594493865967e-02
5.178135633468627930e-02
-4.147948324680328369e-02
-9.827269613742828369e-02
-2.790165506303310394e-02
2.166160568594932556e-02
-4.386171698570251465e-02
-9.298385679721832275e-02
-5.833825841546058655e-02
2.694474300369620323e-03
-1.695834659039974213e-02
-4.319791495800018311e-02
3.548054024577140808e-02
1.032200083136558533e-02
6.050458550453186035e-02
5.919697135686874390e-02
6.441017985343933105e-02
-5.513178557157516479e-02
-7.966712117195129395e-03
-3.362900018692016602e-02
-7.502512633800506592e-02
-7.259176671504974365e-02
-2.662610448896884918e-02
1.688277907669544220e-02
3.637811169028282166e-02
-2.225927449762821198e-02
9.591468423604965210e-02
7.131417095661163330e-02
5.970419198274612427e-02
-7.523577660322189331e-02
-4.551699967123568058e-04
2.334428392350673676e-02
7.949987053871154785e-02
3.157483786344528198e-02
1.954727806150913239e-02
-5.149908363819122314e-02
2.123319171369075775e-02
6.409070640802383423e-02
6.108091771602630615e-02
-3.833787888288497925e-02
8.160683326423168182e-03
3.641400486230850220e-02
4.948734492063522339e-02
-8.204951137304306030e-02
-7.488327473402023315e-02
8.613000810146331787e-02
-7.906398735940456390e-03
7.580433785915374756e-02
-7.083622366189956665e-02
-8.377622812986373901e-03
7.405870407819747925e-02
3.562361001968383789e-02
5.655815824866294861e-02
-4.112614318728446960e-02
-1.366467773914337158e-02
8.388072252273559570e-02
-4.575255885720252991e-02
8.717922866344451904e-02
-4.840750247240066528e-02
4.606900364160537720e-02
3.449760377407073975e-02
8.569605648517608643e-02
2.397126704454421997e-02
2.428281866014003754e-02
1.356507709715515375e-04
-7.404398173093795776e-02
-6.792092323303222656e-02
-6.839581578969955444e-02
8.786068111658096313e-02
3.350776061415672302e-02
7.145769894123077393e-02
-6.264962721616029739e-03
9.339208900928497314e-02
3.870110958814620972e-02
-2.796850167214870453e-02
-8.290386945009231567e-02
-2.859965153038501740e-02
-6.715299189090728760e-02
-6.651112437248229980e-02
3.023891896009445190e-02
1.808134652674198151e-02
5.693603679537773132e-02
2.296342747285962105e-03
-4.762034490704536438e-02
2.264036098495125771e-03
-7.853905856609344482e-02
-5.401909723877906799e-02
6.890329718589782715e-02
-2.714429609477519989e-02
-5.482198670506477356e-02
5.473063141107559204e-02
6.445906311273574829e-02
5.354400351643562317e-02
3.821272403001785278e-02
-5.890237912535667419e-02
-7.710006088018417358e-02
-6.033663451671600342e-02
-2.184477448463439941e-02
-4.394701123237609863e-02
4.236538708209991455e-02
-7.845356315374374390e-02
-4.581823572516441345e-02
-5.724611878395080566e-02
6.072640791535377502e-02
-4.019589722156524658e-02
-8.983694948256015778e-03
4.750767350196838379e-02
7.458240538835525513e-02
-8.153153955936431885e-02
2.583247236907482147e-02
6.880179047584533691e-02
4.438729491084814072e-03
1.675899326801300049e-02
-3.918418660759925842e-02
5.428859964013099670e-03
6.933742016553878784e-02
-7.258625328540802002e-02
-8.988780528306961060e-02
6.233025714755058289e-02
-7.479836046695709229e-02
-1.679822430014610291e-02
4.935116320848464966e-02
-8.520891517400741577e-02
-5.593134090304374695e-02
3.375579416751861572e-02
-8.943752385675907135e-03
2.563294582068920135e-02
-1.334303431212902069e-02
3.816789761185646057e-02
7.753928750753402710e-02
-2.597694098949432373e-02
5.640225857496261597e-02
-5.248007830232381821e-03
3.572597354650497437e-02
-7.390023022890090942e-02
3.605957701802253723e-02
2.028534561395645142e-02
1.463140361011028290e-02
-8.944332599639892578e-02
7.299267500638961792e-02
-9.069874882698059082e-02
-4.943557083606719971e-02
-8.561017364263534546e-02
-1.754453405737876892e-02
6.650508195161819458e-02
2.909523807466030121e-02
2.977078035473823547e-02
7.503075152635574341e-02
-8.064655959606170654e-02
1.491601485759019852e-02
5.015918612480163574e-02
3.940661251544952393e-02
-2.643984369933605194e-02
2.432680502533912659e-02
7.196781784296035767e-02
-8.021369576454162598e-02
-6.908516585826873779e-02
-4.475508257746696472e-02
-2.380772680044174194e-02
6.454914808273315430e-02
7.676505297422409058e-02
4.177635535597801208e-02
-4.376082122325897217e-02
-5.201466009020805359e-02
-3.190588206052780151e-02
-3.226266428828239441e-02
-4.277764633297920227e-02
-7.153409719467163086e-02
-9.181445837020874023e-02
3.853475302457809448e-02
-9.415135532617568970e-02
-3.551285713911056519e-03
-3.744355216622352600e-02
2.420382946729660034e-02
-5.217179283499717712e-02
1.449015224352478981e-03
-7.856042683124542236e-02
-5.399491265416145325e-02
-2.019597217440605164e-02
-4.654200375080108643e-02
-1.805220916867256165e-02
3.131303936243057251e-02
-5.113868787884712219e-02
9.957448393106460571e-02
-7.153929024934768677e-02
8.433946967124938965e-02
6.970832496881484985e-02
-3.856743127107620239e-02
-3.965559974312782288e-02
4.979237541556358337e-02
-2.991055697202682495e-02
-4.291925579309463501e-02
5.321869999170303345e-02
6.077803671360015869e-03
-4.064061865210533142e-02
-1.115905120968818665e-03
-6.477217376232147217e-02
-7.744908332824707031e-02
4.267454147338867188e-02
2.460792288184165955e-02
-9.070548415184020996e-02
5.823916941881179810e-02
2.482854062691330910e-03
2.184505201876163483e-02
7.993320375680923462e-02
-7.137031853199005127e-02
-1.777276862412691116e-03
7.642561197280883789e-02
8.031313121318817139e-02
-6.260920315980911255e-02
3.445523977279663086e-02
-6.558137945830821991e-03
-2.308916859328746796e-02
3.865536767989397049e-03
6.520243734121322632e-02
-6.050914898514747620e-02
3.667021542787551880e-02
5.825167149305343628e-02
3.253473341464996338e-02
-6.278308480978012085e-02
3.467971086502075195e-02
-1.008363887667655945e-01
5.588359758257865906e-02
2.182723954319953918e-03
-7.841749489307403564e-02
-4.647172614932060242e-02
-4.196278750896453857e-03
1.738479174673557281e-02
2.333602868020534515e-02
2.397027425467967987e-02
-9.558661282062530518e-02
-1.986771821975708008e-02
-6.965102255344390869e-02
5.505224317312240601e-02
-2.311479300260543823e-02
-2.398708276450634003e-02
-1.230818592011928558e-02
-8.084332197904586792e-02
2.659516036510467529e-02
4.304036963731050491e-03
-5.801030620932579041e-02
-3.277293220162391663e-02
7.290954887866973877e-02
-4.598966613411903381e-02
5.864836648106575012e-02
2.541677094995975494e-02
-1.071271672844886780e-02
5.671650171279907227e-02
6.914917379617691040e-02
5.012381449341773987e-02
4.136002063751220703e-02
4.123304970562458038e-03
-2.256530150771141052e-02
1.153660565614700317e-02
-6.462195515632629395e-02
-3.874768689274787903e-02
1.730586402118206024e-03
5.792983248829841614e-02
-3.233481943607330322e-02
-5.110270902514457703e-02
-8.532667160034179688e-02
-6.209643185138702393e-02
-5.014215037226676941e-02
2.256844006478786469e-02
-7.019598782062530518e-02
-4.869311675429344177e-02
-4.396886378526687622e-02
9.072943776845932007e-02
2.023367770016193390e-02
8.420611172914505005e-02
5.871358513832092285e-02
3.589555993676185608e-02
-5.374174192547798157e-02
2.503152936697006226e-02
5.917998962104320526e-03
4.570872336626052856e-02
-6.749434024095535278e-02
-3.770559653639793396e-02
-4.047450795769691467e-02
1.051878556609153748e-01
9.884131699800491333e-02
-6.950494647026062012e-02
-5.551652237772941589e-02
2.006195113062858582e-02
-4.445223510265350342e-02
2.175658009946346283e-02
-2.421629056334495544e-02
-3.735771775245666504e-02
-1.346290670335292816e-02
5.431848391890525818e-02
4.042230919003486633e-02
-2.022268623113632202e-02
2.002986706793308258e-02
1.544337440282106400e-02
1.999360695481300354e-02
7.528492808341979980e-02
-5.303970724344253540e-02
-5.700261145830154419e-02
-8.395164459943771362e-02
-5.606671795248985291e-02
-1.399503741413354874e-02
-1.670781336724758148e-02
8.176145702600479126e-02
5.573699623346328735e-02
4.052380844950675964e-02
-5.456534679979085922e-03
-1.426396705210208893e-02
-9.898480027914047241e-02
-5.573971197009086609e-02
4.616628587245941162e-02
-6.225598976016044617e-02
2.091180346906185150e-02
-1.015307498164474964e-03
4.333141446113586426e-02
-7.801102101802825928e-02
3.761063516139984131e-02
-1.836160384118556976e-02
-4.868949204683303833e-02
1.929538697004318237e-02
-3.112112544476985931e-02
1.268228329718112946e-02
2.322494797408580780e-02
-2.566443383693695068e-02
3.812557086348533630e-02
4.706233739852905273e-02
-5.883317068219184875e-02
6.826764345169067383e-02
3.429636731743812561e-02
5.921168997883796692e-02
9.494056925177574158e-03
3.933282569050788879e-02
9.756065905094146729e-03
2.946343645453453064e-02
2.207412756979465485e-02
-5.740795657038688660e-02
6.926672905683517456e-02
-4.373337700963020325e-02
-2.894271630793809891e-03
6.958445906639099121e-02
1.213660463690757751e-02
6.910358369350433350e-02
-5.023379623889923096e-02
-3.614939004182815552e-02
-2.592378482222557068e-02
3.344457596540451050e-02
1.020115241408348083e-01
1.091633550822734833e-02
2.418556250631809235e-03
3.743678703904151917e-02
-3.673530369997024536e-02
6.142902001738548279e-02
-1.261170580983161926e-02
2.821205183863639832e-02
-4.106864705681800842e-02
-8.339737355709075928e-02
-7.876040041446685791e-02
-1.347299665212631226e-02
1.710293628275394440e-02
3.900449723005294800e-02
-8.020874857902526855e-02
-2.221559407189488411e-03
4.006092250347137451e-02
-6.053008511662483215e-02
-3.557050973176956177e-02
7.185991853475570679e-02
3.078416921198368073e-02
-5.318862572312355042e-02
4.116652905941009521e-02
-6.038670986890792847e-02
-4.296822845935821533e-02
-2.554942294955253601e-02
-6.922826915979385376e-02
-2.944434806704521179e-02
-3.320959582924842834e-02
-4.462309554219245911e-02
-1.764253154397010803e-02
7.782070338726043701e-02
-5.665419995784759521e-02
-5.807798588648438454e-04
-3.714770451188087463e-02
-6.767699122428894043e-02
-5.720716342329978943e-02
9.533989429473876953e-02
1.891912077553570271e-03
-7.283961772918701172e-02
4.756626486778259277e-02
2.313333377242088318e-02
9.849262423813343048e-03
5.260442942380905151e-02
-2.768443524837493896e-02
-7.119380682706832886e-02
-4.653479903936386108e-02
-1.963248243555426598e-03
-8.382474631071090698e-02
6.146355345845222473e-02
5.271355435252189636e-02
-3.567833080887794495e-02
-3.224333003163337708e-02
9.067179262638092041e-02
-7.517149299383163452e-02
-7.574683427810668945e-02
9.212544187903404236e-03
-4.246636852622032166e-02
-6.214275211095809937e-02
3.837372362613677979e-02
8.115428686141967773e-02
6.259953975677490234e-02
-4.236184060573577881e-03
-3.593042865395545959e-02
-1.762106083333492279e-03
7.863011956214904785e-02
1.688813045620918274e-02
2.590778842568397522e-02
7.920123636722564697e-02
1.353508885949850082e-02
6.333751231431961060e-02
-5.295628309249877930e-02
6.055455282330513000e-02
-7.999419420957565308e-02
-3.516043722629547119e-02
1.759843155741691589e-02
-2.841010689735412598e-02
-2.779872342944145203e-02
-8.497472852468490601e-02
7.036602497100830078e-02
8.241963386535644531e-02
-7.681290805339813232e-02
8.632031828165054321e-02
-6.821358203887939453e-02
-1.853559399023652077e-03
-3.573446348309516907e-02
9.122432209551334381e-03
-4.150306433439254761e-02
-7.148519158363342285e-02
3.197758272290229797e-02
-4.096443206071853638e-02
2.319805324077606201e-02
1.815041154623031616e-02
7.883737236261367798e-02
-5.160745233297348022e-02
-4.094697535037994385e-02
-1.115619111806154251e-02
-8.685078471899032593e-03
-6.401759106665849686e-03
4.731027409434318542e-02
4.447510093450546265e-02
-2.601554803550243378e-02
7.016492635011672974e-02
3.827502205967903137e-02
2.770662680268287659e-02
-6.127493083477020264e-02
-1.780580356717109680e-02
2.109405584633350372e-02
1.796785928308963776e-02
8.715850301086902618e-03
-8.108804374933242798e-02
-2.767978236079216003e-02
3.075350075960159302e-02
-5.606140196323394775e-02
-4.638244211673736572e-02
-5.286083370447158813e-02
-1.954145543277263641e-02
-3.825733670964837074e-03
-6.873469799757003784e-02
1.401843968778848648e-02
-4.762622714042663574e-02
-1.212303526699542999e-02
-3.825590014457702637e-02
-2.423483645543456078e-03
7.694952934980392456e-02
-7.733401656150817871e-02
1.267539896070957184e-02
4.697816446423530579e-02
8.565796166658401489e-02
-4.193129390478134155e-02
-3.349685296416282654e-02
-1.360178575851023197e-03
4.158016294240951538e-02
-7.854408770799636841e-02
5.828459933400154114e-02
-8.409155160188674927e-02
-5.531414598226547241e-02
2.359793335199356079e-02
6.221138313412666321e-02
6.950167566537857056e-02
-6.992175709456205368e-03
-6.892967969179153442e-02
-3.731257840991020203e-02
-1.074664294719696045e-02
2.788486145436763763e-02
-4.677022621035575867e-02
3.613695967942476273e-03
6.036397814750671387e-02
-5.641065910458564758e-02
-1.825315132737159729e-02
2.677926234900951385e-02
-9.573251940310001373e-03
-7.798843830823898315e-02
5.470371246337890625e-02
-4.820324853062629700e-02
-7.411064952611923218e-02
-4.465712234377861023e-02
-4.886981472373008728e-02
-7.862213067710399628e-03
4.504178464412689209e-02
7.091652601957321167e-02
-6.827523559331893921e-02
-4.016436636447906494e-02
-2.723793312907218933e-02
-5.341513454914093018e-02
1.510409731417894363e-02
-5.552368238568305969e-03
6.653075665235519409e-02
-7.138876244425773621e-03
-6.900409609079360962e-02
-7.370815426111221313e-02
-5.334489420056343079e-02
-2.079539932310581207e-02
8.047535270452499390e-02
3.603781387209892273e-02
7.004051655530929565e-02
-6.884515285491943359e-02
5.618070811033248901e-02
-8.016972243785858154e-02
7.593467086553573608e-02
-2.258139103651046753e-02
-3.130713850259780884e-02
1.087765325792133808e-03
5.135407298803329468e-02
4.363127425312995911e-02
-5.250034853816032410e-02
6.915000826120376587e-02
-6.672850251197814941e-02
-6.357480771839618683e-03
-6.579656153917312622e-02
-6.524875760078430176e-02
-2.703843452036380768e-02
4.706137627363204956e-02
-3.883582353591918945e-02
-4.914165660738945007e-02
-8.201207034289836884e-03
-1.394036598503589630e-02
-8.895726874470710754e-03
-4.184635356068611145e-02
1.510932855308055878e-02
4.847719892859458923e-02
6.829734146595001221e-02
-1.040103062987327576e-01
2.434023655951023102e-02
-9.232427924871444702e-02
-6.935087591409683228e-02
-5.683788657188415527e-02
1.629227213561534882e-02
-6.138481944799423218e-02
2.884995937347412109e-02
4.703159630298614502e-02
4.403839353471994400e-03
2.046656236052513123e-02
-8.623337000608444214e-02
1.093063503503799438e-02
7.166191935539245605e-02
4.509656503796577454e-02
-6.926912814378738403e-02
-5.538909882307052612e-02
4.747240245342254639e-02
1.486688759177923203e-02
-1.015320643782615662e-01
-8.038036525249481201e-02
7.845243066549301147e-02
1.913717947900295258e-02
-2.443292364478111267e-02
-4.461029078811407089e-03
-6.300809979438781738e-02
1.176279131323099136e-02
5.926817283034324646e-02
2.856063842773437500e-02
2.615481056272983551e-02
5.889265611767768860e-02
2.451855503022670746e-02
-5.862076207995414734e-02
7.991907745599746704e-02
6.046238169074058533e-02
-6.933187693357467651e-02
-6.983491778373718262e-02
8.126435428857803345e-02
-1.948854699730873108e-02
-7.950500585138797760e-03
-6.087590754032135010e-02
1.444462593644857407e-02
-5.833711847662925720e-02
-2.578664012253284454e-02
-1.024919822812080383e-01
-3.341354429721832275e-03
-2.767155319452285767e-02
-3.013673983514308929e-02
-5.262710899114608765e-02
1.522879116237163544e-02
5.660446360707283020e-02
3.494859905913472176e-03
7.999233156442642212e-02
5.301684513688087463e-02
-6.638562679290771484e-02
-1.424331124871969223e-02
-6.837976723909378052e-02
-8.067565411329269409e-02
5.166432354599237442e-03
-6.138991191983222961e-02
-2.619121223688125610e-03
2.341288141906261444e-02
-3.902250900864601135e-02
6.334915757179260254e-02
-6.455449014902114868e-02
4.512757528573274612e-03
-3.198708966374397278e-02
3.087398363277316093e-03
6.953360978513956070e-03
7.165747880935668945e-02
1.857895776629447937e-02
1.365998014807701111e-02
-8.647426962852478027e-02
-6.083108112215995789e-02
-2.612140960991382599e-02
9.101581573486328125e-02
2.247357740998268127e-02
3.364144265651702881e-02
1.582323387265205383e-02
-2.911503426730632782e-02
7.797810435295104980e-02
7.989075034856796265e-03
-4.321262612938880920e-02
1.345115248113870621e-02
-3.751044347882270813e-02
-5.495507502928376198e-04
-3.909543156623840332e-02
2.244549989700317383e-02
2.226087078452110291e-02
-5.679867044091224670e-02
1.083018025383353233e-03
2.830439060926437378e-02
4.010037519037723541e-03
-9.728440642356872559e-02
3.880367055535316467e-02
-3.335139155387878418e-02
-8.541156537830829620e-03
-1.967226900160312653e-02
-6.923132389783859253e-02
-2.229301072657108307e-02
2.629958093166351318e-02
1.935818791389465332e-02
6.778489914722740650e-04
7.564462721347808838e-02
-9.524620324373245239e-02
-3.034070879220962524e-02
-6.679918617010116577e-02
-8.868245780467987061e-02
3.293207380920648575e-03
1.235383469611406326e-02
-5.893317237496376038e-02
1.337060146033763885e-02
-7.951200008392333984e-02
-7.478208839893341064e-02
-9.319431334733963013e-02
-5.746165663003921509e-02
-2.590458141639828682e-03
-1.639971695840358734e-02
-6.587526947259902954e-02
1.998366788029670715e-02
-1.063826144672930241e-03
-1.574765518307685852e-02
-1.501754671335220337e-02
-2.322048135101795197e-02
-7.908274233341217041e-02
5.523950979113578796e-02
2.470546402037143707e-02
2.269827015697956085e-02
3.905149642378091812e-04
3.764449059963226318e-02
-4.540783166885375977e-02
-1.816339907236397266e-03
5.429756641387939453e-02
-8.481954783201217651e-02
6.239112466573715210e-02
-7.584057748317718506e-02
2.666415832936763763e-02
-8.128464221954345703e-02
-6.879769265651702881e-02
4.629069566726684570e-02
6.641852110624313354e-02
-5.043691769242286682e-02
5.021812766790390015e-02
-3.613463416695594788e-02
4.557053372263908386e-02
7.348634302616119385e-02
-1.600331068038940430e-02
6.393874436616897583e-02
2.310758829116821289e-02
6.294105201959609985e-02
-2.647537738084793091e-02
-3.630220890045166016e-02
-7.051318883895874023e-02
-1.771916169673204422e-03
-3.548309206962585449e-02
1.232050452381372452e-02
-4.624786972999572754e-02
-6.417850404977798462e-02
-2.158125676214694977e-02
-9.863357059657573700e-03
-4.964982718229293823e-02
-2.213701605796813965e-02
-1.543936692178249359e-02
-3.816755115985870361e-02
-1.869431138038635254e-02
4.819137603044509888e-02
3.823769092559814453e-02
5.933053418993949890e-02
-7.672666758298873901e-02
3.451376780867576599e-02
-8.374286442995071411e-02
2.632790431380271912e-02
-8.130507543683052063e-03
-8.106116205453872681e-02
-9.933923929929733276e-02
-2.455766871571540833e-02
5.408542603254318237e-02
8.523811399936676025e-02
-7.411239296197891235e-02
-1.342711690813302994e-02
-4.547950252890586853e-02
2.246665582060813904e-02
-3.275462239980697632e-02
-2.148576825857162476e-02
-1.809867285192012787e-02
-1.490312814712524414e-02
-7.196401804685592651e-02
-5.694451555609703064e-02
6.987588107585906982e-02
1.462372578680515289e-02
5.770006030797958374e-02
2.200807444751262665e-02
-7.033540401607751846e-03
-8.351239562034606934e-02
-7.972999662160873413e-02
8.173832297325134277e-02
-5.808039382100105286e-02
-8.319894969463348389e-02
1.621103473007678986e-02
5.748796463012695312e-02
-1.001541409641504288e-02
-7.635362446308135986e-02
-6.848666816949844360e-02
-7.118424773216247559e-02
-8.570642769336700439e-02
6.753876060247421265e-02
-4.170180857181549072e-02
9.136782027781009674e-03
-6.987102329730987549e-02
-1.592150516808032990e-02
3.702452406287193298e-02
-9.067863970994949341e-02
5.945288389921188354e-02
-1.704168133437633514e-02
-2.700557000935077667e-02
1.898841001093387604e-02
-7.005877792835235596e-03
6.969209760427474976e-02
-8.933646604418754578e-03
-5.087064206600189209e-02
4.231805354356765747e-02
2.331296540796756744e-02
-4.379112273454666138e-02
3.985117748379707336e-02
-7.965712249279022217e-02
-6.896870583295822144e-02
-1.124077197164297104e-02
-7.500685751438140869e-02
5.156961828470230103e-02
6.219809874892234802e-02
1.595333963632583618e-02
-5.884324014186859131e-02
-6.089141964912414551e-02
1.153208781033754349e-03
5.701100453734397888e-02
7.441447675228118896e-02
2.662347815930843353e-02
4.658332560211420059e-03
-4.848492145538330078e-02
2.783670276403427124e-02
-6.579778343439102173e-02
7.104366272687911987e-02
-3.201126679778099060e-02
-5.639256164431571960e-02
2.809342555701732635e-02
-5.866947025060653687e-02
2.737967669963836670e-02
6.621669977903366089e-02
1.457324833609163761e-03
-6.546076387166976929e-02
4.401017352938652039e-02
-3.627279773354530334e-03
-3.272202983498573303e-02
-2.539698407053947449e-02
-2.731657028198242188e-02
-3.944436833262443542e-02
-3.987371176481246948e-02
-6.143421307206153870e-02
2.412951365113258362e-02
2.546277455985546112e-02
-3.583749756217002869e-02
5.979699268937110901e-02
-6.661425530910491943e-02
-7.732917368412017822e-02
-3.782187402248382568e-02
2.318231016397476196e-02
1.489579863846302032e-02
-5.586297065019607544e-02
-5.594106018543243408e-02
5.068625509738922119e-02
-5.622815713286399841e-02
9.678072528913617134e-04
-7.515949010848999023e-02
3.113154880702495575e-02
-5.778719857335090637e-02
3.356471657752990723e-02
3.689517080783843994e-02
2.643329650163650513e-02
2.719048596918582916e-02
7.775296270847320557e-02
-7.370855659246444702e-02
-7.209558039903640747e-02
-1.575819402933120728e-02
-6.959498673677444458e-02
-1.570454984903335571e-02
2.782885357737541199e-02
6.901097297668457031e-02
2.177445404231548309e-02
-1.522450987249612808e-02
-6.106871739029884338e-02
-2.327340189367532730e-03
4.440321773290634155e-02
1.246600318700075150e-02
-7.354566454887390137e-02
-4.829167202115058899e-02
1.197245717048645020e-02
-2.836785651743412018e-02
-8.803124539554119110e-03
6.503380835056304932e-02
-3.463614359498023987e-02
1.066755037754774094e-02
8.701188862323760986e-02
-5.660431459546089172e-02
2.982631698250770569e-02
-9.021012485027313232e-02
6.997054070234298706e-02
-3.674086183309555054e-02
9.380453824996948242e-02
-7.614606060087680817e-03
-2.036103978753089905e-02
-7.930433750152587891e-02
-6.196705158799886703e-03
-3.862182796001434326e-02
3.586867079138755798e-02
-9.767023473978042603e-02
-6.256449222564697266e-02
-1.258387882262468338e-02
-1.023541763424873352e-02
-5.640907958149909973e-02
-5.135837197303771973e-02
-7.622162811458110809e-03
3.329855948686599731e-02
-1.232985686510801315e-02
6.576604396104812622e-02
1.357967127114534378e-02
1.361852162517607212e-03
7.221086323261260986e-02
3.377400711178779602e-02
2.278370410203933716e-02
7.128312438726425171e-02
3.039691597223281860e-02
-8.268713206052780151e-02
7.876951247453689575e-02
3.804843500256538391e-02
9.913573972880840302e-03
3.694579750299453735e-02
5.554371513426303864e-03
-8.777333423495292664e-03
1.296588964760303497e-02
-1.838237233459949493e-02
5.716209486126899719e-02
-6.056685373187065125e-02
8.526755869388580322e-02
-3.072889335453510284e-02
-3.275159746408462524e-02
-6.362593732774257660e-03
2.836748212575912476e-02
6.966135650873184204e-02
-2.796964906156063080e-02
3.802194073796272278e-02
4.042998328804969788e-02
-7.034388184547424316e-02
4.870889335870742798e-02
4.749548435211181641e-02
6.411328911781311035e-02
-2.856421284377574921e-02
6.458146031945943832e-03
-9.667834639549255371e-02
-9.419078379869461060e-02
5.240894481539726257e-02
-1.426656823605298996e-02
6.098606437444686890e-02
-4.162651672959327698e-02
-3.922641649842262268e-02
4.322289675474166870e-02
4.764169082045555115e-02
-1.454317825846374035e-04
-4.281827807426452637e-02
-2.837052941322326660e-02
3.885701298713684082e-02
-6.599710881710052490e-02
4.613436176441609859e-04
7.650354504585266113e-02
-3.198404237627983093e-02
-7.933867722749710083e-02
-3.569480031728744507e-02
-8.296826481819152832e-02
-8.248083293437957764e-03
-7.207734044641256332e-03
1.349879894405603409e-02
-4.705990105867385864e-02
-5.287589877843856812e-02
-3.559974581003189087e-02
-3.127205371856689453e-02
-3.242556750774383545e-02
-9.199579060077667236e-02
-6.912211328744888306e-02
9.332138113677501678e-03
-1.514626014977693558e-02
4.267919808626174927e-02
3.053880669176578522e-02
-8.529353886842727661e-02
-2.876519970595836639e-02
7.042375952005386353e-02
1.174604520201683044e-02
-4.875342175364494324e-02
5.764162167906761169e-02
3.529398515820503235e-02
-1.107197999954223633e-02
-3.642057999968528748e-02
-6.229380890727043152e-02
-6.326391547918319702e-02
-6.906089931726455688e-02
-4.628211632370948792e-02
-7.108520716428756714e-02
-2.973984181880950928e-02
-1.115167513489723206e-02
4.896255955100059509e-02
-3.619813546538352966e-02
-2.072997577488422394e-02
1.135988533496856689e-02
5.968795716762542725e-02
-7.971148192882537842e-02
4.176564142107963562e-02
-6.589042395353317261e-02
6.789912283420562744e-02
2.134457975625991821e-02
-3.221104294061660767e-02
7.239126414060592651e-02
4.811194166541099548e-02
-2.224552258849143982e-02
-6.226398050785064697e-02
7.240721490234136581e-03
1.039564795792102814e-02
-1.898114196956157684e-02
2.953015267848968506e-02
7.222051918506622314e-02
4.998402297496795654e-02
-1.514439657330513000e-02
7.614118605852127075e-02
-6.431362032890319824e-02
1.952726393938064575e-02
-6.712207943201065063e-02
-8.674027025699615479e-02
1.857966184616088867e-02
-1.589637016877532005e-03
2.750922553241252899e-02
5.885950848460197449e-02
3.736161068081855774e-02
7.487765513360500336e-03
4.555714502930641174e-02
6.154391448944807053e-03
9.235555678606033325e-02
5.470458790659904480e-02
-7.310245186090469360e-02
5.315284430980682373e-02
2.690224722027778625e-02
6.284582428634166718e-03
-5.698273330926895142e-02
-2.048966102302074432e-02
3.714281693100929260e-02
-5.809827521443367004e-02
-3.488675504922866821e-02
-2.268568379804491997e-03
-2.139693312346935272e-02
-3.323137760162353516e-02
-6.364469416439533234e-03
-9.268296882510185242e-03
-1.083831489086151123e-02
4.884928837418556213e-02
6.312706321477890015e-02
-3.641667217016220093e-02
-3.293756768107414246e-02
-8.748216181993484497e-02
2.896934002637863159e-02
-3.616144135594367981e-02
3.023144789040088654e-02
-9.180356562137603760e-02
3.753659874200820923e-02
5.354874883778393269e-04
-8.011982589960098267e-02
3.669226914644241333e-02
5.116393417119979858e-02
-4.803840070962905884e-02
-5.057670921087265015e-02
7.788780331611633301e-02
9.799043182283639908e-04
-1.048623304814100266e-02
-3.036914393305778503e-02
1.239013392478227615e-02
-7.717172801494598389e-02
1.840685121715068817e-02
5.178016796708106995e-02
-1.973392069339752197e-02
-3.807241097092628479e-02
-5.063601583242416382e-02
-5.168077722191810608e-02
-6.671766936779022217e-02
-5.520115420222282410e-02
7.723719626665115356e-02
5.195482820272445679e-02
6.903900206089019775e-02
6.229307129979133606e-02
2.222501114010810852e-02
4.849324375391006470e-02
-3.604217991232872009e-02
-2.775508351624011993e-02
-5.943785607814788818e-02
4.582003504037857056e-02
-8.233930915594100952e-02
4.484285041689872742e-02
-8.320382982492446899e-02
3.597103431820869446e-02
8.603993803262710571e-02
1.792058162391185760e-02
-5.345686525106430054e-02
-6.835459917783737183e-02
6.082454323768615723e-02
-4.790047928690910339e-02
7.823555171489715576e-02
-1.725174486637115479e-02
3.618763387203216553e-02
5.911473184823989868e-02
-9.812369942665100098e-02
6.437796354293823242e-02
6.038950756192207336e-02
-5.175987258553504944e-02
-5.614384636282920837e-02
-6.154078245162963867e-02
1.498072687536478043e-02
9.558647871017456055e-03
-1.803197339177131653e-02
-3.141639009118080139e-02
2.787489257752895355e-02
-5.598638206720352173e-02
-4.733534529805183411e-02
-3.017209842801094055e-02
-2.959147468209266663e-02
-4.306486621499061584e-02
-3.406101837754249573e-03
-9.335719048976898193e-02
3.778346581384539604e-03
-5.831668525934219360e-02
1.469521550461649895e-03
6.813296675682067871e-02
8.451100438833236694e-02
-1.031852215528488159e-01
-2.090490795671939850e-02
8.020865172147750854e-02
-4.411228373646736145e-02
1.481559034436941147e-02
-7.943617552518844604e-02
7.022555219009518623e-04
-5.616041645407676697e-02
-3.256274759769439697e-02
3.882433846592903137e-02
-1.164146960945799947e-04
1.653548888862133026e-02
-8.440784364938735962e-02
6.423103064298629761e-02
7.297326624393463135e-02
-7.514596730470657349e-02
6.341645494103431702e-04
-5.767031386494636536e-02
7.057138253003358841e-03
-2.167614363133907318e-02
-4.520980641245841980e-02
5.769423395395278931e-02
-1.905755512416362762e-02
-8.538124710321426392e-02
1.189529970288276672e-01
-2.657294459640979767e-02
-4.200030118227005005e-02
-2.005681023001670837e-02
-7.219598442316055298e-02
9.166335687041282654e-03
-8.522599190473556519e-02
1.292740274220705032e-02
8.522662520408630371e-02
-1.764357648789882660e-02
-5.806114152073860168e-02
-6.511553376913070679e-02
7.333127409219741821e-02
-3.763395175337791443e-02
-4.701693356037139893e-02
-4.737879335880279541e-02
3.948544338345527649e-02
6.537509709596633911e-02
-2.644822234287858009e-03
2.239674702286720276e-02
7.995305210351943970e-02
-6.863203644752502441e-02
-7.184839993715286255e-02
-2.191338688135147095e-02
-4.566042125225067139e-02
-8.510445058345794678e-02
5.008374899625778198e-02
-4.396408423781394958e-02
-2.689284519874490798e-05
9.996610879898071289e-02
-2.540354989469051361e-02
1.009402647614479065e-01
5.349402874708175659e-02
1.583018712699413300e-02
-9.513564407825469971e-02
-8.393962681293487549e-02
-8.004266768693923950e-02
-7.297268509864807129e-02
6.639055442065000534e-03
-4.324313253164291382e-02
7.119204849004745483e-02
4.660262167453765869e-02
3.559840098023414612e-02
5.388662964105606079e-02
2.168408967554569244e-02
-4.547368735074996948e-02
5.495521053671836853e-02
-8.959067612886428833e-02
-1.102424636483192444e-01
5.733625963330268860e-02
3.133811056613922119e-02
-9.946051985025405884e-03
6.768774986267089844e-02
-7.390864193439483643e-02
-3.489475324749946594e-02
7.273735851049423218e-02
8.429766632616519928e-03
-8.032177388668060303e-02
3.009208291769027710e-02
1.001236494630575180e-02
1.815100014209747314e-02
-9.461476653814315796e-02
3.750513494014739990e-02
9.829871356487274170e-03
-8.948622271418571472e-03
4.240754526108503342e-03
5.359255522489547729e-02
-8.348336070775985718e-02
2.102818898856639862e-02
-5.249499529600143433e-02
1.891155354678630829e-02
2.085272595286369324e-02
4.470532014966011047e-02
-4.960533604025840759e-02
9.429772384464740753e-03
4.265522118657827377e-03
2.951319515705108643e-02
7.899927906692028046e-03
-8.631062507629394531e-02
1.624600216746330261e-02
-2.626327611505985260e-02
-8.062545955181121826e-02
2.844274789094924927e-02
1.730559580028057098e-02
-4.883236810564994812e-02
-3.267442807555198669e-02
-5.756662040948867798e-02
4.754288494586944580e-02
-9.938924014568328857e-02
7.843171246349811554e-03
-7.852188497781753540e-02
-3.300553560256958008e-02
4.008965566754341125e-02
2.073832415044307709e-02
5.245837196707725525e-02
-3.617827221751213074e-02
7.685366086661815643e-03
8.419523946940898895e-03
-8.439086377620697021e-02
-5.928939580917358398e-02
7.532252371311187744e-02
2.762160822749137878e-02
-7.360406219959259033e-02
-3.512940928339958191e-02
-9.295584168285131454e-04
-5.538081005215644836e-02
-9.147655218839645386e-02
-3.449441865086555481e-02
7.431150227785110474e-02
-7.857540994882583618e-02
2.092283219099044800e-02
7.922896184027194977e-03
3.955532982945442200e-02
1.688918471336364746e-02
1.230869162827730179e-02
7.963997311890125275e-03
-7.794535905122756958e-02
6.645797193050384521e-02
-7.766269892454147339e-02
6.422515958547592163e-02
1.063793990761041641e-02
-7.956641167402267456e-02
-2.601151540875434875e-02
-3.504142537713050842e-02
1.285445643588900566e-03
1.065502129495143890e-02
1.168391946703195572e-02
2.769555896520614624e-02
1.700872369110584259e-02
-5.057109147310256958e-02
3.405174240469932556e-02
1.931906677782535553e-02
2.022574841976165771e-02
2.525379694998264313e-02
-5.149028822779655457e-02
-4.783702269196510315e-02
-8.535102754831314087e-02
-2.032848261296749115e-02
-5.659743398427963257e-02
6.638835184276103973e-04
-9.802298247814178467e-02
-8.055160939693450928e-02
5.341038107872009277e-03
8.067854493856430054e-02
-1.495707314461469650e-02
7.354479283094406128e-02
-6.304088979959487915e-02
-2.667613513767719269e-02
3.423925489187240601e-02
-7.312117516994476318e-02
-9.264879859983921051e-03
5.208244081586599350e-03
-7.154206931591033936e-02
-9.501694142818450928e-02
6.600187625735998154e-03
3.332747891545295715e-02
-1.246236264705657959e-02
-9.288050979375839233e-02
1.773577369749546051e-02
-6.055413186550140381e-02
8.515267819166183472e-02
3.524227067828178406e-02
-1.070539802312850952e-01
5.520998314023017883e-02
6.040040776133537292e-02
-5.075850337743759155e-02
-3.575243800878524780e-02
-5.930177867412567139e-02
5.330745130777359009e-02
-3.004077821969985962e-02
-2.088412083685398102e-02
-3.430323302745819092e-02
-2.523588761687278748e-02
-5.857122689485549927e-02
1.804155297577381134e-02
-4.635875672101974487e-02
5.968848615884780884e-02
-3.122973255813121796e-02
-6.300167739391326904e-02
1.471096929162740707e-02
2.514851093292236328e-02
-4.848224669694900513e-02
-3.384032472968101501e-02
7.318707555532455444e-02
5.572912096977233887e-02
-9.344984591007232666e-02
-4.511868208646774292e-02
5.062423273921012878e-02
-7.819103077054023743e-03
1.873899623751640320e-02
-1.891019567847251892e-02
-6.502258777618408203e-02
4.283607751131057739e-02
-1.025952957570552826e-02
2.015469362959265709e-03
-3.083265386521816254e-02
-5.214307084679603577e-02
-7.840719074010848999e-02
-1.865545520558953285e-03
-2.383589558303356171e-02
-3.792183101177215576e-02
2.804749645292758942e-02
-3.055300749838352203e-02
6.751872599124908447e-02
1.423098146915435791e-02
1.005076119326986372e-04
-3.058504685759544373e-02
4.863998619839549065e-04
-1.945374533534049988e-02
2.272399887442588806e-02
-6.847476214170455933e-02
-6.771511584520339966e-02
3.238539770245552063e-02
8.088779449462890625e-02
-2.046972513198852539e-02
2.319327555596828461e-02
-2.422614488750696182e-03
-8.195618540048599243e-02
-3.859680145978927612e-02
-4.960118234157562256e-02
-6.760738790035247803e-03
3.124962560832500458e-02
-5.805110186338424683e-02
5.551861599087715149e-02
-4.428577050566673279e-02
-7.925797253847122192e-02
-1.837186701595783234e-02
1.697805151343345642e-02
7.588923722505569458e-02
2.715508081018924713e-02
-5.717189982533454895e-02
3.889320790767669678e-02
-2.298241853713989258e-02
-5.745070800185203552e-02
7.286679744720458984e-02
-1.325990818440914154e-02
5.464354902505874634e-02
2.948461100459098816e-02
-2.242604270577430725e-02
-8.109019696712493896e-02
4.999507591128349304e-02
-8.985903859138488770e-02
-2.338577434420585632e-02
4.047735780477523804e-02
-1.815489679574966431e-02
-6.073113158345222473e-02
-7.639351487159729004e-02
2.947693318128585815e-02
-6.918250769376754761e-02
8.263594657182693481e-02
-5.043198913335800171e-02
-6.280774623155593872e-02
2.621453069150447845e-02
-2.063762396574020386e-02
-4.899867996573448181e-02
2.786738798022270203e-02
-7.369870692491531372e-02
4.624514654278755188e-02
3.430218249559402466e-02
4.410723969340324402e-02
8.618638664484024048e-02
-3.653397038578987122e-02
-6.003581732511520386e-02
-6.958775222301483154e-02
5.823581479489803314e-03
-6.195654720067977905e-02
6.888318061828613281e-02
8.238302171230316162e-02
-6.260694563388824463e-02
-7.628122717142105103e-02
5.635175108909606934e-02
9.715543128550052643e-03
-1.506704837083816528e-02
1.735391095280647278e-02
8.254269510507583618e-02
1.267306227236986160e-02
3.973982483148574829e-02
-2.496428787708282471e-02
-9.631018154323101044e-03
-2.631915733218193054e-02
6.885794550180435181e-02
-7.514679431915283203e-02
-6.320215761661529541e-02
-1.740819215774536133e-02
-5.981550365686416626e-02
8.464405685663223267e-02
5.387928709387779236e-02
-5.999695882201194763e-02
-6.047279760241508484e-02
-4.600282013416290283e-02
-3.576584905385971069e-02
-4.711823537945747375e-02
5.343319382518529892e-03
4.298586864024400711e-03
6.275968253612518311e-02
1.631509885191917419e-02
-7.614345103502273560e-02
-3.994087502360343933e-02
7.918431609869003296e-02
6.131099909543991089e-02
8.856097608804702759e-02
-2.114116027951240540e-02
-7.158656418323516846e-02
-1.616284810006618500e-02
-6.696063280105590820e-02
7.850905507802963257e-02
-5.429381877183914185e-02
5.624926835298538208e-02
-6.854141503572463989e-02
5.865403637290000916e-02
-8.393795043230056763e-02
-1.787723042070865631e-02
5.641128867864608765e-02
6.846513599157333374e-02
6.430329382419586182e-02
-8.696579933166503906e-02
4.346584901213645935e-02
-2.152136899530887604e-02
4.114925861358642578e-02
1.746597466990351677e-03
7.778993993997573853e-02
-5.768818780779838562e-02
4.239435866475105286e-02
-7.805758155882358551e-03
-6.205454096198081970e-02
7.668215781450271606e-02
3.291702643036842346e-02
-1.086632627993822098e-02
-7.014887779951095581e-02
-1.543786469846963882e-02
8.249954134225845337e-02
8.259222656488418579e-02
-9.165488183498382568e-02
7.779758423566818237e-02
1.026597153395414352e-02
1.972175389528274536e-02
7.897100597620010376e-02
4.664766415953636169e-02
-7.362195849418640137e-02
8.362879604101181030e-02
-7.423175871372222900e-02
-1.121034938842058182e-02
-2.293381467461585999e-02
-4.577104374766349792e-02
3.761946409940719604e-02
-1.856744661927223206e-02
2.722854539752006531e-02
1.500019920058548450e-03
1.144657563418149948e-02
-6.756439059972763062e-02
-3.388174250721931458e-02
1.917808316648006439e-02
-4.018446430563926697e-02
3.830562159419059753e-02
6.123074516654014587e-02
1.106358505785465240e-02
-1.698395423591136932e-02
-2.725876867771148682e-02
-3.415638580918312073e-02
-2.230508252978324890e-02
7.312941551208496094e-02
-2.684013545513153076e-02
-4.160006344318389893e-02
-4.030820727348327637e-02
-2.272414974868297577e-02
-8.279666304588317871e-02
-1.048364490270614624e-01
3.584267571568489075e-02
-5.201596766710281372e-02
4.050941392779350281e-02
-1.346170715987682343e-02
9.316277503967285156e-02
4.227693006396293640e-02
8.550351113080978394e-02
6.250949949026107788e-02
2.162415161728858948e-02
1.816369034349918365e-02
-9.690356440842151642e-03
7.426629215478897095e-02
-8.512995392084121704e-02
-8.621235191822052002e-02
4.516793414950370789e-02
-7.880674302577972412e-02
5.774291232228279114e-02
-1.245278492569923401e-02
-9.966050274670124054e-03
-8.923763036727905273e-02
-8.019210398197174072e-02
4.878969863057136536e-02
-3.197586536407470703e-02
-4.882530868053436279e-02
-1.367270015180110931e-03
-1.214201468974351883e-02
-1.804581657052040100e-02
3.341339528560638428e-02
-3.739783773198723793e-03
5.404449254274368286e-02
-3.862746804952621460e-02
-7.443054765462875366e-02
-3.615404292941093445e-02
-4.841809719800949097e-02
-5.344918742775917053e-02
-7.212606724351644516e-03
-6.181546021252870560e-03
-8.124075084924697876e-02
-1.724634505808353424e-02
-1.389405224472284317e-02
6.197470799088478088e-02
1.745441555976867676e-02
8.819343522191047668e-03
-8.844909071922302246e-02
3.853103844448924065e-04
-6.421178579330444336e-02
1.417439663782715797e-03
-1.436055731028318405e-02
-3.355077654123306274e-02
2.918200194835662842e-02
2.545413933694362640e-02
-5.664661899209022522e-02
7.633628696203231812e-02
5.632513761520385742e-02
-9.181055426597595215e-02
-2.816866710782051086e-02
-7.964929193258285522e-02
1.961977593600749969e-02
-8.846864849328994751e-02
-3.853810578584671021e-02
-5.690827034413814545e-03
-4.877573251724243164e-02
-3.673508018255233765e-02
5.611241608858108521e-02
-8.710553869605064392e-03
3.607629239559173584e-02
-5.102770403027534485e-02
-3.158122301101684570e-02
5.337600409984588623e-02
5.916232243180274963e-02
6.090923026204109192e-02
7.936868071556091309e-02
-7.061760127544403076e-02
-9.852443635463714600e-02
3.365974500775337219e-02
-3.842669352889060974e-02
-6.494203209877014160e-02
8.214545994997024536e-02
9.584642946720123291e-03
7.572006434202194214e-02
4.950495809316635132e-02
-2.393448725342750549e-02
-2.915866672992706299e-02
-3.338247165083885193e-02
5.090695619583129883e-02
-3.264724463224411011e-02
-7.897887378931045532e-02
-1.466756220906972885e-02
9.682305902242660522e-02
5.355593189597129822e-02
-6.396517902612686157e-02
6.109073758125305176e-03
5.700881034135818481e-02
-5.238642171025276184e-02
5.417035147547721863e-02
-5.826377123594284058e-02
8.593899011611938477e-02
1.160694938153028488e-02
-2.179466187953948975e-02
-1.076906919479370117e-01
-4.448719695210456848e-02
-2.434950694441795349e-02
7.323803752660751343e-02
1.557736936956644058e-02
1.199125312268733978e-02
7.107716053724288940e-03
-5.906458944082260132e-02
3.038299083709716797e-02
4.034777358174324036e-02
1.754009909927845001e-02
-8.197081834077835083e-02
-5.693022627383470535e-03
6.683530658483505249e-02
1.407119631767272949e-02
6.547894328832626343e-02
-5.091625452041625977e-02
-7.951863855123519897e-02
1.935018110089004040e-03
-2.163391932845115662e-02
-6.856012623757123947e-04
5.693840980529785156e-02
1.817768067121505737e-02
7.732169330120086670e-02
-8.253072947263717651e-02
9.881645441055297852e-02
7.489807903766632080e-02
-7.448420673608779907e-02
2.741262875497341156e-02
6.764543056488037109e-02
3.296763077378273010e-02
6.777939945459365845e-02
2.224739454686641693e-02
7.104715704917907715e-02
-7.396987825632095337e-02
3.227304667234420776e-02
6.900447420775890350e-03
4.058011248707771301e-02
5.065532773733139038e-02
-5.241851508617401123e-02
-6.965453922748565674e-02
-5.475102365016937256e-02
-5.765013769268989563e-02
6.843605637550354004e-02
-4.755801707506179810e-02
5.885411798954010010e-02
4.686782881617546082e-02
-3.938906639814376831e-02
6.038347259163856506e-02
1.077972073107957840e-02
-4.666637629270553589e-02
-9.648916870355606079e-02
-1.234522933373227715e-04
-8.350665122270584106e-02
-2.762028016149997711e-02
2.224594354629516602e-02
-1.472364645451307297e-02
7.616565376520156860e-02
-4.930831491947174072e-02
-2.203548513352870941e-02
-2.226671203970909119e-02
-4.009737446904182434e-02
-1.855648308992385864e-02
-3.246759995818138123e-02
-1.894315332174301147e-02
7.239636778831481934e-02
3.064928017556667328e-02
5.116371810436248779e-02
-3.421057388186454773e-02
-7.471970468759536743e-02
5.418538302183151245e-02
6.287173926830291748e-02
-6.324906647205352783e-02
2.001544460654258728e-02
-2.126898802816867828e-02
-4.093668237328529358e-02
-6.300195585936307907e-03
2.596416883170604706e-02
8.367715030908584595e-02
4.614618048071861267e-02
-8.155283331871032715e-02
-5.088343471288681030e-02
-4.292712733149528503e-02
5.408304557204246521e-02
8.346056193113327026e-02
7.216857373714447021e-02
-2.384758926928043365e-02
5.871922895312309265e-02
3.539212048053741455e-02
4.629554226994514465e-02
6.028729490935802460e-03
4.266812279820442200e-02
-5.020049586892127991e-02
1.075281426310539246e-01
7.287726551294326782e-02
6.616108119487762451e-02
1.877193711698055267e-02
6.035490706562995911e-02
2.785980701446533203e-02
-5.991701781749725342e-02
-4.313169419765472412e-02
-9.550252556800842285e-02
-8.309628814458847046e-03
1.766327582299709320e-02
5.918881669640541077e-02
4.003541916608810425e-02
-1.252301875501871109e-02
-2.155281417071819305e-02
2.465107291936874390e-02
-3.390761837363243103e-02
8.455471135675907135e-03
1.230498682707548141e-02
3.017598390579223633e-02
5.551309883594512939e-02
-8.747518062591552734e-02
-4.343897104263305664e-02
-3.968628868460655212e-02
-3.001839295029640198e-02
8.508677035570144653e-02
-1.829327084124088287e-02
5.277151986956596375e-02
7.910659909248352051e-02
7.546165585517883301e-02
-8.813022077083587646e-02
6.414925307035446167e-02
1.031437795609235764e-02
1.392061635851860046e-02
1.770893298089504242e-02
-2.908055856823921204e-02
4.192166775465011597e-02
8.838259428739547729e-02
1.198423653841018677e-02
-3.660210594534873962e-02
-8.889349550008773804e-02
4.496662318706512451e-02
1.408752426505088806e-02
6.110958009958267212e-02
-6.854233145713806152e-02
4.402018710970878601e-02
6.864167284220457077e-03
-7.403558492660522461e-02
-7.845109701156616211e-02
2.716168761253356934e-02
7.106735836714506149e-03
-6.687015295028686523e-02
-4.912422224879264832e-02
-4.570114240050315857e-02
-6.277168542146682739e-02
7.976263761520385742e-03
5.399858206510543823e-02
-1.594715751707553864e-02
1.168577279895544052e-02
1.258347649127244949e-02
1.415973901748657227e-02
1.915123686194419861e-02
-8.128718286752700806e-02
6.780996918678283691e-02
-3.959291800856590271e-02
-5.754765495657920837e-02
4.152300208806991577e-02
2.343526855111122131e-02
-7.129276171326637268e-03
4.400978982448577881e-02
-6.889846175909042358e-02
-1.845134980976581573e-02
-1.441047620028257370e-02
-2.326847240328788757e-02
5.019014701247215271e-02
-8.774691820144653320e-02
-3.224034607410430908e-02
1.192367170006036758e-02
-5.909844487905502319e-02
6.695526838302612305e-02
2.766633639112114906e-03
7.577102631330490112e-02
-6.218079105019569397e-02
1.408872008323669434e-02
2.609685435891151428e-02
-7.314966619014739990e-02
7.602172344923019409e-02
-2.819517441093921661e-02
7.583855837583541870e-02
5.502347275614738464e-02
3.199865296483039856e-02
-1.782669313251972198e-02
5.021367594599723816e-02
-1.921774819493293762e-02
-2.820572815835475922e-02
3.645365126430988312e-03
1.586934551596641541e-02
-3.233087062835693359e-02
-6.457164138555526733e-02
-1.575755700469017029e-02
-4.201556742191314697e-02
4.623953718692064285e-04
-3.086156956851482391e-02
-1.510755810886621475e-02
1.668760553002357483e-02
-5.515316501259803772e-03
5.482515320181846619e-02
-2.016126178205013275e-02
-4.289883002638816833e-02
-2.878488600254058838e-02
8.783712983131408691e-02
7.672705221921205521e-03
-5.528692528605461121e-02
9.501056373119354248e-02
1.376953441649675369e-02
-3.719005361199378967e-02
5.522948876023292542e-02
8.169285207986831665e-02
1.811521872878074646e-02
-8.818864822387695312e-02
-8.545588701963424683e-02
-9.151145815849304199e-02
-6.000042334198951721e-02
7.764244079589843750e-02
-8.344995789229869843e-03
7.647126168012619019e-02
-6.353489309549331665e-02
-5.123996734619140625e-02
-3.940559923648834229e-02
-7.731848955154418945e-02
7.147525250911712646e-02
-4.025107715278863907e-03
6.284351646900177002e-02
6.210212782025337219e-02
6.949818879365921021e-02
9.609118103981018066e-03
8.002321235835552216e-03
-7.472219318151473999e-02
5.049735307693481445e-02
-3.120975755155086517e-02
7.847192883491516113e-02
-6.998348981142044067e-02
-1.138322148472070694e-02
-2.869898080825805664e-02
-4.212841391563415527e-02
-3.313204646110534668e-02
3.135191649198532104e-02
-2.144888276234269142e-03
5.524979904294013977e-02
4.722693189978599548e-02
5.988056212663650513e-02
4.707052558660507202e-02
3.737731277942657471e-02
-7.887024432420730591e-02
-6.559831649065017700e-02
-2.549788169562816620e-02
-5.611908808350563049e-02
-3.353387489914894104e-02
-2.061289735138416290e-02
2.924093417823314667e-02
4.722601268440485001e-03
3.232532739639282227e-02
-6.609834730625152588e-02
3.933907300233840942e-02
6.842742115259170532e-02
-7.722130417823791504e-02
-7.795169949531555176e-03
3.339410573244094849e-02
6.674470007419586182e-02
-4.253156855702400208e-02
4.273638129234313965e-02
-2.420742064714431763e-02
-1.336914673447608948e-02
4.303809255361557007e-02
-6.713718175888061523e-02
5.015615746378898621e-02
-3.031990304589271545e-02
6.418360769748687744e-02
-6.740332394838333130e-02
-4.519556090235710144e-02
-2.755304612219333649e-02
-5.409835278987884521e-02
8.016772568225860596e-02
-3.087008930742740631e-02
-5.315523967146873474e-02
-3.373163565993309021e-02
3.735439851880073547e-02
-5.002798885107040405e-02
3.902471438050270081e-02
5.171351507306098938e-02
4.111189022660255432e-02
-1.185416057705879211e-02
1.392070855945348740e-02
7.115391641855239868e-02
-6.192406266927719116e-02
6.799907237291336060e-02
-1.867230050265789032e-02
-2.065220102667808533e-02
-1.043475046753883362e-01
-6.689438968896865845e-02
-5.771923810243606567e-02
9.907452017068862915e-02
-5.532138794660568237e-02
6.591539829969406128e-02
4.987533763051033020e-02
6.743173301219940186e-02
-2.533292770385742188e-02
-1.843968406319618225e-02
-1.986042968928813934e-02
6.314054131507873535e-02
-9.370058774948120117e-02
6.269472837448120117e-02
-1.103142742067575455e-02
1.901447027921676636e-02
-5.694733932614326477e-02
2.798811532557010651e-02
-1.983537152409553528e-02
8.154792338609695435e-02
-6.965457648038864136e-02
-1.809381693601608276e-02
-6.797994673252105713e-02
-3.167103603482246399e-02
-4.572177131194621325e-04
-2.875903993844985962e-02
1.436069980263710022e-02
3.311532735824584961e-02
-2.193009946495294571e-03
-3.433672338724136353e-02
4.849162697792053223e-02
8.879948407411575317e-02
4.541128128767013550e-02
6.367282569408416748e-02
-8.602990210056304932e-02
-5.935173481702804565e-02
-5.545631051063537598e-02
6.900094449520111084e-02
1.260401867330074310e-02
5.061510205268859863e-02
-9.138894081115722656e-02
2.612627111375331879e-02
6.331778131425380707e-03
4.289568960666656494e-02
1.399324648082256317e-02
-8.138760179281234741e-02
2.175762504339218140e-02
-4.772149398922920227e-02
5.455758050084114075e-02
-6.767978519201278687e-02
7.101942785084247589e-03
-9.465485811233520508e-02
-7.190041244029998779e-02
-8.918412029743194580e-02
7.981004565954208374e-02
-2.963915280997753143e-02
-1.450158748775720596e-02
-1.869392395019531250e-02
-8.662945032119750977e-02
3.198379650712013245e-02
6.446482241153717041e-02
5.661722645163536072e-02
-1.707222312688827515e-02
-9.157351404428482056e-02
-1.423533167690038681e-02
-4.722620546817779541e-02
1.316155306994915009e-03
-4.253228381276130676e-02
-3.237157315015792847e-02
2.354495227336883545e-02
7.567628473043441772e-02
-3.445130586624145508e-02
3.991335257887840271e-02
2.433802373707294464e-02
2.686826139688491821e-02
8.905171416699886322e-03
-7.609066367149353027e-02
4.812406376004219055e-02
-5.558940023183822632e-02
7.816126942634582520e-02
-4.927317425608634949e-02
-6.273549981415271759e-03
6.720009446144104004e-02
5.886003747582435608e-02
-5.503662303090095520e-02
-8.914266526699066162e-02
8.187202364206314087e-02
4.329215735197067261e-02
-2.645454369485378265e-02
-7.060967385768890381e-02
3.287619724869728088e-02
8.018788695335388184e-02
6.421855505323037505e-05
5.332274362444877625e-02
-1.398680265992879868e-02
-2.891319617629051208e-02
-5.549342930316925049e-02
-7.860973477363586426e-02
6.830785423517227173e-02
-3.464789688587188721e-02
-6.842435151338577271e-02
-4.242858663201332092e-02
4.415001347661018372e-02
-5.518241226673126221e-02
-3.998747095465660095e-03
-3.164481371641159058e-02
2.836833707988262177e-02
5.179186910390853882e-02
-4.068173840641975403e-02
2.419715188443660736e-02
3.858780721202492714e-03
-8.037899434566497803e-02
-3.620969876646995544e-02
-9.357469528913497925e-02
4.056458920240402222e-02
-8.044078946113586426e-02
-4.002162441611289978e-02
-2.863628603518009186e-02
3.148268163204193115e-02
1.766164228320121765e-02
-8.051396161317825317e-02
-8.178509026765823364e-02
3.195682913064956665e-02
-5.156411975622177124e-02
6.838261336088180542e-02
-6.301880627870559692e-02
5.761132761836051941e-02
3.430466726422309875e-02
4.034462571144104004e-02
-8.266226202249526978e-02
3.899170085787773132e-02
-1.240484323352575302e-02
9.136456064879894257e-04
8.784414827823638916e-02
4.554157704114913940e-02
6.548658758401870728e-02
1.700424775481224060e-02
6.942069530487060547e-02
7.057335972785949707e-02
7.679258286952972412e-02
7.573803514242172241e-02
-6.096744909882545471e-03
4.855052381753921509e-02
4.917934536933898926e-02
-5.240987986326217651e-02
-3.474102169275283813e-02
-6.596737354993820190e-02
-4.156496003270149231e-02
3.253563493490219116e-02
-3.644372895359992981e-02
3.477365523576736450e-02
-8.330748230218887329e-02
-3.429212793707847595e-02
-1.587280631065368652e-02
-7.740867137908935547e-02
-7.623612880706787109e-02
2.936644852161407471e-02
-3.243516013026237488e-02
3.370030596852302551e-02
-3.760812804102897644e-02
-8.456011302769184113e-03
6.037279218435287476e-02
-4.834917932748794556e-02
-1.216965261846780777e-02
-5.459631234407424927e-02
-3.105362690985202789e-02
1.388251688331365585e-02
-7.839738391339778900e-03
-1.215408649295568466e-02
-1.673564128577709198e-02
2.094588801264762878e-02
3.694911673665046692e-02
-3.636816143989562988e-02
-5.135682225227355957e-02
2.731535211205482483e-02
1.010905299335718155e-02
2.927358821034431458e-02
1.106669753789901733e-02
8.751979470252990723e-02
-4.848769679665565491e-02
2.909699827432632446e-02
-6.225721910595893860e-02
-6.248733773827552795e-02
-4.950484633445739746e-02
-5.724196089431643486e-04
7.095526158809661865e-02
-3.026941418647766113e-02
1.855884492397308350e-02
-5.992782860994338989e-02
5.207948386669158936e-02
2.865627221763134003e-02
-2.523271180689334869e-02
-1.004621386528015137e-02
-1.806022785604000092e-02
2.752990275621414185e-02
-4.255224764347076416e-02
-7.755038887262344360e-02
-1.415587216615676880e-02
-8.850890398025512695e-02
-3.509376570582389832e-02
-2.164208702743053436e-02
5.688775703310966492e-02
-7.621385902166366577e-02
-1.437005237676203251e-03
6.853310018777847290e-02
9.478113055229187012e-02
-2.135781198740005493e-02
-1.158173754811286926e-02
4.110457003116607666e-02
-2.771429531276226044e-02
-8.147262036800384521e-02
-5.561273172497749329e-02
2.144768647849559784e-02
3.611327335238456726e-02
-6.092973984777927399e-03
-2.392251975834369659e-02
1.684898324310779572e-02
1.438896264880895615e-02
6.586310919374227524e-03
-4.120942950248718262e-02
-9.131587296724319458e-02
5.530885234475135803e-02
-9.744796901941299438e-03
-4.252819344401359558e-02
-1.597833819687366486e-02
-4.005704075098037720e-02
8.207157999277114868e-02
7.514256238937377930e-02
5.200336128473281860e-02
7.796483486890792847e-02
-5.517200380563735962e-02
-9.381727129220962524e-02
6.287690252065658569e-02
1.864025741815567017e-02
6.561388820409774780e-02
-4.418521001935005188e-02
-7.091275602579116821e-02
-6.788366287946701050e-02
-4.826229438185691833e-02
-8.553325384855270386e-02
-3.801355138421058655e-02
-5.318456515669822693e-02
2.947876602411270142e-02
-2.362361177802085876e-02
-5.224197357892990112e-02
-2.638692595064640045e-02
2.145660296082496643e-02
-9.539327770471572876e-02
-6.477427482604980469e-02
1.799352839589118958e-02
-5.109328031539916992e-02
6.248398125171661377e-02
2.231794968247413635e-02
7.633461058139801025e-02
2.692220965400338173e-03
-3.005148097872734070e-02
3.909396007657051086e-02
-2.044968493282794952e-02
1.016211956739425659e-01
5.773745104670524597e-02
-4.173273965716362000e-02
-4.726438596844673157e-02
-6.313773244619369507e-02
-7.996939867734909058e-02
-6.119189783930778503e-02
-8.005894720554351807e-02
2.390040084719657898e-02
-1.015449408441781998e-02
2.604441903531551361e-02
7.286155223846435547e-02
4.688427597284317017e-02
-5.645216628909111023e-02
-4.298255965113639832e-02
-1.763472147285938263e-02
3.334651142358779907e-02
-7.794455438852310181e-02
-6.009827926754951477e-02
-7.642278075218200684e-02
3.130452474579215050e-03
-5.729562044143676758e-02
-9.402289986610412598e-02
-3.372730687260627747e-02
5.227006599307060242e-02
2.420457638800144196e-02
7.649037986993789673e-02
4.805587604641914368e-02
1.087421551346778870e-02
-5.634514987468719482e-02
-6.535287946462631226e-02
-4.160355404019355774e-02
4.401194676756858826e-02
4.169566556811332703e-02
-2.988848462700843811e-02
-4.097217321395874023e-02
1.343972980976104736e-02
2.826039493083953857e-02
2.929860539734363556e-02
-7.218726724386215210e-02
-5.058405920863151550e-02
4.342585429549217224e-02
7.029465585947036743e-02
3.684665262699127197e-02
-6.816867738962173462e-02
8.784317225217819214e-02
2.013718336820602417e-02
-5.270372331142425537e-02
-5.634650960564613342e-02
7.079018745571374893e-03
7.984131574630737305e-02
-2.339884638786315918e-02
-2.857774123549461365e-02
3.966832160949707031e-02
6.911806017160415649e-02
-4.678271338343620300e-02
2.161279506981372833e-02
5.629139393568038940e-02
-4.168779402971267700e-02
6.768102198839187622e-02
1.802690885961055756e-02
7.021933328360319138e-03
-4.050058871507644653e-02
2.469712495803833008e-02
-3.082253970205783844e-02
-6.616460159420967102e-04
-3.917647525668144226e-02
1.704178750514984131e-02
8.815470151603221893e-03
-1.206528954207897186e-02
2.923555485904216766e-02
-7.480184081941843033e-03
-3.263094276189804077e-02
7.892277091741561890e-02
-7.199192792177200317e-02
-2.543543465435504913e-02
-7.651907950639724731e-02
-5.924930050969123840e-02
3.086878359317779541e-02
-9.818877279758453369e-02
6.468317005783319473e-03
-8.530391007661819458e-02
-6.454138457775115967e-02
-3.660099208354949951e-02
-2.338654128834605217e-03
2.610505744814872742e-02
-5.454886332154273987e-02
6.399522069841623306e-03
4.270811006426811218e-02
4.902240633964538574e-02
2.264766208827495575e-02
1.345651503652334213e-02
-9.429271519184112549e-02
-2.552462555468082428e-02
3.616834804415702820e-02
9.156601503491401672e-03
1.211188361048698425e-02
-1.604141294956207275e-02
4.993680864572525024e-02
-8.411551266908645630e-02
-9.219700843095779419e-02
3.080479986965656281e-02
-8.485355228185653687e-02
-3.785516694188117981e-02
2.433254756033420563e-02
6.440704222768545151e-03
5.709787365049123764e-03
7.391631603240966797e-02
-8.440733700990676880e-02
4.076405242085456848e-02
1.455202046781778336e-02
1.397634763270616531e-02
-9.845648705959320068e-02
3.936498984694480896e-02
5.347318947315216064e-02
-3.012565337121486664e-02
7.727334648370742798e-02
-3.931103646755218506e-02
3.840196505188941956e-02
-2.487817965447902679e-02
1.667147385887801647e-03
7.792040705680847168e-02
4.964132979512214661e-02
-6.126942485570907593e-02
1.644306629896163940e-02
-4.734358191490173340e-02
8.431207388639450073e-03
4.953511804342269897e-02
-6.215859670192003250e-03
-1.299566403031349182e-02
8.524083346128463745e-02
-4.618955403566360474e-02
-5.826760549098253250e-03
-6.231066957116127014e-02
6.300764530897140503e-02
-1.155113149434328079e-02
1.404890790581703186e-03
-5.909339711070060730e-02
-2.516962401568889618e-02
-5.801628902554512024e-02
-4.175826907157897949e-02
-8.026129566133022308e-03
-6.491433084011077881e-02
6.567438691854476929e-02
3.374796826392412186e-03
1.726646721363067627e-02
-8.329033106565475464e-02
4.067160561680793762e-02
4.010571166872978210e-02
3.231864050030708313e-02
-1.252518873661756516e-02
-6.866619735956192017e-02
-7.352895918302237988e-04
8.665614575147628784e-02
-6.464161723852157593e-02
1.362341642379760742e-02
8.580530434846878052e-02
3.167455270886421204e-02
1.378539111465215683e-02
-5.115239322185516357e-02
-6.038244068622589111e-02
-7.270819693803787231e-02
-6.951484829187393188e-02
-6.983798742294311523e-02
-3.577420487999916077e-02
7.159301638603210449e-02
5.747621506452560425e-02
8.880889974534511566e-03
3.901327028870582581e-02
-1.943204738199710846e-02
3.349928557872772217e-02
5.481519922614097595e-02
-8.116255700588226318e-02
-1.904398761689662933e-02
-3.509856015443801880e-02
4.331376031041145325e-02
2.186159789562225342e-02
-5.816091317683458328e-03
-4.961166903376579285e-02
6.372019648551940918e-02
6.998603790998458862e-02
5.496878921985626221e-02
-4.043838381767272949e-02
4.471666365861892700e-02
1.052712053060531616e-01
-1.875459961593151093e-02
-5.658404156565666199e-02
-6.525564938783645630e-02
-4.161324724555015564e-02
-5.559169501066207886e-02
-1.012187451124191284e-01
-5.591186508536338806e-02
-1.361083704978227615e-02
-8.837962895631790161e-02
-4.355073720216751099e-02
-2.899588830769062042e-02
2.945961244404315948e-02
-5.849326029419898987e-02
-6.897144019603729248e-02
-3.815133497118949890e-02
-8.922867476940155029e-03
-3.776784241199493408e-02
-1.098924595862627029e-02
-2.057693712413311005e-02
-1.308804657310247421e-02
-8.692601695656776428e-03
3.310188651084899902e-02
1.272340863943099976e-02
-8.268906921148300171e-02
-2.821060130372643471e-03
6.261640787124633789e-02
-3.343242779374122620e-02
-7.928212732076644897e-02
-3.345155715942382812e-02
4.634569957852363586e-02
-3.551246598362922668e-02
-8.733253180980682373e-02
3.851986723020672798e-03
-6.424440443515777588e-02
-2.986247465014457703e-02
5.870674923062324524e-02
3.687313944101333618e-02
2.912776917219161987e-02
4.050857573747634888e-02
5.904238298535346985e-02
2.967164292931556702e-02
-1.528024021536111832e-02
4.128542169928550720e-02
9.356373921036720276e-03
7.111305743455886841e-02
-5.669879540801048279e-02
-1.416840776801109314e-02
-7.275936752557754517e-02
3.793911635875701904e-02
-1.022807806730270386e-01
-8.170706778764724731e-02
3.728931024670600891e-02
-5.104675516486167908e-02
1.465521752834320068e-02
-2.859730459749698639e-02
6.762810051441192627e-02
-7.837893068790435791e-02
-7.919283583760261536e-03
-3.751851618289947510e-02
6.041356176137924194e-02
2.292620949447154999e-02
9.428776800632476807e-02
-5.728912353515625000e-02
-8.228908479213714600e-02
6.684451550245285034e-02
7.090380042791366577e-02
2.851950563490390778e-02
-3.201831132173538208e-02
-3.538888692855834961e-02
-8.578275889158248901e-02
-1.015806794166564941e-01
-4.131039977073669434e-02
-7.800924777984619141e-02
-8.063447475433349609e-02
-4.933095723390579224e-02
7.099769264459609985e-02
7.967557758092880249e-02
-3.423473238945007324e-02
7.073053717613220215e-02
5.975170060992240906e-02
3.451723605394363403e-02
-7.097873091697692871e-02
-7.542695105075836182e-02
7.556118071079254150e-02
-5.787019431591033936e-02
-8.030248433351516724e-02
5.398792028427124023e-02
-2.714193984866142273e-02
9.248863905668258667e-02
-8.014202117919921875e-02
7.650590687990188599e-02
8.222943171858787537e-03
-4.486523196101188660e-02
-5.852475389838218689e-02
6.470691412687301636e-02
3.522277576848864555e-03
9.298864752054214478e-03
1.505527179688215256e-02
6.043105944991111755e-02
1.357296016067266464e-02
-1.030207495205104351e-04
-6.370794773101806641e-02
1.453343592584133148e-02
2.912213094532489777e-02
8.008330315351486206e-02
-1.481086760759353638e-02
6.937187165021896362e-02
-5.701208487153053284e-02
-9.922975674271583557e-03
-9.460240602493286133e-03
-3.941309452056884766e-02
5.307513847947120667e-02
3.395866230130195618e-02
-8.508573472499847412e-02
-6.992342323064804077e-02
7.082773745059967041e-02
3.369444236159324646e-02
-4.586481675505638123e-02
-1.376053411513566971e-02
2.116897515952587128e-02
-7.018870860338211060e-02
-1.309226360172033310e-02
-6.508365739136934280e-03
6.362826377153396606e-02
3.457054495811462402e-02
1.031061727553606033e-02
5.327657237648963928e-02
-3.381327539682388306e-02
1.859611086547374725e-02
3.325954452157020569e-02
2.504940703511238098e-02
-1.304314471781253815e-02
3.169195353984832764e-02
-1.451726816594600677e-02
5.067607387900352478e-02
-7.713310420513153076e-02
2.925960905849933624e-02
-7.672788947820663452e-02
-3.557327017188072205e-02
-5.152498185634613037e-02
-1.009779796004295349e-02
-9.259481728076934814e-02
2.936656959354877472e-02
-7.204240560531616211e-02
-6.595662562176585197e-04
7.810680568218231201e-02
-9.739673882722854614e-02
-1.697832718491554260e-02
1.785573549568653107e-02
3.163020312786102295e-02
-5.315770395100116730e-03
5.621880292892456055e-02
7.064349204301834106e-02
4.988607019186019897e-02
9.467414766550064087e-02
8.453568443655967712e-03
3.598123416304588318e-02
-2.690553665161132812e-03
5.596925318241119385e-02
-5.333120934665203094e-03
-1.524246670305728912e-02
4.816637188196182251e-02
-6.478337943553924561e-02
1.505227480083703995e-02
-8.107736706733703613e-02
2.744725532829761505e-02
-3.966682776808738708e-02
4.207734018564224243e-02
3.707471489906311035e-02
-8.603612333536148071e-02
3.771070018410682678e-02
6.544338911771774292e-02
-3.655503969639539719e-03
9.455652907490730286e-03
5.038735643029212952e-02
1.998298801481723785e-02
4.599424451589584351e-02
-7.270624488592147827e-02
-5.880686640739440918e-02
-1.212344411760568619e-02
-6.487872451543807983e-02
2.594985999166965485e-02
3.486397489905357361e-02
8.392957597970962524e-02
-3.089873353019356728e-03
6.849376484751701355e-03
5.022107437252998352e-02
3.824098780751228333e-02
-3.254948928952217102e-02
5.565595999360084534e-02
9.076703339815139771e-02
9.341718256473541260e-02
2.766266092658042908e-02
-4.485486075282096863e-02
-5.784665420651435852e-02
-9.749279916286468506e-02
2.382423914968967438e-02
-2.493803389370441437e-02
5.071899294853210449e-02
-6.016297265887260437e-03
2.944688685238361359e-02
-3.312860429286956787e-02
7.794948667287826538e-02
-5.391541123390197754e-02
-2.312074974179267883e-02
-3.344850242137908936e-02
2.654937095940113068e-02
7.467452436685562134e-03
-2.824010886251926422e-02
-4.485395178198814392e-02
-1.578914001584053040e-02
5.289730802178382874e-02
-1.188246440142393112e-02
9.150788933038711548e-02
-1.510516181588172913e-02
-4.098309203982353210e-02
6.505074352025985718e-02
-3.930945694446563721e-02
6.104907765984535217e-02
-1.623562537133693695e-02
-5.442548543214797974e-02
3.828323632478713989e-02
7.712811976671218872e-02
5.334121361374855042e-02
-6.537961214780807495e-02
-2.156376093626022339e-02
-6.527842581272125244e-02
-8.887431025505065918e-02
9.110732376575469971e-02
-5.508736521005630493e-02
9.306488931179046631e-02
5.316158290952444077e-03
7.612098008394241333e-02
6.893572211265563965e-02
-4.172852635383605957e-02
5.534458532929420471e-02
-5.237197503447532654e-02
-4.705063067376613617e-03
-1.133333798497915268e-02
3.167518228292465210e-02
-7.505927979946136475e-02
-4.914744570851325989e-02
4.465126991271972656e-02
5.223168805241584778e-02
-7.658599317073822021e-02
-6.255009770393371582e-02
1.679771021008491516e-02
5.304526537656784058e-02
6.841615587472915649e-02
-1.022049412131309509e-02
5.597216635942459106e-02
8.486991375684738159e-02
-8.072019554674625397e-03
-6.671029329299926758e-02
6.863047182559967041e-02
-8.867849595844745636e-03
2.467109076678752899e-02
-6.936886813491582870e-03
-3.371479362249374390e-02
2.070262096822261810e-02
2.794104255735874176e-02
-3.454168140888214111e-02
-6.261886656284332275e-02
3.909355774521827698e-02
-6.313763558864593506e-02
8.991786092519760132e-02
5.629417300224304199e-02
-5.175177473574876785e-03
-8.971593528985977173e-02
-4.493749234825372696e-03
-4.108002781867980957e-02
2.743398956954479218e-02
6.101997569203376770e-02
3.839500248432159424e-02
8.498073369264602661e-02
-9.044239670038223267e-02
1.469814777374267578e-02
5.447010975331068039e-03
-2.120046131312847137e-02
2.682136744260787964e-02
1.138007268309593201e-02
8.446905016899108887e-02
-7.960634678602218628e-02
7.101652771234512329e-02
9.221773594617843628e-02
-7.231841236352920532e-02
1.005387492477893829e-02
-5.009401589632034302e-02
-5.975739285349845886e-02
-4.221634566783905029e-02
3.041061013936996460e-02
7.914531975984573364e-02
-1.480058580636978149e-02
9.132946142926812172e-04
3.973539546132087708e-02
7.939642667770385742e-02
1.643617823719978333e-02
7.554834708571434021e-03
-9.278945624828338623e-03
7.847277075052261353e-02
6.180405616760253906e-02
4.025436565279960632e-02
1.144146267324686050e-02
-2.847868204116821289e-02
-5.193896219134330750e-02
-7.534944266080856323e-02
7.716050837188959122e-03
-5.382069572806358337e-02
5.363949760794639587e-02
-6.304113566875457764e-02
-7.565568387508392334e-02
3.398234024643898010e-02
-2.510911971330642700e-02
6.006860733032226562e-02
8.144520223140716553e-02
-5.018596351146697998e-02
-3.078801184892654419e-02
-5.533938854932785034e-02
-1.771275512874126434e-02
1.295670866966247559e-02
-8.278004825115203857e-02
1.192951761186122894e-02
-6.804326921701431274e-02
-3.270153328776359558e-02
-2.620083093643188477e-02
1.059728339314460754e-01
5.307364463806152344e-02
5.146820843219757080e-02
-2.160712331533432007e-02
-7.248321175575256348e-02
-2.435279078781604767e-02
3.793892264366149902e-02
3.531010076403617859e-02
-4.552887286990880966e-03
1.994992420077323914e-02
4.741316195577383041e-03
-3.029683046042919159e-02
7.042821496725082397e-02
-4.330547060817480087e-03
6.007897481322288513e-02
-7.293620705604553223e-02
-5.484503880143165588e-02
6.422092020511627197e-02
-6.065617874264717102e-02
5.346187576651573181e-02
2.719519659876823425e-02
5.609536543488502502e-02
-8.912569284439086914e-02
7.745595276355743408e-02
-2.607741020619869232e-02
-4.695436358451843262e-02
-7.871436327695846558e-02
2.643260732293128967e-02
5.628446117043495178e-02
-1.470517367124557495e-02
6.313175708055496216e-02
3.612775355577468872e-02
-6.038785725831985474e-02
-2.241869224235415459e-03
1.813353225588798523e-02
2.656276896595954895e-02
-1.437005959451198578e-02
-1.393815223127603531e-02
9.768988937139511108e-02
5.349689722061157227e-02
-4.259540699422359467e-03
5.153691768646240234e-02
-5.918118730187416077e-02
-7.432806491851806641e-02
-5.171911045908927917e-02
-2.648547757416963577e-03
-3.643533959984779358e-02
-1.254030596464872360e-02
8.060026913881301880e-02
1.943397335708141327e-02
5.367329344153404236e-03
-1.609401032328605652e-02
1.125856935977935791e-01
2.516110427677631378e-03
-5.360619351267814636e-02
2.876355871558189392e-02
-6.413810770027339458e-04
7.333641499280929565e-02
5.944040417671203613e-02
6.443310528993606567e-02
6.853918079286813736e-03
-3.273952752351760864e-02
-5.361396446824073792e-02
-3.980276733636856079e-02
-2.201338298618793488e-03
-2.127480879426002502e-02
6.564016919583082199e-03
7.066370546817779541e-02
-2.005635527893900871e-03
-2.094784379005432129e-02
1.061946153640747070e-02
4.376215860247612000e-02
-2.042024955153465271e-02
-8.361947536468505859e-02
1.909755170345306396e-02
4.256113991141319275e-02
-3.797587007284164429e-02
1.667486317455768585e-02
6.032631546258926392e-02
-2.090627513825893402e-02
-2.539325319230556488e-02
4.952602088451385498e-02
3.556508570909500122e-02
-5.809912085533142090e-02
8.575908094644546509e-02
-1.460455544292926788e-02
-5.651162564754486084e-02
-3.583860397338867188e-02
3.264024108648300171e-02
8.633945137262344360e-02
-5.996611434966325760e-03
2.976924926042556763e-02
6.690175738185644150e-03
5.078554898500442505e-02
2.713357657194137573e-02
-6.893841922283172607e-02
6.456062197685241699e-02
7.625034451484680176e-02
3.274859488010406494e-02
-4.134702309966087341e-02
1.597021147608757019e-02
-5.021134018898010254e-02
-2.045999839901924133e-02
5.098851770162582397e-02
3.609596565365791321e-02
2.318531833589076996e-02
-1.455440372228622437e-02
-4.913968965411186218e-02
-4.474630579352378845e-02
8.360226452350616455e-02
-7.381226122379302979e-02
4.902142286300659180e-02
3.559660911560058594e-02
-2.960874326527118683e-02
7.693388499319553375e-03
-1.367415022104978561e-02
-7.790493965148925781e-02
-6.111546605825424194e-02
1.203753948211669922e-01
6.059286743402481079e-02
-1.059397030621767044e-02
1.387818530201911926e-02
-6.856823712587356567e-02
5.219351872801780701e-02
7.599023170769214630e-03
-7.116813212633132935e-02
3.990854322910308838e-02
-2.662401460111141205e-02
-7.603797316551208496e-02
-3.043537493795156479e-03
-1.064637899398803711e-01
-4.883760586380958557e-03
6.631547957658767700e-02
-7.158014923334121704e-02
4.136387724429368973e-03
-2.245833538472652435e-02
5.918676033616065979e-02
7.621793192811310291e-04
5.905050784349441528e-02
-4.571458697319030762e-02
-3.443714231252670288e-02
2.453416213393211365e-02
-2.302833460271358490e-02
-5.554455891251564026e-02
5.766856484115123749e-03
-6.244151387363672256e-03
-1.126196142286062241e-02
2.685530669987201691e-02
4.927849024534225464e-02
-6.222872808575630188e-02
2.405489608645439148e-02
1.379636675119400024e-02
7.425759732723236084e-02
-9.673576802015304565e-02
4.806685447692871094e-02
9.492085874080657959e-02
2.710727788507938385e-02
-7.466510683298110962e-02
-9.551350772380828857e-02
-7.510907948017120361e-02
2.558370865881443024e-02
2.890614606440067291e-02
-5.017993226647377014e-02
-9.578865021467208862e-02
-7.116178423166275024e-02
1.463782228529453278e-02
3.433213382959365845e-02
3.463949263095855713e-02
4.221714287996292114e-02
2.351405657827854156e-02
-3.865766897797584534e-02
9.699366241693496704e-02
-9.471749514341354370e-02
-2.140317112207412720e-02
2.264700829982757568e-02
8.923573791980743408e-02
-4.679580032825469971e-02
1.287041045725345612e-02
-4.102167487144470215e-02
-4.953773692250251770e-02
-4.541783407330513000e-02
6.839485466480255127e-02
1.822934485971927643e-02
3.268884960561990738e-03
-7.616128027439117432e-02
-2.417557314038276672e-02
6.387720257043838501e-02
9.973580390214920044e-02
-1.130913943052291870e-02
6.764432787895202637e-02
7.391908764839172363e-02
-2.353815361857414246e-02
9.636973589658737183e-02
-4.603429511189460754e-02
-3.106174431741237640e-02
-5.584903806447982788e-02
-3.992702066898345947e-02
-8.781302720308303833e-02
-5.961082875728607178e-03
2.193974796682596207e-03
5.401497334241867065e-02
-7.152341771870851517e-03
3.390296176075935364e-02
-5.713659152388572693e-02
3.471952676773071289e-02
-8.216562122106552124e-02
-1.514196861535310745e-02
3.770986571907997131e-02
6.155011057853698730e-02
2.572574419900774956e-03
2.220769971609115601e-02
-7.704080641269683838e-02
-8.368205279111862183e-02
5.390876531600952148e-02
-3.753132000565528870e-02
4.532162100076675415e-02
2.689070068299770355e-02
-5.130304023623466492e-02
-1.050246879458427429e-03
4.393492639064788818e-02
-6.193015724420547485e-02
7.524822652339935303e-02
-1.510187797248363495e-02
5.579653754830360413e-02
-1.260455697774887085e-02
3.777992725372314453e-02
4.397726804018020630e-02
-1.209057122468948364e-02
6.567773409187793732e-03
6.416570860892534256e-03
-1.026274561882019043e-01
5.236220732331275940e-02
9.946978650987148285e-03
6.270141899585723877e-02
5.649708583950996399e-02
1.035533193498849869e-02
2.456071414053440094e-02
-3.899010270833969116e-02
6.445977836847305298e-02
-5.115796625614166260e-02
6.725884974002838135e-03
-6.533418595790863037e-02
-4.251176491379737854e-03
1.275818911381065845e-03
-7.130590081214904785e-02
2.507839165627956390e-02
-7.924716919660568237e-03
6.322547793388366699e-02
9.038851410150527954e-02
2.373849786818027496e-02
5.540233850479125977e-02
-2.764692530035972595e-02
-8.750982582569122314e-02
-6.334859132766723633e-02
-6.907524168491363525e-02
-7.974825799465179443e-02
-6.192849576473236084e-02
3.561560064554214478e-02
4.672321677207946777e-02
-7.343863695859909058e-02
-2.085902633552905172e-05
-5.800136551260948181e-02
-7.404620945453643799e-02
-7.227054238319396973e-02
-4.939162172377109528e-03
-9.757055342197418213e-02
-6.378974765539169312e-02
-8.599900454282760620e-02
5.870201438665390015e-02
1.142000313848257065e-02
-3.435649350285530090e-02
6.727348663844168186e-04
8.304061740636825562e-02
-3.712577745318412781e-02
9.281611442565917969e-02
1.761797070503234863e-02
-1.874905638396739960e-02
5.757070332765579224e-02
6.094603240489959717e-02
1.218505669385194778e-02
-7.945128530263900757e-02
4.184500500559806824e-02
-7.573298364877700806e-02
-7.684417814016342163e-02
1.481446553952991962e-03
-8.006992936134338379e-02
5.504510179162025452e-02
6.696731597185134888e-02
3.485340252518653870e-02
-7.413403689861297607e-02
-4.336341843008995056e-02
4.117598757147789001e-02
-1.905874721705913544e-02
6.851754337549209595e-02
7.572831120342016220e-03
3.304452821612358093e-02
-4.497986286878585815e-02
-5.072685703635215759e-02
-5.692294612526893616e-02
-8.096733689308166504e-02
3.228519856929779053e-02
-4.985726624727249146e-02
5.263484641909599304e-02
6.654782593250274658e-02
-8.004564046859741211e-02
-4.076488316059112549e-03
-9.143153578042984009e-02
6.925658881664276123e-02
1.641420833766460419e-02
-7.912700623273849487e-02
3.349922969937324524e-02
3.225874155759811401e-02
7.178654521703720093e-02
5.803726240992546082e-02
-9.869436733424663544e-03
1.154556218534708023e-02
1.698764786124229431e-02
-1.071268972009420395e-02
-6.154718808829784393e-03
-7.794279605150222778e-02
-2.446519210934638977e-04
3.150462731719017029e-02
6.918611377477645874e-02
-2.413718216121196747e-02
7.992909848690032959e-02
-2.622152864933013916e-02
-2.318729460239410400e-02
-8.261470496654510498e-02
-4.784170538187026978e-02
4.278068989515304565e-02
7.415577769279479980e-02
-9.895265102386474609e-02
8.182588219642639160e-02
-9.305482730269432068e-03
-9.384468197822570801e-02
-9.993438608944416046e-03
5.177509784698486328e-02
-1.733696460723876953e-02
4.779507592320442200e-02
-4.722725227475166321e-02
1.828091777861118317e-02
-9.668829292058944702e-02
8.919853717088699341e-03
-8.562032878398895264e-02
-9.014596790075302124e-02
3.901492804288864136e-02
3.841649368405342102e-02
-3.348462656140327454e-02
8.218292891979217529e-02
4.120967537164688110e-02
-1.049676630645990372e-02
8.477532118558883667e-02
8.893640339374542236e-02
-1.701046898961067200e-02
-4.912013933062553406e-02
-4.111198335886001587e-02
-6.229642778635025024e-03
5.790194869041442871e-02
7.402711198665201664e-04
-2.038404531776905060e-02
-1.747322268784046173e-02
3.631319105625152588e-02
-1.092591136693954468e-02
-8.255717344582080841e-03
1.358357351273298264e-02
1.541202515363693237e-02
-4.789286479353904724e-02
6.224537268280982971e-03
6.685110926628112793e-02
-7.286819815635681152e-02
2.082460746169090271e-02
-9.145588427782058716e-02
6.456040591001510620e-02
-1.990468986332416534e-02
-2.214908599853515625e-04
-4.234746471047401428e-02
-5.054292827844619751e-02
8.261867612600326538e-02
3.710472956299781799e-02
2.652087807655334473e-02
-1.975613087415695190e-02
1.896839961409568787e-02
2.590801008045673370e-02
-6.083053350448608398e-02
-6.111950427293777466e-02
-9.686743468046188354e-02
-3.849023208022117615e-02
6.502868980169296265e-02
7.271069288253784180e-02
-3.500308096408843994e-02
6.641899049282073975e-02
5.476971343159675598e-02
4.455204308032989502e-02
-3.874381259083747864e-02
-5.767073854804039001e-02
-8.332841098308563232e-02
-6.030395254492759705e-02
-4.040957614779472351e-02
-5.321565270423889160e-02
7.846452295780181885e-02
-1.036152988672256470e-01
-5.290571600198745728e-03
5.876700207591056824e-02
3.990987688302993774e-02
6.417726725339889526e-02
-9.325851500034332275e-02
3.821740299463272095e-02
-6.619510799646377563e-02
6.631652265787124634e-02
5.014405120164155960e-03
1.410860475152730942e-02
4.342656582593917847e-02
1.428848248906433582e-03
-6.439308077096939087e-02
-8.940036594867706299e-02
2.079456858336925507e-02
3.670452907681465149e-02
-5.291005969047546387e-02
-3.139042854309082031e-02
-2.333708666265010834e-02
-5.191628634929656982e-02
-3.281387314200401306e-02
7.156314700841903687e-02
6.723848730325698853e-02
6.013929098844528198e-02
2.754896692931652069e-02
4.745183512568473816e-02
1.205541007220745087e-02
-2.946918085217475891e-02
-1.559752877801656723e-02
8.306208997964859009e-02
9.595206007361412048e-03
5.450624227523803711e-02
-5.070031620562076569e-03
1.627455092966556549e-02
4.694023355841636658e-02
6.277558859437704086e-03
2.163366787135601044e-02
5.543537437915802002e-02
4.995838552713394165e-02
-6.358334422111511230e-02
-4.585345089435577393e-02
-1.032011490315198898e-02
6.386955827474594116e-02
6.445134431123733521e-02
5.797677859663963318e-02
6.757202744483947754e-02
-2.338837832212448120e-02
7.689512521028518677e-02
-3.817503526806831360e-02
-5.127304792404174805e-02
4.449480213224887848e-03
2.178044989705085754e-02
-8.550210297107696533e-02
-7.617344707250595093e-02
-2.088514156639575958e-02
-1.220034714788198471e-02
4.528747498989105225e-02
-5.709238722920417786e-02
2.848203759640455246e-03
-7.603762298822402954e-02
6.477986276149749756e-02
-1.543198246508836746e-02
-4.962262231856584549e-03
-6.620214879512786865e-02
-8.661589771509170532e-02
-1.467092894017696381e-02
5.556532740592956543e-02
6.695601623505353928e-03
-3.371063619852066040e-02
-4.528800398111343384e-02
-5.321924760937690735e-02
7.131090760231018066e-02
2.758575603365898132e-02
-3.300234442576766014e-03
2.292441017925739288e-02
5.539362505078315735e-02
3.150906786322593689e-02
9.331090375781059265e-03
5.209546908736228943e-02
6.201511621475219727e-02
-9.362510405480861664e-03
-3.601540997624397278e-02
7.166231051087379456e-03
-4.597377032041549683e-02
-4.356104880571365356e-02
7.692417502403259277e-02
3.220260888338088989e-02
3.873122856020927429e-02
8.785859495401382446e-02
3.997833281755447388e-02
-4.584994912147521973e-02
-1.159053761512041092e-02
5.872174352407455444e-02
-5.871621519327163696e-02
-6.471147388219833374e-02
7.700808346271514893e-02
-3.953396342694759369e-03
7.794676721096038818e-02
4.585499688982963562e-02
-1.147941779345273972e-02
7.902909070253372192e-02
2.006949111819267273e-02
2.474484033882617950e-02
-2.291655912995338440e-02
-6.676627672277390957e-04
8.982960134744644165e-02
-4.187992587685585022e-02
1.440403982996940613e-02
-2.491988986730575562e-02
-7.864944636821746826e-02
3.570745512843132019e-02
5.648188665509223938e-02
9.726514667272567749e-02
4.544106125831604004e-02
3.628263995051383972e-02
8.151395618915557861e-02
7.067955285310745239e-02
5.222756788134574890e-02
-3.317643702030181885e-02
2.465533278882503510e-02
6.872297078371047974e-02
8.025491610169410706e-03
2.496541477739810944e-02
8.216179907321929932e-03
-8.467919379472732544e-02
-4.678323492407798767e-02
-1.103789545595645905e-03
-5.463266745209693909e-02
9.308853745460510254e-02
4.429158568382263184e-02
-1.929896185174584389e-03
-2.254832722246646881e-02
-7.215092331171035767e-02
-4.091437906026840210e-02
8.066827803850173950e-02
-1.547305472195148468e-02
4.970224201679229736e-02
7.672113925218582153e-02
-8.213499188423156738e-02
4.098098725080490112e-02
-2.977369911968708038e-02
-5.471413955092430115e-02
7.162378751672804356e-04
4.479994252324104309e-02
9.499523788690567017e-03
8.330286480486392975e-03
8.571091294288635254e-02
4.356875270605087280e-02
-6.256934721022844315e-03
-4.671509936451911926e-02
2.776954881846904755e-02
-8.849254250526428223e-02
1.931759342551231384e-02
1.971651334315538406e-03
-6.818748265504837036e-02
-1.597392931580543518e-02
-4.916401952505111694e-02
5.210287868976593018e-02
5.590520799160003662e-02
6.600400060415267944e-02
2.494047768414020538e-02
2.965862862765789032e-02
3.127374127507209778e-02
9.655313566327095032e-03
4.539089277386665344e-02
5.210047587752342224e-02
4.054011031985282898e-02
-4.989919811487197876e-02
-5.240347236394882202e-02
-9.344343096017837524e-02
-1.547211874276399612e-02
2.875240147113800049e-02
6.888374686241149902e-02
4.780316352844238281e-02
1.656952500343322754e-02
-9.124194085597991943e-02
-1.399548724293708801e-02
-1.446684589609503746e-03
-4.621073976159095764e-02
-3.469453006982803345e-02
2.174488268792629242e-02
1.388619281351566315e-02
-6.752121448516845703e-02
-7.242533378303050995e-03
5.786817893385887146e-02
-9.934071451425552368e-03
4.784268513321876526e-02
-6.276603788137435913e-02
-3.298843652009963989e-02
-5.218020454049110413e-02
8.696199394762516022e-03
-4.281547665596008301e-02
-6.372269988059997559e-02
-4.678009077906608582e-02
2.477147430181503296e-02
-7.580395042896270752e-02
-2.453236095607280731e-02
6.601765006780624390e-02
8.100999891757965088e-02
-2.350623719394207001e-02
-2.070046029984951019e-03
3.481994569301605225e-02
9.636154025793075562e-02
5.674202740192413330e-02
2.366767823696136475e-02
3.131032362580299377e-02
-5.544942244887351990e-02
-7.615560293197631836e-02
7.429289072751998901e-02
9.126200526952743530e-02
1.814037747681140900e-02
-5.101524293422698975e-03
1.473641488701105118e-02
-5.053462460637092590e-02
1.571181043982505798e-02
-1.923144236207008362e-02
1.758558116853237152e-02
-7.347878813743591309e-02
-6.879466772079467773e-02
3.682748880237340927e-03
-3.725715726613998413e-02
2.885392401367425919e-03
-8.600530028343200684e-02
-8.235889673233032227e-02
-8.200836926698684692e-02
-6.624367088079452515e-02
-1.498960889875888824e-02
4.224013909697532654e-02
-4.467479884624481201e-02
6.045198068022727966e-02
5.374823696911334991e-03
-5.077227577567100525e-02
3.080599755048751831e-02
-8.435715734958648682e-02
-2.768718078732490540e-02
5.882114917039871216e-02
5.091243237257003784e-02
4.526932910084724426e-02
6.764191389083862305e-02
-4.078816622495651245e-02
-5.676638334989547729e-02
5.086987465620040894e-02
-7.422275096178054810e-02
8.494949340820312500e-02
2.807882986962795258e-02
4.322777315974235535e-02
3.710843622684478760e-02
3.927900642156600952e-02
-9.008546918630599976e-02
-1.509181130677461624e-02
-2.680193632841110229e-02
-8.717098832130432129e-02
5.764741450548171997e-02
3.509016335010528564e-02
5.519957095384597778e-02
-6.576555222272872925e-02
4.536631517112255096e-03
-8.563649654388427734e-02
5.214684456586837769e-02
5.785804986953735352e-02
-2.564747072756290436e-02
-5.850033089518547058e-02
-4.500863328576087952e-02
5.094255320727825165e-03
-2.742274664342403412e-03
-1.128376275300979614e-02
-2.639895770698785782e-03
3.903866186738014221e-02
7.250095158815383911e-02
3.288330510258674622e-02
2.960296720266342163e-02
-3.506400063633918762e-02
-3.245311602950096130e-02
-5.075822025537490845e-02
3.689426183700561523e-02
-5.481482669711112976e-02
-8.179786801338195801e-02
-3.173635050188750029e-04
3.084474615752696991e-02
-5.216554738581180573e-03
2.041309699416160583e-02
8.050383999943733215e-03
5.376017466187477112e-02
2.537045814096927643e-02
5.400597304105758667e-02
-1.265777181833982468e-02
5.815883353352546692e-02
2.664924040436744690e-02
2.472033351659774780e-02
4.451758414506912231e-02
-4.158878698945045471e-02
1.146277599036693573e-02
-1.301902229897677898e-03
6.958769261837005615e-02
-6.390400230884552002e-02
-1.879133284091949463e-02
-3.561660274863243103e-02
-3.946471586823463440e-02
-7.690829783678054810e-02
5.397384241223335266e-02
1.304010860621929169e-02
-5.730901286005973816e-02
4.043276607990264893e-02
-4.561118409037590027e-02
2.718267217278480530e-02
-8.882819116115570068e-02
-5.376993492245674133e-02
9.212462231516838074e-03
-3.249146416783332825e-02
-6.714286655187606812e-02
-1.674921251833438873e-02
5.116179585456848145e-02
-5.367943271994590759e-02
-2.848615124821662903e-02
9.087483584880828857e-02
-2.599038928747177124e-02
-8.641325682401657104e-02
-1.132144406437873840e-02
-5.221015587449073792e-02
-3.324085474014282227e-02
-8.439294248819351196e-02
-8.564458042383193970e-02
-1.417976152151823044e-02
-4.006355255842208862e-02
-8.201020210981369019e-02
-1.352453231811523438e-02
-1.904319599270820618e-02
2.373888855800032616e-03
2.152306772768497467e-02
5.789315700531005859e-02
3.987383469939231873e-02
2.346783876419067383e-02
8.426538109779357910e-02
2.995170094072818756e-02
-7.403087615966796875e-02
-3.906992450356483459e-02
-4.935145378112792969e-03
-3.625705093145370483e-02
-4.692412912845611572e-02
-6.770692765712738037e-03
-6.524804234504699707e-02
-2.283063344657421112e-02
-6.572497636079788208e-02
-1.449652574956417084e-02
5.169929936528205872e-02
-7.053533941507339478e-02
-7.806367427110671997e-02
6.282425671815872192e-02
4.997540265321731567e-03
-7.704612612724304199e-02
7.390762865543365479e-02
7.809866964817047119e-02
-8.022962510585784912e-02
-5.942198261618614197e-02
5.666997656226158142e-02
-4.164756834506988525e-02
7.570587843656539917e-02
-3.304852172732353210e-02
1.069000642746686935e-02
-2.612079121172428131e-02
-2.433208748698234558e-02
-4.231451824307441711e-02
6.725557893514633179e-02
-4.744846746325492859e-02
4.286230728030204773e-02
7.904595881700515747e-02
-4.943306371569633484e-02
6.147502362728118896e-02
-5.317788571119308472e-03
3.247836232185363770e-02
6.115477904677391052e-02
-2.746685594320297241e-02
-3.108803182840347290e-02
-8.548258244991302490e-02
9.694737941026687622e-02
-2.114826440811157227e-02
-5.726293474435806274e-02
2.745950408279895782e-02
5.225535854697227478e-02
-3.531324863433837891e-02
9.683352708816528320e-02
7.288713753223419189e-02
3.968218807131052017e-03
5.678455531597137451e-02
8.853036910295486450e-02
-4.820457845926284790e-02
-1.565459556877613068e-02
