9.047103673219680786e-02
1.355341821908950806e-02
-4.196480661630630493e-02
-1.922444498632103205e-04
4.090349376201629639e-02
3.411047905683517456e-02
9.463165700435638428e-02
3.186991810798645020e-02
-8.040360361337661743e-02
-5.011858046054840088e-02
-1.676678285002708435e-02
-3.182467073202133179e-02
-5.299681425094604492e-02
-1.334615750238299370e-03
-5.045687407255172729e-02
-5.410140380263328552e-03
7.193895429372787476e-02
4.790902882814407349e-02
5.081326514482498169e-02
3.410405246540904045e-03
-3.955780714750289917e-02
-7.634460926055908203e-02
-4.283349588513374329e-02
1.266478002071380615e-02
4.211503639817237854e-02
2.540818229317665100e-02
6.126572564244270325e-02
8.415563404560089111e-02
6.343534216284751892e-03
-3.257162123918533325e-02
-4.095008596777915955e-02
2.731994539499282837e-02
-5.084522068500518799e-02
-4.127030819654464722e-02
-1.386563479900360107e-02
-5.008031614124774933e-03
2.668892219662666321e-02
-1.504208799451589584e-02
2.060271101072430611e-03
-1.503176055848598480e-02
1.657553389668464661e-02
5.080418288707733154e-02
-5.314482748508453369e-02
-5.697838589549064636e-02
-1.005617752671241760e-01
-5.553967319428920746e-03
-3.607130423188209534e-02
-5.028985440731048584e-03
1.440027728676795959e-02
5.725701525807380676e-02
-4.435576125979423523e-02
2.041157707571983337e-02
-1.039535924792289734e-01
2.634492702782154083e-02
3.857894986867904663e-02
1.161697879433631897e-02
-8.873796090483665466e-03
5.738938227295875549e-02
6.591770052909851074e-02
4.099608212709426880e-02
3.506410494446754456e-02
-2.312990836799144745e-02
-2.516329661011695862e-02
1.782319694757461548e-02
9.109770879149436951e-03
8.350349031388759613e-03
-6.630125641822814941e-02
-3.334451466798782349e-02
6.139877811074256897e-02
-3.913532942533493042e-03
8.391452580690383911e-02
-2.240465208888053894e-02
-1.976223848760128021e-02
-5.208091810345649719e-02
6.403822451829910278e-03
-3.575537353754043579e-02
-7.505068928003311157e-02
3.855454176664352417e-02
3.572206571698188782e-02
-6.121163815259933472e-02
5.275859683752059937e-02
3.007559338584542274e-03
-4.224412143230438232e-02
3.978382796049118042e-03
3.167198970913887024e-02
-8.300156146287918091e-02
-8.155074715614318848e-02
-6.366036087274551392e-02
7.133115082979202271e-02
7.116290181875228882e-02
-1.599935069680213928e-02
1.515118498355150223e-02
3.559488570317625999e-03
1.845615170896053314e-02
4.890221636742353439e-03
-1.834342628717422485e-02
-3.503809496760368347e-02
7.251586765050888062e-02
-3.907534107565879822e-02
-6.537511199712753296e-02
-1.108113024383783340e-02
2.843486890196800232e-02
2.365264855325222015e-02
-1.386651769280433655e-03
-3.853717446327209473e-02
3.458242863416671753e-02
5.302469059824943542e-02
9.210069663822650909e-03
-4.373096674680709839e-02
-3.238602355122566223e-02
6.331027019768953323e-03
6.161052361130714417e-02
2.879464440047740936e-02
4.533483088016510010e-02
-3.625807166099548340e-02
2.468388713896274567e-02
2.100513316690921783e-02
-3.468202427029609680e-02
1.966892927885055542e-02
-4.782973229885101318e-02
8.739575743675231934e-03
-1.352118700742721558e-02
6.432157754898071289e-02
2.005530986934900284e-03
7.818786427378654480e-03
2.541217021644115448e-03
2.848314680159091949e-02
7.208903878927230835e-02
4.323289170861244202e-02
6.607670336961746216e-02
5.766820162534713745e-03
3.792723640799522400e-02
4.200079943984746933e-03
5.590102449059486389e-02
-6.396836787462234497e-02
-4.200377687811851501e-02
4.654322564601898193e-02
-6.086262315511703491e-02
2.565604168921709061e-03
-3.799328580498695374e-02
-2.742282673716545105e-02
-4.721182212233543396e-02
2.499197050929069519e-02
1.784025877714157104e-02
-1.314040273427963257e-02
-1.017254684120416641e-02
3.976871445775032043e-02
-2.776681818068027496e-02
-1.142229977995157242e-02
-2.964254282414913177e-02
5.547588691115379333e-02
2.961125038564205170e-02
-4.305984079837799072e-02
4.303598031401634216e-02
7.429226487874984741e-02
-3.758801519870758057e-02
-4.770520702004432678e-02
4.042242839932441711e-02
2.028272114694118500e-02
2.722751349210739136e-02
4.632930830121040344e-02
-6.728044897317886353e-02
-3.331002220511436462e-02
9.681924129836261272e-04
-3.714509680867195129e-02
-6.404206156730651855e-02
3.419008851051330566e-02
1.792234927415847778e-02
-6.816895212978124619e-03
-3.002686984837055206e-02
-2.955127134919166565e-02
-1.201241090893745422e-02
-4.563735052943229675e-02
-2.642704639583826065e-03
2.030341140925884247e-02
5.384909734129905701e-02
3.428942710161209106e-02
6.718432903289794922e-02
-3.572287410497665405e-02
-1.308174338191747665e-02
1.149312872439622879e-02
-5.914227222092449665e-04
4.142157360911369324e-02
3.079876862466335297e-02
-5.285917595028877258e-02
-1.290370523929595947e-02
5.117036402225494385e-02
3.356916457414627075e-02
2.452609129250049591e-02
6.064710207283496857e-03
-5.774003267288208008e-02
-1.860004104673862457e-02
-7.029908150434494019e-02
4.247958958148956299e-02
-1.851768232882022858e-02
-3.447952866554260254e-02
-5.135145410895347595e-02
5.705634504556655884e-02
-3.288118541240692139e-02
9.490176104009151459e-03
5.251812934875488281e-02
4.268622770905494690e-02
1.705207861959934235e-02
-1.675528474152088165e-02
6.509917229413986206e-02
6.598661839962005615e-02
-4.345167055726051331e-02
-1.080146618187427521e-02
-2.794294431805610657e-02
-4.493303969502449036e-02
-3.048534039407968521e-03
3.284526616334915161e-02
3.218801692128181458e-02
6.821907311677932739e-02
-5.206657107919454575e-03
-9.360160678625106812e-03
-2.601718902587890625e-02
-4.377614706754684448e-03
-3.192008286714553833e-02
-1.029451843351125717e-02
2.747890725731849670e-02
2.559817209839820862e-02
-3.380829840898513794e-02
-7.532569766044616699e-02
-3.926140815019607544e-02
3.050076030194759369e-02
6.970435380935668945e-02
5.996355041861534119e-02
-3.176025301218032837e-02
-2.701241709291934967e-02
-1.904227212071418762e-02
3.575789928436279297e-02
2.812344953417778015e-02
2.480440586805343628e-02
-2.109527355059981346e-03
-3.002111986279487610e-02
1.452894322574138641e-02
1.694674603641033173e-02
1.274774782359600067e-02
-3.976839594542980194e-03
-1.229985523968935013e-02
1.216788962483406067e-02
-1.567950472235679626e-02
7.753828167915344238e-02
1.321457675658166409e-03
-6.585814058780670166e-02
4.156916216015815735e-02
2.986050397157669067e-02
-4.231290519237518311e-02
3.007908537983894348e-02
3.435158578213304281e-05
2.885111980140209198e-02
-1.350614055991172791e-02
3.500835970044136047e-02
-2.516886219382286072e-02
-4.519172385334968567e-02
-3.337959572672843933e-02
3.718735277652740479e-02
7.636807113885879517e-02
6.347177550196647644e-03
-2.544830739498138428e-02
3.410159051418304443e-02
-2.784539572894573212e-02
1.650723628699779510e-02
1.895698369480669498e-03
-4.907165095210075378e-02
1.173632368445396423e-01
7.179510779678821564e-03
3.170352801680564880e-02
-6.421813368797302246e-02
-4.167522862553596497e-02
1.313828770071268082e-02
7.652455940842628479e-03
9.642422199249267578e-03
-4.295345861464738846e-03
-8.250647224485874176e-03
-1.391586754471063614e-02
3.477478027343750000e-02
-2.957573160529136658e-03
5.148864537477493286e-02
-2.713607437908649445e-02
-4.589542001485824585e-02
-5.499304085969924927e-02
-4.305237159132957458e-02
-2.813394553959369659e-02
-4.554746299982070923e-02
2.280054055154323578e-02
2.900179289281368256e-02
7.450770353898406029e-04
-3.708048909902572632e-02
-3.698303923010826111e-02
-4.084877204149961472e-03
-4.406933486461639404e-02
7.184060662984848022e-02
-1.077251043170690536e-02
1.009178459644317627e-01
2.740815095603466034e-02
-2.130830101668834686e-02
-5.021760612726211548e-02
3.840893879532814026e-02
8.649384975433349609e-02
5.658484622836112976e-02
-4.364385455846786499e-02
-1.156337372958660126e-02
-2.412276156246662140e-02
-1.637675240635871887e-02
5.337914451956748962e-02
-2.238461375236511230e-02
7.984184473752975464e-02
5.702817440032958984e-02
2.345333620905876160e-02
6.890515238046646118e-02
-8.694355934858322144e-02
-2.643361873924732208e-02
-4.239106178283691406e-02
-2.950538694858551025e-02
1.362227741628885269e-02
2.062002010643482208e-02
6.220179423689842224e-02
-4.005260765552520752e-02
-4.039939492940902710e-03
-5.360807478427886963e-02
1.805938035249710083e-02
4.682328086346387863e-03
-2.597434818744659424e-02
6.780465599149465561e-03
-1.682285033166408539e-02
2.808530069887638092e-02
-8.902110159397125244e-02
-5.579587072134017944e-03
5.146848782896995544e-02
-5.367171019315719604e-02
-2.327625267207622528e-02
2.398191764950752258e-02
2.256889641284942627e-02
-3.603725880384445190e-02
5.231712386012077332e-02
5.322030279785394669e-03
-3.345423191785812378e-02
1.133684418164193630e-03
-5.305687896907329559e-03
-2.718104049563407898e-02
-1.713797450065612793e-02
-1.758276112377643585e-02
8.464813232421875000e-02
-4.109778255224227905e-02
3.391432389616966248e-02
-2.673040144145488739e-02
-1.760127954185009003e-02
1.294438913464546204e-02
1.560843642801046371e-02
-3.189591318368911743e-02
-3.310718759894371033e-02
-4.525073617696762085e-02
-2.187458984553813934e-02
3.942279890179634094e-02
3.716087667271494865e-03
5.620902404189109802e-02
2.012093178927898407e-02
-6.072601769119501114e-03
7.254476845264434814e-02
2.311967080458998680e-03
-3.110690787434577942e-02
-1.244018133729696274e-02
-2.026933804154396057e-02
1.148648094385862350e-02
2.682533673942089081e-02
3.321103751659393311e-02
-3.901734948158264160e-03
8.181197196245193481e-02
2.600958570837974548e-03
1.075928658246994019e-02
-9.319431334733963013e-02
4.580231383442878723e-03
8.814536035060882568e-03
-3.625959157943725586e-02
5.702979862689971924e-02
2.949307486414909363e-02
-2.906513959169387817e-02
3.091776557266712189e-02
2.284347638487815857e-02
1.767292618751525879e-02
-6.388337910175323486e-02
5.023126024752855301e-03
8.964933454990386963e-02
-1.542016211897134781e-02
8.338273502886295319e-03
1.184127572923898697e-02
3.841981291770935059e-02
-5.436510965228080750e-02
5.300258472561836243e-02
-5.348679050803184509e-02
-1.719877123832702637e-02
2.133109979331493378e-02
-7.371670566499233246e-03
2.266999520361423492e-02
2.069012634456157684e-02
-4.889558255672454834e-02
8.416280150413513184e-03
2.962012402713298798e-02
9.336249530315399170e-02
5.756383389234542847e-02
-5.061563104391098022e-02
1.193119119852781296e-02
-4.192510247230529785e-02
2.525204792618751526e-03
-1.108312327414751053e-02
-2.508251182734966278e-02
2.322988957166671753e-02
-1.923686265945434570e-02
-4.415150359272956848e-02
-2.010076120495796204e-02
4.344540648162364960e-03
4.210673272609710693e-02
-2.569646574556827545e-02
-4.271559417247772217e-02
-8.241904526948928833e-02
-2.905841916799545288e-02
4.213885962963104248e-02
-1.042884401977062225e-02
4.876303300261497498e-02
5.626952275633811951e-02
3.039933554828166962e-02
1.787491142749786377e-02
-1.815318688750267029e-02
3.513497486710548401e-02
2.575015835464000702e-02
1.009104656986892223e-03
-6.096256524324417114e-02
1.401774585247039795e-02
-6.386136263608932495e-02
-6.579629145562648773e-03
-3.866189159452915192e-03
1.106471493840217590e-01
6.796740926802158356e-03
-7.568281143903732300e-02
-6.099084392189979553e-02
-5.696393176913261414e-02
-6.225269753485918045e-03
2.902472764253616333e-02
-5.579893290996551514e-02
-1.635738275945186615e-02
-4.814732074737548828e-02
7.850863784551620483e-02
-4.075201228260993958e-02
-3.310531750321388245e-02
1.214291807264089584e-02
-4.339102655649185181e-02
-3.136070445179939270e-02
-7.230523042380809784e-03
9.132608771324157715e-02
6.019126251339912415e-02
-6.166649237275123596e-02
-3.996321186423301697e-02
-5.627631396055221558e-02
-7.758238911628723145e-02
-6.792984902858734131e-02
7.592417299747467041e-02
-1.012558396905660629e-02
5.436653643846511841e-02
1.273760688491165638e-03
2.060649730265140533e-02
1.926177181303501129e-02
-5.002301931381225586e-02
-2.735923603177070618e-02
7.908770442008972168e-02
1.197148021310567856e-02
4.344851896166801453e-02
-1.912720501422882080e-02
-1.630505546927452087e-02
3.224720945581793785e-03
3.826950863003730774e-02
-2.385888062417507172e-02
-4.898781329393386841e-02
-6.214831396937370300e-02
2.814986556768417358e-02
-3.213039785623550415e-02
-7.546214014291763306e-02
2.335709519684314728e-03
-7.617958635091781616e-02
-2.375620976090431213e-02
-2.114342711865901947e-02
-6.755395233631134033e-02
-2.331119030714035034e-02
8.325561881065368652e-03
3.222185000777244568e-02
-4.928239434957504272e-02
-1.781904324889183044e-02
-3.525973111391067505e-02
-3.056346066296100616e-02
-5.990938749164342880e-03
-1.801754161715507507e-02
6.870719045400619507e-02
-3.249612450599670410e-02
-4.843028262257575989e-02
5.904107168316841125e-02
-4.101340100169181824e-02
-5.486220121383666992e-02
5.465564131736755371e-02
-7.761410437524318695e-03
6.539125740528106689e-02
1.237468235194683075e-02
-1.318149361759424210e-02
2.596755512058734894e-02
-6.255157291889190674e-02
-1.777773350477218628e-02
9.665069170296192169e-03
1.848153769969940186e-02
2.956745587289333344e-02
1.827848702669143677e-02
5.708565562963485718e-02
1.194335799664258957e-02
-7.263805717229843140e-02
-4.180791601538658142e-02
-1.422602962702512741e-02
-7.684234333282802254e-06
1.377287087962031364e-03
-1.389559637755155563e-02
-6.068424507975578308e-02
-2.027127426117658615e-03
3.810988739132881165e-02
-3.261169046163558960e-02
1.811554655432701111e-02
-1.332674175500869751e-02
5.432425811886787415e-02
2.561158500611782074e-02
-1.262523699551820755e-02
2.414151094853878021e-02
-1.904736272990703583e-02
2.572856098413467407e-02
-3.032383136451244354e-02
-4.586973413825035095e-02
-4.791259765625000000e-02
3.394553810358047485e-02
6.805457174777984619e-02
3.781537339091300964e-02
3.871180862188339233e-02
-3.821159154176712036e-02
3.151546465232968330e-03
4.552899301052093506e-02
-1.074261777102947235e-02
4.759137332439422607e-02
1.457812823355197906e-02
-2.844068221747875214e-03
6.721986085176467896e-02
-2.677232725545763969e-03
2.036512643098831177e-02
1.953606307506561279e-02
-4.468585550785064697e-02
2.892300859093666077e-02
1.730515062808990479e-02
1.736913062632083893e-02
-2.266675047576427460e-02
-9.826626628637313843e-03
4.924926161766052246e-02
-3.655774891376495361e-02
1.365039497613906860e-02
4.695178195834159851e-02
-2.093245834112167358e-02
1.084267813712358475e-02
-3.410264477133750916e-02
7.191469892859458923e-03
-2.788424864411354065e-02
2.809169515967369080e-02
-3.330619633197784424e-02
8.332300931215286255e-03
-4.568875208497047424e-02
4.990725778043270111e-03
-1.275110337883234024e-02
3.932824358344078064e-02
-4.844970628619194031e-02
1.168249454349279404e-02
4.301848635077476501e-02
1.312249805778264999e-02
4.639850929379463196e-02
-7.266396284103393555e-02
3.982254490256309509e-02
4.142598435282707214e-02
2.175013162195682526e-02
-2.429743669927120209e-02
1.979869231581687927e-02
7.963595911860466003e-03
-3.700443729758262634e-02
6.218161806464195251e-02
4.208196420222520828e-03
-6.561964005231857300e-02
9.827722795307636261e-03
3.455634927377104759e-03
-3.779072314500808716e-02
-2.695449627935886383e-02
-1.195741537958383560e-02
1.848895102739334106e-02
6.073844153434038162e-03
-4.225393012166023254e-02
-1.305766869336366653e-03
-5.102180317044258118e-02
-1.613778993487358093e-02
-1.663435809314250946e-02
-5.674527212977409363e-02
-4.290292039513587952e-03
-1.919872313737869263e-02
-1.103041879832744598e-02
3.037436120212078094e-02
5.867258831858634949e-02
-1.999101415276527405e-02
1.663825823925435543e-03
-4.714154824614524841e-02
6.810089689679443836e-04
1.430769916623830795e-02
-2.865015342831611633e-02
-1.451487652957439423e-02
1.688902452588081360e-02
-7.442954462021589279e-03
-4.122295603156089783e-02
5.749256536364555359e-02
-2.616892196238040924e-02
6.656382977962493896e-02
3.872639499604701996e-03
-2.386675961315631866e-02
-1.399621833115816116e-02
-2.444435469806194305e-02
-1.276554656215012074e-03
2.645035088062286377e-02
3.018541261553764343e-02
-1.709528453648090363e-02
2.411838062107563019e-02
-4.417651891708374023e-02
7.654266804456710815e-02
-3.718873485922813416e-02
-4.768712818622589111e-02
2.090625092387199402e-02
-1.937403343617916107e-02
3.327814862132072449e-02
-1.609490998089313507e-02
-5.347834900021553040e-02
-1.272843778133392334e-02
-1.109740324318408966e-02
1.918096654117107391e-02
4.168213158845901489e-02
1.440366730093955994e-02
7.521062344312667847e-02
4.468321055173873901e-02
2.878737263381481171e-02
-6.276649236679077148e-02
-8.829376660287380219e-03
-3.177894651889801025e-02
2.018908224999904633e-02
-3.394159674644470215e-02
8.700876496732234955e-03
-1.928702369332313538e-02
2.365465462207794189e-02
3.095538914203643799e-02
2.141474001109600067e-02
-1.628360338509082794e-02
-5.477130413055419922e-02
1.287074573338031769e-02
-5.334461480379104614e-02
2.232255414128303528e-02
5.987874045968055725e-02
-6.845523416996002197e-02
-1.998237567022442818e-03
-6.133009865880012512e-02
1.101999310776591301e-03
3.903419151902198792e-02
4.356748983263969421e-02
1.991514675319194794e-02
-8.135514706373214722e-02
1.321908924728631973e-02
3.528187796473503113e-02
-2.238359116017818451e-02
2.196402288973331451e-02
5.077023059129714966e-02
-5.350993946194648743e-02
3.383704647421836853e-02
3.520648926496505737e-02
-4.850584641098976135e-02
-4.753839224576950073e-02
-1.932397857308387756e-02
6.585068255662918091e-02
2.707674168050289154e-02
5.166625231504440308e-02
-1.012476719915866852e-02
3.521714732050895691e-02
5.482063442468643188e-02
-5.274424701929092407e-02
-1.830317266285419464e-02
-2.794423326849937439e-02
5.432733148336410522e-02
-4.282571747899055481e-02
5.371610820293426514e-02
9.063607081770896912e-03
-4.432652518153190613e-02
-8.719783276319503784e-02
-3.321445360779762268e-02
3.893618658185005188e-02
7.236500084400177002e-02
-2.628306299448013306e-02
-3.434451296925544739e-02
-9.775514714419841766e-03
3.097020275890827179e-02
-3.093051910400390625e-02
-3.320351243019104004e-02
2.554694749414920807e-02
1.839892007410526276e-02
-6.237499415874481201e-02
-1.843036711215972900e-02
1.061103194952011108e-01
3.988630697131156921e-02
8.374720811843872070e-02
-5.064788460731506348e-02
-5.548946931958198547e-02
2.600798942148685455e-02
-6.855896860361099243e-02
4.991619288921356201e-02
1.416873186826705933e-02
-5.040931701660156250e-02
4.437034577131271362e-02
-1.955545507371425629e-02
-1.648077182471752167e-02
-7.077635824680328369e-02
-4.858114197850227356e-02
-5.855920724570751190e-03
-4.948235303163528442e-02
2.532737515866756439e-02
-2.155073918402194977e-02
2.368658781051635742e-02
-1.721184002235531807e-03
4.654529318213462830e-02
3.371127694845199585e-02
-3.637967631220817566e-02
-3.504854440689086914e-02
-4.534883052110671997e-02
1.874411478638648987e-02
-2.930333837866783142e-02
-4.489562287926673889e-02
-8.535607717931270599e-03
7.192640006542205811e-02
-1.358050387352705002e-02
1.279361080378293991e-02
-1.688241725787520409e-03
-3.805579990148544312e-02
5.712458398193120956e-03
-3.402340784668922424e-02
3.254880756139755249e-02
6.270824931561946869e-03
1.164503302425146103e-02
-5.645649880170822144e-02
6.716290116310119629e-02
4.532444104552268982e-02
-4.470909386873245239e-02
-1.831968501210212708e-02
-4.327945411205291748e-02
-4.320148751139640808e-02
-6.307313591241836548e-02
1.054068952798843384e-01
-2.878162451088428497e-02
2.167585538700222969e-03
2.933635376393795013e-02
4.048053175210952759e-02
-4.837143351323902607e-04
-1.999124698340892792e-02
-4.823482781648635864e-02
-4.542363435029983521e-02
-7.150279823690652847e-03
4.058091342449188232e-02
1.674438454210758209e-02
-5.415640398859977722e-02
1.697642356157302856e-02
-9.116535075008869171e-03
2.265476621687412262e-02
7.021532393991947174e-03
-2.935277856886386871e-02
-5.932882055640220642e-02
2.592548355460166931e-02
-8.435032330453395844e-03
-4.363251850008964539e-02
-1.964413002133369446e-02
1.988986507058143616e-03
8.599533140659332275e-02
-2.262625098228454590e-02
5.279896408319473267e-02
1.332140900194644928e-02
-7.903289049863815308e-02
1.021231431514024734e-02
-7.711427751928567886e-03
-1.899150758981704712e-02
-5.916994437575340271e-02
-7.347897160798311234e-03
-3.705264255404472351e-02
3.928003087639808655e-02
3.691026568412780762e-02
7.017820142209529877e-03
-4.470987617969512939e-02
-3.534378856420516968e-02
-4.077585414052009583e-02
-5.197850521653890610e-03
-3.889902308583259583e-02
-7.791562378406524658e-02
-6.046577356755733490e-03
-7.745976001024246216e-02
4.831214994192123413e-02
-6.612556986510753632e-03
-1.789089478552341461e-02
-6.407621502876281738e-02
-1.515386067330837250e-02
5.001647397875785828e-02
-9.386572055518627167e-03
2.480715513229370117e-02
1.553111523389816284e-02
4.432318359613418579e-02
5.065778736025094986e-03
-1.859868504106998444e-02
1.237777248024940491e-01
-1.608334295451641083e-02
1.515103690326213837e-02
-3.743155300617218018e-02
1.566630974411964417e-02
-5.548781156539916992e-02
6.928633898496627808e-02
3.044734708964824677e-02
-1.292846258729696274e-02
-3.197367116808891296e-02
8.269386738538742065e-02
2.451851777732372284e-02
-7.432747632265090942e-02
-5.115528032183647156e-02
6.320470478385686874e-03
-2.889897441491484642e-03
4.356278851628303528e-02
3.032632730901241302e-02
-1.177064143121242523e-02
-3.648875653743743896e-02
2.208267152309417725e-02
3.764864057302474976e-02
5.008390638977289200e-03
2.543842419981956482e-02
-4.713473841547966003e-02
2.637135237455368042e-02
-4.918453469872474670e-02
1.251645479351282120e-02
9.888438507914543152e-03
4.960161074995994568e-02
1.528977137058973312e-02
4.819749668240547180e-02
-6.020673550665378571e-03
5.622253753244876862e-03
9.489732794463634491e-03
3.981704823672771454e-03
2.002344094216823578e-02
5.887258052825927734e-02
-6.421887129545211792e-02
-1.660171523690223694e-02
2.417760901153087616e-02
-2.701769117265939713e-03
9.524802118539810181e-02
2.523525245487689972e-02
-1.261340733617544174e-02
-5.512671195901930332e-04
5.024685338139533997e-02
-5.510499328374862671e-02
-3.808590397238731384e-02
-6.686712149530649185e-03
9.305269457399845123e-03
-1.643722131848335266e-02
6.882606446743011475e-02
5.099833756685256958e-02
6.346314400434494019e-02
3.380300104618072510e-02
2.136469073593616486e-02
-5.532224848866462708e-02
-2.969678677618503571e-02
2.741133235394954681e-02
1.938151195645332336e-02
-4.256438091397285461e-02
-1.644230633974075317e-02
2.006347849965095520e-02
-2.501017414033412933e-02
5.604645982384681702e-02
-2.264584647491574287e-03
-1.976660639047622681e-02
-7.749165408313274384e-03
-7.656831294298171997e-02
7.638229429721832275e-02
-4.703797027468681335e-02
-1.879330165684223175e-02
2.257908880710601807e-02
-4.215113818645477295e-03
-3.472209442406892776e-03
-1.124345883727073669e-02
1.639657467603683472e-02
-9.049296379089355469e-03
-1.336266659200191498e-02
8.401109278202056885e-02
3.292955085635185242e-02
7.872749119997024536e-02
-5.090077966451644897e-02
-1.975449174642562866e-02
-6.497208029031753540e-02
3.437632694840431213e-03
2.441388927400112152e-02
-4.233917593955993652e-02
1.204902306199073792e-02
2.671885862946510315e-02
4.211994260549545288e-02
-3.143247589468955994e-02
8.030888624489307404e-03
-4.621717613190412521e-03
-4.910413920879364014e-02
5.291372910141944885e-02
-6.580954790115356445e-02
-3.678984567523002625e-02
5.885933339595794678e-02
-5.710401013493537903e-02
1.565190963447093964e-02
4.676486551761627197e-02
-6.776389479637145996e-02
-4.492940753698348999e-02
6.767294555902481079e-02
3.786429390311241150e-02
6.062753871083259583e-02
-1.269009709358215332e-02
-3.955857455730438232e-02
6.016957387328147888e-02
1.662380993366241455e-02
-2.753705158829689026e-02
1.757177524268627167e-02
-4.197271540760993958e-02
-4.748821258544921875e-02
1.661268249154090881e-02
-2.725408039987087250e-02
8.152722567319869995e-02
1.464801840484142303e-02
-2.696616575121879578e-02
4.268288612365722656e-02
-1.250437181442975998e-02
7.536687422543764114e-03
-5.709680169820785522e-02
-4.115259274840354919e-02
1.170027162879705429e-02
-1.741332001984119415e-02
1.679795049130916595e-02
6.120113655924797058e-02
-1.636847853660583496e-02
-3.127355128526687622e-02
8.524457365274429321e-02
-3.662827983498573303e-02
-1.025914307683706284e-02
5.636988207697868347e-02
2.735376544296741486e-02
4.828349873423576355e-02
9.594622068107128143e-03
-1.910939067602157593e-02
-1.873775757849216461e-02
-2.826399356126785278e-02
2.664325758814811707e-02
1.834489870816469193e-03
-7.663020491600036621e-02
-1.620050333440303802e-02
4.835655540227890015e-02
1.016167830675840378e-02
9.169410914182662964e-02
-3.003790974617004395e-03
-4.946473054587841034e-03
2.890070714056491852e-02
5.717981979250907898e-02
-5.001156777143478394e-02
9.419342130422592163e-02
-6.163642182946205139e-02
-1.680881902575492859e-02
1.492960192263126373e-02
-5.274189263582229614e-02
-3.766577318310737610e-02
2.061246661469340324e-03
3.964335471391677856e-02
1.424344256520271301e-02
-3.600815311074256897e-02
2.449275925755500793e-02
1.669372245669364929e-02
-5.869209766387939453e-02
4.790966585278511047e-02
1.624064520001411438e-03
-6.728719919919967651e-02
8.418741635978221893e-03
-1.801719889044761658e-02
-4.102135077118873596e-03
7.578757405281066895e-02
2.196850068867206573e-02
4.882743954658508301e-02
4.553401470184326172e-02
-1.160008460283279419e-02
1.420164573937654495e-02
-3.244350478053092957e-02
-6.224157288670539856e-02
1.283013611100614071e-03
-7.265217602252960205e-02
4.439183324575424194e-02
2.281568571925163269e-02
-1.143234595656394958e-02
-2.851103665307164192e-03
-7.106702774763107300e-02
6.346204131841659546e-02
2.186554297804832458e-02
-3.023293428122997284e-02
-1.273243222385644913e-02
-1.340259611606597900e-01
-5.774055421352386475e-02
-4.804843571037054062e-03
1.311950478702783585e-02
1.999765634536743164e-03
5.507625639438629150e-02
-6.368581950664520264e-02
1.087555754929780960e-02
-8.322858810424804688e-02
1.421673689037561417e-02
6.093477830290794373e-02
4.056163504719734192e-02
-5.266251042485237122e-02
-3.644999116659164429e-02
-8.291232516057789326e-04
4.871280118823051453e-02
-4.354491457343101501e-02
-7.128001749515533447e-02
3.525927290320396423e-02
6.204955279827117920e-02
3.178000077605247498e-02
-3.559438884258270264e-02
-3.553369082510471344e-03
1.759137585759162903e-02
6.357005983591079712e-02
-6.800653040409088135e-02
-1.413000281900167465e-02
-6.469921022653579712e-02
-7.297808676958084106e-02
-6.108409538865089417e-02
3.172191232442855835e-02
3.027624450623989105e-02
-1.563553325831890106e-02
5.662180855870246887e-02
-2.748127095401287079e-02
5.545721948146820068e-02
2.951616421341896057e-02
4.146876931190490723e-02
-5.965996906161308289e-02
-4.232697188854217529e-02
-2.642108127474784851e-02
-3.741652145981788635e-02
1.392744015902280807e-02
-3.228686749935150146e-02
1.201597414910793304e-02
5.827482789754867554e-02
-3.887585597112774849e-03
-3.715788573026657104e-02
4.402605444192886353e-02
7.098504900932312012e-02
2.189247123897075653e-02
1.503580017015337944e-03
-9.401987493038177490e-02
1.020098291337490082e-02
-1.262044906616210938e-02
-2.372527308762073517e-02
1.907698623836040497e-02
-3.770234435796737671e-02
4.029013682156801224e-03
-5.448868498206138611e-02
-2.318679727613925934e-02
1.695938408374786377e-02
3.463480249047279358e-02
3.893900290131568909e-02
-5.425051972270011902e-02
-2.302582748234272003e-02
4.115275293588638306e-02
-1.528013381175696850e-03
3.505762666463851929e-02
5.480776354670524597e-02
1.232533808797597885e-02
1.932492107152938843e-02
-7.013177126646041870e-02
-1.148124318569898605e-02
2.636439725756645203e-02
3.677454963326454163e-02
5.142292752861976624e-02
-3.259968385100364685e-02
1.892308518290519714e-02
4.569972679018974304e-02
-1.917410828173160553e-02
3.695327416062355042e-02
-2.011662349104881287e-02
4.597291350364685059e-02
4.046108573675155640e-03
4.061138629913330078e-02
6.393136084079742432e-02
4.590781405568122864e-02
7.796934992074966431e-02
-6.269163638353347778e-02
4.812438786029815674e-02
-2.622111886739730835e-02
-6.194499880075454712e-02
-4.294648393988609314e-02
2.319482900202274323e-02
1.530236192047595978e-02
-6.300339847803115845e-02
-1.779421977698802948e-02
-5.814102292060852051e-02
-3.681419789791107178e-02
-4.454582184553146362e-02
3.221483901143074036e-02
-3.157183900475502014e-02
-4.262429848313331604e-02
7.871286012232303619e-03
-3.094224631786346436e-02
3.080620616674423218e-02
-4.024240747094154358e-02
-5.622733756899833679e-02
-1.453283801674842834e-02
-5.238035321235656738e-02
-2.691725082695484161e-02
-1.164176966995000839e-02
-5.593281611800193787e-02
-4.843151941895484924e-02
3.869201987981796265e-02
5.211099237203598022e-02
4.080733656883239746e-02
-5.890058353543281555e-02
-2.058743964880704880e-03
3.830462321639060974e-02
4.423876106739044189e-02
2.442093379795551300e-02
-1.144731231033802032e-02
3.140951320528984070e-02
3.447052789852023125e-03
-2.548477984964847565e-02
-4.106518998742103577e-02
1.309679448604583740e-02
-3.229788318276405334e-02
-3.180367499589920044e-02
3.072188049554824829e-02
-6.373721361160278320e-02
-4.605519585311412811e-03
-3.626964287832379341e-03
-9.639004245400428772e-03
-2.478934638202190399e-02
-4.358891025185585022e-02
-3.323090448975563049e-02
-4.388842207845300436e-04
-7.673312723636627197e-02
1.529044564813375473e-02
3.817722573876380920e-02
-2.160809002816677094e-02
5.277482420206069946e-02
-6.768565624952316284e-02
-3.772035986185073853e-02
3.460268024355173111e-03
-4.050830379128456116e-02
-3.698616102337837219e-02
1.515733078122138977e-02
-1.906897313892841339e-02
3.334559872746467590e-02
-1.140565332025289536e-02
6.153942272067070007e-02
-1.835703290998935699e-02
-6.935895979404449463e-02
-4.222469404339790344e-02
3.783769533038139343e-02
6.138822808861732483e-02
-3.786787018179893494e-02
5.697070155292749405e-03
-3.256747499108314514e-02
-5.536594986915588379e-02
-2.909145690500736237e-02
5.421572178602218628e-02
2.274273522198200226e-02
-6.101156771183013916e-02
6.384789198637008667e-02
7.128980476409196854e-03
-4.438785370439291000e-03
-1.829215325415134430e-02
1.751275733113288879e-02
-8.569887839257717133e-03
3.691784106194972992e-03
2.366359718143939972e-02
-3.838930651545524597e-02
8.838180452585220337e-03
5.616953596472740173e-02
-6.790941953659057617e-02
5.295541137456893921e-02
1.152695063501596451e-02
-2.586424909532070160e-02
2.280862443149089813e-02
-7.172558689489960670e-04
2.110870927572250366e-02
-3.064045310020446777e-02
4.019417613744735718e-02
-2.864776924252510071e-02
1.435770373791456223e-02
3.361426666378974915e-02
-3.838559146970510483e-03
5.086858570575714111e-02
-5.518567189574241638e-02
-2.783938497304916382e-02
1.737051084637641907e-02
-2.407503500580787659e-02
-3.512677177786827087e-02
9.054392576217651367e-02
-3.793894499540328979e-02
2.218590117990970612e-03
4.455499351024627686e-02
3.276202827692031860e-02
7.143040001392364502e-02
1.397874299436807632e-02
3.889528289437294006e-02
-5.892204120755195618e-02
4.932200908660888672e-02
4.352121800184249878e-02
4.742092639207839966e-02
-2.139023691415786743e-02
4.166254773736000061e-02
-1.079040765762329102e-02
-6.553753744810819626e-03
9.556376188993453979e-02
-5.487311258912086487e-02
-8.698055520653724670e-03
-4.332348331809043884e-02
2.268364466726779938e-02
-5.216712877154350281e-02
-1.437891926616430283e-02
-1.925142854452133179e-02
6.159692630171775818e-02
3.584037348628044128e-02
-3.301643952727317810e-02
1.195584330707788467e-02
-2.404954656958580017e-02
-2.634540572762489319e-02
4.360481724143028259e-02
6.825467571616172791e-03
3.857468813657760620e-02
-2.210921049118041992e-02
3.605475649237632751e-02
1.338148489594459534e-02
-5.472434218972921371e-03
4.386067390441894531e-02
6.387965381145477295e-02
7.474344223737716675e-02
3.580386936664581299e-02
3.791084885597229004e-02
4.275427013635635376e-02
-6.169017031788825989e-02
-3.649711236357688904e-02
3.631980391219258308e-03
7.142288610339164734e-03
6.268438417464494705e-03
-6.526800245046615601e-02
-6.301398575305938721e-02
-1.749482005834579468e-02
4.835325106978416443e-02
3.504119813442230225e-02
-2.975605241954326630e-02
5.433053150773048401e-02
5.848290398716926575e-02
-4.116642475128173828e-02
9.050722233951091766e-03
-3.755712509155273438e-02
2.557794004678726196e-02
9.115369990468025208e-03
-5.713401734828948975e-02
-7.106747012585401535e-03
4.235954582691192627e-02
3.608214482665061951e-02
-1.580945774912834167e-02
3.210067003965377808e-02
4.247977957129478455e-02
3.667831048369407654e-02
7.760983705520629883e-02
-6.271053850650787354e-02
7.335970550775527954e-02
8.455384522676467896e-03
1.013611070811748505e-02
-5.505803599953651428e-02
-4.321920499205589294e-02
7.162698358297348022e-02
-3.754860535264015198e-02
1.680813729763031006e-02
-3.763676807284355164e-02
3.610164299607276917e-02
-3.915071114897727966e-02
-2.490479266270995140e-03
-1.216887496411800385e-02
-9.257661178708076477e-03
-4.688336339313536882e-04
-2.702265419065952301e-02
5.741402972489595413e-03
2.732271514832973480e-02
-4.673403128981590271e-02
3.264053538441658020e-02
-4.141970723867416382e-02
-6.261494010686874390e-02
1.576008833944797516e-02
-2.749911695718765259e-02
3.450325503945350647e-02
-3.658450022339820862e-02
1.046765223145484924e-02
-5.164595320820808411e-02
-5.913265421986579895e-02
1.878564059734344482e-02
6.766773015260696411e-02
-1.237824372947216034e-02
-1.420502178370952606e-02
-1.008692234754562378e-01
-7.197880744934082031e-02
-1.280187536031007767e-02
-7.160466909408569336e-02
5.233127623796463013e-02
-6.874740123748779297e-02
9.121020324528217316e-03
3.674958273768424988e-02
-4.770750924944877625e-02
-4.781034588813781738e-02
-4.818879812955856323e-02
-5.201164633035659790e-03
-1.214777678251266479e-02
7.001426070928573608e-02
-5.194019526243209839e-02
-1.562004629522562027e-02
-6.761275231838226318e-02
1.276367809623479843e-02
2.056543529033660889e-02
4.297260567545890808e-02
-1.836353540420532227e-02
-2.378751337528228760e-02
-5.142458900809288025e-02
-1.593782752752304077e-02
1.050254981964826584e-02
-1.718792319297790527e-02
-4.329207167029380798e-02
6.928205490112304688e-02
5.232697725296020508e-02
1.048581209033727646e-02
-2.403307892382144928e-02
-3.313104435801506042e-02
4.247245937585830688e-02
6.654687225818634033e-02
6.815811246633529663e-02
-8.337141014635562897e-03
-1.112235710024833679e-02
5.351573973894119263e-02
-2.574514038860797882e-02
-2.657845243811607361e-02
-6.153211928904056549e-03
-2.604577131569385529e-02
-7.896611094474792480e-02
4.454147070646286011e-03
-6.916046841070055962e-04
5.140753090381622314e-02
2.370024099946022034e-02
2.058745920658111572e-02
-4.730813577771186829e-02
-6.061086431145668030e-02
5.394693836569786072e-02
3.941344097256660461e-02
-1.292635407298803329e-02
2.036673016846179962e-02
-1.349327899515628815e-02
-5.867776274681091309e-02
-5.846455693244934082e-02
-1.562796719372272491e-02
-9.219962172210216522e-03
5.138991028070449829e-02
6.109684705734252930e-02
1.891433447599411011e-02
8.219207637012004852e-03
-7.403888553380966187e-02
4.581739008426666260e-02
6.561951339244842529e-02
-4.918312653899192810e-02
6.227852310985326767e-03
-2.378146536648273468e-02
-6.643623858690261841e-02
6.751793622970581055e-02
1.192715391516685486e-02
9.114230424165725708e-02
-2.360709011554718018e-02
1.544586941599845886e-02
4.607482254505157471e-02
1.489931903779506683e-02
-5.601022765040397644e-02
-5.149503797292709351e-02
4.785187542438507080e-02
-4.022651165723800659e-02
-2.231530379503965378e-03
-4.401718825101852417e-02
5.110252648591995239e-02
8.388074487447738647e-02
2.613453753292560577e-02
5.488106608390808105e-02
5.415293853729963303e-03
-1.786695048213005066e-02
1.642949134111404419e-02
-2.582069300115108490e-02
-3.466629981994628906e-02
4.918861668556928635e-03
6.258623301982879639e-02
1.045364979654550552e-02
2.442950941622257233e-02
9.370984509587287903e-03
4.157792031764984131e-02
-1.051887683570384979e-02
2.727188542485237122e-02
5.826641619205474854e-02
-3.773985803127288818e-02
-7.152919471263885498e-02
-8.073582430370151997e-04
3.915739431977272034e-02
1.764176040887832642e-02
1.580789312720298767e-02
-1.155241020023822784e-02
-3.676552698016166687e-02
-1.623259857296943665e-02
-3.451015800237655640e-02
1.568411104381084442e-02
-2.100028842687606812e-02
-2.921610698103904724e-02
4.224218428134918213e-02
-4.700960218906402588e-02
2.261835709214210510e-02
-7.390874903649091721e-03
3.603614121675491333e-02
1.458993647247552872e-03
3.902012482285499573e-02
4.893896356225013733e-02
3.525898978114128113e-02
3.819395601749420166e-02
7.035780232399702072e-03
-2.909190393984317780e-02
1.553562097251415253e-02
-7.902073673903942108e-03
7.128652185201644897e-02
2.647275337949395180e-03
-4.933931678533554077e-02
1.979174464941024780e-02
8.187329769134521484e-02
-6.166407465934753418e-02
-8.169663487933576107e-04
-7.988343946635723114e-03
2.083616517484188080e-02
1.166019309312105179e-02
-3.917767852544784546e-02
3.429283946752548218e-02
-2.471365779638290405e-02
-2.797415107488632202e-02
-1.390928402543067932e-03
-4.795731510967016220e-03
7.165391743183135986e-02
2.217397093772888184e-02
-1.082724705338478088e-02
6.010409072041511536e-02
4.001791402697563171e-02
-5.210632830858230591e-02
-4.477482289075851440e-02
1.178629975765943527e-02
4.139045625925064087e-02
1.023000385612249374e-02
1.403084304183721542e-02
3.226736932992935181e-02
2.151836641132831573e-02
5.776717793196439743e-03
4.328783228993415833e-02
5.974268913269042969e-02
3.141931816935539246e-02
1.988150365650653839e-02
1.756434142589569092e-02
8.146685361862182617e-02
-5.689557641744613647e-02
1.046917401254177094e-02
-3.463063016533851624e-02
-1.560887508094310760e-02
-6.039012689143419266e-03
-6.524420529603958130e-02
8.330790698528289795e-02
-8.651612006360664964e-05
-4.879807308316230774e-02
-3.093357570469379425e-02
1.723235473036766052e-03
-2.021880075335502625e-02
2.510807290673255920e-02
-1.994267106056213379e-02
1.283152587711811066e-02
-2.920826955232769251e-04
2.260125940665602684e-03
-3.711318969726562500e-02
4.304523393511772156e-02
3.203885257244110107e-02
2.409398183226585388e-02
2.007705532014369965e-02
5.376395583152770996e-02
-3.367637097835540771e-02
2.671692147850990295e-02
-4.757604002952575684e-02
1.764862914569675922e-03
-3.308421745896339417e-02
-5.900819972157478333e-02
-4.027280956506729126e-02
-2.073242515325546265e-02
8.626147173345088959e-03
-1.423582155257463455e-02
-1.478419639170169830e-02
4.520923271775245667e-02
7.963784970343112946e-03
-9.309341013431549072e-02
-6.540111452341079712e-02
-2.887409925460815430e-02
8.461356908082962036e-02
1.627755723893642426e-02
7.336516678333282471e-02
6.060137599706649780e-02
-1.827560178935527802e-02
3.833906352519989014e-02
-1.944073289632797241e-02
5.581102892756462097e-02
-3.286497667431831360e-03
1.044177357107400894e-02
4.047166183590888977e-02
-9.925395995378494263e-02
2.861124649643898010e-02
8.476134389638900757e-02
-4.539713263511657715e-02
2.254169061779975891e-02
-1.306526176631450653e-02
4.372318834066390991e-02
7.004337012767791748e-02
-5.936415120959281921e-02
-2.369964122772216797e-02
-3.110825829207897186e-02
9.196638129651546478e-03
7.242455147206783295e-03
2.313796617090702057e-02
-3.524359315633773804e-02
3.567514708265662193e-03
1.701869443058967590e-02
4.098533838987350464e-02
-1.930309459567070007e-02
2.469271793961524963e-02
7.301352173089981079e-02
-3.143117949366569519e-02
8.968258649110794067e-02
-5.794322490692138672e-02
-9.043907374143600464e-02
-1.797761768102645874e-02
-5.466359481215476990e-02
-3.945665434002876282e-02
1.047438476234674454e-02
2.637397684156894684e-02
-3.747368603944778442e-02
6.159509345889091492e-02
-2.017018757760524750e-02
-4.120504111051559448e-02
4.659500345587730408e-02
-2.432739827781915665e-03
3.218096867203712463e-02
-4.523980244994163513e-02
-4.042278975248336792e-02
2.572580985724925995e-02
5.047312006354331970e-02
3.751742653548717499e-03
4.150991141796112061e-02
7.843048870563507080e-02
-1.605228288099169731e-03
-3.891410306096076965e-02
-4.506495967507362366e-02
-7.511436473578214645e-03
-2.070142887532711029e-02
3.147757053375244141e-02
-2.037088014185428619e-02
5.456265807151794434e-02
-3.845518827438354492e-02
-3.313882276415824890e-02
8.073191344738006592e-02
3.005265491083264351e-03
-1.172476913779973984e-02
8.264572359621524811e-03
-6.315487623214721680e-02
-4.301673918962478638e-02
-1.061175689101219177e-01
4.967764019966125488e-02
-2.571772970259189606e-02
3.575769066810607910e-02
-2.163287252187728882e-03
1.006568670272827148e-01
9.909501299262046814e-03
-5.506577715277671814e-02
-1.122654750943183899e-01
-5.339392274618148804e-02
2.077857032418251038e-02
-6.668465584516525269e-02
1.797934249043464661e-02
5.177707970142364502e-02
-2.207892388105392456e-02
-5.452941171824932098e-03
-1.892160624265670776e-02
-3.959872573614120483e-02
6.026659533381462097e-02
2.614808082580566406e-02
4.134646430611610413e-02
-2.273238450288772583e-02
5.437655746936798096e-02
-1.443172455765306950e-03
1.032102387398481369e-02
2.047710306942462921e-02
1.359066646546125412e-02
-5.743063054978847504e-03
7.462842040695250034e-05
1.436090003699064255e-02
8.064364641904830933e-02
-6.324638426303863525e-02
-1.616015657782554626e-02
-5.374528095126152039e-02
6.412816047668457031e-02
-2.905387431383132935e-02
-5.150490254163742065e-02
4.525023326277732849e-02
-2.807564102113246918e-02
-2.334088645875453949e-02
5.588568374514579773e-02
-7.479341328144073486e-02
1.608899049460887909e-02
5.441711470484733582e-02
6.252374500036239624e-02
5.116956681013107300e-02
-7.389263808727264404e-02
2.711602021008729935e-03
-6.592732854187488556e-03
-4.126338660717010498e-02
6.065996829420328140e-03
-2.751455467659980059e-04
-8.005119860172271729e-02
-3.191208094358444214e-02
-5.090062040835618973e-03
-1.791249611414968967e-03
4.259274527430534363e-02
-1.705599017441272736e-02
-1.580533757805824280e-02
-2.352863736450672150e-02
8.579333126544952393e-02
2.616613917052745819e-02
-5.149763822555541992e-02
-1.500280690379440784e-03
-3.830612823367118835e-02
5.123795568943023682e-02
-3.452201932668685913e-02
-3.043356351554393768e-02
-8.054573088884353638e-02
9.574276395142078400e-03
7.164949178695678711e-02
-8.788212388753890991e-02
-5.750183761119842529e-02
3.160794824361801147e-02
-2.316465787589550018e-02
-4.175101593136787415e-02
1.033636461943387985e-02
2.554742991924285889e-02
8.057831786572933197e-03
4.920790717005729675e-02
-5.574635788798332214e-02
8.724647574126720428e-03
2.449366729706525803e-03
8.093167841434478760e-02
-4.206630215048789978e-02
-3.377596661448478699e-02
-4.333627596497535706e-02
-4.273573681712150574e-02
-9.944750927388668060e-03
3.287903731688857079e-03
-5.860770121216773987e-02
-4.611361771821975708e-02
1.475549396127462387e-02
-2.523505315184593201e-02
9.101976174861192703e-04
1.233832724392414093e-02
-2.514664642512798309e-02
-1.852228678762912750e-02
2.578840591013431549e-02
-5.990145145915448666e-04
-4.072965681552886963e-02
-6.098820269107818604e-02
1.980952173471450806e-02
-3.212134912610054016e-02
-7.873742282390594482e-02
8.220184594392776489e-03
1.467583514750003815e-02
3.560474142432212830e-02
-7.470213621854782104e-02
3.496212884783744812e-02
-3.956935927271842957e-02
4.728276655077934265e-02
6.631466001272201538e-02
-3.318669274449348450e-02
3.473886474967002869e-02
1.064424216747283936e-02
1.653817831538617611e-03
-5.185392871499061584e-02
5.641640722751617432e-02
-3.169363364577293396e-02
4.092364385724067688e-02
-8.291583508253097534e-03
-4.552093520760536194e-02
2.429834939539432526e-02
2.950184606015682220e-02
-2.531039714813232422e-02
3.533478453755378723e-02
3.818441182374954224e-02
5.087310075759887695e-02
6.319549679756164551e-02
-2.736915461719036102e-02
-1.013888139277696609e-02
6.287920475006103516e-02
-4.855922609567642212e-02
1.192577183246612549e-02
2.410241402685642242e-02
3.136185929179191589e-02
1.815427094697952271e-02
3.208069503307342529e-02
-4.512568190693855286e-02
4.625213891267776489e-02
1.529853977262973785e-02
3.249952569603919983e-02
-3.721201792359352112e-02
2.095376513898372650e-02
-1.777688274160027504e-03
-3.346144221723079681e-03
4.039418324828147888e-02
2.187209203839302063e-02
-3.617457672953605652e-02
-1.108990143984556198e-02
-3.397915046662092209e-03
-3.782063722610473633e-02
3.097012452781200409e-02
2.510339207947254181e-02
2.601783722639083862e-03
-6.236877292394638062e-03
3.215855360031127930e-02
1.601120084524154663e-02
-5.576356500387191772e-02
-2.504335157573223114e-02
-6.877213716506958008e-02
4.941277951002120972e-02
-2.861433103680610657e-02
-5.416481569409370422e-02
-6.496435403823852539e-02
-3.174004331231117249e-02
-1.287900842726230621e-02
1.669912412762641907e-02
4.291241616010665894e-02
-1.888333447277545929e-02
3.554706275463104248e-02
-2.350808493793010712e-02
1.626516692340373993e-02
4.878666624426841736e-02
8.831006474792957306e-03
4.619504883885383606e-02
2.434914559125900269e-02
3.233673050999641418e-02
-6.274890899658203125e-02
3.226169571280479431e-02
-4.153557494282722473e-02
3.552814573049545288e-02
-9.244083426892757416e-03
5.881410464644432068e-02
6.096645724028348923e-03
1.893207617104053497e-02
4.642163589596748352e-02
4.288307204842567444e-02
-2.680858969688415527e-02
-1.179562602192163467e-02
-5.644280463457107544e-02
-3.582694008946418762e-02
6.619170308113098145e-02
7.087888568639755249e-02
-3.795342147350311279e-02
-1.717685721814632416e-02
1.878765784204006195e-02
-6.133323162794113159e-02
-3.261106903664767742e-04
6.217895541340112686e-03
-4.451489821076393127e-02
-4.516343772411346436e-02
1.200202200561761856e-02
6.714608520269393921e-02
1.050058659166097641e-02
3.706358000636100769e-02
2.873863279819488525e-02
-5.413785949349403381e-02
3.721714764833450317e-02
-5.405336152762174606e-03
5.054932087659835815e-02
1.184119004756212234e-02
-4.171057045459747314e-02
-4.092224687337875366e-02
-7.704510539770126343e-02
5.207495391368865967e-02
2.606683596968650818e-02
-7.444080896675586700e-03
-2.486160025000572205e-02
2.935075759887695312e-02
2.888956665992736816e-02
3.791721537709236145e-02
1.681907474994659424e-02
-1.217219699174165726e-02
1.010797079652547836e-02
-1.408477127552032471e-02
4.291956126689910889e-02
6.225892528891563416e-02
2.498488873243331909e-03
1.291052624583244324e-02
-6.149717140942811966e-03
4.682205617427825928e-02
-5.202741362154483795e-03
2.788625471293926239e-02
4.205403476953506470e-02
1.440641097724437714e-02
-2.866894192993640900e-02
-5.177406594157218933e-02
1.253804005682468414e-02
-4.447860643267631531e-02
1.790474168956279755e-02
-6.734152138233184814e-02
-3.049976192414760590e-02
2.458063513040542603e-02
1.305758208036422729e-02
-5.980076268315315247e-02
4.692369326949119568e-02
7.804127037525177002e-02
3.153074532747268677e-02
2.381681092083454132e-02
-5.499235540628433228e-02
6.200133264064788818e-02
-9.646696038544178009e-03
3.148223087191581726e-02
-2.680132165551185608e-02
1.321510877460241318e-02
3.867636620998382568e-02
6.414726376533508301e-03
4.413301870226860046e-02
-1.721769943833351135e-02
-4.340599104762077332e-02
-2.485519740730524063e-03
4.371618852019309998e-02
-1.620139367878437042e-02
-4.991913586854934692e-02
7.160406559705734253e-03
4.002069309353828430e-02
2.281838096678256989e-02
-2.299715764820575714e-02
-2.093535475432872772e-02
7.992503233253955841e-03
5.802191421389579773e-02
-3.064214810729026794e-02
-1.289004739373922348e-02
3.599855303764343262e-02
4.332625120878219604e-02
-6.832072883844375610e-02
-1.264316728338599205e-03
2.286951057612895966e-02
-8.172006160020828247e-02
-4.030731692910194397e-02
1.023918576538562775e-02
-3.254642337560653687e-02
8.073413372039794922e-02
-2.112027443945407867e-02
-5.671183764934539795e-02
7.347197830677032471e-02
-3.938914090394973755e-02
-8.943152613937854767e-03
1.681606471538543701e-02
3.598120436072349548e-02
-5.343002080917358398e-02
-1.662224344909191132e-02
7.661636173725128174e-02
-6.250058067962527275e-04
1.752788946032524109e-02
2.546526305377483368e-02
-4.342468827962875366e-02
-3.875312581658363342e-02
2.513297274708747864e-02
-4.998262971639633179e-02
-5.366935860365629196e-03
2.707655727863311768e-02
-2.309302985668182373e-02
-3.240728750824928284e-02
-1.122254692018032074e-02
-3.102680295705795288e-02
5.537161603569984436e-02
2.554125897586345673e-02
3.220665967091917992e-03
7.377562671899795532e-02
-4.482851177453994751e-02
-3.919373452663421631e-02
-3.501356765627861023e-02
1.567973755300045013e-02
-2.754418365657329559e-02
4.298174288123846054e-03
2.828727662563323975e-02
1.260926201939582825e-02
5.493525415658950806e-02
-4.323147609829902649e-02
1.027612574398517609e-02
-3.187774494290351868e-02
2.356374822556972504e-02
-1.748045906424522400e-03
-2.501833252608776093e-02
-1.323345210403203964e-02
1.379527524113655090e-02
-1.004425529390573502e-02
1.329338178038597107e-02
2.611141651868820190e-02
-1.807710342109203339e-02
6.429042201489210129e-03
-3.420114517211914062e-02
-7.558487355709075928e-03
-6.569395959377288818e-02
-2.149556204676628113e-02
4.018377885222434998e-02
-6.337465345859527588e-02
1.410029828548431396e-02
1.892591081559658051e-02
1.980669423937797546e-02
3.066797181963920593e-02
4.072187002748250961e-03
1.433932036161422729e-02
-6.221504509449005127e-02
2.653154917061328888e-02
7.035571336746215820e-02
7.579394616186618805e-03
-4.745406657457351685e-02
1.102742552757263184e-02
-2.970345877110958099e-02
5.655679106712341309e-02
-3.111833147704601288e-02
-4.521147906780242920e-02
-9.184478782117366791e-03
-4.016707092523574829e-02
-4.488377273082733154e-02
-3.881166502833366394e-02
-3.640008345246315002e-02
5.093584954738616943e-02
6.050790473818778992e-02
-4.071649536490440369e-02
-2.807773463428020477e-02
-5.086454749107360840e-02
3.301456198096275330e-02
-1.981048285961151123e-02
1.240451447665691376e-02
3.798140957951545715e-02
3.933707252144813538e-02
3.272679448127746582e-02
7.176846265792846680e-02
4.391035437583923340e-02
8.076535910367965698e-02
8.373297750949859619e-03
4.844301193952560425e-02
-3.402859671041369438e-03
-4.595906287431716919e-02
-4.176760267000645399e-04
5.439770966768264771e-02
2.012585662305355072e-02
9.892873931676149368e-04
5.711691081523895264e-02
4.702626913785934448e-02
6.559059023857116699e-03
3.909472376108169556e-02
-5.139577761292457581e-02
-4.870724864304065704e-03
1.447874400764703751e-02
3.078936785459518433e-02
9.528761729598045349e-03
-4.093590541742742062e-04
1.988676190376281738e-02
-5.929866060614585876e-02
-1.550614461302757263e-02
6.035718321800231934e-02
6.473422795534133911e-02
-4.595864191651344299e-02
-3.772844746708869934e-02
2.903366647660732269e-02
4.287645965814590454e-02
4.252867773175239563e-02
-1.879560016095638275e-02
-1.959041319787502289e-02
-3.490239381790161133e-02
-4.974846541881561279e-02
5.290021747350692749e-02
-5.830734595656394958e-02
6.461098790168762207e-02
-3.985289856791496277e-02
3.979778289794921875e-02
-4.365508258342742920e-02
3.543806821107864380e-02
1.990941353142261505e-02
3.818604722619056702e-02
3.267493844032287598e-02
1.106964237987995148e-02
6.336265057325363159e-02
6.402178667485713959e-03
-1.807020604610443115e-02
1.220961660146713257e-02
-8.097127429209649563e-04
3.124683909118175507e-02
-5.428117886185646057e-02
1.667881011962890625e-02
6.777452770620584488e-03
2.670301496982574463e-02
-2.856077440083026886e-02
-8.976222947239875793e-03
2.893770486116409302e-02
-4.449053481221199036e-02
-4.354232922196388245e-03
5.595638230443000793e-02
3.102125227451324463e-02
-7.659085839986801147e-02
4.597369581460952759e-02
3.769065439701080322e-02
-3.282595053315162659e-02
6.973038613796234131e-02
3.685194253921508789e-02
5.417526140809059143e-02
-1.168971695005893707e-02
3.784489585086703300e-03
-2.265219762921333313e-02
-4.123199731111526489e-02
-2.418985823169350624e-03
4.617534950375556946e-02
4.721425846219062805e-02
5.222311243414878845e-02
1.332806237041950226e-02
1.558972056955099106e-02
8.879640139639377594e-03
-6.343532819300889969e-03
7.877777330577373505e-03
2.895844914019107819e-02
6.465587764978408813e-02
-4.858471080660820007e-02
-6.530326325446367264e-03
-2.126604132354259491e-02
2.912794612348079681e-02
-2.219783887267112732e-02
-1.172683550976216793e-03
-1.897413656115531921e-02
-2.050285041332244873e-02
3.731320425868034363e-02
-2.444314584136009216e-02
-4.116879403591156006e-02
-3.158317878842353821e-02
-1.268058735877275467e-02
2.663957327604293823e-02
1.469224318861961365e-02
2.735077589750289917e-02
-5.632383003830909729e-02
-4.593676328659057617e-02
3.173828870058059692e-02
2.895539253950119019e-02
-3.621471300721168518e-02
4.460854455828666687e-02
3.525915089994668961e-03
-5.300267133861780167e-03
-2.277207188308238983e-02
-7.368176593445241451e-04
2.724535996094346046e-03
-9.286239743232727051e-02
5.287595465779304504e-02
1.782032661139965057e-02
-6.201179325580596924e-02
-1.450596563518047333e-02
-5.391994118690490723e-02
-4.883580282330513000e-02
-1.653790846467018127e-02
-6.253669410943984985e-02
-4.489633068442344666e-02
-1.623908616602420807e-02
1.432419102638959885e-02
6.794607732445001602e-03
-1.277831150218844414e-03
3.377846628427505493e-02
-3.119058161973953247e-02
4.941186308860778809e-02
8.299858868122100830e-02
-4.850167408585548401e-02
1.169900037348270416e-02
-7.574010640382766724e-02
4.334084689617156982e-02
-3.575133904814720154e-02
1.575893536210060120e-02
-1.112124137580394745e-02
-6.413329392671585083e-02
-1.403466332703828812e-02
-1.501049473881721497e-02
6.094315089285373688e-03
-1.338735409080982208e-02
-6.978600472211837769e-02
-1.893697492778301239e-02
-5.554232280701398849e-03
-9.415350854396820068e-02
4.944913089275360107e-02
-9.402796626091003418e-02
-4.829983692616224289e-03
7.083465903997421265e-02
4.744974896311759949e-02
-1.187487319111824036e-02
2.284736745059490204e-02
-7.570001482963562012e-02
3.579277312383055687e-03
5.759175121784210205e-02
-2.318682381883263588e-03
-2.017972990870475769e-02
-2.823537588119506836e-02
1.418948266655206680e-02
1.647171680815517902e-03
-4.580425843596458435e-02
-1.857226714491844177e-02
-5.356970056891441345e-02
4.620207846164703369e-02
-5.085149034857749939e-02
1.446355227380990982e-02
-6.744630634784698486e-03
-2.408749423921108246e-02
-1.810151152312755585e-02
-8.385739289224147797e-03
-1.251438725739717484e-02
-8.074959367513656616e-02
-3.922061249613761902e-02
2.343868277966976166e-02
-1.879089698195457458e-02
1.471401564776897430e-02
3.268747404217720032e-02
5.419246479868888855e-02
1.860427856445312500e-02
-1.314490102231502533e-02
-4.013865813612937927e-02
-3.349638730287551880e-02
-5.186167359352111816e-02
3.361516073346138000e-02
-2.510476671159267426e-02
-8.326906710863113403e-02
1.836999505758285522e-02
-5.841682665050029755e-03
-4.827615618705749512e-02
7.492697332054376602e-03
4.136817157268524170e-02
6.522797513753175735e-03
-7.078894879668951035e-03
-3.126263618469238281e-02
-7.608024030923843384e-02
-9.810168296098709106e-03
7.795719057321548462e-02
4.929773882031440735e-02
5.082923173904418945e-02
-3.760706260800361633e-02
2.809135988354682922e-02
-2.708283811807632446e-02
4.299883544445037842e-02
7.059945911169052124e-02
-1.181920431554317474e-02
2.189855463802814484e-02
4.331826698035001755e-03
-6.987328082323074341e-02
-9.502997621893882751e-03
9.729231148958206177e-02
-6.747446954250335693e-02
-3.175375238060951233e-02
-4.167606530245393515e-04
8.436143980361521244e-04
9.446245431900024414e-02
-7.289140485227108002e-03
-5.979369953274726868e-02
1.968567445874214172e-02
5.804877728223800659e-02
-1.531725097447633743e-02
-1.459209900349378586e-02
1.582475146278738976e-03
-7.069615647196769714e-03
-2.643498592078685760e-02
1.790767535567283630e-02
7.033552229404449463e-02
-1.903055817820131779e-03
2.726047672331333160e-02
-5.751974880695343018e-02
-2.716331370174884796e-02
-1.688573695719242096e-02
6.362025626003742218e-03
3.589547798037528992e-02
-1.358730159699916840e-02
2.202311344444751740e-02
7.300559431314468384e-02
5.238968506455421448e-02
2.428216673433780670e-02
-3.185192472301423550e-04
3.073490411043167114e-02
-5.026075616478919983e-02
3.851826116442680359e-02
-1.977237313985824585e-02
2.033760212361812592e-02
1.974759856238961220e-03
2.436075173318386078e-02
-3.129019215703010559e-02
-5.796768236905336380e-03
5.961805954575538635e-02
-2.556914277374744415e-02
2.909338101744651794e-02
1.167446956969797611e-03
-1.112354081124067307e-02
-1.360108144581317902e-02
-7.849931716918945312e-03
5.936415866017341614e-02
-3.390122577548027039e-02
-5.560288205742835999e-02
-3.454502439126372337e-04
3.884658217430114746e-02
2.219145931303501129e-02
-2.289015240967273712e-02
-5.703094601631164551e-02
3.108159266412258148e-02
5.419081076979637146e-02
-3.475973010063171387e-02
3.617373853921890259e-02
6.980259716510772705e-02
-2.689839340746402740e-02
1.202410645782947540e-02
-4.818547144532203674e-02
3.399863839149475098e-02
-1.856934837996959686e-02
3.391256928443908691e-02
2.876907028257846832e-02
-1.747318916022777557e-02
-1.081189047545194626e-02
2.941957674920558929e-02
-1.900150999426841736e-02
-6.089707836508750916e-03
5.218681320548057556e-02
2.605071850121021271e-02
8.747936226427555084e-04
-2.492788061499595642e-02
-5.488103721290826797e-03
4.433772712945938110e-02
-4.976775124669075012e-02
5.487253423780202866e-03
-2.262449124827980995e-03
-8.560493588447570801e-03
-1.864434964954853058e-02
-8.443860709667205811e-02
2.276127040386199951e-02
-2.196439541876316071e-02
6.484794616699218750e-02
4.297271743416786194e-02
-1.362269744277000427e-02
-6.498277187347412109e-02
4.438505694270133972e-02
2.713424153625965118e-02
1.469270698726177216e-02
-1.614826172590255737e-02
-2.309788949787616730e-02
2.688195370137691498e-02
-5.691729113459587097e-02
-1.625235378742218018e-02
-5.027029663324356079e-02
-6.199986860156059265e-02
6.919092684984207153e-02
1.146732829511165619e-03
-4.908178374171257019e-02
-4.031537845730781555e-02
-4.063168913125991821e-02
7.760251313447952271e-02
5.136797949671745300e-02
-6.974071729928255081e-03
6.038335268385708332e-04
6.739635765552520752e-02
-3.440584614872932434e-02
4.008898138999938965e-02
-5.239041522145271301e-03
7.330604642629623413e-02
3.151000291109085083e-02
1.023763511329889297e-02
4.369594529271125793e-02
-5.153773725032806396e-02
2.622551284730434418e-02
-1.804009079933166504e-02
-1.977919135242700577e-03
5.273526161909103394e-02
3.595956787467002869e-02
2.283736504614353180e-02
6.890422850847244263e-02
-4.033840820193290710e-02
-4.022741317749023438e-02
7.164120674133300781e-02
-3.251416236162185669e-02
-2.197060547769069672e-02
4.173932969570159912e-02
8.484781719744205475e-03
6.361578591167926788e-03
3.595934063196182251e-02
-2.391592599451541901e-02
6.902444362640380859e-02
-1.426186226308345795e-02
-1.772042550146579742e-02
4.654224216938018799e-02
-3.711763396859169006e-02
3.043467551469802856e-02
5.234617739915847778e-02
-7.931841537356376648e-03
-5.108440294861793518e-02
5.395543575286865234e-02
-6.228161510080099106e-03
-3.950534760951995850e-02
2.839175797998905182e-02
-2.545836195349693298e-02
-4.642128944396972656e-02
4.197812080383300781e-02
9.947910904884338379e-03
3.239684551954269409e-02
5.455163121223449707e-02
4.165821149945259094e-02
-7.269906997680664062e-02
-9.012619033455848694e-03
-5.904269963502883911e-02
-5.825611948966979980e-02
-5.189224332571029663e-02
1.635917089879512787e-02
-4.668160155415534973e-02
-4.678595811128616333e-02
-2.555645070970058441e-02
-7.075995206832885742e-02
2.581649273633956909e-02
-2.492278348654508591e-03
1.192475389689207077e-02
1.265043020248413086e-02
-5.603305250406265259e-02
-5.775201693177223206e-02
-4.620048403739929199e-02
-9.457193315029144287e-03
-9.226276539266109467e-03
1.195483095943927765e-02
1.452680956572294235e-02
1.868386007845401764e-02
-8.267289400100708008e-02
-4.896182939410209656e-02
-6.516346335411071777e-02
6.981040351092815399e-03
-3.046128712594509125e-02
5.143133550882339478e-02
3.173913806676864624e-02
1.905048557091504335e-04
-6.601007282733917236e-02
5.428569391369819641e-02
-9.452362544834613800e-03
3.601620346307754517e-02
-9.602759778499603271e-02
-1.559736486524343491e-02
-1.040503010153770447e-01
-7.362101972103118896e-02
4.879611730575561523e-02
-1.088061779737472534e-01
-2.904110774397850037e-02
4.551479592919349670e-02
-1.854159310460090637e-02
-4.314416553825139999e-03
-3.662234917283058167e-02
-1.786380633711814880e-02
3.539987280964851379e-02
2.440495230257511139e-02
7.251291722059249878e-02
2.633264660835266113e-02
1.100807171314954758e-02
7.627109438180923462e-02
3.799898177385330200e-02
3.314424306154251099e-02
-2.806795574724674225e-02
2.866010181605815887e-02
2.151746861636638641e-02
8.718691766262054443e-03
6.001685187220573425e-02
-5.066436901688575745e-02
-9.543252736330032349e-02
2.606787346303462982e-02
-3.437865898013114929e-02
-2.490532817319035530e-03
9.580339305102825165e-03
-3.219851478934288025e-02
-1.660741493105888367e-02
-4.418281093239784241e-02
-6.665792316198348999e-03
2.923908457159996033e-02
-4.402173310518264771e-02
2.680075727403163910e-02
6.054047122597694397e-02
1.913399249315261841e-02
-2.303483523428440094e-02
3.122214786708354950e-02
9.915362298488616943e-02
6.819079816341400146e-02
-5.045698955655097961e-02
-2.922831289470195770e-02
3.283744677901268005e-02
-3.506889566779136658e-02
-4.888155311346054077e-02
6.051817163825035095e-02
-2.310262247920036316e-02
1.518274471163749695e-02
3.072196617722511292e-02
4.403228312730789185e-02
8.690175600349903107e-03
3.192003071308135986e-02
2.380396611988544464e-02
7.991517893970012665e-03
5.407956615090370178e-02
7.030726969242095947e-02
4.573669284582138062e-02
-2.902160212397575378e-02
-6.705715507268905640e-02
4.768875613808631897e-02
-7.216203957796096802e-02
4.318697750568389893e-02
2.042046561837196350e-02
3.402170538902282715e-02
3.010987490415573120e-02
-5.101821199059486389e-02
-7.596618682146072388e-02
-3.567001223564147949e-02
-2.774767577648162842e-02
3.444965928792953491e-02
-4.182816296815872192e-02
5.952765047550201416e-02
-3.727524774149060249e-03
7.376005500555038452e-02
3.679769486188888550e-02
-8.190461434423923492e-03
6.702690571546554565e-02
-4.204377904534339905e-02
5.666285008192062378e-02
3.195647150278091431e-02
-3.164233267307281494e-02
-1.455619093030691147e-02
-2.129622176289558411e-02
-2.651454694569110870e-02
3.137895464897155762e-02
-3.295799344778060913e-02
-8.414728194475173950e-02
6.930023897439241409e-03
-6.590829230844974518e-03
-2.007515728473663330e-02
-6.858791410923004150e-02
-1.115557271987199783e-02
1.211293227970600128e-02
1.777308061718940735e-02
6.734085828065872192e-02
2.683542668819427490e-02
-5.172110348939895630e-02
1.571155339479446411e-02
2.116133645176887512e-02
-9.175618737936019897e-02
-5.306633934378623962e-02
-4.203777015209197998e-02
3.374375030398368835e-02
4.292837530374526978e-02
-5.920187011361122131e-02
5.287488922476768494e-02
-1.580920815467834473e-02
-4.221010580658912659e-02
-4.363577440381050110e-02
7.610631734132766724e-02
-5.367224290966987610e-02
-5.244230479001998901e-02
-3.114396892488002777e-02
-7.957702502608299255e-03
-3.945422545075416565e-02
1.151537173427641392e-03
2.386900223791599274e-02
-3.282867744565010071e-02
5.714835599064826965e-02
8.125486969947814941e-02
-1.875348947942256927e-02
1.215710677206516266e-02
-4.618449136614799500e-02
9.376253001391887665e-03
-3.400973975658416748e-02
5.349642038345336914e-02
1.894327253103256226e-02
-5.673084873706102371e-03
9.654395398683845997e-04
-7.282529771327972412e-02
-1.257355809211730957e-01
-1.011840905994176865e-02
-2.190599590539932251e-02
-4.586953297257423401e-02
-5.926110222935676575e-02
4.249339457601308823e-03
5.939409881830215454e-02
-2.843155292794108391e-03
-6.411588191986083984e-02
1.756131090223789215e-02
-3.833477199077606201e-02
2.757211588323116302e-02
-6.413035839796066284e-02
5.648645758628845215e-02
1.466458197683095932e-02
-2.470743097364902496e-02
-1.794845797121524811e-02
-4.720971733331680298e-02
-2.214290574193000793e-02
-1.877743401564657688e-03
1.738704368472099304e-02
4.481226950883865356e-02
5.809020623564720154e-02
-2.074167318642139435e-02
1.416399516165256500e-02
-3.246729075908660889e-02
7.747254334390163422e-03
-2.808345295488834381e-02
-4.697674512863159180e-02
7.437796145677566528e-02
-1.241075526922941208e-02
-2.952868863940238953e-02
3.023771941661834717e-02
-2.194115705788135529e-02
2.351932413876056671e-02
1.185206603258848190e-02
-6.395713239908218384e-02
1.178091988549567759e-04
1.630179956555366516e-02
1.482679601758718491e-02
-1.859026402235031128e-02
-7.849770784378051758e-02
-2.167538739740848541e-03
1.248956564813852310e-02
6.961023062467575073e-02
-2.665306255221366882e-02
-7.058848440647125244e-02
-3.384806215763092041e-02
2.020514011383056641e-02
8.320622891187667847e-02
1.595328003168106079e-02
-4.842950776219367981e-02
3.739572316408157349e-02
-4.158951924182474613e-04
-4.474133625626564026e-02
-2.465858869254589081e-02
1.029641181230545044e-01
2.088441833620890975e-04
-6.708808988332748413e-02
-5.179143324494361877e-02
-4.084967076778411865e-02
-8.751718699932098389e-02
1.065766066312789917e-01
-1.124304905533790588e-01
6.071293726563453674e-02
6.179724819958209991e-03
-3.695978969335556030e-02
3.749525547027587891e-02
1.471447292715311050e-03
-3.061631508171558380e-02
2.955481037497520447e-02
-2.309667179360985756e-03
2.142124250531196594e-02
-2.769760973751544952e-02
4.891619831323623657e-02
-5.440193694084882736e-03
2.654981799423694611e-02
-3.380870446562767029e-02
-5.906286835670471191e-02
-2.892903052270412445e-02
-3.699033334851264954e-02
-5.326661467552185059e-02
7.100958377122879028e-02
2.139740064740180969e-02
-2.245368808507919312e-02
3.829500824213027954e-02
9.066940285265445709e-03
-5.578660871833562851e-03
1.231665909290313721e-02
3.391974046826362610e-02
-1.298021059483289719e-02
-3.105872124433517456e-02
7.187087088823318481e-02
1.396759599447250366e-02
-4.067609459161758423e-02
3.019320964813232422e-02
5.648602917790412903e-02
-2.545533888041973114e-02
-5.905964877456426620e-03
2.778328210115432739e-02
8.639013022184371948e-02
-4.597400873899459839e-02
1.062906906008720398e-02
6.666650623083114624e-02
6.286209076642990112e-02
6.383553892374038696e-02
-1.545531582087278366e-02
5.466996133327484131e-02
-3.494893014430999756e-02
1.320131123065948486e-02
9.038335410878062248e-04
4.569313302636146545e-02
-2.037148363888263702e-02
5.163649097084999084e-02
3.532904386520385742e-02
-7.596343010663986206e-02
3.456881968304514885e-03
-2.588038705289363861e-02
2.397354837739840150e-04
-3.916217014193534851e-02
-9.227896481752395630e-02
-4.226073622703552246e-02
1.731230132281780243e-02
-1.778190955519676208e-02
5.111805722117424011e-02
-1.078142435289919376e-03
-8.119853585958480835e-02
3.612098470330238342e-02
-6.763276457786560059e-02
-6.416571885347366333e-02
-1.203141268342733383e-02
-4.811280220746994019e-02
-3.101495094597339630e-02
3.758489713072776794e-02
-2.555875666439533234e-02
6.908105313777923584e-02
-1.437772903591394424e-02
-2.260215347632765770e-03
3.895246982574462891e-02
5.608940124511718750e-02
2.999485703185200691e-03
-6.218360736966133118e-02
2.777042984962463379e-02
2.600460872054100037e-02
1.891614869236946106e-02
-6.325335055589675903e-02
6.289961282163858414e-03
1.125843357294797897e-02
-2.014170773327350616e-02
-2.570870518684387207e-02
1.222996134310960770e-02
3.261074051260948181e-02
-4.416899755597114563e-02
2.499631978571414948e-02
1.218712609261274338e-02
-1.807052083313465118e-02
-2.231401856988668442e-03
5.715386569499969482e-02
-6.490525603294372559e-02
3.378494875505566597e-03
-1.156067941337823868e-03
-1.033235341310501099e-01
4.299871996045112610e-02
4.475385323166847229e-02
6.040027365088462830e-02
1.825113967061042786e-02
4.202264174818992615e-02
2.877596579492092133e-02
-4.913838207721710205e-02
3.070416369155282155e-06
1.986279152333736420e-03
-2.423188462853431702e-02
-6.240227818489074707e-02
-4.515344277024269104e-02
-1.631794124841690063e-02
-2.653915807604789734e-02
-2.101727295666933060e-03
1.169235096313059330e-03
4.667310789227485657e-02
-4.669934511184692383e-02
3.296492993831634521e-02
4.367465898394584656e-02
-3.064756281673908234e-02
-5.275551974773406982e-02
-1.180850118398666382e-01
1.850814558565616608e-02
-4.083456471562385559e-03
-3.867327421903610229e-02
-3.137316182255744934e-02
9.735595434904098511e-02
-2.999200671911239624e-02
-2.004849724471569061e-02
-9.357853978872299194e-02
-2.973842807114124298e-02
-5.480635166168212891e-02
-6.812031846493482590e-03
3.013034164905548096e-02
7.886013388633728027e-02
1.562343537807464600e-02
5.811625346541404724e-02
-3.112882189452648163e-02
-2.778013609349727631e-02
-7.356427609920501709e-03
7.208120822906494141e-02
-3.424515575170516968e-02
-6.976369768381118774e-03
6.377590447664260864e-02
-4.179701954126358032e-02
6.952562183141708374e-02
-5.137595906853675842e-02
4.306470975279808044e-02
-1.224714796990156174e-02
-7.535216957330703735e-02
4.693514108657836914e-02
-1.069227699190378189e-02
4.980714991688728333e-03
9.723532013595104218e-03
-1.323494967073202133e-02
-4.931063577532768250e-02
2.604502812027931213e-02
3.021112270653247833e-02
-1.554239261895418167e-02
2.074531745165586472e-03
-3.957011923193931580e-02
-7.029468659311532974e-03
4.932485893368721008e-02
-2.366906404495239258e-02
-2.565052360296249390e-02
-5.811934173107147217e-02
6.299865990877151489e-02
-1.428923383355140686e-02
-2.551291137933731079e-02
1.530265714973211288e-02
-4.811557754874229431e-02
-3.413975238800048828e-02
-1.196222379803657532e-02
-4.497937113046646118e-02
-1.668545976281166077e-02
-1.524614356458187103e-02
1.131521910429000854e-02
1.910210214555263519e-02
2.489645779132843018e-02
5.011998489499092102e-02
-3.037264384329319000e-02
-4.381601512432098389e-02
1.689675031229853630e-03
-1.595626585185527802e-02
3.979200264438986778e-04
3.018183168023824692e-03
3.651839494705200195e-02
-9.539808332920074463e-02
-3.269735723733901978e-02
-8.897922188043594360e-02
1.247820816934108734e-02
-2.232758142054080963e-02
-6.724437698721885681e-03
3.965051844716072083e-02
3.054131567478179932e-02
-5.887917056679725647e-02
8.216471225023269653e-02
-3.269718214869499207e-02
5.648044869303703308e-02
2.001130580902099609e-02
4.923366755247116089e-02
-2.273565623909235001e-03
1.328132860362529755e-02
-2.255108766257762909e-02
1.744966953992843628e-03
-6.604115664958953857e-02
-2.526935376226902008e-02
2.456123940646648407e-02
3.314803913235664368e-02
4.491373151540756226e-02
4.516449943184852600e-02
-3.454792499542236328e-02
-1.672821491956710815e-02
-3.271131590008735657e-02
-1.394151709973812103e-02
1.820446550846099854e-02
-2.216851338744163513e-02
2.822540514171123505e-02
-1.867306977510452271e-02
3.090243227779865265e-02
-4.003359377384185791e-02
-5.607353150844573975e-02
2.051515690982341766e-02
-1.829286292195320129e-02
-1.687487587332725525e-02
-4.547042772173881531e-02
1.084755174815654755e-02
3.767420351505279541e-02
-3.293493296951055527e-03
-5.787877738475799561e-02
4.068567231297492981e-02
-7.709246128797531128e-02
-5.926851555705070496e-02
4.532211646437644958e-02
-5.121087655425071716e-02
1.639449223875999451e-02
-2.631216496229171753e-02
-1.298032235354185104e-03
-1.462550368160009384e-02
-8.919133991003036499e-02
-9.054872393608093262e-02
2.026761882007122040e-02
-1.413011178374290466e-02
-9.524525143206119537e-03
7.176095992326736450e-02
2.321433275938034058e-02
1.950070261955261230e-02
4.617162793874740601e-02
-6.476785987615585327e-02
-4.739802796393632889e-03
6.488909572362899780e-02
-1.016736030578613281e-01
6.645591557025909424e-02
-7.078073918819427490e-02
-1.247819140553474426e-02
8.725243806838989258e-02
-2.601865679025650024e-02
8.019890636205673218e-02
-4.036596044898033142e-03
2.785305306315422058e-02
2.797105163335800171e-02
-9.355363249778747559e-02
-1.236698590219020844e-02
2.371238358318805695e-02
7.391197234392166138e-02
2.966928109526634216e-02
2.269693650305271149e-02
-3.383119404315948486e-02
-2.661459706723690033e-02
-3.334498777985572815e-02
-3.275680914521217346e-02
6.889178603887557983e-02
-8.952167117968201637e-04
6.990078836679458618e-03
2.117774076759815216e-02
-5.216500256210565567e-03
4.386825952678918839e-03
-1.356557756662368774e-02
-4.035836085677146912e-02
5.135802179574966431e-02
5.001747980713844299e-03
1.529083866626024246e-02
-2.943570166826248169e-02
4.750384017825126648e-02
-6.625121831893920898e-02
6.033403333276510239e-03
7.998879253864288330e-02
4.127131029963493347e-02
1.657282002270221710e-02
-3.036684542894363403e-02
1.450113952159881592e-02
4.331528022885322571e-02
-2.222155965864658356e-02
-2.622236683964729309e-02
-5.621146410703659058e-02
-4.798568785190582275e-02
-4.602605104446411133e-02
-5.859608575701713562e-02
-4.145203903317451477e-02
4.960597306489944458e-02
-3.925957903265953064e-02
8.821172639727592468e-03
-6.258484441787004471e-03
-8.669131994247436523e-02
-7.544976472854614258e-02
2.881006896495819092e-02
7.946909405291080475e-03
-5.638973414897918701e-02
2.200529538094997406e-02
3.718603402376174927e-02
-6.531949341297149658e-02
-1.466812379658222198e-02
2.902487525716423988e-03
1.414306741207838058e-02
-3.868973255157470703e-02
-2.879096567630767822e-02
2.305327728390693665e-02
-7.155653089284896851e-02
-1.976078376173973083e-02
8.236537128686904907e-02
-1.196134537458419800e-01
-1.001978944987058640e-02
2.194917388260364532e-02
1.459604594856500626e-02
1.000103503465652466e-01
-8.362609893083572388e-02
-2.262222953140735626e-02
3.172576427459716797e-02
8.327688090503215790e-03
4.659824445843696594e-02
5.401287972927093506e-02
2.329908497631549835e-02
3.107812255620956421e-03
-6.102104112505912781e-02
4.372036084532737732e-02
-2.271840348839759827e-03
1.413453184068202972e-02
7.141228765249252319e-02
5.743178725242614746e-02
1.720508933067321777e-02
-3.728196956217288971e-03
-8.308058977127075195e-02
-1.724521256983280182e-02
2.479491382837295532e-02
2.040906623005867004e-02
3.040342777967453003e-02
-5.265980958938598633e-02
3.779545426368713379e-02
-3.178693726658821106e-02
-2.987482026219367981e-02
-1.713233650662004948e-03
-6.972108781337738037e-02
3.159957751631736755e-02
4.064141958951950073e-02
4.931160807609558105e-02
7.414110749959945679e-02
-1.199623942375183105e-02
-5.827016755938529968e-02
6.452315300703048706e-02
5.807024426758289337e-03
3.559168195351958275e-03
1.573792658746242523e-02
-5.008935555815696716e-02
1.419126521795988083e-02
3.700967505574226379e-02
2.656448818743228912e-02
3.141441941261291504e-02
-3.190755378454923630e-03
-7.604439556598663330e-02
-5.541603267192840576e-02
2.633120119571685791e-02
4.574601724743843079e-02
6.288606673479080200e-02
5.532187060452997684e-04
2.904988825321197510e-02
-5.401747301220893860e-02
7.677742396481335163e-04
5.334721505641937256e-02
2.041397802531719208e-02
-2.276369743049144745e-02
-1.441763807088136673e-02
-8.160712569952011108e-02
-5.361910909414291382e-02
4.387735947966575623e-02
-5.018267780542373657e-02
6.054095458239316940e-03
5.810957774519920349e-02
6.743562221527099609e-02
6.897030025720596313e-02
-1.903025433421134949e-02
4.204578697681427002e-02
5.463714478537440300e-04
3.403740376234054565e-02
1.393813733011484146e-02
4.987708479166030884e-02
4.187538847327232361e-02
4.609639942646026611e-02
-5.489078909158706665e-02
-5.310839787125587463e-02
3.712550550699234009e-02
-5.089512094855308533e-02
-2.474508434534072876e-02
4.190759733319282532e-02
-3.428320959210395813e-02
-4.630842432379722595e-02
5.001109093427658081e-02
4.742336273193359375e-02
-7.103084027767181396e-02
4.539020359516143799e-02
5.405073240399360657e-02
4.896349832415580750e-02
5.961226299405097961e-02
-5.340087041258811951e-02
-6.119519472122192383e-02
-6.367138028144836426e-02
3.696723654866218567e-02
-2.635248936712741852e-02
-3.011861816048622131e-02
3.399472311139106750e-02
-1.542038191109895706e-02
2.206810191273689270e-02
1.758281327784061432e-02
-8.257296867668628693e-03
-2.657288126647472382e-02
1.569237746298313141e-02
3.883522748947143555e-02
3.400574624538421631e-02
-1.713912189006805420e-02
2.806925401091575623e-02
-4.503561556339263916e-02
1.246403064578771591e-02
3.304836153984069824e-02
5.235249921679496765e-02
1.151929423213005066e-02
9.280360303819179535e-03
3.421459347009658813e-02
1.835371740162372589e-02
-2.485059760510921478e-02
-2.768538706004619598e-02
3.703175857663154602e-02
2.799213305115699768e-02
1.446974370628595352e-02
5.275687202811241150e-02
1.048143953084945679e-02
-3.599336370825767517e-02
4.581123217940330505e-02
6.034386809915304184e-03
8.275439962744712830e-03
5.227348208427429199e-02
1.191772334277629852e-02
1.178515050560235977e-02
-1.332263182848691940e-02
7.435617968440055847e-03
2.731487620621919632e-03
-2.915939316153526306e-02
-4.006279632449150085e-02
2.771027013659477234e-02
-7.762164808809757233e-03
-2.081524394452571869e-02
-3.825812786817550659e-02
9.226708672940731049e-03
2.467649243772029877e-02
-1.411670073866844177e-02
2.179717831313610077e-02
2.474898286163806915e-02
2.801547013223171234e-02
-4.276882857084274292e-02
6.107932701706886292e-02
1.647914387285709381e-02
-2.894585207104682922e-02
-3.037795796990394592e-02
1.720526721328496933e-03
-2.442141436040401459e-02
4.264041781425476074e-02
5.495296791195869446e-02
-4.404298588633537292e-02
2.358752675354480743e-02
6.398702040314674377e-03
5.600023269653320312e-02
2.045785449445247650e-02
-6.203347351402044296e-03
3.662544861435890198e-02
1.382551272399723530e-03
-3.849052265286445618e-02
5.314469709992408752e-02
6.449896097183227539e-02
3.220799192786216736e-02
2.862081117928028107e-02
5.173792317509651184e-02
7.808661554008722305e-03
-4.532602056860923767e-02
3.033605590462684631e-02
-1.921963877975940704e-02
2.895853668451309204e-02
-2.562547288835048676e-02
2.473257295787334442e-02
4.856796190142631531e-02
3.063073195517063141e-02
5.033047124743461609e-02
-3.863684087991714478e-02
7.936597801744937897e-03
-2.446352690458297729e-02
2.821494452655315399e-02
1.452627684921026230e-02
3.838020935654640198e-02
-3.252490609884262085e-02
-7.475183345377445221e-03
-3.396001085638999939e-02
-6.372343003749847412e-02
-9.077569469809532166e-03
5.966264754533767700e-02
2.579811029136180878e-02
6.491138041019439697e-02
-6.398887187242507935e-02
-5.728737637400627136e-02
3.471054136753082275e-02
-2.992971055209636688e-02
2.495467476546764374e-02
3.617938235402107239e-02
2.614546008408069611e-02
-1.005596132017672062e-03
1.066210027784109116e-02
-2.536089858040213585e-03
-4.487451910972595215e-02
3.196578845381736755e-02
4.767198860645294189e-02
4.099513217806816101e-02
1.142224296927452087e-02
-2.610843256115913391e-02
-5.319662019610404968e-02
-6.350807100534439087e-02
-7.648964226245880127e-02
4.920139908790588379e-02
4.381743445992469788e-02
3.190812468528747559e-02
7.871665991842746735e-03
6.488358974456787109e-02
-2.570009417831897736e-02
4.013976082205772400e-02
8.671749383211135864e-03
-2.677889354526996613e-02
3.389176446944475174e-03
4.434541985392570496e-02
5.002318695187568665e-02
4.747725650668144226e-02
-3.422389179468154907e-02
6.920341402292251587e-02
6.136432662606239319e-02
1.333768200129270554e-02
-8.459847420454025269e-02
-5.711839720606803894e-02
2.900693379342556000e-02
6.995651125907897949e-02
2.525395527482032776e-02
1.615549810230731964e-02
8.140320889651775360e-03
1.786535978317260742e-02
2.580465935170650482e-02
-5.174580216407775879e-02
1.045192708261311054e-03
-3.354755043983459473e-02
-4.645521193742752075e-02
5.246974527835845947e-02
-6.384437531232833862e-02
1.536807790398597717e-02
-1.038593519479036331e-02
-3.011832199990749359e-02
4.108728468418121338e-02
-2.390386722981929779e-02
7.047147303819656372e-02
-2.576398849487304688e-02
2.801303006708621979e-02
-7.123950868844985962e-02
4.693017899990081787e-02
2.051558904349803925e-02
-1.241425704210996628e-02
7.380671799182891846e-02
5.776409059762954712e-02
-2.609814889729022980e-02
-1.687560230493545532e-02
-4.754980653524398804e-02
-4.460421204566955566e-02
3.181565180420875549e-02
-3.342079743742942810e-02
-4.673200100660324097e-02
-3.455191478133201599e-02
-2.156278118491172791e-02
-2.165092714130878448e-02
3.360456787049770355e-03
1.308122463524341583e-02
1.791957393288612366e-02
-2.003698423504829407e-02
3.379499539732933044e-02
7.183601707220077515e-02
-1.805453002452850342e-02
1.752474904060363770e-02
3.851206228137016296e-02
-1.385622657835483551e-02
-4.237989336252212524e-02
-3.545976057648658752e-02
2.650280296802520752e-02
-7.722080498933792114e-02
-3.264464437961578369e-02
-4.352487623691558838e-02
-3.510496392846107483e-02
-1.839897409081459045e-02
-5.470745638012886047e-02
1.523132552392780781e-03
5.069918930530548096e-02
-3.700126335024833679e-02
-1.714778505265712738e-02
3.541748225688934326e-02
-4.578342661261558533e-02
-3.834474831819534302e-02
-7.289263606071472168e-02
-4.282324761152267456e-02
-7.353495806455612183e-02
-6.570646911859512329e-02
1.052302680909633636e-02
-7.149805873632431030e-02
2.425793558359146118e-03
-4.959931597113609314e-02
3.343971818685531616e-02
8.281937800347805023e-03
-6.733354181051254272e-02
1.032702275551855564e-03
1.916817575693130493e-02
-2.117391489446163177e-02
3.481755964457988739e-03
3.933379799127578735e-02
-8.863376826047897339e-02
3.321143239736557007e-02
4.732286557555198669e-02
3.671001642942428589e-02
2.984731644392013550e-02
1.590246520936489105e-02
3.671637922525405884e-02
-6.510357838124036789e-03
1.759571023285388947e-02
-1.455835066735744476e-02
-3.387238830327987671e-02
6.032148003578186035e-02
6.737212091684341431e-02
-1.823018863797187805e-02
8.460497856140136719e-02
-7.067449390888214111e-02
-2.919604070484638214e-03
3.280992805957794189e-02
3.662159899249672890e-03
1.434191595762968063e-02
8.355266600847244263e-02
-2.284658513963222504e-02
6.107895448803901672e-02
1.064961496740579605e-02
1.930761523544788361e-02
4.946020990610122681e-02
2.803363464772701263e-02
5.645178258419036865e-02
-3.680382668972015381e-02
-3.881276771426200867e-02
-2.920363331213593483e-04
1.372668240219354630e-02
9.663649834692478180e-03
1.211565360426902771e-02
-1.580929756164550781e-02
7.262055575847625732e-02
-1.571899629198014736e-04
2.732415683567523956e-02
-6.590541452169418335e-02
-3.767861798405647278e-02
5.018677189946174622e-02
-4.519449174404144287e-02
-2.008740231394767761e-02
5.699469149112701416e-02
-1.722367666661739349e-02
8.302546292543411255e-02
1.402266230434179306e-02
5.300540477037429810e-02
-8.059971150942146778e-04
-6.982632726430892944e-02
-5.815238133072853088e-02
4.092456400394439697e-02
-9.897410636767745018e-04
2.275741426274180412e-03
-6.895162910223007202e-02
-2.341167628765106201e-02
-4.234863445162773132e-02
2.677635103464126587e-02
-1.096097938716411591e-02
-4.082895815372467041e-02
4.261102899909019470e-02
-3.445215150713920593e-02
3.427122160792350769e-02
4.894671030342578888e-03
-9.030248969793319702e-03
-1.882776431739330292e-02
1.775534078478813171e-02
3.533604741096496582e-02
2.304311841726303101e-02
-2.428901754319667816e-02
-2.917698025703430176e-02
1.215530186891555786e-02
-4.557569324970245361e-02
3.513803333044052124e-02
-2.026328444480895996e-02
9.455341845750808716e-03
-6.599203497171401978e-02
4.447909444570541382e-02
2.440562099218368530e-02
-7.895497977733612061e-02
-3.408118337392807007e-02
-1.452674437314271927e-02
-3.298237919807434082e-02
-1.378068979829549789e-02
-2.959145233035087585e-02
-1.391251920722424984e-03
1.180603913962841034e-02
3.485123813152313232e-02
-6.061119586229324341e-02
8.261060342192649841e-03
-3.589248284697532654e-02
-6.754923611879348755e-02
-2.363406121730804443e-02
-7.427529245615005493e-02
4.731092602014541626e-02
5.267295986413955688e-02
-2.919071726500988007e-02
-7.094223052263259888e-02
-3.922990337014198303e-02
-3.326126607134938240e-03
-6.787458807229995728e-02
-5.848672986030578613e-02
-5.848878622055053711e-02
-2.942540682852268219e-02
1.735995896160602570e-02
-2.724125795066356659e-02
-6.099748238921165466e-02
-5.913199856877326965e-02
2.986425766721367836e-03
7.058836519718170166e-02
1.974782906472682953e-02
-2.086833491921424866e-02
-2.713269554078578949e-02
3.572202846407890320e-02
1.574843376874923706e-02
3.131270408630371094e-02
-3.040602430701255798e-02
6.144906207919120789e-02
-3.926261886954307556e-02
5.247214809060096741e-03
-7.334786932915449142e-03
1.847731322050094604e-02
6.167013943195343018e-02
5.404020473361015320e-02
2.109842561185359955e-02
-3.474643453955650330e-02
-2.449249476194381714e-02
-1.838951744139194489e-02
4.984633997082710266e-02
4.460484161972999573e-02
4.399163648486137390e-02
7.065626978874206543e-02
-4.507216438651084900e-02
7.646134495735168457e-02
-2.657523378729820251e-02
5.121165886521339417e-02
-3.577315062284469604e-02
3.769550938159227371e-03
-2.622725209221243858e-03
5.744389072060585022e-02
4.741964116692543030e-02
9.052492678165435791e-04
-1.298470515757799149e-02
5.810470506548881531e-02
-2.811512968037277460e-04
-2.488500997424125671e-02
-4.306265339255332947e-02
-1.500490400940179825e-02
6.160877645015716553e-02
-2.050346136093139648e-02
-3.232458233833312988e-02
-9.457827359437942505e-02
6.447998434305191040e-02
1.031734496355056763e-01
-4.552737995982170105e-02
8.210914209485054016e-03
6.880828738212585449e-02
8.692173287272453308e-03
-3.858143463730812073e-02
1.486562308855354786e-03
-3.283451497554779053e-02
-3.203521668910980225e-02
7.774832099676132202e-02
7.922772318124771118e-02
4.426043853163719177e-02
-4.627762362360954285e-02
1.992852985858917236e-02
5.588905885815620422e-02
-3.189582005143165588e-02
-6.195567548274993896e-02
4.133797809481620789e-02
2.589250542223453522e-02
-2.834698744118213654e-02
5.373129248619079590e-02
-8.987930603325366974e-03
2.327857771888375282e-03
1.573833264410495758e-02
-3.876271843910217285e-02
-2.390915714204311371e-02
5.190696194767951965e-02
2.184568904340267181e-02
2.137733390554785728e-03
-1.333922147750854492e-02
1.505279447883367538e-02
1.859927736222743988e-02
4.553950205445289612e-02
-3.801637515425682068e-02
-5.527173727750778198e-02
7.065980136394500732e-02
-3.606033325195312500e-02
9.829594753682613373e-03
6.441814452409744263e-02
4.566666111350059509e-02
5.806604027748107910e-02
4.610978439450263977e-02
-7.804842665791511536e-03
2.910228678956627846e-03
-6.081782281398773193e-02
-2.411010675132274628e-02
-3.253450244665145874e-02
2.838137187063694000e-02
2.353833615779876709e-02
-1.876176707446575165e-02
-2.198234573006629944e-02
3.771662712097167969e-02
5.628525093197822571e-02
8.318006061017513275e-03
-8.035480976104736328e-02
1.804881845600903034e-03
5.347098410129547119e-02
-6.155815441161394119e-03
-2.835139073431491852e-02
-1.195226609706878662e-02
-4.403473064303398132e-02
-1.097011473029851913e-02
7.258452475070953369e-02
3.151876479387283325e-02
-1.175332441926002502e-02
-3.933846578001976013e-02
-7.896204479038715363e-04
-4.972465336322784424e-02
9.688653051853179932e-02
-4.390823096036911011e-02
-1.398164313286542892e-02
-6.520481407642364502e-02
-4.133548587560653687e-02
-7.194200158119201660e-02
-3.636250272393226624e-02
-2.918396703898906708e-02
4.111631214618682861e-02
2.948710322380065918e-02
6.788532435894012451e-02
-4.958841949701309204e-03
-7.167187333106994629e-02
4.383965209126472473e-02
-1.813851483166217804e-02
-1.505835261195898056e-02
3.170819953083992004e-03
5.201547965407371521e-02
1.916544395498931408e-03
1.545214373618364334e-02
-1.898750104010105133e-02
-1.303585246205329895e-02
-2.179318666458129883e-02
-2.994667552411556244e-02
2.413094229996204376e-02
-1.433912012726068497e-02
-2.223893068730831146e-02
-5.385466665029525757e-02
-5.005791783332824707e-02
4.003829881548881531e-02
-3.118060156702995300e-02
5.544470250606536865e-02
4.729779064655303955e-02
-7.649574428796768188e-02
6.710395216941833496e-02
4.953181743621826172e-02
-3.813180327415466309e-02
-3.150929510593414307e-02
-5.205806344747543335e-02
-6.661309301853179932e-02
1.559581793844699860e-02
-3.930517658591270447e-02
-6.412535160779953003e-02
5.833893641829490662e-02
-4.205764457583427429e-02
-6.308065354824066162e-02
-1.059368103742599487e-01
2.753247320652008057e-02
2.243997156620025635e-02
4.394306242465972900e-02
3.347019478678703308e-02
7.547172904014587402e-02
2.607620693743228912e-02
-3.211971838027238846e-03
-3.086892887949943542e-02
-5.658211186528205872e-03
6.002580747008323669e-02
1.367788016796112061e-02
3.495040535926818848e-02
-4.063418507575988770e-02
2.413204126060009003e-02
-1.192171312868595123e-02
1.244276575744152069e-02
-6.085467990487813950e-03
-9.987981058657169342e-03
2.313317358493804932e-02
-7.712971419095993042e-02
6.458505988121032715e-02
8.386848866939544678e-02
-3.983644768595695496e-02
-2.923508547246456146e-02
-5.971293523907661438e-02
-5.680033937096595764e-02
9.161657653748989105e-03
-4.043009877204895020e-02
1.016366779804229736e-01
-1.190445199608802795e-02
-3.822222724556922913e-02
-7.024719845503568649e-03
2.343691699206829071e-02
1.175099797546863556e-02
6.973806023597717285e-02
-2.140694996342062950e-03
-5.614198744297027588e-02
-9.350533038377761841e-02
-9.165675938129425049e-02
3.479371964931488037e-02
-4.148760437965393066e-02
4.972583428025245667e-02
6.564357783645391464e-03
-1.138430181890726089e-02
-3.820875659584999084e-02
-5.404916405677795410e-02
-7.327751815319061279e-02
-2.088280394673347473e-03
1.115192566066980362e-02
-2.708542719483375549e-02
6.818001717329025269e-02
-3.492706269025802612e-02
2.773511968553066254e-02
2.894999459385871887e-02
2.026721462607383728e-02
2.296891063451766968e-02
4.229748249053955078e-02
-7.834558188915252686e-02
-1.267813786398619413e-04
-4.593366757035255432e-03
-5.234316736459732056e-02
8.485206216573715210e-02
-7.590918987989425659e-02
4.148476198315620422e-02
-3.987510222941637039e-03
-6.706332415342330933e-02
7.039662916213274002e-03
-7.619398087263107300e-02
-7.247717119753360748e-03
-4.199758544564247131e-02
4.008217155933380127e-02
3.474944457411766052e-02
-2.628165297210216522e-02
4.216622095555067062e-03
2.303036674857139587e-02
-3.303535655140876770e-02
3.200086951255798340e-02
7.271946966648101807e-02
3.888610005378723145e-02
4.106910154223442078e-02
4.183926060795783997e-02
-4.472519084811210632e-02
-5.628715083003044128e-02
-7.614580541849136353e-02
-2.939324639737606049e-02
3.207853436470031738e-02
4.991587996482849121e-02
2.732226252555847168e-02
-3.275870904326438904e-02
-6.790073961019515991e-02
-3.230730444192886353e-02
-9.067648649215698242e-02
6.020594015717506409e-02
1.655124314129352570e-02
-2.422758936882019043e-02
4.857343062758445740e-02
-2.116792276501655579e-02
7.800727337598800659e-02
-1.971905305981636047e-02
-1.957567967474460602e-02
1.438404805958271027e-02
-8.659336715936660767e-02
-6.184518570080399513e-04
-5.256140604615211487e-02
-4.904603213071823120e-02
-3.961334004998207092e-02
-3.455681959167122841e-03
3.889473527669906616e-02
-2.974841743707656860e-02
-1.351600326597690582e-02
-6.620026659220457077e-03
-6.408688426017761230e-02
4.742334410548210144e-02
-5.265958234667778015e-02
6.246574223041534424e-02
3.233906999230384827e-02
-5.607730522751808167e-02
-4.068597033619880676e-02
-3.506243228912353516e-02
8.357288688421249390e-02
9.645177051424980164e-03
-8.035551011562347412e-02
2.778977341949939728e-02
-3.856955468654632568e-02
-3.338503092527389526e-02
1.085722725838422775e-02
-4.130965098738670349e-02
-8.260210976004600525e-03
6.631244719028472900e-02
2.570256218314170837e-02
-1.784800924360752106e-02
-5.826938524842262268e-02
4.055587947368621826e-02
-2.639029175043106079e-02
4.060340672731399536e-02
-2.742176130414009094e-02
-3.523973748087882996e-02
-5.645626410841941833e-02
-3.595639020204544067e-02
-6.168938800692558289e-02
-5.382420495152473450e-02
7.060650736093521118e-02
-3.851424530148506165e-02
4.241577908396720886e-02
3.952570632100105286e-02
-7.312990725040435791e-03
-5.441786721348762512e-02
-6.724905222654342651e-02
2.225890569388866425e-02
2.977448515594005585e-02
-4.056058358401060104e-03
5.612455680966377258e-02
-1.486283447593450546e-02
-2.671600086614489555e-03
4.443845152854919434e-02
-4.018339514732360840e-02
9.517369791865348816e-03
2.371375262737274170e-02
3.422686830163002014e-02
8.026328869163990021e-03
-2.321023680269718170e-02
-6.508415099233388901e-03
7.211922854185104370e-02
-5.050377547740936279e-02
-1.448538620024919510e-02
-6.244382634758949280e-02
-5.915760621428489685e-02
5.993368686176836491e-04
-7.390770316123962402e-02
4.461201280355453491e-02
-1.585117541253566742e-02
-5.295908823609352112e-02
4.204804077744483948e-03
-5.439800769090652466e-02
9.747565723955631256e-03
2.140004746615886688e-02
-1.044514589011669159e-02
4.394686967134475708e-02
-1.320035103708505630e-02
2.091457135975360870e-02
4.790622368454933167e-02
1.309053227305412292e-02
1.128239091485738754e-02
-3.914438560605049133e-02
-7.356892339885234833e-03
-4.363550245761871338e-02
6.343764811754226685e-02
1.098440773785114288e-02
-5.780445411801338196e-02
2.968891337513923645e-02
-2.140187285840511322e-02
-5.803643912076950073e-02
-4.338813573122024536e-02
1.833514543250203133e-03
4.471398144960403442e-02
-9.517839550971984863e-02
4.658501967787742615e-02
4.437112435698509216e-02
6.112179905176162720e-02
2.826077677309513092e-02
-7.128795981407165527e-02
-2.429727651178836823e-02
-3.130375593900680542e-02
-2.316153841093182564e-03
3.192612156271934509e-02
1.471359189599752426e-02
-7.209774106740951538e-03
3.126167878508567810e-02
6.169897317886352539e-02
3.829055652022361755e-02
3.589462116360664368e-02
2.062174677848815918e-02
4.769938532263040543e-03
2.489484101533889771e-02
7.473202794790267944e-02
5.194623395800590515e-02
-3.342251060530543327e-03
-4.334772750735282898e-02
1.456297840923070908e-02
-3.655679989606142044e-03
-6.191184744238853455e-02
3.299603238701820374e-02
-8.311608806252479553e-03
-3.756740689277648926e-02
1.936534605920314789e-02
1.422771345824003220e-02
-2.608889527618885040e-02
-1.321983616799116135e-02
-3.611482307314872742e-02
-4.630368575453758240e-02
1.390048768371343613e-02
2.059017680585384369e-02
1.815474219620227814e-02
8.084052242338657379e-03
4.897236358374357224e-03
4.151456803083419800e-02
4.413482174277305603e-02
-2.106266468763351440e-02
-5.098633095622062683e-02
-4.198031127452850342e-02
3.523319214582443237e-02
-7.779690902680158615e-03
5.767780169844627380e-02
5.791051685810089111e-02
-9.370300918817520142e-03
-2.176774293184280396e-02
-5.599064379930496216e-02
6.542864255607128143e-03
-2.307580597698688507e-02
-3.387473151087760925e-02
3.296437859535217285e-02
1.111310347914695740e-02
3.698003664612770081e-02
5.105665326118469238e-02
1.928433193825185299e-04
5.411318317055702209e-02
-3.313462063670158386e-02
-9.925282560288906097e-03
5.043441057205200195e-02
3.879353031516075134e-02
3.184781223535537720e-02
-3.833627095445990562e-03
1.346053089946508408e-02
-1.943059265613555908e-02
-4.508630931377410889e-02
1.494326046667993069e-03
2.969237975776195526e-02
-2.048100717365741730e-02
-2.988691814243793488e-02
4.645997658371925354e-02
3.791350126266479492e-02
-2.292459085583686829e-02
5.205358192324638367e-02
7.783666253089904785e-03
6.079233065247535706e-02
3.624867275357246399e-02
2.972717583179473877e-02
-8.595103397965431213e-03
3.282838687300682068e-02
5.778889730572700500e-02
-2.271051891148090363e-02
-2.278579957783222198e-02
-4.116006195545196533e-02
-5.849757231771945953e-03
-5.508701130747795105e-02
3.426424786448478699e-02
-5.741550400853157043e-02
-3.190256282687187195e-02
6.723018735647201538e-02
-4.891478456556797028e-03
3.616767376661300659e-02
1.478910166770219803e-02
-4.688451066613197327e-02
2.575988508760929108e-02
-1.153219211846590042e-02
2.632171660661697388e-02
9.796661324799060822e-03
-3.809930384159088135e-02
-9.129513986408710480e-03
3.834926337003707886e-02
2.384223602712154388e-02
8.997876942157745361e-02
5.673682689666748047e-02
5.562789738178253174e-02
-1.087856758385896683e-02
4.834247380495071411e-02
2.728795073926448822e-02
-5.757237598299980164e-02
-1.565661979839205742e-03
1.600171066820621490e-02
7.164082489907741547e-03
-2.375204488635063171e-02
-3.932099044322967529e-02
-2.938881330192089081e-02
-6.615938246250152588e-02
4.101309180259704590e-02
-4.133160039782524109e-02
-3.281610831618309021e-02
5.721163004636764526e-02
4.823902249336242676e-02
-6.122215837240219116e-02
-4.759168997406959534e-02
2.037251926958560944e-02
5.672123655676841736e-02
1.391633786261081696e-02
1.168350921943783760e-03
-7.548476569354534149e-03
7.186210714280605316e-04
-5.665526259690523148e-03
-3.160048043355345726e-03
-2.216988801956176758e-02
6.292728241533041000e-03
-2.779364399611949921e-02
-6.505950540304183960e-02
4.723114892840385437e-02
-5.138613656163215637e-02
-5.113577097654342651e-02
-5.874369665980339050e-02
1.667826063930988312e-02
-3.917457535862922668e-02
4.694602265954017639e-02
-5.531505867838859558e-02
-3.838792815804481506e-02
6.759798526763916016e-02
-3.710658848285675049e-02
4.260945692658424377e-02
-2.873335033655166626e-02
3.962699323892593384e-02
-3.370237350463867188e-02
5.300693213939666748e-02
-4.759325832128524780e-02
-6.066807359457015991e-02
-2.721645869314670563e-02
6.639937311410903931e-02
5.100347846746444702e-02
-2.021403796970844269e-02
-7.724686060100793839e-03
6.774939596652984619e-02
-4.034084454178810120e-02
-2.592065604403614998e-03
6.948682665824890137e-02
7.644384354352951050e-02
-3.216592222452163696e-02
-1.197503763251006603e-03
1.849573850631713867e-02
3.586920350790023804e-02
5.269249901175498962e-02
-3.209893032908439636e-02
-2.452841587364673615e-02
2.939204312860965729e-02
-4.646170139312744141e-02
-3.160745278000831604e-02
4.627675935626029968e-02
-1.540931686758995056e-02
-5.171234533190727234e-02
4.396794363856315613e-02
-1.847903244197368622e-02
7.746373116970062256e-02
-5.174111109226942062e-03
5.776721239089965820e-02
-5.338167026638984680e-02
-2.678041905164718628e-02
8.482629060745239258e-02
4.962868243455886841e-02
1.373027451336383820e-02
-2.505988255143165588e-02
1.599367149174213409e-02
4.558682069182395935e-02
-1.397744193673133850e-02
1.737630367279052734e-02
9.670825675129890442e-03
-4.842751100659370422e-02
6.808101385831832886e-02
6.526887416839599609e-02
-4.491924494504928589e-02
-5.101987347006797791e-02
-4.046179726719856262e-02
5.730173364281654358e-02
-6.222166866064071655e-02
4.186178371310234070e-02
4.672859236598014832e-02
5.843958817422389984e-03
3.020590916275978088e-02
-6.360238045454025269e-02
-2.382476814091205597e-02
2.820258960127830505e-02
3.352395445108413696e-02
3.880827128887176514e-02
-3.892302140593528748e-02
-5.912999063730239868e-02
-6.662300229072570801e-02
-1.338329724967479706e-02
-5.950170103460550308e-03
-6.426325440406799316e-02
-6.162599474191665649e-02
-1.280380506068468094e-02
-1.500255800783634186e-02
-1.381542161107063293e-02
-2.391966525465250015e-03
-5.291404575109481812e-02
-5.831118673086166382e-02
-5.485974997282028198e-02
-7.491753995418548584e-02
-5.675074830651283264e-02
-2.249834500253200531e-02
3.273292211815714836e-03
-2.400652505457401276e-02
6.509532779455184937e-02
1.798696257174015045e-02
-5.251096934080123901e-02
-8.186949044466018677e-02
-3.769936412572860718e-02
8.910411596298217773e-02
3.410280123353004456e-02
8.795668184757232666e-02
-5.245914682745933533e-02
-1.146343536674976349e-02
-1.356690097600221634e-02
5.731772258877754211e-02
8.922198414802551270e-02
-4.273041710257530212e-02
-2.459114976227283478e-02
2.347289212048053741e-02
-6.940570473670959473e-02
-9.553083032369613647e-02
3.950475156307220459e-02
-1.118526048958301544e-02
7.323475927114486694e-02
3.619122132658958435e-02
6.141141057014465332e-02
4.446291923522949219e-02
-1.390150934457778931e-02
-3.529218956828117371e-02
2.305521257221698761e-02
2.289363555610179901e-02
1.639986410737037659e-02
9.348727762699127197e-02
2.480605989694595337e-02
5.461096018552780151e-02
6.270279176533222198e-03
5.548242107033729553e-02
3.502767067402601242e-03
-6.732225418090820312e-02
1.048348248004913330e-01
3.470366075634956360e-02
-2.214147150516510010e-02
2.583323232829570770e-02
-5.421292781829833984e-02
3.501984104514122009e-02
7.379526644945144653e-02
3.870593011379241943e-02
-1.234821975231170654e-02
-6.304690986871719360e-02
3.504297230392694473e-03
3.654738143086433411e-02
5.612354725599288940e-03
