5.483196675777435303e-02
2.521377056837081909e-02
5.140323564410209656e-02
1.773362420499324799e-02
7.429632544517517090e-02
4.898832365870475769e-02
1.147426813840866089e-01
1.756820082664489746e-02
6.405971944332122803e-02
1.357220206409692764e-02
8.701179176568984985e-02
2.558338940143585205e-01
1.039855107665061951e-01
3.680026903748512268e-02
4.645406454801559448e-02
1.835659593343734741e-01
1.123180426657199860e-02
3.233401849865913391e-02
1.762804239988327026e-01
-5.425667390227317810e-02
3.164402246475219727e-01
-7.829906046390533447e-02
3.018363565206527710e-02
1.311030834913253784e-01
5.590284243226051331e-02
6.848509609699249268e-02
1.724887937307357788e-01
3.883757814764976501e-02
1.572932302951812744e-01
-8.993823081254959106e-03
6.655140221118927002e-02
4.842547699809074402e-02
-2.499865740537643433e-02
1.180907618254423141e-02
3.555583953857421875e-02
6.537219882011413574e-02
-6.097300909459590912e-03
-6.103754043579101562e-02
6.711006164550781250e-02
1.387921422719955444e-01
1.208878681063652039e-01
-3.419418632984161377e-02
9.774792939424514771e-02
-2.637815847992897034e-02
1.164940744638442993e-01
1.732133179903030396e-01
-5.173812434077262878e-02
6.494043022394180298e-02
7.788658142089843750e-02
7.823464274406433105e-02
7.171696424484252930e-02
4.854593798518180847e-02
3.937834873795509338e-02
-1.667798012495040894e-01
1.693770289421081543e-02
-4.031950607895851135e-02
-1.024927943944931030e-01
-5.002387985587120056e-02
-3.585493890568614006e-03
4.464529454708099365e-02
2.055453211069107056e-01
9.790472686290740967e-02
-1.313963718712329865e-02
2.280991077423095703e-01
1.780666783452033997e-02
5.046101659536361694e-02
1.627755314111709595e-01
5.862449854612350464e-02
4.255000874400138855e-02
1.698258100077509880e-03
7.972262799739837646e-02
1.614645570516586304e-01
5.975026637315750122e-02
8.272045850753784180e-02
9.944684058427810669e-02
9.565906971693038940e-02
2.324632704257965088e-01
2.740841172635555267e-02
1.720582842826843262e-01
6.085411459207534790e-02
-1.691305488348007202e-01
-3.799989353865385056e-03
6.429379433393478394e-02
-1.403134912252426147e-01
-1.270825229585170746e-02
2.107668966054916382e-01
5.645772814750671387e-02
-5.347109213471412659e-02
-3.700937144458293915e-03
2.365879155695438385e-02
6.134089082479476929e-03
5.143304541707038879e-02
4.218326881527900696e-02
1.184996515512466431e-01
5.289429798722267151e-03
5.632751435041427612e-02
-9.728351235389709473e-02
8.156361873261630535e-04
-9.617827832698822021e-03
6.376519799232482910e-02
1.732539534568786621e-01
-6.135662272572517395e-02
1.447064429521560669e-01
4.464266449213027954e-02
-4.059692844748497009e-03
-4.800124093890190125e-02
2.133449725806713104e-02
1.811397522687911987e-01
5.827216804027557373e-02
-5.557264667004346848e-04
6.637715548276901245e-02
4.783679172396659851e-02
5.832998454570770264e-02
1.018743515014648438e-01
1.080458834767341614e-01
-5.054320767521858215e-02
1.813134998083114624e-01
-8.256237022578716278e-03
8.366071432828903198e-02
8.900391310453414917e-02
-1.597382500767707825e-02
1.340629905462265015e-01
1.033950001001358032e-01
3.723636642098426819e-02
-3.656481206417083740e-02
1.399915963411331177e-01
1.964771188795566559e-02
3.552141040563583374e-02
6.516703218221664429e-02
1.010407358407974243e-01
-3.021940030157566071e-02
8.435732871294021606e-02
9.457830339670181274e-02
7.642254233360290527e-02
4.619159176945686340e-02
1.509221047163009644e-01
-6.846624612808227539e-02
1.403231620788574219e-01
1.400064826011657715e-01
1.190433949232101440e-01
-3.416096791625022888e-02
1.157901659607887268e-01
-2.011610427871346474e-03
1.488602012395858765e-01
1.230381727218627930e-01
-2.227295935153961182e-02
-4.809117689728736877e-02
9.548113495111465454e-02
2.615645527839660645e-03
1.898792833089828491e-01
8.338144421577453613e-02
1.395190879702568054e-02
3.289796039462089539e-02
4.238949343562126160e-02
1.220817789435386658e-01
-2.538132667541503906e-02
5.896338447928428650e-02
8.679573237895965576e-02
-1.585732586681842804e-02
1.891848631203174591e-02
-1.196143776178359985e-01
4.581691324710845947e-02
1.247892603278160095e-01
-8.475279435515403748e-03
-4.120139777660369873e-02
-4.540942236781120300e-02
1.242458447813987732e-01
3.556508570909500122e-02
7.167573273181915283e-02
-3.652359172701835632e-02
6.825315952301025391e-02
5.686265602707862854e-02
8.287090808153152466e-02
2.785586565732955933e-02
9.033913724124431610e-03
3.727214783430099487e-02
2.640672959387302399e-02
1.145442426204681396e-01
-8.931862190365791321e-03
-1.058807969093322754e-02
6.120439991354942322e-02
6.765655428171157837e-02
9.889307618141174316e-02
2.470895275473594666e-02
1.465488821268081665e-01
1.286132931709289551e-01
6.455610040575265884e-03
4.893583804368972778e-02
-5.756894592195749283e-03
2.981903776526451111e-02
1.077297627925872803e-01
8.059518039226531982e-02
1.132350807893089950e-04
-7.014963310211896896e-03
-4.715720191597938538e-03
2.311133965849876404e-02
-1.401823610067367554e-01
1.638801246881484985e-01
1.057268828153610229e-01
2.993079721927642822e-01
1.169509962201118469e-01
5.842868238687515259e-02
1.632476598024368286e-02
9.302651882171630859e-02
8.098535239696502686e-02
5.532041192054748535e-02
1.117726638913154602e-01
6.755910068750381470e-02
3.023540042340755463e-02
5.348604917526245117e-02
-1.813647523522377014e-02
-1.447677761316299438e-01
2.007238380610942841e-02
8.525974303483963013e-02
-1.065248250961303711e-02
-4.804458096623420715e-02
-7.181721180677413940e-02
2.596651911735534668e-01
4.629629477858543396e-02
-1.735563129186630249e-01
-5.387679487466812134e-02
1.163672879338264465e-01
9.339122101664543152e-03
-3.738917037844657898e-02
6.577600538730621338e-02
7.752218097448348999e-02
1.421237587928771973e-01
-1.167254298925399780e-01
9.314838796854019165e-02
3.455856069922447205e-02
1.289444696158170700e-02
2.379540354013442993e-01
2.890377305448055267e-02
7.844352722167968750e-02
2.836619131267070770e-02
1.482706964015960693e-01
6.429205089807510376e-02
5.549610033631324768e-02
5.085835605859756470e-02
9.396920353174209595e-02
3.926053270697593689e-02
-1.734952814877033234e-02
-1.072027161717414856e-01
-3.996337950229644775e-02
3.731745481491088867e-02
4.988451302051544189e-02
-5.542868375778198242e-02
4.817764088511466980e-02
1.194264516234397888e-01
-1.392691209912300110e-02
1.676908284425735474e-01
8.234629780054092407e-02
7.084602862596511841e-02
8.639676123857498169e-02
5.731382966041564941e-02
1.008303686976432800e-01
