-2.833795268088579178e-03
-3.105715662240982056e-02
1.615343242883682251e-02
6.444265134632587433e-03
2.446884661912918091e-02
-1.008211984299123287e-03
-1.408031210303306580e-02
1.196385174989700317e-02
2.123029157519340515e-02
2.776642097160220146e-03
8.041325956583023071e-03
-2.244216948747634888e-02
-8.889153599739074707e-03
-1.285937428474426270e-02
-1.527413260191679001e-02
-2.760368958115577698e-02
2.901059389114379883e-02
-2.635034173727035522e-02
-3.990683704614639282e-03
2.151371911168098450e-02
2.128472924232482910e-02
1.375113055109977722e-02
-1.258510048501193523e-03
2.644325047731399536e-02
2.711999928578734398e-03
-1.964162802323698997e-03
2.034192904829978943e-02
-2.520690858364105225e-02
2.134126052260398865e-02
-2.963965758681297302e-02
-1.853851228952407837e-02
1.152532920241355896e-02
5.753871053457260132e-03
-2.037093043327331543e-02
1.614619418978691101e-02
7.419399917125701904e-03
5.415047053247690201e-03
1.126510277390480042e-02
-8.936729282140731812e-03
2.536123851314187050e-03
-2.653994783759117126e-02
1.909006014466285706e-02
-1.823968440294265747e-02
-2.998823300004005432e-02
-3.089951351284980774e-02
2.541084960103034973e-02
-2.135642990469932556e-02
-6.534390151500701904e-03
-3.327502170577645302e-03
1.191231980919837952e-02
-8.371167932637035847e-04
-8.137170225381851196e-03
-1.142094726674258709e-03
2.741526812314987183e-03
1.461539417505264282e-02
1.908183097839355469e-02
2.519601210951805115e-02
1.897728815674781799e-02
-2.663181722164154053e-02
-2.183290570974349976e-02
-3.643397009000182152e-03
9.736640495248138905e-04
-1.687633618712425232e-02
2.011206373572349548e-02
1.025974005460739136e-02
3.072592988610267639e-02
5.847491323947906494e-03
-9.849090129137039185e-03
1.212720572948455811e-02
-3.077786788344383240e-02
-4.894781857728958130e-03
-2.079205214977264404e-02
-2.692155167460441589e-02
-3.048424050211906433e-02
6.188180297613143921e-03
-2.442350238561630249e-02
2.267066016793251038e-02
2.708288282155990601e-02
-2.676030620932579041e-02
2.776018902659416199e-02
-2.979767322540283203e-02
-3.009469807147979736e-02
1.111965999007225037e-02
-2.211800217628479004e-02
1.490350812673568726e-02
-1.772044971585273743e-02
-2.062600851058959961e-02
8.558906614780426025e-03
2.942416071891784668e-02
2.315271273255348206e-02
6.893359124660491943e-03
-2.656759321689605713e-02
1.200225669890642166e-04
2.919609099626541138e-02
-1.482124999165534973e-02
-2.541418373584747314e-02
-6.228975835256278515e-04
7.069524377584457397e-03
-1.156590878963470459e-03
-4.896883852779865265e-03
-3.096184134483337402e-02
1.710015162825584412e-02
-2.910050749778747559e-02
-2.218007296323776245e-02
-1.347378268837928772e-02
-7.153067737817764282e-03
2.092939987778663635e-02
-1.279899850487709045e-02
2.956611290574073792e-02
-3.121748194098472595e-02
-9.973138570785522461e-03
-2.583056688308715820e-02
-5.704060196876525879e-03
-1.786018535494804382e-02
-2.227356657385826111e-02
-2.179276570677757263e-02
-2.583925798535346985e-02
2.749859541654586792e-02
-2.726608514785766602e-02
2.988129109144210815e-02
2.103673666715621948e-02
-2.751485258340835571e-02
-5.372089799493551254e-03
2.856723591685295105e-02
2.181732654571533203e-02
-2.787556499242782593e-02
2.477266639471054077e-02
-8.609879761934280396e-03
2.653187140822410583e-02
-1.656703825574368238e-04
1.735304668545722961e-02
2.669243887066841125e-02
-1.538320630788803101e-02
1.261562854051589966e-02
2.508462592959403992e-02
2.443183213472366333e-02
-3.000547410920262337e-03
1.376552134752273560e-02
4.692323505878448486e-03
2.212451398372650146e-02
2.868149429559707642e-02
2.469618991017341614e-02
-4.650607705116271973e-03
2.365490049123764038e-02
1.093240454792976379e-02
-8.123062551021575928e-03
-2.526243031024932861e-02
1.303166034631431103e-03
-1.027054339647293091e-02
1.213267445564270020e-02
1.435000076889991760e-02
6.130746100097894669e-03
2.606609836220741272e-02
-3.550402820110321045e-03
6.357919424772262573e-03
7.421791553497314453e-03
2.444706857204437256e-02
-1.014770194888114929e-02
-2.672362327575683594e-02
1.809865608811378479e-02
4.708169435616582632e-04
2.204474434256553650e-02
1.407919544726610184e-02
-1.790539547801017761e-02
2.399951592087745667e-02
-1.174080744385719299e-02
-1.107614859938621521e-02
8.937966078519821167e-03
8.931215852499008179e-03
-2.938763052225112915e-02
3.003012761473655701e-02
-1.985738053917884827e-02
2.404202893376350403e-02
2.105382829904556274e-02
1.734111830592155457e-02
1.408901438117027283e-02
1.323101669549942017e-02
-2.641784399747848511e-02
-2.215591073036193848e-02
-2.102248743176460266e-02
-8.688226342201232910e-03
-3.124587237834930420e-02
-2.063317969441413879e-02
8.659973740577697754e-03
1.382289920002222061e-03
-9.384941309690475464e-03
1.424483209848403931e-02
5.947444122284650803e-03
2.099844813346862793e-02
-1.476915553212165833e-02
-2.289566397666931152e-02
-1.986031234264373779e-02
-2.497650682926177979e-03
4.087090492248535156e-03
1.266622915863990784e-02
1.095881685614585876e-02
8.736679446883499622e-04
1.343016698956489563e-02
2.854342386126518250e-02
1.646192744374275208e-02
1.622568815946578979e-02
1.555389165878295898e-02
1.853148266673088074e-02
-1.124986633658409119e-02
-1.945269852876663208e-02
2.298271283507347107e-02
2.734450250864028931e-02
2.159010246396064758e-02
-1.611050218343734741e-02
-1.808237284421920776e-02
-2.903034538030624390e-02
-1.237169839441776276e-03
-2.373376674950122833e-02
1.074275001883506775e-03
-1.175725460052490234e-02
-1.076653227210044861e-02
-7.196363061666488647e-03
2.383678453043103218e-03
2.025772631168365479e-02
-8.886609226465225220e-03
1.810570061206817627e-02
2.188014239072799683e-02
1.293828594498336315e-03
-1.749544963240623474e-02
1.824974268674850464e-02
3.806816181167960167e-03
-2.122219279408454895e-02
-1.282124966382980347e-02
2.464541047811508179e-02
2.216710150241851807e-02
2.588273584842681885e-02
-7.106445729732513428e-03
-2.556274458765983582e-02
1.635779067873954773e-02
-2.855115383863449097e-02
-2.564626187086105347e-02
-2.142474800348281860e-02
1.039877906441688538e-02
2.347232541069388390e-03
1.678999885916709900e-02
2.552600204944610596e-02
-6.572738289833068848e-03
-3.044297546148300171e-02
5.342759191989898682e-03
-1.711516454815864563e-02
-4.297354607842862606e-04
2.501586452126502991e-02
2.587516233325004578e-02
1.088912785053253174e-02
1.721961423754692078e-02
-1.017722487449645996e-02
-1.757244393229484558e-02
2.165376022458076477e-02
2.322374656796455383e-02
-4.930712282657623291e-03
1.183416321873664856e-02
-9.661082178354263306e-03
2.688210830092430115e-02
2.533815056085586548e-02
2.169516682624816895e-02
6.488602608442306519e-03
1.359776966273784637e-02
-6.806060671806335449e-03
6.296720355749130249e-03
1.210625865496695042e-03
1.589762419462203979e-02
-1.020812615752220154e-02
2.570847421884536743e-02
-2.618115767836570740e-02
2.552465349435806274e-02
-1.419188082218170166e-02
8.983705192804336548e-03
-1.420302689075469971e-02
7.690552622079849243e-03
7.704567164182662964e-03
-2.280597016215324402e-02
8.677333593368530273e-03
-1.808358728885650635e-02
-9.050842374563217163e-03
1.159626618027687073e-02
8.355785161256790161e-03
1.442796364426612854e-02
-7.848100503906607628e-04
2.762753143906593323e-02
-4.819221794605255127e-03
-1.040549948811531067e-02
-6.762202829122543335e-03
9.845163673162460327e-03
-1.340969279408454895e-02
-1.589839905500411987e-02
2.517187967896461487e-02
2.271084859967231750e-02
5.708374083042144775e-03
1.415784657001495361e-02
-1.610621437430381775e-02
-2.074981480836868286e-02
1.234993711113929749e-02
-2.376950159668922424e-02
-2.234147861599922180e-02
2.451768890023231506e-02
-3.230232745409011841e-03
-2.117730677127838135e-02
-1.925864070653915405e-02
3.051836416125297546e-02
2.019872143864631653e-02
1.045300811529159546e-02
-7.186018046922981739e-04
1.096349954605102539e-02
-1.495563611388206482e-02
-1.340478286147117615e-02
-3.201749175786972046e-03
1.951697841286659241e-02
-1.327614486217498779e-02
-2.903555706143379211e-02
2.947695180773735046e-02
2.500281110405921936e-02
-1.247091591358184814e-02
9.303490514867007732e-04
1.030056551098823547e-02
-8.786968886852264404e-03
2.426900342106819153e-02
-2.924261614680290222e-02
-2.636875584721565247e-02
8.959729224443435669e-03
-1.620851457118988037e-02
1.510313805192708969e-02
2.002798765897750854e-02
3.748428076505661011e-03
-2.885276451706886292e-02
3.050629049539566040e-03
1.352110505104064941e-02
6.435800343751907349e-03
2.949431538581848145e-03
-2.754323184490203857e-02
1.096522435545921326e-02
-3.112617507576942444e-02
1.617684960365295410e-02
6.226782221347093582e-03
-2.480680868029594421e-02
-2.170398086309432983e-02
-1.441538706421852112e-02
-2.527258172631263733e-02
1.525416597723960876e-02
8.725576102733612061e-03
-3.460657550022006035e-03
7.878378033638000488e-03
1.113697537221014500e-03
-5.831674672663211823e-03
-2.162235602736473083e-02
-2.078740298748016357e-02
2.033204212784767151e-02
-1.796413585543632507e-02
6.699413061141967773e-03
2.781229466199874878e-02
6.999269127845764160e-03
2.647546585649251938e-03
2.416796609759330750e-02
9.079736773855984211e-04
2.027821540832519531e-02
-2.644680067896842957e-02
2.162460610270500183e-02
2.471733093261718750e-02
1.239398866891860962e-02
-1.846460276283323765e-03
5.775280296802520752e-03
1.005696132779121399e-02
6.482888013124465942e-03
-1.542189856991171837e-03
1.523314788937568665e-02
-3.951244056224822998e-03
-1.757165789604187012e-02
-3.096975386142730713e-02
-6.651170551776885986e-03
-2.204615622758865356e-02
-2.145715430378913879e-02
-2.625095844268798828e-02
-2.438321709632873535e-03
1.413505524396896362e-02
1.577693596482276917e-02
-1.896163821220397949e-02
-2.959131449460983276e-02
-1.026483625173568726e-02
5.441688001155853271e-03
3.308470360934734344e-03
-1.025217026472091675e-02
-3.089467808604240417e-02
5.755260935984551907e-04
-3.953453153371810913e-03
2.789793536067008972e-02
-1.253106072545051575e-02
-3.052341565489768982e-02
2.603125199675559998e-02
-2.561262995004653931e-02
-4.090249538421630859e-03
-8.321758359670639038e-03
2.017444372177124023e-02
-7.895100861787796021e-03
-1.233873888850212097e-02
1.056662946939468384e-02
1.561735942959785461e-02
-1.219448447227478027e-02
-1.301015168428421021e-02
1.668013259768486023e-02
-1.701517263427376747e-03
3.080583736300468445e-02
-1.352382451295852661e-02
-1.851622015237808228e-02
2.019191160798072815e-02
-6.423406302928924561e-03
2.304417639970779419e-02
-1.261213049292564392e-02
-2.439015731215476990e-02
-1.450341939926147461e-02
8.550914935767650604e-04
-2.893253415822982788e-02
1.614782214164733887e-02
5.556724965572357178e-03
2.148953452706336975e-02
-6.009920965880155563e-03
3.378398949280381203e-03
2.009104192256927490e-02
2.574437484145164490e-02
2.012667432427406311e-02
6.445467472076416016e-03
-1.222722977399826050e-02
-2.743598818778991699e-02
2.237591519951820374e-02
-2.379592508077621460e-03
-6.206300109624862671e-03
-2.415531501173973083e-02
-1.714171096682548523e-02
-1.787480339407920837e-02
-9.872503578662872314e-03
4.520762711763381958e-03
2.084288746118545532e-02
-2.018109709024429321e-02
-3.062263503670692444e-02
-1.510719582438468933e-02
1.240771263837814331e-02
-1.703230291604995728e-02
-3.010039776563644409e-02
-2.978070080280303955e-02
2.433521673083305359e-02
2.864762768149375916e-02
3.116233646869659424e-02
1.474450156092643738e-02
1.094904914498329163e-02
6.896287668496370316e-03
-2.504349872469902039e-02
2.499133348464965820e-03
2.402560412883758545e-02
-2.050927281379699707e-02
-1.829065382480621338e-02
2.894573286175727844e-02
-2.800972759723663330e-02
-3.282736288383603096e-04
-1.163208112120628357e-02
-2.376183122396469116e-02
2.816546335816383362e-02
-2.565083280205726624e-02
1.086251437664031982e-02
1.735892891883850098e-02
8.629519492387771606e-03
-3.109069541096687317e-02
2.357227727770805359e-02
-1.053429767489433289e-02
-9.051240980625152588e-03
1.974094659090042114e-03
7.542677223682403564e-03
9.873144328594207764e-03
-2.407705411314964294e-02
1.934225787408649921e-03
2.889373153448104858e-02
-1.950175687670707703e-02
-8.587379008531570435e-03
-2.488016337156295776e-02
1.296783611178398132e-02
-1.823359727859497070e-02
2.248504012823104858e-02
2.018526941537857056e-02
-1.916782348416745663e-03
-2.284371480345726013e-02
-1.303394511342048645e-02
3.245263826102018356e-03
-1.031805574893951416e-02
-2.798020467162132263e-02
-1.275682076811790466e-02
-3.003520891070365906e-02
-2.011829242110252380e-02
-2.929922565817832947e-02
2.815655246376991272e-02
-1.116840913891792297e-02
-1.617213338613510132e-02
-1.583404093980789185e-02
2.011611312627792358e-02
-2.114388160407543182e-03
2.296457812190055847e-02
-1.514278352260589600e-02
-6.709342706017196178e-04
-1.189349964261054993e-02
-1.025588437914848328e-02
-1.169148483313620090e-03
1.618743687868118286e-02
1.995709910988807678e-02
1.555298641324043274e-02
-9.692743420600891113e-03
2.664104104042053223e-03
-3.119315952062606812e-02
-1.999537646770477295e-02
2.248004078865051270e-02
8.551940321922302246e-03
-1.335988566279411316e-02
