-1.178689766675233841e-02
3.355540707707405090e-02
3.386853635311126709e-02
2.255642972886562347e-02
-1.180206658318638802e-03
-2.926235087215900421e-02
1.294710580259561539e-02
1.917717419564723969e-02
-3.232384473085403442e-02
7.903777062892913818e-03
-2.948120469227433205e-03
-2.797965891659259796e-03
4.251921921968460083e-02
-2.973935753107070923e-02
1.891363412141799927e-02
-5.882888566702604294e-03
-1.667648553848266602e-02
-6.206133868545293808e-03
3.074402362108230591e-02
-4.254396632313728333e-02
-4.080022498965263367e-02
4.408174753189086914e-02
-2.590393647551536560e-02
1.698626438155770302e-03
3.278576582670211792e-02
4.052663221955299377e-02
-2.313385717570781708e-02
1.125361956655979156e-02
-1.977551262825727463e-03
2.819610945880413055e-02
3.507350385189056396e-02
-3.722399007529020309e-03
-3.274577856063842773e-02
1.361976936459541321e-02
7.183766923844814301e-03
2.435832284390926361e-02
5.340574774891138077e-03
4.187102988362312317e-02
1.729969284497201443e-03
3.082853928208351135e-02
4.015846643596887589e-03
-1.892688497900962830e-02
-3.392421454191207886e-02
-1.606630533933639526e-02
3.408822789788246155e-02
1.043277792632579803e-02
2.664174512028694153e-02
-1.549706421792507172e-02
-2.572007663547992706e-02
-1.781166903674602509e-02
3.825090825557708740e-02
2.547350153326988220e-02
-2.633919939398765564e-03
-3.552644699811935425e-02
1.227936800569295883e-02
2.827351167798042297e-02
3.295524790883064270e-02
-2.955073490738868713e-03
-2.540551871061325073e-02
-2.923150546848773956e-02
-2.469881065189838409e-02
-3.781275451183319092e-02
1.711055636405944824e-02
-3.013076633214950562e-02
-2.540191635489463806e-02
-1.284177647903561592e-03
-2.666392922401428223e-02
-2.733944915235042572e-03
-3.986958414316177368e-02
4.202692955732345581e-02
2.038945443928241730e-02
-1.482251938432455063e-02
4.042828455567359924e-02
1.801737211644649506e-02
-3.847142681479454041e-02
3.534913435578346252e-02
-1.445526815950870514e-02
2.897926606237888336e-02
-2.035791240632534027e-02
-3.351506777107715607e-03
2.193521708250045776e-02
-2.846256643533706665e-02
2.751801349222660065e-02
-1.684922538697719574e-02
1.615804806351661682e-02
3.773482516407966614e-02
-2.671471331268548965e-03
-2.812338434159755707e-02
-6.980798207223415375e-03
-1.136565580964088440e-02
-2.177080139517784119e-02
3.124022856354713440e-02
-3.424692526459693909e-02
4.002190008759498596e-02
1.858219690620899200e-02
1.281254179775714874e-02
2.197427116334438324e-02
3.006840869784355164e-02
2.487518638372421265e-02
-5.659810733050107956e-03
1.515533216297626495e-02
-2.361305058002471924e-02
3.004125133156776428e-02
5.639063660055398941e-03
2.833942510187625885e-02
2.778389677405357361e-02
-3.436972200870513916e-02
2.960293926298618317e-02
2.007786743342876434e-02
3.467346727848052979e-02
3.226738423109054565e-02
-7.333287969231605530e-03
-2.588014490902423859e-02
3.801772138103842735e-03
-4.034294560551643372e-02
1.429317612200975418e-02
-2.204368077218532562e-02
-8.010819554328918457e-03
-1.980429887771606445e-02
3.459258005023002625e-02
2.968927286565303802e-02
-8.617397397756576538e-03
3.777483850717544556e-02
3.341959044337272644e-02
2.168518491089344025e-02
-4.245741292834281921e-02
4.091582819819450378e-02
1.342586800456047058e-02
-6.313850637525320053e-03
3.542155027389526367e-02
2.835696376860141754e-02
8.271171711385250092e-03
6.344601977616548538e-03
1.932726986706256866e-02
-1.938914693892002106e-02
3.609021753072738647e-02
3.787763183936476707e-03
3.874826803803443909e-02
3.512636944651603699e-02
2.396144159138202667e-02
-1.058666128665208817e-02
-4.409515485167503357e-02
-2.664909884333610535e-02
-3.090414404869079590e-02
-2.286871150135993958e-02
-4.500482697039842606e-03
-3.266346827149391174e-02
-5.109314806759357452e-03
-4.214872792363166809e-02
1.517740637063980103e-02
-1.195537485182285309e-02
-2.028383500874042511e-02
3.262625262141227722e-02
1.544339023530483246e-02
-2.037834376096725464e-02
3.123843297362327576e-02
3.415137901902198792e-02
-4.088268429040908813e-02
-2.824210748076438904e-02
-9.567203000187873840e-03
2.728617005050182343e-02
-4.125122353434562683e-02
1.798876374959945679e-02
-3.451605141162872314e-02
1.809563301503658295e-02
-2.832405036315321922e-03
9.960211813449859619e-03
4.373139515519142151e-02
1.495884917676448822e-02
1.408971752971410751e-02
2.469842089340090752e-03
-2.716069342568516731e-03
-1.428241841495037079e-02
-1.766875386238098145e-02
-2.884219400584697723e-02
-2.801724337041378021e-02
4.154214635491371155e-03
6.568686105310916901e-03
-1.354765612632036209e-02
-2.874093689024448395e-02
-1.795752346515655518e-02
2.598647214472293854e-02
4.029751941561698914e-02
2.304368419572710991e-03
1.794678717851638794e-02
2.412612084299325943e-03
-2.890351787209510803e-02
-1.174342352896928787e-02
2.791184931993484497e-02
2.910193428397178650e-02
4.152954369783401489e-02
2.445860020816326141e-02
2.320793084800243378e-02
-2.400428988039493561e-02
2.721620537340641022e-02
-2.401370927691459656e-02
-3.390960022807121277e-02
-9.419187903404235840e-03
-4.405466839671134949e-02
2.995645627379417419e-02
-4.682756960391998291e-03
-2.387966588139533997e-02
-1.271725259721279144e-02
-2.595495618879795074e-02
3.970061987638473511e-02
6.411109585314989090e-03
3.301442041993141174e-02
-2.067171223461627960e-02
-2.376425266265869141e-02
7.385102566331624985e-03
3.717476874589920044e-02
4.930517170578241348e-03
-1.249540783464908600e-02
3.385451436042785645e-02
4.149542748928070068e-02
-2.117941342294216156e-02
-1.488377992063760757e-02
-3.619396593421697617e-03
-3.526710718870162964e-02
-1.806119398679584265e-04
-3.315356373786926270e-02
3.682010620832443237e-02
3.162838518619537354e-02
2.542421594262123108e-02
-1.975682564079761505e-02
3.220545127987861633e-02
-3.793121548369526863e-03
-1.568782143294811249e-02
-3.686175495386123657e-02
1.447253767400979996e-02
2.896005287766456604e-03
-2.875825390219688416e-02
-3.342840820550918579e-02
-2.608281373977661133e-02
-1.088603027164936066e-02
2.357279509305953979e-02
-1.946105435490608215e-02
-2.372661046683788300e-02
-1.802361942827701569e-02
-2.439135499298572540e-02
2.112660184502601624e-02
1.714917831122875214e-02
-9.195340797305107117e-03
-2.850715257227420807e-02
-3.373454790562391281e-03
-1.053499430418014526e-02
2.106492035090923309e-02
-4.179305583238601685e-02
-3.279464319348335266e-02
3.316351771354675293e-02
3.066963888704776764e-02
5.586675833910703659e-04
3.916379436850547791e-02
-3.177019208669662476e-02
2.291392907500267029e-02
4.200417920947074890e-02
