-1.331155281513929367e-02
1.446054130792617798e-02
-1.672889920882880688e-03
5.899555236101150513e-02
-4.062950611114501953e-02
9.175971895456314087e-02
-6.086960062384605408e-02
-8.119550347328186035e-02
-5.470849107950925827e-03
7.972126454114913940e-02
5.914995446801185608e-02
2.057677321135997772e-02
-3.640243038535118103e-02
-4.584457725286483765e-03
-1.810772344470024109e-03
-2.445655502378940582e-02
-1.511992327868938446e-02
2.629885263741016388e-02
1.686254888772964478e-02
4.613806307315826416e-02
5.600848793983459473e-02
2.871040813624858856e-02
-9.051636606454849243e-02
7.419367879629135132e-02
3.909565508365631104e-02
6.334435194730758667e-02
6.419554352760314941e-02
6.838255375623703003e-02
6.841988116502761841e-02
-8.333232253789901733e-02
8.201216161251068115e-02
4.734365269541740417e-02
5.120577756315469742e-03
-5.625936388969421387e-02
7.295762002468109131e-02
-4.833830753341317177e-04
-8.180957287549972534e-02
3.720036149024963379e-02
-6.028226017951965332e-02
-1.749235950410366058e-02
9.560577571392059326e-03
6.832224130630493164e-02
5.478256568312644958e-02
-4.837809130549430847e-02
-5.681894347071647644e-02
4.501907527446746826e-02
5.817509815096855164e-02
-6.191730871796607971e-02
-2.576519176363945007e-02
-5.282975360751152039e-02
-5.408287420868873596e-02
1.721686497330665588e-02
3.059628233313560486e-02
-7.231905311346054077e-02
4.962456598877906799e-02
1.052886992692947388e-02
-8.596504479646682739e-02
-5.016803741455078125e-02
5.523068457841873169e-02
-2.232189849019050598e-02
-6.998906284570693970e-02
-5.862267315387725830e-02
-9.732352197170257568e-02
-5.369725078344345093e-02
-1.092026196420192719e-02
1.130810566246509552e-02
-8.319637924432754517e-02
1.111599616706371307e-02
5.775644630193710327e-02
2.678290009498596191e-02
-8.300614543259143829e-03
-6.668905261904001236e-03
-9.212071448564529419e-02
-9.020526707172393799e-02
-5.340733379125595093e-02
-2.758246287703514099e-02
8.034405857324600220e-02
-4.877491667866706848e-02
1.034891083836555481e-01
-5.431699380278587341e-02
-2.534661069512367249e-02
5.150728672742843628e-02
-4.410488158464431763e-02
4.410394653677940369e-02
-6.561847031116485596e-02
-1.011446584016084671e-02
-1.263850741088390350e-02
6.467553973197937012e-02
-8.865837752819061279e-02
-4.166940227150917053e-02
7.133404165506362915e-02
8.201572299003601074e-02
1.897162199020385742e-02
3.359749540686607361e-02
-3.617034852504730225e-02
-8.059331774711608887e-02
6.305955350399017334e-02
-2.518795803189277649e-02
1.443206053227186203e-02
2.596270106732845306e-02
-5.758326128125190735e-02
1.209862157702445984e-02
-5.995742604136466980e-02
-2.770634181797504425e-02
5.317636206746101379e-02
2.511638216674327850e-02
2.755807014182209969e-03
1.100048795342445374e-02
-6.631352752447128296e-02
7.672327011823654175e-02
-9.008219093084335327e-02
7.447046041488647461e-02
4.837069194763898849e-03
-7.388854771852493286e-02
-4.310638830065727234e-02
-1.171644032001495361e-02
1.022029668092727661e-02
-5.979070812463760376e-02
-6.159161403775215149e-02
-5.479815602302551270e-02
2.535415068268775940e-02
1.142640970647335052e-02
-3.689849749207496643e-02
-6.610385328531265259e-02
-3.910443559288978577e-02
-6.102653220295906067e-02
-7.099034637212753296e-02
3.613993525505065918e-02
-8.442912250757217407e-02
-8.700498938560485840e-02
7.026319857686758041e-03
-8.721254020929336548e-02
6.851451843976974487e-02
-5.261281132698059082e-02
-1.139011606574058533e-02
4.114552587270736694e-02
7.848039269447326660e-02
7.240648567676544189e-02
-5.873148888349533081e-02
1.851489022374153137e-02
-3.309515304863452911e-03
-1.362818200141191483e-02
-2.351052500307559967e-02
-8.833548426628112793e-02
-2.119626151397824287e-03
-4.949819296598434448e-02
3.546091169118881226e-02
9.297153353691101074e-02
7.902449369430541992e-02
-1.043183915317058563e-02
-1.198944915086030960e-02
1.251264940947294235e-02
-3.262795135378837585e-02
3.906249627470970154e-02
2.870047278702259064e-02
5.851814150810241699e-02
3.393292799592018127e-02
-6.881828606128692627e-02
-1.105433609336614609e-02
-4.959232360124588013e-02
-6.690669059753417969e-02
-5.546116270124912262e-03
2.693143300712108612e-02
7.497445493936538696e-02
4.391532763838768005e-02
4.776006191968917847e-02
-7.842710614204406738e-02
-3.003700112458318472e-04
-4.833984375000000000e-02
-2.230064012110233307e-02
-7.489290554076433182e-03
-5.468320101499557495e-02
-5.781346186995506287e-02
7.882729917764663696e-02
1.416700519621372223e-02
-1.580235920846462250e-02
-4.586578160524368286e-02
3.252492472529411316e-02
-9.084431082010269165e-02
-3.126353397965431213e-02
-8.328638970851898193e-02
-1.541043259203433990e-02
-9.272060543298721313e-02
2.990162000060081482e-02
-2.269613556563854218e-02
-4.067816585302352905e-02
-1.590487733483314514e-02
1.443920098245143890e-02
-1.230435818433761597e-02
4.465449601411819458e-02
-5.927376076579093933e-02
-2.930123358964920044e-02
-3.724498674273490906e-02
-5.144445970654487610e-02
-2.859696187078952789e-02
5.584476888179779053e-02
-4.712730273604393005e-02
8.473932743072509766e-02
3.302381187677383423e-02
6.236993521451950073e-02
5.219246447086334229e-02
-5.953660607337951660e-02
-3.314131870865821838e-02
-2.358508110046386719e-02
-2.705510519444942474e-02
1.246301829814910889e-02
1.850074902176856995e-02
-5.904166400432586670e-02
5.683921650052070618e-02
-5.624988675117492676e-02
7.511700689792633057e-02
5.445460323244333267e-03
-7.308749109506607056e-02
-8.955723792314529419e-02
-5.881194025278091431e-02
7.397750765085220337e-02
-8.539645373821258545e-02
4.561844468116760254e-02
-4.914074763655662537e-02
5.136879533529281616e-02
-8.276942372322082520e-02
5.955900624394416809e-02
7.169712334871292114e-02
-3.358519822359085083e-02
-1.655642315745353699e-02
5.462834239006042480e-02
4.753424599766731262e-02
-6.442085653543472290e-02
2.402989566326141357e-02
1.971807889640331268e-02
8.447613567113876343e-02
-9.186064451932907104e-02
-2.779903588816523552e-03
4.610011726617813110e-02
2.093082293868064880e-02
-6.741602718830108643e-02
-1.321844058111310005e-03
-2.363551594316959381e-02
5.211457610130310059e-02
6.580572575330734253e-02
-3.911696001887321472e-02
-5.615956708788871765e-02
7.453538011759519577e-03
5.554446205496788025e-02
6.148134917020797729e-02
2.443158626556396484e-02
-1.957355625927448273e-02
8.095575869083404541e-02
7.733346521854400635e-02
4.279934987425804138e-02
5.701140034943819046e-03
-8.919413387775421143e-02
-8.913367055356502533e-03
-6.905025988817214966e-02
-1.614837534725666046e-02
-6.086147576570510864e-02
2.531236410140991211e-02
8.417976647615432739e-02
3.291816450655460358e-03
7.826689630746841431e-02
5.593431368470191956e-02
-2.249118126928806305e-02
5.626166239380836487e-02
6.015213578939437866e-02
2.826123870909214020e-02
-3.929783403873443604e-02
7.809316366910934448e-02
-2.282106503844261169e-02
-7.580880820751190186e-02
7.763210684061050415e-03
-6.488074362277984619e-02
-2.813877537846565247e-02
3.920796141028404236e-02
-3.069322742521762848e-02
9.027649462223052979e-02
5.853262171149253845e-02
7.291083782911300659e-02
1.229080930352210999e-02
7.942222058773040771e-02
-6.370964646339416504e-02
7.443366944789886475e-02
5.823527649044990540e-02
1.951120980083942413e-02
2.564956620335578918e-02
4.761083051562309265e-02
8.974521607160568237e-02
2.700258232653141022e-02
-4.202519729733467102e-02
4.326702281832695007e-02
7.652731146663427353e-03
-7.066435366868972778e-02
2.107323380187153816e-03
-2.005623653531074524e-02
-6.626418232917785645e-02
1.591614261269569397e-02
-6.759535986930131912e-03
-3.033703193068504333e-02
-9.403153508901596069e-02
4.976511467248201370e-03
2.832278423011302948e-02
5.791657418012619019e-02
4.678509756922721863e-02
6.196182221174240112e-02
5.367058515548706055e-02
-1.781987398862838745e-02
8.501275628805160522e-02
1.209729257971048355e-02
-7.496582716703414917e-02
5.244015157222747803e-02
5.211897939443588257e-02
-7.179000973701477051e-02
6.393869221210479736e-02
5.354366451501846313e-02
-3.719786182045936584e-02
2.750181779265403748e-02
2.078473754227161407e-02
-7.978820800781250000e-02
5.513736978173255920e-02
-6.102577969431877136e-02
-6.953725218772888184e-02
-6.063059344887733459e-02
-6.458806246519088745e-02
1.847031642682850361e-03
4.741179943084716797e-02
5.340782925486564636e-02
3.556472249329090118e-03
-3.777201101183891296e-02
-4.877754952758550644e-03
-8.577577024698257446e-02
8.490341901779174805e-02
-4.536739736795425415e-02
-3.462160937488079071e-03
-1.655411720275878906e-02
5.429975688457489014e-03
5.343749374151229858e-02
-2.838150039315223694e-02
5.886069312691688538e-02
6.185595691204071045e-02
6.928602606058120728e-02
-1.860002800822257996e-02
-7.982011139392852783e-02
-3.835442289710044861e-02
8.057742565870285034e-02
-2.735128067433834076e-02
8.120382577180862427e-02
1.482241507619619370e-02
-1.077238563448190689e-02
-7.047782838344573975e-02
1.581406965851783752e-02
9.566240757703781128e-02
-1.255709677934646606e-02
-2.653094753623008728e-02
-1.368090510368347168e-03
1.203922671265900135e-03
-3.883193805813789368e-02
-2.415077062323689461e-03
-7.155340164899826050e-02
-6.105097383260726929e-02
-1.302865054458379745e-02
-3.437683731317520142e-02
8.266778290271759033e-02
-2.816248498857021332e-02
3.756001358851790428e-03
-3.598716482520103455e-02
2.630715072154998779e-02
3.270069509744644165e-02
3.437397070229053497e-03
6.852415949106216431e-02
6.195739656686782837e-02
1.484863576479256153e-03
3.441796824336051941e-02
-4.752650484442710876e-02
-1.934168860316276550e-02
2.194733172655105591e-02
7.734401524066925049e-02
5.421871691942214966e-02
-6.364206969738006592e-02
8.799962699413299561e-02
4.983238875865936279e-02
7.953704893589019775e-02
1.091731479391455650e-03
-3.908709436655044556e-02
5.742514040321111679e-04
8.076392859220504761e-02
-5.131036788225173950e-02
6.108735501766204834e-02
1.124231703579425812e-02
-6.985391676425933838e-02
8.641029149293899536e-02
7.959353923797607422e-02
1.046246755868196487e-02
4.946509376168251038e-02
-6.053294055163860321e-03
-6.552494317293167114e-02
-4.741523787379264832e-02
6.656832993030548096e-02
1.519252546131610870e-02
-8.915427024476230145e-04
6.640497595071792603e-02
4.486888274550437927e-02
9.813033044338226318e-02
-5.093251913785934448e-02
6.155371665954589844e-02
3.823823481798171997e-02
7.449682056903839111e-02
7.277099788188934326e-02
9.940162301063537598e-03
-1.769101130776107311e-03
-4.588953778147697449e-02
-2.736259996891021729e-02
2.660259837284684181e-03
2.217837423086166382e-02
2.283532358705997467e-02
3.340835124254226685e-02
-2.405625954270362854e-02
5.951185524463653564e-02
-6.908261775970458984e-02
7.260423898696899414e-02
-6.235684081912040710e-02
4.450511187314987183e-02
8.295980095863342285e-02
7.717001438140869141e-02
-2.337590977549552917e-02
-5.304396525025367737e-02
5.242091417312622070e-02
1.143825706094503403e-02
3.603008016943931580e-02
-8.807170391082763672e-02
2.191332355141639709e-02
-7.428193837404251099e-02
-6.053516268730163574e-02
-9.122035652399063110e-02
-5.883153527975082397e-02
-4.711790755391120911e-02
-6.049282848834991455e-02
3.352558612823486328e-02
4.348720982670783997e-02
-6.068661063909530640e-02
-5.101356282830238342e-02
-1.020161211490631104e-01
-3.502178564667701721e-02
1.668872311711311340e-02
5.939272791147232056e-02
3.826321288943290710e-02
7.631882280111312866e-02
5.624845251441001892e-02
9.862788952887058258e-03
3.781737759709358215e-02
1.943418569862842560e-02
2.057941630482673645e-02
-5.571816489100456238e-02
-6.559572368860244751e-02
-2.207477577030658722e-02
2.786709927022457123e-02
-9.018895030021667480e-02
-3.085825825110077858e-03
-1.474861521273851395e-02
-5.563453957438468933e-02
1.158847473561763763e-02
7.763555645942687988e-02
2.985943108797073364e-02
-7.150508463382720947e-02
7.734854519367218018e-02
4.362386465072631836e-02
-6.552810221910476685e-02
-2.582320384681224823e-02
7.076226919889450073e-02
-6.879886612296104431e-03
-3.791611641645431519e-02
7.832320034503936768e-02
3.605863824486732483e-02
-1.193103101104497910e-02
3.900561481714248657e-02
-2.732405904680490494e-03
-6.148934736847877502e-02
5.364362150430679321e-02
6.980944424867630005e-02
3.466860204935073853e-02
-6.415709387511014938e-03
7.520395517349243164e-02
-8.686062693595886230e-02
-4.867124930024147034e-02
-3.347744420170783997e-02
-4.529111087322235107e-02
-6.443384289741516113e-02
7.561379671096801758e-02
3.013690933585166931e-03
3.589709103107452393e-02
-3.916558250784873962e-02
4.269576445221900940e-02
-4.213719442486763000e-02
-2.095956727862358093e-02
-2.770439314190298319e-04
8.761764317750930786e-02
-6.944081187248229980e-02
2.348062768578529358e-02
8.231829851865768433e-03
4.540178179740905762e-02
-1.188698410987854004e-02
-4.316186904907226562e-02
4.256909340620040894e-02
-4.346970096230506897e-02
-6.996361911296844482e-02
-9.036418050527572632e-02
3.696573525667190552e-02
1.878866367042064667e-02
-1.332971267402172089e-02
-5.482541397213935852e-02
7.983423769474029541e-02
7.848008722066879272e-02
-3.629300743341445923e-02
4.143047332763671875e-02
-5.268156528472900391e-02
-5.789976194500923157e-02
-4.139036871492862701e-03
1.960361190140247345e-02
-8.388779312372207642e-02
-2.510411292314529419e-02
-6.451980769634246826e-02
-8.692568517290055752e-04
-1.781531609594821930e-03
2.114399336278438568e-02
-1.209639594890177250e-03
3.639656677842140198e-02
7.755611091852188110e-02
2.115244418382644653e-02
7.800103724002838135e-02
-8.057558536529541016e-02
-4.327551927417516708e-03
-2.097767719533294439e-04
-6.709799915552139282e-02
-2.666576765477657318e-02
-5.141283571720123291e-02
-1.673132297582924366e-03
3.399380296468734741e-02
1.773777417838573456e-02
-7.772271335124969482e-02
1.817664830014109612e-03
2.124645048752427101e-03
-5.619961023330688477e-02
-1.969779469072818756e-02
8.289925754070281982e-03
-8.470661193132400513e-02
-5.955335125327110291e-02
-1.643527671694755554e-02
-6.516977399587631226e-02
-5.158587917685508728e-02
-9.213391691446304321e-02
1.125933229923248291e-02
-2.102307975292205811e-02
5.209904629737138748e-03
-7.853513211011886597e-02
-9.939595125615596771e-03
7.646141201257705688e-02
-4.164822399616241455e-02
-9.081025491468608379e-04
7.510551065206527710e-02
-7.162972539663314819e-02
-5.204774066805839539e-02
-5.204046890139579773e-02
9.904598444700241089e-02
5.887328833341598511e-02
1.404118817299604416e-02
7.887065410614013672e-03
8.904340863227844238e-02
8.814635127782821655e-02
-4.626971483230590820e-02
2.825972065329551697e-02
-5.743028223514556885e-02
-4.968471452593803406e-02
-7.694402337074279785e-02
3.816742217168211937e-03
-3.267257288098335266e-02
-3.398251906037330627e-02
4.285864159464836121e-02
1.085709407925605774e-02
-9.852936491370201111e-03
-1.950834877789020538e-02
3.700641542673110962e-02
3.457435220479965210e-02
-1.598250237293541431e-04
-6.485954672098159790e-02
-1.882037334144115448e-02
5.635742843151092529e-02
-5.215065926313400269e-02
-7.524772733449935913e-02
6.059491261839866638e-02
-6.492467224597930908e-02
8.186004310846328735e-02
-9.924342855811119080e-03
1.141894795000553131e-02
-3.178597241640090942e-02
-3.365479782223701477e-02
2.781447581946849823e-02
7.591060549020767212e-02
-4.588333517313003540e-02
7.227656990289688110e-02
-7.656198740005493164e-02
-8.117020875215530396e-02
-1.701621152460575104e-02
2.947061788290739059e-03
1.775589771568775177e-02
-6.497437134385108948e-03
6.084057316184043884e-02
2.342728897929191589e-02
-6.815578043460845947e-02
3.102158382534980774e-02
6.902306526899337769e-02
-4.801923781633377075e-02
1.072029210627079010e-02
5.538824200630187988e-02
5.931094661355018616e-02
-1.701145060360431671e-02
1.085000559687614441e-01
-2.777850255370140076e-03
2.560283988714218140e-02
-5.093834549188613892e-02
2.794119156897068024e-02
-4.801947250962257385e-02
-4.544149339199066162e-02
-5.809505004435777664e-03
7.002317905426025391e-02
-7.536560297012329102e-02
2.333936095237731934e-02
4.283908009529113770e-02
6.917329877614974976e-02
6.431363988667726517e-03
-4.340310022234916687e-02
8.057161420583724976e-02
-6.607778370380401611e-02
-5.684572085738182068e-02
-4.116765782237052917e-02
-6.434152275323867798e-02
7.674224674701690674e-02
4.771921783685684204e-02
8.641937375068664551e-02
8.555373176932334900e-03
1.820285804569721222e-02
-3.495205566287040710e-02
3.181863948702812195e-02
-8.248357474803924561e-02
5.008238554000854492e-02
2.718899212777614594e-02
-9.767539799213409424e-03
4.587337374687194824e-02
2.542209252715110779e-02
2.327417954802513123e-02
-5.071292445063591003e-02
-7.926499098539352417e-02
3.351628314703702927e-03
-4.481044039130210876e-02
-2.128690853714942932e-02
3.854394704103469849e-02
-7.612489163875579834e-03
4.743423685431480408e-02
-7.951258122920989990e-02
1.043757051229476929e-02
4.707022383809089661e-02
-3.659594804048538208e-02
-8.530043810606002808e-02
6.264701485633850098e-02
-3.021792694926261902e-02
-5.918686836957931519e-02
-7.507731765508651733e-02
4.696663841605186462e-02
-1.777945831418037415e-02
1.455887965857982635e-02
7.523336261510848999e-02
4.266196861863136292e-02
-3.884487599134445190e-02
-7.660757750272750854e-02
6.449807435274124146e-02
-8.593885600566864014e-02
1.189660560339689255e-02
-2.897335961461067200e-02
-4.318155720829963684e-02
-3.633456304669380188e-03
7.879480719566345215e-02
6.054970622062683105e-02
-3.086612746119499207e-02
-4.615953937172889709e-02
-6.880547851324081421e-02
5.195660516619682312e-02
2.135976962745189667e-02
-2.552956342697143555e-02
6.409670412540435791e-02
-9.912848472595214844e-02
7.114359736442565918e-02
-4.572197049856185913e-02
2.041555754840373993e-02
9.518196433782577515e-02
-3.479786217212677002e-02
-9.192411601543426514e-02
-5.426413565874099731e-02
5.758334323763847351e-02
6.973800808191299438e-02
3.265503421425819397e-02
6.218557059764862061e-02
7.338069844990968704e-03
8.911915868520736694e-02
-6.045525521039962769e-02
3.564887866377830505e-02
-4.610824584960937500e-02
-8.283337205648422241e-02
5.333232879638671875e-02
-1.712789759039878845e-02
1.122952718287706375e-02
1.045971959829330444e-01
6.373186409473419189e-02
-3.507276996970176697e-02
-4.812621977180242538e-03
4.673613701015710831e-03
-3.005572222173213959e-02
-1.807543449103832245e-02
-5.491278693079948425e-02
2.625474892556667328e-02
-5.320314690470695496e-02
6.542089581489562988e-02
3.125964105129241943e-02
-7.262882590293884277e-02
8.849272131919860840e-02
-9.016690775752067566e-03
-2.366204535064753145e-05
-8.236096054315567017e-02
-5.516339465975761414e-02
-5.135212838649749756e-02
-1.424091774970293045e-02
1.098923385143280029e-02
-3.962950035929679871e-02
-6.354084610939025879e-02
1.630218885838985443e-02
-6.338174641132354736e-02
5.437148362398147583e-02
2.776286192238330841e-02
2.942505106329917908e-02
-7.305300980806350708e-02
6.734102964401245117e-02
1.852716319262981415e-02
-6.991558521986007690e-02
5.467925220727920532e-02
7.507764548063278198e-02
2.173078060150146484e-02
3.345801308751106262e-02
8.039874583482742310e-02
-2.947174012660980225e-02
-2.883038111031055450e-02
-7.922468334436416626e-02
-3.443624824285507202e-02
-7.989433407783508301e-02
3.328894078731536865e-02
4.228587821125984192e-02
-1.839002408087253571e-02
-3.898531198501586914e-02
1.306630950421094894e-02
8.237836509943008423e-02
2.838339656591415405e-02
-7.926043868064880371e-02
-3.196289995685219765e-03
-7.694443315267562866e-02
4.161806404590606689e-02
2.109911059960722923e-03
2.574146538972854614e-02
-5.802955478429794312e-02
6.390631664544343948e-03
-3.076982218772172928e-03
2.160429581999778748e-02
2.634914219379425049e-02
6.285195052623748779e-02
8.292590826749801636e-02
-8.119085431098937988e-02
-1.065776199102401733e-01
-2.594684436917304993e-02
-2.596328407526016235e-02
5.978354439139366150e-02
8.075132966041564941e-02
-5.600550677627325058e-03
-4.197709262371063232e-02
6.077817082405090332e-02
2.439854294061660767e-02
-8.788487873971462250e-03
-4.660086333751678467e-02
2.688925713300704956e-03
-9.138218127191066742e-03
4.225935414433479309e-02
-7.098030298948287964e-03
4.395496100187301636e-02
7.571234554052352905e-02
-7.240603864192962646e-02
3.419889882206916809e-02
5.219758301973342896e-02
-6.589192152023315430e-02
-9.688704274594783783e-03
6.660537421703338623e-02
2.020318247377872467e-02
6.888058036565780640e-02
5.809684470295906067e-02
5.734411999583244324e-02
2.658166736364364624e-02
-1.563765108585357666e-02
-2.347177825868129730e-02
6.584642082452774048e-02
5.927795916795730591e-02
4.399772360920906067e-02
8.086710423231124878e-02
-8.176494389772415161e-02
-1.120193488895893097e-02
-1.753429509699344635e-02
3.953874856233596802e-02
-3.363294899463653564e-02
9.234958142042160034e-02
6.164204329252243042e-02
9.052151814103126526e-03
5.560204014182090759e-02
2.610793150961399078e-02
-3.851628676056861877e-02
8.151715248823165894e-02
7.617576420307159424e-02
-7.380162179470062256e-02
4.377793520689010620e-02
-7.067234069108963013e-02
-6.196546182036399841e-02
4.113509319722652435e-03
7.666365802288055420e-02
-1.154255028814077377e-02
-2.168767899274826050e-02
-4.450627788901329041e-02
1.516380440443754196e-02
-8.529888093471527100e-02
-6.728832423686981201e-02
-8.694487810134887695e-02
-4.646547883749008179e-02
-5.156154930591583252e-02
3.967937454581260681e-02
3.136253356933593750e-02
2.065710490569472313e-03
6.271106004714965820e-02
7.632498443126678467e-02
-4.079980403184890747e-02
-1.357855182141065598e-02
8.435161411762237549e-02
2.297970466315746307e-02
4.838248342275619507e-02
-4.737935587763786316e-02
-3.987943381071090698e-02
9.354237467050552368e-02
6.831649690866470337e-02
1.484062429517507553e-02
5.518237873911857605e-02
-2.123454771935939789e-02
-9.093464165925979614e-02
6.561563163995742798e-02
4.782129079103469849e-03
6.044141575694084167e-02
1.271782442927360535e-03
-4.777204990386962891e-02
2.294517122209072113e-02
1.752428710460662842e-02
9.083428978919982910e-02
-6.554070860147476196e-02
-5.823175981640815735e-02
2.549663558602333069e-02
-2.846141718327999115e-02
5.927410349249839783e-02
8.059640228748321533e-02
-4.370681941509246826e-02
-3.162937983870506287e-02
3.758405894041061401e-02
3.537886962294578552e-02
6.742779165506362915e-02
-1.557434722781181335e-02
-1.519948337227106094e-02
2.255427278578281403e-02
-4.790528118610382080e-02
-6.121888384222984314e-02
-3.906639292836189270e-02
-3.827294101938605309e-03
-6.220295280218124390e-02
6.410739570856094360e-02
-8.440082520246505737e-02
3.801870346069335938e-02
4.410505294799804688e-02
3.157142549753189087e-02
6.032376550137996674e-03
1.805914752185344696e-02
6.525008007884025574e-03
-3.210793063044548035e-02
-6.412813067436218262e-02
-5.996288359165191650e-02
7.242384552955627441e-02
2.632534131407737732e-03
-3.278214484453201294e-02
9.741519391536712646e-02
7.040477823466062546e-03
-7.778144627809524536e-02
4.164848849177360535e-02
7.612793892621994019e-02
6.629734300076961517e-03
-2.586596459150314331e-02
-5.857232958078384399e-02
5.860089510679244995e-02
5.659295618534088135e-02
3.312207385897636414e-02
8.629097789525985718e-02
5.849041417241096497e-02
-8.355134166777133942e-03
2.162283845245838165e-02
-7.928521931171417236e-02
-6.371141970157623291e-02
-3.798792883753776550e-02
3.680083900690078735e-02
-7.892278581857681274e-02
8.207529783248901367e-02
1.240261830389499664e-02
-1.528871152549982071e-02
7.167527079582214355e-02
-3.440955281257629395e-02
-3.263637656345963478e-03
-4.210094735026359558e-02
2.611243911087512970e-02
3.841586038470268250e-02
5.617154389619827271e-02
2.137083746492862701e-02
-2.046949602663516998e-02
1.019907519221305847e-01
3.838683664798736572e-02
-4.424066469073295593e-02
-1.977697946131229401e-02
-1.964898966252803802e-02
3.468714421615004539e-03
-5.816422402858734131e-02
4.095071554183959961e-02
-8.324397355318069458e-02
-1.286784745752811432e-02
-2.170342952013015747e-02
-7.082964479923248291e-02
6.714491546154022217e-02
-8.080276846885681152e-02
1.823455840349197388e-02
3.683486953377723694e-02
1.810513553209602833e-03
2.853423170745372772e-02
-4.149814695119857788e-02
5.199721083045005798e-02
-7.352005690336227417e-02
5.425580590963363647e-02
-7.319996505975723267e-02
-5.714575946331024170e-02
-2.132706157863140106e-02
7.373224198818206787e-02
6.788849085569381714e-02
8.968748897314071655e-02
-5.884687975049018860e-02
-5.499091371893882751e-02
6.599775701761245728e-02
5.218890309333801270e-02
-3.696403279900550842e-02
3.304029628634452820e-02
-9.325413405895233154e-02
2.186574786901473999e-02
-1.486932113766670227e-02
2.882314287126064301e-02
-3.813245892524719238e-02
2.428620308637619019e-02
-1.176611240953207016e-02
-6.871736049652099609e-02
-6.654057651758193970e-02
5.781748145818710327e-02
-1.763728260993957520e-02
-5.200366303324699402e-02
-6.810146570205688477e-02
9.361583739519119263e-02
7.129313796758651733e-02
-5.585185438394546509e-02
4.785228148102760315e-02
4.456315189599990845e-02
8.451090194284915924e-03
5.505922436714172363e-02
7.831120491027832031e-02
6.677688658237457275e-02
2.662055566906929016e-02
4.791355878114700317e-02
-3.747485205531120300e-02
6.422207504510879517e-02
-1.497941184788942337e-02
-7.309079915285110474e-02
-5.015422776341438293e-02
-7.301415503025054932e-02
-6.926331669092178345e-02
6.850161403417587280e-02
7.993767410516738892e-02
5.104962736368179321e-02
7.973428815603256226e-02
-1.245855353772640228e-02
7.886796444654464722e-02
-5.054588243365287781e-02
-6.826841831207275391e-02
-5.110317841172218323e-02
9.635061770677566528e-02
-7.528334110975265503e-02
-4.216299392282962799e-03
-6.010528653860092163e-02
3.318279609084129333e-02
-6.562168151140213013e-02
3.616704046726226807e-02
-5.593486130237579346e-02
-9.814804792404174805e-02
2.814368717372417450e-02
1.435741595923900604e-02
9.036410599946975708e-03
4.091110825538635254e-02
9.270041435956954956e-02
-1.517604757100343704e-02
4.899394139647483826e-02
-2.828588709235191345e-02
3.001753613352775574e-02
4.343312606215476990e-02
7.115112245082855225e-02
-7.257896661758422852e-02
-3.626247122883796692e-02
-3.529667481780052185e-02
-5.798931792378425598e-02
6.034965813159942627e-02
3.490302339196205139e-02
1.242954004555940628e-02
3.393783792853355408e-02
2.219581417739391327e-02
-4.317698255181312561e-02
1.922939158976078033e-02
-2.065506763756275177e-02
6.993286777287721634e-03
3.124929964542388916e-02
1.714195683598518372e-02
-2.839999087154865265e-02
3.562398999929428101e-02
5.690431594848632812e-02
-8.270693570375442505e-02
7.037296146154403687e-02
7.678677141666412354e-02
1.287849061191082001e-02
2.377627417445182800e-02
-5.837456509470939636e-02
-3.977433219552040100e-02
3.189396858215332031e-02
6.560664623975753784e-02
-5.899135395884513855e-02
1.771531254053115845e-02
-2.001415379345417023e-02
-7.673860341310501099e-02
-4.464637860655784607e-02
-4.855102300643920898e-02
-6.428050249814987183e-02
5.419424548745155334e-02
-4.553790390491485596e-02
-6.372958421707153320e-02
-1.555833220481872559e-02
4.863889887928962708e-02
-3.240764886140823364e-02
-2.142363227903842926e-02
-2.740437909960746765e-02
-3.886618837714195251e-02
4.796407744288444519e-02
-3.514505177736282349e-02
5.773731321096420288e-02
-2.794424444437026978e-02
-6.304917391389608383e-03
-4.701355844736099243e-02
3.237049793824553490e-03
-3.253249451518058777e-02
2.655386179685592651e-02
-1.236465480178594589e-02
-5.445007607340812683e-02
7.356848567724227905e-02
-7.684171665459871292e-03
2.129673399031162262e-02
-9.439622610807418823e-02
4.441536962985992432e-03
-3.471609577536582947e-02
4.259891062974929810e-02
1.004774402827024460e-02
5.327083170413970947e-02
2.828981913626194000e-02
-4.981320351362228394e-03
-4.523682966828346252e-02
-1.918099634349346161e-02
4.546221718192100525e-02
3.169340640306472778e-02
1.386501081287860870e-02
-3.375018760561943054e-02
-2.907508425414562225e-02
-7.032728940248489380e-02
-6.197940558195114136e-02
7.797339558601379395e-02
4.816575720906257629e-02
3.889970481395721436e-02
2.523757750168442726e-03
2.412355504930019379e-02
-6.421332806348800659e-02
8.000879734754562378e-02
3.604109957814216614e-02
4.384615272283554077e-02
-6.945825880393385887e-04
8.067148178815841675e-02
3.436709055677056313e-03
-8.738396316766738892e-02
-9.647087752819061279e-02
2.882754430174827576e-02
6.366234272718429565e-02
4.152062907814979553e-02
-6.695060990750789642e-03
-6.294690817594528198e-02
4.645646736025810242e-02
-3.498675674200057983e-02
4.216840490698814392e-02
2.334646321833133698e-02
-7.348813116550445557e-02
7.638593763113021851e-02
-7.827779650688171387e-02
-5.377855524420738220e-02
5.076564848423004150e-03
2.601877599954605103e-02
-6.230366602540016174e-02
-1.901541603729128838e-03
1.460270956158638000e-02
-7.244214415550231934e-02
5.121608078479766846e-02
6.679828464984893799e-02
7.926423847675323486e-02
-1.385454321280121803e-03
3.413873538374900818e-02
7.368949800729751587e-02
8.096432685852050781e-02
-7.683545351028442383e-02
7.408042997121810913e-02
-8.310151100158691406e-02
1.320042274892330170e-02
1.613188721239566803e-02
1.143163628876209259e-02
-8.895810693502426147e-02
4.050466045737266541e-02
7.190179824829101562e-02
4.884615167975425720e-02
-8.285579830408096313e-02
3.666567057371139526e-02
-5.590490996837615967e-02
5.856658890843391418e-02
-4.550378769636154175e-02
-7.704055309295654297e-02
-7.295323163270950317e-02
4.756631329655647278e-02
-4.446076974272727966e-02
2.714894525706768036e-02
-3.946579527109861374e-04
-7.969295233488082886e-02
-1.407300680875778198e-02
-4.777125269174575806e-02
-4.890464991331100464e-02
-2.927595190703868866e-02
1.610166765749454498e-02
-8.673704415559768677e-02
-7.190394401550292969e-02
-7.596566528081893921e-02
5.799448117613792419e-02
-3.101949021220207214e-02
-1.090138591825962067e-02
-8.148115873336791992e-02
-4.612342640757560730e-02
-7.879976183176040649e-02
3.219749778509140015e-02
8.497121743857860565e-03
1.371876429766416550e-02
1.756671816110610962e-02
3.013487346470355988e-02
-8.807095885276794434e-02
-6.967496126890182495e-02
2.393970638513565063e-02
-8.822205662727355957e-02
-7.992166280746459961e-02
3.966828808188438416e-04
-4.570566117763519287e-02
-3.287699446082115173e-02
-5.524235591292381287e-02
3.343485994264483452e-03
-3.179582953453063965e-02
-7.084439694881439209e-02
7.550603151321411133e-02
4.528970271348953247e-02
2.383521199226379395e-02
-2.542479708790779114e-02
3.073288127779960632e-02
2.619774080812931061e-02
-4.191728681325912476e-02
5.079017207026481628e-02
-4.827477037906646729e-02
1.119433157145977020e-02
6.390341371297836304e-02
-2.156950719654560089e-02
-1.079910248517990112e-02
-4.210067540407180786e-02
-7.869066298007965088e-02
-5.111755803227424622e-02
4.578146338462829590e-02
-6.912945210933685303e-02
6.424044072628021240e-02
-9.264888241887092590e-03
-8.810105174779891968e-02
-5.825325381010770798e-03
-8.145597577095031738e-02
6.954685598611831665e-02
1.315468363463878632e-02
2.264444530010223389e-02
1.854308880865573883e-02
-4.106850922107696533e-02
4.379341006278991699e-02
-6.358668953180313110e-02
4.291749000549316406e-02
3.854602575302124023e-02
-3.353119269013404846e-02
-4.259628802537918091e-02
3.653935715556144714e-02
-4.889640584588050842e-02
1.950533129274845123e-02
-6.561993062496185303e-02
7.493373006582260132e-02
5.642314627766609192e-02
7.699342817068099976e-02
-8.181641250848770142e-02
-2.652424760162830353e-02
-4.850296676158905029e-02
-5.004887655377388000e-02
2.924664877355098724e-02
3.293541818857192993e-02
-3.272015368565917015e-03
-5.478172749280929565e-02
4.481938481330871582e-02
-5.880174785852432251e-02
-3.427833691239356995e-02
7.960568368434906006e-02
-2.231038175523281097e-02
6.160457432270050049e-02
6.959312409162521362e-02
2.830908074975013733e-02
-4.130229726433753967e-02
-5.283766984939575195e-02
8.416613191366195679e-02
6.746396422386169434e-02
-6.903766840696334839e-02
-2.181973122060298920e-02
-3.646983951330184937e-02
-5.052489787340164185e-02
-6.912297010421752930e-02
6.028750166296958923e-02
6.749054789543151855e-02
3.834698349237442017e-02
8.835615962743759155e-02
-8.643927425146102905e-02
3.889311105012893677e-03
-9.291931055486202240e-03
-6.653477251529693604e-02
8.183613419532775879e-02
-4.525689408183097839e-02
5.463216081261634827e-02
-8.442453294992446899e-02
-8.721712231636047363e-02
-5.206661298871040344e-02
4.955600574612617493e-02
-6.015003472566604614e-02
3.725722432136535645e-02
8.521106094121932983e-03
-6.527683138847351074e-02
7.714217901229858398e-02
7.558073103427886963e-02
6.192040815949440002e-02
-5.660537257790565491e-02
-6.889082491397857666e-02
-7.152353972196578979e-02
-3.936982527375221252e-02
-1.129358541220426559e-02
-3.839537501335144043e-02
6.564354896545410156e-02
-6.978413462638854980e-02
-8.553759753704071045e-02
2.991966344416141510e-02
1.678955182433128357e-02
7.045461237430572510e-02
4.551865160465240479e-03
6.129205971956253052e-02
-7.657705992460250854e-02
1.523969508707523346e-02
-9.284951724112033844e-03
-3.638432547450065613e-02
-3.942780569195747375e-02
-1.930262334644794464e-02
8.499447256326675415e-02
-5.095118284225463867e-02
-7.738616317510604858e-02
1.486341468989849091e-03
-5.600289255380630493e-02
7.265546172857284546e-02
-5.060308054089546204e-02
8.260487020015716553e-02
-1.361675187945365906e-02
-4.237537831068038940e-02
-2.155945077538490295e-02
6.462565064430236816e-02
-7.791551202535629272e-02
8.506807684898376465e-02
7.973260432481765747e-02
-6.882856041193008423e-02
3.765700012445449829e-02
-8.705035597085952759e-02
-2.446790784597396851e-02
2.595400065183639526e-02
-8.670387417078018188e-02
-3.419828368350863457e-03
-4.507005587220191956e-02
-6.373271346092224121e-02
-8.162178844213485718e-02
-3.937083482742309570e-02
-1.564262807369232178e-02
1.459601894021034241e-02
1.494555268436670303e-02
-1.499569602310657501e-02
6.458348035812377930e-02
-6.989784538745880127e-02
-6.869478523731231689e-02
-2.344812452793121338e-02
-6.444635242223739624e-02
-3.894396126270294189e-02
-5.337871983647346497e-02
-6.160058453679084778e-02
-7.322634756565093994e-02
4.987762495875358582e-02
-8.420461416244506836e-02
-8.652449399232864380e-02
6.936858594417572021e-02
-4.791010543704032898e-02
7.564439624547958374e-02
-1.277016662061214447e-02
-5.579111725091934204e-02
6.476385891437530518e-02
8.258334547281265259e-02
1.001707166433334351e-01
-4.081058874726295471e-02
1.994962431490421295e-02
4.471729695796966553e-02
1.975425891578197479e-02
5.883921682834625244e-02
-5.450934916734695435e-02
7.281880080699920654e-02
5.446561425924301147e-02
8.674789220094680786e-02
4.065597802400588989e-02
7.469660788774490356e-02
5.303596332669258118e-02
4.025240615010261536e-02
1.975038088858127594e-02
-2.107282727956771851e-02
-3.143771365284919739e-02
6.432145833969116211e-02
2.943993732333183289e-02
6.625718623399734497e-02
6.547848135232925415e-02
8.103923499584197998e-02
-8.873075246810913086e-03
3.867559507489204407e-02
-1.817256677895784378e-03
1.033744961023330688e-02
7.858787663280963898e-03
-8.770860731601715088e-02
4.609336704015731812e-02
2.672129124402999878e-02
-4.852781072258949280e-02
-2.960649318993091583e-03
-6.627974659204483032e-02
3.883843868970870972e-02
-6.294512003660202026e-02
6.425920873880386353e-02
1.824807259254157543e-04
3.198620304465293884e-02
1.991810277104377747e-02
4.070866107940673828e-02
1.768140704371035099e-03
-4.306129645556211472e-03
-8.146876096725463867e-02
-8.152678608894348145e-02
5.666960030794143677e-02
-5.315362662076950073e-02
4.369138181209564209e-02
8.247777074575424194e-02
2.182790450751781464e-02
1.192495599389076233e-02
4.402641579508781433e-02
3.177090361714363098e-02
-3.904280811548233032e-02
-3.311415761709213257e-02
-1.810435764491558075e-02
3.722639381885528564e-02
4.355339333415031433e-02
4.217917099595069885e-02
-1.744799315929412842e-02
-7.370208948850631714e-02
-4.955784976482391357e-02
-3.958279266953468323e-02
7.929278165102005005e-02
-2.214763127267360687e-02
2.683990821242332458e-02
-2.378934249281883240e-02
-3.861408680677413940e-02
-4.836246371269226074e-03
-1.270701922476291656e-02
-6.518588215112686157e-02
4.232771694660186768e-02
-2.630232647061347961e-02
1.118314359337091446e-02
5.364222079515457153e-02
-4.586699977517127991e-02
-4.868290573358535767e-02
3.354117646813392639e-02
7.643853127956390381e-02
-3.532604500651359558e-02
-2.747074700891971588e-02
7.520529907196760178e-03
7.994315773248672485e-02
6.370986253023147583e-02
5.657709389925003052e-02
-1.700264215469360352e-02
2.342898398637771606e-02
2.642913954332470894e-03
-2.631546370685100555e-02
5.178399384021759033e-02
4.601652175188064575e-02
1.365873310714960098e-02
8.789978176355361938e-02
-8.850681781768798828e-02
-7.113768160343170166e-02
-2.532125823199748993e-02
5.750629305839538574e-02
-3.028497286140918732e-02
-8.420631289482116699e-02
-4.792726784944534302e-02
-1.777969766408205032e-03
2.980417571961879730e-02
-3.740031272172927856e-02
-2.309966273605823517e-02
2.190847322344779968e-02
2.187066525220870972e-02
6.537877768278121948e-02
6.700251251459121704e-02
6.930394470691680908e-02
5.274754390120506287e-02
6.796852499246597290e-02
-5.073298513889312744e-02
3.168531879782676697e-02
-4.847370460629463196e-02
-3.027609363198280334e-02
-5.985853448510169983e-02
-7.975814491510391235e-02
-3.351769596338272095e-02
-9.124509245157241821e-02
2.209083363413810730e-02
7.222216576337814331e-02
-4.339285194873809814e-02
-3.885681927204132080e-02
1.966812647879123688e-02
8.003305643796920776e-02
1.286358945071697235e-02
-2.794409729540348053e-02
4.380580782890319824e-02
-1.695667952299118042e-02
-1.881005242466926575e-02
-9.865351021289825439e-02
-9.070195257663726807e-02
-3.602517023682594299e-02
-3.356206044554710388e-02
-7.055995613336563110e-02
-5.568086355924606323e-02
-8.033543825149536133e-02
-8.345312625169754028e-02
2.884314209222793579e-02
4.221382737159729004e-02
-6.304533779621124268e-02
-7.929045706987380981e-02
8.672085404396057129e-02
-6.143247336149215698e-02
-2.807364240288734436e-02
-8.070699125528335571e-02
-8.458728343248367310e-02
3.195810690522193909e-02
3.105370327830314636e-02
-1.005916595458984375e-01
-1.821035519242286682e-02
-4.652971774339675903e-02
-3.474661335349082947e-02
6.043853238224983215e-02
-6.289698183536529541e-02
7.855222374200820923e-02
2.016896940767765045e-02
2.082592993974685669e-02
6.866277009248733521e-02
7.038816064596176147e-02
-5.408124998211860657e-02
-2.837830036878585815e-02
4.055327177047729492e-02
4.298401251435279846e-02
1.708711124956607819e-02
5.418166518211364746e-02
-3.149294108152389526e-02
-1.821842417120933533e-02
2.091312035918235779e-02
-2.389913424849510193e-02
3.696905076503753662e-02
3.685082122683525085e-02
-8.010590821504592896e-02
-5.587799847126007080e-02
4.052258282899856567e-02
-7.771907001733779907e-02
3.934169933199882507e-02
6.749974936246871948e-02
9.145411662757396698e-03
-6.349994242191314697e-02
-1.112876925617456436e-02
-7.631643861532211304e-02
-3.246554173529148102e-03
-5.368814337998628616e-03
-1.392898987978696823e-02
-9.068578481674194336e-02
-6.836704164743423462e-02
-8.113826811313629150e-02
2.691195346415042877e-02
-5.683490540832281113e-03
-6.044324859976768494e-02
-4.681723192334175110e-02
1.272833906114101410e-02
-8.676665276288986206e-02
7.646402716636657715e-02
6.495423614978790283e-02
1.748657412827014923e-02
-5.870146304368972778e-02
2.276747301220893860e-02
-5.593866854906082153e-02
7.260145246982574463e-02
2.388170361518859863e-02
8.834618330001831055e-02
-2.465922757983207703e-02
-7.492687553167343140e-02
6.953090429306030273e-02
7.498390972614288330e-02
-3.134770318865776062e-02
-1.456669066101312637e-02
5.653455853462219238e-02
-4.718874767422676086e-02
2.263408899307250977e-02
7.801518589258193970e-02
3.239132836461067200e-02
7.997181266546249390e-02
7.225004583597183228e-02
-5.597136169672012329e-02
6.858757138252258301e-02
2.655240520834922791e-02
-6.916515529155731201e-02
5.848530307412147522e-02
-3.845628350973129272e-02
-2.925894223153591156e-02
-1.367028802633285522e-02
-4.209582507610321045e-02
8.863304741680622101e-03
-2.603934891521930695e-02
6.341398111544549465e-04
7.777706719934940338e-03
4.409097880125045776e-02
-1.492142956703901291e-02
-8.278863877058029175e-02
4.889903962612152100e-02
-7.996239513158798218e-02
-2.253633923828601837e-03
-3.386070206761360168e-02
1.550424785818904638e-04
1.654722914099693298e-02
-6.681913137435913086e-02
-3.074032627046108246e-02
1.156040001660585403e-02
6.678738445043563843e-02
-6.875954568386077881e-02
1.935065351426601410e-02
9.902946650981903076e-03
4.224199056625366211e-02
5.673379823565483093e-02
-3.725544316694140434e-03
-6.452540401369333267e-03
6.616780906915664673e-02
-5.687575414776802063e-02
6.621211022138595581e-02
9.178465604782104492e-02
6.813737004995346069e-02
3.395052999258041382e-02
-8.798936009407043457e-02
8.030017465353012085e-02
-1.721009262837469578e-03
-1.475848164409399033e-02
-3.796570003032684326e-02
-4.159165173768997192e-02
-7.713660597801208496e-02
-2.063384652137756348e-02
4.035155847668647766e-02
7.061699777841567993e-02
-6.607613759115338326e-04
-6.339659541845321655e-02
-7.145094871520996094e-02
3.490864858031272888e-02
1.444779057055711746e-02
4.546373710036277771e-02
7.274261862039566040e-02
9.567705541849136353e-02
-8.622562885284423828e-02
5.921107903122901917e-02
5.830118805170059204e-02
-4.462062940001487732e-02
-5.013677105307579041e-02
5.157943814992904663e-02
4.957090690732002258e-02
2.006151713430881500e-02
7.181067019701004028e-02
-3.627439960837364197e-02
1.440121512860059738e-02
8.287340402603149414e-02
4.760096594691276550e-02
-6.194038316607475281e-02
-5.392036214470863342e-02
7.451197132468223572e-03
-3.294662758708000183e-02
6.590887159109115601e-02
9.587369859218597412e-02
-3.653181344270706177e-02
-1.203265972435474396e-02
-7.870689779520034790e-02
8.576556295156478882e-02
9.614966809749603271e-02
-4.810982197523117065e-02
2.036592178046703339e-02
-5.468485504388809204e-02
2.296905219554901123e-02
-7.718561589717864990e-02
-1.635795459151268005e-02
-5.944064632058143616e-02
-8.723146468400955200e-02
2.290843240916728973e-02
-4.806568473577499390e-02
-1.364101562649011612e-02
4.791458696126937866e-02
-5.593906342983245850e-02
-4.606437683105468750e-02
3.976331278681755066e-02
-2.653483860194683075e-02
-1.446786988526582718e-02
6.726443767547607422e-02
3.916367515921592712e-02
1.735297776758670807e-02
2.237629517912864685e-02
-8.311990648508071899e-02
1.991025172173976898e-02
6.146818026900291443e-02
7.434394955635070801e-02
4.222445189952850342e-02
-3.704583272337913513e-02
9.485293924808502197e-02
-7.301697880029678345e-02
-9.380929172039031982e-03
1.731964992359280586e-03
-8.240053802728652954e-02
4.772806540131568909e-02
-2.261247672140598297e-02
-1.620280742645263672e-02
-7.395564764738082886e-02
-1.143025085330009460e-01
9.059716947376728058e-03
-2.950545400381088257e-03
3.700584918260574341e-02
-9.643785655498504639e-02
-6.362644955515861511e-03
3.157255053520202637e-02
4.842306673526763916e-02
7.661526650190353394e-02
8.152198791503906250e-02
7.150477916002273560e-02
2.047323808073997498e-02
-7.902637124061584473e-02
2.643700456246733665e-03
-4.866597009822726250e-04
-7.287748157978057861e-02
5.614294856786727905e-02
5.764213576912879944e-02
-7.187117636203765869e-02
1.327016204595565796e-02
-8.415504544973373413e-02
6.985850632190704346e-02
-6.791131943464279175e-02
-2.502063987776637077e-03
3.781460598111152649e-02
6.316905841231346130e-03
9.617776423692703247e-02
-6.755951046943664551e-02
-1.622415892779827118e-02
-5.764549598097801208e-02
6.437169760465621948e-02
4.847974330186843872e-02
-2.325938828289508820e-02
-9.652692824602127075e-02
2.341833151876926422e-02
2.469325251877307892e-02
-1.223559956997632980e-02
8.921559154987335205e-02
7.141651958227157593e-02
5.846987292170524597e-02
5.291284248232841492e-02
-9.146279841661453247e-02
-3.320832923054695129e-02
3.894297033548355103e-02
5.503800231963396072e-03
1.571269892156124115e-02
6.583120673894882202e-02
1.571128517389297485e-02
-1.300466340035200119e-02
-6.126283854246139526e-02
-5.123615637421607971e-02
-4.256279766559600830e-02
-4.508118703961372375e-02
-3.158681327477097511e-03
-4.479188844561576843e-02
9.011948853731155396e-02
5.357043445110321045e-02
-2.879306487739086151e-02
5.846293643116950989e-02
-6.812264211475849152e-03
-5.990443751215934753e-02
2.504717931151390076e-02
8.446916472166776657e-04
-2.791186608374118805e-02
7.800671458244323730e-02
-4.327149689197540283e-02
4.030234739184379578e-02
-7.909576594829559326e-02
2.652587741613388062e-02
5.415304377675056458e-02
2.265885844826698303e-02
-3.972251899540424347e-03
8.322824537754058838e-02
7.550246268510818481e-02
-4.788030683994293213e-02
-2.758621238172054291e-02
-8.466000854969024658e-02
-4.678967595100402832e-02
-4.960107430815696716e-02
2.655479870736598969e-02
9.539336711168289185e-02
-4.821602627635002136e-02
-6.263269484043121338e-02
-5.959357693791389465e-02
-3.668922185897827148e-02
-6.546131521463394165e-02
1.981737837195396423e-02
-1.142640933394432068e-01
-3.604041785001754761e-02
-9.076160937547683716e-02
2.833613380789756775e-02
1.543095149099826813e-02
-7.900465279817581177e-02
1.834871433675289154e-02
-6.264913827180862427e-02
7.819999009370803833e-02
-6.564059108495712280e-02
6.205344572663307190e-03
-2.404820546507835388e-02
-8.602501451969146729e-02
2.795208059251308441e-02
-3.436011821031570435e-02
-6.438346114009618759e-03
-2.514803223311901093e-02
-8.408694528043270111e-03
3.299577534198760986e-02
-8.708867430686950684e-02
-6.327212601900100708e-02
1.211708367918618023e-04
-4.536659643054008484e-02
3.346425294876098633e-02
6.765920668840408325e-02
-7.389279454946517944e-02
8.694510906934738159e-04
5.999910831451416016e-02
1.661361777223646641e-03
-2.346473373472690582e-02
7.827026769518852234e-03
5.787625536322593689e-02
3.362764418125152588e-02
8.084313571453094482e-02
6.148296594619750977e-02
-1.821948401629924774e-02
-1.631980203092098236e-02
2.626584842801094055e-02
1.046884432435035706e-02
5.505150184035301208e-02
3.288395330309867859e-02
7.494657486677169800e-02
1.328469440340995789e-02
3.406389430165290833e-02
7.563526928424835205e-02
2.470302395522594452e-02
-4.106483235955238342e-02
6.951669603586196899e-02
-2.199518866837024689e-02
-6.903681159019470215e-02
8.901672810316085815e-02
7.983156293630599976e-02
-2.926231827586889267e-03
-1.020439993590116501e-02
2.249076962471008301e-02
7.210198789834976196e-02
2.508809603750705719e-02
-2.844550646841526031e-02
1.691558747552335262e-03
-4.692861810326576233e-02
-6.131474673748016357e-02
7.450018823146820068e-02
5.630394071340560913e-02
-1.129204407334327698e-02
-5.211356282234191895e-02
-5.232971534132957458e-02
-3.282487392425537109e-02
3.052436746656894684e-02
-7.230804115533828735e-02
7.844500243663787842e-02
2.900462830439209938e-03
-1.408086810261011124e-02
-5.504237022250890732e-03
-8.068925887346267700e-02
2.879403531551361084e-02
5.396585329435765743e-04
-5.007610842585563660e-02
-8.697128295898437500e-02
4.859826713800430298e-02
4.195071384310722351e-02
7.505302131175994873e-02
4.317597672343254089e-02
-4.048106819391250610e-02
-8.826974034309387207e-02
-8.080863207578659058e-02
-2.254851162433624268e-02
-3.415474295616149902e-02
-7.640442252159118652e-02
3.787856549024581909e-02
1.118076294660568237e-01
1.846045069396495819e-02
5.726600065827369690e-02
6.976867467164993286e-02
7.308381795883178711e-02
-5.101621150970458984e-02
2.772033773362636566e-02
-4.242947325110435486e-02
-6.789226830005645752e-02
2.791555039584636688e-02
-6.359981745481491089e-02
-5.437180027365684509e-02
5.514330789446830750e-02
-6.498918519355356693e-04
-5.880960822105407715e-02
-7.414177805185317993e-02
-2.108228951692581177e-02
1.668914780020713806e-02
-8.631335198879241943e-02
-7.161108404397964478e-02
-1.028922758996486664e-02
-7.273834198713302612e-02
-2.489532344043254852e-02
7.558325678110122681e-02
-4.985070228576660156e-02
-5.328662693500518799e-03
2.426382899284362793e-02
-5.946838110685348511e-02
-2.499258518218994141e-02
-4.860097542405128479e-02
8.198636583983898163e-03
3.016852214932441711e-02
6.778658926486968994e-02
7.954844087362289429e-02
1.499185990542173386e-02
-3.344268351793289185e-02
6.172529421746730804e-03
-1.498381607234477997e-02
2.358366735279560089e-03
-5.439152941107749939e-02
4.496655240654945374e-02
-5.690830945968627930e-02
-4.586027935147285461e-02
-3.997745364904403687e-02
-6.396411359310150146e-02
-2.552729845046997070e-02
9.142447263002395630e-02
-5.354164913296699524e-02
1.452337857335805893e-02
7.626649737358093262e-02
2.994574792683124542e-02
8.175934851169586182e-02
-1.166763436049222946e-02
-5.134148895740509033e-02
2.600423619151115417e-02
7.710867561399936676e-03
2.574488706886768341e-02
-6.598532944917678833e-02
3.801647340878844261e-03
2.412984333932399750e-02
-3.897875547409057617e-02
5.990289524197578430e-02
-5.049713328480720520e-02
-1.386393792927265167e-02
5.809672176837921143e-02
-2.750708907842636108e-02
-2.192085795104503632e-02
-4.695679992437362671e-02
-3.930224850773811340e-02
8.050864934921264648e-02
-1.901055336929857731e-03
8.841745555400848389e-02
-8.909077197313308716e-02
-8.052743040025234222e-03
1.687693968415260315e-02
-1.949983462691307068e-02
2.269391715526580811e-02
3.338001668453216553e-02
5.353467166423797607e-02
2.515231631696224213e-02
-8.057021349668502808e-02
6.786844879388809204e-02
6.861487776041030884e-02
-8.924422413110733032e-02
-5.354867130517959595e-02
3.932836279273033142e-02
-5.437131598591804504e-02
-8.769350498914718628e-02
-9.024942293763160706e-03
-1.312666852027177811e-02
-6.863123923540115356e-02
2.882027626037597656e-02
1.309296581894159317e-02
-8.065762370824813843e-02
6.883267313241958618e-02
-7.371847983449697495e-03
-7.444453984498977661e-02
3.552816808223724365e-02
4.590578749775886536e-02
4.495383799076080322e-02
5.178496986627578735e-02
4.928172379732131958e-02
2.758877165615558624e-02
1.932559162378311157e-02
-7.134534418582916260e-02
-9.145792573690414429e-02
-3.097023582085967064e-04
-6.135912146419286728e-03
-6.225684657692909241e-02
6.066105142235755920e-02
6.642036139965057373e-02
2.738792821764945984e-02
-1.729570142924785614e-02
-1.075427979230880737e-02
-2.541550435125827789e-02
6.779135763645172119e-02
6.427495926618576050e-02
1.064815744757652283e-01
8.431394398212432861e-02
4.631370678544044495e-02
-8.041679859161376953e-02
-6.220177188515663147e-02
-8.893389254808425903e-02
3.308821469545364380e-02
-4.754681885242462158e-02
-3.440620005130767822e-02
-6.562783569097518921e-02
-4.290037602186203003e-02
4.040213674306869507e-02
9.530931711196899414e-03
3.270698338747024536e-02
4.174164310097694397e-02
-7.712032645940780640e-02
7.996706664562225342e-02
6.172063946723937988e-02
9.597363322973251343e-02
5.775035917758941650e-02
-1.256846357136964798e-03
6.982292234897613525e-02
4.318106919527053833e-02
-9.016977623105049133e-03
1.428063213825225830e-02
7.749053835868835449e-02
-7.407682389020919800e-02
7.906322926282882690e-02
5.898797418922185898e-03
-7.563284784555435181e-02
3.761315718293190002e-02
-2.273157052695751190e-02
1.340356562286615372e-02
1.927495002746582031e-02
-2.162241190671920776e-02
5.164601281285285950e-02
-2.306804060935974121e-02
-3.340106457471847534e-02
8.221445977687835693e-02
-4.845925420522689819e-02
3.806011378765106201e-02
-8.006972074508666992e-02
4.531843587756156921e-02
-2.858002483844757080e-02
-2.711381390690803528e-02
6.422027200460433960e-02
-3.535987436771392822e-02
7.480038702487945557e-02
8.217730559408664703e-03
5.836189910769462585e-02
-3.248191438615322113e-03
5.705833900719881058e-04
-8.143068850040435791e-02
-6.015698239207267761e-02
-8.421309292316436768e-02
1.085285749286413193e-02
-7.325022015720605850e-03
-5.190879851579666138e-02
4.440343007445335388e-02
5.843209102749824524e-02
-1.127178966999053955e-01
5.078845098614692688e-02
8.549283444881439209e-02
-2.130091376602649689e-02
-9.235407412052154541e-02
7.796917110681533813e-03
4.210997745394706726e-02
6.880015134811401367e-03
4.908393602818250656e-03
7.537071406841278076e-02
1.788374967873096466e-02
-9.783701039850711823e-03
-5.897525697946548462e-02
-7.716506719589233398e-02
-1.779325120151042938e-02
8.272723853588104248e-02
-3.675058251246809959e-03
7.328514009714126587e-02
-1.001364737749099731e-01
7.980302721261978149e-02
-2.664371766149997711e-02
-8.175227791070938110e-02
4.564034566283226013e-02
-4.283407330513000488e-02
7.943066209554672241e-02
6.232761964201927185e-02
2.566835284233093262e-02
5.732621625065803528e-02
-8.697764575481414795e-02
3.500173240900039673e-02
-6.807516515254974365e-02
7.788337767124176025e-02
5.268230661749839783e-02
5.425491556525230408e-02
-2.382565662264823914e-02
7.974513620138168335e-02
-8.566748350858688354e-02
-4.247313365340232849e-02
3.487952798604965210e-02
-8.004084974527359009e-02
7.755401730537414551e-02
-5.026747286319732666e-02
3.099195100367069244e-02
-3.590073063969612122e-02
-8.237657696008682251e-02
-8.405449241399765015e-02
-4.771137982606887817e-02
1.136356033384799957e-02
-6.217776238918304443e-02
7.120411098003387451e-02
1.103176549077033997e-02
8.267992734909057617e-02
8.946195989847183228e-02
-3.218789771199226379e-02
-3.972152620553970337e-02
-7.659022510051727295e-02
3.663005679845809937e-02
-5.877823382616043091e-02
-2.961818315088748932e-02
1.619664020836353302e-02
8.525595068931579590e-02
-7.495335489511489868e-02
-6.153194233775138855e-02
-5.610134080052375793e-02
-7.797710131853818893e-03
-4.602049663662910461e-02
-2.846203930675983429e-02
-8.686404675245285034e-02
-8.175295591354370117e-02
-9.204067289829254150e-03
7.715993095189332962e-03
-2.286116220057010651e-02
3.168685128912329674e-03
2.982847206294536591e-02
-5.605458468198776245e-02
6.657213717699050903e-02
6.984492391347885132e-02
-1.738311536610126495e-02
1.292157103307545185e-03
4.842761158943176270e-02
5.056245625019073486e-02
4.018267616629600525e-02
6.054918840527534485e-02
-8.507172018289566040e-02
4.104129225015640259e-02
1.233321987092494965e-02
8.492390066385269165e-02
-6.104902178049087524e-02
-1.396989542990922928e-02
-8.382368832826614380e-02
-3.064561868086457253e-03
-8.377069979906082153e-02
-5.878045782446861267e-02
4.258378222584724426e-02
6.420409190468490124e-04
3.695735335350036621e-02
3.659161925315856934e-02
-5.076244473457336426e-03
-2.291079238057136536e-02
-8.670237730257213116e-04
4.843368008732795715e-02
3.964952006936073303e-02
5.889250338077545166e-02
-7.223948836326599121e-02
4.557242989540100098e-02
6.608804222196340561e-03
8.002258092164993286e-02
-3.505951957777142525e-03
-4.695292934775352478e-02
-6.482426822185516357e-02
7.820063084363937378e-02
-7.327978964895009995e-03
6.433612853288650513e-02
-5.365125462412834167e-02
-6.550706177949905396e-02
-6.517339497804641724e-02
5.029538273811340332e-02
-1.291729323565959930e-02
2.091622911393642426e-02
3.818953409790992737e-02
3.252011537551879883e-02
-7.372933626174926758e-02
7.639551162719726562e-02
5.900595337152481079e-02
5.365651845932006836e-02
-8.110740780830383301e-02
-7.127743959426879883e-02
3.357795067131519318e-03
-6.500086933374404907e-02
-5.352314189076423645e-02
-7.524371892213821411e-02
4.470837861299514771e-02
8.592566102743148804e-02
5.276144295930862427e-02
-8.856608718633651733e-02
-3.162330016493797302e-02
-2.012430876493453979e-02
7.094939798116683960e-02
1.532281748950481415e-02
-5.226222425699234009e-02
-1.910349167883396149e-02
-6.763296574354171753e-02
-5.521070957183837891e-02
-6.034006923437118530e-02
-5.280738230794668198e-03
6.953976303339004517e-02
-5.390759557485580444e-02
-2.514383755624294281e-02
-6.916588544845581055e-02
-5.122635886073112488e-02
1.869757100939750671e-02
6.152952834963798523e-02
-2.579671517014503479e-02
-4.242208600044250488e-02
-2.416906878352165222e-02
-4.165033251047134399e-02
3.780388971790671349e-03
5.833565443754196167e-02
-7.249709963798522949e-02
-2.445071004331111908e-02
-4.531231708824634552e-03
-8.672997355461120605e-02
-1.581576466560363770e-02
6.047304347157478333e-02
4.506106302142143250e-02
5.045068264007568359e-02
2.350659295916557312e-02
-2.026949077844619751e-02
3.943496942520141602e-02
7.220690697431564331e-02
8.965368568897247314e-02
-7.756030559539794922e-02
-2.906025573611259460e-02
-9.523264318704605103e-02
5.550108104944229126e-02
-4.568387567996978760e-02
-3.733969107270240784e-02
2.336861332878470421e-03
2.364533767104148865e-02
6.557032465934753418e-02
-2.778693661093711853e-02
1.923307403922080994e-02
7.537500467151403427e-03
-9.526745229959487915e-02
-9.318079799413681030e-02
-4.566591233015060425e-02
-1.238528918474912643e-02
-6.807196140289306641e-02
6.713695824146270752e-02
4.531899839639663696e-02
-1.640914753079414368e-02
1.715834066271781921e-02
7.569836825132369995e-02
-2.193457633256912231e-02
3.801441937685012817e-02
-7.671448588371276855e-02
-8.701225370168685913e-02
-8.982529491186141968e-02
-7.585322856903076172e-02
-3.051187284290790558e-02
-6.536133587360382080e-02
2.727244980633258820e-02
-2.746756933629512787e-02
-6.590829789638519287e-02
8.923937380313873291e-02
1.697565801441669464e-02
-7.697828114032745361e-02
6.275576353073120117e-02
-5.438749119639396667e-02
8.367714285850524902e-02
-8.417961001396179199e-02
-9.942860156297683716e-02
-2.233005501329898834e-02
4.404986649751663208e-02
-5.562433227896690369e-02
7.941050827503204346e-02
-8.189731836318969727e-02
1.385507266968488693e-02
8.863641880452632904e-03
-5.655662342905998230e-02
3.038531541824340820e-02
-3.062257170677185059e-02
1.053449884057044983e-02
1.437394041568040848e-02
3.523087874054908752e-02
-2.539996802806854248e-02
1.063318029046058655e-01
6.360830366611480713e-02
1.268807449378073215e-03
-7.220418006181716919e-02
7.476401329040527344e-02
2.962488494813442230e-02
4.818353801965713501e-02
-9.704554080963134766e-02
-7.315391674637794495e-03
4.271145537495613098e-02
-6.421587616205215454e-02
-1.379751483909785748e-03
-4.648005217313766479e-02
2.601415105164051056e-02
5.525591596961021423e-02
4.344314709305763245e-02
-6.419861316680908203e-02
6.237617507576942444e-02
-8.442736417055130005e-02
-3.259505331516265869e-02
-6.864923052489757538e-03
-3.746998310089111328e-02
1.476333290338516235e-01
-6.708285957574844360e-02
-5.438790470361709595e-02
2.506091492250561714e-03
-9.070159494876861572e-02
-5.696401000022888184e-02
5.612158030271530151e-02
-2.091031288728117943e-03
-1.316528068855404854e-03
-1.640300266444683075e-02
-1.257764250040054321e-01
-4.056881368160247803e-02
-6.553299725055694580e-02
3.030408173799514771e-02
9.743018075823783875e-03
-9.134875610470771790e-03
-6.900230422616004944e-03
8.596995845437049866e-03
4.254809767007827759e-02
-3.600168228149414062e-02
5.347189307212829590e-02
-7.743650116026401520e-03
4.426924884319305420e-02
-4.575815796852111816e-02
5.799457430839538574e-02
2.460533566772937775e-02
-7.515736389905214310e-03
6.920709460973739624e-02
4.299653694033622742e-02
-1.538519188761711121e-02
5.065109208226203918e-02
-1.073628962039947510e-01
8.288320899009704590e-02
4.251011088490486145e-02
2.928445488214492798e-02
6.538892537355422974e-02
1.211734581738710403e-02
-4.041763395071029663e-02
6.762102991342544556e-02
-5.565391108393669128e-02
-4.199887067079544067e-02
3.511791676282882690e-02
-6.679320335388183594e-02
2.571266377344727516e-03
-7.835575938224792480e-02
-1.361550763249397278e-02
-4.848974570631980896e-02
-4.994583874940872192e-02
3.136615827679634094e-02
-6.351303309202194214e-02
-3.368415310978889465e-02
6.097252666950225830e-02
-1.248306781053543091e-02
7.939417660236358643e-02
-4.561698064208030701e-02
-4.741760343313217163e-02
-2.934523671865463257e-02
2.637950703501701355e-02
9.268582612276077271e-02
-4.134066775441169739e-02
-4.912694171071052551e-02
-6.102132797241210938e-02
-8.297407068312168121e-03
2.434843918308615685e-03
-4.020239040255546570e-02
4.351799562573432922e-02
3.674524277448654175e-02
4.958252981305122375e-02
6.768229603767395020e-02
-2.911973372101783752e-02
2.872060984373092651e-02
7.518108934164047241e-02
-5.759370699524879456e-02
5.485924333333969116e-02
6.579238176345825195e-02
-6.798160076141357422e-02
4.164995998144149780e-02
3.565702214837074280e-02
-1.918943971395492554e-02
1.276218239217996597e-02
6.471603363752365112e-02
6.823927164077758789e-02
3.184210881590843201e-02
1.018853671848773956e-02
6.892966479063034058e-02
7.351902127265930176e-02
5.305781215429306030e-02
-8.197042346000671387e-02
7.399225980043411255e-02
1.505134254693984985e-02
-6.027250364422798157e-02
-2.439824491739273071e-02
-8.044034987688064575e-02
-1.128392294049263000e-02
2.766527608036994934e-02
-7.942259311676025391e-02
2.086300402879714966e-02
-3.536874055862426758e-02
-5.155122838914394379e-03
-4.690213873982429504e-02
8.377956226468086243e-03
-3.958397731184959412e-02
-5.628983676433563232e-02
-7.107166945934295654e-02
5.092975217849016190e-03
7.667752355337142944e-02
-2.016584202647209167e-02
-7.476442307233810425e-02
6.874914281070232391e-03
-2.455853670835494995e-02
-6.419526785612106323e-02
-5.683247745037078857e-02
-4.463426768779754639e-02
9.423071891069412231e-02
-5.558827146887779236e-02
-7.415992021560668945e-02
-8.096013963222503662e-02
4.815666377544403076e-02
-5.938798189163208008e-02
6.865660101175308228e-02
-5.448908358812332153e-02
-8.851237595081329346e-02
-4.642208293080329895e-02
-1.593208871781826019e-02
6.388886272907257080e-02
-1.911706849932670593e-02
-1.066897585988044739e-01
-2.450174465775489807e-02
-6.479399651288986206e-02
7.345174998044967651e-02
8.257153630256652832e-02
-8.692731708288192749e-02
3.883534297347068787e-02
-3.905334323644638062e-02
4.353202134370803833e-02
-5.407263059169054031e-03
-4.038192331790924072e-03
1.091350521892309189e-02
2.619632519781589508e-03
-3.774506971240043640e-03
-3.640543296933174133e-02
5.768659710884094238e-02
1.074098167009651661e-03
-2.740056440234184265e-02
-7.843980193138122559e-02
1.361252833157777786e-02
5.240091681480407715e-02
6.475218385457992554e-02
-3.824018407613039017e-03
6.986207515001296997e-02
6.149832904338836670e-02
-5.639684200286865234e-02
7.868025451898574829e-02
3.101160563528537750e-02
-5.226702615618705750e-02
7.435671240091323853e-02
-6.767594814300537109e-02
4.113374650478363037e-02
-1.092283334583044052e-02
1.371090114116668701e-02
-1.169357448816299438e-03
-2.351785078644752502e-02
1.490821409970521927e-02
4.986743628978729248e-02
5.971236526966094971e-02
-4.825878515839576721e-02
4.208527505397796631e-02
9.431893005967140198e-03
6.969156116247177124e-02
8.036658167839050293e-02
-1.683962531387805939e-02
-6.393437832593917847e-02
-6.346008926630020142e-02
-8.396614342927932739e-03
3.444834426045417786e-02
5.022365972399711609e-02
-9.335043281316757202e-02
-2.459233626723289490e-02
-1.033254526555538177e-02
3.261076658964157104e-02
-8.253633975982666016e-02
-6.390654295682907104e-02
2.379023469984531403e-02
4.493268206715583801e-03
-2.556635253131389618e-02
2.925042808055877686e-02
-1.065177936106920242e-02
-6.510670483112335205e-02
-9.155248291790485382e-03
5.630529299378395081e-02
-2.680664323270320892e-02
-6.186101213097572327e-02
6.087199971079826355e-02
2.428117953240871429e-02
4.078524652868509293e-03
3.879354894161224365e-02
-4.058865457773208618e-02
-5.857438221573829651e-02
-3.828538209199905396e-02
7.084090262651443481e-02
6.561483442783355713e-02
2.516653388738632202e-02
3.000736981630325317e-02
3.870678320527076721e-02
-8.969861268997192383e-02
4.383239150047302246e-02
-6.064884737133979797e-02
-3.646005643531680107e-03
-4.519021138548851013e-02
7.918928563594818115e-02
-3.044286556541919708e-02
-8.525647222995758057e-02
4.128535464406013489e-02
-4.742245003581047058e-02
-5.660011991858482361e-02
-2.015285938978195190e-02
-3.701456263661384583e-02
-2.981858327984809875e-02
-3.525379672646522522e-02
-6.253661215305328369e-02
3.956824541091918945e-03
4.973313957452774048e-02
7.051105797290802002e-02
-7.821941375732421875e-02
8.231637626886367798e-02
-2.863979898393154144e-02
1.003799680620431900e-02
-7.847108878195285797e-03
-4.644445329904556274e-02
-4.459106549620628357e-02
1.485345698893070221e-02
-1.733085606247186661e-03
8.827996440231800079e-03
-3.442301601171493530e-02
2.102467988152056932e-04
-5.621129646897315979e-02
5.564016848802566528e-02
-8.668684214353561401e-02
-8.441282808780670166e-02
-8.398492820560932159e-03
4.579774569720029831e-03
-6.016801670193672180e-02
4.195614904165267944e-02
-8.374673873186111450e-02
8.125823736190795898e-02
-1.245753746479749680e-02
-3.857432678341865540e-02
3.585962206125259399e-02
5.559299886226654053e-02
-6.285370886325836182e-02
-5.968064814805984497e-02
8.203933387994766235e-02
3.903763368725776672e-02
-8.362960070371627808e-03
5.028855055570602417e-02
7.751692086458206177e-02
-3.573449701070785522e-02
-6.118933088146150112e-04
3.388872742652893066e-02
-1.239987183362245560e-02
5.318721383810043335e-02
-5.145777482539415359e-03
-4.899013414978981018e-02
4.461842775344848633e-02
-5.830988660454750061e-02
-6.110687740147113800e-03
-7.084957510232925415e-02
3.228206187486648560e-02
-2.218728139996528625e-02
-4.591386020183563232e-02
-8.432341367006301880e-02
3.045417368412017822e-02
2.498991973698139191e-02
1.092224940657615662e-02
-3.090521693229675293e-02
2.169366367161273956e-02
-1.623314432799816132e-02
-8.256649225950241089e-02
3.414565324783325195e-02
3.874582424759864807e-02
-4.519327357411384583e-02
-3.110165009275078773e-03
1.017219573259353638e-02
-1.991227455437183380e-02
7.008752226829528809e-02
4.492872953414916992e-02
-5.660171620547771454e-03
-9.668518789112567902e-03
-3.289802744984626770e-02
-7.816422730684280396e-02
4.530154913663864136e-02
-5.654827132821083069e-02
9.165988117456436157e-02
3.184528648853302002e-02
7.318920642137527466e-02
-9.376024454832077026e-02
7.616989314556121826e-03
-2.843049122020602226e-03
2.255674824118614197e-02
7.280927617102861404e-03
-3.313139313831925392e-03
-1.354335807263851166e-02
4.123850166797637939e-02
1.843562163412570953e-02
-3.812425956130027771e-02
5.234252288937568665e-02
-5.844239890575408936e-02
3.823535144329071045e-02
-5.660984292626380920e-02
1.380694191902875900e-02
1.595628447830677032e-02
-3.034565038979053497e-02
5.440489202737808228e-02
-7.602876424789428711e-02
-7.120855152606964111e-02
3.697418048977851868e-02
-4.673385620117187500e-02
6.851302087306976318e-02
-1.177297160029411316e-02
-6.282787024974822998e-02
1.812479458749294281e-02
7.805056869983673096e-02
6.619919836521148682e-02
-1.082333549857139587e-02
-7.541347295045852661e-02
-6.891491264104843140e-02
-7.669777423143386841e-02
-3.979514539241790771e-02
-1.194176003336906433e-01
3.695668652653694153e-02
-3.250378742814064026e-02
6.425271183252334595e-02
-1.709531061351299286e-02
5.677403882145881653e-02
-1.981134526431560516e-02
5.532534420490264893e-02
-5.084291845560073853e-02
3.228796645998954773e-02
-4.092295188456773758e-03
-1.061167381703853607e-02
-1.014641821384429932e-01
1.245966646820306778e-02
6.298774480819702148e-02
-7.925484329462051392e-02
5.693397670984268188e-02
4.990678653120994568e-02
7.513023912906646729e-02
-3.422837704420089722e-02
-1.255675125867128372e-02
-1.100929640233516693e-02
-7.771162688732147217e-02
2.008595690131187439e-02
-3.715242072939872742e-02
-9.232027828693389893e-02
-3.634231537580490112e-02
-7.427136600017547607e-02
-2.256859093904495239e-02
-6.941087078303098679e-03
6.409048289060592651e-02
2.334109321236610413e-02
-1.410763338208198547e-02
-2.689271466806530952e-03
-6.302584707736968994e-02
-1.024252921342849731e-01
-5.110142007470130920e-02
4.734415560960769653e-02
-4.643558990210294724e-03
3.390836529433727264e-03
7.560911774635314941e-02
7.713270187377929688e-02
-8.678719401359558105e-02
-1.596145331859588623e-02
6.403335928916931152e-02
6.505209207534790039e-02
4.228851944208145142e-02
-4.940724745392799377e-02
4.935302957892417908e-02
-6.425114721059799194e-02
3.412851365283131599e-03
-7.753797620534896851e-02
-1.251030713319778442e-02
-8.834026753902435303e-02
-1.446587592363357544e-02
-6.340138148516416550e-03
-8.057675510644912720e-02
-2.492341212928295135e-02
8.814622648060321808e-03
-3.194887191057205200e-02
2.776882238686084747e-02
-2.119158953428268433e-02
-1.027590334415435791e-01
-1.290124189108610153e-02
3.869568184018135071e-02
-5.142344534397125244e-02
-3.759817779064178467e-02
5.011851340532302856e-02
-5.484123155474662781e-02
7.682693749666213989e-02
-3.710326179862022400e-02
6.221876293420791626e-02
3.110343404114246368e-02
-4.409162700176239014e-02
1.335030235350131989e-02
-1.067614853382110596e-01
-2.271405979990959167e-02
4.846435040235519409e-02
-1.142328372225165367e-03
-2.207377739250659943e-02
6.959371268749237061e-02
-4.486585967242717743e-03
7.526437193155288696e-02
6.428974121809005737e-02
7.357256114482879639e-02
1.987062953412532806e-02
3.328678756952285767e-02
6.692038476467132568e-02
7.976071536540985107e-02
1.016753353178501129e-02
9.559167549014091492e-03
8.449964970350265503e-02
-2.379711903631687164e-02
-9.395440667867660522e-02
-5.096666049212217331e-03
1.090560946613550186e-02
-4.388796538114547729e-02
-3.017033822834491730e-02
-7.286438345909118652e-02
5.510797351598739624e-02
3.973684459924697876e-02
-6.211979687213897705e-02
-5.259040277451276779e-03
2.410251274704933167e-02
-8.966548740863800049e-02
-5.096967145800590515e-02
-7.427955511957406998e-03
4.814803227782249451e-02
6.841368228197097778e-02
-1.836114004254341125e-02
-7.792253047227859497e-02
-4.935664683580398560e-02
7.220187038183212280e-02
-2.529919147491455078e-02
-8.782294392585754395e-02
-3.171793743968009949e-02
4.285344853997230530e-02
-6.562233716249465942e-02
5.282253772020339966e-02
1.009036879986524582e-02
-9.097332134842872620e-03
5.624594166874885559e-02
5.144557729363441467e-02
5.634462088346481323e-02
-3.934284299612045288e-02
-6.434652954339981079e-02
-1.253435853868722916e-02
4.895541444420814514e-02
8.566979318857192993e-02
-6.065901741385459900e-02
2.073607780039310455e-02
6.687046587467193604e-02
-2.480649948120117188e-02
7.751332968473434448e-02
3.156898543238639832e-02
-5.193141102790832520e-02
-2.433702908456325531e-02
-1.893381774425506592e-02
-3.545793145895004272e-02
-5.722187831997871399e-02
-2.049266733229160309e-02
7.603562623262405396e-02
2.451981231570243835e-02
5.570982024073600769e-02
5.874666944146156311e-02
1.035451889038085938e-01
8.519036695361137390e-03
8.845029398798942566e-03
-5.884603783488273621e-02
-4.232463240623474121e-02
-7.083760946989059448e-02
7.761580497026443481e-02
5.491135269403457642e-02
6.535468995571136475e-02
-4.218496382236480713e-02
-5.723975598812103271e-02
-2.721201814711093903e-02
-5.110511556267738342e-02
1.740849204361438751e-02
-7.679910212755203247e-02
6.668538600206375122e-02
3.983386978507041931e-02
-4.657293483614921570e-02
6.163682416081428528e-02
3.915954753756523132e-02
-2.290740609169006348e-02
-6.358208507299423218e-02
-8.132623136043548584e-02
-7.218520343303680420e-02
4.260251298546791077e-02
-5.854143574833869934e-02
4.477081075310707092e-02
-8.376047760248184204e-02
3.856715559959411621e-02
-6.660052388906478882e-02
-7.985121756792068481e-02
-4.303728789091110229e-02
-4.656410217285156250e-02
2.666111104190349579e-02
5.495003238320350647e-02
4.831037670373916626e-02
-8.771122992038726807e-02
-3.304452076554298401e-02
2.046524919569492340e-02
2.297776937484741211e-02
7.382182776927947998e-02
-8.071272820234298706e-02
-3.441256657242774963e-02
7.645292580127716064e-02
5.484218895435333252e-02
-2.403167448937892914e-02
8.076062053442001343e-02
7.834964245557785034e-02
7.433392107486724854e-02
-1.981192640960216522e-02
-2.677611261606216431e-02
8.761524409055709839e-02
5.937204696238040924e-03
7.486739009618759155e-02
-1.327026728540658951e-02
7.166471332311630249e-02
-3.608931228518486023e-02
-7.702361047267913818e-02
3.487696638330817223e-03
-7.399072498083114624e-02
-2.276341430842876434e-02
5.934047698974609375e-02
7.305708248168230057e-03
-5.375802144408226013e-02
6.708556413650512695e-02
2.413426525890827179e-02
5.499517917633056641e-02
4.915763437747955322e-02
-1.486935652792453766e-02
-4.476158414036035538e-03
1.013014465570449829e-01
-3.452081233263015747e-02
-1.529536768794059753e-02
1.130717899650335312e-02
8.945853449404239655e-03
8.869566768407821655e-02
-6.465690676122903824e-03
4.375831410288810730e-02
1.130612567067146301e-02
1.567926444113254547e-02
7.232437282800674438e-02
-3.696828335523605347e-02
-2.891215495765209198e-02
-1.375162042677402496e-02
6.827492266893386841e-02
2.523259632289409637e-02
-6.006997451186180115e-02
-7.650682330131530762e-02
2.944912575185298920e-02
1.642991905100643635e-03
6.630820035934448242e-02
3.536375984549522400e-02
1.027450431138277054e-02
-3.583369543775916100e-03
-7.126634940505027771e-03
1.264872122555971146e-02
3.844331204891204834e-02
6.473541259765625000e-02
-9.922656463459134102e-04
2.056377381086349487e-02
5.917820334434509277e-02
2.528691105544567108e-02
2.116299234330654144e-02
3.736221045255661011e-02
-4.239399731159210205e-02
7.423721998929977417e-02
2.177870459854602814e-02
-5.452036112546920776e-02
3.309564664959907532e-02
-4.037359729409217834e-02
7.438558340072631836e-02
-2.722279541194438934e-02
1.027487292885780334e-01
6.776675581932067871e-02
-6.938834488391876221e-02
1.075321957468986511e-01
1.000233516097068787e-01
-5.901630222797393799e-02
-5.091601610183715820e-02
-1.407938171178102493e-02
1.069177687168121338e-01
-1.752538047730922699e-02
-5.345630273222923279e-02
-1.945539936423301697e-02
-1.816903613507747650e-02
8.229354023933410645e-02
-6.121241301298141479e-02
-3.457832382991909981e-03
-4.855180159211158752e-02
-4.882222414016723633e-02
6.763055920600891113e-02
2.909222384914755821e-03
1.697355299256742001e-03
-8.675306290388107300e-02
-7.033766806125640869e-02
1.414519269019365311e-02
-3.430889174342155457e-02
6.085464358329772949e-02
-3.756148740649223328e-02
-3.878035396337509155e-02
5.739738047122955322e-02
7.812818884849548340e-02
3.597225528210401535e-03
-2.337508648633956909e-02
-2.204400300979614258e-02
4.256312921643257141e-02
5.789569392800331116e-02
7.922165840864181519e-02
-3.944984450936317444e-02
1.088792923837900162e-02
3.458290547132492065e-02
7.583178579807281494e-02
1.627676375210285187e-02
5.281707271933555603e-02
4.286061972379684448e-02
3.933992609381675720e-02
-3.676789253950119019e-02
2.780532278120517731e-02
8.258363604545593262e-02
4.508366435766220093e-02
-1.844216883182525635e-02
-6.317239254713058472e-02
-3.500411286950111389e-02
5.364136397838592529e-02
-9.191266261041164398e-03
5.296722520142793655e-03
4.436960816383361816e-02
-9.700759500265121460e-02
-4.657648131251335144e-02
-3.046056628227233887e-02
-4.202440846711397171e-03
6.555833667516708374e-02
-2.815251238644123077e-02
-5.070996470749378204e-03
-4.995176196098327637e-02
-1.626562327146530151e-02
1.900139264762401581e-02
6.974189728498458862e-02
6.347413361072540283e-02
1.041985973715782166e-01
7.573461532592773438e-02
-7.766407728195190430e-02
7.819883525371551514e-02
1.094065234065055847e-02
-1.962688192725181580e-02
7.784298062324523926e-02
-1.757067441940307617e-02
6.913319975137710571e-02
-5.085661634802818298e-02
-1.025716867297887802e-02
3.220058232545852661e-02
-8.785355021245777607e-04
6.136280670762062073e-02
9.642065316438674927e-02
-5.879569053649902344e-02
-8.660336583852767944e-02
5.667704343795776367e-02
3.748845309019088745e-02
5.942526087164878845e-02
-4.949668794870376587e-02
6.970872730016708374e-02
-1.690914668142795563e-02
-3.534406051039695740e-02
-9.232769906520843506e-02
-6.654361635446548462e-02
6.514465808868408203e-02
6.869673728942871094e-03
-1.663972996175289154e-02
-1.158717367798089981e-02
8.044520393013954163e-03
5.481025204062461853e-02
1.498119253665208817e-02
5.360451713204383850e-02
4.112869128584861755e-02
-1.217498257756233215e-02
-8.121458441019058228e-02
-8.286982774734497070e-02
-5.383526161313056946e-02
4.833531007170677185e-02
4.955570027232170105e-02
-2.799507975578308105e-02
-4.589783772826194763e-02
5.601931363344192505e-02
4.626164585351943970e-02
-7.916719466447830200e-02
-2.305383095517754555e-03
4.068728536367416382e-02
-6.301186233758926392e-02
3.834579512476921082e-02
5.931384488940238953e-02
-2.549417503178119659e-02
7.707085460424423218e-02
4.724477976560592651e-02
-3.043477609753608704e-02
-1.084928121417760849e-02
-6.323019415140151978e-02
-5.237021017819643021e-03
-5.303202569484710693e-02
-5.046011880040168762e-02
4.775302484631538391e-02
5.848763138055801392e-02
2.906769700348377228e-02
-2.518224343657493591e-02
3.193846717476844788e-02
2.688922546803951263e-02
2.212818898260593414e-02
7.026303559541702271e-02
1.584618724882602692e-02
7.365988940000534058e-02
-6.813851650804281235e-03
6.524961441755294800e-02
-2.048758976161479950e-02
-4.578071832656860352e-02
-2.038978226482868195e-02
6.925182044506072998e-02
-8.801995962858200073e-02
4.996964335441589355e-02
-6.361518055200576782e-02
8.005344122648239136e-02
4.768059402704238892e-02
-1.482705119997262955e-03
7.478865236043930054e-02
1.822568848729133606e-02
6.056438758969306946e-02
-5.285811424255371094e-02
1.780765131115913391e-02
-4.275850020349025726e-03
-4.420781042426824570e-03
7.931098341941833496e-02
-9.435081854462623596e-03
7.165377587080001831e-02
-4.655850119888782501e-03
-7.392196357250213623e-02
-7.317727804183959961e-02
3.850150387734174728e-03
-7.281883805990219116e-02
-5.281098186969757080e-03
-1.582882925868034363e-02
7.830572128295898438e-02
2.756144106388092041e-02
-1.910232752561569214e-02
-8.985809981822967529e-02
-9.408085606992244720e-04
-7.913137972354888916e-02
-2.106741815805435181e-02
7.875094562768936157e-02
1.206873636692762375e-02
-2.759408764541149139e-02
-2.462111227214336395e-02
-4.421824216842651367e-02
-6.810332089662551880e-02
2.806352684274315834e-03
-6.417470425367355347e-02
-1.042768135666847229e-01
-3.080369718372821808e-02
4.496277123689651489e-02
-1.757104694843292236e-02
6.249873433262109756e-03
-9.058406203985214233e-02
-1.888767257332801819e-02
2.596695721149444580e-02
-3.614096203818917274e-03
9.935136139392852783e-02
6.695605069398880005e-02
1.660374179482460022e-02
1.676011085510253906e-02
5.559847876429557800e-02
-5.898933857679367065e-02
-7.949090562760829926e-03
-4.216093104332685471e-03
4.306644201278686523e-02
-6.345530506223440170e-03
-6.252291798591613770e-02
3.605289384722709656e-02
1.925833150744438171e-02
1.295509189367294312e-02
-5.213915929198265076e-02
4.770452901721000671e-02
7.702616602182388306e-02
-7.182506471872329712e-02
5.299271084368228912e-03
-5.291619803756475449e-03
8.803388476371765137e-02
6.171995028853416443e-02
-7.042815536260604858e-02
-7.431324571371078491e-02
2.083734795451164246e-02
4.707296378910541534e-03
2.288646623492240906e-02
-1.209226623177528381e-02
1.649650558829307556e-02
9.446464478969573975e-02
-1.650187931954860687e-02
-5.804496258497238159e-02
8.320543915033340454e-02
5.467194318771362305e-02
-6.965520232915878296e-02
5.771776288747787476e-02
4.957872256636619568e-02
9.437603875994682312e-03
-6.251283735036849976e-02
9.116258472204208374e-02
-1.029298361390829086e-02
-5.716601386666297913e-02
-3.985362499952316284e-02
-2.570949867367744446e-02
5.317230522632598877e-02
8.198048919439315796e-02
8.075502514839172363e-02
5.142941325902938843e-02
8.528062701225280762e-02
-4.057710617780685425e-02
-7.415645569562911987e-02
-6.176881026476621628e-03
-6.362126022577285767e-02
7.838962227106094360e-02
2.528049424290657043e-02
-2.765865996479988098e-03
-5.228275433182716370e-02
3.048652783036231995e-03
9.588202089071273804e-02
6.645704060792922974e-02
-3.282839059829711914e-02
-7.167121767997741699e-02
-1.232264656573534012e-02
8.266235142946243286e-02
8.272677659988403320e-02
5.308853462338447571e-02
5.080104246735572815e-02
6.297559291124343872e-02
-7.579090446233749390e-02
4.002320766448974609e-02
7.288216054439544678e-02
-2.589319646358489990e-02
9.018916636705398560e-03
4.893048107624053955e-02
3.172883018851280212e-02
4.765322059392929077e-02
4.936178028583526611e-02
-6.330237537622451782e-02
-2.223787270486354828e-02
6.404186040163040161e-02
-6.722182780504226685e-02
-3.014104627072811127e-02
-7.678658515214920044e-02
-6.302627176046371460e-02
-6.613046675920486450e-02
-1.186080742627382278e-02
7.482030242681503296e-02
-3.470911085605621338e-02
-2.502284944057464600e-02
-6.496065855026245117e-02
-3.183310851454734802e-02
-2.569103427231311798e-02
-3.100875951349735260e-02
-6.199860200285911560e-02
-8.790004067122936249e-03
2.345175854861736298e-02
6.452130526304244995e-02
2.176886424422264099e-02
-7.161615788936614990e-02
5.911187827587127686e-02
-2.629133500158786774e-02
-4.826634004712104797e-02
-2.651826851069927216e-02
6.838828325271606445e-03
-7.573996204882860184e-03
-5.354737862944602966e-02
-5.829132720828056335e-02
-7.163342088460922241e-02
3.455653414130210876e-02
2.097178436815738678e-02
7.260259985923767090e-02
-3.164088819175958633e-03
-1.694285124540328979e-02
-8.180028200149536133e-02
-6.482988595962524414e-02
1.058003306388854980e-02
-1.427151169627904892e-02
8.088564872741699219e-02
4.228999465703964233e-02
-8.309316635131835938e-02
9.744289517402648926e-02
6.260149925947189331e-02
-2.937523834407329559e-02
8.428225992247462273e-04
8.082335442304611206e-02
-1.661039143800735474e-02
2.946884557604789734e-02
-4.709135740995407104e-02
-6.291282176971435547e-02
9.947745501995086670e-02
5.319318920373916626e-02
7.433290779590606689e-02
-4.055321961641311646e-02
7.636608928442001343e-02
7.144079357385635376e-02
4.643338918685913086e-02
-1.569611579179763794e-02
-3.800154849886894226e-02
7.981358468532562256e-02
-4.237976670265197754e-02
8.167080581188201904e-02
-3.402617201209068298e-02
6.086996197700500488e-02
4.539207741618156433e-02
-1.925431005656719208e-02
2.522504702210426331e-02
4.509991407394409180e-02
-7.830812036991119385e-02
2.559554763138294220e-02
-5.520956963300704956e-02
-9.745912253856658936e-02
-4.989948496222496033e-02
-4.292666912078857422e-02
-3.216988965868949890e-02
8.448240160942077637e-02
1.084363833069801331e-02
5.407842807471752167e-03
-5.853229388594627380e-02
-2.826956287026405334e-02
-1.185604836791753769e-02
9.190736338496208191e-03
1.594527438282966614e-02
7.932198047637939453e-02
8.303724974393844604e-02
-1.212279591709375381e-02
-2.963126637041568756e-02
-3.692981973290443420e-02
2.369638532400131226e-03
-6.976367533206939697e-02
-4.418893903493881226e-02
-2.880407311022281647e-02
1.475545950233936310e-02
-8.260652422904968262e-03
2.117551490664482117e-02
3.952354192733764648e-02
-4.394917562603950500e-02
-7.730750367045402527e-03
-7.049264758825302124e-02
-6.001826003193855286e-02
6.328685581684112549e-02
-4.787879809737205505e-02
5.122162029147148132e-02
-6.433087587356567383e-02
8.323056995868682861e-02
6.022147089242935181e-02
-4.938321188092231750e-02
-9.815789014101028442e-02
-3.217274323105812073e-03
6.092869676649570465e-03
-1.000498980283737183e-01
-6.337971985340118408e-02
5.967921018600463867e-02
-6.377183645963668823e-02
5.131965875625610352e-02
5.168532487004995346e-03
-2.828612737357616425e-02
-7.414125837385654449e-03
4.260848090052604675e-02
2.388375997543334961e-02
-5.515605676919221878e-03
2.537960745394229889e-02
-6.527913361787796021e-02
-3.400813415646553040e-02
-5.401064828038215637e-02
-6.316545419394969940e-03
-2.263101190328598022e-02
8.118315786123275757e-02
6.014546751976013184e-02
-6.962657719850540161e-02
-7.701265066862106323e-02
-3.939487040042877197e-02
4.196769744157791138e-02
4.829069226980209351e-02
4.341116547584533691e-02
2.363781630992889404e-02
-6.193708628416061401e-03
7.588261365890502930e-02
3.565594926476478577e-02
-1.780123077332973480e-02
6.184362806379795074e-03
-4.600942134857177734e-02
-4.133019596338272095e-02
4.372488334774971008e-02
-2.710392698645591736e-02
7.260446250438690186e-02
3.249420225620269775e-02
-2.795230410993099213e-02
8.520305901765823364e-02
-1.616497337818145752e-02
8.409433066844940186e-02
-3.054186701774597168e-02
4.626885056495666504e-02
-3.834320977330207825e-02
3.193454071879386902e-02
-4.011437296867370605e-02
-7.256793975830078125e-02
-5.980898812413215637e-02
8.130543678998947144e-02
5.149980541318655014e-03
4.540927335619926453e-02
-6.469342857599258423e-02
3.713865950703620911e-02
5.134002491831779480e-02
3.499539336189627647e-03
-6.965126097202301025e-02
7.112932205200195312e-02
5.681404471397399902e-02
3.660780191421508789e-02
6.379187852144241333e-02
1.162292715162038803e-02
2.480105683207511902e-02
-2.880034036934375763e-02
-6.614149361848831177e-02
-2.895160578191280365e-03
-2.355927135795354843e-03
4.313119128346443176e-02
5.990739911794662476e-02
7.127154618501663208e-02
3.855531662702560425e-02
-3.908171504735946655e-02
6.763923168182373047e-02
7.252570241689682007e-02
3.594911098480224609e-02
-3.472923859953880310e-02
-2.239042147994041443e-02
-7.142964005470275879e-02
6.885257363319396973e-02
3.581331670284271240e-02
6.380326300859451294e-02
-1.093974336981773376e-02
-9.588908404111862183e-03
-2.182990871369838715e-02
-4.873811081051826477e-02
3.959925472736358643e-02
7.762399315834045410e-02
-7.111372798681259155e-02
6.700151413679122925e-02
-4.129822179675102234e-02
1.182613447308540344e-01
-8.882408589124679565e-02
5.230595916509628296e-02
-4.970258474349975586e-02
-6.513177603483200073e-02
5.848867818713188171e-02
-1.148925162851810455e-02
-2.775246277451515198e-02
8.835477381944656372e-02
-3.212127462029457092e-02
5.562673509120941162e-02
-6.628512591123580933e-02
5.233730003237724304e-02
4.437385872006416321e-02
2.573698200285434723e-02
-6.464662402868270874e-02
6.208877637982368469e-02
4.025864601135253906e-02
-8.822621748549863696e-05
-8.015921711921691895e-02
3.668799623847007751e-02
-7.940426468849182129e-02
-3.480318561196327209e-02
6.566284596920013428e-02
8.773314952850341797e-02
5.587508529424667358e-02
-3.579422831535339355e-02
-4.446965456008911133e-02
7.885976880788803101e-02
-1.467940025031566620e-02
6.414794921875000000e-02
-1.802519522607326508e-02
-4.402613639831542969e-02
-5.201482772827148438e-02
-7.605887949466705322e-02
7.589537650346755981e-02
1.448183692991733551e-02
-7.593086361885070801e-02
6.943452358245849609e-02
8.985274285078048706e-02
-8.631389588117599487e-02
1.999226585030555725e-02
6.947661191225051880e-02
-8.929387666285037994e-03
3.117786161601543427e-02
-5.796573683619499207e-02
6.074274703860282898e-02
-4.924900084733963013e-02
4.008048772811889648e-02
9.711179882287979126e-02
8.281444758176803589e-02
6.556092761456966400e-03
5.242656171321868896e-02
6.840544193983078003e-02
-4.233516752719879150e-02
-1.372871454805135727e-02
-5.446191877126693726e-02
8.987841755151748657e-02
-5.562545731663703918e-02
5.546904727816581726e-02
2.898479439318180084e-02
-7.491005957126617432e-02
-1.185502111911773682e-02
-7.968894392251968384e-02
-6.481920927762985229e-02
5.802769213914871216e-02
-1.202374929562211037e-03
8.537132292985916138e-02
-2.259718254208564758e-02
-1.064988970756530762e-01
1.749912202358245850e-01
7.757098972797393799e-02
-4.662758111953735352e-02
6.097160652279853821e-02
1.675024256110191345e-02
-5.373110249638557434e-02
-1.664038747549057007e-02
2.466113679111003876e-02
4.466463625431060791e-02
-6.394248455762863159e-02
-8.226264268159866333e-03
-5.726906470954418182e-03
-2.452544681727886200e-02
-9.996415115892887115e-03
-5.516919866204261780e-02
3.781113028526306152e-02
-1.387733817100524902e-01
6.249343976378440857e-03
-4.856919124722480774e-02
3.282018378376960754e-02
-8.972089737653732300e-02
4.427635669708251953e-02
-8.027600497007369995e-02
5.692061409354209900e-02
6.528008729219436646e-02
1.475504226982593536e-02
-2.208817377686500549e-02
1.258112140931189060e-03
-5.769556853920221329e-03
1.388556882739067078e-02
-4.440869763493537903e-02
3.849279880523681641e-02
-2.758525125682353973e-02
7.250909507274627686e-02
-3.629975020885467529e-02
9.232164919376373291e-02
-5.789266526699066162e-02
5.454228445887565613e-02
1.133989077061414719e-02
-1.074835006147623062e-02
-7.558548450469970703e-02
8.650171011686325073e-02
1.809645444154739380e-02
-7.249011099338531494e-02
-2.998120896518230438e-02
-7.335729151964187622e-02
1.076571941375732422e-01
-7.284951210021972656e-02
1.946866163052618504e-03
-1.959715224802494049e-02
-9.580411761999130249e-02
1.410132087767124176e-02
-5.345198512077331543e-02
-5.141535308212041855e-03
-2.164337225258350372e-02
-9.297677874565124512e-02
2.035729773342609406e-02
-6.642630323767662048e-03
-2.733767032623291016e-02
4.517205804586410522e-02
-9.904770180583000183e-03
6.508097797632217407e-02
-2.528596669435501099e-02
7.995517551898956299e-02
-3.063730150461196899e-02
-2.899393998086452484e-02
9.319034963846206665e-02
-4.590745642781257629e-02
-4.749905318021774292e-02
9.530480951070785522e-03
-7.242418825626373291e-02
1.875658170320093632e-03
3.033524751663208008e-02
2.987390197813510895e-02
-2.152261137962341309e-02
-4.150272905826568604e-02
-2.751911059021949768e-02
8.042760193347930908e-02
-7.194429636001586914e-02
-5.186755582690238953e-02
6.180763617157936096e-02
-3.975398838520050049e-02
-4.126203060150146484e-02
-2.496281638741493225e-02
8.400539308786392212e-02
-3.273792564868927002e-02
2.051310613751411438e-03
-8.478668332099914551e-02
9.334236383438110352e-02
-2.174755185842514038e-02
-1.287650968879461288e-02
6.019550189375877380e-02
-3.366946056485176086e-02
1.165008544921875000e-02
1.142319664359092712e-02
-4.353573545813560486e-02
-1.388825196772813797e-02
-4.116581752896308899e-02
3.769456595182418823e-02
8.271424472332000732e-02
5.836528912186622620e-02
7.658642530441284180e-02
-9.097836166620254517e-02
-6.983278691768646240e-02
-5.661058053374290466e-02
7.533852010965347290e-02
5.109068751335144043e-02
-7.330769300460815430e-02
-8.735827356576919556e-02
-1.455656066536903381e-02
8.024778962135314941e-02
8.637002110481262207e-02
5.459143221378326416e-02
5.486692488193511963e-02
8.449543267488479614e-02
1.154963858425617218e-03
-4.805039614439010620e-02
1.171691529452800751e-02
4.659194126725196838e-02
5.118215084075927734e-02
-1.205817144364118576e-02
-1.651081815361976624e-02
7.286112010478973389e-02
-2.550697885453701019e-02
6.383752077817916870e-02
1.803501322865486145e-02
-3.654766082763671875e-02
2.886271104216575623e-02
7.265489548444747925e-02
3.528047725558280945e-02
-3.710915520787239075e-02
1.857242174446582794e-02
-2.553831785917282104e-02
-6.368107628077268600e-03
4.605820402503013611e-02
-7.012300193309783936e-02
-8.180329203605651855e-02
-6.261964142322540283e-02
-8.038858883082866669e-03
5.249927192926406860e-02
-3.451373800635337830e-02
3.829083219170570374e-02
-7.777573913335800171e-02
1.736776903271675110e-02
-8.049184828996658325e-02
-8.416100591421127319e-02
5.380261689424514771e-02
-4.503728076815605164e-02
5.200670287013053894e-02
-5.080312117934226990e-02
-1.260578166693449020e-02
-4.410253465175628662e-02
1.786200515925884247e-02
8.718577027320861816e-02
-5.673528066836297512e-04
8.560760878026485443e-03
8.188344538211822510e-02
-5.107526481151580811e-02
3.535275161266326904e-02
-2.815352939069271088e-02
9.909266978502273560e-02
5.685431417077779770e-03
1.726545393466949463e-02
5.957014113664627075e-02
2.883122302591800690e-03
-7.466104626655578613e-02
-7.083867490291595459e-02
-1.109755188226699829e-01
-5.508660152554512024e-02
1.000494509935379028e-02
-3.128404170274734497e-02
8.113635331392288208e-02
1.530038286000490189e-02
6.115065421909093857e-03
-6.331413984298706055e-02
7.672949880361557007e-02
6.628340110182762146e-03
-3.218871727585792542e-02
-4.889060556888580322e-02
-6.618213653564453125e-02
3.085413016378879547e-02
-2.615560777485370636e-02
-6.311751902103424072e-02
-3.320167213678359985e-02
-7.360818237066268921e-02
5.898847803473472595e-02
3.056127950549125671e-02
4.793941602110862732e-02
-9.085960686206817627e-02
-1.028732024133205414e-02
4.461396485567092896e-02
-3.700762242078781128e-02
3.024410083889961243e-02
6.620300561189651489e-02
2.642748318612575531e-02
8.197148144245147705e-02
6.770865619182586670e-02
-4.138920456171035767e-03
1.989524811506271362e-02
-4.132147133350372314e-02
-2.883133478462696075e-02
-4.521287605166435242e-02
9.075211361050605774e-03
9.097709506750106812e-02
2.966909855604171753e-02
-1.411815825849771500e-02
7.447995245456695557e-02
8.222758769989013672e-02
-4.340218380093574524e-02
-5.894900858402252197e-02
-7.959765195846557617e-02
6.014670431613922119e-02
2.485678903758525848e-02
6.121774762868881226e-02
5.422509089112281799e-02
3.442034125328063965e-02
4.735527932643890381e-02
-3.494200529530644417e-03
-4.459415376186370850e-02
-9.535486809909343719e-03
8.313388377428054810e-02
8.537380024790763855e-03
-1.765418797731399536e-02
-7.082977890968322754e-02
-7.023324817419052124e-02
-1.027643401175737381e-02
5.651243403553962708e-02
-2.092654816806316376e-02
-1.264268998056650162e-02
1.019364744424819946e-01
6.316775083541870117e-02
-6.314902007579803467e-02
-4.818988591432571411e-02
4.333893582224845886e-02
6.396390497684478760e-02
2.335461601614952087e-02
-7.468552142381668091e-02
4.936627298593521118e-02
-5.951142683625221252e-02
5.187500640749931335e-02
4.820406809449195862e-02
-9.131590835750102997e-03
-7.225594669580459595e-02
2.396736480295658112e-02
-5.055556446313858032e-02
-3.075839020311832428e-02
-3.125288709998130798e-02
5.819411948323249817e-02
1.775101199746131897e-02
7.429849356412887573e-02
6.412971019744873047e-02
-3.069896250963211060e-02
1.112556736916303635e-02
-2.360193803906440735e-02
5.625286325812339783e-02
-1.386156026273965836e-02
-2.005767263472080231e-02
-6.207012012600898743e-02
-1.359091047197580338e-02
6.010526046156883240e-02
-1.985036395490169525e-02
8.853361755609512329e-02
1.064224168658256531e-02
-3.556698560714721680e-02
1.751358062028884888e-02
-8.502203226089477539e-02
2.335511520504951477e-02
-2.887831069529056549e-02
-2.106097340583801270e-02
8.181522786617279053e-02
-4.557104036211967468e-02
2.044549956917762756e-02
-3.967083245515823364e-02
9.004509449005126953e-02
6.278124451637268066e-02
5.818362906575202942e-02
-2.653838880360126495e-02
8.902950584888458252e-02
3.864569589495658875e-02
6.869395822286605835e-02
7.767879217863082886e-02
-7.294809911400079727e-03
-7.125433534383773804e-02
6.467337906360626221e-02
-3.539240360260009766e-02
4.742590710520744324e-02
-1.786294393241405487e-02
-8.225344121456146240e-02
2.537333965301513672e-02
-4.216045141220092773e-02
4.727580770850181580e-02
6.374794244766235352e-02
8.945141732692718506e-02
2.734417095780372620e-02
-1.686254888772964478e-02
-6.625383347272872925e-02
-6.837670225650072098e-04
4.434055835008621216e-02
5.569881573319435120e-02
-8.088669739663600922e-03
-6.900629028677940369e-03
8.936633169651031494e-02
7.655485719442367554e-02
-2.416373044252395630e-02
4.170710593461990356e-02
-1.426287693902850151e-03
-4.475829377770423889e-02
5.011279508471488953e-02
4.037196189165115356e-02
-5.525732785463333130e-02
-8.616711013019084930e-03
-6.595440953969955444e-02
3.756944835186004639e-02
8.686926215887069702e-02
1.568754948675632477e-02
-4.598967358469963074e-02
2.058726176619529724e-02
-7.693684846162796021e-02
2.697485871613025665e-02
-7.745518535375595093e-02
-6.565587222576141357e-02
1.878929696977138519e-02
2.447080798447132111e-02
-3.677253425121307373e-02
9.049910120666027069e-03
-2.499287575483322144e-02
-4.801670089364051819e-03
-6.485822796821594238e-02
-3.532250598073005676e-02
-7.437045127153396606e-02
-7.134079188108444214e-02
-6.745011080056428909e-03
-6.517051160335540771e-02
4.337047412991523743e-02
-9.451346844434738159e-02
7.432749960571527481e-03
-6.458911299705505371e-02
4.498969018459320068e-02
2.903921063989400864e-03
3.072318807244300842e-02
-5.783895403146743774e-02
9.105155616998672485e-02
3.621064871549606323e-02
-7.594801485538482666e-02
4.889190569519996643e-02
-3.907836228609085083e-02
7.279162853956222534e-02
-1.043153740465641022e-02
6.197106465697288513e-02
-6.508719921112060547e-02
-4.194126278162002563e-02
-4.931114614009857178e-02
5.941583961248397827e-02
4.312293231487274170e-02
-3.827800974249839783e-02
-5.545683577656745911e-02
-7.859726995229721069e-02
7.088697701692581177e-02
-8.556758612394332886e-02
-2.683198451995849609e-02
5.900547653436660767e-02
-1.802995428442955017e-02
6.114538013935089111e-02
-2.427498251199722290e-02
-9.218572638928890228e-03
-5.891028791666030884e-03
6.417772918939590454e-02
-3.266979008913040161e-02
7.719884812831878662e-02
-1.808910630643367767e-02
-5.961196124553680420e-02
-6.773518770933151245e-02
2.530250139534473419e-02
-7.690585404634475708e-02
-1.294060703366994858e-02
7.877254858613014221e-03
-9.902224875986576080e-03
2.959339879453182220e-03
-1.815193891525268555e-02
6.911214441061019897e-02
7.345315814018249512e-02
4.976908117532730103e-02
-2.662972838152199984e-04
-8.554169535636901855e-02
-4.132561758160591125e-02
1.669146493077278137e-02
1.946154050529003143e-02
6.405234336853027344e-02
-9.122800081968307495e-03
9.150529652833938599e-02
5.283245071768760681e-02
-7.640900462865829468e-02
-6.985181942582130432e-03
6.652933359146118164e-02
-1.075511099770665169e-03
8.731845021247863770e-02
-9.430132806301116943e-02
-5.291799828410148621e-02
5.115710943937301636e-02
-6.534859538078308105e-02
-6.865334510803222656e-02
5.085676163434982300e-02
-5.981171038001775742e-03
5.217934027314186096e-02
7.862760126590728760e-02
4.335512220859527588e-02
1.937274704687297344e-03
4.710334911942481995e-02
1.973737962543964386e-02
2.551915869116783142e-02
-7.834048941731452942e-03
3.935833647847175598e-02
1.382707059383392334e-02
2.040832117199897766e-02
-5.151583626866340637e-02
7.162516564130783081e-02
5.099055916070938110e-02
6.758268922567367554e-02
-4.596101865172386169e-02
-2.746139466762542725e-02
-1.763503625988960266e-02
-5.943084880709648132e-02
-4.910289496183395386e-02
-3.024464286863803864e-02
-6.087158620357513428e-02
5.183339491486549377e-02
-8.439582586288452148e-02
4.816517233848571777e-02
-4.784940183162689209e-02
-5.220615491271018982e-02
1.368050277233123779e-02
1.530189160257577896e-02
2.551654353737831116e-02
4.728216305375099182e-02
-9.218100458383560181e-02
1.256316783837974072e-03
-8.451002091169357300e-02
-6.288596987724304199e-02
7.634709775447845459e-02
-7.474438846111297607e-02
-3.408936411142349243e-02
-9.440049529075622559e-03
1.648188196122646332e-02
6.860902905464172363e-02
-4.506722465157508850e-02
-7.327821850776672363e-02
8.145310729742050171e-02
8.842907100915908813e-02
5.514685064554214478e-02
-8.168862015008926392e-02
-1.393567677587270737e-02
-6.665798276662826538e-02
-3.800383582711219788e-02
8.155054412782192230e-03
-6.025812774896621704e-02
-6.972767412662506104e-02
-3.283132985234260559e-02
-7.130257785320281982e-02
-3.001981414854526520e-02
4.173368960618972778e-02
-5.743385851383209229e-02
-4.800358787178993225e-02
6.950364261865615845e-02
6.999988108873367310e-02
6.959401816129684448e-02
6.011083722114562988e-02
6.799458712339401245e-02
-2.861540392041206360e-02
5.025530233979225159e-03
-2.698220685124397278e-02
-5.407118424773216248e-02
7.896520197391510010e-02
6.524140387773513794e-02
-1.914375089108943939e-02
3.438833169639110565e-03
-3.459076955914497375e-02
-7.663691788911819458e-02
3.358159959316253662e-02
-7.299023121595382690e-02
4.417014122009277344e-02
-3.794414550065994263e-02
-5.339968949556350708e-02
3.834800794720649719e-02
-7.601487636566162109e-02
5.720888078212738037e-02
5.856106802821159363e-02
-7.389445602893829346e-02
-5.149432271718978882e-02
-1.027393341064453125e-02
1.009088940918445587e-02
1.586838439106941223e-02
2.301046065986156464e-02
-6.032446026802062988e-02
3.776800632476806641e-02
4.798666015267372131e-02
-7.889354974031448364e-02
-6.673075840808451176e-04
-7.767859846353530884e-02
7.200725842267274857e-03
-6.082080770283937454e-03
-6.631861627101898193e-02
-3.967323526740074158e-02
-9.144620969891548157e-03
1.699953339993953705e-02
-7.845444232225418091e-02
7.133902609348297119e-02
-6.405787914991378784e-02
-3.347636014223098755e-02
3.044072911143302917e-02
5.045018345117568970e-02
8.040569722652435303e-03
-6.092258542776107788e-02
-7.390717417001724243e-02
-1.518444623798131943e-02
-5.667861923575401306e-02
1.354507054202258587e-03
7.964587956666946411e-02
7.303324341773986816e-02
-2.156226709485054016e-02
3.269123658537864685e-02
-9.968601167201995850e-03
-2.030212245881557465e-02
-5.798222869634628296e-02
