-7.957845926284790039e-02
-1.130930557847023010e-01
1.322744879871606827e-02
8.807168155908584595e-02
2.758022397756576538e-02
4.130331799387931824e-02
1.248010545969009399e-01
-8.752963691949844360e-02
-1.088195443153381348e-01
-1.210265327244997025e-02
5.631573498249053955e-03
-5.135541036725044250e-02
2.333710715174674988e-02
1.080525759607553482e-02
-9.754352271556854248e-02
-8.015466481447219849e-02
-1.117723435163497925e-01
4.567024484276771545e-02
-3.226635232567787170e-02
-4.208021983504295349e-02
5.591805651783943176e-02
5.756749212741851807e-02
-5.843485519289970398e-02
1.199383288621902466e-01
7.544216513633728027e-02
-1.125883981585502625e-01
-1.369624212384223938e-02
6.920321378856897354e-03
8.412603288888931274e-03
-8.250011503696441650e-02
2.142764814198017120e-02
3.587392345070838928e-02
7.726524025201797485e-02
-1.251431927084922791e-02
-3.199492394924163818e-02
-6.246215105056762695e-02
1.385237462818622589e-02
6.802172213792800903e-02
1.197370421141386032e-02
-5.615869886241853237e-04
-1.077558845281600952e-01
2.930744364857673645e-02
5.793572403490543365e-03
-1.300491020083427429e-02
5.275132507085800171e-02
4.349236190319061279e-02
-7.918357104063034058e-02
-1.650269329547882080e-02
1.989739760756492615e-02
-1.179616823792457581e-01
-2.211909554898738861e-02
2.264493145048618317e-03
1.181815266609191895e-01
-1.045779362320899963e-01
-1.152111217379570007e-01
-6.285479664802551270e-02
-1.774891279637813568e-02
2.136134728789329529e-02
-8.167380094528198242e-02
7.612296193838119507e-02
-3.809782862663269043e-02
8.248369558714330196e-04
-1.069329977035522461e-01
-1.226441562175750732e-01
5.486436560750007629e-02
1.140491664409637451e-01
-7.789248973131179810e-02
1.023286208510398865e-01
-1.185798197984695435e-01
-7.124284654855728149e-02
-6.027447804808616638e-02
-1.590898074209690094e-02
1.239617913961410522e-01
-1.503724791109561920e-02
5.415615811944007874e-02
-1.141601726412773132e-01
-3.239387413486838341e-03
-1.600828394293785095e-02
1.036504432559013367e-01
6.263726204633712769e-02
9.619367122650146484e-02
-7.258038222789764404e-02
-5.761339794844388962e-03
3.060208261013031006e-02
-1.448258291929960251e-03
-3.168370574712753296e-02
-4.596847295761108398e-02
-1.136710569262504578e-01
-6.416457146406173706e-02
-4.853613302111625671e-02
-8.180386573076248169e-02
-9.475155919790267944e-02
-6.777931004762649536e-02
-3.518044576048851013e-02
9.643685072660446167e-02
-1.008673235774040222e-01
-1.088603436946868896e-01
-4.572309926152229309e-02
1.105749905109405518e-01
1.134047135710716248e-01
-7.356315106153488159e-02
5.470946431159973145e-02
-8.914580196142196655e-02
3.472156077623367310e-02
7.160016149282455444e-02
-9.648256003856658936e-03
-1.904803514480590820e-02
1.100535094738006592e-01
-4.699008166790008545e-02
-1.054106801748275757e-01
-1.102069392800331116e-01
-9.997629374265670776e-02
-8.273451030254364014e-02
-1.205534711480140686e-01
-3.447154164314270020e-02
4.021344706416130066e-02
-6.493115425109863281e-02
-1.515189558267593384e-02
-1.039465293288230896e-01
-6.093835830688476562e-02
1.052622050046920776e-01
-4.435732215642929077e-02
1.019075885415077209e-02
-1.044528484344482422e-01
1.180605441331863403e-01
-5.552361533045768738e-02
1.160455644130706787e-01
-5.928116291761398315e-02
