7.333105057477951050e-02
-6.679835170507431030e-02
7.307834923267364502e-02
4.382076673209667206e-03
-9.846267104148864746e-02
6.395050138235092163e-02
8.518816530704498291e-02
4.598245024681091309e-02
-6.139324232935905457e-02
8.406466990709304810e-02
-7.820460200309753418e-02
-4.699726123362779617e-03
-1.072336435317993164e-01
6.608998775482177734e-02
-1.197528094053268433e-01
3.157487511634826660e-02
-1.050303503870964050e-01
-7.391048967838287354e-02
-9.044854342937469482e-02
5.243827775120735168e-02
5.607837811112403870e-02
-2.884118445217609406e-02
-1.117905601859092712e-01
7.181221991777420044e-02
8.857098966836929321e-02
3.124113380908966064e-02
5.553598981350660324e-03
8.907759934663772583e-02
7.630316168069839478e-02
9.416498243808746338e-02
-1.838554814457893372e-02
-1.159983798861503601e-01
-1.435024011880159378e-02
6.427332758903503418e-02
1.132217049598693848e-01
-2.728525735437870026e-02
8.986789733171463013e-02
-1.235599815845489502e-01
-4.587113857269287109e-02
7.766265422105789185e-03
4.073541983962059021e-02
-1.313997339457273483e-02
4.525788873434066772e-02
3.054862376302480698e-03
-6.233593821525573730e-02
-6.030847877264022827e-02
-8.101094514131546021e-02
6.741972267627716064e-02
7.104700058698654175e-02
8.218547701835632324e-02
2.229729667305946350e-02
8.059064298868179321e-02
-1.023641787469387054e-02
-9.276532381772994995e-02
-7.221553474664688110e-02
5.691732838749885559e-02
8.843906968832015991e-02
1.031792387366294861e-01
7.597327232360839844e-02
-9.117522835731506348e-02
-9.710739552974700928e-02
-1.283794548362493515e-02
4.120422154664993286e-02
1.115767136216163635e-01
