-1.267758384346961975e-02
-4.558261856436729431e-02
-4.837762564420700073e-02
2.365709654986858368e-02
-4.808523505926132202e-02
-1.775101758539676666e-02
-9.107939153909683228e-02
8.000551722943782806e-03
2.409772248938679695e-03
2.825600095093250275e-03
-3.899755701422691345e-02
-3.709977492690086365e-02
-1.272575408220291138e-01
-9.574269875884056091e-03
-9.888714551925659180e-02
-5.653119087219238281e-02
1.756757497787475586e-02
-1.067324951291084290e-01
-1.459261626005172729e-01
5.469643045216798782e-03
-8.875218778848648071e-02
-9.465653449296951294e-02
-8.386421203613281250e-02
-1.154520884156227112e-01
1.029441971331834793e-02
-4.674075171351432800e-02
-2.406347170472145081e-02
3.044151142239570618e-02
6.318488623946905136e-03
-4.894051700830459595e-02
-3.032220527529716492e-02
3.836742043495178223e-02
2.830831706523895264e-02
-6.828877329826354980e-02
-1.246669441461563110e-01
-5.419305339455604553e-02
2.108331024646759033e-02
-1.241136491298675537e-01
-1.702254265546798706e-02
-1.233531534671783447e-01
-3.131403774023056030e-02
1.890076790004968643e-03
-2.968786470592021942e-02
-7.099945098161697388e-02
-1.251552253961563110e-01
-2.159771136939525604e-02
-3.832097724080085754e-02
4.370512906461954117e-03
-5.740069970488548279e-02
-2.867605537176132202e-02
-9.157125651836395264e-02
5.991394631564617157e-03
-6.809793412685394287e-02
-5.563030391931533813e-02
1.140959002077579498e-02
-7.097364217042922974e-02
-1.122759953141212463e-01
-8.938227593898773193e-02
1.097926497459411621e-02
-2.935167215764522552e-02
-1.330552250146865845e-01
-6.503480672836303711e-02
-2.154563181102275848e-02
3.214622382074594498e-03
7.577627431601285934e-03
-5.623219162225723267e-02
-8.939114212989807129e-02
-7.261590659618377686e-02
3.256383538246154785e-02
-5.257650464773178101e-02
-5.492457374930381775e-02
-1.250117421150207520e-01
-3.095849417150020599e-02
-1.706291176378726959e-02
-3.223666455596685410e-03
3.151961416006088257e-02
3.516560792922973633e-02
1.957358419895172119e-02
-1.442601084709167480e-01
8.878551423549652100e-03
-8.881369978189468384e-02
-2.302218973636627197e-02
-2.000213973224163055e-02
-4.105992615222930908e-02
4.266807809472084045e-02
-9.827132523059844971e-02
-2.659870125353336334e-02
-9.110087156295776367e-02
-9.387329965829849243e-02
-1.437100581824779510e-02
-2.292241342365741730e-02
1.165843289345502853e-02
-8.917912095785140991e-02
-8.055225759744644165e-02
-2.214688435196876526e-02
-4.525331780314445496e-02
-1.034968644380569458e-01
-8.673848211765289307e-02
6.922370195388793945e-02
-6.781797111034393311e-02
-9.394961595535278320e-02
-2.048348775133490562e-03
-5.237467959523200989e-02
5.144553259015083313e-02
4.203855618834495544e-02
-4.018886759877204895e-02
-1.852851361036300659e-02
-9.124545753002166748e-02
-6.900487095117568970e-02
-8.818011730909347534e-02
-1.130789238959550858e-02
3.125149756669998169e-02
-1.331398785114288330e-01
-3.300115093588829041e-02
-6.140873581171035767e-02
-7.433081418275833130e-02
-4.023139923810958862e-02
1.408302504569292068e-02
4.702458903193473816e-02
-6.352175772190093994e-02
3.649163991212844849e-02
-1.075601205229759216e-02
-6.353719532489776611e-02
-3.429778292775154114e-02
-7.392778992652893066e-02
6.294423341751098633e-02
-3.379827365279197693e-02
-1.347589343786239624e-01
4.730343818664550781e-02
-1.923296041786670685e-02
6.218257360160350800e-03
1.868185773491859436e-02
-9.747797623276710510e-03
-8.550904691219329834e-02
3.188100457191467285e-02
-8.945109695196151733e-02
-7.113303989171981812e-02
-4.009274300187826157e-03
-1.229894012212753296e-01
-4.201018810272216797e-02
5.328800901770591736e-02
1.364565268158912659e-02
-1.097411215305328369e-01
-8.761387318372726440e-02
-5.106165632605552673e-02
-1.615541800856590271e-02
-4.813795536756515503e-02
1.847579888999462128e-02
-4.254143685102462769e-02
-6.764820963144302368e-02
-6.312390416860580444e-02
-1.245772372931241989e-02
-4.780666530132293701e-02
-8.558684587478637695e-02
-8.766110986471176147e-03
-3.632546216249465942e-02
-1.135872900485992432e-01
2.112471498548984528e-02
-6.143674720078706741e-03
-3.336450457572937012e-02
-6.923153996467590332e-02
1.013596542179584503e-02
-1.322799734771251678e-02
-2.525553479790687561e-02
-8.236586302518844604e-02
-8.830267004668712616e-03
-8.826849609613418579e-02
7.772678136825561523e-02
3.088829107582569122e-02
-4.511921107769012451e-02
-1.544053293764591217e-02
-1.250949874520301819e-02
-4.498399794101715088e-02
-2.073227614164352417e-02
-2.770455926656723022e-02
-4.535758122801780701e-02
-3.494805097579956055e-02
-8.441576361656188965e-02
6.220484897494316101e-02
-5.030569434165954590e-02
-2.274282649159431458e-02
-7.645334303379058838e-02
-3.050204738974571228e-02
5.528998374938964844e-02
-9.518148750066757202e-02
2.982435934245586395e-02
-3.326988220214843750e-02
-9.716184437274932861e-02
-5.565014854073524475e-02
-1.186024304479360580e-02
3.875889629125595093e-02
-7.931135594844818115e-03
4.057353362441062927e-02
3.676981106400489807e-02
-2.450458519160747528e-02
-7.617757469415664673e-02
-4.570535942912101746e-02
-9.972460567951202393e-02
-4.174385592341423035e-02
-8.595178276300430298e-02
7.742472738027572632e-02
2.222745120525360107e-02
9.065724909305572510e-03
-3.852585703134536743e-02
-6.911637261509895325e-03
-3.551135212182998657e-02
8.557810634374618530e-02
-2.788184769451618195e-02
-2.367915213108062744e-02
-6.536779925227165222e-03
1.083227340131998062e-03
-1.484099775552749634e-01
-6.080968677997589111e-02
2.146575227379798889e-02
-9.335308521986007690e-02
-1.149002090096473694e-01
1.485955435782670975e-02
-7.029601186513900757e-02
-6.990922987461090088e-02
-8.974813669919967651e-02
-4.800161346793174744e-02
-2.262166328728199005e-02
-5.833727866411209106e-02
-5.554871633648872375e-02
-8.043119311332702637e-02
-6.164500117301940918e-02
-5.076602101325988770e-02
1.323638483881950378e-03
-4.680600482970476151e-03
-7.220682501792907715e-02
4.624170716851949692e-03
-8.458978682756423950e-02
-6.879495456814765930e-03
-1.257967948913574219e-01
3.641788847744464874e-03
-1.916074939072132111e-02
-7.754857093095779419e-02
-6.779482960700988770e-02
-3.948006778955459595e-03
-1.569587141275405884e-01
-1.176035590469837189e-02
-5.732767656445503235e-02
-3.112195618450641632e-02
6.924855988472700119e-03
-5.089565739035606384e-02
-5.742085725069046021e-02
-5.410661548376083374e-02
2.719014696776866913e-02
-4.236635193228721619e-02
-7.252854853868484497e-02
2.461425401270389557e-02
-1.275863796472549438e-01
4.032694548368453979e-02
-1.063021272420883179e-01
6.768438965082168579e-02
8.662924170494079590e-02
-8.776118606328964233e-02
8.424568176269531250e-02
-1.053025722503662109e-01
-1.473165233619511127e-03
-5.092035233974456787e-02
6.930286437273025513e-02
-6.508687883615493774e-02
-9.478779137134552002e-02
-7.500268053263425827e-03
1.177470535039901733e-01
6.782962381839752197e-02
-6.482380628585815430e-02
-1.025995835661888123e-01
-1.078771799802780151e-01
4.428406804800033569e-02
-7.541144639253616333e-02
9.572147578001022339e-02
-7.898648083209991455e-02
-1.088624969124794006e-01
-5.772286653518676758e-02
-3.256993368268013000e-02
1.352696679532527924e-02
-9.431461244821548462e-02
-9.544375538825988770e-02
-5.192705243825912476e-02
-9.171847254037857056e-02
-1.053362339735031128e-01
-2.236467599868774414e-02
5.339960381388664246e-02
-9.617100656032562256e-02
3.297806903719902039e-02
5.959608033299446106e-02
8.250737935304641724e-02
9.041231870651245117e-02
-6.017901375889778137e-02
-1.658657640218734741e-01
-6.085987761616706848e-02
3.993463888764381409e-02
-1.895869523286819458e-02
4.300783388316631317e-03
-1.891112513840198517e-02
-1.214037183672189713e-02
-6.864359229803085327e-02
-4.158875718712806702e-02
-8.965796232223510742e-02
-7.444002479314804077e-02
-3.190681710839271545e-02
1.039756610989570618e-01
3.105342201888561249e-02
3.728862479329109192e-02
4.988040030002593994e-02
-8.205066621303558350e-02
-9.845952689647674561e-02
5.320022627711296082e-02
2.300252392888069153e-02
-4.453418031334877014e-02
1.209765020757913589e-02
-1.272955443710088730e-02
-5.278952419757843018e-02
4.717709124088287354e-02
-7.506343070417642593e-03
-1.142865717411041260e-01
-2.033650130033493042e-02
-3.574638068675994873e-02
4.024318419396877289e-03
-5.960832908749580383e-02
-2.008999325335025787e-02
2.248139493167400360e-02
-7.119242101907730103e-02
2.246869727969169617e-02
3.499963507056236267e-02
-5.219579115509986877e-02
-4.556654021143913269e-02
-3.713728860020637512e-03
-5.774721968919038773e-03
5.485951434820890427e-03
-1.717063598334789276e-02
-5.105151236057281494e-02
-4.200890287756919861e-02
1.463782228529453278e-02
6.875673681497573853e-02
-7.556690275669097900e-02
-2.059299312531948090e-02
-5.599261447787284851e-02
-5.147817730903625488e-02
-6.181428581476211548e-02
7.634487003087997437e-02
3.880487754940986633e-02
3.146648639813065529e-03
3.111851401627063751e-02
-1.125819385051727295e-01
-4.265419393777847290e-02
-6.086872518062591553e-02
-8.993206918239593506e-02
2.798109501600265503e-02
8.129157871007919312e-02
2.615310437977313995e-02
9.936802834272384644e-02
-8.862687647342681885e-02
9.604969993233680725e-03
-2.428295463323593140e-02
-3.893083706498146057e-02
-4.677779972553253174e-02
-3.414678201079368591e-02
-2.822845801711082458e-02
4.215676710009574890e-02
1.161071211099624634e-01
-1.026105210185050964e-01
5.919867008924484253e-02
-1.134188026189804077e-01
8.817449212074279785e-02
-7.258827984333038330e-02
-6.833733618259429932e-02
-4.485858976840972900e-02
-8.518749475479125977e-02
-1.119059044867753983e-02
2.193515747785568237e-02
-1.219710111618041992e-01
-2.109237387776374817e-02
-6.339839100837707520e-02
-3.501227498054504395e-02
1.295968424528837204e-02
4.122238978743553162e-02
-1.187635362148284912e-01
3.444389998912811279e-02
-1.334626786410808563e-02
-4.291872680187225342e-02
-7.787715643644332886e-02
-2.553571574389934540e-02
1.949142199009656906e-03
-9.720470756292343140e-02
2.056054584681987762e-02
7.123015820980072021e-02
-1.432944238185882568e-01
3.861596435308456421e-02
-4.523446410894393921e-02
2.600891329348087311e-02
-9.737612307071685791e-02
-1.665237247943878174e-01
2.622958272695541382e-02
-2.334702573716640472e-02
8.373527973890304565e-02
3.081775968894362450e-03
-1.023847684264183044e-01
4.483119584619998932e-03
-9.490638226270675659e-02
-6.569840759038925171e-02
-6.416225340217351913e-03
2.068938873708248138e-02
-7.569165527820587158e-02
2.009282074868679047e-02
6.498610973358154297e-02
-1.605908572673797607e-02
4.969842731952667236e-02
-1.350278384052217007e-03
-6.279679387807846069e-02
-1.144812554121017456e-01
3.349984437227249146e-02
-1.242708265781402588e-01
-2.390730753540992737e-02
5.393179133534431458e-02
1.300320774316787720e-01
4.001761600375175476e-02
1.283194571733474731e-01
-1.399586629122495651e-02
2.552004903554916382e-02
-1.566529460251331329e-02
5.644423142075538635e-02
3.579480107873678207e-06
9.900690615177154541e-02
-5.817978642880916595e-03
-7.281396538019180298e-02
-7.358484715223312378e-02
-1.138585954904556274e-01
6.204562727361917496e-03
-1.123236957937479019e-02
9.637888520956039429e-03
-1.571650952100753784e-01
-6.362952291965484619e-02
4.885263741016387939e-03
-8.808339387178421021e-02
-8.687262237071990967e-02
-2.288080565631389618e-02
1.083924341946840286e-02
1.684787124395370483e-02
1.588128879666328430e-02
7.149412482976913452e-02
-3.221524134278297424e-02
-1.224057078361511230e-01
-1.179348863661289215e-02
6.121576577425003052e-02
7.281147409230470657e-03
-2.696904726326465607e-02
-1.695103384554386139e-02
1.216082498431205750e-01
-2.010284513235092163e-01
5.671513080596923828e-02
-2.638623304665088654e-02
-3.515296801924705505e-02
-7.817891985177993774e-02
7.307060807943344116e-02
-1.559306830167770386e-01
-5.677489563822746277e-02
-1.684260740876197815e-02
4.918483644723892212e-02
-7.896103896200656891e-03
-2.236480824649333954e-02
5.939154699444770813e-02
7.953799515962600708e-02
-6.966812163591384888e-02
1.083929538726806641e-01
-1.956346817314624786e-02
-6.923960149288177490e-02
2.631319686770439148e-02
-2.239784598350524902e-02
1.053808256983757019e-02
-6.141199544072151184e-02
-3.833490982651710510e-02
7.398051768541336060e-02
3.394823893904685974e-02
-1.051832661032676697e-01
-1.023829877376556396e-01
-8.178410679101943970e-02
2.323913574218750000e-02
-6.782034784555435181e-02
-6.203128769993782043e-02
-2.657549828290939331e-02
3.436715342104434967e-04
1.612217351794242859e-02
-1.590186953544616699e-01
-4.158210754394531250e-02
-1.217032149434089661e-01
6.432387977838516235e-02
-8.101306855678558350e-02
-9.466812014579772949e-02
3.931525722146034241e-02
-1.191446483135223389e-01
-4.305675998330116272e-02
-5.180289223790168762e-02
1.761994208209216595e-03
-4.372331872582435608e-02
-1.444634236395359039e-02
-8.181502111256122589e-03
-9.042786061763763428e-02
-5.327007174491882324e-02
1.099419686943292618e-02
4.305653646588325500e-02
-1.372144967317581177e-01
4.586807265877723694e-02
-5.254083499312400818e-02
-5.000938102602958679e-02
-1.126270219683647156e-01
-2.972629852592945099e-02
-5.757729988545179367e-03
-3.119056858122348785e-02
1.739699989557266235e-01
4.550349712371826172e-02
1.071743816137313843e-01
-6.127345189452171326e-02
-9.588696993887424469e-03
-5.142613872885704041e-02
-4.203245416283607483e-02
5.280687473714351654e-03
2.291282173246145248e-03
6.585957109928131104e-02
-1.875178515911102295e-02
4.609516821801662445e-03
-1.541563719511032104e-01
-1.717141270637512207e-02
-6.117262318730354309e-02
-9.905161708593368530e-02
-3.080939501523971558e-02
-3.707139194011688232e-02
-5.081472918391227722e-02
-7.169751077890396118e-02
-2.068241499364376068e-02
-9.904091805219650269e-02
-4.509634524583816528e-02
1.689303666353225708e-02
-2.407035045325756073e-02
-1.658999919891357422e-02
3.525549918413162231e-02
6.123334541916847229e-02
-8.309850841760635376e-02
3.796324878931045532e-02
-7.032688707113265991e-02
-3.521580994129180908e-02
3.117019496858119965e-02
-1.156301796436309814e-01
-3.553281351923942566e-02
-8.396579325199127197e-02
-2.398280613124370575e-02
-7.409747689962387085e-02
-3.656234219670295715e-02
-9.907858073711395264e-02
-3.825652971863746643e-02
2.838208526372909546e-02
6.477888673543930054e-02
4.051277041435241699e-02
6.749137304723262787e-03
-9.623276442289352417e-02
-4.823838546872138977e-02
3.633361682295799255e-02
-1.021051662974059582e-03
-1.419484149664640427e-02
5.688044056296348572e-02
-1.035218685865402222e-01
-8.812595158815383911e-02
-3.782933577895164490e-02
6.990535557270050049e-02
-9.534229338169097900e-02
6.489865481853485107e-02
-4.914877563714981079e-02
-8.027669973671436310e-03
-4.004765301942825317e-02
-1.957583799958229065e-02
-1.312103420495986938e-01
-3.771780431270599365e-02
-1.154710501432418823e-01
3.853784874081611633e-02
3.579583019018173218e-02
6.110569089651107788e-02
-1.574947386980056763e-01
-4.754124209284782410e-02
7.088256534188985825e-03
-4.989007115364074707e-02
-3.508718684315681458e-02
2.567063271999359131e-02
-4.175376892089843750e-02
-6.886323541402816772e-02
2.389612980186939240e-02
-6.017886474728584290e-02
1.783928275108337402e-02
-9.176371991634368896e-02
-3.048917464911937714e-02
-5.802427604794502258e-02
-1.377652166411280632e-03
-1.392700523138046265e-01
-2.610310912132263184e-02
-7.719360291957855225e-02
-1.787259429693222046e-02
-4.152813553810119629e-02
-5.822074599564075470e-03
2.389762364327907562e-02
1.870315894484519958e-02
2.494739927351474762e-02
-1.268415302038192749e-01
-1.145519688725471497e-02
3.808711888268589973e-03
-1.041551828384399414e-01
-1.984015479683876038e-02
-3.502420336008071899e-02
-8.423075824975967407e-02
-7.201054692268371582e-02
-1.032080277800559998e-01
-1.052364632487297058e-01
-8.150258660316467285e-02
3.812224790453910828e-02
-9.796807914972305298e-02
-2.381811290979385376e-02
-1.150759756565093994e-01
-2.404273487627506256e-02
4.841519147157669067e-02
-8.021797239780426025e-02
3.118235804140567780e-02
-1.282269954681396484e-01
9.389439225196838379e-02
-1.109545584768056870e-02
1.664437539875507355e-02
-3.814369812607765198e-02
-5.465566366910934448e-02
-7.828517258167266846e-02
-1.245662569999694824e-03
-2.163594588637351990e-02
-3.095852211117744446e-02
-7.641591131687164307e-02
-6.581543385982513428e-02
-2.761543355882167816e-02
1.743006892502307892e-02
5.658181384205818176e-03
-2.696255035698413849e-02
5.296199396252632141e-02
-7.423558086156845093e-02
-8.398090489208698273e-03
6.653515249490737915e-02
-4.852982237935066223e-03
6.504874676465988159e-03
-8.722334355115890503e-02
3.241789340972900391e-02
3.286090213805437088e-03
-4.328905418515205383e-02
-1.175593286752700806e-01
-4.705896135419607162e-03
-1.017476804554462433e-02
2.164650894701480865e-02
-8.581817150115966797e-02
-6.905516982078552246e-02
4.630351439118385315e-02
7.576860487461090088e-02
-1.001312062144279480e-01
-5.001488327980041504e-02
-7.943338714540004730e-03
9.511960670351982117e-03
-2.026612311601638794e-02
-2.558447979390621185e-02
-8.714131265878677368e-02
-7.041497156023979187e-03
-8.615408092737197876e-02
-1.149377524852752686e-01
-5.803681164979934692e-02
-1.727110520005226135e-02
-3.181029856204986572e-02
-2.321406453847885132e-02
1.151578500866889954e-01
-6.884546577930450439e-02
1.177841871976852417e-01
-7.008784264326095581e-02
-1.040709540247917175e-01
-6.636968255043029785e-02
-8.450687676668167114e-02
3.539743646979331970e-02
-1.532950699329376221e-01
-2.378688380122184753e-02
3.240367025136947632e-02
-3.193357586860656738e-02
-1.578707993030548096e-02
2.561828307807445526e-02
-3.008037805557250977e-02
-2.354384865611791611e-03
-3.628561645746231079e-02
-9.283252060413360596e-02
-9.808175265789031982e-02
-2.740691043436527252e-02
1.529156975448131561e-02
-1.302683949470520020e-01
-2.405081316828727722e-02
-2.971525304019451141e-02
-1.115401387214660645e-01
-5.164957046508789062e-02
3.993891179561614990e-03
-3.689654171466827393e-02
9.070203453302383423e-02
1.287967432290315628e-02
-3.283318132162094116e-02
-4.998410120606422424e-03
-1.961548067629337311e-02
1.496272394433617592e-03
-1.207864191383123398e-02
-8.992893993854522705e-02
-1.021205708384513855e-01
-7.727429270744323730e-02
-3.350109979510307312e-02
7.306344062089920044e-02
-6.412566453218460083e-02
-7.980651408433914185e-02
3.309976309537887573e-02
5.325713660567998886e-03
3.844306617975234985e-02
-2.891815500333905220e-03
-1.020418256521224976e-01
-3.922063484787940979e-02
-2.722723223268985748e-02
5.018992349505424500e-03
-7.355260103940963745e-02
-5.624263361096382141e-02
-2.240861579775810242e-02
4.411699995398521423e-02
-1.285075210034847260e-02
-2.341038733720779419e-02
1.130719110369682312e-02
6.678330712020397186e-03
4.516231641173362732e-02
2.157730795443058014e-02
-3.831194341182708740e-02
-1.085087805986404419e-01
3.147295117378234863e-02
-8.314526826143264771e-02
8.927266113460063934e-03
-2.117034606635570526e-02
-8.182249218225479126e-02
-1.645259372889995575e-02
-1.473405049182474613e-03
-6.471376400440931320e-03
4.406164586544036865e-02
-1.676550693809986115e-02
-1.959580555558204651e-02
-5.764719471335411072e-02
-2.609369903802871704e-02
8.281587809324264526e-02
-2.906408905982971191e-02
-5.073063075542449951e-02
2.416135370731353760e-02
-6.926948577165603638e-02
2.876003459095954895e-02
-3.122976049780845642e-03
-1.411191523075103760e-01
-3.611640632152557373e-02
2.679262496531009674e-02
-5.673538427799940109e-03
-6.500544399023056030e-02
-3.449789062142372131e-02
-4.322847351431846619e-02
-4.724459350109100342e-02
-1.029447689652442932e-01
-1.454682275652885437e-02
2.187808044254779816e-02
2.057069912552833557e-02
-6.665533781051635742e-02
2.703294157981872559e-02
-9.645278006792068481e-02
5.700979009270668030e-02
8.603014983236789703e-03
2.782378159463405609e-02
-2.462027817964553833e-01
-6.056555360555648804e-02
-8.544644713401794434e-02
-2.472107410430908203e-01
-1.220755279064178467e-01
-2.398749580606818199e-03
-1.042300537228584290e-01
-1.734824329614639282e-01
-1.562445908784866333e-01
-3.114507794380187988e-01
-2.520901560783386230e-01
1.422771662473678589e-01
-1.231250315904617310e-01
-8.051136136054992676e-02
-8.048695325851440430e-02
-2.112187147140502930e-01
-3.073523519560694695e-03
-1.110070869326591492e-01
7.944818586111068726e-02
-3.400224447250366211e-01
5.398259311914443970e-02
-2.046748399734497070e-01
-1.655405759811401367e-01
-2.699256241321563721e-01
-2.526727616786956787e-01
-3.814349882304668427e-03
-1.434344500303268433e-01
-1.252091228961944580e-01
-1.014861613512039185e-01
-2.573858201503753662e-01
-6.672233343124389648e-02
-2.176784910261631012e-03
-4.641291126608848572e-02
-7.993239164352416992e-02
-1.847060918807983398e-01
4.396836087107658386e-02
-1.128794508986175060e-03
-1.554125696420669556e-01
-2.127394452691078186e-02
-1.383413523435592651e-01
-2.821567002683877945e-03
-2.543169260025024414e-01
-1.107270121574401855e-01
-1.136700585484504700e-01
-2.026398479938507080e-01
-7.218407839536666870e-02
-2.224564999341964722e-01
-2.592759132385253906e-01
-1.735441386699676514e-01
-1.544383168220520020e-01
-1.761747598648071289e-01
-2.090169787406921387e-01
9.506093338131904602e-03
-8.303393423557281494e-02
-1.329698711633682251e-01
1.771447621285915375e-02
8.805608004331588745e-02
-9.555125236511230469e-02
-2.436493188142776489e-01
-2.043593227863311768e-01
-2.992735505104064941e-01
-7.132418453693389893e-02
-1.713295578956604004e-01
-6.598633527755737305e-02
-1.885541230440139771e-01
-1.164340004324913025e-01
-7.400275766849517822e-02
-1.360556185245513916e-01
-1.499880254268646240e-01
-2.372448593378067017e-01
-5.820416659116744995e-02
-2.817575037479400635e-01
-2.605883777141571045e-01
-3.005653023719787598e-01
-3.216123878955841064e-01
-1.755919009447097778e-01
-1.127294078469276428e-01
-2.668174207210540771e-01
-5.408388376235961914e-02
1.408074051141738892e-01
1.020326539874076843e-01
-2.210900187492370605e-01
-2.469960227608680725e-02
-6.396909058094024658e-02
-1.000266969203948975e-01
-1.730305105447769165e-01
-2.018543705344200134e-02
-2.136196941137313843e-01
-4.713343456387519836e-02
-6.297046691179275513e-02
-1.865413933992385864e-01
-1.088528484106063843e-01
-1.499123871326446533e-01
-8.836106956005096436e-02
-2.013352364301681519e-01
1.747715175151824951e-01
-8.479168266057968140e-02
2.650161506608128548e-03
-7.787299156188964844e-02
-1.722779422998428345e-01
6.288033723831176758e-02
-2.194683700799942017e-01
-1.591113358736038208e-01
2.723021060228347778e-02
3.554479032754898071e-02
-1.190992742776870728e-01
-2.192605137825012207e-01
-1.871247589588165283e-01
-1.182782091200351715e-02
-3.413753807544708252e-01
-4.212139546871185303e-02
-1.687169969081878662e-01
-1.606137752532958984e-01
-3.431448340415954590e-01
1.132444292306900024e-02
-1.716089397668838501e-01
-5.732949823141098022e-02
-1.342918276786804199e-01
-2.328572869300842285e-01
3.524536266922950745e-02
-1.161859333515167236e-01
-8.432622998952865601e-02
-2.557022869586944580e-01
-5.010468140244483948e-02
-2.226974666118621826e-01
-4.617526009678840637e-02
-2.365334331989288330e-01
-3.740420937538146973e-01
-1.725589632987976074e-01
-2.670576050877571106e-02
-8.819151669740676880e-02
-1.907501928508281708e-02
-5.894659459590911865e-02
-1.735337525606155396e-01
4.056134074926376343e-02
5.219495669007301331e-02
-1.599226742982864380e-01
-1.031544581055641174e-01
-2.279182970523834229e-01
-3.533772379159927368e-02
-3.050653636455535889e-01
-1.861000657081604004e-01
-1.780460625886917114e-01
-1.027318388223648071e-01
1.340633165091276169e-02
-7.584250718355178833e-02
-9.752618521451950073e-02
-1.041939780116081238e-01
-1.105436608195304871e-01
-1.001149192452430725e-01
-2.379926852881908417e-02
-7.834216207265853882e-02
-2.403745502233505249e-01
-1.919402182102203369e-01
1.409003324806690216e-02
-4.347451031208038330e-02
-1.095912754535675049e-01
6.472192239016294479e-03
-1.246004998683929443e-01
9.840086847543716431e-02
-4.184224605560302734e-01
-2.947371900081634521e-01
-4.315062984824180603e-02
-8.951877057552337646e-02
5.136693827807903290e-03
-1.559589952230453491e-01
6.678566336631774902e-02
-2.451223731040954590e-01
-4.928358271718025208e-02
-7.853961549699306488e-03
-1.303065717220306396e-01
-1.172068789601325989e-01
-1.704080700874328613e-01
-1.654481887817382812e-01
-2.279576212167739868e-01
-1.028410717844963074e-01
-9.975288063287734985e-02
5.248508974909782410e-02
-7.703752722591161728e-03
-1.852100491523742676e-01
-9.226219356060028076e-02
-2.584116458892822266e-01
3.747700946405529976e-03
-2.989631295204162598e-01
-1.966730803251266479e-01
-1.413418203592300415e-01
-7.823058217763900757e-02
-3.021845477633178234e-04
-7.832267880439758301e-02
-1.311894506216049194e-01
-1.240372881293296814e-01
-3.039271011948585510e-02
-2.486430853605270386e-02
7.623697631061077118e-03
-1.709237322211265564e-02
9.109135717153549194e-02
-2.353039234876632690e-01
-1.285699456930160522e-01
-1.396609097719192505e-01
-1.787916570901870728e-01
-7.111880928277969360e-02
-1.499747186899185181e-01
-2.126120924949645996e-01
-3.135208487510681152e-01
-6.885107606649398804e-02
-4.228095710277557373e-02
-1.021628826856613159e-01
-2.867689728736877441e-01
-9.720183163881301880e-02
-6.733582913875579834e-02
9.374402463436126709e-02
-3.847648948431015015e-02
-3.038246370851993561e-02
-1.087811365723609924e-01
-4.284042119979858398e-02
-2.712204586714506149e-03
-2.054861783981323242e-01
-3.005187511444091797e-01
5.253079906105995178e-02
-1.579759269952774048e-02
-7.698868215084075928e-02
-3.247279673814773560e-02
2.198247425258159637e-02
3.903548931702971458e-03
-1.813374161720275879e-01
-2.238543778657913208e-01
9.193956851959228516e-02
-1.063145920634269714e-01
-1.298229694366455078e-01
-8.020136505365371704e-03
-2.305091619491577148e-01
-2.123819142580032349e-01
-4.324320703744888306e-02
-1.078274026513099670e-01
-8.802312612533569336e-02
-1.241467148065567017e-01
-2.085528820753097534e-01
-1.394849568605422974e-01
-1.456041336059570312e-01
-4.581303149461746216e-02
-1.737794131040573120e-01
5.722487345337867737e-02
3.971624001860618591e-02
-3.865715116262435913e-02
-9.579871594905853271e-02
4.374792799353599548e-02
-4.276205971837043762e-02
-8.118702471256256104e-02
1.212425157427787781e-02
-7.758800685405731201e-02
-6.050167605280876160e-02
-4.663957655429840088e-02
-2.668443918228149414e-01
-2.329042702913284302e-01
-1.581648886203765869e-01
1.018047779798507690e-01
8.539829403162002563e-02
1.069576130248606205e-03
1.340925097465515137e-01
1.343105435371398926e-01
-3.902793675661087036e-02
1.909413933753967285e-01
1.069484464824199677e-02
1.869539916515350342e-01
4.981063678860664368e-02
2.742713131010532379e-02
4.324635565280914307e-01
2.609377801418304443e-01
1.960149854421615601e-01
-6.525734439492225647e-03
2.871149778366088867e-01
1.759889535605907440e-02
1.236301735043525696e-01
2.951573431491851807e-01
-1.001166701316833496e-01
3.194704949855804443e-01
-6.688180565834045410e-02
-9.093792736530303955e-02
1.626626402139663696e-01
1.509244181215763092e-02
1.872735917568206787e-01
2.721770405769348145e-01
1.173739954829216003e-01
2.158198952674865723e-01
-8.102108724415302277e-03
1.812664270401000977e-01
2.499348670244216919e-01
5.305209755897521973e-02
1.565365940332412720e-01
1.244509294629096985e-01
4.756125435233116150e-02
1.304755955934524536e-01
-2.060445211827754974e-02
1.489082574844360352e-01
3.351409435272216797e-01
8.300274610519409180e-02
-5.535887088626623154e-03
3.106316030025482178e-01
-4.741232097148895264e-02
2.605587542057037354e-01
5.146424844861030579e-02
-8.000750094652175903e-03
1.427408009767532349e-01
6.550794839859008789e-02
-2.330050617456436157e-02
1.150108128786087036e-01
2.364983223378658295e-02
1.574817001819610596e-01
-1.244296133518218994e-01
2.363100834190845490e-02
-9.213297069072723389e-02
-3.207892924547195435e-02
-6.969447433948516846e-02
7.525262236595153809e-02
1.342209428548812866e-01
2.327322661876678467e-01
1.255262643098831177e-01
1.779043078422546387e-01
1.975512057542800903e-01
2.497147470712661743e-01
1.596306264400482178e-01
3.340837359428405762e-01
2.439117617905139923e-02
9.794059395790100098e-02
2.072644978761672974e-01
1.261450946331024170e-01
2.078251391649246216e-01
9.273906052112579346e-02
6.472259014844894409e-02
1.675229519605636597e-02
1.606562435626983643e-01
1.225646734237670898e-01
7.643304765224456787e-02
2.552178502082824707e-01
4.274062812328338623e-02
-2.909593880176544189e-01
6.785025447607040405e-02
4.687733575701713562e-02
-8.264158666133880615e-02
5.253573879599571228e-02
2.405930906534194946e-01
2.015107423067092896e-01
-3.357538953423500061e-02
6.859027594327926636e-02
2.325285822153091431e-01
1.068391948938369751e-01
-1.560311205685138702e-02
1.349108200520277023e-02
2.851417660713195801e-01
1.808763667941093445e-02
2.339172810316085815e-01
-1.627955734729766846e-01
1.793711036443710327e-01
-6.386096775531768799e-02
8.862464129924774170e-02
2.459663599729537964e-01
-6.841100007295608521e-02
1.233124211430549622e-01
1.646012216806411743e-01
5.146306008100509644e-02
1.862256377935409546e-01
2.238034270703792572e-02
1.558241844177246094e-01
1.543119847774505615e-01
1.143575534224510193e-01
-2.308295667171478271e-02
1.787992864847183228e-01
1.526062190532684326e-01
2.339081093668937683e-02
6.206178665161132812e-02
1.456152461469173431e-02
2.360668927431106567e-01
8.871725760400295258e-03
1.401241421699523926e-01
1.584831625223159790e-01
-1.307208184152841568e-02
5.967381969094276428e-02
3.411571681499481201e-01
7.887362153269350529e-04
-3.155340254306793213e-02
3.202888667583465576e-01
1.653391271829605103e-01
8.617910742759704590e-02
1.411114484071731567e-01
6.262333691120147705e-02
6.012149155139923096e-02
7.398843765258789062e-02
2.502486705780029297e-01
4.357546195387840271e-02
8.675044029951095581e-02
-9.133768081665039062e-02
1.698838174343109131e-02
2.318894714117050171e-01
2.376095578074455261e-02
1.717448383569717407e-01
2.426447533071041107e-02
1.288726627826690674e-01
-5.158195644617080688e-02
5.657593533396720886e-02
1.853759288787841797e-01
-1.333853453397750854e-01
3.182407096028327942e-02
9.161925315856933594e-02
-4.788505658507347107e-02
3.198323845863342285e-01
3.007868826389312744e-01
1.453118920326232910e-01
1.022936329245567322e-01
1.321407407522201538e-01
2.408740371465682983e-01
5.872172489762306213e-02
5.536440014839172363e-02
2.156662493944168091e-01
1.046899855136871338e-01
8.838355541229248047e-02
-2.024574130773544312e-01
-7.226382941007614136e-02
3.428797721862792969e-01
-2.069469913840293884e-02
-4.633861780166625977e-02
7.954417914152145386e-02
1.965291053056716919e-01
1.025454923510551453e-01
7.868393510580062866e-02
2.454309351742267609e-02
1.098447814583778381e-01
8.866544812917709351e-02
2.165298610925674438e-01
1.508394628763198853e-01
1.096685007214546204e-01
4.141265898942947388e-02
9.275666624307632446e-02
5.279451981186866760e-02
7.759668678045272827e-02
6.116810068488121033e-02
2.239225991070270538e-02
1.341930776834487915e-01
3.005489408969879150e-01
2.001028507947921753e-01
2.519219219684600830e-01
1.253750771284103394e-01
9.358745068311691284e-02
1.924723833799362183e-01
6.874229013919830322e-02
1.281287372112274170e-01
2.505001127719879150e-01
8.957976847887039185e-02
9.502890706062316895e-02
1.363683193922042847e-01
5.603023339062929153e-03
1.746758818626403809e-01
-2.367378585040569305e-02
2.940668463706970215e-01
1.867624670267105103e-01
2.008101195096969604e-01
1.790719032287597656e-01
1.748895794153213501e-01
3.230298310518264771e-02
1.670701354742050171e-01
-5.798300262540578842e-03
-5.146762728691101074e-02
1.755636781454086304e-01
1.578531265258789062e-01
4.501552507281303406e-02
1.090863496065139771e-01
-5.192958284169435501e-03
-1.187117211520671844e-02
9.412870556116104126e-02
2.526192665100097656e-01
2.151662856340408325e-02
-8.855862170457839966e-02
4.197559133172035217e-02
3.698818683624267578e-01
1.891476660966873169e-01
-1.063615158200263977e-01
-1.320710498839616776e-02
2.910241484642028809e-01
1.059668064117431641e-01
-2.964811958372592926e-02
1.858638525009155273e-01
-2.576561272144317627e-02
5.627339333295822144e-02
-2.344299703836441040e-01
2.885578870773315430e-01
6.496847420930862427e-02
9.119904041290283203e-02
1.609060466289520264e-01
6.758891791105270386e-02
1.066049188375473022e-01
7.943636924028396606e-02
3.208382129669189453e-01
1.310841739177703857e-01
-4.365124925971031189e-02
2.700119279325008392e-02
3.412931263446807861e-01
1.103280186653137207e-01
1.219744980335235596e-01
-1.574608981609344482e-01
-7.177478075027465820e-02
2.148612290620803833e-01
7.589603960514068604e-02
-3.534897789359092712e-02
8.600271493196487427e-02
1.612625420093536377e-01
-3.042519465088844299e-02
1.710679531097412109e-01
1.835784465074539185e-01
7.938880473375320435e-02
1.202601417899131775e-01
8.166611939668655396e-02
2.006591558456420898e-01
-1.027473136782646179e-01
-9.233525395393371582e-02
2.392592281103134155e-02
-4.037305247038602829e-03
-7.474872469902038574e-02
-1.350168734788894653e-01
-8.586590737104415894e-02
1.316416710615158081e-01
-7.100538909435272217e-02
-9.581771492958068848e-02
-7.810566574335098267e-02
5.041336640715599060e-03
-1.054361462593078613e-02
9.594981372356414795e-02
5.176832154393196106e-02
-1.390214916318655014e-02
-1.369948983192443848e-01
-7.751280069351196289e-02
1.125888079404830933e-01
4.865475371479988098e-02
9.579990990459918976e-03
-3.739257156848907471e-02
1.048340275883674622e-01
-2.850536815822124481e-02
1.157115399837493896e-01
-1.961345551535487175e-03
-1.078433692455291748e-01
2.003195136785507202e-01
-8.215010166168212891e-02
1.319437474012374878e-01
3.875758871436119080e-02
2.987927757203578949e-03
-6.355412304401397705e-02
-1.130889132618904114e-01
9.560591541230678558e-03
1.084160655736923218e-01
7.358279079198837280e-02
-1.519414484500885010e-01
1.757266186177730560e-02
-5.107054114341735840e-02
-5.080509185791015625e-02
4.584487155079841614e-02
6.447909027338027954e-02
-2.696604654192924500e-02
3.855711966753005981e-02
2.086111307144165039e-01
1.306614279747009277e-01
-1.263086348772048950e-01
6.627613306045532227e-02
7.536450773477554321e-02
-4.742240905761718750e-02
6.911723315715789795e-02
1.267332136631011963e-01
-1.266817841678857803e-02
5.863882601261138916e-02
1.591246575117111206e-01
-7.522831112146377563e-02
1.135674212127923965e-02
-4.709173366427421570e-02
-5.695112794637680054e-02
3.106710687279701233e-02
-1.289326883852481842e-02
4.365034028887748718e-02
-1.787668615579605103e-01
1.174646690487861633e-01
-3.837677091360092163e-02
-1.752160117030143738e-02
-2.710399590432643890e-02
2.520801732316613197e-03
-5.733394250273704529e-02
-9.601386263966560364e-03
4.543900862336158752e-02
4.814955219626426697e-02
1.075429171323776245e-01
1.152861490845680237e-01
-5.876856669783592224e-02
-1.932800412178039551e-01
-5.807529389858245850e-02
1.935492828488349915e-02
1.113567426800727844e-01
2.798019535839557648e-02
7.567789405584335327e-02
-1.173151805996894836e-01
-4.459013696759939194e-03
6.468327343463897705e-02
-3.675673156976699829e-02
-1.417015194892883301e-01
6.460214406251907349e-02
4.508528858423233032e-02
2.282257191836833954e-02
3.214737027883529663e-02
5.576132610440254211e-02
-1.073210872709751129e-02
7.087922096252441406e-02
6.490939855575561523e-02
-1.034081168472766876e-02
4.025250673294067383e-02
-1.769524067640304565e-01
1.153009980916976929e-01
-5.561874061822891235e-02
1.563942730426788330e-01
1.299167871475219727e-01
5.747670307755470276e-02
-1.944012194871902466e-02
1.111355274915695190e-01
9.097381494939327240e-03
-2.456061393022537231e-01
3.255265578627586365e-02
-4.717615991830825806e-02
4.825960844755172729e-02
-1.177943423390388489e-01
-1.289029791951179504e-02
5.544909834861755371e-02
-6.625351030379533768e-03
5.983314663171768188e-02
-1.345510482788085938e-01
1.319816429167985916e-02
9.405576437711715698e-02
-9.365561604499816895e-02
1.675254702568054199e-01
2.823718125000596046e-03
1.623444445431232452e-02
-1.927707227878272533e-03
1.999834477901458740e-01
-4.941530153155326843e-02
-3.463515639305114746e-02
6.185420975089073181e-02
2.707217819988727570e-02
-1.451294869184494019e-01
1.220722272992134094e-01
-1.053946465253829956e-01
3.667512908577919006e-02
-8.769328892230987549e-02
1.169845461845397949e-02
-9.342491626739501953e-03
1.258753053843975067e-02
5.669360607862472534e-02
4.600429534912109375e-02
9.516200423240661621e-02
1.185057405382394791e-02
2.858126908540725708e-02
-2.469107657670974731e-01
-1.410664170980453491e-01
7.615353912115097046e-02
-5.972077697515487671e-02
1.036931499838829041e-01
-5.778191611170768738e-02
5.737287178635597229e-02
-5.414957180619239807e-02
7.092811167240142822e-02
-1.317548751831054688e-01
-3.969276696443557739e-02
-5.108981952071189880e-02
-3.239075839519500732e-02
-8.731652051210403442e-02
-7.013591378927230835e-02
5.736564099788665771e-02
-2.538636624813079834e-01
9.252307564020156860e-02
1.280208379030227661e-01
6.049359962344169617e-02
-9.497190266847610474e-02
3.487433493137359619e-02
-1.005134806036949158e-01
1.171732917428016663e-01
-4.868959262967109680e-02
4.259908199310302734e-02
-3.275448456406593323e-02
-6.347681581974029541e-02
-1.054441332817077637e-01
2.250642050057649612e-03
4.255966097116470337e-02
-2.800538204610347748e-02
-4.990543704479932785e-03
-3.441304340958595276e-02
1.427586525678634644e-01
-1.394174899905920029e-02
-3.866741026286035776e-04
5.769111961126327515e-02
4.754182696342468262e-02
2.000849097967147827e-01
-9.252168238162994385e-03
-1.569908112287521362e-01
-1.701887398958206177e-01
-2.705777995288372040e-02
6.130545213818550110e-02
-8.885086327791213989e-02
2.287555485963821411e-03
-1.028802692890167236e-01
5.955564789474010468e-03
-4.135804995894432068e-02
-8.120682835578918457e-02
-6.151494383811950684e-02
3.942479565739631653e-02
-3.264154866337776184e-02
1.753333806991577148e-01
-1.111299097537994385e-01
-1.050873473286628723e-02
6.208859384059906006e-02
5.715426430106163025e-02
-1.558332592248916626e-01
1.903522876091301441e-03
7.786461710929870605e-02
-4.827247932553291321e-02
-8.365250378847122192e-02
-3.193178679794073105e-03
-1.445394754409790039e-01
-1.572978449985384941e-03
8.868537843227386475e-02
4.331174492835998535e-02
1.406216155737638474e-02
-1.061366572976112366e-01
1.260318160057067871e-01
1.358281672000885010e-01
1.328729558736085892e-02
2.110672555863857269e-02
-2.983745746314525604e-02
6.418117135763168335e-02
6.069357623346149921e-04
9.555005282163619995e-02
-2.657688688486814499e-03
-4.436618182808160782e-03
3.568978235125541687e-02
-1.021585538983345032e-01
-3.699724748730659485e-02
3.399236127734184265e-02
-7.028315961360931396e-02
-1.670765504240989685e-02
1.167749986052513123e-01
9.758499264717102051e-02
-1.786155859008431435e-03
9.985092282295227051e-02
1.621442288160324097e-01
7.049700617790222168e-02
1.939688473939895630e-01
-4.387742653489112854e-02
1.887024044990539551e-01
6.590383499860763550e-02
-9.732679463922977448e-04
-1.393231935799121857e-02
6.866135448217391968e-02
9.857934713363647461e-02
6.267530471086502075e-02
6.212353706359863281e-02
8.449532091617584229e-02
7.162022590637207031e-02
-6.676901131868362427e-02
8.605943620204925537e-02
6.115613505244255066e-03
1.013216748833656311e-01
1.158084720373153687e-01
1.311414539813995361e-01
-6.577170640230178833e-02
-2.591785416007041931e-02
1.544365435838699341e-01
-1.708220094442367554e-01
-1.772714555263519287e-01
-1.542482376098632812e-01
7.630786299705505371e-02
-2.201507613062858582e-02
-1.204182654619216919e-01
-1.784032285213470459e-01
-5.114831775426864624e-02
5.100798234343528748e-02
-6.119513884186744690e-02
-8.009087294340133667e-02
-1.210242789238691330e-02
2.978132106363773346e-02
7.087322592269629240e-05
-5.304958671331405640e-03
-1.035764962434768677e-01
-3.488437086343765259e-02
-4.492348805069923401e-02
-7.038238644599914551e-02
-5.358676612377166748e-02
-6.469427794218063354e-02
-3.923912718892097473e-02
-2.375730723142623901e-01
-2.452807128429412842e-01
-1.314745843410491943e-02
-2.473552525043487549e-02
-1.628003120422363281e-01
2.052350528538227081e-02
-5.637009814381599426e-02
9.389621764421463013e-02
-1.217235103249549866e-01
-1.006758287549018860e-01
-2.887120284140110016e-02
-7.399330288171768188e-02
-5.312332883477210999e-02
1.304555535316467285e-01
9.097797423601150513e-02
-1.866374909877777100e-02
-1.278021633625030518e-01
-9.763807803392410278e-02
5.643009394407272339e-02
4.904770478606224060e-02
-1.748261302709579468e-01
-6.274401396512985229e-02
-2.864401936531066895e-01
-4.204358160495758057e-02
-7.979786396026611328e-02
-3.352165594696998596e-02
-3.585838153958320618e-02
-1.462356150150299072e-01
1.489267647266387939e-01
-5.194388329982757568e-02
-2.645043842494487762e-02
-8.083998411893844604e-02
-1.828790903091430664e-01
7.766619324684143066e-02
-3.386111557483673096e-02
-8.021842688322067261e-02
-2.977653220295906067e-02
1.731926389038562775e-02
-2.079606652259826660e-01
4.900168627500534058e-02
-9.594140201807022095e-02
-1.917240582406520844e-02
6.642885971814393997e-03
-2.132061868906021118e-02
1.796593773178756237e-03
-1.613865792751312256e-01
8.990450203418731689e-02
-1.155905425548553467e-01
8.137395232915878296e-02
-2.721061185002326965e-02
-1.696277409791946411e-01
-1.470055729150772095e-01
-4.219495505094528198e-02
4.250627756118774414e-02
-2.052800208330154419e-01
-5.008807033300399780e-02
-6.154768913984298706e-02
-5.298012983985245228e-04
-1.158798113465309143e-02
-4.862090200185775757e-02
-3.195942193269729614e-02
-1.665108650922775269e-01
-3.380281925201416016e-01
-1.047021150588989258e-01
5.338653177022933960e-02
-1.070545893162488937e-02
-9.438794106245040894e-02
-1.020401418209075928e-01
-1.073478460311889648e-01
-4.530026111751794815e-03
8.357918262481689453e-02
-1.190471723675727844e-01
3.247772157192230225e-02
-2.775124013423919678e-01
4.828553646802902222e-02
-5.886686965823173523e-02
-5.812454968690872192e-02
-1.314977556467056274e-01
-4.608968738466501236e-03
-1.420561075210571289e-01
-1.404305994510650635e-01
-1.429362595081329346e-01
1.614949479699134827e-02
-7.684647291898727417e-02
1.301341317594051361e-02
-6.690047681331634521e-02
-1.176441758871078491e-01
-2.732426114380359650e-02
4.626184701919555664e-02
-2.815782129764556885e-01
-5.075744912028312683e-02
-1.928860545158386230e-01
-1.475051939487457275e-01
-2.095884978771209717e-01
-1.374821662902832031e-01
-3.992576524615287781e-02
-4.236501455307006836e-02
-6.232955679297447205e-02
9.022570401430130005e-02
-2.456212230026721954e-02
-1.914149522781372070e-01
-1.525119245052337646e-01
-7.974477857351303101e-02
-1.414835304021835327e-01
1.715764701366424561e-01
-1.342581510543823242e-01
-2.153197973966598511e-01
-2.605625987052917480e-01
-4.169005155563354492e-02
-1.306005716323852539e-01
-6.499284505844116211e-02
-1.203310638666152954e-01
-1.058736667037010193e-01
-7.584656029939651489e-02
-9.545658528804779053e-02
-1.581514924764633179e-01
-2.248645946383476257e-02
-1.990199387073516846e-01
-1.684853136539459229e-01
-3.452562168240547180e-02
-9.106864780187606812e-02
-2.592865824699401855e-01
-1.512001827359199524e-02
1.484140288084745407e-02
-9.085069596767425537e-02
-2.231279760599136353e-01
1.537899374961853027e-01
-1.416973918676376343e-01
-1.291630268096923828e-01
-4.207191243767738342e-02
-2.493305690586566925e-02
-2.992077916860580444e-02
-1.551622748374938965e-01
-3.134746551513671875e-01
-1.102532669901847839e-01
-9.953435510396957397e-02
-1.524473875761032104e-01
6.163204088807106018e-02
3.614986687898635864e-02
-2.835434302687644958e-02
-9.074932336807250977e-02
-1.182402893900871277e-01
-5.515261366963386536e-02
-3.861827030777931213e-02
-1.815063506364822388e-01
-9.527058899402618408e-02
-6.878804415464401245e-02
5.021538957953453064e-02
-1.604083329439163208e-01
-1.263270229101181030e-01
-1.117846742272377014e-01
2.005945332348346710e-02
-6.700708065181970596e-03
1.158439368009567261e-01
-1.188814491033554077e-01
-6.501681357622146606e-02
-5.240495130419731140e-02
-6.991077214479446411e-02
-1.050311475992202759e-01
-1.153351739048957825e-01
-5.076529085636138916e-02
-1.302628815174102783e-01
-1.484490744769573212e-02
-1.166310533881187439e-01
1.435402631759643555e-01
-7.538440823554992676e-02
7.343626767396926880e-02
-2.207158952951431274e-01
-1.843187958002090454e-02
9.964258968830108643e-02
-7.670553866773843765e-03
-3.585971146821975708e-02
-9.552350640296936035e-02
2.579774521291255951e-02
1.325496286153793335e-01
-2.543539404869079590e-01
6.785812228918075562e-02
-1.870515383780002594e-02
3.577106073498725891e-02
-1.608828827738761902e-02
-5.635903775691986084e-02
-1.909511983394622803e-01
5.355549603700637817e-02
-2.362799597904086113e-03
-1.505800783634185791e-01
1.263275090605020523e-02
-8.292299509048461914e-02
-1.216368079185485840e-01
5.077771376818418503e-03
3.186164051294326782e-02
-1.628343611955642700e-01
1.085399277508258820e-02
4.901366308331489563e-02
-2.166864871978759766e-01
-2.845735549926757812e-01
-5.468093231320381165e-02
-7.973619550466537476e-02
5.260632932186126709e-02
-1.929558217525482178e-01
-1.308429539203643799e-01
5.893715098500251770e-02
-4.840888082981109619e-02
1.211243867874145508e-01
-2.291554957628250122e-02
7.325688004493713379e-02
-5.865153670310974121e-02
3.039646521210670471e-02
1.960837543010711670e-01
-3.531946986913681030e-02
-9.410386905074119568e-03
-1.216941103339195251e-01
7.079337537288665771e-02
-4.843453317880630493e-02
-2.204127237200737000e-02
-1.228493601083755493e-01
7.230073213577270508e-02
-2.598827891051769257e-02
-4.724420234560966492e-02
4.014721512794494629e-02
-6.430755369365215302e-03
-2.347173839807510376e-01
-7.752303779125213623e-02
-6.403086334466934204e-02
-5.863249674439430237e-02
5.696248263120651245e-02
-9.744346141815185547e-02
-1.102729514241218567e-01
1.081954389810562134e-01
-1.978447437286376953e-01
-3.630572184920310974e-02
4.366619512438774109e-02
1.171607077121734619e-01
-3.427706286311149597e-02
-1.751229912042617798e-01
1.150127574801445007e-01
-3.129600360989570618e-02
-5.770113319158554077e-02
3.243575571104884148e-03
-4.882616549730300903e-02
-4.771886393427848816e-02
-1.798182725906372070e-01
-1.094719842076301575e-01
-7.171046733856201172e-02
-7.891187816858291626e-02
-1.557357162237167358e-01
-8.413273841142654419e-02
-1.794992834329605103e-01
-9.034210443496704102e-02
-4.804546386003494263e-02
-1.853683739900588989e-01
-1.338235884904861450e-01
-4.751797765493392944e-03
-1.812187582254409790e-01
-4.702887311577796936e-02
-9.590464085340499878e-02
-1.149935722351074219e-01
-7.874966599047183990e-03
-1.647115685045719147e-02
-1.442590206861495972e-01
-1.532322913408279419e-01
-4.001933336257934570e-02
-3.451377749443054199e-01
-1.452791541814804077e-01
-3.020081520080566406e-01
-5.843727290630340576e-02
-1.626913435757160187e-02
4.221367835998535156e-02
-1.006017699837684631e-01
-1.544546037912368774e-01
2.673940500244498253e-03
-3.170641064643859863e-01
-5.853607878088951111e-02
-1.318499892950057983e-01
-2.259548753499984741e-01
7.325470447540283203e-02
-1.687160283327102661e-01
-1.723952442407608032e-01
6.578206084668636322e-03
-7.830787450075149536e-02
-1.419574487954378128e-02
-1.598151177167892456e-01
-1.034633964300155640e-01
-1.365154534578323364e-01
-2.072058171033859253e-01
-3.498288244009017944e-02
-2.285322248935699463e-01
-2.109226286411285400e-01
1.364588737487792969e-02
2.011696994304656982e-02
-1.863065659999847412e-01
8.142839372158050537e-02
-4.927175864577293396e-02
-6.526492536067962646e-02
-5.378174036741256714e-02
1.005746796727180481e-01
-2.028662860393524170e-01
2.048764191567897797e-02
-1.872913241386413574e-01
-2.733261883258819580e-01
6.671367585659027100e-02
-2.456387281417846680e-01
-3.140603005886077881e-02
-2.689608037471771240e-01
-8.628944307565689087e-02
-4.990904033184051514e-02
-6.799277663230895996e-02
-4.709235206246376038e-02
6.645888090133666992e-02
-3.796065598726272583e-02
-7.154708355665206909e-02
1.408210396766662598e-01
-1.654509156942367554e-01
-8.866100758314132690e-02
-1.583741456270217896e-01
6.027469784021377563e-02
9.028409421443939209e-02
-2.299932837486267090e-01
-1.074832901358604431e-01
-4.784342646598815918e-02
2.896044217050075531e-02
-3.057135939598083496e-01
-9.059254080057144165e-02
1.298903115093708038e-02
-2.925117127597332001e-02
6.363743543624877930e-02
-7.530707865953445435e-02
-1.591298431158065796e-01
-7.973165065050125122e-02
-3.165177628397941589e-02
2.250075154006481171e-02
-3.599712997674942017e-02
4.541527107357978821e-02
-5.232255533337593079e-02
-1.517224460840225220e-01
-2.165703326463699341e-01
-6.054970994591712952e-02
-5.217021331191062927e-02
6.785570085048675537e-02
-1.369959115982055664e-01
-1.870527863502502441e-01
6.611154973506927490e-02
-3.361511230468750000e-02
-1.095497906208038330e-01
-1.122649163007736206e-01
-1.453004181385040283e-01
-1.740478575229644775e-01
-1.753009557723999023e-01
6.509176641702651978e-02
-2.623793855309486389e-02
-3.694695420563220978e-03
-1.225217580795288086e-01
-8.865284919738769531e-02
-1.759559810161590576e-01
-2.505682222545146942e-02
-1.859867200255393982e-02
-1.558820009231567383e-01
7.826337590813636780e-03
1.514388620853424072e-01
-2.198124974966049194e-01
-1.222802102565765381e-01
-2.672315537929534912e-01
2.169187180697917938e-02
-1.613556034862995148e-02
-2.756164036691188812e-02
-1.039078533649444580e-01
-2.079280838370323181e-02
-2.246276587247848511e-01
1.117958575487136841e-01
-6.161600351333618164e-02
-1.523323450237512589e-02
-3.520788550376892090e-01
1.665509641170501709e-01
-9.496196359395980835e-02
-5.550021678209304810e-02
1.313507407903671265e-01
-7.941496558487415314e-03
-2.971258386969566345e-02
-6.163749843835830688e-02
-1.242128480225801468e-02
-2.467782050371170044e-01
-5.682145059108734131e-02
-7.172514498233795166e-02
-8.182046562433242798e-02
-8.229117840528488159e-02
1.046386361122131348e-01
-1.349590718746185303e-01
-8.802914619445800781e-02
2.550341747701168060e-02
-1.022833436727523804e-01
1.282367408275604248e-01
-1.562710851430892944e-01
-7.652621716260910034e-02
-6.183518469333648682e-02
-4.610325396060943604e-02
7.657609879970550537e-02
1.258464008569717407e-01
-7.523101568222045898e-02
1.220839247107505798e-01
-9.522061794996261597e-02
-1.836336741689592600e-04
-7.351157069206237793e-02
8.158991113305091858e-03
2.406132407486438751e-02
-3.206273540854454041e-02
-1.696154773235321045e-01
-4.636897519230842590e-02
-8.392346650362014771e-02
-1.063048392534255981e-01
-4.661912471055984497e-02
-1.641185581684112549e-01
4.990426823496818542e-02
-7.050729542970657349e-02
-1.988516747951507568e-02
-1.028096210211515427e-02
-1.056739762425422668e-01
-4.911090061068534851e-02
-1.492398828268051147e-01
1.518095936626195908e-02
-1.633327752351760864e-01
-1.392747312784194946e-01
-2.559893727302551270e-01
-2.828866476193070412e-03
-4.404700174927711487e-02
-1.450503319501876831e-01
-6.712446361780166626e-02
-2.318261712789535522e-01
-1.272023767232894897e-01
-3.404593095183372498e-02
2.333435788750648499e-02
-1.584678590297698975e-01
-3.355276957154273987e-02
-3.481794148683547974e-02
-2.193018347024917603e-01
-1.077881231904029846e-01
-2.404944151639938354e-01
-1.386565119028091431e-01
-1.678370386362075806e-01
4.555408656597137451e-02
-1.035187765955924988e-01
-7.343591004610061646e-02
-1.038185879588127136e-01
-2.730175256729125977e-01
-1.581741571426391602e-01
7.719854265451431274e-02
-1.856128722429275513e-01
-1.264364719390869141e-01
-1.440495997667312622e-01
-2.102215141057968140e-01
-1.724796295166015625e-01
-7.872091978788375854e-02
4.630513023585081100e-03
7.528313994407653809e-02
2.546210400760173798e-02
-8.037237077951431274e-02
3.249406814575195312e-02
-1.098676100373268127e-01
-8.793799579143524170e-02
2.648675628006458282e-02
-2.575069665908813477e-01
-1.981358528137207031e-01
-1.198019832372665405e-01
-2.135579735040664673e-01
1.131458058953285217e-01
-1.201614215970039368e-01
-1.888134181499481201e-01
-5.620320513844490051e-02
-4.811955988407135010e-02
-1.834826543927192688e-02
-1.870618201792240143e-02
-1.323345303535461426e-01
1.416485458612442017e-01
-2.007133662700653076e-01
-4.050895571708679199e-03
-2.021343559026718140e-01
-3.414504462853074074e-03
-1.111073791980743408e-01
1.129736378788948059e-01
1.556366961449384689e-02
-1.378175318241119385e-01
-1.179741546511650085e-01
-1.562421172857284546e-01
-1.318854689598083496e-01
-8.652918785810470581e-02
-3.662837445735931396e-01
-1.150102391839027405e-01
-1.188050881028175354e-01
2.232925407588481903e-02
-1.031705960631370544e-01
-2.679460644721984863e-01
3.513132035732269287e-02
-7.465479522943496704e-02
1.708546727895736694e-01
-1.066512912511825562e-01
2.407958656549453735e-01
8.676274865865707397e-02
-4.766719043254852295e-02
2.132165990769863129e-02
1.141375973820686340e-01
4.826018214225769043e-02
5.223753675818443298e-02
4.121873900294303894e-02
1.539954915642738342e-02
-3.533433377742767334e-02
2.136541455984115601e-01
2.179557271301746368e-02
-2.306792140007019043e-02
1.756979972124099731e-01
6.654973328113555908e-02
1.489549875259399414e-01
1.637310385704040527e-01
-7.803374528884887695e-02
3.229213953018188477e-01
-8.282420039176940918e-02
8.460313826799392700e-02
9.375087916851043701e-02
-1.647899299860000610e-02
1.031806990504264832e-01
4.403197020292282104e-02
5.639410763978958130e-02
3.357043266296386719e-01
-4.328539967536926270e-02
-3.794689662754535675e-03
2.957314848899841309e-01
3.431763872504234314e-02
-5.969310924410820007e-02
2.140721976757049561e-01
-1.788440719246864319e-02
-7.707843929529190063e-02
-1.860780417919158936e-01
-4.561263322830200195e-02
1.251055300235748291e-01
1.931723356246948242e-01
-1.838808804750442505e-01
9.109510481357574463e-02
-1.439352035522460938e-01
6.886416673660278320e-02
2.795728147029876709e-01
-7.625310868024826050e-02
8.891736716032028198e-02
-4.456866532564163208e-02
3.088835179805755615e-01
3.618332790210843086e-03
-1.864301390014588833e-03
1.241590306162834167e-01
-2.533015608787536621e-01
9.434837102890014648e-02
1.616861224174499512e-01
-1.479609310626983643e-01
-4.409207403659820557e-02
-1.181562915444374084e-01
2.713310718536376953e-02
2.153618633747100830e-01
5.355857312679290771e-03
-4.095708206295967102e-02
2.150354683399200439e-01
1.202089637517929077e-01
7.752355933189392090e-02
-4.471834748983383179e-02
2.352763712406158447e-01
-3.400081070140004158e-03
1.103450879454612732e-01
1.614914834499359131e-01
9.893181920051574707e-02
7.408910989761352539e-02
2.578497119247913361e-02
1.932857781648635864e-01
1.646444052457809448e-01
2.598253190517425537e-01
2.549239620566368103e-02
1.624734699726104736e-01
3.686649501323699951e-01
-1.928395181894302368e-01
-6.564465165138244629e-02
3.331312537193298340e-02
-2.155042290687561035e-01
-3.661971166729927063e-02
2.337731570005416870e-01
1.906276345252990723e-01
-2.734784409403800964e-02
2.791729569435119629e-02
9.685968607664108276e-02
1.031254753470420837e-01
1.151438355445861816e-01
5.294237658381462097e-02
1.942361891269683838e-01
2.194368466734886169e-02
2.958628349006175995e-02
-7.677499949932098389e-02
-5.188244860619306564e-03
-4.079591855406761169e-02
-1.823236420750617981e-02
1.662847399711608887e-01
3.598590265028178692e-04
1.609599590301513672e-01
1.359909474849700928e-01
-1.060265824198722839e-01
-1.708590053021907806e-02
3.932344540953636169e-02
1.502318978309631348e-01
1.096399798989295959e-01
-6.696111708879470825e-02
-3.852611035108566284e-02
8.735720068216323853e-02
6.868313252925872803e-02
8.130297809839248657e-02
-3.464737161993980408e-02
-1.800027489662170410e-01
4.122855663299560547e-01
-9.866894222795963287e-03
1.748266965150833130e-01
1.835745126008987427e-01
5.618682876229286194e-02
1.450981646776199341e-01
1.968300193548202515e-01
-1.011910662055015564e-01
-1.845739930868148804e-01
1.541922986507415771e-01
2.304764091968536377e-01
9.065740555524826050e-02
-1.605930328369140625e-01
1.789199560880661011e-01
-9.713049978017807007e-02
-1.088431570678949356e-02
2.538766860961914062e-01
1.044255718588829041e-01
1.070651262998580933e-01
1.405423581600189209e-01
1.587195694446563721e-01
7.731433212757110596e-02
2.225722521543502808e-01
1.835488379001617432e-01
-6.147932261228561401e-02
-4.270597547292709351e-02
-1.543341875076293945e-01
2.535848617553710938e-01
2.187887579202651978e-01
2.740012668073177338e-02
-1.307099312543869019e-01
3.190382122993469238e-01
-1.228715330362319946e-01
2.173874229192733765e-01
1.486588418483734131e-01
2.024782355874776840e-03
1.167454198002815247e-01
6.184576451778411865e-02
1.323069334030151367e-01
-1.001898646354675293e-01
1.814418286085128784e-01
1.262477040290832520e-01
-1.262123603373765945e-02
2.512474656105041504e-01
-9.845703840255737305e-02
-1.364965084940195084e-02
1.079721674323081970e-01
-6.007496640086174011e-02
-4.384429380297660828e-02
-3.105081245303153992e-02
1.668738126754760742e-01
3.230536580085754395e-01
1.362204104661941528e-01
-1.524164676666259766e-01
2.188591361045837402e-01
7.061243802309036255e-02
1.701864413917064667e-02
-1.804080046713352203e-02
7.355784624814987183e-02
1.617156527936458588e-02
8.225572854280471802e-02
2.708703279495239258e-01
8.525374531745910645e-02
-7.799606025218963623e-02
-3.062753379344940186e-02
1.879023164510726929e-01
6.165505573153495789e-02
2.037123739719390869e-01
-6.669240444898605347e-02
3.698616623878479004e-01
3.960537537932395935e-02
1.342410147190093994e-01
1.055335626006126404e-01
3.724079579114913940e-02
1.414404958486557007e-01
4.844043403863906860e-02
4.643116146326065063e-02
6.317941937595605850e-03
-6.549747288227081299e-02
1.532905846834182739e-01
-1.730102449655532837e-01
2.845564298331737518e-02
1.217019781470298767e-01
3.212398290634155273e-01
7.077092677354812622e-02
1.115030795335769653e-01
4.747030884027481079e-02
3.413927555084228516e-02
3.750925883650779724e-02
1.312136650085449219e-01
3.220321238040924072e-01
2.461487613618373871e-02
6.588871031999588013e-02
6.201584264636039734e-02
3.074580132961273193e-01
-2.860250174999237061e-01
6.494170986115932465e-03
3.220716118812561035e-01
-1.636900901794433594e-01
-1.007183417677879333e-01
-6.574248522520065308e-02
2.296314686536788940e-01
-3.784907609224319458e-02
-2.074727565050125122e-01
-1.195209994912147522e-01
5.070447176694869995e-02
2.292606085538864136e-01
7.171060424298048019e-03
6.137010455131530762e-02
2.095989137887954712e-01
1.750732213258743286e-01
1.354444026947021484e-02
1.505742371082305908e-01
-5.176548287272453308e-02
4.405263438820838928e-02
1.916947960853576660e-01
1.769204437732696533e-01
1.291049569845199585e-01
-5.738127976655960083e-02
3.127393722534179688e-01
2.228052169084548950e-02
1.870727241039276123e-01
6.992855668067932129e-02
9.318207204341888428e-02
7.888772338628768921e-02
-1.449912320822477341e-02
-1.277776658535003662e-01
-2.393152564764022827e-02
4.684621840715408325e-02
1.099042743444442749e-01
-1.849859952926635742e-01
7.908041588962078094e-03
2.854918539524078369e-01
-1.350288391113281250e-01
3.549588024616241455e-01
2.391595393419265747e-01
3.176485002040863037e-01
-1.027920395135879517e-01
4.254864528775215149e-03
3.062260150909423828e-01
