6.354729831218719482e-02
4.558977857232093811e-02
-3.058921732008457184e-02
-7.756713032722473145e-02
2.638594247400760651e-03
4.537539556622505188e-02
-1.691283136606216431e-01
-1.355991233140230179e-02
-5.565077066421508789e-02
9.646704047918319702e-02
7.252177596092224121e-02
7.454586029052734375e-02
9.133906569331884384e-04
-1.305315345525741577e-01
3.392561078071594238e-01
1.922283172607421875e-01
1.430695503950119019e-01
7.115012407302856445e-02
-3.995426744222640991e-02
4.341191053390502930e-02
5.746037513017654419e-02
-3.775721648707985878e-03
2.606074325740337372e-02
8.492909371852874756e-02
-1.958051621913909912e-01
9.853190183639526367e-02
7.748375087976455688e-02
1.017907783389091492e-01
-2.098104171454906464e-02
5.981591716408729553e-02
1.230924203991889954e-01
-9.228491038084030151e-02
7.573030889034271240e-02
8.623202145099639893e-02
-1.269109696149826050e-01
1.397360414266586304e-01
8.572398871183395386e-02
-9.576558321714401245e-02
8.855628967285156250e-02
4.229026660323143005e-02
2.391211874783039093e-02
-3.213978111743927002e-01
-4.352578520774841309e-02
2.611630223691463470e-02
-1.812260411679744720e-02
7.470736652612686157e-02
3.445440903306007385e-02
-3.044481016695499420e-02
1.982174366712570190e-01
2.488219179213047028e-02
1.119031012058258057e-01
1.669465005397796631e-01
2.090787747874855995e-03
1.427992805838584900e-02
4.896497726440429688e-02
-2.521403692662715912e-02
1.821182109415531158e-02
-2.488338947296142578e-01
-8.581295609474182129e-03
-2.669587545096874237e-02
8.760611712932586670e-02
1.068436801433563232e-01
-1.502242535352706909e-01
-1.293252781033515930e-02
