-5.276801586151123047e-01
1.392084360122680664e-01
-7.350600324571132660e-03
1.944102495908737183e-01
-5.734180808067321777e-01
-2.868919074535369873e-01
1.175148859620094299e-01
-4.718459844589233398e-01
-3.187048733234405518e-01
-2.670140266418457031e-01
1.240551769733428955e-01
3.224188983440399170e-01
-3.784059882164001465e-01
-1.552120000123977661e-01
-3.032046742737293243e-02
4.092496037483215332e-01
4.072218760848045349e-02
-2.256209403276443481e-01
-5.728769898414611816e-01
-5.648687481880187988e-01
2.961920499801635742e-01
-4.694918394088745117e-01
5.741840600967407227e-01
-4.326223134994506836e-01
-4.930112957954406738e-01
2.443796843290328979e-01
-4.381960034370422363e-01
2.622972726821899414e-01
5.182036757469177246e-01
4.103022515773773193e-01
-2.556746304035186768e-01
2.405223203822970390e-03
-4.566210787743330002e-03
-7.633502781391143799e-02
2.600694894790649414e-01
-5.013611167669296265e-02
-3.265585005283355713e-01
-3.149728775024414062e-01
-5.238975584506988525e-02
-1.401267945766448975e-01
-3.232247009873390198e-02
-3.463180065155029297e-01
-3.419130742549896240e-01
4.490416944026947021e-01
3.662366569042205811e-01
2.988895773887634277e-01
-1.702457815408706665e-01
1.197840943932533264e-01
-4.900958836078643799e-01
-3.941825330257415771e-01
-5.236017107963562012e-01
-6.894055753946304321e-02
-5.207421779632568359e-01
-1.954253464937210083e-01
3.339112997055053711e-01
-2.294819951057434082e-01
-2.820357084274291992e-01
-2.760896980762481689e-01
-3.339538276195526123e-01
-2.888085842132568359e-01
4.908659160137176514e-01
-3.453913033008575439e-01
4.492895901203155518e-01
1.121508032083511353e-01
