5.812833309173583984e-01
4.480887651443481445e-01
-3.217060863971710205e-01
1.966479271650314331e-01
-8.313113451004028320e-02
4.980186522006988525e-01
-2.821989357471466064e-01
2.746286690235137939e-01
6.409555077552795410e-01
4.061760902404785156e-01
-5.346796512603759766e-01
-8.870440721511840820e-02
-1.099757850170135498e-02
-5.687931180000305176e-01
3.793858885765075684e-01
2.986740171909332275e-01
1.029350087046623230e-01
-8.919520974159240723e-01
3.434140980243682861e-01
-4.046669900417327881e-01
4.204147160053253174e-01
5.346183180809020996e-01
-4.909144639968872070e-01
-2.485759556293487549e-01
5.339949131011962891e-01
3.724795952439308167e-02
1.585736870765686035e-01
8.527881652116775513e-02
2.070077359676361084e-01
6.514894962310791016e-01
2.393944710493087769e-01
4.103095829486846924e-01
1.075175255537033081e-01
5.092085599899291992e-01
-4.638611078262329102e-01
4.517691731452941895e-01
-1.911642700433731079e-01
-7.500381022691726685e-02
6.532105207443237305e-01
3.609640896320343018e-02
3.281797766685485840e-01
6.488477587699890137e-01
1.815284043550491333e-01
4.732939898967742920e-01
-8.587104268372058868e-03
-2.063140040263533592e-03
3.517637252807617188e-01
4.938058257102966309e-01
-7.240025401115417480e-01
3.911615163087844849e-02
5.054727792739868164e-01
-3.649398684501647949e-01
3.664026781916618347e-02
-4.936989843845367432e-01
5.110546350479125977e-01
-4.387004971504211426e-01
4.344893395900726318e-01
3.663068413734436035e-01
1.037708222866058350e-01
-9.458885788917541504e-01
3.288538753986358643e-01
1.029496267437934875e-01
-8.495603203773498535e-01
-2.868311405181884766e-01
4.938183724880218506e-01
-1.030168756842613220e-01
5.630848407745361328e-01
-6.983870267868041992e-02
1.298104822635650635e-01
1.292077302932739258e-01
1.712087392807006836e-01
-6.364043354988098145e-01
-1.008249968290328979e-01
3.464320600032806396e-01
3.461524844169616699e-01
-6.045724824070930481e-02
1.074388548731803894e-01
-7.010803818702697754e-01
4.909607172012329102e-01
2.365620620548725128e-02
1.632617115974426270e-01
-3.815541043877601624e-02
1.346208304166793823e-01
-7.403391003608703613e-01
3.892126381397247314e-01
4.668412804603576660e-01
-8.591191726736724377e-04
2.060420513153076172e-01
6.202854961156845093e-02
-7.442663908004760742e-01
8.221452683210372925e-02
-4.915077686309814453e-01
3.654483258724212646e-01
-4.119684919714927673e-02
-2.484091669321060181e-01
-6.967505812644958496e-01
4.671097099781036377e-01
-4.237326085567474365e-01
1.532264798879623413e-01
4.012565314769744873e-01
-6.518726795911788940e-02
5.461398363113403320e-01
-1.598173230886459351e-01
-2.276553660631179810e-01
5.562951564788818359e-01
-3.950415849685668945e-01
-2.996032834053039551e-01
-5.626459121704101562e-01
2.394036799669265747e-01
4.927983283996582031e-01
-1.354817021638154984e-02
5.973813682794570923e-02
-1.007010266184806824e-01
6.428753137588500977e-01
-3.579684346914291382e-02
7.041492313146591187e-02
-6.073358058929443359e-01
-5.185271501541137695e-01
-3.698113262653350830e-01
-5.328324437141418457e-01
2.902097105979919434e-01
3.032056093215942383e-01
6.388273835182189941e-01
2.822948396205902100e-01
2.992478609085083008e-01
6.705951094627380371e-01
-1.147508714348077774e-02
5.833357572555541992e-01
-4.232632517814636230e-01
5.681726336479187012e-01
3.033731579780578613e-01
4.946471750736236572e-01
4.626217484474182129e-01
-6.216736510396003723e-02
4.236609935760498047e-01
-5.846290290355682373e-02
2.277805507183074951e-01
7.172740697860717773e-01
2.440145760774612427e-01
5.153051614761352539e-01
1.000110730528831482e-01
3.740124702453613281e-01
4.379074871540069580e-01
-2.063041366636753082e-02
-1.761126220226287842e-01
-6.471426486968994141e-01
-3.034042194485664368e-02
-2.268728166818618774e-01
-6.781749129295349121e-01
1.250389516353607178e-01
-4.933431446552276611e-01
3.830671906471252441e-01
-2.623652815818786621e-01
1.965044736862182617e-01
-5.092589557170867920e-02
4.772497415542602539e-01
6.561946272850036621e-01
-8.180568926036357880e-03
-1.255169659852981567e-01
4.227595031261444092e-01
4.255635738372802734e-01
4.474439471960067749e-02
6.420150399208068848e-01
1.502564698457717896e-01
3.102549612522125244e-01
-5.822085142135620117e-01
-7.297679781913757324e-02
5.434369444847106934e-01
-5.221973657608032227e-01
-2.706747353076934814e-01
4.955463111400604248e-01
3.926703333854675293e-01
-2.115539610385894775e-01
1.334725320339202881e-01
-3.581889271736145020e-01
-5.125111937522888184e-01
8.241496235132217407e-02
-2.178815156221389771e-01
4.245173633098602295e-01
7.077433466911315918e-01
-1.913208812475204468e-01
4.988647401332855225e-01
-4.087120592594146729e-01
-5.971051454544067383e-01
1.499621570110321045e-01
-6.516268849372863770e-01
1.988902837038040161e-01
6.437851488590240479e-02
-7.149307727813720703e-01
6.502059847116470337e-02
2.291464060544967651e-01
7.208119630813598633e-01
