-2.307661063969135284e-02
-1.103178784251213074e-02
-7.440624386072158813e-02
1.133522135205566883e-03
-1.561209745705127716e-02
7.432176917791366577e-02
1.076156944036483765e-01
-7.464815676212310791e-02
1.222891267389059067e-02
1.391303837299346924e-01
-6.613568961620330811e-02
1.163400113582611084e-01
-8.166459947824478149e-02
-6.057075411081314087e-02
-9.544313699007034302e-02
-3.553359583020210266e-02
-9.376857429742813110e-03
-5.913770198822021484e-02
-1.940176449716091156e-02
-2.628114260733127594e-02
-2.809258364140987396e-02
3.661229461431503296e-02
-7.043380290269851685e-02
4.890602454543113708e-02
-1.159894745796918869e-02
-9.788852185010910034e-02
1.224251836538314819e-01
-1.910533569753170013e-02
7.308411598205566406e-02
-5.822490155696868896e-02
-5.348214507102966309e-02
-6.517521291971206665e-02
-3.771707415580749512e-02
-6.791093945503234863e-02
-5.144402012228965759e-02
1.959593407809734344e-02
-8.836967498064041138e-02
-6.295198202133178711e-02
-6.129958853125572205e-02
-8.149653673171997070e-02
-4.329847544431686401e-02
-1.142156794667243958e-01
-6.281231343746185303e-02
-7.239820063114166260e-02
7.054252922534942627e-02
-5.399899557232856750e-02
-1.596842706203460693e-02
-7.785245031118392944e-02
1.121829543262720108e-02
9.221711196005344391e-03
-8.695542812347412109e-03
4.231435433030128479e-02
4.253679886460304260e-02
-8.115034550428390503e-02
5.422953888773918152e-02
1.047297194600105286e-01
8.331992663443088531e-03
2.456252276897430420e-02
-2.648812159895896912e-02
-7.752699404954910278e-02
2.194690890610218048e-02
3.606404736638069153e-02
2.490591432433575392e-04
2.294187694787979126e-01
