2.713139634579420090e-03
1.813605614006519318e-02
-2.905711764469742775e-03
1.433145720511674881e-03
1.407190412282943726e-02
-1.134682912379503250e-02
-8.165741339325904846e-03
-5.051078740507364273e-03
-1.818096032366156578e-03
4.948358517140150070e-03
-1.009920332580804825e-02
-4.992209840565919876e-03
2.217439748346805573e-02
-1.434133667498826981e-02
5.382049712352454662e-04
5.907041486352682114e-03
2.705408819019794464e-02
-1.021671667695045471e-02
6.797041278332471848e-03
-1.532734278589487076e-02
-8.901144377887248993e-03
-1.352071203291416168e-02
-2.328681573271751404e-02
2.464114222675561905e-04
-2.609698846936225891e-02
-3.537486493587493896e-02
-2.166374959051609039e-02
-1.363057550042867661e-02
-3.387446701526641846e-02
-1.497039385139942169e-02
-2.159072086215019226e-02
-7.530057337135076523e-03
-1.475630793720483780e-02
-4.423315450549125671e-02
-1.463848073035478592e-02
-3.035081364214420319e-02
-2.288297750055789948e-03
-2.740929089486598969e-02
-2.404177328571677208e-03
6.314366124570369720e-03
-2.130937576293945312e-02
-9.740145877003669739e-03
4.518331959843635559e-03
4.006444476544857025e-03
1.840608566999435425e-02
-3.860769094899296761e-03
-3.725149435922503471e-03
1.234080642461776733e-02
-2.021001651883125305e-02
6.112824194133281708e-03
-5.186616443097591400e-03
-9.739523753523826599e-03
-2.001570910215377808e-02
-8.746364153921604156e-03
2.659068442881107330e-03
-1.185335498303174973e-02
6.677434314042329788e-03
1.345949899405241013e-02
3.497044963296502829e-04
-8.426192216575145721e-03
1.817073486745357513e-02
-1.818518526852130890e-02
-1.953765749931335449e-02
-1.007053628563880920e-02
-1.270573958754539490e-02
-2.395040169358253479e-02
8.447973988950252533e-03
-2.377530746161937714e-02
-1.105927303433418274e-02
-1.453371159732341766e-02
-1.880696974694728851e-02
-1.415532361716032028e-02
-6.416488904505968094e-04
-9.599873796105384827e-03
-7.747934199869632721e-03
3.112937510013580322e-02
-1.507397741079330444e-02
-4.323331639170646667e-03
2.513943985104560852e-02
-4.559656605124473572e-03
-2.400406869128346443e-03
-1.296950317919254303e-02
4.733508452773094177e-03
-5.662695504724979401e-03
-1.085675321519374847e-02
9.364365600049495697e-03
-1.611899957060813904e-02
-1.288699917495250702e-02
3.810557071119546890e-03
-1.364494673907756805e-02
-2.126294421032071114e-03
-9.566231630742549896e-03
2.865662984549999237e-02
2.462966367602348328e-02
-1.222899835556745529e-02
-7.704395335167646408e-03
8.246918208897113800e-03
-4.859004635363817215e-03
-1.116812974214553833e-02
-1.420767325907945633e-02
-2.422804571688175201e-02
1.786097511649131775e-02
-1.109122764319181442e-03
5.828026682138442993e-03
-2.236033603549003601e-02
3.286100691184401512e-03
3.718293737620115280e-03
-2.125212363898754120e-02
-1.423005573451519012e-02
-1.202061306685209274e-02
-5.895397625863552094e-03
6.391507107764482498e-03
4.917510668747127056e-04
2.397075667977333069e-02
-9.208640083670616150e-03
-2.656243508681654930e-03
-2.081983350217342377e-02
1.175909116864204407e-02
2.526758424937725067e-02
-4.498832859098911285e-04
1.266200095415115356e-02
9.054678492248058319e-03
4.505437798798084259e-03
5.483924178406596184e-05
-1.546423789113759995e-02
4.044232424348592758e-03
-2.583267167210578918e-02
1.356604770990088582e-04
8.966644294559955597e-03
-7.161744404584169388e-03
-2.178698778152465820e-04
1.501276716589927673e-02
6.306702736765146255e-03
-7.584694772958755493e-03
2.964291907846927643e-02
-1.571908593177795410e-02
1.364381704479455948e-02
-1.281188707798719406e-02
2.010871889069676399e-03
-2.086639776825904846e-02
2.111259475350379944e-02
-4.812171682715415955e-03
3.150503383949398994e-03
8.530205115675926208e-03
4.086070228368043900e-03
1.449069660156965256e-02
-3.342950949445366859e-03
2.337547484785318375e-03
-8.336219936609268188e-03
-1.439608540385961533e-02
-2.098184823989868164e-02
-3.128964686766266823e-03
-5.007946863770484924e-03
1.885847450466826558e-04
-7.813087664544582367e-03
-1.476380694657564163e-02
-3.311760257929563522e-03
-9.835731238126754761e-03
-3.586765611544251442e-03
-1.046217884868383408e-02
1.135406550019979477e-02
-1.825318671762943268e-03
-2.125992067158222198e-02
-2.103658951818943024e-02
-1.222470123320817947e-02
5.485462024807929993e-03
1.378868799656629562e-02
1.079241046682000160e-03
-6.472013425081968307e-03
2.013990469276905060e-02
-1.593215018510818481e-02
2.710367785766720772e-03
-2.161540649831295013e-02
-1.358813885599374771e-02
4.636614583432674408e-03
4.472127649933099747e-03
1.122511550784111023e-02
-5.785582587122917175e-03
-1.958568580448627472e-02
-9.915000759065151215e-03
-8.860933594405651093e-03
1.093516685068607330e-02
-2.094053849577903748e-02
-2.181847393512725830e-02
-2.478183805942535400e-02
-2.218609489500522614e-02
2.738306857645511627e-02
-1.073176134377717972e-02
-1.932816766202449799e-02
-2.007436566054821014e-02
-1.182340737432241440e-02
-9.142177179455757141e-03
1.041769050061702728e-03
1.156767830252647400e-02
-1.932691223919391632e-02
-7.654347922652959824e-03
7.236014120280742645e-03
6.983318924903869629e-02
6.753906607627868652e-03
-1.430338481441140175e-03
-1.004125829786062241e-02
7.381948642432689667e-03
1.465410459786653519e-02
8.561468683183193207e-03
5.171852651983499527e-03
1.533761061728000641e-02
-5.612162873148918152e-03
-1.114868465811014175e-02
-4.881181754171848297e-03
1.340558053925633430e-03
8.786563761532306671e-03
-1.061535533517599106e-02
-1.743427850306034088e-02
-2.111719548702239990e-02
-1.959814317524433136e-02
3.458142653107643127e-02
-1.372609380632638931e-02
-1.642725802958011627e-02
-1.177305821329355240e-02
-6.181308999657630920e-03
-6.916491780430078506e-03
1.085345051251351833e-03
-3.814831608906388283e-03
7.117306347936391830e-03
-1.799754239618778229e-02
-1.167637761682271957e-02
-7.188084418885409832e-04
-1.115781068801879883e-02
-2.591035736259073019e-04
-7.473310921341180801e-03
-2.319518662989139557e-02
4.724440630525350571e-03
-1.476943586021661758e-02
-2.003148384392261505e-02
-1.885473169386386871e-02
1.390106510370969772e-02
-1.015271339565515518e-02
1.653659157454967499e-02
-1.716220192611217499e-02
2.071317983791232109e-03
1.636861264705657959e-02
6.638858001679182053e-03
-1.105955615639686584e-02
-4.187723156064748764e-03
3.544811904430389404e-02
-1.400168798863887787e-02
1.223177276551723480e-02
-1.130111981183290482e-03
-1.811886765062808990e-02
3.287742147222161293e-03
-8.685882203280925751e-03
-1.738122850656509399e-02
7.137582637369632721e-03
-1.891162432730197906e-02
-2.479653432965278625e-02
-6.703963037580251694e-03
-3.671506792306900024e-02
-1.206699665635824203e-02
-6.689168512821197510e-04
-1.427554059773683548e-02
-2.634046971797943115e-02
-2.618410624563694000e-02
3.853125264868140221e-03
5.228309426456689835e-03
1.851805858314037323e-02
1.524417079053819180e-03
-2.671052329242229462e-02
5.544680636376142502e-03
-1.479020621627569199e-02
-8.554068394005298615e-03
-1.545989513397216797e-02
-1.997947134077548981e-02
-1.923231407999992371e-02
1.310642110183835030e-03
-7.329811807721853256e-03
-3.388946177437901497e-03
-7.032068679109215736e-04
-1.613856293261051178e-02
-1.006948761641979218e-02
1.313397474586963654e-02
-3.221092373132705688e-02
1.726971124298870564e-03
-2.598499879240989685e-03
-1.838659681379795074e-02
-1.688292995095252991e-02
-3.286703024059534073e-03
-1.967035233974456787e-02
-5.951863247901201248e-03
-2.929104119539260864e-02
-1.794515736401081085e-02
9.889277629554271698e-03
-1.676112599670886993e-02
-1.368012093007564545e-02
-1.524199545383453369e-02
-5.251264665275812149e-03
-1.662609353661537170e-02
-1.637340523302555084e-02
-1.407116372138261795e-02
-2.385864965617656708e-02
1.094973087310791016e-02
4.808603785932064056e-03
-1.324213575571775436e-02
3.107711672782897949e-02
-4.587139468640089035e-03
-5.636756774038076401e-03
1.083769835531711578e-02
-8.175799623131752014e-03
-1.742098107933998108e-02
-2.387619391083717346e-02
4.298581043258309364e-04
-1.724250055849552155e-02
-3.112780116498470306e-02
-1.467920374125242233e-02
-1.052701100707054138e-02
1.021637464873492718e-03
1.012841612100601196e-02
-1.377708837389945984e-02
-1.501205563545227051e-02
-9.492104873061180115e-03
-7.949711754918098450e-03
-1.254055462777614594e-02
-2.884531579911708832e-02
-2.152238599956035614e-02
-1.410206034779548645e-02
-1.669845730066299438e-02
-4.275682382285594940e-03
-9.062091819941997528e-03
-9.509223513305187225e-03
-2.959532197564840317e-03
-1.492815371602773666e-02
-6.261114496737718582e-03
1.126888208091259003e-02
9.037792682647705078e-03
1.389647368341684341e-02
-2.371629700064659119e-02
-1.301222108304500580e-02
-2.457722835242748260e-02
1.939815096557140350e-02
-1.770645938813686371e-02
-2.933880547061562538e-03
-4.514235537499189377e-03
-1.301818341016769409e-02
-1.093132235109806061e-02
-1.410321705043315887e-02
-2.798495697788894176e-04
-9.395013563334941864e-03
-6.661949213594198227e-03
-8.841155096888542175e-03
7.136285305023193359e-03
-8.715141564607620239e-03
-4.254696145653724670e-02
-1.307117845863103867e-02
4.041289445012807846e-03
-9.840894490480422974e-03
-3.417036496102809906e-03
-2.332144230604171753e-02
-2.497269306331872940e-03
-1.763269305229187012e-02
-7.584359031170606613e-03
-7.108253194019198418e-04
-8.350871503353118896e-04
4.340397194027900696e-03
1.714874245226383209e-02
9.896528907120227814e-03
-8.539695292711257935e-03
-1.818315312266349792e-02
-5.290645174682140350e-03
-5.348896142095327377e-03
-1.205451204441487789e-03
-2.862930530682206154e-03
-3.225205466151237488e-02
-4.206073004752397537e-03
-5.875545553863048553e-03
-4.613692406564950943e-03
4.919049795717000961e-03
-3.613255394157022238e-04
1.265267841517925262e-02
1.625314168632030487e-02
-2.083432301878929138e-02
-1.275904849171638489e-02
-3.863970283418893814e-03
1.219828240573406219e-02
4.913340788334608078e-03
2.254907041788101196e-02
-2.902584895491600037e-02
1.278507988899946213e-02
-4.671490751206874847e-03
-4.121940582990646362e-03
-2.169763669371604919e-02
-7.298422046005725861e-03
-4.337751306593418121e-03
-1.761046797037124634e-02
7.407514378428459167e-03
7.757780258543789387e-04
-1.815670728683471680e-02
-1.069794315844774246e-02
-8.725946769118309021e-03
-1.637597754597663879e-02
9.636504575610160828e-03
-3.176994621753692627e-03
2.226807549595832825e-02
-9.995757602155208588e-03
-7.164209615439176559e-03
-7.571374531835317612e-03
-1.574680395424365997e-02
2.295189537107944489e-02
-1.053221803158521652e-02
1.387875154614448547e-02
8.951541036367416382e-03
-1.017047371715307236e-02
-6.052278913557529449e-03
-1.690209843218326569e-02
-3.298684314358979464e-04
1.033395249396562576e-02
-5.450567230582237244e-03
1.559116318821907043e-02
4.764629702549427748e-04
-7.089108228683471680e-03
-1.397402584552764893e-02
2.152255550026893616e-02
-5.524847438209690154e-05
5.999284330755472183e-03
-2.225621975958347321e-02
-4.293275531381368637e-03
1.257016789168119431e-02
-1.260027289390563965e-02
-3.228553105145692825e-03
-2.393832989037036896e-02
4.867901559919118881e-03
-2.977996831759810448e-03
8.249076083302497864e-03
6.397996097803115845e-03
1.651647686958312988e-02
-7.067828904837369919e-03
-1.557855680584907532e-02
1.072986796498298645e-02
-1.841189898550510406e-02
-6.234008818864822388e-03
1.762983575463294983e-02
-1.476471126079559326e-02
3.477791557088494301e-03
2.089312067255377769e-03
-1.033755298703908920e-02
-1.088299788534641266e-02
-3.805912286043167114e-02
-9.501108899712562561e-03
-6.750757340341806412e-03
-1.911311410367488861e-02
-1.408387068659067154e-02
4.682549461722373962e-02
-1.841075904667377472e-02
2.448731334879994392e-03
-1.563636213541030884e-02
5.852892529219388962e-03
-2.462313883006572723e-02
-8.589123375713825226e-03
-2.199793234467506409e-03
-1.321877539157867432e-02
-8.496867492794990540e-03
-1.252702809870243073e-02
-2.071792259812355042e-02
-1.324177067726850510e-02
-1.656891405582427979e-02
-1.680896617472171783e-02
6.762935314327478409e-03
8.034309372305870056e-03
-2.012931974604725838e-03
-1.837854646146297455e-02
-2.082306519150733948e-02
-5.741520319133996964e-03
-7.620593532919883728e-03
-1.639555208384990692e-02
-1.007504574954509735e-02
-1.236322522163391113e-02
-5.259233526885509491e-03
1.706875301897525787e-02
2.673572488129138947e-02
-1.308710221201181412e-02
9.630392305552959442e-03
-2.961379708722233772e-03
-2.067456208169460297e-02
1.868590828962624073e-03
3.047957085072994232e-02
-1.969790644943714142e-02
-3.742126515135169029e-03
-1.392771583050489426e-02
4.605499561876058578e-03
7.304594386368989944e-03
-1.873908564448356628e-03
-2.960449829697608948e-02
-5.134780891239643097e-03
8.165757171809673309e-03
-2.320012822747230530e-02
-1.730434037744998932e-02
-3.310680389404296875e-03
9.737091138958930969e-03
-1.569999009370803833e-02
-2.571994438767433167e-02
1.130411028861999512e-02
4.843923449516296387e-02
-7.853061892092227936e-03
1.521907467395067215e-02
2.922200039029121399e-02
-9.342808276414871216e-03
2.343743853271007538e-02
8.215685375034809113e-03
2.469035563990473747e-03
-1.419250573962926865e-02
3.193250298500061035e-02
-1.713225990533828735e-02
8.905701339244842529e-03
-9.000925347208976746e-03
