-2.509271457284967255e-09
2.773198357317596674e-04
-1.569834072142839432e-03
-4.369280213722959161e-05
1.165789058177324478e-06
2.670019239303655922e-05
1.429696276318281889e-04
-1.307860249653458595e-03
3.828598710242658854e-04
-3.223013891329173930e-06
8.153074304573237896e-06
-1.571281900396570563e-04
1.281228469451889396e-05
1.263714075321331620e-04
1.884656725451350212e-03
-1.089582001441158354e-04
-2.188552753068506718e-04
-3.937254950869828463e-04
3.742800035979598761e-04
4.846419415116542950e-06
-8.191855158656835556e-05
-3.260448238506796770e-06
-9.218729246640577912e-06
2.634075935930013657e-04
-5.827803397551178932e-04
7.762192399241030216e-05
8.026827708818018436e-04
1.457300531910732388e-04
-4.205712466500699520e-04
3.793623181991279125e-05
-1.035830532458703601e-09
-1.148603972978889942e-03
-8.671828254591673613e-06
-5.170233547687530518e-03
-5.259633006904351760e-11
2.943813451565802097e-04
-8.133777882903814316e-04
6.587302050320431590e-05
7.877305279180291109e-07
3.899511357303708792e-04
-3.570191038306802511e-04
-4.693468799814581871e-04
9.155841689789667726e-05
-1.301796757616102695e-03
1.722908491501584649e-04
-4.336248457548208535e-05
-5.614145658910274506e-03
-4.836347943637520075e-05
-7.561158417956903577e-05
5.123194423504173756e-04
3.270661409260355867e-06
-8.164206519722938538e-05
-1.659801819187123328e-05
2.814238905557431281e-05
2.621396924951113760e-05
-5.673660052707418799e-05
-8.113843068713322282e-05
6.204636804341134848e-08
-4.012024510302580893e-05
2.216915367171168327e-03
-4.154539783485233784e-04
1.252481015399098396e-04
-1.561354001751169562e-04
2.874759775295387954e-05
-1.112857251428067684e-03
6.421404541470110416e-04
3.877863055095076561e-04
4.456600290723145008e-04
2.221316026407293975e-05
-2.893866912927478552e-04
8.511744817951694131e-05
-2.618225407786667347e-04
4.203007556498050690e-04
-5.421988589660031721e-06
-1.678668631939217448e-04
-4.144109843764454126e-04
4.407694796100258827e-04
5.309847183525562286e-04
-1.551519235363230109e-04
8.048752420108939987e-07
8.210498344851657748e-05
-1.079440480680204928e-04
-1.003975863568484783e-03
-2.620834857225418091e-04
3.559708129614591599e-04
1.323516247794032097e-03
-6.447825580835342407e-05
-6.898788269609212875e-04
3.937962901545688510e-05
6.956175784580409527e-04
-8.773304580245167017e-05
-1.153066405095160007e-03
-1.861530938185751438e-03
-2.690913679543882608e-04
-1.240903220605105162e-04
-2.258262247778475285e-05
-2.784664102364331484e-04
-5.754224839620292187e-04
8.569404017180204391e-04
-4.133370384806767106e-05
-1.400209439452737570e-04
8.827774763631168753e-06
-2.328361370018683374e-05
-3.281893674284219742e-03
-3.162062494084239006e-04
4.244821684551425278e-05
-3.557057880243519321e-06
1.169749375549145043e-04
-1.078334389603696764e-05
-3.127872696495614946e-05
3.972736306590007871e-10
-1.121514991986316545e-09
2.605314852743845222e-09
-6.866946932859718800e-05
-3.576685048756189644e-05
-1.201500999741256237e-04
-1.079683774150907993e-03
3.136611849186010659e-05
-1.814482857298571616e-05
-3.104341158177703619e-05
-3.004603058798238635e-05
-7.902414836280513555e-06
-1.078465356840752065e-05
2.938661418738774955e-05
-5.963454441371141002e-06
-5.401589442044496536e-05
-2.675995056051760912e-04
2.725983213167637587e-04
9.325964492745697498e-05
1.145844653365202248e-04
-2.257137966807931662e-04
2.689945511519908905e-03
-2.836901330738328397e-05
-1.031990359479095787e-05
-1.322692114626988769e-04
-6.302580004557967186e-04
2.645202403073199093e-05
8.278485438495408744e-06
6.934874932085222099e-07
3.314358400530181825e-05
-5.350718856789171696e-05
-1.195339951664209366e-03
-4.191703628748655319e-04
1.347998477285727859e-04
5.833309478475712240e-05
-3.082507828366942704e-05
-1.716865153866820037e-05
-3.407740732654929161e-04
1.317484566243365407e-04
-6.043241955921985209e-05
-2.435395981592591852e-05
-7.809705659944654599e-10
-1.634272048249840736e-04
-3.143572248518466949e-04
4.584122052619932219e-06
-5.277732270769774914e-06
-1.310780062340199947e-03
-3.513546471367590129e-05
8.652804535813629627e-04
-4.350442613940685987e-04
3.317211167086497881e-06
-6.843091648889298995e-10
2.066748129436746240e-05
1.962361176333082824e-11
1.444484805688261986e-03
3.344042488606646657e-05
-3.619810158852487803e-04
1.472538424422964454e-04
-1.055358325174893253e-06
1.857231254689395428e-04
1.212276183650828898e-04
1.472569843841142756e-09
-1.593038973624061327e-06
-4.126669591641984880e-05
-7.597460644319653511e-04
-1.788101872080005705e-05
-1.665047311689704657e-04
-8.922439883463084698e-05
-1.693253034318331629e-05
-2.648940717335790396e-04
-4.248111963534029201e-06
1.526256237411871552e-04
-8.172169909812510014e-04
-2.187861100537702441e-04
-2.819164656102657318e-03
8.954162966645640154e-10
1.184282125905156136e-03
1.085713120119180530e-05
-3.976377411163412035e-05
3.028965147677809000e-04
1.469050184823572636e-04
4.547061325865797698e-05
-3.927568614017218351e-04
-9.208983392454683781e-04
-1.068823388777673244e-03
-3.075446102229761891e-06
7.308216881938278675e-04
-1.781616883818060160e-04
2.335294702788814902e-04
1.054752618074417114e-03
3.323986602481454611e-04
2.124909806298092008e-04
8.921579574234783649e-04
-2.000535459956154227e-04
-5.520302802324295044e-04
-5.362028969102539122e-05
-1.311372325289994478e-04
-1.051261133397929370e-04
-2.158665120077785105e-05
2.834868500940501690e-04
9.127910016104578972e-05
-1.286100741708651185e-04
1.660791022004559636e-04
4.644322034437209368e-04
-1.125110080465674400e-03
1.279044663533568382e-03
-6.719301226532081728e-10
-1.421607794327428564e-05
-7.193211786216124892e-06
5.916954978602007031e-05
-1.539697768748737872e-05
1.165517969639040530e-04
-2.129643406068026934e-10
5.609126528725028038e-04
1.673594932071864605e-03
3.093524719588458538e-05
5.198598501010565087e-06
3.631748404586687684e-05
-1.422404238837771118e-05
-1.170814211945980787e-04
-4.053288284922018647e-05
1.138322404585778713e-04
-6.135230250947643071e-06
4.690261266659945250e-05
4.277770349290221930e-04
2.343390602618455887e-03
4.602660919772461057e-05
-2.334119926672428846e-04
9.406892058905214071e-05
4.705013600947438590e-10
-5.030873580835759640e-04
-2.981016041303519160e-05
-4.328859504312276840e-04
-2.284371839778032154e-05
-1.441976110072573647e-05
-2.123110061802435666e-05
6.537633453262969851e-05
-9.115341817960143089e-04
-7.368394872173666954e-04
-9.935805428540334105e-05
8.962795982370153069e-05
-1.334127504378557205e-03
1.018731782096438110e-04
-4.815547072212211788e-06
-7.840423495508730412e-04
-4.275866376701742411e-04
7.492978397749538999e-07
1.927456818521022797e-03
-2.733593282755464315e-04
1.998457843654932731e-09
-1.112420489057797113e-09
2.467859303578734398e-03
7.076724614307750016e-06
-4.867348252446390688e-06
1.867345963546540588e-05
-3.557274467311799526e-04
-6.932273208803962916e-07
-1.135983620770275593e-04
1.504849351476877928e-04
1.951942163458397772e-09
-3.641235525719821453e-04
-1.225422020070254803e-03
9.166248491965234280e-04
-4.992357571609318256e-04
4.175878530077170581e-06
-6.729017331963405013e-05
1.625985605642199516e-03
5.139545100973919034e-05
-1.692562727839685977e-05
2.593674616946373135e-05
-1.695481769274920225e-04
1.235458694281987846e-05
5.257519660517573357e-06
1.138511579483747482e-04
1.168521048384718597e-04
-1.019882387481629848e-03
-1.128743635490536690e-03
5.733681246056221426e-05
2.085431769955903292e-04
1.130025339080020785e-04
-1.744093751767650247e-04
-6.086638313718140125e-04
4.455984744708985090e-04
-1.754672894094255753e-06
-5.027644801884889603e-04
-1.826451239139714744e-06
3.755464422283694148e-05
8.054103818722069263e-05
-9.576878179373693456e-10
4.408966560731641948e-05
-5.348285412765108049e-06
1.635334920138120651e-04
-6.803453288739547133e-05
-3.333120912429876626e-05
3.888551727868616581e-04
-7.338245050050318241e-04
1.164410946330463048e-06
-6.237095803953707218e-04
1.903158117784187198e-04
2.676870499271899462e-04
-8.033043559407815337e-05
2.487679594196379185e-04
2.498375806680996902e-06
-1.323516244156053290e-06
-3.860665953592246069e-10
-8.034405764192342758e-04
1.290160435019060969e-04
5.202227384870639071e-06
-7.430599653162062168e-04
-9.875067235043388791e-07
2.642551044118590653e-05
2.179308357881382108e-04
2.616343845147639513e-04
-3.579382319003343582e-04
-5.452148980111815035e-05
-4.438635951373726130e-04
-1.308684586547315121e-04
-5.427388241514563560e-04
3.216252953279763460e-04
-9.994211723096668720e-05
7.885427912697196007e-04
2.144539394066669047e-05
-5.539828180189942941e-06
-2.887465234380215406e-04
-7.677980647713411599e-06
-2.550731096562230960e-06
1.110743164112193426e-09
1.031718798913061619e-03
-7.683785224799066782e-05
1.237897895300932305e-09
-3.887687926180660725e-04
-3.521516919136047363e-03
-3.983031027019023895e-03
1.665666350163519382e-04
1.167885147879133001e-05
-2.552144906076136976e-05
2.877034712582826614e-04
-2.259482243971433491e-05
6.257660425035282969e-05
-1.046922352543333545e-05
-8.008098229765892029e-04
-3.447790513746440411e-04
-9.519427468518415481e-10
-9.596929917421448408e-10
-1.612401320016942918e-05
1.330611842931261890e-09
-2.843843249138444662e-04
-1.090069999918341637e-03
-1.326143195257145635e-09
-1.517858472652733326e-04
-7.685470315710318800e-12
8.190475055016577244e-04
-3.215251676014219129e-11
1.593407796462997794e-04
-2.214818960055708885e-04
9.271110320696607232e-05
1.965325209312140942e-04
-1.759269944159314036e-04
3.311788168502971530e-05
6.245742406463250518e-05
6.131714326329529285e-05
-6.157097523100674152e-04
-2.700654840737115592e-05
6.110581580287544057e-06
-4.807183286175131798e-04
1.186431472888216376e-05
-2.326421381440013647e-04
4.291122240829281509e-05
2.456477959640324116e-04
4.352756150183267891e-06
-2.349064743611961603e-04
1.378370417803864711e-09
-1.367436489090323448e-04
1.616468736642673321e-09
-1.328910584561526775e-04
1.213637078762985766e-04
8.394589531235396862e-05
5.215980763750849292e-06
2.153201930923387408e-04
-8.507350934827684341e-10
-6.784066044929204509e-06
-5.871227403986267745e-05
1.303760654991492629e-04
-6.181768840178847313e-04
1.200587962379984219e-09
-2.853217592928558588e-04
8.601626905146986246e-05
5.951184357400052249e-05
-1.361376052955165505e-04
5.324299563653767109e-04
-2.108139451593160629e-03
2.192314277635887265e-04
5.186038906686007977e-04
-3.324237477499991655e-04
3.054490662179887295e-06
3.156622115056961775e-04
-3.394710947759449482e-04
9.505079360678792000e-04
-4.746154299937188625e-04
7.095493492670357227e-04
-1.325667797758001143e-09
-1.292803091928362846e-03
-8.338638872373849154e-05
8.880336827132850885e-05
1.048604608513414860e-04
1.885215533548034728e-05
-1.366763899568468332e-04
3.275554045103490353e-04
-9.144307114183902740e-05
1.279734773561358452e-03
-7.414866704493761063e-04
-4.959258367307484150e-04
2.577420091256499290e-04
-8.016489118745084852e-06
-2.596453850856050849e-05
-9.877748088911175728e-04
-1.749481452861800790e-04
6.680879183207366623e-10
-2.516090753488242626e-04
2.295640995725989342e-03
9.362996934214606881e-05
-4.453186411410570145e-04
7.936349720694124699e-04
1.802221231628209352e-04
9.416479733772575855e-04
2.844597474904730916e-05
2.300634747371077538e-03
2.091758215101435781e-04
-1.026191748678684235e-04
9.764476271811872721e-05
-7.053920126054435968e-05
-2.786755937123075455e-09
-7.140981033444404602e-04
-2.290122893100488000e-06
4.607117443811148405e-04
-1.649316051043570042e-03
-3.164580266457051039e-04
-4.277771222405135632e-05
-1.883851382444845513e-06
2.286624066982767545e-06
-1.707099350767293799e-09
1.208457397297024727e-04
4.468473780434578657e-04
-1.935792388394474983e-04
1.112539757741615176e-04
3.091132157351239584e-06
-2.493546344339847565e-04
-3.036971902474761009e-03
-2.710645203478634357e-04
1.309332583332434297e-04
1.669040466367732733e-05
-4.839840039494447410e-05
7.088495124207838671e-08
1.205984645480384643e-09
-9.477156709181144834e-06
-1.841572338889818639e-05
1.787600845126746663e-09
2.850113902240991592e-03
-1.497980701969936490e-04
6.592132558580487967e-05
-3.237484488636255264e-04
-7.495605677831918001e-05
1.965468982234597206e-05
6.843738901807228103e-06
-1.719585452519822866e-05
-1.039079579641111195e-04
1.063996809534728527e-03
-4.777163212565938011e-06
6.953984848223626614e-04
-4.316231206757947803e-05
-5.255107225821120664e-06
1.265020532770222417e-09
-6.366053240114410983e-10
8.267598605016246438e-05
-5.520763443200848997e-05
-3.460383741185069084e-04
-4.977839533239603043e-03
1.448481576517224312e-03
1.608765101991593838e-03
1.769469599821604788e-05
1.226755673997104168e-03
-6.464865873567759991e-04
1.063978183083236217e-03
8.962292340584099293e-04
-8.565572206862270832e-04
9.963586926460266113e-04
-8.572015212848782539e-04
-6.546475028734732859e-10
2.452284819653982595e-09
5.183021130505949259e-06
2.318129190825857222e-05
-4.347565991338342428e-04
-1.299788826145231724e-03
-1.322521075053373352e-05
5.894657078897580504e-05
-1.517803524620831013e-03
7.755293336231261492e-05
-4.320568987168371677e-04
-5.533144498137687606e-10
2.073732321150600910e-05
4.699798591900616884e-04
3.006854765175148714e-10
6.392079405486583710e-03
1.642384268052410334e-05
1.158134546130895615e-03
-5.485352812684141099e-05
-3.533475392032414675e-04
4.046898393426090479e-04
-3.407982512726448476e-05
-3.621174982981756330e-06
8.532816427759826183e-04
-2.015748177655041218e-04
-2.633341937325894833e-04
7.001459380262531340e-06
-4.219580441713333130e-04
-2.523143484722822905e-04
-7.334916153922677040e-04
2.062558087345678359e-05
2.732803986873477697e-04
2.840269880834966898e-04
-3.378749946492121126e-09
-5.207700451137498021e-05
8.968924521468579769e-05
6.220673094503581524e-05
5.418257205747067928e-05
-1.417690691596362740e-05
-6.808254402130842209e-04
3.608027327572926879e-05
-2.783800475299358368e-03
-2.762541698757559061e-04
-1.722611887089442462e-05
1.798615812731441110e-05
4.301976332499179989e-06
-1.423190697096288204e-04
2.357958815991878510e-03
5.616778798867017031e-05
2.974952221848070621e-04
-1.167618247563950717e-04
-8.806203550193458796e-05
-3.057289286516606808e-04
-8.209804036596324295e-06
6.558950049750933431e-10
-8.642043394502252340e-05
-4.229733604006469250e-04
1.283087534829974174e-03
-4.607246955856680870e-04
-1.991288969293236732e-03
-5.413349936134181917e-05
-1.589885214343667030e-04
-2.532756013806647388e-07
-1.635975799274547171e-09
-6.345815490931272507e-04
-3.818739969574380666e-06
-3.723092959262430668e-06
1.548763117753537699e-09
4.077497869729995728e-04
4.933841992169618607e-04
-6.836763932369649410e-04
-2.602408931124955416e-04
4.180535906925797462e-04
-1.097390704671852291e-04
-5.159334250492975116e-06
2.851001045200973749e-05
-1.304949691984802485e-04
-4.585978575050830841e-03
-4.952006929670460522e-05
8.153428439072740730e-07
-6.150164699647575617e-05
-3.980853944085538387e-04
1.736219928716309369e-06
6.330412579700350761e-04
-6.480993033619597554e-05
-1.328011858277022839e-03
-1.187673115055076778e-05
-2.582866000011563301e-04
1.733008975861594081e-04
1.176204299554228783e-03
-7.300206925719976425e-05
8.592814207077026367e-03
-7.642950367880985141e-05
4.096845805179327726e-04
-9.033373789861798286e-04
3.390795318409800529e-04
-4.049251219839788973e-05
1.949909710674546659e-05
5.251888069324195385e-04
-1.301011889154324308e-05
-1.282758312299847603e-04
3.056781133636832237e-04
1.409037067787721753e-04
7.099325016746149686e-10
1.242540020029991865e-04
3.532453843324567799e-11
-9.947561011358629912e-06
1.001132954314698509e-09
-4.747276543639600277e-04
2.231631893664598465e-03
-3.396421379875391722e-05
-4.802441981155425310e-04
1.907108344312291592e-05
1.587366016408964242e-09
-7.393233827315270901e-04
1.108428250518045388e-06
4.478484333958476782e-04
-2.311552641913294792e-03
6.670920356555143371e-06
5.178830178920179605e-05
-1.401045592501759529e-04
-1.382668269798159599e-04
-8.055549560737063075e-10
5.341528449207544327e-04
-3.013657806150149554e-05
6.476677954196929932e-04
2.704710459511261433e-05
1.965143164852634072e-04
-2.428942752885632217e-05
1.889311970444396138e-04
-1.077511478797532618e-04
2.908921451307833195e-04
2.582367233117111027e-05
3.185546956956386566e-04
-1.149121017078869045e-04
4.100213857327617006e-07
3.648489291663281620e-05
1.156171713923015432e-09
8.524440345354378223e-04
-1.129889205913059413e-04
-1.468308252761119093e-09
-5.084350123070180416e-04
-2.366657136008143425e-03
-3.067943616770207882e-04
5.583362144534476101e-05
4.840269320993684232e-05
2.144607016816735268e-03
2.128894557245075703e-04
-1.998811421799473464e-05
-8.577787957619875669e-05
7.557976641692221165e-05
-1.865308877313509583e-04
7.460351334884762764e-04
3.975921135861426592e-04
-1.559186668664835906e-09
-1.350115344393998384e-04
5.690202815458178520e-04
-6.764474092051386833e-04
6.586840754607692361e-05
-4.231873026583343744e-05
1.113411053665913641e-04
-4.159811851423000917e-06
-4.305667243897914886e-04
-5.981612048344686627e-05
6.621592547162435949e-06
3.976212497036613058e-07
-1.210981426993384957e-04
-1.733852514007594436e-05
6.489762017736211419e-05
3.276770712545840070e-06
-1.396044535795226693e-04
1.198381505673751235e-04
9.896027040667831898e-05
1.977481151698157191e-04
-3.393765946384519339e-04
2.730287960730493069e-04
-5.725335329771041870e-03
-3.938133886549621820e-04
2.778981489370835334e-09
-6.042561653885059059e-05
3.788066578636062331e-06
-1.999850210268050432e-04
1.427081151632592082e-04
-1.556745410198345780e-04
4.264659713953733444e-03
-1.412183925353360792e-09
-1.575829664943739772e-04
-8.598480235377792269e-06
5.006575956940650940e-04
1.762445026542991400e-04
-1.018613693304359913e-04
-1.644197618588805199e-05
5.659761372953653336e-03
-7.455631275661289692e-04
7.672224310226738453e-04
-1.565493730595335364e-04
5.023064441047608852e-04
2.434055568301118910e-05
3.735032514669001102e-04
2.429299347568303347e-04
3.259220102336257696e-05
-1.413359873581043757e-09
-2.203539712354540825e-03
9.683562529971823096e-05
-7.059503113850951195e-04
-4.516000917647033930e-04
3.267978609073907137e-04
1.205401531478855759e-05
1.746405575708820379e-09
-1.841849916672799736e-05
3.197932383045554161e-04
1.052426432579522952e-05
-3.312570624984800816e-04
-6.612953438889235258e-05
3.014294452441390604e-05
4.978056531399488449e-04
-8.072780328802764416e-04
-2.136480325134471059e-04
2.272449055453762412e-04
-1.036620014929212630e-04
-1.029549966915510595e-04
4.585491478792391717e-05
1.250344939762726426e-04
2.676137664820998907e-04
6.665955879725515842e-04
-3.792099732891074382e-06
-8.452106703771278262e-05
2.078961813822388649e-03
1.165653593488968909e-04
5.284883809508755803e-05
-7.621270196978002787e-05
-1.132651084034819178e-09
-3.919942537322640419e-05
6.591069395653903484e-04
3.123203641735017300e-04
-1.929141035361681134e-05
-3.497192301438190043e-05
4.139012307859957218e-04
5.639316896122181788e-06
-7.929307210829961150e-10
3.779871331062167883e-04
-1.813314156606793404e-05
4.266153439402842196e-07
-5.593261448666453362e-06
-1.878323091659694910e-04
5.497396923601627350e-03
5.004728518542833626e-05
6.230646395124495029e-04
2.392938040429726243e-04
-3.120693872915580869e-05
-1.128631629399023950e-05
3.514337877277284861e-04
-1.150594325736165047e-03
1.165779656730592251e-03
-2.964378109027165920e-05
7.877658390498254448e-06
2.308730268850922585e-03
-4.841489862883463502e-05
-5.045347279519774020e-06
7.172533969423966482e-06
2.736286842264235020e-04
-4.919612911180593073e-05
7.524633138800140841e-10
1.312589389272034168e-03
1.393163402099162340e-04
8.236141729867085814e-05
2.883898850996047258e-04
5.719589171349070966e-05
-4.607434384524822235e-04
5.901965050725266337e-05
2.565267095633316785e-05
-6.619232590310275555e-05
-3.488311417498834999e-09
1.847166102379560471e-03
-7.140982052078470588e-05
-8.798788621788844466e-05
2.844417758751660585e-04
1.485909451730549335e-04
-9.927500650519505143e-05
8.158670971170067787e-05
-1.116110615839716047e-05
4.338560102041810751e-04
3.636774781625717878e-04
-1.824868013500235975e-05
-2.860941822291351855e-05
1.890424173325300217e-03
9.683591997600160539e-06
2.915785880759358406e-04
-8.028018783079460263e-05
-1.011039246805012226e-03
-5.532598606805549935e-06
-1.280952164961490780e-05
-6.101815719361525225e-10
-4.668160909204743803e-05
-4.231768616591580212e-05
-7.985168485902249813e-05
2.080542501062154770e-03
1.754342702042777091e-05
-2.003203699132427573e-04
1.007664541248232126e-04
1.949062607309315354e-06
6.284043047344312072e-05
2.667591033969074488e-04
-4.373507908894680440e-05
-8.717479795450344682e-05
6.271970778470858932e-05
2.067582914605736732e-03
-1.803711180414779847e-09
-1.163852401077747345e-03
-7.993297913344576955e-05
1.439894695067778230e-04
-2.821381203830242157e-04
-1.296917616855353117e-04
1.146808499470353127e-03
1.056674664141610265e-04
-7.498087597923586145e-06
-1.540560188004747033e-04
-4.097814089618623257e-04
8.787835213297512382e-06
-2.025766880251467228e-04
-2.019988372921943665e-03
8.228539081756025553e-05
-1.949050476568459089e-09
-2.387795690339533650e-11
-7.413644925691187382e-04
2.365842228755354881e-04
5.355366852199949790e-07
1.008371764328330755e-04
-3.809391928371042013e-04
-1.021389743982581422e-05
-2.747918770182877779e-04
3.168718889355659485e-03
1.693022204563021660e-05
-6.846058164811097413e-10
1.865941449068486691e-04
5.140828761796001345e-06
-2.970271743834018707e-04
-9.880141587927937508e-04
9.357975613966118544e-06
-1.229286408488405868e-05
4.212844032736029476e-06
-1.437459286535158753e-04
1.334696076810359955e-03
2.805193653330206871e-04
3.774818615056574345e-04
-6.773190307285403833e-06
1.484377542510628700e-03
-9.948512888513505459e-05
-1.513917814008891582e-04
-4.090515358257107437e-05
-1.238134136656299233e-04
-1.346099073998630047e-03
1.699758431641384959e-04
2.211493905633687973e-03
1.110248490476806182e-06
1.276208786293864250e-03
-2.695282455533742905e-04
4.193841959931887686e-05
4.777439171448349953e-04
-1.254996641364414245e-05
-1.514161704108119011e-03
1.210098162118811160e-06
3.302390105091035366e-04
-1.293088644160889089e-05
-7.188546533143380657e-06
-8.315753075294196606e-05
-3.943381670978851616e-05
-1.965536503121256828e-04
-4.543399554677307606e-04
6.631168616877403110e-06
-8.803995442576706409e-04
1.950477599166333675e-04
-4.933990421704947948e-04
-1.665209187194705009e-03
-2.825410410878248513e-05
1.442092470824718475e-03
1.137321087298914790e-04
3.314068635518196970e-06
-6.413228693418204784e-04
7.310536457225680351e-04
-5.130512727191671729e-05
-8.494975045323371887e-04
-2.811766171362251043e-05
-2.636979043018072844e-04
-4.018330946564674377e-04
-2.363508883718168363e-06
2.175520785385742784e-05
-3.590413834899663925e-03
-3.131383763399497866e-10
1.030369458021596074e-05
8.029124001041054726e-05
-5.923815842834301293e-05
5.310309279593639076e-05
5.163623427506536245e-05
3.352021798491477966e-03
4.705391358584165573e-03
7.760690641589462757e-05
1.409943592989293393e-06
-1.484254607930779457e-03
6.505000055767595768e-04
-7.908323459560051560e-05
1.095529369194991887e-04
-4.067997913807630539e-03
3.276067945989780128e-05
8.044548280849994626e-07
-3.610455823199743008e-10
9.640688247714024328e-10
-5.459603562485426664e-05
9.466934716328978539e-05
1.263940951901076915e-09
-8.949450420914217830e-05
1.215747306559933349e-05
4.442166391527280211e-05
-1.139829342022835590e-09
2.901763946283608675e-05
8.243984484579414129e-05
4.348419679445214570e-05
-6.153323338367044926e-04
-3.497330480772831152e-10
-4.270568024367094040e-05
1.022572541842237115e-05
-1.439339976059272885e-04
1.509587677084311963e-09
2.317033022336545400e-06
1.159554885816760361e-04
2.026180118264164776e-05
2.354635944357141852e-05
2.569095214344230271e-10
-2.614125332911498845e-05
8.677516016177833080e-04
-1.067157251455341793e-09
-3.356319894010084681e-06
8.949476177804172039e-04
-3.810011781752109528e-03
8.062896995397750288e-06
1.121432636864483356e-03
-8.314501610584557056e-05
-7.135428745641547721e-07
6.476254930021241307e-05
-2.185190533054992557e-05
3.266380517743527889e-04
1.081241178326308727e-03
1.010823063552379608e-03
6.292887846939265728e-04
5.339970230124890804e-04
3.484104236122220755e-04
5.501593113876879215e-05
2.763140248134732246e-03
5.807806519442237914e-05
-5.855931885889731348e-05
1.207009427162120119e-05
3.595129328459734097e-06
-3.343635398778133094e-05
-1.789409143384546041e-04
2.954595856863306835e-06
3.038759132323320955e-05
-5.468310337164439261e-05
4.162966433796100318e-05
-1.112189011109876446e-06
9.537280857330188155e-05
9.253789903596043587e-05
3.483206967302976409e-07
3.240979276597499847e-04
-3.674409890663810074e-05
1.340841117780655622e-04
-9.331101864518132061e-06
-9.451124327597426600e-10
-1.266454113647341728e-03
-7.087101039360277355e-06
1.266328850761055946e-03
6.985172512941062450e-04
-3.276754796388559043e-06
-6.796574598411098123e-05
1.558582596317137359e-09
1.611714717000722885e-03
2.336545294383540750e-04
1.626077573746442795e-04
2.083025028696283698e-04
-5.652987165376543999e-04
1.478209451306611300e-04
3.370028862264007330e-04
-1.175115539808757603e-05
-1.041982322931289673e-04
4.348027985543012619e-03
3.465092740952968597e-04
-1.140368476626463234e-04
-2.663626335561275482e-03
-2.566410927101969719e-03
2.239829191239550710e-04
-2.566225703048985451e-05
3.271424066042527556e-05
3.868941566906869411e-04
5.919451359659433365e-04
-4.099786019651219249e-05
-1.828148087952286005e-04
-7.190103642642498016e-04
8.009598823264241219e-04
2.560477878432720900e-04
-3.745576832443475723e-04
-7.894062582636252046e-05
-9.593279100954532623e-04
-4.606834358433786747e-10
1.135777216404676437e-03
1.167081863968633115e-04
1.775775599526241422e-04
3.071104176342487335e-03
-4.478488117456436157e-04
1.030840285238809884e-04
-1.279352873098105192e-04
-7.143724360503256321e-04
3.064926713705062866e-04
1.606718869879841805e-03
-2.570766810094937682e-06
3.957473745686002076e-05
-5.910667459829710424e-05
2.980147837661206722e-04
-2.519748576457203626e-10
7.708284538239240646e-04
4.109493456780910492e-04
5.853240509168244898e-05
-6.689134170301258564e-05
-1.980468186957295984e-05
2.049226313829421997e-03
1.522759418559616051e-10
1.454052289773244411e-05
-1.577997863932978362e-05
-4.444852038432145491e-06
