-4.003715235739946365e-03
2.047030255198478699e-02
2.938047237694263458e-02
3.724864684045314789e-03
-3.204898908734321594e-03
1.477829180657863617e-02
5.992460064589977264e-03
4.276193305850028992e-02
2.547770552337169647e-02
1.028164941817522049e-02
-2.647196128964424133e-02
-6.690965383313596249e-04
-3.541669622063636780e-02
-2.524488791823387146e-02
2.668002434074878693e-02
-2.974139759317040443e-03
1.201368495821952820e-02
2.206830075010657310e-03
3.683395311236381531e-02
3.529366478323936462e-02
-2.222890593111515045e-02
-2.409962005913257599e-03
-4.149410873651504517e-02
-8.511666208505630493e-03
-3.755356743931770325e-02
-3.070346079766750336e-03
-1.902152597904205322e-02
-4.407532885670661926e-02
-1.351577229797840118e-02
3.220372134819626808e-03
8.476474322378635406e-03
-3.664636984467506409e-02
3.612249717116355896e-02
3.098508715629577637e-02
8.500255644321441650e-03
-2.846901118755340576e-02
-8.470462635159492493e-03
-3.782937675714492798e-02
-2.968781255185604095e-02
-7.739813299849629402e-04
6.039685569703578949e-03
-3.514977172017097473e-02
3.174867108464241028e-02
-1.432196795940399170e-02
1.764301210641860962e-02
-3.298130631446838379e-02
1.448534987866878510e-02
-3.754692850634455681e-03
4.017116874456405640e-02
-6.308635231107473373e-03
1.658950559794902802e-02
-2.388403378427028656e-02
-2.106660604476928711e-02
1.862907595932483673e-02
-1.964887045323848724e-02
-6.166210398077964783e-03
-1.954701729118824005e-02
4.159208387136459351e-02
-3.163697198033332825e-02
1.081306859850883484e-02
8.951473981142044067e-03
1.632036082446575165e-02
2.643624693155288696e-02
1.097912713885307312e-02
-3.332341555505990982e-03
-3.669948503375053406e-02
1.129028666764497757e-02
3.633579239249229431e-02
-2.887813001871109009e-02
-1.550756953656673431e-02
-1.248775236308574677e-02
-3.938157111406326294e-02
5.336394533514976501e-04
2.831735461950302124e-02
2.474277652800083160e-02
2.165955491364002228e-02
1.720435917377471924e-02
9.976137429475784302e-03
-2.539921365678310394e-02
-2.540585584938526154e-03
-1.012211386114358902e-02
4.181989468634128571e-03
-2.640035375952720642e-02
4.048973321914672852e-02
1.661266013979911804e-02
-3.473066166043281555e-02
-2.332230098545551300e-02
8.244318887591362000e-03
-2.790523879230022430e-02
-3.123897500336170197e-02
-1.390618854202330112e-03
-3.064159676432609558e-02
-4.257355257868766785e-02
9.962292388081550598e-03
3.984749317169189453e-02
-2.795396558940410614e-02
-2.882167883217334747e-02
-3.556778281927108765e-02
-1.560366433113813400e-02
3.811921179294586182e-02
3.070784546434879303e-02
1.611991040408611298e-02
-2.998109720647335052e-02
-1.228292938321828842e-02
-1.917641051113605499e-02
-3.983438014984130859e-02
3.882530331611633301e-02
4.314999654889106750e-02
1.971989870071411133e-02
-9.187733754515647888e-03
-2.309401705861091614e-02
2.099398151040077209e-02
-3.057046234607696533e-02
3.836413472890853882e-02
3.480832651257514954e-02
2.217639610171318054e-02
6.358627229928970337e-03
1.463009323924779892e-02
-2.870767842978239059e-03
3.675936907529830933e-02
-1.021274458616971970e-02
2.375308424234390259e-02
-3.629403561353683472e-02
-3.323257341980934143e-02
3.053278289735317230e-02
-3.751581907272338867e-02
2.583509543910622597e-03
3.869440406560897827e-02
-3.019408136606216431e-02
2.140812203288078308e-02
-3.304412588477134705e-02
-1.885683089494705200e-02
3.645133227109909058e-02
-1.678881235420703888e-02
6.288188509643077850e-03
4.620953928679227829e-03
-3.696557134389877319e-02
-2.327224612236022949e-02
-3.379440307617187500e-02
9.094526059925556183e-03
-1.486516185104846954e-02
2.016835287213325500e-02
1.192519254982471466e-02
-3.823747485876083374e-02
7.096027489751577377e-03
-4.364830255508422852e-02
3.998071700334548950e-02
-1.423316448926925659e-02
4.016475379467010498e-02
1.013375632464885712e-02
3.463125973939895630e-02
-9.050703607499599457e-03
-2.505948394536972046e-02
-6.511514075100421906e-03
1.580361463129520416e-02
-4.206604883074760437e-02
8.552759885787963867e-03
-3.742210566997528076e-02
-1.543419715017080307e-02
1.896170899271965027e-03
4.302968084812164307e-02
-1.517018396407365799e-02
-1.990782096982002258e-02
-1.802638545632362366e-02
3.364033997058868408e-02
-3.476440161466598511e-02
-2.588474564254283905e-02
4.266136139631271362e-02
2.204449288547039032e-02
-3.577226772904396057e-02
-4.263073205947875977e-02
4.327258467674255371e-02
3.098811767995357513e-02
4.319268837571144104e-02
2.761351875960826874e-02
-6.302428897470235825e-03
-2.117535099387168884e-02
2.011738531291484833e-02
2.480534277856349945e-02
-3.081986121833324432e-02
-2.123450860381126404e-02
-3.537992015480995178e-02
-1.317455712705850601e-02
1.182373985648155212e-02
-3.153907507658004761e-02
1.321535464376211166e-02
2.610238641500473022e-02
1.729970052838325500e-02
3.182033076882362366e-03
4.215009883046150208e-02
3.368957340717315674e-02
6.359258666634559631e-03
-1.663472875952720642e-02
2.203344926238059998e-02
-8.466885192319750786e-04
6.541343405842781067e-03
3.055712766945362091e-02
-3.055758588016033173e-02
-8.864151313900947571e-03
-3.170173615217208862e-02
5.746396258473396301e-03
-3.175090625882148743e-02
-1.458110753446817398e-02
8.971583098173141479e-03
3.983371332287788391e-02
8.000109344720840454e-03
-3.568150103092193604e-02
1.580406166613101959e-02
-2.360173873603343964e-02
2.628649398684501648e-02
-1.227900478988885880e-02
4.407805204391479492e-02
2.036531455814838409e-02
-3.871873766183853149e-02
5.024762824177742004e-03
-2.022276259958744049e-02
2.208273485302925110e-02
-2.396833896636962891e-02
-2.038460224866867065e-02
2.643043547868728638e-02
1.133480947464704514e-02
3.682196140289306641e-03
3.579569235444068909e-02
-2.952653728425502777e-02
1.514649670571088791e-02
3.050899133086204529e-02
-9.193902835249900818e-03
2.755022421479225159e-02
-1.862373389303684235e-02
2.339382842183113098e-02
2.911606989800930023e-02
-3.857664018869400024e-02
4.114550724625587463e-02
2.217127569019794464e-02
1.213386654853820801e-02
-2.469333261251449585e-02
-4.002868384122848511e-02
-2.333635650575160980e-02
2.680260874330997467e-02
4.226148873567581177e-02
2.965048700571060181e-02
4.015226289629936218e-02
-4.322281852364540100e-02
-4.020986706018447876e-02
7.860423997044563293e-03
3.880875930190086365e-02
-2.213631011545658112e-02
6.654233671724796295e-03
-2.675845474004745483e-02
-2.408112213015556335e-02
-6.929852999746799469e-03
1.080968137830495834e-02
3.637702390551567078e-02
-6.555473431944847107e-03
-3.292964538559317589e-04
2.072788774967193604e-02
