5.897835362702608109e-04
-8.555336296558380127e-02
8.398068137466907501e-03
-8.445560187101364136e-02
9.752442687749862671e-02
-1.089096814393997192e-01
1.185196042060852051e-01
8.886337280273437500e-02
-1.971274055540561676e-02
1.584137231111526489e-02
4.232051596045494080e-02
-1.940352283418178558e-02
5.759960040450096130e-02
-6.556795537471771240e-02
-1.974920183420181274e-02
4.244809970259666443e-02
-7.296424359083175659e-02
-3.436957672238349915e-02
4.256540536880493164e-02
-9.012618660926818848e-02
-1.203794032335281372e-01
-4.021106660366058350e-02
7.085862755775451660e-02
-1.233230307698249817e-01
-6.896225363016128540e-02
9.912116080522537231e-02
-1.145582422614097595e-01
-8.078423142433166504e-02
1.481299567967653275e-02
7.646799087524414062e-02
1.150215938687324524e-01
1.129856482148170471e-01
-4.577185586094856262e-02
1.188605651259422302e-01
-1.967979595065116882e-02
7.221618201583623886e-03
2.661147527396678925e-02
7.272268086671829224e-02
-6.794634461402893066e-02
-7.103972136974334717e-02
-6.734481453895568848e-02
-6.088770553469657898e-02
-2.258620783686637878e-02
1.198430284857749939e-01
-9.135763347148895264e-02
-3.223748505115509033e-02
-1.142915263772010803e-01
7.535994797945022583e-02
9.862890839576721191e-02
1.172310858964920044e-01
1.486402616137638688e-04
1.081949174404144287e-01
-1.243903115391731262e-01
-1.011048331856727600e-01
6.072540581226348877e-02
8.055627346038818359e-02
-5.048534274101257324e-02
1.414833590388298035e-02
2.718536555767059326e-02
-8.629631996154785156e-02
3.600193560123443604e-02
-1.131921410560607910e-01
-2.230211393907666206e-03
9.038235247135162354e-02
-1.006032228469848633e-01
8.356242626905441284e-02
-1.066967844963073730e-01
-4.877472668886184692e-02
3.409601002931594849e-02
-5.755630508065223694e-02
-9.135960787534713745e-02
1.061942055821418762e-01
9.215822070837020874e-02
1.481831446290016174e-02
4.847577214241027832e-02
4.128285497426986694e-02
-1.124698743224143982e-01
-9.826239198446273804e-02
-2.727686055004596710e-02
-6.501366198062896729e-02
1.512856315821409225e-02
3.586895018815994263e-02
-2.767263166606426239e-02
-2.615166269242763519e-02
-8.249811083078384399e-02
-9.000873193144798279e-03
-1.020209342241287231e-01
8.612479269504547119e-02
1.095732450485229492e-01
3.162644430994987488e-02
-1.216064766049385071e-01
-3.917261213064193726e-02
-6.241597235202789307e-02
1.225690692663192749e-01
-1.641200110316276550e-02
-9.824813157320022583e-02
7.369205355644226074e-02
9.946239739656448364e-02
-1.074534356594085693e-01
-4.792615026235580444e-02
-1.484153140336275101e-02
1.178008392453193665e-01
-1.041656881570816040e-01
3.915118053555488586e-03
-5.196656286716461182e-02
2.518327906727790833e-02
-8.286212384700775146e-02
6.325438618659973145e-02
-1.066471561789512634e-01
9.140716493129730225e-02
-3.006564825773239136e-02
-3.871940448880195618e-02
1.242464259266853333e-01
3.718369454145431519e-02
-1.144586279988288879e-01
-1.822561211884021759e-02
5.670863017439842224e-02
-4.215899109840393066e-02
2.578563580755144358e-04
-1.033920943737030029e-01
1.641332544386386871e-02
-4.087603092193603516e-02
3.154434636235237122e-02
-1.231289654970169067e-01
4.057437181472778320e-02
4.813383333384990692e-03
1.032224223017692566e-01
-7.250720262527465820e-02
