-1.584964618086814880e-02
2.369426004588603973e-02
6.499777734279632568e-02
6.335199344903230667e-03
-1.703148707747459412e-02
-1.077292487025260925e-03
3.305495530366897583e-02
4.322243109345436096e-02
5.508370697498321533e-02
-1.641681976616382599e-02
5.212396848946809769e-03
3.640431910753250122e-02
5.296210199594497681e-02
2.153595536947250366e-02
-4.735120385885238647e-02
1.486108265817165375e-02
-3.586267679929733276e-02
1.669143140316009521e-02
-1.756290346384048462e-02
-4.401426389813423157e-02
-5.373533815145492554e-02
1.587623171508312225e-02
2.446047589182853699e-02
2.431100048124790192e-02
-2.633129619061946869e-02
2.024618722498416901e-02
2.246012724936008453e-02
5.506795644760131836e-02
3.390620276331901550e-02
-1.918045431375503540e-02
-6.689419969916343689e-03
3.659228608012199402e-02
-4.414473660290241241e-03
4.434652626514434814e-02
1.466749422252178192e-02
2.373984828591346741e-02
-1.851468230597674847e-03
-3.183710947632789612e-02
-1.674999296665191650e-02
2.415896952152252197e-02
2.492736466228961945e-02
-5.230907816439867020e-03
1.459885947406291962e-02
3.028628788888454437e-02
-5.407309159636497498e-02
2.263868972659111023e-02
-3.383527696132659912e-02
1.385844312608242035e-02
-2.652705088257789612e-02
6.946871429681777954e-02
-3.336098045110702515e-02
-5.552793852984905243e-03
-3.255507908761501312e-03
4.422942548990249634e-02
3.703871741890907288e-03
-1.887712627649307251e-02
-2.368867769837379456e-02
-2.908542053773999214e-03
-3.058400377631187439e-02
1.427130773663520813e-02
3.129651397466659546e-02
-4.493257403373718262e-02
-4.406137391924858093e-02
-1.769585162401199341e-02
1.885186322033405304e-02
-3.050692379474639893e-02
1.019024569541215897e-02
-4.145766049623489380e-02
2.495731785893440247e-02
1.430091448128223419e-02
-4.724711179733276367e-02
3.488378971815109253e-02
5.644051358103752136e-02
-3.670907765626907349e-02
-3.989697992801666260e-02
-4.354914650321006775e-02
-6.546512246131896973e-03
4.118925705552101135e-02
5.336268246173858643e-02
2.895763516426086426e-02
1.863972470164299011e-02
2.841088362038135529e-02
2.028951607644557953e-02
-1.487073581665754318e-02
-1.684567832853645086e-04
-3.050083667039871216e-02
-4.219409450888633728e-02
-3.819842636585235596e-02
1.042931620031595230e-02
-4.925145953893661499e-02
-1.649174839258193970e-02
-3.210259228944778442e-02
3.859902918338775635e-02
4.426440969109535217e-02
-2.766263112425804138e-02
4.149511083960533142e-02
-3.524736315011978149e-02
-4.062411561608314514e-02
9.178434498608112335e-03
3.028139658272266388e-02
-4.038650542497634888e-02
-3.591307997703552246e-02
-1.331482734531164169e-02
2.928858809173107147e-02
-4.900837689638137817e-02
-2.915881574153900146e-03
4.586052522063255310e-02
-2.571978047490119934e-02
2.521513402462005615e-02
-3.728856891393661499e-02
-2.765562199056148529e-02
2.174172177910804749e-02
-3.715683147311210632e-02
-3.979666158556938171e-03
-5.295155569911003113e-02
2.224377915263175964e-02
-3.661096096038818359e-02
1.842138916254043579e-02
3.135443478822708130e-02
-5.762691050767898560e-02
-4.700032877735793591e-04
-1.726252399384975433e-02
2.971289120614528656e-02
-4.427873343229293823e-02
1.076957397162914276e-02
3.263776376843452454e-02
2.949400246143341064e-02
-2.949092537164688110e-02
6.566949188709259033e-03
-4.967040941119194031e-02
6.366300862282514572e-03
-3.961438313126564026e-02
-6.053285207599401474e-03
-2.757118083536624908e-02
4.380114749073982239e-02
1.866886392235755920e-02
2.192672528326511383e-02
2.389020100235939026e-02
-9.883246384561061859e-03
-1.498791482299566269e-02
5.695082247257232666e-02
2.147229760885238647e-02
7.340568583458662033e-03
3.906501829624176025e-02
5.687326192855834961e-02
-3.475963324308395386e-02
3.662119060754776001e-02
2.132001519203186035e-02
-4.708422347903251648e-02
-2.900440432131290436e-02
-5.822129175066947937e-02
-1.901479996740818024e-02
-2.298307418823242188e-02
-3.448858484625816345e-02
-3.726409375667572021e-02
-1.829405128955841064e-02
-1.431033480912446976e-02
-5.747255403548479080e-03
-4.074243083596229553e-02
-1.592406257987022400e-02
3.761183470487594604e-02
3.931244462728500366e-02
6.297095213085412979e-03
-4.248991236090660095e-02
6.459195166826248169e-03
-2.195174805819988251e-03
7.081454154103994370e-03
-4.510074108839035034e-02
-7.566352840512990952e-03
-3.477136790752410889e-02
-1.906623691320419312e-02
-1.237797318026423454e-03
-2.554971911013126373e-02
3.337225317955017090e-02
1.133686210960149765e-02
2.065865322947502136e-02
4.841238260269165039e-02
-1.863322779536247253e-02
-9.426135569810867310e-03
6.343232002109289169e-03
-2.411101199686527252e-02
1.628167182207107544e-02
-3.524404251947999001e-03
-1.879359595477581024e-02
-1.228545419871807098e-02
-4.364928603172302246e-02
7.767648249864578247e-02
-1.908794417977333069e-02
-1.005105394870042801e-02
-2.217836491763591766e-02
-1.500851940363645554e-02
2.751615457236766815e-02
-9.011613205075263977e-03
4.049299657344818115e-02
-3.236507624387741089e-02
3.875451534986495972e-02
-2.486067824065685272e-02
4.333158209919929504e-02
5.244784406386315823e-04
-3.647782281041145325e-02
6.953390780836343765e-03
-1.039812248200178146e-02
4.809376597404479980e-02
5.512752383947372437e-02
3.883161023259162903e-02
1.257567666471004486e-03
4.127311334013938904e-02
-4.784211143851280212e-02
-2.096618711948394775e-02
3.423495590686798096e-02
2.784343436360359192e-02
8.659964427351951599e-03
-1.190786901861429214e-02
1.624776981770992279e-02
-4.310307651758193970e-02
1.417267229408025742e-02
-5.150902643799781799e-02
4.869712051004171371e-03
-3.373706946149468422e-03
-1.206592656672000885e-02
9.253789670765399933e-03
-3.158628195524215698e-02
1.486006006598472595e-02
1.820924691855907440e-02
-3.716963157057762146e-02
-1.063571777194738388e-02
-1.206831727176904678e-02
-6.369861774146556854e-03
-2.624600753188133240e-02
-2.213922329246997833e-02
-2.494608610868453979e-02
-1.851790118962526321e-03
-4.360885545611381531e-02
2.838872559368610382e-02
-4.278303310275077820e-02
3.570429980754852295e-02
-2.800653316080570221e-02
5.792227014899253845e-02
5.368709098547697067e-03
-4.051320429425686598e-04
6.349498033523559570e-02
3.691444173455238342e-02
1.713222451508045197e-02
-2.767500653862953186e-02
3.016095981001853943e-02
-7.012169226072728634e-04
4.636986926198005676e-02
5.947749130427837372e-03
1.469554752111434937e-02
1.863634772598743439e-02
-5.275901872664690018e-03
2.830472588539123535e-02
2.069986984133720398e-02
-3.284910693764686584e-02
2.344676479697227478e-02
7.239523809403181076e-03
6.474853027611970901e-03
-4.562046844512224197e-03
-2.108775451779365540e-02
-3.598507866263389587e-02
-1.286592334508895874e-02
-2.618621289730072021e-02
2.498524449765682220e-02
-1.232311245985329151e-03
-2.335694152861833572e-03
-1.556810550391674042e-02
-3.824800951406359673e-03
-3.953371569514274597e-02
2.015645056962966919e-02
-1.208803057670593262e-02
1.961600780487060547e-02
2.491405792534351349e-02
-3.561403602361679077e-02
2.027509175240993500e-02
1.558394543826580048e-02
-1.671189442276954651e-02
-2.067826502025127411e-02
1.592354662716388702e-02
2.355299703776836395e-02
4.750980064272880554e-02
-5.155778676271438599e-02
-1.930087432265281677e-02
-1.227324362844228745e-02
-3.806976974010467529e-02
3.057079017162322998e-02
-2.002759277820587158e-02
-8.889166638255119324e-03
8.831041865050792694e-03
-2.949235588312149048e-02
-6.269810721278190613e-03
1.390904095023870468e-02
-5.062146484851837158e-02
-3.057190962135791779e-02
-9.154140017926692963e-03
4.867483396083116531e-03
-3.563401848077774048e-02
2.215746417641639709e-02
-3.095447272062301636e-02
6.179214920848608017e-03
3.590683639049530029e-02
-2.248515188694000244e-02
-2.821419015526771545e-02
4.102530702948570251e-02
2.336968667805194855e-02
-4.225308075547218323e-02
3.415484353899955750e-02
-2.643931098282337189e-02
5.287020932883024216e-03
-2.366437762975692749e-02
-1.974718645215034485e-03
1.106239506043493748e-03
6.301944609731435776e-03
1.984904892742633820e-02
1.644948683679103851e-02
2.725468017160892487e-02
-3.661536425352096558e-02
1.328658685088157654e-02
-1.174941007047891617e-02
1.662507420405745506e-03
2.284998260438442230e-02
-5.428159609436988831e-02
2.483133971691131592e-02
-4.324517771601676941e-02
6.314959842711687088e-03
-9.530421346426010132e-03
2.605514973402023315e-02
-5.380734428763389587e-02
-2.008662000298500061e-02
-4.427417367696762085e-02
-2.824347279965877533e-02
-3.170694783329963684e-02
-6.191158667206764221e-03
-7.309094537049531937e-03
-1.956834830343723297e-02
6.046477705240249634e-03
1.868619397282600403e-02
-2.690818719565868378e-02
1.897618174552917480e-02
2.683315426111221313e-02
1.767886802554130554e-02
-1.775210164487361908e-02
-2.985107153654098511e-02
3.038881160318851471e-02
3.668159618973731995e-02
-5.861608777195215225e-03
-1.140601653605699539e-02
3.531004069373011589e-03
4.161565378308296204e-02
-2.515633590519428253e-02
1.057100016623735428e-02
-9.602918289601802826e-03
1.033514272421598434e-02
-5.925261974334716797e-02
-3.165819868445396423e-02
2.536825835704803467e-02
-7.033396512269973755e-02
8.579163812100887299e-03
-3.599424660205841064e-02
-5.465372279286384583e-02
2.903483435511589050e-02
-2.005505003035068512e-02
-3.208198770880699158e-02
2.034941688179969788e-02
6.296817958354949951e-02
-2.410474047064781189e-02
-1.865454483777284622e-03
-1.481669489294290543e-02
-1.015808712691068649e-02
-3.011994250118732452e-02
-9.692640975117683411e-03
1.277128793299198151e-02
5.563612282276153564e-02
-1.584580540657043457e-02
-2.213478088378906250e-03
2.104284428060054779e-02
7.711082696914672852e-03
4.458096250891685486e-02
-1.916981674730777740e-02
1.267791911959648132e-02
-1.902976259589195251e-02
-2.177686989307403564e-02
4.018367733806371689e-03
-2.665674500167369843e-02
-1.956592127680778503e-02
-4.613840207457542419e-02
4.656795784831047058e-02
-3.227493166923522949e-02
-4.398980364203453064e-02
-1.576621085405349731e-03
4.125287011265754700e-02
-4.651071131229400635e-02
2.218969166278839111e-02
-1.732464693486690521e-02
4.375095665454864502e-02
3.001563809812068939e-02
2.394526638090610504e-02
-1.403995417058467865e-02
-1.277006324380636215e-02
1.405611541122198105e-02
-1.616771332919597626e-02
-3.665906563401222229e-02
4.452951624989509583e-02
-4.033118858933448792e-02
-4.943457432091236115e-03
-2.688760496675968170e-02
1.352630835026502609e-02
-3.090970218181610107e-02
-5.186425987631082535e-03
-3.779236972332000732e-02
2.429568767547607422e-02
-2.103881537914276123e-02
1.457116380333900452e-02
2.554449252784252167e-02
1.429430022835731506e-02
3.127476945519447327e-02
-6.339652929455041885e-03
4.530709609389305115e-02
7.553615141659975052e-04
-9.938936680555343628e-03
4.515685886144638062e-02
-3.613309562206268311e-02
-2.880335040390491486e-02
1.517405733466148376e-02
-1.985220983624458313e-02
-5.936331581324338913e-03
-3.098678588867187500e-02
-5.482512339949607849e-02
1.828229799866676331e-02
2.570904977619647980e-02
6.219631060957908630e-02
-3.463182970881462097e-02
-3.981151804327964783e-02
-2.418358623981475830e-02
3.470979630947113037e-02
2.773985825479030609e-02
-6.463286466896533966e-03
-2.218866162002086639e-02
1.446035690605640411e-02
8.476765826344490051e-03
-4.423928260803222656e-02
-1.072423253208398819e-02
6.112004164606332779e-03
-4.468703642487525940e-02
-5.258114635944366455e-02
-3.358481079339981079e-02
-1.610726467333734035e-03
2.000879123806953430e-02
-4.390224814414978027e-02
1.179264578968286514e-02
2.846017479896545410e-02
4.284460097551345825e-02
1.237485371530056000e-02
-2.216640114784240723e-02
2.233927324414253235e-02
2.453895099461078644e-02
3.613641485571861267e-02
5.975347012281417847e-02
-3.272529318928718567e-02
-3.474172204732894897e-02
1.626353152096271515e-02
5.378558300435543060e-03
6.548167206346988678e-03
-2.628628723323345184e-02
-5.831608921289443970e-02
5.165310949087142944e-02
-3.292373940348625183e-02
4.713827278465032578e-03
2.769287116825580597e-02
-4.141332209110260010e-02
1.498810760676860809e-02
2.153105847537517548e-02
-2.829282358288764954e-02
-2.158449031412601471e-02
2.119482960551977158e-03
1.739441789686679840e-02
-3.563741222023963928e-02
2.504164353013038635e-02
2.250968478620052338e-03
-1.254144217818975449e-02
-1.865832135081291199e-02
-4.114703834056854248e-02
3.557451069355010986e-02
4.310407862067222595e-02
-2.438825182616710663e-02
5.340858828276395798e-03
3.358286619186401367e-02
-2.298156544566154480e-02
1.609976217150688171e-02
6.283847615122795105e-03
1.972958259284496307e-02
8.031531237065792084e-03
-1.441080775111913681e-02
7.227708119899034500e-03
1.583442278206348419e-02
3.342918679118156433e-02
-4.436247050762176514e-02
3.255295008420944214e-02
8.317242376506328583e-03
1.699655503034591675e-02
-1.380748115479946136e-02
-9.122951887547969818e-04
3.071342222392559052e-02
4.947414156049489975e-03
-1.226318348199129105e-02
-1.676660589873790741e-02
4.070539027452468872e-02
-9.203511290252208710e-04
1.200679969042539597e-02
-1.390909403562545776e-02
-5.955832451581954956e-02
-4.245220124721527100e-02
-3.616167604923248291e-02
-4.408513382077217102e-02
-2.731062471866607666e-02
8.898046799004077911e-03
2.150419913232326508e-02
-5.874305032193660736e-03
2.542280592024326324e-02
-5.336830392479896545e-02
4.658274818211793900e-03
-1.328190416097640991e-02
-6.184161175042390823e-03
2.637373097240924835e-02
-4.147335141897201538e-02
4.122018069028854370e-02
-1.544208172708749771e-02
7.162218913435935974e-03
-3.209253773093223572e-03
1.303791534155607224e-02
7.424610201269388199e-03
-1.613708212971687317e-03
-9.571214206516742706e-03
3.846976906061172485e-02
4.369430243968963623e-02
-3.672176599502563477e-02
4.169707186520099640e-03
-5.758948251605033875e-02
-6.399021297693252563e-02
2.862115576863288879e-02
5.088917165994644165e-02
1.738781854510307312e-02
-1.168943196535110474e-02
2.861040458083152771e-02
1.983578316867351532e-02
-4.084381461143493652e-02
1.699529401957988739e-02
-7.128643337637186050e-03
-1.391005516052246094e-02
1.236124243587255478e-02
9.832337498664855957e-03
-1.577371358871459961e-02
8.424035273492336273e-03
-4.200214520096778870e-02
2.066229097545146942e-02
1.435489393770694733e-02
-1.675143279135227203e-02
3.125845640897750854e-02
-4.681416973471641541e-02
3.352916240692138672e-02
-1.916249841451644897e-02
-4.681277647614479065e-02
-1.893937401473522186e-02
-6.104648858308792114e-02
-2.300950139760971069e-02
-1.464715227484703064e-02
3.266864269971847534e-02
3.049642033874988556e-02
-2.846688777208328247e-02
-2.365864813327789307e-02
-8.177822455763816833e-03
1.341711636632680893e-02
8.422940038144588470e-03
-3.080460056662559509e-02
-3.537774831056594849e-02
-1.455356925725936890e-02
2.398398471996188164e-03
-4.084584116935729980e-02
-3.073662053793668747e-03
9.788658469915390015e-03
-3.783298283815383911e-02
-2.639715000987052917e-02
-3.116113692522048950e-02
-3.475659340620040894e-02
3.885280340909957886e-02
2.494605816900730133e-02
-6.068147718906402588e-03
-2.254483662545681000e-02
-3.720601648092269897e-02
-3.369905971339903772e-05
-2.502937242388725281e-02
-1.211715769022703171e-02
2.958278544247150421e-02
-3.213395550847053528e-02
2.786480076611042023e-02
3.683985024690628052e-02
-2.804863452911376953e-02
2.388232387602329254e-02
4.834333900362253189e-03
3.222983097657561302e-03
2.577691152691841125e-02
-3.547151759266853333e-02
-1.646055839955806732e-02
-2.216857858002185822e-02
6.755825132131576538e-02
2.827099151909351349e-02
1.384801417589187622e-02
-3.522554412484169006e-02
-2.370296744629740715e-03
-1.991028711199760437e-02
-5.756893660873174667e-03
2.606132626533508301e-02
-1.252462062984704971e-02
-4.891928657889366150e-02
-4.139617085456848145e-02
2.756166271865367889e-02
-3.442750871181488037e-02
-1.966724172234535217e-02
-2.265893667936325073e-02
-2.359760552644729614e-02
3.649315983057022095e-02
-4.285452142357826233e-02
-4.755964875221252441e-02
2.251892350614070892e-02
-2.228346420451998711e-05
-1.452808617614209652e-03
5.463093519210815430e-03
-3.006553836166858673e-02
-1.939430832862854004e-02
1.389615237712860107e-02
-2.252597175538539886e-02
-3.946559503674507141e-02
1.255874428898096085e-02
-2.522202394902706146e-02
-6.291314959526062012e-03
2.277508564293384552e-02
3.699663653969764709e-02
-1.309080328792333603e-02
-4.352191835641860962e-02
-5.264090374112129211e-03
3.281396627426147461e-02
2.385884895920753479e-02
-3.211145475506782532e-02
1.651194877922534943e-02
-2.826951816678047180e-02
5.390543956309556961e-03
1.193783711642026901e-02
-7.749807089567184448e-02
-5.510526522994041443e-02
2.350646257400512695e-02
-4.033865779638290405e-02
-3.526735305786132812e-02
-5.699989944696426392e-02
6.540800910443067551e-03
-1.939643546938896179e-02
-7.981197908520698547e-03
3.604153171181678772e-02
-5.390887707471847534e-02
3.430223464965820312e-02
1.873738877475261688e-02
-3.546763584017753601e-02
-2.079170662909746170e-03
5.569890607148408890e-03
-3.055702894926071167e-02
3.801241517066955566e-03
-3.163633123040199280e-02
4.947884008288383484e-02
4.347635898739099503e-03
4.221275448799133301e-02
3.596251085400581360e-02
-3.646085411310195923e-02
9.682171978056430817e-03
-4.518840834498405457e-02
9.049973450601100922e-03
-3.809529123827815056e-03
-5.447358265519142151e-02
4.531706869602203369e-02
2.556124702095985413e-02
-5.369571037590503693e-03
8.176047354936599731e-03
2.533990517258644104e-02
-3.089768998324871063e-02
-2.732365857809782028e-03
-3.944956231862306595e-03
2.262911060824990273e-03
-1.551697216928005219e-02
-4.526469483971595764e-02
-6.173618882894515991e-02
-1.823708042502403259e-02
1.397868269123136997e-03
-1.083672512322664261e-02
7.181999739259481430e-03
-4.480105265974998474e-02
-1.817424781620502472e-02
1.492206286638975143e-02
-1.680335588753223419e-02
-2.903837151825428009e-02
-2.223981730639934540e-02
-2.700967714190483093e-02
-2.919467166066169739e-02
2.319246530532836914e-02
-3.421880071982741356e-03
-4.349722340703010559e-02
-1.993794925510883331e-02
-1.399422343820333481e-02
-3.979412093758583069e-02
6.641264073550701141e-03
-2.148043178021907806e-02
4.121089354157447815e-02
4.160243552178144455e-03
-7.672382891178131104e-02
-1.879912056028842926e-02
4.506684094667434692e-02
-3.809342160820960999e-02
7.917384617030620575e-03
-1.794668933143839240e-04
1.587368547916412354e-02
8.690043352544307709e-03
-8.101706393063068390e-03
7.601764053106307983e-03
7.478036917746067047e-03
-9.287291206419467926e-03
-9.499838575720787048e-03
-6.302950531244277954e-02
-8.215900510549545288e-03
-2.624323032796382904e-02
2.812884375452995300e-02
1.348855905234813690e-02
1.663370989263057709e-02
2.407102100551128387e-02
-4.024574533104896545e-03
-1.382764149457216263e-02
5.361076816916465759e-02
-8.274592459201812744e-03
-9.708805009722709656e-03
1.865201629698276520e-02
-2.832232415676116943e-02
1.890407688915729523e-02
1.427143253386020660e-02
-4.136794060468673706e-02
-4.990964382886886597e-02
-5.772090703248977661e-02
-1.068560034036636353e-02
-7.212851196527481079e-02
-1.357044465839862823e-02
5.760014988481998444e-03
-2.084521204233169556e-02
5.845598876476287842e-03
-3.763881046324968338e-03
2.208728715777397156e-02
3.644334897398948669e-02
3.505176305770874023e-02
-4.423217475414276123e-02
2.091602887958288193e-03
-6.473386310972273350e-04
-1.982970349490642548e-02
3.382684290409088135e-02
8.825562894344329834e-03
-2.263127267360687256e-02
-1.597302779555320740e-02
2.307224459946155548e-02
1.810967549681663513e-02
-5.761473625898361206e-02
1.286060456186532974e-02
1.231756340712308884e-02
-2.182532474398612976e-02
-2.034240774810314178e-02
-4.557090625166893005e-02
-3.699564188718795776e-02
3.267601504921913147e-02
3.075315617024898529e-04
2.817492466419935226e-03
-6.304495036602020264e-02
-3.683790098875761032e-03
5.009459331631660461e-03
-6.204818491823971272e-04
-3.401338681578636169e-02
2.101923152804374695e-02
1.851640827953815460e-02
-6.245197728276252747e-02
4.494602233171463013e-02
-1.846730150282382965e-02
1.696882955729961395e-02
-1.612395048141479492e-02
-2.742717741057276726e-03
1.511306222528219223e-02
-7.939693517982959747e-03
3.207613900303840637e-02
-3.303204104304313660e-02
3.380314633250236511e-02
1.297466643154621124e-02
-3.875812282785773277e-03
1.040191575884819031e-02
-5.558498203754425049e-02
1.719834841787815094e-02
-3.487847000360488892e-02
-3.311165049672126770e-02
-3.761565685272216797e-02
-2.144473604857921600e-02
3.742389380931854248e-02
1.999787054955959320e-02
-1.990184187889099121e-02
1.338615640997886658e-02
-4.792463779449462891e-02
1.375777833163738251e-02
-1.690877415239810944e-02
2.407373301684856415e-02
3.433610126376152039e-02
1.452244073152542114e-02
9.391075931489467621e-03
-3.470152989029884338e-02
2.879149094223976135e-02
-2.116316743195056915e-02
5.453086923807859421e-03
-2.234994247555732727e-02
-2.569933794438838959e-02
2.636617422103881836e-02
3.980946913361549377e-02
4.441082477569580078e-02
-2.470588125288486481e-02
-1.512877363711595535e-02
2.177382120862603188e-03
-6.579488515853881836e-02
-3.545339405536651611e-02
2.624787949025630951e-02
1.364786271005868912e-02
2.517486456781625748e-03
2.326767705380916595e-02
-5.354475975036621094e-02
4.967659711837768555e-03
5.480469763278961182e-02
8.505328558385372162e-03
-1.457931939512491226e-02
8.812368032522499561e-04
-2.954780869185924530e-02
-5.921360850334167480e-02
-4.426868981681764126e-04
-2.066082693636417389e-02
2.237112820148468018e-02
-1.008388400077819824e-02
5.088597536087036133e-03
-8.179446682333946228e-03
-4.266280308365821838e-02
4.336410388350486755e-02
-3.818452358245849609e-02
-3.736374899744987488e-02
1.335429213941097260e-02
5.010739341378211975e-02
-4.840036109089851379e-02
-4.695715010166168213e-02
1.739284582436084747e-02
2.704635262489318848e-02
8.908355608582496643e-03
8.196079172194004059e-03
1.010336540639400482e-02
1.321197673678398132e-02
5.173551291227340698e-02
-2.576494030654430389e-02
3.596258908510208130e-02
-9.620187804102897644e-03
-3.186905384063720703e-02
2.636968716979026794e-02
-3.007203899323940277e-02
6.745989900082349777e-03
8.786890655755996704e-03
-1.283892197534441948e-03
3.630387410521507263e-02
-1.158249750733375549e-02
-3.059890866279602051e-02
1.800064556300640106e-02
-5.338006094098091125e-02
6.452622823417186737e-03
-3.501763194799423218e-02
1.095686666667461395e-02
-1.227687764912843704e-02
-3.910892456769943237e-02
4.577172920107841492e-02
-1.291160471737384796e-02
-9.979945607483386993e-03
-2.102179639041423798e-02
-6.387796998023986816e-02
-2.013124525547027588e-02
3.491692990064620972e-02
-2.221951261162757874e-02
-1.066479925066232681e-02
-2.040430437773466110e-03
-2.137210033833980560e-02
-1.277334522455930710e-03
-1.647055335342884064e-02
-2.157303271815180779e-03
1.367642357945442200e-02
-1.048680022358894348e-02
-2.074745856225490570e-02
-3.924248740077018738e-02
1.698995754122734070e-02
-2.312038838863372803e-02
-2.961435588076710701e-03
-3.087631426751613617e-02
5.722221918404102325e-03
-3.080256283283233643e-02
-4.930498078465461731e-02
2.771675214171409607e-02
3.923469036817550659e-02
-2.486806549131870270e-02
1.900157332420349121e-02
-2.862009778618812561e-02
3.041035961359739304e-03
1.172375213354825974e-02
-7.327290717512369156e-03
-4.686682298779487610e-02
-1.530041731894016266e-02
8.954897522926330566e-03
5.389206856489181519e-02
-3.300277143716812134e-02
-9.707601740956306458e-03
-6.419652700424194336e-02
2.892753481864929199e-02
-4.018602427095174789e-03
3.867933899164199829e-02
2.832670323550701141e-02
2.323341555893421173e-02
2.803269214928150177e-02
-1.293743401765823364e-02
-1.682402007281780243e-02
-1.777621358633041382e-02
1.785890199244022369e-02
7.800458697602152824e-04
2.040410786867141724e-02
4.261882603168487549e-02
-2.526000142097473145e-02
1.878403127193450928e-02
6.720605306327342987e-03
-9.225080721080303192e-03
-4.576158151030540466e-02
-2.028241381049156189e-02
-2.415692061185836792e-02
6.967891007661819458e-02
-4.766725748777389526e-02
-1.948885992169380188e-02
-1.278980076313018799e-02
-6.864536553621292114e-02
-1.981632970273494720e-02
-1.656536199152469635e-02
-3.419839963316917419e-02
2.226897142827510834e-02
-2.916153520345687866e-03
-5.622059106826782227e-02
-2.646783553063869476e-02
1.198600232601165771e-02
5.423822905868291855e-03
-1.682328060269355774e-02
-3.978854417800903320e-02
3.554314002394676208e-02
-1.219128072261810303e-02
3.926822543144226074e-02
3.468207269906997681e-02
-5.129477474838495255e-03
2.188048698008060455e-02
-6.447532773017883301e-02
-4.745746031403541565e-02
4.778944421559572220e-03
1.009353715926408768e-02
2.757688611745834351e-02
-3.114960156381130219e-02
2.475396543741226196e-02
-1.630548760294914246e-02
9.386452846229076385e-03
-3.252397477626800537e-02
-3.428015043027698994e-04
2.293538115918636322e-02
1.658930629491806030e-02
-2.847385359928011894e-03
1.455416064709424973e-02
2.290673367679119110e-02
2.158347330987453461e-02
-2.508709020912647247e-02
1.592483744025230408e-02
-3.252346441149711609e-02
-4.835075512528419495e-02
-3.773408941924571991e-03
-3.849959000945091248e-02
-3.565635904669761658e-02
-3.752933442592620850e-02
-9.041663259267807007e-03
-3.919341135770082474e-03
6.190474610775709152e-03
2.651656232774257660e-02
-1.639134250581264496e-02
-7.293005008250474930e-03
3.472214564681053162e-02
3.437488898634910583e-02
5.918892472982406616e-02
6.589392665773630142e-03
1.795921474695205688e-02
4.145355895161628723e-02
-1.346519589424133301e-02
-2.695186063647270203e-02
4.133119806647300720e-02
1.091522071510553360e-02
5.286046862602233887e-02
3.786765411496162415e-02
-1.648898795247077942e-02
-2.618022076785564423e-02
-7.458391599357128143e-03
1.688368991017341614e-02
7.614422123879194260e-03
-7.664368953555822372e-03
4.256152361631393433e-02
-5.303760990500450134e-02
-3.745532408356666565e-02
-1.679489389061927795e-02
-4.725458100438117981e-02
-2.861211262643337250e-02
-3.738467022776603699e-02
-1.227795239537954330e-02
3.567253053188323975e-02
1.943650655448436737e-02
-1.438306737691164017e-02
1.331775914877653122e-02
3.873974084854125977e-02
-1.221897173672914505e-02
-3.125913068652153015e-02
-1.347793173044919968e-02
3.256466612219810486e-02
-3.792312368750572205e-02
-1.837690942920744419e-04
3.380642458796501160e-02
1.407623570412397385e-02
1.963067799806594849e-03
2.270869724452495575e-02
-5.362444743514060974e-02
-8.079415187239646912e-03
-2.492835558950901031e-02
3.339631948620080948e-03
-4.653339087963104248e-02
9.735965169966220856e-03
1.783087104558944702e-02
3.473785892128944397e-02
-1.920768246054649353e-02
-3.727805614471435547e-02
-1.702537178061902523e-03
-2.213070169091224670e-02
-3.484980389475822449e-02
-4.209030419588088989e-02
3.731447458267211914e-02
-2.788409963250160217e-02
3.241927176713943481e-02
-2.013333886861801147e-02
-4.032703116536140442e-02
1.386134698987007141e-02
1.476584374904632568e-02
-5.498910322785377502e-02
3.988696262240409851e-02
7.687851786613464355e-03
3.361918777227401733e-02
-2.813329175114631653e-02
2.151168137788772583e-02
1.249980460852384567e-02
-3.011222556233406067e-02
2.056313306093215942e-02
3.438285738229751587e-02
-2.331757545471191406e-02
-3.543078154325485229e-02
1.157894823700189590e-02
-9.454764425754547119e-03
-2.926539070904254913e-02
1.326494105160236359e-02
1.685536839067935944e-02
-1.663126610219478607e-02
-1.952114515006542206e-02
1.418710500001907349e-02
1.233238261193037033e-02
4.925764352083206177e-02
7.052361965179443359e-03
-4.180685430765151978e-02
-2.756986953318119049e-02
-3.151629120111465454e-02
-3.199712187051773071e-02
1.338299270719289780e-02
1.004349254071712494e-02
-3.567759692668914795e-02
2.491042949259281158e-02
-5.493224039673805237e-02
2.934444136917591095e-02
3.632042929530143738e-02
-3.032540343701839447e-02
3.037740662693977356e-02
3.392510488629341125e-02
-2.563118236139416695e-03
1.232423912733793259e-02
-2.919823117554187775e-02
3.441086271777749062e-03
-4.708435013890266418e-02
7.669284823350608349e-04
-3.852821514010429382e-02
-2.835221355780959129e-03
-3.416888415813446045e-02
4.227850958704948425e-02
-3.560479730367660522e-02
2.593749575316905975e-02
1.810464076697826385e-02
-6.452260538935661316e-03
-2.058567665517330170e-02
9.301397949457168579e-03
-2.418636530637741089e-02
5.326294805854558945e-03
-1.916375569999217987e-02
2.747301012277603149e-02
-4.940379038453102112e-02
2.489198744297027588e-02
1.701053418219089508e-02
-2.184035256505012512e-03
1.195361139252781868e-03
3.207351639866828918e-02
4.479018505662679672e-03
-4.226208105683326721e-02
2.265948429703712463e-02
-4.026193544268608093e-02
-3.655476868152618408e-02
-2.485533431172370911e-02
-1.436230354011058807e-02
2.102556452155113220e-02
3.449744731187820435e-02
-1.019853726029396057e-02
5.883876234292984009e-03
2.590428851544857025e-02
-1.798591203987598419e-02
1.017561834305524826e-02
7.130435202270746231e-03
-3.174329642206430435e-03
-6.014273967593908310e-03
-3.006225079298019409e-02
1.358820777386426926e-02
-1.212907372973859310e-03
-7.557487580925226212e-03
1.310495380312204361e-02
-2.164753153920173645e-03
-4.809697717428207397e-02
-1.215881109237670898e-02
-2.743546105921268463e-02
3.530930355191230774e-02
-2.654797956347465515e-02
5.252503231167793274e-02
2.041634730994701385e-02
-4.919306933879852295e-02
-2.151447907090187073e-02
1.651290804147720337e-02
-4.261831194162368774e-02
-3.158994391560554504e-02
-4.009411111474037170e-02
-6.253724452108144760e-03
-7.671814877539873123e-03
-4.883046820759773254e-02
-5.166172981262207031e-03
-1.906404085457324982e-02
-3.352438285946846008e-02
2.138627320528030396e-02
-4.911268595606088638e-03
-1.709228381514549255e-02
5.761686712503433228e-02
-4.343448951840400696e-02
-2.275870554149150848e-02
-3.080298937857151031e-02
2.617064863443374634e-02
-1.440510340034961700e-02
-3.149345982819795609e-03
-2.525379136204719543e-02
-3.251467645168304443e-02
-2.513977698981761932e-02
5.613918881863355637e-03
-1.147579867392778397e-02
3.478710725903511047e-02
-1.796888560056686401e-02
4.384828731417655945e-03
1.437255740165710449e-02
2.656194753944873810e-02
-3.741527441889047623e-03
-1.367266848683357239e-02
-3.848908469080924988e-02
3.541810810565948486e-02
-3.051739931106567383e-02
-3.349494934082031250e-02
5.725564900785684586e-03
-3.476947546005249023e-02
-2.131137624382972717e-02
-5.207970272749662399e-03
2.698057144880294800e-02
-2.783053368330001831e-02
-7.876260206103324890e-03
-3.630608320236206055e-02
-3.573593869805335999e-02
-2.742628380656242371e-02
-1.296418067067861557e-02
7.132488302886486053e-03
-4.562915489077568054e-02
-2.924656681716442108e-02
-3.348555415868759155e-02
-3.336493298411369324e-02
3.250213339924812317e-02
-1.092402730137109756e-02
-7.468978874385356903e-03
1.888906210660934448e-02
1.122694648802280426e-02
-4.907169379293918610e-03
-3.143562749028205872e-02
2.724472060799598694e-02
1.270777080208063126e-02
-2.578853257000446320e-02
-2.964628674089908600e-02
-5.202364176511764526e-02
-2.831257320940494537e-02
-2.659929683431982994e-03
-2.224065735936164856e-02
-4.039172828197479248e-02
-2.179459482431411743e-02
-2.607600204646587372e-02
4.975335672497749329e-03
2.898371964693069458e-02
-3.610295057296752930e-02
-1.628278009593486786e-02
-1.839616708457469940e-02
-4.150633234530687332e-03
1.885575428605079651e-02
-4.693196620792150497e-03
-2.611021324992179871e-02
-2.090038545429706573e-02
2.385563589632511139e-02
-1.674686931073665619e-02
1.652377285063266754e-02
2.933438867330551147e-02
-5.372504889965057373e-02
-8.046132512390613556e-03
-3.882250934839248657e-02
-1.118422392755746841e-02
-2.340034209191799164e-02
-2.477231808006763458e-02
-4.330809414386749268e-02
-1.199780404567718506e-02
-3.146954253315925598e-02
-1.355796027928590775e-02
2.609119378030300140e-02
4.470354877412319183e-03
2.479756623506546021e-02
-1.686799526214599609e-02
2.683748677372932434e-02
2.545588277280330658e-02
-2.589415013790130615e-02
2.993663772940635681e-02
-2.005024440586566925e-02
1.756430976092815399e-02
8.873258717358112335e-03
-4.270951077342033386e-02
-3.094509989023208618e-02
-5.804451648145914078e-03
-1.190012134611606598e-02
2.866300754249095917e-02
-1.308494154363870621e-02
-4.917624965310096741e-02
2.475032815709710121e-03
3.290840238332748413e-02
4.742233548313379288e-03
7.973481900990009308e-03
-3.306410089135169983e-02
3.166764229536056519e-02
1.110760867595672607e-02
-2.535922080278396606e-02
-2.053935080766677856e-02
-7.114948704838752747e-03
-2.357744984328746796e-02
2.575644478201866150e-02
2.002963796257972717e-02
-3.987608850002288818e-02
-1.950709708034992218e-02
2.586091868579387665e-02
-4.022744670510292053e-02
-4.054455831646919250e-02
1.329951221123337746e-03
4.403385892510414124e-02
-3.349545598030090332e-02
-4.811079800128936768e-02
-4.095158074051141739e-03
-3.590000793337821960e-02
1.115271262824535370e-02
-9.186505340039730072e-03
-2.244393900036811829e-02
2.601646445691585541e-02
1.945540495216846466e-02
-2.414818853139877319e-02
-3.057960048317909241e-02
-4.736283048987388611e-02
1.833887398242950439e-02
1.706947456113994122e-03
-2.641999535262584686e-02
1.218707859516143799e-02
2.688165754079818726e-02
1.379081327468156815e-02
-6.034909747540950775e-03
2.588123828172683716e-02
-3.348552435636520386e-02
2.309666387736797333e-02
3.297500312328338623e-02
-4.345479235053062439e-02
-5.820072256028652191e-03
-4.247194156050682068e-02
1.090797781944274902e-02
-3.206757083535194397e-02
-4.573661461472511292e-02
1.940459758043289185e-02
-4.160038009285926819e-02
-1.306772697716951370e-02
-9.848149493336677551e-03
-2.222106233239173889e-02
2.458108961582183838e-02
-3.173630684614181519e-02
1.095666270703077316e-02
2.438151650130748749e-02
-2.863197401165962219e-02
-5.302933976054191589e-02
-9.835033677518367767e-03
-3.985173627734184265e-02
-3.261141944676637650e-03
-4.926135018467903137e-02
6.631919182837009430e-03
1.947088539600372314e-02
2.975224144756793976e-02
3.492420166730880737e-02
-1.863229647278785706e-02
-1.919520273804664612e-02
-1.542827952653169632e-02
-3.836042946204543114e-03
3.751305118203163147e-02
2.932911552488803864e-02
1.138387899845838547e-02
-1.043040398508310318e-02
2.424958627671003342e-03
1.259267982095479965e-02
-3.504524752497673035e-02
-1.674504764378070831e-02
4.007542505860328674e-03
1.305936742573976517e-02
1.847190223634243011e-02
-2.091336809098720551e-02
2.434665709733963013e-02
-4.796173423528671265e-02
1.734225824475288391e-02
-3.826235979795455933e-02
-4.221538081765174866e-02
-2.820009551942348480e-02
-3.164744377136230469e-02
-2.119070664048194885e-02
-3.378638252615928650e-02
-2.208751440048217773e-02
-2.095994912087917328e-02
1.273994985967874527e-02
-4.111795499920845032e-02
-1.678705774247646332e-02
-4.538540914654731750e-02
-1.587592647410929203e-03
1.668985560536384583e-02
-4.538880288600921631e-02
-2.199218794703483582e-02
-4.142546281218528748e-02
-3.722083568572998047e-02
1.767645217478275299e-02
3.574675694108009338e-02
3.957162424921989441e-02
2.102066017687320709e-02
2.743510343134403229e-02
-1.631652587093412876e-03
2.386988839134573936e-03
4.281135741621255875e-03
1.497969496995210648e-02
7.386989425867795944e-03
-1.696566818282008171e-03
3.299813717603683472e-02
6.038578692823648453e-03
-7.684851996600627899e-03
3.144150227308273315e-02
-4.743361473083496094e-02
2.678146958351135254e-02
-4.700343683362007141e-02
3.249206766486167908e-02
-4.852581024169921875e-02
-2.117975801229476929e-02
4.090026393532752991e-02
3.410079330205917358e-02
-4.495415836572647095e-02
7.665862329304218292e-03
-4.286451265215873718e-02
2.960340306162834167e-02
2.352119050920009613e-02
-2.936029434204101562e-02
-1.416611298918724060e-02
5.365213751792907715e-02
-2.819690480828285217e-02
3.160950914025306702e-02
-3.547437116503715515e-02
-9.733410115586593747e-05
-2.050416171550750732e-02
-3.642109781503677368e-02
-7.254468277096748352e-03
-4.010328277945518494e-02
5.874739028513431549e-03
3.147379262372851372e-03
4.363421816378831863e-03
-1.387872360646724701e-02
3.970998898148536682e-02
-9.963636286556720734e-03
2.736647427082061768e-02
-1.282327622175216675e-02
2.591897174715995789e-02
-5.245302803814411163e-03
-2.789489552378654480e-02
3.223057091236114502e-02
-1.711316965520381927e-02
-9.747894480824470520e-03
-2.386674657464027405e-02
1.724896766245365143e-02
-3.595031052827835083e-02
1.344866864383220673e-02
5.469063762575387955e-03
2.720749378204345703e-02
-4.278014972805976868e-02
4.765904322266578674e-02
2.620851434767246246e-02
-3.656803816556930542e-02
2.937559597194194794e-02
2.785780653357505798e-02
-3.809652477502822876e-02
1.905403845012187958e-02
-3.517906740307807922e-02
9.726529009640216827e-03
-4.370681568980216980e-02
-2.504685660824179649e-03
-1.862201094627380371e-02
-1.509850285947322845e-02
2.516554901376366615e-03
3.407783061265945435e-02
-1.370969600975513458e-02
1.996801979839801788e-02
2.597742155194282532e-02
4.086776450276374817e-02
-4.093996807932853699e-02
-9.169091470539569855e-03
-2.893486060202121735e-02
1.254796865396201611e-03
-6.276517640799283981e-03
-2.724306844174861908e-02
-1.109460555016994476e-02
-4.536153003573417664e-02
2.769630216062068939e-02
3.250918537378311157e-02
-2.543144673109054565e-02
-1.754058524966239929e-02
-3.710487624630331993e-03
-2.807565033435821533e-02
3.143127635121345520e-02
-9.918265976011753082e-03
1.893105357885360718e-02
-3.251608833670616150e-02
-2.846411243081092834e-02
-8.682217448949813843e-04
1.778511703014373779e-02
2.563061192631721497e-02
2.204199507832527161e-02
1.447219680994749069e-02
2.562216110527515411e-02
-3.383544459939002991e-02
-5.296638607978820801e-02
7.660374511033296585e-03
3.102885186672210693e-02
-2.107594534754753113e-02
1.974583603441715240e-03
-8.212702348828315735e-03
1.069513498805463314e-03
4.580070823431015015e-02
-3.199001774191856384e-02
1.240876782685518265e-02
-2.016145735979080200e-02
-3.894579783082008362e-02
1.201053149998188019e-02
4.153032321482896805e-03
-4.099354892969131470e-02
2.962102554738521576e-02
-4.494703561067581177e-02
-5.287519190460443497e-03
8.847298100590705872e-03
-3.732976317405700684e-02
9.987215511500835419e-03
-5.190350580960512161e-03
-5.375565029680728912e-03
1.104706060141324997e-02
-2.501493319869041443e-02
4.558823071420192719e-03
1.508557237684726715e-02
-4.995395615696907043e-02
3.205439820885658264e-02
-3.899452090263366699e-02
-5.194986611604690552e-02
-2.393926121294498444e-02
-3.803520649671554565e-02
1.662995852530002594e-02
-4.940737783908843994e-02
1.344968844205141068e-02
-2.629014849662780762e-02
-1.344210933893918991e-02
-1.404003147035837173e-02
3.363965079188346863e-02
-3.008243627846240997e-02
-3.904200345277786255e-02
4.406493529677391052e-02
-2.594892308115959167e-02
3.320606797933578491e-02
-2.766683325171470642e-02
2.872028946876525879e-02
-1.031767111271619797e-03
2.678176853805780411e-03
-4.416865855455398560e-02
-2.304441295564174652e-02
8.469966240227222443e-03
-1.764563471078872681e-02
-4.248514026403427124e-02
6.249973550438880920e-03
2.668763324618339539e-02
1.710463687777519226e-02
-1.428189314901828766e-02
2.248465828597545624e-02
-2.527894638478755951e-02
1.760083064436912537e-02
-1.496947649866342545e-02
-5.242510698735713959e-03
-4.347579553723335266e-02
-2.589792385697364807e-02
-3.947244957089424133e-02
-8.074329234659671783e-03
-1.937163434922695160e-02
-4.273504763841629028e-02
2.700973115861415863e-02
-4.454138875007629395e-02
-1.030727848410606384e-02
4.243085160851478577e-02
-2.623561536893248558e-03
2.905839122831821442e-02
-3.023735713213682175e-03
6.378712505102157593e-02
3.930080682039260864e-02
-1.560718100517988205e-02
-2.949249371886253357e-02
-5.717274732887744904e-03
4.166887607425451279e-03
-7.775128819048404694e-03
1.255696732550859451e-02
-2.452830551192164421e-03
2.792648971080780029e-02
-1.466363482177257538e-02
-1.932889409363269806e-02
-5.625185556709766388e-03
3.559445962309837341e-02
4.264976456761360168e-02
1.976552605628967285e-02
-4.495700448751449585e-02
-1.911220490001142025e-03
-2.274553291499614716e-02
3.139893338084220886e-02
1.609939709305763245e-02
3.392952308058738708e-02
-3.278471296653151512e-03
-1.138847670517861843e-03
5.735942348837852478e-02
-2.044995687901973724e-02
-2.842579036951065063e-02
-3.448835387825965881e-02
-2.619102224707603455e-02
-3.148305788636207581e-02
1.856620050966739655e-02
-2.543490938842296600e-02
1.483211852610111237e-02
1.274626143276691437e-02
-4.210884869098663330e-02
-1.362001895904541016e-02
-1.304760109633207321e-02
-4.145378991961479187e-02
-2.717803418636322021e-02
-8.163208141922950745e-03
-4.333698656409978867e-03
2.597027644515037537e-02
5.284702777862548828e-02
1.508678216487169266e-02
-5.331363156437873840e-02
-7.713286206126213074e-03
-1.446291990578174591e-02
2.649814821779727936e-03
-3.803654806688427925e-03
1.703268103301525116e-02
-2.730350196361541748e-02
-1.785938255488872528e-02
2.709651738405227661e-02
-3.429893776774406433e-02
-3.057069890201091766e-02
-2.719440497457981110e-02
-3.596997261047363281e-02
-5.589383188635110855e-03
-4.930502176284790039e-02
5.764221772551536560e-02
1.111696101725101471e-02
-5.265463516116142273e-02
-4.113788902759552002e-02
1.062973169609904289e-03
9.639285504817962646e-03
-1.296120416373014450e-02
-4.613985121250152588e-02
2.289124019443988800e-02
2.181473653763532639e-03
-1.178413070738315582e-02
1.885303296148777008e-02
3.046015975996851921e-03
2.269214764237403870e-02
-1.153734419494867325e-02
-4.279912263154983521e-02
1.876647211611270905e-02
1.964864321053028107e-02
1.369121763855218887e-02
6.951650977134704590e-02
1.249440107494592667e-02
1.677994057536125183e-02
-2.136889845132827759e-02
1.007098983973264694e-02
8.490142412483692169e-03
3.100829431787133217e-03
-1.397019159048795700e-02
-4.316492006182670593e-02
2.675908245146274567e-02
6.300429813563823700e-03
-1.593658514320850372e-02
-1.232423167675733566e-02
-1.163932867348194122e-02
-5.728573724627494812e-02
-2.775861695408821106e-02
-3.658963367342948914e-02
-9.748930111527442932e-03
2.544263750314712524e-02
2.881959266960620880e-02
5.309000238776206970e-02
-1.585354283452033997e-02
1.137700118124485016e-02
-3.040542453527450562e-02
-3.287059441208839417e-02
-8.016917854547500610e-03
2.324893698096275330e-02
1.913156919181346893e-02
6.093098316341638565e-03
3.259423375129699707e-02
2.939141727983951569e-02
-3.750216588377952576e-02
-1.580487564206123352e-02
3.285350510850548744e-03
-3.781346976757049561e-02
-2.936646342277526855e-02
-2.808140404522418976e-02
3.994173929095268250e-02
4.665270820260047913e-02
-5.510688200592994690e-02
6.060181930661201477e-02
5.381383746862411499e-02
3.349944204092025757e-02
4.487299174070358276e-02
1.266632229089736938e-02
-2.969533763825893402e-02
1.783527433872222900e-02
2.369750989601016045e-03
-2.053230255842208862e-02
5.749939754605293274e-02
-2.575632929801940918e-02
-4.956723656505346298e-03
-4.784939065575599670e-02
7.554578781127929688e-02
1.244678907096385956e-02
3.504024446010589600e-02
2.645141445100307465e-02
4.198786243796348572e-02
-5.799990147352218628e-03
-2.325757034122943878e-02
-4.785878583788871765e-02
5.389035493135452271e-02
1.073891483247280121e-02
-3.655783832073211670e-02
3.232120350003242493e-02
-3.105340152978897095e-02
-3.536285459995269775e-02
7.489238400012254715e-03
-3.499772399663925171e-02
-3.716655820608139038e-02
-1.657834462821483612e-02
4.138008877635002136e-02
-5.975679680705070496e-02
-6.002967432141304016e-02
-5.300345644354820251e-02
2.629426680505275726e-02
2.117620036005973816e-02
3.310834243893623352e-02
2.898409403860569000e-02
1.340558007359504700e-02
2.410508226603269577e-03
3.801247105002403259e-02
4.272489249706268311e-02
3.133373707532882690e-02
-1.042399089783430099e-02
-1.663462445139884949e-02
1.095087267458438873e-02
-2.104159072041511536e-02
-2.883663214743137360e-02
-9.778762236237525940e-03
4.508516564965248108e-02
-8.600373752415180206e-03
2.521710470318794250e-02
-2.475222945213317871e-02
-4.916577786207199097e-02
-2.633857168257236481e-02
2.575566060841083527e-02
2.518231049180030823e-02
1.284207310527563095e-02
-4.425507783889770508e-02
-5.347221344709396362e-02
5.711055174469947815e-02
-1.709407567977905273e-02
-3.084363415837287903e-02
-5.374891310930252075e-02
-1.559911016374826431e-02
1.853810437023639679e-02
1.919403113424777985e-02
-2.967534959316253662e-02
-4.153409600257873535e-02
-7.860582321882247925e-03
-7.667015597689896822e-05
3.958629071712493896e-02
-4.512204974889755249e-02
3.015128895640373230e-02
2.359073050320148468e-02
-2.983782906085252762e-03
-6.253702100366353989e-03
2.008764445781707764e-02
4.049638658761978149e-02
2.217451483011245728e-02
9.977424517273902893e-03
6.954919546842575073e-03
1.901638135313987732e-02
-1.853664405643939972e-02
-4.317569360136985779e-02
-3.779246658086776733e-02
-3.441283479332923889e-02
-5.134624615311622620e-02
-3.824144229292869568e-02
3.582639992237091064e-02
-4.310814663767814636e-03
-3.869000449776649475e-02
-1.371537242084741592e-02
3.199154743924736977e-03
-3.605079278349876404e-02
1.439304742962121964e-02
-1.646920107305049896e-02
4.442860558629035950e-02
-4.135869070887565613e-02
2.197031863033771515e-02
-1.695849932730197906e-02
-1.160644087940454483e-02
-5.012788996100425720e-02
2.201555483043193817e-02
-1.721749268472194672e-02
3.599189966917037964e-02
4.351634997874498367e-03
-2.736982703208923340e-02
1.870569214224815369e-02
-3.216732293367385864e-02
4.948311019688844681e-03
-1.612202823162078857e-02
1.601495034992694855e-02
-3.787005692720413208e-02
-4.134352505207061768e-02
-3.742405911907553673e-03
-1.890563778579235077e-02
6.295047700405120850e-02
-3.493162989616394043e-02
-5.915376916527748108e-02
-1.857189275324344635e-02
-9.174776263535022736e-03
1.406558044254779816e-02
-5.740920826792716980e-02
-1.828093081712722778e-02
-3.439823165535926819e-02
-1.017278246581554413e-02
-1.218736916780471802e-02
-4.224598780274391174e-02
-2.087686024606227875e-02
2.160971798002719879e-02
2.543598040938377380e-02
-2.258920855820178986e-02
1.074651256203651428e-02
-3.631607070565223694e-02
7.978779263794422150e-03
-1.450949907302856445e-02
-2.330136299133300781e-02
-2.431793138384819031e-02
1.246884278953075409e-02
1.344535406678915024e-02
-5.983290448784828186e-02
-3.127580508589744568e-02
-3.863371908664703369e-02
7.988669909536838531e-03
4.935792088508605957e-02
-1.518016331829130650e-03
5.304721742868423462e-02
3.648184239864349365e-02
-5.525231827050447464e-04
-1.319765485823154449e-02
-5.362679809331893921e-02
3.016381151974201202e-02
9.175881743431091309e-03
1.541229709982872009e-02
5.469180271029472351e-02
-3.028090810403227806e-03
-5.148023483343422413e-04
1.132293790578842163e-02
1.140148472040891647e-02
-1.830670237541198730e-02
-4.863264411687850952e-02
2.691771835088729858e-02
5.238667502999305725e-02
-8.171991445124149323e-03
1.847395859658718109e-02
-1.296505914069712162e-03
-5.307601392269134521e-02
-4.357061348855495453e-03
-4.309459030628204346e-02
-9.478571824729442596e-03
7.480412721633911133e-03
-2.666202001273632050e-02
1.887669670395553112e-03
3.164070099592208862e-02
-5.721563356928527355e-04
-4.457813501358032227e-02
-6.227667909115552902e-03
3.540982306003570557e-02
6.947527080774307251e-02
-2.230742760002613068e-02
4.001529887318611145e-02
-2.834419533610343933e-02
-3.969709947705268860e-02
1.296562887728214264e-02
-4.458076786249876022e-03
-2.884252555668354034e-02
2.644497156143188477e-02
4.835195094347000122e-02
-2.871707268059253693e-02
1.367628574371337891e-02
-5.128652974963188171e-02
-1.334808021783828735e-02
3.762625157833099365e-02
-2.652947045862674713e-02
-1.318228524178266525e-02
-4.236526042222976685e-02
2.012401819229125977e-02
-3.049895726144313812e-02
-1.084828004240989685e-02
1.028786064125597477e-03
-4.585625976324081421e-02
1.052276697009801865e-02
-5.076439678668975830e-02
3.146331012248992920e-02
2.794216619804501534e-03
1.807060092687606812e-02
-9.424066171050071716e-03
-1.541226077824831009e-02
-4.288287833333015442e-02
-2.080859057605266571e-02
1.747890189290046692e-02
-1.279348600655794144e-02
-1.807493343949317932e-02
4.224813729524612427e-02
-6.632498931139707565e-03
3.705321624875068665e-02
5.813889577984809875e-02
-1.384029164910316467e-02
-1.531494688242673874e-02
-4.528685286641120911e-02
-1.993325166404247284e-02
1.055893674492835999e-02
2.692504785954952240e-02
-4.809565842151641846e-02
-4.897747933864593506e-02
-4.760460928082466125e-02
4.632072814274579287e-04
1.036074478179216385e-02
-3.538308665156364441e-02
2.991077117621898651e-02
-3.756119683384895325e-02
-3.470126166939735413e-02
2.772771567106246948e-02
-2.458356320858001709e-02
-3.089699661359190941e-03
-1.911605708301067352e-02
4.441631585359573364e-02
-1.607033424079418182e-02
1.274542999453842640e-03
9.933226741850376129e-03
-5.806222558021545410e-02
2.309465222060680389e-02
-2.743894979357719421e-02
-1.710188807919621468e-03
2.613088861107826233e-02
-4.454764071851968765e-03
1.583743467926979065e-02
7.639805786311626434e-03
-1.495432201772928238e-02
1.841190271079540253e-02
2.380768768489360809e-02
-3.105683438479900360e-02
4.415214806795120239e-02
3.446623310446739197e-02
2.392720617353916168e-02
3.116472996771335602e-02
-2.123457193374633789e-02
-5.223648622632026672e-03
-1.028755772858858109e-02
1.514023821800947189e-02
1.613996736705303192e-02
1.182305254042148590e-02
3.745768917724490166e-03
-2.481894008815288544e-02
-4.888728260993957520e-02
3.019770979881286621e-02
-4.211273975670337677e-03
2.875940874218940735e-02
-3.340125456452369690e-02
-3.167111426591873169e-02
9.818794205784797668e-04
-9.916477836668491364e-03
7.493167184293270111e-03
-9.168704273179173470e-04
3.271435620263218880e-03
-2.932767942547798157e-02
-3.171687945723533630e-02
-3.270526649430394173e-03
2.592753991484642029e-02
-2.828435972332954407e-03
2.248059213161468506e-02
-3.193797916173934937e-02
-3.956745564937591553e-02
-4.166574217379093170e-03
-1.383526623249053955e-02
5.884129926562309265e-02
-7.482639513909816742e-03
7.422367110848426819e-03
-1.409598346799612045e-02
-1.357684470713138580e-02
4.677801579236984253e-02
-4.043443128466606140e-02
2.493458613753318787e-02
2.256102859973907471e-02
1.336587034165859222e-02
-3.724836558103561401e-02
4.035965725779533386e-02
2.034281205851584673e-04
1.239323406480252743e-03
-2.542436867952346802e-02
-4.671689495444297791e-02
3.675912320613861084e-02
1.405816059559583664e-02
5.457683652639389038e-02
-3.143719956278800964e-02
-3.273598104715347290e-02
-5.073997750878334045e-02
3.112338483333587646e-03
3.077606484293937683e-02
-5.165528040379285812e-03
-2.496639080345630646e-02
-3.348154714331030846e-03
3.669690713286399841e-02
1.394564169459044933e-03
-4.875599965453147888e-02
-3.953773155808448792e-02
-2.243199013173580170e-02
5.353766679763793945e-02
-1.571244746446609497e-02
-4.636500775814056396e-02
-3.264544531702995300e-02
6.639660149812698364e-02
4.059191793203353882e-02
3.940336778759956360e-02
-5.638293921947479248e-03
3.304341435432434082e-02
4.380383063107728958e-03
-4.978605546057224274e-03
7.504445500671863556e-03
1.154950540512800217e-02
-5.173979327082633972e-03
-5.241137463599443436e-03
-1.610986329615116119e-02
-5.013610422611236572e-02
-9.612881578505039215e-03
-2.804029360413551331e-02
-1.540301926434040070e-02
7.671637833118438721e-02
4.819291085004806519e-02
5.185860395431518555e-02
5.178188439458608627e-03
-4.348317161202430725e-02
2.161811292171478271e-02
3.155364468693733215e-02
4.109894484281539917e-02
-2.043179608881473541e-02
-1.432142779231071472e-02
3.096020966768264771e-02
3.932986408472061157e-03
-2.270254679024219513e-02
2.534738183021545410e-02
6.792292464524507523e-03
6.920151412487030029e-03
1.092048268765211105e-02
6.000297144055366516e-03
-1.166518218815326691e-02
1.307017076760530472e-02
-4.257738962769508362e-02
5.246702209115028381e-02
-1.919213496148586273e-02
5.603983998298645020e-03
2.406502701342105865e-02
-7.528870832175016403e-03
-2.618725411593914032e-02
4.614164680242538452e-02
8.484859950840473175e-03
1.266822963953018188e-02
-1.035925466567277908e-02
3.439393639564514160e-02
-2.505716122686862946e-02
-4.187368601560592651e-02
-9.970438666641712189e-03
-2.850827760994434357e-02
8.475625887513160706e-03
-1.792984269559383392e-02
1.493898592889308929e-02
-5.688183382153511047e-02
2.149277739226818085e-02
5.490686744451522827e-02
-3.896804898977279663e-02
-2.319142967462539673e-02
3.575687110424041748e-02
8.989231660962104797e-03
-2.458827011287212372e-02
-1.807811856269836426e-02
1.810664311051368713e-03
-1.169622316956520081e-02
-5.181006714701652527e-02
-4.310388490557670593e-02
-1.286667655222117901e-03
-1.052993163466453552e-02
2.899125963449478149e-02
-5.814317986369132996e-02
1.844808831810951233e-02
-2.386608347296714783e-02
2.621191181242465973e-02
-3.510431572794914246e-02
-3.018898330628871918e-02
-1.175459567457437515e-02
-5.546312406659126282e-02
2.899925922974944115e-03
1.735186763107776642e-02
2.574289031326770782e-02
1.619133166968822479e-02
-4.942777100950479507e-03
1.383089460432529449e-02
2.463394217193126678e-02
1.201649865834042430e-04
-1.408780831843614578e-02
1.969267055392265320e-02
-3.962096571922302246e-02
1.483746897429227829e-02
-1.888754032552242279e-02
-5.111430212855339050e-02
4.071244224905967712e-02
4.937716946005821228e-02
4.809243604540824890e-03
3.071030229330062866e-02
-3.648631274700164795e-02
-2.037218026816844940e-02
-2.871246263384819031e-02
-3.457341343164443970e-02
2.704207086935639381e-03
-6.905247922986745834e-03
-4.690783470869064331e-02
-3.035802580416202545e-02
-2.346895402297377586e-03
-5.935729946941137314e-03
1.806267723441123962e-02
1.456937100738286972e-02
1.837168820202350616e-02
5.876168608665466309e-02
-5.672731623053550720e-02
1.151195378042757511e-03
2.192143164575099945e-02
-2.098733931779861450e-02
3.150826692581176758e-02
-1.057815458625555038e-02
-3.651958331465721130e-02
9.425573050975799561e-03
-3.055795468389987946e-02
-1.079516019672155380e-02
-2.505702711641788483e-02
6.699789315462112427e-03
3.866121917963027954e-02
2.610250608995556831e-03
2.777518332004547119e-02
4.800290614366531372e-02
-1.874672435224056244e-02
-3.607480227947235107e-02
-8.752490393817424774e-03
3.987621050328016281e-03
-4.682379774749279022e-03
2.948587387800216675e-02
-3.789799287915229797e-02
-2.977050654590129852e-02
2.244524657726287842e-02
-1.800459250807762146e-02
-1.460735965520143509e-02
-3.214940056204795837e-02
-4.754209145903587341e-02
2.202287875115871429e-02
2.275711111724376678e-02
3.355667926371097565e-03
2.614422887563705444e-02
4.120081290602684021e-02
2.844125032424926758e-02
-2.205142192542552948e-02
-8.552951738238334656e-03
8.310369215905666351e-03
-3.792358189821243286e-02
-2.852797321975231171e-02
2.019276656210422516e-02
-3.071289509534835815e-02
2.636100724339485168e-02
4.818189516663551331e-02
-1.895168330520391464e-03
2.287077344954013824e-02
-6.519783288240432739e-03
1.490509137511253357e-03
-1.059392932802438736e-02
1.821177825331687927e-02
-1.144909113645553589e-02
2.811462804675102234e-02
-3.019710443913936615e-02
3.788542747497558594e-02
-4.763354361057281494e-02
-3.057602234184741974e-02
1.934571191668510437e-02
1.165764778852462769e-02
-2.104946598410606384e-02
2.957129292190074921e-02
3.786952048540115356e-02
-2.437648596242070198e-03
-9.294942952692508698e-03
1.617011241614818573e-02
-3.253866918385028839e-03
2.524995617568492889e-02
2.711268141865730286e-03
3.060917370021343231e-02
1.971762441098690033e-02
2.146838232874870300e-02
-3.630645573139190674e-02
1.026113796979188919e-02
-2.701293118298053741e-02
-8.880891837179660797e-03
-5.568127334117889404e-02
-3.744912520051002502e-02
3.631746023893356323e-02
-2.317073196172714233e-02
-4.759756103157997131e-02
-1.568461954593658447e-02
2.127830870449542999e-02
-3.807711228728294373e-02
2.472598478198051453e-02
1.242947764694690704e-02
-3.665101900696754456e-02
4.411377012729644775e-03
1.559745986014604568e-02
1.315892906859517097e-03
2.394680865108966827e-02
-6.652311887592077255e-03
4.839522764086723328e-02
2.701373025774955750e-02
5.689793732017278671e-03
1.391813065856695175e-02
9.736648644320666790e-05
-1.918003521859645844e-02
2.911900170147418976e-02
3.151977807283401489e-02
2.957545407116413116e-02
-3.701358661055564880e-02
-9.710857644677162170e-03
3.033330105245113373e-02
3.928051516413688660e-02
-1.735020056366920471e-02
-3.400459885597229004e-02
-4.225572943687438965e-02
-4.913842678070068359e-02
-9.155631996691226959e-03
2.577327890321612358e-03
2.333839610219001770e-02
-1.952601782977581024e-02
-1.682696677744388580e-02
-1.069114264100790024e-02
-1.528455130755901337e-02
-3.551862761378288269e-02
-1.232283189892768860e-03
-2.093086205422878265e-02
-3.965524374507367611e-04
-8.583785034716129303e-03
5.140896537341177464e-04
-3.420579433441162109e-02
-1.962231285870075226e-02
4.338532686233520508e-02
-2.062257193028926849e-02
4.422849044203758240e-02
-2.615391276776790619e-02
6.683708168566226959e-03
1.869347132742404938e-02
-2.402329444885253906e-02
-1.721019111573696136e-02
1.600602269172668457e-02
-1.729122549295425415e-02
-1.275755558162927628e-02
3.238894790410995483e-02
-3.859186545014381409e-02
4.881894215941429138e-03
-1.093550771474838257e-02
1.347013376653194427e-02
2.822466939687728882e-02
-4.552948102355003357e-02
-5.296820402145385742e-02
-3.598105907440185547e-02
2.658200077712535858e-02
-2.327649388462305069e-03
3.318148106336593628e-02
-3.407867392525076866e-03
2.301001362502574921e-02
1.767473854124546051e-02
-1.214743498712778091e-02
1.089551765471696854e-02
-5.679427832365036011e-02
3.270818293094635010e-02
2.516270615160465240e-02
2.829869976267218590e-03
-1.933737471699714661e-02
-3.357322514057159424e-02
-4.796703904867172241e-02
-1.795551180839538574e-02
-2.346290461719036102e-02
3.921944182366132736e-03
7.298856042325496674e-03
1.160213910043239594e-02
-6.206513941287994385e-02
-3.481352329254150391e-02
2.267803438007831573e-02
-4.397355392575263977e-02
3.476878255605697632e-02
4.785033408552408218e-03
2.853110246360301971e-02
4.130335524678230286e-03
1.084428373724222183e-02
2.618919499218463898e-02
4.192938562482595444e-03
-4.141314886510372162e-03
-4.129807278513908386e-02
-1.986717106774449348e-04
6.344062741845846176e-03
-9.309008717536926270e-03
4.346117749810218811e-02
-4.235150292515754700e-03
1.611186750233173370e-02
4.286641627550125122e-02
-2.248594351112842560e-02
-2.370263822376728058e-02
3.922184987459331751e-04
-3.555143997073173523e-02
8.730918169021606445e-03
-6.974748102948069572e-04
-1.785081066191196442e-02
-1.084813848137855530e-02
-2.095007151365280151e-02
-3.619475662708282471e-02
3.688116371631622314e-02
-5.649416521191596985e-02
5.457032471895217896e-03
-2.097194641828536987e-02
-2.009906619787216187e-02
-1.253401022404432297e-02
3.314745426177978516e-02
-2.536997012794017792e-02
4.413893073797225952e-02
3.211979940533638000e-02
2.304476313292980194e-02
4.034695029258728027e-02
-4.187178239226341248e-02
-1.535829040221869946e-03
-2.586218342185020447e-02
-2.610501088201999664e-02
9.825390763580799103e-03
-2.212814288213849068e-04
1.891087181866168976e-02
-7.633002474904060364e-03
2.637200430035591125e-02
6.550396792590618134e-03
2.855430729687213898e-02
-5.065182223916053772e-03
-1.216075941920280457e-02
1.760659925639629364e-02
2.841214649379253387e-02
4.160533659160137177e-03
1.395701337605714798e-02
3.538184985518455505e-02
2.948982268571853638e-02
-2.494082413613796234e-02
-2.150052040815353394e-02
1.095305569469928741e-02
-3.847978636622428894e-02
5.556881893426179886e-03
3.914016112685203552e-02
-1.813825964927673340e-02
-1.531272381544113159e-02
3.660368546843528748e-02
-2.232193760573863983e-02
8.293520659208297729e-03
1.542950863949954510e-03
-2.296754717826843262e-02
2.219060808420181274e-02
2.744618430733680725e-02
2.262514270842075348e-02
3.708222880959510803e-02
7.805528119206428528e-03
-3.456361964344978333e-02
1.857172325253486633e-02
-4.469755291938781738e-02
1.623752713203430176e-02
-3.563932841643691063e-03
-8.011668920516967773e-03
-5.568934977054595947e-02
2.528308518230915070e-02
-1.980428583920001984e-02
4.559011384844779968e-02
5.137363076210021973e-02
-3.273757547140121460e-02
3.915542270988225937e-03
3.173946589231491089e-02
-9.999939240515232086e-03
-1.157098915427923203e-02
2.254429645836353302e-02
-6.561742047779262066e-04
1.545090135186910629e-02
-1.539110019803047180e-02
1.487280987203121185e-02
-3.535406291484832764e-02
-4.797650128602981567e-02
-2.312656119465827942e-02
1.361398492008447647e-02
2.563716284930706024e-02
-1.839163713157176971e-02
-1.600746437907218933e-02
-4.368716909084469080e-04
3.608141839504241943e-02
-1.730151474475860596e-02
1.145753823220729828e-02
-4.014337318949401379e-04
2.432850375771522522e-02
-5.510512273758649826e-03
1.968960650265216827e-02
-3.937468305230140686e-02
9.103015065193176270e-03
-2.493885718286037445e-02
-2.928216196596622467e-02
4.880882054567337036e-02
-3.200852870941162109e-02
1.958977058529853821e-02
-3.862015157938003540e-02
5.827794317156076431e-03
-4.388449341058731079e-02
2.861313335597515106e-02
2.133174426853656769e-02
-8.285229094326496124e-03
4.120159894227981567e-02
-6.314242724329233170e-03
-2.115396037697792053e-02
-2.078198641538619995e-02
3.811901807785034180e-02
2.583466470241546631e-03
2.910923585295677185e-02
2.584215812385082245e-02
6.558798719197511673e-03
3.369690105319023132e-02
2.807738445699214935e-02
1.393457641825079918e-03
-2.374119125306606293e-02
-1.529036369174718857e-02
-8.145728148519992828e-03
3.044776059687137604e-02
6.073416210711002350e-03
-5.110349506139755249e-02
-2.799120498821139336e-03
1.435626484453678131e-02
2.770495228469371796e-02
4.334830120205879211e-02
-1.045929826796054840e-02
-1.734716445207595825e-02
1.159902568906545639e-02
-6.183733046054840088e-02
-5.081755667924880981e-02
2.376304240897297859e-03
2.313696220517158508e-02
3.425845131278038025e-02
1.093120221048593521e-02
-1.779206655919551849e-02
2.608723938465118408e-02
1.024142652750015259e-02
-4.395396634936332703e-02
6.893028505146503448e-03
-2.764270454645156860e-02
-5.037128925323486328e-02
1.079068984836339951e-02
2.402027696371078491e-02
-3.859129548072814941e-02
1.493562385439872742e-02
-1.931807212531566620e-02
2.608280442655086517e-02
-4.664847627282142639e-02
2.337650768458843231e-02
2.171063795685768127e-02
4.174478724598884583e-02
-3.333747759461402893e-02
-5.164556205272674561e-04
-2.351607196033000946e-02
6.257272325456142426e-04
-3.848488256335258484e-02
-1.781528629362583160e-02
-9.739401750266551971e-03
2.575589343905448914e-02
-6.132913287729024887e-03
-1.663170382380485535e-02
2.169937128201127052e-03
4.360443353652954102e-02
2.512878552079200745e-02
2.732094749808311462e-02
3.192093968391418457e-02
8.705419604666531086e-04
-2.322757616639137268e-02
-2.733111009001731873e-02
2.254698658362030983e-03
-1.813745871186256409e-02
2.522829547524452209e-02
-1.079760398715734482e-02
2.072262763977050781e-02
-3.603618964552879333e-02
-6.108224624767899513e-04
-1.794179528951644897e-02
3.690521232783794403e-03
-2.918384969234466553e-02
-3.578909114003181458e-02
-5.330483242869377136e-02
-1.792072691023349762e-02
-2.645081281661987305e-02
1.084626652300357819e-02
-3.300273790955543518e-02
-1.702839322388172150e-02
4.216833040118217468e-02
3.903327137231826782e-02
4.364495724439620972e-02
1.607627607882022858e-02
-4.596158862113952637e-02
3.548058494925498962e-02
5.179386585950851440e-03
2.740587107837200165e-03
1.390696503221988678e-02
2.892615646123886108e-02
-2.843201532959938049e-02
-3.240815177559852600e-02
1.598875969648361206e-02
-1.031196676194667816e-02
2.308366633951663971e-02
-1.939122006297111511e-02
-3.594894334673881531e-02
5.684101954102516174e-02
1.692488230764865875e-02
-2.966902591288089752e-02
2.862309850752353668e-02
-2.107608132064342499e-02
2.322937548160552979e-02
3.816489875316619873e-02
1.683564856648445129e-02
-4.346270114183425903e-02
2.384918741881847382e-02
-3.994954749941825867e-02
-2.153611043468117714e-03
-4.476311430335044861e-02
-1.561226230114698410e-02
2.570573054254055023e-02
8.428235538303852081e-03
1.971326954662799835e-02
-3.349709510803222656e-02
1.223087590187788010e-02
-1.450755540281534195e-02
7.956781424582004547e-03
4.189663007855415344e-02
-1.872608996927738190e-02
3.423832356929779053e-02
2.208246849477291107e-02
2.153906598687171936e-02
1.235119439661502838e-02
3.828059881925582886e-03
8.390110917389392853e-03
-4.390921816229820251e-02
-4.613436385989189148e-02
-1.006634160876274109e-02
-2.483175881206989288e-02
-2.033603191375732422e-02
1.229782588779926300e-02
4.883030056953430176e-02
-2.626065537333488464e-02
4.030425474047660828e-02
3.430157899856567383e-02
1.969170756638050079e-02
6.198293715715408325e-02
3.724420070648193359e-02
2.660666592419147491e-02
-1.065240334719419479e-02
-2.551087364554405212e-02
4.365129396319389343e-02
-3.750805556774139404e-02
-2.621605247259140015e-02
-3.377079498022794724e-03
9.583562612533569336e-03
-1.035590376704931259e-02
2.333188429474830627e-02
1.963666081428527832e-02
-2.561391796916723251e-03
-4.245613515377044678e-02
3.115330822765827179e-02
2.030565403401851654e-02
-3.631080966442823410e-03
8.378619328141212463e-03
-9.634090587496757507e-03
-1.915055513381958008e-02
1.535192970186471939e-02
2.480458281934261322e-02
8.957386016845703125e-03
-2.405362017452716827e-02
-1.110490411520004272e-02
-4.577796440571546555e-03
-1.638581790030002594e-02
-5.028138868510723114e-03
-4.354022815823554993e-02
4.702747985720634460e-02
-4.495726153254508972e-02
-1.901669055223464966e-02
2.025285363197326660e-02
-2.658291347324848175e-02
1.384783536195755005e-02
4.696137271821498871e-03
-3.887674584984779358e-02
3.806524677202105522e-03
3.776791319251060486e-02
3.443320468068122864e-02
1.702496223151683807e-02
-4.157252237200737000e-02
-4.270798340439796448e-02
-1.357358507812023163e-02
-2.521475963294506073e-02
-1.366565562784671783e-02
-2.015269361436367035e-02
3.863628953695297241e-02
-2.460221201181411743e-02
3.173017874360084534e-02
-1.753989234566688538e-02
4.019334539771080017e-02
2.726578339934349060e-02
3.580005839467048645e-02
-2.921616658568382263e-02
-1.396193075925111771e-02
-3.548401966691017151e-02
-3.781491518020629883e-02
-9.894267655909061432e-03
4.441321268677711487e-02
1.923917047679424286e-02
-3.711126744747161865e-02
7.289775530807673931e-04
4.179947078227996826e-02
-1.234255544841289520e-02
-5.553570226766169071e-04
-1.904461346566677094e-02
-3.056513890624046326e-02
2.608343958854675293e-02
-2.568653598427772522e-02
-6.969621405005455017e-03
8.351988159120082855e-03
-2.018389292061328888e-03
-5.685758311301469803e-03
4.358086735010147095e-02
-1.212400849908590317e-02
2.129464782774448395e-02
3.706676512956619263e-02
-2.655881224200129509e-03
2.675947174429893494e-02
-2.276421291753649712e-03
-2.676953375339508057e-02
9.007204324007034302e-03
-2.442764118313789368e-02
3.234484046697616577e-02
-1.198736391961574554e-02
2.244721353054046631e-02
-3.399742394685745239e-02
1.857835054397583008e-02
5.804567039012908936e-02
3.245013067498803139e-03
3.332595154643058777e-02
-2.161356061697006226e-02
-2.282785484567284584e-03
-1.096041221171617508e-02
-1.879302971065044403e-02
-5.647239834070205688e-02
1.395215094089508057e-02
-7.416802691295742989e-04
1.459438120946288109e-03
-4.087209701538085938e-02
5.801036488264799118e-03
4.366955533623695374e-02
5.522693321108818054e-02
2.278449945151805878e-02
2.921370975673198700e-02
-2.201185002923011780e-02
1.581999473273754120e-02
-9.593330323696136475e-03
-1.370909530669450760e-02
2.258091606199741364e-02
2.941770851612091064e-02
8.474352769553661346e-03
-3.034853190183639526e-02
4.980729520320892334e-02
-4.827068001031875610e-02
3.725783899426460266e-02
1.026627607643604279e-02
1.150810625404119492e-02
-2.205312019214034081e-03
-5.572845041751861572e-02
5.208088457584381104e-02
4.364696890115737915e-02
3.293282538652420044e-02
2.499051205813884735e-02
-3.033055551350116730e-02
-5.273300781846046448e-02
6.263198330998420715e-03
4.988434538245201111e-02
-9.830569848418235779e-03
-1.976814679801464081e-02
1.215333025902509689e-02
2.118092961609363556e-03
1.746882125735282898e-02
-8.325612172484397888e-03
-1.716858148574829102e-02
-1.291684433817863464e-02
2.984543517231941223e-02
-2.802971377968788147e-02
-3.184625529684126377e-04
5.084231961518526077e-03
-2.769388956949114799e-03
3.248864039778709412e-02
-3.305581398308277130e-03
-4.064830765128135681e-02
-3.948714956641197205e-02
3.622155636548995972e-02
-8.204475045204162598e-03
-5.380240082740783691e-02
-3.933641128242015839e-03
-3.595295920968055725e-02
-1.513190008699893951e-02
2.319292910397052765e-02
2.243540436029434204e-02
-4.656067490577697754e-02
6.643554195761680603e-03
-5.795821547508239746e-02
-3.406002745032310486e-02
-5.113839637488126755e-03
-4.359925165772438049e-02
-1.821368932723999023e-02
4.443852230906486511e-02
2.808290719985961914e-02
3.611955046653747559e-02
-1.280611380934715271e-02
-1.121379435062408447e-02
-4.461268335580825806e-02
-2.649860084056854248e-02
5.121674388647079468e-02
-6.085454951971769333e-03
-3.720009326934814453e-02
1.509254705160856247e-02
2.813479304313659668e-02
5.030120536684989929e-02
1.865632273256778717e-02
-1.884554326534271240e-02
3.772976994514465332e-02
-1.970543153584003448e-02
1.143645867705345154e-02
-4.229713976383209229e-02
-2.785004116594791412e-02
-3.436205163598060608e-02
-8.925165049731731415e-03
1.779897254891693592e-03
1.098413299769163132e-02
6.107989326119422913e-02
1.399321388453245163e-02
-2.940918318927288055e-02
1.679297909140586853e-02
-1.795914769172668457e-02
-3.817501664161682129e-02
5.745884031057357788e-03
1.933776028454303741e-02
-4.343584179878234863e-02
2.823041193187236786e-02
3.676073253154754639e-02
1.648442819714546204e-02
1.457257941365242004e-02
-4.534200578927993774e-02
1.723357848823070526e-02
-2.372193709015846252e-02
-3.450605273246765137e-02
3.227384015917778015e-02
2.344444394111633301e-03
8.218174800276756287e-03
1.706932112574577332e-02
2.753655426204204559e-02
-3.327613696455955505e-02
-1.304189860820770264e-02
-2.608763985335826874e-03
1.895127445459365845e-02
-1.068430083250859752e-05
3.677599132061004639e-02
-2.555158920586109161e-02
-2.625609189271926880e-02
3.585556522011756897e-02
-1.947360485792160034e-02
-2.847724594175815582e-02
1.941679627634584904e-03
-1.070042885839939117e-02
8.496543392539024353e-03
3.420411422848701477e-02
-1.038583088666200638e-02
-3.542345389723777771e-02
2.630321495234966278e-02
-9.764297865331172943e-03
3.267816454172134399e-02
-4.297130927443504333e-02
6.511976476758718491e-03
3.381304070353507996e-02
-3.957495465874671936e-02
-2.840718254446983337e-02
3.418064862489700317e-02
-4.877714440226554871e-02
5.591553077101707458e-02
1.979779079556465149e-02
-3.864414244890213013e-02
-2.995974943041801453e-02
2.202871814370155334e-02
1.540036778897047043e-02
-3.311771899461746216e-02
-7.979737594723701477e-03
-4.288285225629806519e-02
3.396947681903839111e-02
-1.994574815034866333e-02
-1.451869145967066288e-03
-4.748008213937282562e-03
4.078665748238563538e-02
2.144679613411426544e-02
4.529012832790613174e-03
6.603595614433288574e-02
2.094488218426704407e-02
2.581943757832050323e-02
3.250671923160552979e-02
3.200766164809465408e-03
1.880031824111938477e-02
-3.256215155124664307e-02
-4.943067952990531921e-02
3.405780345201492310e-02
5.700831487774848938e-02
-4.740712791681289673e-02
-2.451140247285366058e-02
1.741457730531692505e-02
1.567715592682361603e-02
4.110087081789970398e-02
2.717578783631324768e-03
-2.686882950365543365e-02
2.314111590385437012e-02
-2.611757256090641022e-02
-6.284954026341438293e-03
-2.599477767944335938e-02
5.098448693752288818e-02
2.896219305694103241e-02
2.364929532632231712e-03
2.905657514929771423e-02
-7.976343855261802673e-03
-5.155277438461780548e-03
-9.982447139918804169e-03
-4.218316823244094849e-02
-3.091024607419967651e-02
2.156021259725093842e-02
2.712564915418624878e-02
4.226962104439735413e-02
4.636504221707582474e-03
2.986465208232402802e-02
-4.518248885869979858e-02
2.412378601729869843e-02
-2.795536071062088013e-02
-3.150238096714019775e-02
1.481882669031620026e-02
-5.517737939953804016e-02
-2.104819938540458679e-02
-7.556770462542772293e-03
-4.801136907190084457e-03
1.536724064499139786e-02
4.333364963531494141e-02
-4.472727701067924500e-02
-4.671601578593254089e-02
9.735112078487873077e-03
-5.749958008527755737e-02
-2.353010931983590126e-03
1.460341922938823700e-02
2.090990170836448669e-02
3.128058463335037231e-02
-2.827000617980957031e-02
1.330778189003467560e-02
1.276081148535013199e-02
1.858080178499221802e-02
8.334464393556118011e-03
-1.929117925465106964e-02
3.521822765469551086e-02
4.414188861846923828e-02
-2.599020116031169891e-02
-3.335263207554817200e-02
3.365054354071617126e-02
-3.588059172034263611e-02
1.577423885464668274e-02
-2.929731644690036774e-02
1.064261049032211304e-02
-3.531983867287635803e-02
1.572462543845176697e-02
3.793200850486755371e-02
2.768149599432945251e-02
7.778475992381572723e-04
-1.989077962934970856e-02
7.835402153432369232e-03
-9.218152612447738647e-03
2.498577162623405457e-02
6.924137473106384277e-03
-1.212476752698421478e-02
-2.026961557567119598e-02
4.145684838294982910e-02
1.130853686481714249e-02
-5.930285900831222534e-03
3.400332480669021606e-02
-9.774241596460342407e-03
-4.479473084211349487e-02
-1.420600898563861847e-02
-1.722679287195205688e-02
-3.566396236419677734e-02
8.562020026147365570e-03
6.977574434131383896e-03
2.213519252836704254e-02
-4.743590950965881348e-02
3.432375937700271606e-02
-1.342172641307115555e-02
1.546129584312438965e-02
-4.324552416801452637e-02
1.262674108147621155e-02
-1.717439852654933929e-02
4.709426686167716980e-02
-5.514527857303619385e-02
2.861279249191284180e-02
-1.594562456011772156e-02
4.195123165845870972e-02
6.297520361840724945e-03
3.896677494049072266e-02
-3.922288492321968079e-02
-6.222725845873355865e-03
4.926555231213569641e-02
2.449611201882362366e-04
2.414572238922119141e-02
1.848691143095493317e-02
-9.909640997648239136e-03
-4.712915420532226562e-02
5.386660806834697723e-03
-8.395466022193431854e-03
-4.025587439537048340e-02
-1.424836833029985428e-02
-3.039637394249439240e-02
1.291491743177175522e-02
-2.286795759573578835e-03
-1.685369201004505157e-02
2.918375469744205475e-02
1.528748683631420135e-02
3.854290395975112915e-02
-2.345610968768596649e-02
2.476963773369789124e-02
5.516625195741653442e-02
1.183253526687622070e-02
2.890771068632602692e-02
2.314723469316959381e-02
-2.885135589167475700e-03
-1.607880555093288422e-02
-1.975623704493045807e-02
-2.806066162884235382e-02
-1.498019974678754807e-02
-3.077402897179126740e-02
-5.226337909698486328e-02
-2.291718311607837677e-02
-1.577425003051757812e-02
3.481964394450187683e-02
-3.577987104654312134e-02
-8.189574815332889557e-03
-3.381177410483360291e-02
2.453691698610782623e-02
-4.444619268178939819e-02
-1.010593399405479431e-02
5.347485467791557312e-02
-1.514317840337753296e-02
-3.897559130564332008e-03
-1.117679383605718613e-02
1.662467420101165771e-02
-3.468189761042594910e-02
-8.553826250135898590e-03
7.924145087599754333e-03
-2.429041638970375061e-02
-1.456096954643726349e-02
4.363606125116348267e-02
-1.089215371757745743e-02
-2.173966541886329651e-02
1.349654886871576309e-02
8.499478921294212341e-03
3.106404095888137817e-02
-2.154331468045711517e-02
-2.970077656209468842e-02
-2.827136777341365814e-04
-5.351785197854042053e-02
-1.019648392684757710e-03
4.813543520867824554e-03
3.242390975356101990e-02
2.543714083731174469e-02
2.606600150465965271e-02
-4.370427876710891724e-02
4.089324921369552612e-02
1.391486730426549911e-02
-1.178645808249711990e-02
-2.654113061726093292e-02
2.577810175716876984e-02
-1.383750792592763901e-02
2.204904519021511078e-02
2.386095933616161346e-02
-2.914963290095329285e-02
-1.302304491400718689e-02
4.972621053457260132e-02
-1.931955665349960327e-02
5.056306254118680954e-03
2.356521412730216980e-02
-3.316088020801544189e-02
1.617777533829212189e-02
4.025316610932350159e-02
1.668486371636390686e-02
-3.246244415640830994e-02
4.475107416510581970e-02
3.680581226944923401e-02
2.538868971168994904e-02
-8.918211795389652252e-03
-2.771792234852910042e-03
2.595414593815803528e-02
-2.639455534517765045e-02
-6.837787805125117302e-05
-2.214085496962070465e-02
-1.445564627647399902e-02
-4.093720763921737671e-02
1.956351473927497864e-02
2.790228463709354401e-02
3.589187562465667725e-02
-9.827687405049800873e-03
3.161472454667091370e-02
-3.808495588600635529e-03
-4.656976554542779922e-03
3.377928957343101501e-02
-4.613506607711315155e-03
8.114478550851345062e-03
-3.483153879642486572e-02
1.011778321117162704e-02
-5.656809732317924500e-02
-2.535501308739185333e-02
-5.339281633496284485e-02
1.513138599693775177e-02
-1.262245420366525650e-02
3.363591060042381287e-02
-2.390083298087120056e-02
4.155236092628911138e-05
-3.160965815186500549e-02
2.320227585732936859e-02
5.542160198092460632e-02
2.584080211818218231e-02
1.471416372805833817e-02
3.485367819666862488e-02
5.060596764087677002e-02
4.238199815154075623e-02
-7.330787368118762970e-03
-1.324712391942739487e-02
1.694747619330883026e-02
3.248855844140052795e-02
5.439183861017227173e-02
-1.633978262543678284e-02
-1.858142390847206116e-02
2.493677102029323578e-02
3.848760575056076050e-02
1.281549315899610519e-02
1.379867084324359894e-02
2.460454218089580536e-02
-3.685940057039260864e-02
-2.143407426774501801e-02
1.746892370283603668e-02
2.886964706704020500e-03
7.081569172441959381e-03
9.469801560044288635e-03
-2.673175930976867676e-02
2.689411863684654236e-02
3.264978900551795959e-02
6.172661855816841125e-02
2.758146077394485474e-02
-5.608895327895879745e-03
5.142014473676681519e-03
1.613033562898635864e-02
1.445695571601390839e-02
2.747872099280357361e-02
7.271628826856613159e-03
1.066227536648511887e-02
-9.727362543344497681e-03
3.138793632388114929e-02
-3.675889223814010620e-02
1.403313223272562027e-02
3.054100647568702698e-02
2.949544042348861694e-02
3.294047713279724121e-02
-4.102403298020362854e-03
1.552946958690881729e-02
1.424413826316595078e-02
8.428958244621753693e-03
5.988623201847076416e-02
5.085991506348364055e-05
3.675195947289466858e-02
-4.005246981978416443e-02
1.905358955264091492e-02
2.326905028894543648e-03
-7.206004229374229908e-04
1.338988728821277618e-02
-4.052142426371574402e-02
-6.065166089683771133e-03
2.218012232333421707e-03
-1.790911145508289337e-02
-2.962984703481197357e-02
-3.016516193747520447e-02
1.058667711913585663e-02
-1.375094521790742874e-02
2.576830610632896423e-02
3.219254687428474426e-02
1.250333338975906372e-02
2.662660181522369385e-02
-1.668295636773109436e-02
1.460355706512928009e-02
1.772795803844928741e-02
-1.399982441216707230e-02
-1.637594215571880341e-02
3.984137997031211853e-02
-3.050621598958969116e-02
8.861989714205265045e-03
-2.493069134652614594e-02
3.397531062364578247e-02
-1.090826839208602905e-02
-1.186482980847358704e-02
-1.876840926706790924e-02
-2.812075242400169373e-02
3.923657536506652832e-02
1.817097514867782593e-02
-3.604762628674507141e-02
-3.935719281435012817e-02
-4.375221207737922668e-03
5.698124412447214127e-03
-4.643496870994567871e-02
1.161413919180631638e-02
-2.408107277005910873e-03
1.183326123282313347e-03
-2.735231816768646240e-02
-2.522855065762996674e-02
-3.432839363813400269e-02
-1.901039108633995056e-02
8.018847554922103882e-03
-3.066586330533027649e-03
-3.259348683059215546e-03
3.839605301618576050e-02
8.915425278246402740e-03
-4.212781786918640137e-02
-3.744394332170486450e-02
2.565050125122070312e-02
2.853403799235820770e-02
-4.180687293410301208e-02
-2.973949164152145386e-02
4.239538684487342834e-02
-1.405081804841756821e-02
-4.374521318823099136e-03
5.738893989473581314e-03
2.615600638091564178e-02
-2.113676629960536957e-02
6.513875909149646759e-03
4.479217901825904846e-02
3.750113397836685181e-02
-1.430333126336336136e-02
-3.621142357587814331e-02
5.818749312311410904e-03
-5.056500062346458435e-02
9.037307463586330414e-03
3.200025856494903564e-02
-4.143416509032249451e-02
9.552209638059139252e-03
-1.946368440985679626e-02
-2.358934283256530762e-02
-3.329333662986755371e-02
-4.564564675092697144e-02
3.448864817619323730e-02
-6.341577041894197464e-03
1.784291677176952362e-02
-7.360143121331930161e-03
-1.656664349138736725e-02
-4.007470980286598206e-02
-2.174697257578372955e-02
3.461512923240661621e-02
-1.104834582656621933e-02
4.286266118288040161e-02
-5.170401558279991150e-02
1.451296545565128326e-02
-3.416243195533752441e-02
3.151714429259300232e-02
1.216728333383798599e-02
6.801612209528684616e-03
-3.843421116471290588e-02
-3.635640442371368408e-02
-4.780067130923271179e-02
-4.015171900391578674e-02
1.062470953911542892e-02
2.913523279130458832e-02
-2.129273116588592529e-02
-4.638090357184410095e-02
1.518522202968597412e-02
7.828276604413986206e-03
1.964304596185684204e-02
-4.804838821291923523e-02
4.339035227894783020e-02
-4.068800713866949081e-03
-2.265140041708946228e-02
-2.196034230291843414e-02
1.879557617940008640e-03
1.299997791647911072e-02
-3.162862360477447510e-02
-2.197152189910411835e-02
2.722218632698059082e-02
-5.918278824537992477e-03
2.802585065364837646e-02
-4.087253659963607788e-02
1.772324368357658386e-02
-6.965830456465482712e-03
9.226334281265735626e-03
2.077960595488548279e-02
-2.413470111787319183e-02
-1.702341437339782715e-02
3.453726321458816528e-02
-1.418777368962764740e-02
2.313192188739776611e-02
-2.164900675415992737e-02
2.578489296138286591e-02
2.427328750491142273e-02
-2.177084423601627350e-02
2.570062642917037010e-03
-3.267329558730125427e-02
-1.610792800784111023e-02
1.085809711366891861e-02
-2.524549141526222229e-02
3.333536908030509949e-02
-3.450344502925872803e-02
3.684929758310317993e-02
1.235045585781335831e-02
-3.907349333167076111e-02
-2.308089658617973328e-02
-1.097064744681119919e-02
-8.970057024271227419e-06
1.843740791082382202e-02
3.877377894241362810e-04
3.290296345949172974e-02
-8.370854891836643219e-03
-5.936149507761001587e-03
-9.532851167023181915e-03
-1.074429694563150406e-02
-3.682868927717208862e-02
4.057120159268379211e-02
-2.283539064228534698e-02
2.789099700748920441e-02
1.673972979187965393e-02
-1.782141253352165222e-02
-2.925466047599911690e-03
-2.033547870814800262e-02
-2.274200133979320526e-02
-3.834081068634986877e-02
1.501712575554847717e-02
2.707223407924175262e-02
-4.504786059260368347e-02
8.077881298959255219e-03
-4.302981495857238770e-02
-2.284232899546623230e-02
8.345947600901126862e-03
-1.676948741078376770e-02
1.493406016379594803e-02
-7.243382744491100311e-03
6.582526955753564835e-03
-1.160754822194576263e-02
-4.201180115342140198e-02
-4.412582889199256897e-02
1.394285727292299271e-02
1.497655455023050308e-02
3.101139515638351440e-02
-1.614713668823242188e-02
-6.106358487159013748e-03
-9.764151647686958313e-03
1.502421032637357712e-02
1.686847023665904999e-02
-4.290793091058731079e-02
3.649871423840522766e-02
5.283320322632789612e-03
-1.736279763281345367e-02
-2.800077386200428009e-02
-3.663826966658234596e-03
-3.155116923153400421e-03
-1.452365238219499588e-02
-1.574891060590744019e-02
3.110460750758647919e-02
7.808009395375847816e-04
-1.887300517410039902e-03
-1.097513455897569656e-02
-2.046662010252475739e-02
3.129025548696517944e-02
3.500482812523841858e-02
-3.880851436406373978e-03
2.441699430346488953e-02
-2.601590380072593689e-02
-1.589732430875301361e-02
-6.363588385283946991e-03
1.297539938241243362e-02
2.409797161817550659e-02
1.861017942428588867e-02
1.173527166247367859e-02
2.646326273679733276e-02
-1.832252927124500275e-02
1.135426107794046402e-02
1.152751035988330841e-02
-3.171638026833534241e-02
-1.321983430534601212e-02
1.731487736105918884e-02
1.158217713236808777e-02
2.412457205355167389e-02
3.191873803734779358e-02
2.150850556790828705e-02
-2.465275116264820099e-02
-3.927132487297058105e-02
2.776937186717987061e-02
-5.172644555568695068e-02
-1.635051891207695007e-02
3.451193124055862427e-02
-2.458379603922367096e-02
-2.305078320205211639e-02
-6.538809393532574177e-04
-5.798670649528503418e-02
-3.140254318714141846e-02
4.406911507248878479e-02
-4.802063852548599243e-02
-3.185491636395454407e-02
-4.525294899940490723e-02
-4.886678420007228851e-03
-5.046902969479560852e-02
5.546363815665245056e-02
-1.093552168458700180e-02
3.102860040962696075e-02
-1.909286901354789734e-02
4.549148306250572205e-02
8.626339025795459747e-03
-3.012293577194213867e-02
4.756639711558818817e-03
-4.404918849468231201e-02
-3.671974642202258110e-03
2.841426990926265717e-02
-4.427041113376617432e-02
1.657235249876976013e-02
-2.447420172393321991e-02
-1.547527033835649490e-02
-1.077876519411802292e-02
-2.583277784287929535e-02
-6.336199492216110229e-02
-4.703943431377410889e-02
-2.333791181445121765e-02
-2.134665101766586304e-02
1.131534483283758163e-02
-4.543804004788398743e-02
2.365519292652606964e-02
-1.335214264690876007e-02
-3.687278926372528076e-02
-3.649438545107841492e-02
9.804802946746349335e-03
2.808409929275512695e-02
3.946832194924354553e-02
1.783944666385650635e-02
-2.123465063050389290e-03
-3.229779656976461411e-03
2.196702919900417328e-02
-1.653816923499107361e-02
3.170748800039291382e-02
-1.412722561508417130e-02
1.865941472351551056e-02
-8.807083591818809509e-03
-1.343611348420381546e-02
-2.927553094923496246e-02
5.185259133577346802e-02
1.762609113939106464e-03
-9.395590052008628845e-03
-2.623267285525798798e-02
-5.084593966603279114e-02
-2.197504788637161255e-02
-4.749227780848741531e-03
-5.038415081799030304e-03
-4.078317061066627502e-02
2.669466659426689148e-02
-1.361119095236063004e-02
2.096495777368545532e-02
-1.287753134965896606e-02
-2.671149186789989471e-02
-3.491118922829627991e-02
1.652184687554836273e-02
-4.825029149651527405e-02
-6.971652037464082241e-04
-2.693470939993858337e-02
1.028079073876142502e-02
2.788776159286499023e-02
5.515133962035179138e-03
-9.560818783938884735e-03
1.510421372950077057e-02
-3.982630372047424316e-02
2.868862822651863098e-02
4.256003722548484802e-02
1.687224954366683960e-02
-5.599807202816009521e-02
1.241321768611669540e-02
-4.413319006562232971e-02
3.427989548072218895e-03
-5.515664350241422653e-03
-1.351028867065906525e-02
-2.316527068614959717e-02
-3.399921208620071411e-02
3.856107592582702637e-02
-1.570069417357444763e-02
2.271051891148090363e-02
5.123764742165803909e-03
-2.487799618393182755e-03
-1.997734233736991882e-02
-3.996782749891281128e-02
-2.013821899890899658e-02
-1.859154552221298218e-02
-1.585625298321247101e-02
-7.412469130940735340e-04
-2.745654433965682983e-02
2.383310720324516296e-02
3.612237423658370972e-02
2.262686565518379211e-02
2.310101129114627838e-02
-5.429137870669364929e-02
-2.200964465737342834e-02
-8.192433975636959076e-03
-2.263541892170906067e-02
-1.853988505899906158e-02
-3.473809733986854553e-02
4.111931100487709045e-02
3.469378920271992683e-03
-5.053086206316947937e-02
1.265162043273448944e-02
-3.032169863581657410e-02
-1.979464665055274963e-03
1.974479667842388153e-02
3.080521710216999054e-02
-5.344505235552787781e-02
-5.447820574045181274e-02
1.628527604043483734e-02
-1.136861182749271393e-02
3.623350290581583977e-03
3.196307923644781113e-03
-1.297798007726669312e-02
-4.299513623118400574e-02
1.658522896468639374e-02
-1.853825896978378296e-02
2.232002094388008118e-02
2.401932328939437866e-02
-4.558005183935165405e-02
-3.192807361483573914e-02
-7.897585630416870117e-03
-2.245182543992996216e-02
-4.741504788398742676e-02
-5.897663533687591553e-03
-9.045974351465702057e-03
2.571850828826427460e-02
-1.294345129281282425e-02
8.029145188629627228e-03
-1.481234934180974960e-02
3.125078603625297546e-02
2.470888197422027588e-02
1.296303048729896545e-02
-1.671241043368354440e-04
1.610270328819751740e-02
-2.829555235803127289e-02
-3.776500001549720764e-02
-5.121619254350662231e-02
-2.487557195127010345e-02
-5.043728742748498917e-03
-2.217220142483711243e-02
1.305909268558025360e-02
1.432521175593137741e-02
-4.542687907814979553e-03
4.176095128059387207e-02
2.750685624778270721e-02
-2.610914781689643860e-02
3.279654681682586670e-02
4.531268030405044556e-02
-4.807014390826225281e-02
-1.099645812064409256e-02
1.004726532846689224e-02
3.226790344342589378e-03
-2.807296998798847198e-02
-1.548668276518583298e-02
-2.545449696481227875e-02
-3.587712720036506653e-02
-1.081229932606220245e-02
3.288827463984489441e-02
-2.318643964827060699e-02
1.308681257069110870e-02
-1.262827683240175247e-02
1.391275785863399506e-02
2.787145227193832397e-02
3.099374100565910339e-02
-1.776189915835857391e-02
-4.158291965723037720e-02
-1.496203523129224777e-02
-2.607428841292858124e-02
-4.401503130793571472e-02
2.243277244269847870e-02
5.266555771231651306e-02
2.512336708605289459e-02
4.222610965371131897e-03
7.394085638225078583e-03
1.579071208834648132e-02
-3.513403981924057007e-02
-1.793860923498868942e-03
-9.469676762819290161e-03
-3.905484918504953384e-03
-3.846708312630653381e-02
-8.943161927163600922e-03
-5.330737680196762085e-02
-3.459130227565765381e-02
1.337244454771280289e-02
-2.467937953770160675e-02
1.353726629167795181e-02
-1.430563442409038544e-02
5.785311572253704071e-03
4.922058433294296265e-03
6.391837447881698608e-02
2.327420189976692200e-02
1.199727598577737808e-02
3.746794303879141808e-03
-3.541681542992591858e-02
-7.096404209733009338e-03
-5.376563640311360359e-04
8.488718420267105103e-03
-2.597569115459918976e-02
2.479225769639015198e-02
5.471006780862808228e-02
3.166674822568893433e-02
6.103719118982553482e-03
-1.517905574291944504e-02
7.159133441746234894e-03
-1.214680727571249008e-02
8.225279860198497772e-03
2.963506616652011871e-02
1.757483743131160736e-02
1.754576573148369789e-03
3.402456268668174744e-02
2.741171047091484070e-02
2.729872986674308777e-02
-2.198387496173381805e-02
3.996473178267478943e-02
3.892984474077820778e-03
-4.074309766292572021e-02
6.288358126766979694e-04
1.859523542225360870e-02
2.086209133267402649e-02
-4.377918317914009094e-02
1.208616327494382858e-02
1.748994365334510803e-02
1.726769655942916870e-02
-5.260461196303367615e-02
2.452045306563377380e-02
-8.555673994123935699e-03
-4.478127881884574890e-02
-4.496495425701141357e-02
-1.968051679432392120e-02
-5.410338565707206726e-02
1.959225721657276154e-02
-5.012069828808307648e-03
2.328691771253943443e-04
2.618654398247599602e-03
1.460088510066270828e-02
-3.023508749902248383e-02
1.677035912871360779e-02
1.696236804127693176e-02
3.247647359967231750e-02
3.886031336151063442e-04
-9.681262075901031494e-03
-3.380973264575004578e-02
1.433503068983554840e-02
8.668143302202224731e-03
-3.959553688764572144e-02
-4.484227299690246582e-02
1.312549132853746414e-02
4.075985401868820190e-03
-1.022420171648263931e-02
1.129980664700269699e-02
2.406672015786170959e-02
3.157820552587509155e-02
-2.398259192705154419e-02
-1.347508048638701439e-03
2.073596231639385223e-02
-3.170474618673324585e-02
-1.250451989471912384e-02
-9.074971079826354980e-03
1.545561943203210831e-03
-4.253896884620189667e-03
-4.201366379857063293e-02
-1.586037315428256989e-02
-3.703884780406951904e-02
-4.639966879040002823e-03
6.807410158216953278e-03
2.450197935104370117e-02
-5.804780870676040649e-02
-1.694747619330883026e-02
-3.740466758608818054e-02
-3.000556898768991232e-04
4.380543902516365051e-02
-4.309113696217536926e-02
-3.053042292594909668e-02
-5.158022046089172363e-02
-2.147501148283481598e-02
2.079216390848159790e-02
1.857109181582927704e-02
1.116648782044649124e-02
-4.727713763713836670e-03
1.590579003095626831e-02
-5.139334127306938171e-02
-5.258421599864959717e-02
6.257342174649238586e-03
1.735151745378971100e-03
-1.744673354551196098e-03
-1.212962996214628220e-02
1.059795077890157700e-02
2.275895327329635620e-02
-1.993962563574314117e-02
9.951731190085411072e-03
-3.862178325653076172e-02
-3.913715481758117676e-03
-2.346491999924182892e-02
-3.036812506616115570e-02
3.973603993654251099e-02
-6.104541942477226257e-03
-4.316621646285057068e-02
4.000157490372657776e-02
-1.252636872231960297e-02
-2.652069553732872009e-02
-8.210999518632888794e-02
-9.284314583055675030e-04
2.592006139457225800e-02
-2.443317323923110962e-02
2.390530519187450409e-02
1.011444814503192902e-02
-2.164905890822410583e-03
5.438379198312759399e-02
-3.630413487553596497e-02
2.891162782907485962e-02
-7.518194150179624557e-03
-3.950990736484527588e-02
2.611299790441989899e-02
-8.048762567341327667e-03
2.469937317073345184e-03
-2.565258927643299103e-02
-1.526543684303760529e-02
2.244414575397968292e-02
-4.696917533874511719e-02
-4.730108380317687988e-02
-2.201186306774616241e-02
-5.234756320714950562e-02
-3.187339752912521362e-02
2.101902384310960770e-03
-2.222666051238775253e-03
7.462581153959035873e-03
-3.494618460536003113e-02
-3.719263151288032532e-02
-5.074566230177879333e-02
3.527681156992912292e-02
-5.298096686601638794e-02
-4.687789361923933029e-03
2.087902650237083435e-02
-9.673597291111946106e-03
2.980133332312107086e-02
2.570626698434352875e-02
-4.476635903120040894e-02
-3.366459533572196960e-02
3.908647969365119934e-02
1.077576912939548492e-02
2.566280215978622437e-02
-2.668846957385540009e-02
-5.827840417623519897e-03
3.959869965910911560e-02
-4.136617481708526611e-02
-3.885176777839660645e-02
-1.525050145573914051e-03
7.321836426854133606e-03
5.356074543669819832e-04
4.555574560072273016e-04
2.516137063503265381e-02
-2.936599589884281158e-02
-3.014636225998401642e-02
-1.175828650593757629e-02
-1.531282532960176468e-02
-2.920572645962238312e-02
-4.787151888012886047e-02
-2.067541703581809998e-02
2.075779810547828674e-02
-5.665481090545654297e-02
-3.401486575603485107e-02
-1.697832345962524414e-02
-4.534994438290596008e-02
-2.573333121836185455e-02
2.221613377332687378e-02
7.502459455281496048e-03
2.307304181158542633e-03
3.105334751307964325e-02
-2.836214192211627960e-02
-4.042899981141090393e-02
-2.617658115923404694e-02
1.366331591270864010e-03
-1.527495309710502625e-02
-1.501274015754461288e-02
9.019276127219200134e-03
-3.952674567699432373e-02
-2.756972424685955048e-02
-1.421359553933143616e-02
5.173345655202865601e-02
2.966000139713287354e-02
1.941320858895778656e-02
1.327980402857065201e-02
-4.205794259905815125e-02
-1.717822626233100891e-02
-5.216523632407188416e-02
-3.368710726499557495e-02
-3.937638550996780396e-02
-4.360654950141906738e-02
-7.135315984487533569e-02
3.291679313406348228e-03
2.094970643520355225e-02
-1.008136849850416183e-02
-6.806453457102179527e-04
-3.730709478259086609e-02
1.144255138933658600e-02
-5.824913387186825275e-04
2.274534851312637329e-02
-5.360113084316253662e-02
4.899282008409500122e-02
-2.333326637744903564e-02
-3.678145259618759155e-02
2.905475720763206482e-02
-2.773958817124366760e-02
-3.212638571858406067e-02
-5.341581255197525024e-02
2.374932356178760529e-02
-5.254883319139480591e-02
-1.159306988120079041e-02
-7.979414076544344425e-04
4.080080892890691757e-03
-3.519178554415702820e-02
2.660424076020717621e-02
-6.491597159765660763e-04
-6.305608898401260376e-02
-2.950178645551204681e-02
-3.900735825300216675e-02
-1.137374993413686752e-02
-4.015162214636802673e-02
-3.123422153294086456e-02
-3.567802906036376953e-02
1.260322704911231995e-02
5.603140220046043396e-02
-3.150507435202598572e-02
3.174639865756034851e-02
-3.576651588082313538e-02
4.055134207010269165e-02
-4.863326624035835266e-02
-3.819809108972549438e-02
-1.275296043604612350e-02
-6.795313674956560135e-03
2.915702201426029205e-02
-7.058970164507627487e-03
2.145171537995338440e-02
1.900581456720829010e-02
5.134412087500095367e-03
-4.520364850759506226e-02
2.811952494084835052e-02
2.564680948853492737e-02
-2.674649283289909363e-02
2.926916442811489105e-02
3.424024954438209534e-02
-4.750916734337806702e-02
-3.864783421158790588e-02
1.951782032847404480e-02
-1.946465484797954559e-02
1.415136922150850296e-02
-2.591783925890922546e-02
-3.590659424662590027e-02
-4.991450533270835876e-02
1.462564337998628616e-03
5.005599814467132092e-04
-1.758863031864166260e-02
1.627090270631015301e-03
-5.242240801453590393e-02
2.185182645916938782e-02
2.563970722258090973e-02
-6.985955871641635895e-03
2.995491959154605865e-02
3.841667994856834412e-02
2.570758201181888580e-02
-5.399152170866727829e-03
2.505836077034473419e-02
-1.767908409237861633e-02
3.900419920682907104e-02
-2.746347337961196899e-03
-5.489410459995269775e-02
3.381212055683135986e-02
-2.366084419190883636e-02
-2.858119644224643707e-02
-3.451777994632720947e-02
2.742652222514152527e-02
5.617392435669898987e-02
-3.228034079074859619e-02
3.390465676784515381e-02
-1.392513327300548553e-02
2.401567064225673676e-02
-3.459900245070457458e-02
1.534125581383705139e-02
-3.214863687753677368e-02
-4.467407613992691040e-02
-5.331384018063545227e-02
-5.042766034603118896e-02
3.659430891275405884e-02
4.526912048459053040e-02
1.211495976895093918e-02
2.934215124696493149e-03
-5.349650606513023376e-02
-3.972807526588439941e-02
3.741637244820594788e-02
3.614732995629310608e-02
7.985255680978298187e-03
-2.549055404961109161e-02
-1.001014879875583574e-05
-1.161129474639892578e-01
-3.344374150037765503e-02
-3.421580418944358826e-02
2.617445541545748711e-03
1.571120135486125946e-02
1.128138694912195206e-02
-4.192998260259628296e-02
-4.087057337164878845e-02
-4.773585125803947449e-02
-1.790149137377738953e-02
-2.933835610747337341e-02
4.450003689271397889e-05
6.053700577467679977e-03
3.077183663845062256e-02
-2.404823340475559235e-02
-4.785417392849922180e-02
-5.299091711640357971e-02
-4.097767174243927002e-02
1.478705648332834244e-02
1.458442118018865585e-02
-9.572951123118400574e-03
2.542296797037124634e-02
7.337820250540971756e-03
3.471804782748222351e-02
-3.969275392591953278e-03
2.382575906813144684e-02
-3.461967781186103821e-02
2.145496942102909088e-02
-4.978604242205619812e-02
2.715626731514930725e-02
-1.997089758515357971e-02
-1.689362339675426483e-02
-3.011219948530197144e-02
-4.025844857096672058e-02
1.517571508884429932e-02
-5.080691352486610413e-02
2.225530892610549927e-02
-4.803379997611045837e-02
2.132154069840908051e-02
-2.655686996877193451e-02
-2.002657158300280571e-03
-4.991085827350616455e-02
-6.890438031405210495e-03
-1.327764475718140602e-03
-4.200851544737815857e-02
-1.799738965928554535e-03
-3.062091954052448273e-02
2.981757931411266327e-02
-1.507603097707033157e-02
-6.389942485839128494e-03
1.653183251619338989e-02
-2.006449364125728607e-02
1.217456534504890442e-02
9.016063995659351349e-04
-1.607996411621570587e-02
3.052248992025852203e-02
2.407046034932136536e-02
-2.555040083825588226e-02
7.120014168322086334e-03
-3.053780179470777512e-03
-2.552601508796215057e-02
-2.153748646378517151e-02
-2.905384078621864319e-02
6.538260262459516525e-03
8.149744011461734772e-03
-4.568933323025703430e-02
5.730186589062213898e-03
-1.548209693282842636e-02
-3.669686987996101379e-02
-3.902186453342437744e-02
-1.143225235864520073e-03
-1.370327174663543701e-02
-1.348871644586324692e-02
3.158206352964043617e-03
4.651305731385946274e-03
-5.181393586099147797e-03
-8.441965095698833466e-03
-8.922049775719642639e-03
-4.131700098514556885e-02
-5.012938752770423889e-02
1.415205374360084534e-02
1.559450663626194000e-02
-2.870835550129413605e-02
-2.323783002793788910e-02
2.192695625126361847e-02
-2.926058135926723480e-02
2.447289228439331055e-02
-2.135978452861309052e-02
-2.230148389935493469e-02
-5.174750462174415588e-02
-2.174466848373413086e-02
-3.910781815648078918e-02
8.854063227772712708e-03
5.496412515640258789e-03
3.116428852081298828e-02
-8.757217787206172943e-03
2.407451160252094269e-03
-3.527575731277465820e-02
-1.431915909051895142e-02
-2.945258514955639839e-03
-4.561371169984340668e-03
-5.895358696579933167e-02
-1.686415076255798340e-02
1.762098446488380432e-02
1.051501370966434479e-02
-1.106785796582698822e-02
-1.020967401564121246e-02
-2.828609012067317963e-02
4.608229175209999084e-02
-7.270663976669311523e-03
-5.240470170974731445e-02
1.761143468320369720e-02
-2.770126797258853912e-02
-5.168223381042480469e-02
1.282622013241052628e-02
5.397090688347816467e-03
2.741421945393085480e-02
2.283847145736217499e-02
-1.718110777437686920e-02
-2.166745997965335846e-02
6.057137623429298401e-03
1.131401211023330688e-02
1.451734360307455063e-02
-1.360291498713195324e-03
2.581178396940231323e-02
2.348386310040950775e-02
3.391774743795394897e-02
-5.935780704021453857e-02
-3.107651323080062866e-02
-3.283390030264854431e-02
-8.415212505497038364e-05
-3.137420117855072021e-02
-4.563349112868309021e-02
-4.210210591554641724e-02
