-4.546396434307098389e-02
-6.148466840386390686e-02
8.116586506366729736e-02
-1.101534906774759293e-02
8.761426061391830444e-02
8.006484806537628174e-02
8.612310141324996948e-02
1.551710255444049835e-02
-2.732235379517078400e-02
1.234550680965185165e-02
-4.344696924090385437e-02
-2.467796765267848969e-02
3.992854058742523193e-02
3.797342255711555481e-02
3.350578015670180321e-03
-7.099270820617675781e-02
-2.525989897549152374e-02
-5.596194043755531311e-02
-9.360548108816146851e-02
-5.082349851727485657e-02
-5.625042691826820374e-02
8.936449885368347168e-03
-3.461836278438568115e-02
5.001701787114143372e-02
5.744188278913497925e-02
6.636648625135421753e-02
-3.304948657751083374e-02
5.985155701637268066e-02
3.372270986437797546e-02
6.094826757907867432e-02
1.499843038618564606e-02
9.579964913427829742e-03
4.501395672559738159e-02
4.283079877495765686e-02
1.001461371779441833e-01
4.634678363800048828e-02
-1.295061968266963959e-02
-1.294935867190361023e-02
6.605536490678787231e-02
-4.406675696372985840e-02
-2.086317632347345352e-03
2.686847187578678131e-02
6.864958256483078003e-02
9.275089204311370850e-02
-5.497986823320388794e-02
5.252561718225479126e-02
6.131525617092847824e-03
1.944112777709960938e-02
3.782267495989799500e-02
3.777004778385162354e-02
-6.390450894832611084e-02
3.924031276255846024e-03
-7.910105586051940918e-02
2.953407168388366699e-02
8.057823777198791504e-02
-4.704527556896209717e-02
-1.007753610610961914e-01
-7.017363607883453369e-02
8.232951909303665161e-02
-3.421897441148757935e-02
5.251562967896461487e-02
5.524972453713417053e-03
1.090810354799032211e-02
-2.854786254465579987e-02
-7.282672822475433350e-02
1.305626705288887024e-02
-4.152382723987102509e-03
-3.607595711946487427e-02
2.332394476979970932e-03
1.413408550433814526e-03
-2.246617525815963745e-02
-2.878142520785331726e-03
2.667445689439773560e-02
7.940533570945262909e-03
-9.326583892107009888e-02
-3.683871775865554810e-02
-2.169916778802871704e-02
6.543367356061935425e-02
6.634433567523956299e-02
1.380359008908271790e-02
-1.181755773723125458e-02
3.826113790273666382e-02
-9.340054355561733246e-03
7.660723477602005005e-02
1.714869588613510132e-02
3.173124417662620544e-02
4.619016125798225403e-02
1.924747042357921600e-02
-1.005362197756767273e-01
4.560976848006248474e-02
-5.265138670802116394e-02
3.918068483471870422e-02
-6.419397145509719849e-02
6.198723241686820984e-02
-8.366117626428604126e-02
3.057616204023361206e-02
-7.690712809562683105e-02
3.605869784951210022e-02
4.976717010140419006e-02
-8.288077078759670258e-03
-3.065375983715057373e-02
-7.020308822393417358e-02
8.763650059700012207e-02
8.420649915933609009e-02
4.132626205682754517e-02
7.051252573728561401e-02
-2.674775756895542145e-02
-5.218029022216796875e-02
-4.406348243355751038e-02
9.756356477737426758e-02
1.181759610772132874e-01
8.950801938772201538e-02
-3.308373317122459412e-02
1.763059175573289394e-03
-9.264015406370162964e-02
9.353520721197128296e-02
8.623664081096649170e-02
7.565313577651977539e-02
-1.263089291751384735e-02
-4.525996744632720947e-02
3.833304345607757568e-02
4.451974108815193176e-02
4.253714904189109802e-02
1.770578790456056595e-03
1.775921508669853210e-02
5.595929920673370361e-02
-5.342250317335128784e-02
-4.934319481253623962e-02
2.686144784092903137e-02
-5.308069288730621338e-02
-9.663963317871093750e-02
-6.740733236074447632e-02
3.632319346070289612e-02
-4.926834255456924438e-02
-2.661805972456932068e-02
1.754153892397880554e-02
4.970411211252212524e-02
-4.526581615209579468e-02
-7.646805793046951294e-02
6.092122942209243774e-02
-5.356588959693908691e-02
-5.743436887860298157e-02
-1.224131137132644653e-01
5.479313060641288757e-02
-5.775158852338790894e-02
3.331302898004651070e-03
5.589556321501731873e-02
-4.609755426645278931e-02
6.193936988711357117e-02
8.854038605932146311e-05
5.086953938007354736e-02
-8.694101870059967041e-02
6.869786232709884644e-02
5.225735250860452652e-03
-1.021413481794297695e-03
-7.687898725271224976e-02
-5.164664983749389648e-02
-4.942887648940086365e-02
-6.150430068373680115e-03
1.900874078273773193e-02
-2.574474923312664032e-02
-5.242223385721445084e-03
-9.540475159883499146e-02
6.809061020612716675e-02
4.905570670962333679e-02
1.923114247620105743e-02
3.400024957954883575e-03
-4.684691131114959717e-02
2.250757627189159393e-02
7.834608107805252075e-02
-8.123363554477691650e-02
5.388028803281486034e-04
-6.360535509884357452e-03
3.613819181919097900e-02
8.126476407051086426e-02
-1.460104342550039291e-02
-1.251819916069507599e-02
-3.980530798435211182e-02
7.764510810375213623e-02
-2.298917807638645172e-02
-3.133823350071907043e-02
4.291391000151634216e-02
-7.767915725708007812e-02
6.342762708663940430e-02
2.586894668638706207e-02
5.893580615520477295e-02
-1.801643148064613342e-02
2.829214558005332947e-02
8.016615174710750580e-03
5.095883458852767944e-02
-8.232240378856658936e-02
-4.172108322381973267e-02
6.325124949216842651e-02
-4.930205270648002625e-02
-3.703283518552780151e-02
1.914036832749843597e-02
1.593618467450141907e-02
6.840527802705764771e-02
-1.040629744529724121e-01
8.669827878475189209e-02
3.426474332809448242e-02
-8.129527419805526733e-02
1.874447241425514221e-02
-5.515643954277038574e-02
-4.713504761457443237e-02
-8.269909769296646118e-02
4.157172515988349915e-03
4.611756280064582825e-02
-1.883297041058540344e-02
4.757121950387954712e-02
-4.795867204666137695e-02
-8.030685037374496460e-02
5.234158039093017578e-02
3.877578675746917725e-02
6.828185170888900757e-02
5.311792343854904175e-02
3.860666230320930481e-02
-8.106777444481849670e-03
-1.593593694269657135e-02
-2.869889140129089355e-02
-8.364980667829513550e-02
-2.124934270977973938e-02
3.217864781618118286e-03
7.173022627830505371e-02
-5.349972099065780640e-02
-6.454349309206008911e-02
-2.024561725556850433e-02
-7.180492579936981201e-02
-4.217220470309257507e-02
-7.252468168735504150e-02
5.169266089797019958e-02
-1.419445872306823730e-02
-4.952679853886365891e-03
-6.144904717803001404e-02
-1.534662209451198578e-02
-2.989580109715461731e-02
-4.010306298732757568e-02
-3.284983709454536438e-02
-5.628952011466026306e-02
-8.717740327119827271e-02
7.303917664103209972e-04
-8.293101191520690918e-02
-4.631035495549440384e-03
4.045295715332031250e-02
1.739547774195671082e-02
-4.904061555862426758e-02
-2.976223453879356384e-02
4.365935176610946655e-02
5.459992680698633194e-03
7.787285000085830688e-02
-4.386347532272338867e-02
-4.304008185863494873e-02
-2.526091039180755615e-02
-3.291087225079536438e-02
-9.137929230928421021e-02
6.221852451562881470e-02
-8.675131946802139282e-02
5.440287292003631592e-02
5.381396412849426270e-02
-8.333029225468635559e-03
-2.912134304642677307e-02
5.021302774548530579e-02
8.740870654582977295e-02
-2.107464894652366638e-02
6.466892361640930176e-02
-7.234956137835979462e-03
3.227889537811279297e-02
5.599250644445419312e-02
-4.378456249833106995e-02
-1.978425867855548859e-02
-1.524849422276020050e-02
-3.479591012001037598e-02
-5.533079802989959717e-02
-3.538232669234275818e-02
-9.859450906515121460e-02
5.133743211627006531e-02
-5.508566275238990784e-02
-8.807757496833801270e-02
-6.300782412290573120e-02
6.168558076024055481e-02
3.649534657597541809e-02
8.861542493104934692e-02
4.141834005713462830e-02
4.515361040830612183e-02
-5.279559642076492310e-02
1.153616234660148621e-02
-2.281260304152965546e-02
-4.969840124249458313e-02
3.951878100633621216e-02
1.763381063938140869e-02
-1.203700318001210690e-03
-5.804326012730598450e-02
-5.379753187298774719e-02
-6.576079130172729492e-02
1.904393732547760010e-02
4.770306870341300964e-03
1.383951120078563690e-02
1.212517265230417252e-02
8.088860660791397095e-02
7.809383422136306763e-02
-3.589788451790809631e-02
-4.073744639754295349e-02
6.793057173490524292e-02
-3.162057325243949890e-02
1.101380810141563416e-01
5.516832321882247925e-02
-1.558748818933963776e-02
-1.165930554270744324e-02
2.378758229315280914e-02
7.708644121885299683e-02
-1.794472709298133850e-02
-7.887876778841018677e-02
-7.468584924936294556e-02
1.807593181729316711e-02
5.940863490104675293e-02
-3.877118229866027832e-02
3.744262456893920898e-02
-7.662745565176010132e-02
-8.253750950098037720e-02
6.018469855189323425e-02
-7.083529978990554810e-02
-1.973169296979904175e-02
2.286355569958686829e-02
-1.575455185957252979e-03
-4.971120506525039673e-02
-8.097574859857559204e-02
-8.131063729524612427e-02
3.115683980286121368e-02
-4.690353199839591980e-02
-6.829926371574401855e-02
4.819487221539020538e-03
4.397521913051605225e-02
5.771786347031593323e-02
1.688162051141262054e-02
-7.471302151679992676e-02
1.147999521344900131e-02
9.079549461603164673e-02
3.012637048959732056e-02
5.691400170326232910e-02
4.224527254700660706e-02
2.076289057731628418e-02
7.130444049835205078e-02
-9.591745585203170776e-02
-6.982745230197906494e-02
-6.724837422370910645e-02
-3.246274963021278381e-02
9.212666749954223633e-02
8.950060606002807617e-02
-6.604606658220291138e-02
5.832657217979431152e-02
-8.004549145698547363e-02
3.396712243556976318e-02
-3.983103111386299133e-02
8.168198913335800171e-02
3.163722530007362366e-02
-2.800051122903823853e-02
-5.864920839667320251e-02
-6.591401249170303345e-02
4.685726389288902283e-02
5.007098615169525146e-02
5.099586397409439087e-02
-9.684000164270401001e-02
6.934467703104019165e-02
3.138782083988189697e-02
-2.691052295267581940e-02
1.514994818717241287e-02
8.155060559511184692e-02
4.340826347470283508e-02
-7.652418315410614014e-02
3.419021144509315491e-03
-5.329268518835306168e-03
3.146152244880795479e-03
-2.483301796019077301e-02
-2.089537447318434715e-03
1.184308063238859177e-02
1.057177223265171051e-02
-3.857877105474472046e-02
-7.977781444787979126e-02
-7.531522214412689209e-02
8.308053016662597656e-02
-8.615845441818237305e-02
-5.048123653978109360e-03
-6.784417480230331421e-02
7.265904545783996582e-02
4.718851298093795776e-02
-2.194488793611526489e-02
-2.893945761024951935e-02
5.116023123264312744e-02
3.481112420558929443e-02
-5.406759213656187057e-03
-5.952845141291618347e-02
9.128920733928680420e-02
6.013479456305503845e-02
-3.584149992093443871e-03
-5.564592313021421432e-03
-6.246542558073997498e-02
3.990858793258666992e-02
-7.773038744926452637e-02
3.946752287447452545e-03
1.812728680670261383e-02
3.433556854724884033e-02
8.330471068620681763e-02
3.460089862346649170e-02
8.438283577561378479e-03
5.931546911597251892e-02
-7.717994600534439087e-02
7.259138673543930054e-02
-6.774014234542846680e-02
3.326191753149032593e-02
-2.921532094478607178e-02
5.625978112220764160e-02
-9.185705333948135376e-03
3.920774906873703003e-03
1.077546738088130951e-02
-8.325520902872085571e-02
-5.312935635447502136e-02
-1.131447777152061462e-02
4.518365114927291870e-02
-4.554349184036254883e-02
-4.843330383300781250e-02
1.301588024944067001e-02
8.201521635055541992e-02
-8.886945992708206177e-02
-9.457656741142272949e-02
-5.638333410024642944e-02
5.180069431662559509e-02
-7.828318327665328979e-02
7.387779653072357178e-02
-1.303919008933007717e-03
2.856708690524101257e-02
2.108746021986007690e-02
7.521542906761169434e-02
-8.959650993347167969e-02
-1.108146086335182190e-02
-4.918835684657096863e-02
-3.466610237956047058e-02
1.347197964787483215e-02
-1.362534798681735992e-02
-7.680420577526092529e-02
-2.585069462656974792e-02
7.188508659601211548e-02
-4.506349936127662659e-02
-3.258090093731880188e-02
9.027927368879318237e-02
6.193062290549278259e-02
4.477129504084587097e-02
-5.988503992557525635e-02
-3.947778418660163879e-02
2.393224090337753296e-02
6.890720129013061523e-02
-7.352559268474578857e-02
-8.936703205108642578e-02
-4.640252515673637390e-02
6.380704790353775024e-02
-2.654045075178146362e-02
-2.104592137038707733e-02
2.584572881460189819e-02
4.133756458759307861e-02
-8.744781464338302612e-02
8.842790871858596802e-02
-5.144906416535377502e-02
2.781945094466209412e-02
-2.147258445620536804e-02
3.645911812782287598e-02
2.796659059822559357e-02
1.634752005338668823e-02
3.909389302134513855e-02
-1.937371911481022835e-03
7.976617664098739624e-03
-7.659341394901275635e-02
6.988736987113952637e-02
4.110515117645263672e-02
-9.285320341587066650e-02
-1.127910520881414413e-02
2.850578539073467255e-02
3.633372858166694641e-02
-6.338960677385330200e-02
4.348227754235267639e-02
8.968885987997055054e-02
-2.247946523129940033e-02
2.777370810508728027e-02
6.223090365529060364e-02
-1.065232791006565094e-02
-7.948417216539382935e-02
8.239243179559707642e-02
-2.742084302008152008e-02
-4.211233556270599365e-02
3.824163228273391724e-02
-6.002529338002204895e-02
3.306441754102706909e-02
-2.931085787713527679e-02
-7.347556203603744507e-02
5.798858776688575745e-02
9.962745942175388336e-03
5.225418508052825928e-02
1.395913120359182358e-02
6.368391215801239014e-02
-2.637556754052639008e-02
6.274192035198211670e-02
-7.242080569267272949e-02
-4.630874376744031906e-03
3.964333608746528625e-02
-3.411069884896278381e-02
-1.144083589315414429e-02
4.241456836462020874e-02
-9.012152999639511108e-02
5.944058671593666077e-02
2.082444541156291962e-02
-8.645769953727722168e-02
9.952742606401443481e-03
7.080201059579849243e-02
-4.384303838014602661e-02
-4.858269542455673218e-02
5.034658312797546387e-02
2.801569737493991852e-02
-8.081096410751342773e-02
-1.083255931735038757e-02
-2.469743601977825165e-03
1.208974793553352356e-02
-4.295550659298896790e-02
-5.052100401371717453e-03
-3.885923698544502258e-02
1.175613794475793839e-02
5.298331379890441895e-02
-1.125966850668191910e-02
-4.929317161440849304e-02
2.824848634190857410e-04
-7.211827486753463745e-02
-9.618962556123733521e-02
5.274190381169319153e-02
-7.197033613920211792e-02
-7.102289795875549316e-02
-8.052089065313339233e-02
7.867211848497390747e-02
-5.462285131216049194e-02
6.922578066587448120e-02
-7.639831304550170898e-02
1.209936453960835934e-03
2.226539514958858490e-02
-7.882902026176452637e-02
2.279907651245594025e-02
-6.895377766340970993e-03
4.151213914155960083e-02
-8.744650334119796753e-02
-4.664006829261779785e-02
3.487171232700347900e-02
-5.076690018177032471e-02
-7.354519516229629517e-02
4.695984721183776855e-02
-6.862080842256546021e-02
5.427461862564086914e-02
6.143267266452312469e-03
-5.067796260118484497e-02
-1.015910208225250244e-01
-8.559021353721618652e-02
4.331151768565177917e-02
-7.715652137994766235e-02
-6.482144445180892944e-02
3.780810395255684853e-03
-1.968733035027980804e-02
-9.028162062168121338e-02
-3.281705453991889954e-02
-6.086409837007522583e-02
-1.004083529114723206e-01
1.836000010371208191e-02
-1.237378362566232681e-02
-6.280373781919479370e-02
-3.012436442077159882e-02
1.962565444409847260e-02
-6.619926542043685913e-02
-9.547999128699302673e-03
-3.433003649115562439e-02
4.948952794075012207e-02
-9.205562621355056763e-02
-2.637259848415851593e-02
1.094420813024044037e-02
-1.094553694128990173e-01
1.416637282818555832e-02
-7.660727202892303467e-02
-4.575249552726745605e-02
1.229272410273551941e-02
8.309813588857650757e-02
3.547324333339929581e-03
6.933086365461349487e-02
6.515022832900285721e-03
3.558011725544929504e-02
5.580770969390869141e-02
5.703440867364406586e-03
6.464122235774993896e-02
7.609333842992782593e-02
7.137196511030197144e-02
-8.481264114379882812e-02
-8.116337656974792480e-02
-2.509511448442935944e-02
1.234516128897666931e-02
6.109628826379776001e-02
4.427458345890045166e-02
-3.455805405974388123e-02
7.177584618330001831e-02
7.182110846042633057e-02
4.839431867003440857e-02
3.959296643733978271e-02
-9.898240864276885986e-02
5.661881715059280396e-02
2.847703918814659119e-02
-7.964263856410980225e-02
-2.382807433605194092e-02
-2.995379827916622162e-02
2.909374982118606567e-02
-7.072400301694869995e-02
-7.326398789882659912e-02
-1.497701741755008698e-02
6.480111181735992432e-02
-4.708752036094665527e-02
-5.499417334794998169e-02
2.170183230191469193e-03
-3.467022208496928215e-03
5.830726400017738342e-02
4.042919352650642395e-02
-3.123127669095993042e-02
-3.181011602282524109e-02
1.095985528081655502e-02
-5.091594066470861435e-03
-3.910493850708007812e-02
2.717692218720912933e-02
-2.511466480791568756e-02
-5.548810213804244995e-02
3.792666271328926086e-02
-7.974426448345184326e-02
2.637431025505065918e-04
4.110616818070411682e-02
5.574223026633262634e-02
-1.586988382041454315e-02
7.093451917171478271e-02
-6.824346631765365601e-02
-4.741335660219192505e-02
-6.720785051584243774e-02
-4.877384006977081299e-02
-7.610362768173217773e-02
-7.007162086665630341e-03
-7.012540102005004883e-02
-8.704797178506851196e-02
-3.563708439469337463e-02
5.662019178271293640e-02
-4.499185457825660706e-02
-7.950893789529800415e-02
-4.265600070357322693e-02
6.187153607606887817e-02
9.536591917276382446e-02
8.666111528873443604e-02
1.253525633364915848e-02
-3.591551212593913078e-03
-5.479569733142852783e-02
1.990452595055103302e-02
6.531605031341314316e-03
-6.678653508424758911e-02
-9.809187613427639008e-03
8.838282525539398193e-02
1.061738133430480957e-01
4.836701974272727966e-02
1.563998125493526459e-02
2.731629088521003723e-02
4.702540487051010132e-02
-6.505323201417922974e-02
2.155368961393833160e-02
-6.045484915375709534e-03
2.123412923538126051e-05
5.711814388632774353e-02
2.752972021698951721e-02
-1.215167809277772903e-03
1.667371718212962151e-03
-7.131180725991725922e-03
1.433972418308258057e-01
-7.510644942522048950e-02
7.698796689510345459e-02
-6.630370765924453735e-02
9.602677822113037109e-02
-3.868990391492843628e-02
-5.204524472355842590e-02
1.885870471596717834e-02
4.574660211801528931e-02
-2.858565934002399445e-02
3.242595121264457703e-02
3.986143693327903748e-02
5.578453466296195984e-02
5.296172946691513062e-02
3.059596568346023560e-02
1.761900447309017181e-02
-1.639806851744651794e-02
-5.591676384210586548e-02
-1.224526241421699524e-01
-4.156224057078361511e-02
-5.410607531666755676e-02
5.075240135192871094e-02
5.165492743253707886e-02
8.935033343732357025e-03
-1.288663130253553391e-02
6.793463230133056641e-02
6.970096379518508911e-03
6.295648217201232910e-02
-2.269796654582023621e-02
-2.731458842754364014e-02
8.107792586088180542e-03
2.147620543837547302e-02
7.581169903278350830e-02
2.948545664548873901e-02
-8.997026085853576660e-02
-9.901890903711318970e-02
7.372124493122100830e-02
-5.132638663053512573e-02
-7.942344248294830322e-02
-3.692562924697995186e-03
4.967536777257919312e-02
-4.617075994610786438e-02
-9.619931876659393311e-02
3.532464429736137390e-02
-4.340637475252151489e-02
5.937218666076660156e-02
2.669224143028259277e-02
4.303276166319847107e-02
-1.885155588388442993e-02
-1.059936210513114929e-01
-9.223046153783798218e-02
-3.278426453471183777e-02
-7.988851517438888550e-02
-5.472729727625846863e-02
-1.226825919002294540e-02
-8.139061182737350464e-02
-6.134615465998649597e-02
8.680591359734535217e-03
-5.779214203357696533e-02
2.041788026690483093e-02
7.616128027439117432e-02
8.460463583469390869e-02
-1.290272176265716553e-02
-3.368118032813072205e-02
-6.302816420793533325e-02
-8.801249787211418152e-03
2.646049484610557556e-02
-4.112504050135612488e-02
-3.133993223309516907e-02
8.752536028623580933e-02
1.538931671530008316e-02
6.404437124729156494e-02
-5.499065294861793518e-02
-6.493366509675979614e-02
2.646652981638908386e-02
-1.015335507690906525e-02
-1.164260040968656540e-02
-4.011588171124458313e-02
7.106545381247997284e-03
-3.722260519862174988e-02
-1.747452095150947571e-02
2.518158219754695892e-02
3.757021203637123108e-02
-5.851998925209045410e-03
-6.305826245807111263e-04
-3.002350591123104095e-02
-5.943771824240684509e-02
5.060078203678131104e-02
7.646322250366210938e-02
-9.808170795440673828e-02
-6.738203112035989761e-03
3.908955678343772888e-02
2.486493811011314392e-02
-7.265998516231775284e-03
-8.620061911642551422e-03
7.809440139681100845e-03
-8.390975743532180786e-02
7.632460445165634155e-02
-8.299084752798080444e-02
-4.970632959157228470e-03
-1.243712007999420166e-02
-1.487622852437198162e-03
-2.942180633544921875e-02
5.794402956962585449e-02
1.211861800402402878e-02
-6.031696498394012451e-02
5.240110680460929871e-02
-1.245303079485893250e-01
-4.588398709893226624e-02
-1.844401098787784576e-02
3.760074451565742493e-02
-5.514834448695182800e-02
-5.168816447257995605e-02
-3.569967299699783325e-02
-9.830130264163017273e-03
3.807336091995239258e-02
6.174759194254875183e-02
-4.338089376688003540e-02
3.135969117283821106e-02
-9.634739905595779419e-02
-2.470930479466915131e-02
3.989244624972343445e-02
-6.045852601528167725e-02
-2.094605751335620880e-02
2.394708245992660522e-02
-3.531958907842636108e-03
-3.796811774373054504e-02
5.294970795512199402e-02
-4.078606143593788147e-02
5.093904584646224976e-02
4.785014688968658447e-02
-8.454493433237075806e-02
-6.306679919362068176e-03
7.709981501102447510e-02
-8.823423832654953003e-02
4.908419400453567505e-02
-8.657519519329071045e-02
2.066467888653278351e-02
3.252096846699714661e-02
5.591232329607009888e-02
2.260695956647396088e-02
1.596742868423461914e-02
-1.500334823504090309e-03
-5.287336534820497036e-04
-7.031008601188659668e-02
2.795344963669776917e-02
1.423746813088655472e-02
-3.723629564046859741e-02
-7.186616212129592896e-02
-1.245028525590896606e-01
-1.584603637456893921e-01
-3.954521194100379944e-02
7.437702268362045288e-02
-4.198836535215377808e-02
-6.692375242710113525e-02
6.929875910282135010e-02
-2.928079478442668915e-02
-2.945855725556612015e-03
6.533157825469970703e-02
6.567516177892684937e-02
7.237128168344497681e-02
-4.666419327259063721e-02
-1.598222367465496063e-02
-1.100400537252426147e-01
3.462165594100952148e-02
-8.310826122760772705e-02
-4.046084359288215637e-02
2.267401851713657379e-02
-4.913277924060821533e-02
5.476996302604675293e-02
2.587690390646457672e-02
6.469089537858963013e-02
-3.950403258204460144e-02
8.574986457824707031e-02
-2.711207978427410126e-02
-3.773188591003417969e-02
-2.759603224694728851e-02
5.446544289588928223e-02
-4.527838900685310364e-02
-1.119037270545959473e-01
-5.976442620158195496e-02
-7.618001848459243774e-02
-5.169567465782165527e-02
-7.016239315271377563e-02
-6.919430196285247803e-02
-8.802814781665802002e-02
-4.806205630302429199e-02
-6.481014937162399292e-02
-2.683248929679393768e-02
-1.067104865796864033e-03
5.775755271315574646e-02
2.942780777812004089e-02
1.613376662135124207e-02
-6.224120035767555237e-02
-1.057067662477493286e-01
-7.845015078783035278e-02
-7.717439532279968262e-02
-3.557685390114784241e-02
7.848903536796569824e-03
-1.186329200863838196e-01
6.734587252140045166e-02
-2.511548623442649841e-02
3.255124390125274658e-02
-7.264462113380432129e-02
5.162226408720016479e-02
-2.480544708669185638e-02
-1.210343209095299244e-03
-6.309636682271957397e-02
3.968574106693267822e-02
-5.423601344227790833e-02
-5.092209670692682266e-03
-8.297092467546463013e-02
9.176854789257049561e-02
-1.352060288190841675e-01
-8.423051983118057251e-02
-7.532298564910888672e-02
-2.666252478957176208e-02
-4.850980266928672791e-02
-4.874914512038230896e-02
5.322986096143722534e-02
1.254296489059925079e-02
-1.540841162204742432e-02
-8.149961382150650024e-02
7.305248081684112549e-02
1.001459173858165741e-02
4.707319661974906921e-02
-7.877315580844879150e-02
-1.017748564481735229e-01
-7.244597375392913818e-02
-3.048993274569511414e-02
-4.332647100090980530e-02
1.097495406866073608e-01
8.222726732492446899e-02
-1.684550009667873383e-02
2.528390102088451385e-02
5.739900842308998108e-02
-4.138211533427238464e-02
-4.852301627397537231e-02
-7.847927510738372803e-02
1.103590801358222961e-02
7.103443145751953125e-02
-3.133428096771240234e-02
1.381373032927513123e-03
5.501710250973701477e-02
-4.076853021979331970e-02
-8.380327373743057251e-02
-9.383758530020713806e-03
-5.906514823436737061e-02
-2.901655249297618866e-02
4.117126762866973877e-02
-3.555066185072064400e-03
5.396060273051261902e-02
1.949018985033035278e-02
-2.527203038334846497e-02
1.095820777118206024e-02
-1.937678828835487366e-02
5.867745727300643921e-03
2.963910577818751335e-03
1.329630613327026367e-01
-1.163955852389335632e-01
-5.755838751792907715e-02
9.430420584976673126e-03
3.141880407929420471e-02
-7.994356751441955566e-02
2.206698246300220490e-02
5.604389309883117676e-02
-7.154220342636108398e-02
-2.602476626634597778e-02
-3.952796384692192078e-02
2.126902341842651367e-02
2.749093435704708099e-02
-1.196262761950492859e-01
-3.161243349313735962e-02
3.361573070287704468e-02
-2.663098089396953583e-02
9.367273747920989990e-02
1.493621710687875748e-02
-9.874475747346878052e-02
-6.640976667404174805e-02
2.856099419295787811e-02
-4.908112436532974243e-02
1.229222398251295090e-02
-1.040851250290870667e-01
-8.038879372179508209e-03
3.533927723765373230e-02
-5.200045183300971985e-03
-4.019124805927276611e-02
-1.274445950984954834e-01
-1.016568839550018311e-01
-3.871772438287734985e-02
-6.458653509616851807e-02
2.760417014360427856e-02
5.000025779008865356e-02
-5.167092010378837585e-02
2.884109271690249443e-03
-9.053797274827957153e-02
4.336358979344367981e-02
3.718418534845113754e-03
-4.979564622044563293e-02
-3.366023674607276917e-02
2.224316075444221497e-02
-2.238871762529015541e-03
-4.191413149237632751e-02
1.078946422785520554e-02
-3.879259154200553894e-02
3.404175862669944763e-02
-4.256730899214744568e-02
5.511113628745079041e-02
-9.679459780454635620e-02
1.582522504031658173e-02
-4.309817776083946228e-02
-1.748503744602203369e-02
-8.125765621662139893e-02
7.147595286369323730e-02
1.397397555410861969e-02
8.202501386404037476e-02
4.139347374439239502e-02
4.053618386387825012e-02
3.901840373873710632e-02
-3.527174890041351318e-02
-8.331089280545711517e-03
4.124774411320686340e-02
5.043003335595130920e-02
3.995264880359172821e-03
-2.483676932752132416e-02
9.878342598676681519e-02
-2.775148674845695496e-02
6.734883040189743042e-02
-4.505605250597000122e-02
-4.845376685261726379e-02
-5.955940857529640198e-02
-5.707179009914398193e-02
-5.937153100967407227e-02
-7.064707577228546143e-02
-5.198972765356302261e-03
5.486608296632766724e-02
2.375605888664722443e-02
-3.720553219318389893e-02
3.930077422410249710e-03
-3.074374236166477203e-02
-8.792486786842346191e-02
4.740274697542190552e-02
4.726057872176170349e-02
1.736653782427310944e-02
2.993096783757209778e-02
5.032090470194816589e-02
1.772748120129108429e-02
-2.889225631952285767e-02
-4.043432325124740601e-02
6.533904373645782471e-02
-1.133512333035469055e-01
-7.615613192319869995e-02
6.837201118469238281e-02
-3.803594410419464111e-02
2.379279024899005890e-02
-9.489302337169647217e-02
3.293565288186073303e-02
5.230261385440826416e-02
1.190082803368568420e-01
3.029487095773220062e-03
-7.380679249763488770e-02
2.197296358644962311e-03
2.840635925531387329e-02
-2.555074542760848999e-02
5.492676421999931335e-02
-3.834156692028045654e-02
-8.937254548072814941e-02
-6.676109880208969116e-02
1.241624131798744202e-01
-3.409930737689137459e-03
-4.909409210085868835e-03
1.537543139420449734e-03
3.774733841419219971e-02
3.215862903743982315e-03
-5.994980782270431519e-02
-6.728384643793106079e-02
8.123718947172164917e-02
-6.627012044191360474e-02
-4.461574926972389221e-02
-7.639268785715103149e-02
-7.196862250566482544e-02
-6.206021178513765335e-03
-6.384323537349700928e-02
-4.043508321046829224e-02
-3.621781244874000549e-02
2.216912433505058289e-02
-8.350843936204910278e-02
4.059229791164398193e-02
6.795512884855270386e-02
4.166782274842262268e-02
-6.879474222660064697e-02
-1.064716256223618984e-03
-1.145800724625587463e-01
9.692776203155517578e-02
1.175089329481124878e-01
-3.731042891740798950e-02
1.450789812952280045e-02
2.241707220673561096e-02
4.562570899724960327e-02
4.754398390650749207e-02
6.710314750671386719e-02
5.189811438322067261e-02
1.726010255515575409e-02
-7.158342003822326660e-02
-1.347236894071102142e-02
-6.402172893285751343e-02
-1.267067249864339828e-02
-3.734325245022773743e-02
-8.702149242162704468e-02
-6.670717149972915649e-03
-5.622087419033050537e-02
5.832220241427421570e-02
9.814919531345367432e-02
2.011119574308395386e-02
5.307485535740852356e-02
-1.982593722641468048e-02
8.118298649787902832e-02
5.736183002591133118e-02
3.351722285151481628e-02
1.283918321132659912e-01
4.090441763401031494e-02
5.396147444844245911e-02
3.194373846054077148e-02
5.147087387740612030e-03
-1.302755088545382023e-03
-8.322068303823471069e-02
6.607235968112945557e-02
5.517255514860153198e-02
1.128529012203216553e-01
-5.919582769274711609e-02
-5.929247289896011353e-02
3.992527350783348083e-02
1.620036363601684570e-02
-5.584275722503662109e-02
-7.929450273513793945e-02
1.735934801399707794e-02
-1.833033934235572815e-02
-8.283775299787521362e-02
5.886607244610786438e-02
3.720276057720184326e-02
2.496889792382717133e-02
1.106477342545986176e-02
9.065171331167221069e-02
1.564202308654785156e-01
-4.063988476991653442e-02
5.218802392482757568e-02
7.011501491069793701e-02
4.472355544567108154e-02
-4.837409127503633499e-03
-1.529129222035408020e-03
-3.765153139829635620e-02
1.142724454402923584e-01
-3.827544674277305603e-02
-6.765595823526382446e-02
8.322459645569324493e-03
-2.916610427200794220e-02
3.405906632542610168e-02
-3.170957416296005249e-02
2.890930883586406708e-02
5.801636353135108948e-02
-4.676450975239276886e-03
9.985883533954620361e-02
-2.708969824016094208e-02
-4.761628434062004089e-02
-6.637563556432723999e-02
-3.892115782946348190e-03
2.567360922694206238e-02
1.646511256694793701e-02
3.871158882975578308e-02
6.714331358671188354e-02
-1.315456628799438477e-02
1.390829216688871384e-02
3.483530133962631226e-02
-6.890921294689178467e-02
-3.906781598925590515e-02
-5.115877720527350903e-04
2.954097697511315346e-03
6.911472976207733154e-02
6.745262444019317627e-02
1.488027572631835938e-01
2.853215113282203674e-02
3.792651742696762085e-02
-9.304208308458328247e-02
-7.801117002964019775e-02
7.334750145673751831e-02
2.963436581194400787e-02
9.795351326465606689e-02
5.259854719042778015e-02
6.841018795967102051e-02
1.070771217346191406e-01
4.569668322801589966e-03
2.228527516126632690e-02
-6.022979691624641418e-02
6.432027369737625122e-02
-9.192033112049102783e-02
2.842700481414794922e-02
2.380560897290706635e-02
6.311175972223281860e-02
1.800937764346599579e-02
7.461707293987274170e-02
-3.798864409327507019e-02
-1.054313406348228455e-01
7.181496918201446533e-02
-4.488696902990341187e-02
1.946136727929115295e-02
3.139876574277877808e-02
-1.491525955498218536e-02
-4.058069735765457153e-02
1.569718297105282545e-04
-5.941947922110557556e-02
9.232900291681289673e-02
-4.458940774202346802e-02
-4.721663147211074829e-02
5.496069043874740601e-02
4.427734762430191040e-02
-6.031931936740875244e-02
4.601311683654785156e-02
-6.389792077243328094e-03
-7.724313763901591301e-04
5.878684669733047485e-02
-4.460459575057029724e-03
7.838810235261917114e-02
-6.406423449516296387e-02
-2.082067914307117462e-02
-4.272121586836874485e-04
4.850567504763603210e-02
6.517164409160614014e-02
4.547821357846260071e-02
7.475797832012176514e-02
-7.587978243827819824e-02
7.311257719993591309e-02
-2.342317625880241394e-02
4.703851044178009033e-02
-2.135863527655601501e-02
-8.684481680393218994e-02
-2.359774708747863770e-02
4.053973406553268433e-02
-4.940086975693702698e-02
-3.526133950799703598e-03
2.113091386854648590e-02
-3.399768844246864319e-02
-4.678473994135856628e-02
2.697394974529743195e-02
-2.929488010704517365e-02
1.346306037157773972e-02
5.152301862835884094e-02
9.003602713346481323e-02
-3.327425941824913025e-02
-7.300230860710144043e-02
6.870350241661071777e-02
-4.379785060882568359e-02
-3.489800542593002319e-02
-4.934852570295333862e-02
-8.950139582157135010e-02
1.034580636769533157e-02
-8.148995786905288696e-02
7.089463621377944946e-02
4.200378432869911194e-02
-1.667622290551662445e-02
-7.675727456808090210e-02
-9.033190459012985229e-02
6.745142489671707153e-02
-7.034727185964584351e-02
-1.002038195729255676e-01
-5.757312756031751633e-03
8.706028573215007782e-03
8.003032207489013672e-02
-3.492864221334457397e-02
-7.600876688957214355e-02
-8.181007206439971924e-02
2.660706173628568649e-03
5.257611349225044250e-02
6.669029593467712402e-02
-3.683365508913993835e-02
-2.391310222446918488e-02
6.888330727815628052e-02
5.086727906018495560e-03
1.696662791073322296e-02
9.664098173379898071e-02
-5.014131963253021240e-02
-2.994656004011631012e-02
-1.332431100308895111e-02
-3.785305097699165344e-02
5.928601324558258057e-02
-4.805922880768775940e-02
6.698882579803466797e-02
-2.947107516229152679e-02
-6.815375387668609619e-02
-7.552422117441892624e-03
3.273820877075195312e-02
9.128458797931671143e-02
-6.701032072305679321e-02
7.867482304573059082e-02
-8.173193782567977905e-02
-4.894958809018135071e-02
5.837184377014636993e-03
1.779811270534992218e-02
-4.291774705052375793e-02
-1.075414866209030151e-01
8.921394497156143188e-02
-3.250777348875999451e-02
4.493487533181905746e-03
7.081276923418045044e-02
-7.976824790239334106e-02
-6.204327568411827087e-03
2.296865358948707581e-02
7.470055669546127319e-02
-6.684730201959609985e-02
-9.284451953135430813e-04
-1.224538404494524002e-02
-2.242845017462968826e-03
-4.572452232241630554e-02
-9.099562466144561768e-02
-7.077486813068389893e-02
-6.116697192192077637e-02
-2.583921141922473907e-02
1.531130727380514145e-02
-2.022248320281505585e-02
8.471317589282989502e-02
1.090594014385715127e-04
6.574822217226028442e-02
3.425654396414756775e-02
1.345849130302667618e-02
-9.361823648214340210e-02
-7.775343954563140869e-02
-4.225370660424232483e-02
8.212755620479583740e-02
9.267591685056686401e-02
2.047731913626194000e-02
8.954191207885742188e-02
-2.763004042208194733e-03
5.436928011476993561e-03
-7.838093489408493042e-02
-7.598694413900375366e-02
2.142071165144443512e-02
-5.522672832012176514e-02
-4.941888153553009033e-03
7.491617463529109955e-03
-4.778892546892166138e-02
-2.387401275336742401e-02
8.849214762449264526e-02
-5.755223706364631653e-02
6.596208363771438599e-02
-3.014872409403324127e-02
7.041031867265701294e-02
-7.181407511234283447e-02
3.445524722337722778e-02
-6.425365805625915527e-02
-2.435743063688278198e-02
-8.782676607370376587e-02
-7.411860674619674683e-02
8.213084191083908081e-02
-3.301661834120750427e-02
5.111922696232795715e-02
-4.261440411210060120e-02
4.076741635799407959e-02
4.541708528995513916e-02
1.616093330085277557e-02
-1.642280258238315582e-02
-8.942812681198120117e-03
1.304565742611885071e-02
-1.506909821182489395e-02
2.200966514647006989e-02
-2.382319793105125427e-02
1.388374157249927521e-02
9.050815552473068237e-02
-9.302537143230438232e-02
5.114491796121001244e-04
-3.672878444194793701e-02
-8.302162587642669678e-02
-8.191525191068649292e-02
5.190860107541084290e-02
6.574692577123641968e-02
2.477102540433406830e-02
-2.580429799854755402e-02
-7.283544540405273438e-02
2.162463404238224030e-02
5.158205702900886536e-02
-2.306929044425487518e-02
-4.249610379338264465e-02
-7.261879742145538330e-02
-3.184660524129867554e-02
5.544526502490043640e-02
-3.650247305631637573e-02
-1.730697974562644958e-02
9.738121926784515381e-02
-2.315286733210086823e-02
2.217779867351055145e-02
-5.464040208607912064e-03
4.967017099261283875e-02
-4.475375264883041382e-02
4.379399120807647705e-02
-5.636522546410560608e-02
5.476550757884979248e-02
-2.203002385795116425e-02
-5.377038568258285522e-02
-4.252402484416961670e-02
-7.597716152667999268e-02
5.188228935003280640e-02
-2.230926044285297394e-02
6.586873531341552734e-02
2.985059469938278198e-02
5.547327548265457153e-02
4.691245779395103455e-02
1.153996959328651428e-02
3.803478553891181946e-02
3.312155604362487793e-02
-6.793353706598281860e-02
6.949558109045028687e-02
5.467500910162925720e-02
-8.259742707014083862e-02
-1.014473196119070053e-02
6.209512054920196533e-02
6.586601585149765015e-02
5.949452146887779236e-02
6.599590927362442017e-02
-3.458613529801368713e-02
-6.047283485531806946e-02
-3.357784450054168701e-02
-2.313672937452793121e-02
3.833577409386634827e-02
-3.917238488793373108e-02
8.304506540298461914e-02
-3.640825301408767700e-02
1.725316420197486877e-02
-1.993653923273086548e-02
-5.299537442624568939e-03
-4.757112637162208557e-02
-6.721861660480499268e-02
-7.341413944959640503e-02
4.661758989095687866e-02
8.206284604966640472e-03
-4.581148270517587662e-03
-8.420500904321670532e-03
9.385364502668380737e-02
5.866970866918563843e-02
5.653535202145576477e-02
-1.653177291154861450e-02
1.696077734231948853e-02
-7.721544802188873291e-02
3.453396027907729149e-03
-4.028554633259773254e-02
-7.410115748643875122e-02
-7.225473225116729736e-02
-5.894467979669570923e-02
-4.195382073521614075e-02
2.419643849134445190e-02
-7.270354311913251877e-03
4.125401028431952000e-04
-5.229612439870834351e-02
5.370891839265823364e-02
-1.011088676750659943e-02
-6.686191260814666748e-02
-7.669380307197570801e-02
8.816133439540863037e-02
-1.166464760899543762e-02
-6.333082169294357300e-02
4.212073981761932373e-03
2.391039580106735229e-02
-4.792483896017074585e-02
7.035392522811889648e-02
5.467463657259941101e-02
4.394615814089775085e-02
6.780675798654556274e-02
-8.284569531679153442e-02
2.168357931077480316e-02
-1.308317948132753372e-02
-9.654580056667327881e-02
-2.790211513638496399e-02
-4.994944483041763306e-02
-1.009721234440803528e-01
-7.079045474529266357e-02
1.515677105635404587e-02
4.254652559757232666e-02
1.154646351933479309e-01
2.264606393873691559e-02
-2.572637610137462616e-02
-3.136350214481353760e-02
3.298809751868247986e-03
5.049047619104385376e-02
2.494918927550315857e-02
-1.778239384293556213e-02
-3.987508639693260193e-02
-6.676102429628372192e-02
-3.439270192757248878e-03
-8.307366818189620972e-02
-4.640453308820724487e-02
-3.114555776119232178e-02
4.385607689619064331e-02
3.121108934283256531e-02
-4.194664955139160156e-02
-2.512729028239846230e-03
8.752609044313430786e-02
-3.387318179011344910e-02
-4.509914666414260864e-02
3.788854926824569702e-02
-4.548230767250061035e-02
-2.638471126556396484e-02
-1.902606151998043060e-02
-3.778200969099998474e-02
6.195444613695144653e-02
-6.767408549785614014e-02
-1.812582090497016907e-02
-1.660736836493015289e-02
1.670621708035469055e-02
-9.499734640121459961e-02
-4.169881716370582581e-02
-2.692493796348571777e-02
2.127906773239374161e-03
-7.520604878664016724e-03
-6.520488113164901733e-02
9.083981812000274658e-02
3.015026450157165527e-02
-1.064900029450654984e-02
-5.392500013113021851e-02
3.232673183083534241e-02
1.576206088066101074e-02
6.776745617389678955e-02
-9.670885652303695679e-02
5.923809856176376343e-02
-3.477669134736061096e-02
-7.785035669803619385e-02
-4.192507266998291016e-02
1.013299897313117981e-01
4.623125120997428894e-02
-2.377645671367645264e-02
-3.672865917906165123e-03
-1.537219062447547913e-02
1.655744761228561401e-02
3.657989576458930969e-02
2.739623188972473145e-02
2.139244973659515381e-02
3.846215456724166870e-02
-1.058746799826622009e-01
-9.842570126056671143e-02
1.551054790616035461e-02
-6.871064007282257080e-02
-7.708927989006042480e-02
-3.389097005128860474e-02
3.175361454486846924e-02
-2.907842025160789490e-02
5.440722778439521790e-02
4.269274324178695679e-02
-3.640748187899589539e-02
-1.094999462366104126e-01
-6.654207408428192139e-02
2.656181156635284424e-02
5.620102584362030029e-02
-5.262793973088264465e-02
8.713394403457641602e-03
7.711825519800186157e-02
-1.040111929178237915e-01
8.129125344567000866e-04
5.451116338372230530e-02
-6.418689340353012085e-02
-1.261715404689311981e-02
9.554721415042877197e-03
4.641231521964073181e-02
6.318560242652893066e-02
3.040478751063346863e-02
2.576559223234653473e-02
-7.452387362718582153e-02
3.335227444767951965e-02
1.697834394872188568e-02
-7.832920551300048828e-02
-2.932046912610530853e-02
-1.384989125654101372e-03
-3.390035824850201607e-03
3.465357795357704163e-02
5.087530985474586487e-02
3.650378808379173279e-02
-6.772890686988830566e-02
3.868670016527175903e-02
7.466442883014678955e-02
-6.921564787626266479e-02
5.502586811780929565e-02
-8.636602759361267090e-02
1.730528660118579865e-02
-1.863680407404899597e-02
3.607996553182601929e-02
3.221035376191139221e-02
4.857179149985313416e-02
-8.787585794925689697e-02
-1.256272103637456894e-02
2.689372003078460693e-02
-9.701037406921386719e-02
5.522041022777557373e-02
-9.861847385764122009e-03
5.530556663870811462e-02
-2.291191555559635162e-02
-6.684704124927520752e-02
9.711080789566040039e-02
4.205376282334327698e-02
-1.041778363287448883e-03
-7.225732505321502686e-02
-4.726882278919219971e-02
-1.494924817234277725e-02
5.353143904358148575e-03
-5.029772222042083740e-02
-5.807926133275032043e-02
-8.869414031505584717e-02
-2.409588918089866638e-02
4.862180352210998535e-02
-4.717373102903366089e-02
2.074324525892734528e-03
6.556066870689392090e-02
3.982131183147430420e-02
6.385405361652374268e-02
2.247954718768596649e-02
-4.418863356113433838e-02
3.469557035714387894e-03
2.285492978990077972e-02
-5.224417150020599365e-02
-9.086962789297103882e-02
9.660410135984420776e-02
-5.309823527932167053e-02
-9.694170206785202026e-02
7.302481681108474731e-02
-1.615769974887371063e-02
2.673638984560966492e-02
-2.643603645265102386e-02
-7.156255841255187988e-02
4.329122230410575867e-02
-1.305028237402439117e-02
-3.407743200659751892e-02
2.551763504743576050e-02
-1.005494594573974609e-02
-7.244378328323364258e-02
-8.694466203451156616e-02
4.690553992986679077e-02
6.666397303342819214e-02
-5.213611572980880737e-02
-3.822359815239906311e-02
9.706144779920578003e-02
1.899353228509426117e-02
2.062655426561832428e-02
-5.998744070529937744e-02
-4.156145825982093811e-02
3.543779253959655762e-02
5.325398594141006470e-02
-4.694391041994094849e-02
-4.939419403672218323e-02
-9.215047210454940796e-02
3.240184485912322998e-02
1.760031096637248993e-02
-3.607897087931632996e-02
-2.048704214394092560e-02
-7.104327529668807983e-02
-5.666328221559524536e-02
-7.382842153310775757e-02
-3.857916593551635742e-02
-3.286687657237052917e-02
-3.994950279593467712e-02
-3.073301399126648903e-03
5.066043511033058167e-02
-4.125731065869331360e-02
-2.760908938944339752e-02
-9.962675720453262329e-02
-6.447774916887283325e-02
4.252628609538078308e-02
1.471339911222457886e-02
3.945887461304664612e-02
-1.163593772798776627e-02
-3.142452239990234375e-02
4.867761209607124329e-02
-5.541524291038513184e-02
-4.463756456971168518e-02
-2.401821501553058624e-02
1.235907990485429764e-02
4.964098334312438965e-02
7.527136802673339844e-02
7.754444330930709839e-02
-1.004002243280410767e-02
-3.744348138570785522e-02
-7.525115460157394409e-02
8.789578452706336975e-03
1.731862872838973999e-02
-1.515511795878410339e-02
2.387895248830318451e-02
-9.458383545279502869e-03
5.946183204650878906e-02
-4.017115384340286255e-02
5.295718833804130554e-02
-3.989305347204208374e-02
-5.373169109225273132e-02
-5.723319947719573975e-02
-8.377275615930557251e-02
-2.013443410396575928e-02
-5.575469136238098145e-02
-6.300088949501514435e-03
-1.938254013657569885e-02
7.858240045607089996e-03
5.337617546319961548e-02
1.766987144947052002e-02
-8.179231733083724976e-02
2.697656862437725067e-02
5.734153091907501221e-02
-4.926763474941253662e-02
-7.845260947942733765e-02
1.261136773973703384e-02
-4.374962672591209412e-02
8.051908574998378754e-03
8.235311508178710938e-02
-6.617134064435958862e-02
-5.436924099922180176e-02
-3.477567061781883240e-02
-1.010821983218193054e-01
1.791922003030776978e-02
-2.649522386491298676e-02
-8.693769574165344238e-03
7.215947657823562622e-02
7.294540852308273315e-02
4.592154175043106079e-02
6.165994273032993078e-05
8.564094454050064087e-02
-7.271690666675567627e-02
3.479342907667160034e-02
3.512727469205856323e-02
1.913308538496494293e-02
-8.761961013078689575e-02
5.589529871940612793e-02
3.973124083131551743e-03
1.091184467077255249e-02
-7.144052535295486450e-02
5.182902142405509949e-02
-8.136262185871601105e-03
-5.409822985529899597e-02
-7.095632702112197876e-02
-5.507259070873260498e-02
1.799227483570575714e-02
4.057976230978965759e-02
7.195559889078140259e-02
7.752288877964019775e-02
2.843986265361309052e-02
-1.964206062257289886e-02
-8.546792715787887573e-02
5.552346631884574890e-02
-1.608758233487606049e-02
-3.707361221313476562e-02
-7.721539586782455444e-02
-5.742327123880386353e-02
-3.432335797697305679e-03
-4.020527470856904984e-03
2.380198333412408829e-03
-8.189260028302669525e-03
-7.392084598541259766e-02
-2.081616036593914032e-02
3.496199846267700195e-02
-7.603356987237930298e-02
-5.013341549783945084e-03
6.653726100921630859e-02
-4.267167672514915466e-02
7.735366374254226685e-02
-8.143212646245956421e-02
-2.969524636864662170e-02
-1.114258170127868652e-02
-3.683189302682876587e-02
4.025407135486602783e-02
-3.266939893364906311e-02
-4.845711216330528259e-02
-6.883441656827926636e-02
-7.102504372596740723e-02
-3.282168880105018616e-02
-6.814838200807571411e-02
-5.925622954964637756e-02
-4.983826726675033569e-02
3.828396648168563843e-02
-3.676171600818634033e-02
-4.097144305706024170e-02
-7.376933097839355469e-02
3.475889191031455994e-02
-8.115406334400177002e-02
5.272483453154563904e-02
-7.628076523542404175e-02
1.197431888431310654e-02
-1.469149813055992126e-02
3.455083072185516357e-02
8.243826031684875488e-02
-3.581946715712547302e-02
-9.802783280611038208e-02
6.595338135957717896e-02
6.349976360797882080e-02
-7.599560171365737915e-02
-3.703622519969940186e-02
3.492344915866851807e-02
1.037464477121829987e-02
-2.364869974553585052e-02
-3.249382227659225464e-02
3.186207264661788940e-02
-1.535914931446313858e-02
4.471223428845405579e-02
8.872731775045394897e-02
-8.206486701965332031e-02
6.582634150981903076e-02
-6.691090017557144165e-02
1.168061234056949615e-02
-2.788481116294860840e-02
-1.863989233970642090e-02
-7.637704908847808838e-02
-4.403504077345132828e-03
1.589695364236831665e-02
-7.993586361408233643e-03
-8.206277340650558472e-02
6.297400593757629395e-02
1.193002890795469284e-02
8.145765215158462524e-02
-3.736485540866851807e-02
6.416388601064682007e-02
6.648293882608413696e-02
-8.256606757640838623e-02
8.131556212902069092e-02
4.564394429326057434e-02
-4.253571853041648865e-03
7.626967877149581909e-02
7.322314381599426270e-02
-4.862347617745399475e-02
2.444973774254322052e-02
4.645377770066261292e-02
2.474554441869258881e-02
8.344705216586589813e-03
5.270105600357055664e-02
4.633341915905475616e-03
-7.844667881727218628e-02
-1.561378594487905502e-02
4.518048837780952454e-02
-6.121373176574707031e-02
7.482112199068069458e-02
-8.361539244651794434e-02
-4.818644374608993530e-03
1.290196925401687622e-02
-1.858220994472503662e-02
1.665525138378143311e-02
-6.479723006486892700e-02
-1.427139155566692352e-02
-8.003929257392883301e-02
-6.597862392663955688e-02
-1.927252486348152161e-02
7.280293852090835571e-02
-7.168117165565490723e-02
-7.978434860706329346e-02
-1.370269339531660080e-02
2.831315621733665466e-03
7.130272686481475830e-02
-7.439436763525009155e-02
7.605421124026179314e-04
-1.494731660932302475e-02
8.859779685735702515e-02
8.423452824354171753e-02
2.531817555427551270e-02
5.753538385033607483e-02
-6.470773369073867798e-02
7.228571176528930664e-02
-6.728306412696838379e-02
5.692914128303527832e-02
-7.027596980333328247e-02
-1.993253827095031738e-02
-9.631496667861938477e-02
4.486057534813880920e-02
-3.751869127154350281e-02
-7.965850085020065308e-02
8.073276281356811523e-02
-4.744937270879745483e-02
1.669502072036266327e-02
-2.162077091634273529e-02
-5.737742036581039429e-02
-4.401254281401634216e-02
7.682188600301742554e-02
8.928745985031127930e-02
-1.070756465196609497e-03
-3.752151969820261002e-03
5.435799062252044678e-02
-6.139651313424110413e-02
-4.304099082946777344e-02
8.559542149305343628e-02
3.513949364423751831e-02
5.197191238403320312e-02
5.433411151170730591e-02
-4.179468750953674316e-02
-1.812860928475856781e-02
-6.817290931940078735e-02
7.822410017251968384e-02
3.878943622112274170e-02
-9.275294840335845947e-02
5.658195540308952332e-02
1.933062076568603516e-02
4.894735291600227356e-02
8.709011226892471313e-02
2.303910441696643829e-02
-7.699286937713623047e-02
5.330382660031318665e-02
-3.379572555422782898e-02
9.236991405487060547e-02
-3.341494873166084290e-02
-3.623218089342117310e-02
-1.469578780233860016e-02
5.158637091517448425e-02
-1.514783501625061035e-02
4.611624777317047119e-02
5.226241424679756165e-02
-1.461317576467990875e-02
-3.348839655518531799e-02
-6.714212894439697266e-02
5.887718126177787781e-02
3.296865522861480713e-02
7.638272643089294434e-02
4.072486609220504761e-02
3.122179582715034485e-02
2.428499609231948853e-02
2.284979447722434998e-02
7.379975914955139160e-02
-8.221377432346343994e-02
-3.281083330512046814e-02
-5.113256722688674927e-02
-2.848682366311550140e-02
-8.926863223314285278e-02
4.789380356669425964e-02
2.526996098458766937e-02
-6.536892056465148926e-02
-1.452785730361938477e-02
4.989330470561981201e-02
-4.730349779129028320e-02
3.300051763653755188e-02
-2.030670270323753357e-02
1.518951077014207840e-02
-1.384157501161098480e-02
1.637711189687252045e-02
4.431172832846641541e-02
-2.238938026130199432e-02
5.457675084471702576e-02
-3.445095196366310120e-02
-4.461297020316123962e-02
-3.944576904177665710e-02
-2.923906594514846802e-02
2.167835831642150879e-02
-1.886799558997154236e-02
7.804417610168457031e-02
7.644890993833541870e-02
-3.921655938029289246e-02
-7.512649148702621460e-02
5.386763438582420349e-02
4.398630559444427490e-02
8.177671581506729126e-02
-2.036431990563869476e-02
-4.122545197606086731e-02
-5.677907913923263550e-02
7.891995459794998169e-02
-5.142620764672756195e-03
1.976757310330867767e-02
-5.536632612347602844e-02
7.385610044002532959e-02
8.917433768510818481e-02
3.376638051122426987e-03
-4.790770262479782104e-02
-4.831705987453460693e-02
6.679584085941314697e-02
4.514925554394721985e-02
-2.217392204329371452e-03
6.721507757902145386e-02
7.172255218029022217e-02
-5.430729314684867859e-02
-8.975026756525039673e-02
4.675792530179023743e-02
2.145120874047279358e-02
-6.087929755449295044e-02
2.123154141008853912e-02
6.215832382440567017e-02
4.685398191213607788e-02
-1.405677292495965958e-02
-4.947302117943763733e-02
-1.134484075009822845e-02
-7.163679599761962891e-02
1.041625291109085083e-01
6.724469829350709915e-03
2.002377994358539581e-02
-6.723067723214626312e-03
-1.014907006174325943e-02
4.002002254128456116e-02
-4.623987153172492981e-02
-1.865120604634284973e-02
-9.752210974693298340e-02
2.460792474448680878e-02
-7.865899056196212769e-02
5.061412602663040161e-02
4.976255074143409729e-02
-3.928050026297569275e-02
-9.745159000158309937e-02
-6.929577887058258057e-02
-1.753841713070869446e-02
8.051380515098571777e-02
1.268149167299270630e-02
3.384173661470413208e-02
-7.093786261975765228e-03
2.860406227409839630e-02
7.457584142684936523e-02
-2.294839359819889069e-02
-5.250027030706405640e-02
-5.716761201620101929e-02
3.226963235647417605e-05
8.735932409763336182e-02
6.071057915687561035e-02
5.748400837182998657e-02
2.415583282709121704e-02
6.716379523277282715e-02
-4.799960181117057800e-02
7.677680999040603638e-02
-5.937229096889495850e-02
7.966880500316619873e-02
1.270729815587401390e-03
7.698859274387359619e-02
2.546936459839344025e-02
3.612422943115234375e-02
-7.939761877059936523e-02
9.078139439225196838e-03
3.573304787278175354e-02
7.010989636182785034e-02
-6.582327932119369507e-02
-2.400843426585197449e-02
-1.225610263645648956e-02
-5.206200107932090759e-02
2.279138937592506409e-02
4.613340273499488831e-02
-9.530165046453475952e-02
3.340751281939446926e-04
4.071520268917083740e-02
1.699872873723506927e-02
7.342834770679473877e-02
-2.032798156142234802e-02
-9.700261056423187256e-02
-4.486829042434692383e-02
-3.606477752327919006e-02
5.097384378314018250e-02
-7.344848662614822388e-02
8.631248772144317627e-02
2.828832902014255524e-02
-3.476974740624427795e-02
4.158721491694450378e-02
-6.149449199438095093e-02
5.282308906316757202e-02
-1.671752706170082092e-02
-3.877408057451248169e-02
3.490898991003632545e-03
-4.690638557076454163e-02
5.534690618515014648e-02
5.344180017709732056e-02
-1.197510771453380585e-02
-3.640915080904960632e-02
4.515414312481880188e-02
-5.751436576247215271e-02
-3.414206672459840775e-03
-7.230980694293975830e-02
-6.444929540157318115e-02
-1.309020444750785828e-03
2.697546500712633133e-03
-1.076525896787643433e-01
-2.563898637890815735e-02
-5.528363212943077087e-02
6.846413016319274902e-02
-2.835750579833984375e-02
2.263283357024192810e-02
-1.227800850756466389e-03
4.013782739639282227e-02
5.836951360106468201e-02
6.807380914688110352e-02
-2.304747514426708221e-02
-9.440460056066513062e-02
-8.284255117177963257e-02
-2.250352315604686737e-02
-1.637344434857368469e-02
-1.184181077405810356e-03
2.048555575311183929e-02
4.357353225350379944e-02
9.343543089926242828e-03
-1.402123831212520599e-02
4.417070746421813965e-02
-8.285804651677608490e-03
5.617930740118026733e-02
-5.752913281321525574e-02
-7.689461112022399902e-02
-3.585133701562881470e-02
-1.886082068085670471e-02
1.534239761531352997e-02
5.895859003067016602e-02
-1.306717656552791595e-02
-2.734043821692466736e-02
-1.283892896026372910e-02
-7.463349401950836182e-02
-4.874514043331146240e-02
3.092315234243869781e-02
-1.870531588792800903e-03
-5.638567730784416199e-02
-1.147609725594520569e-01
-3.006880544126033783e-02
-5.329641699790954590e-02
-2.106544002890586853e-02
1.491803489625453949e-02
7.274501770734786987e-02
3.952116239815950394e-03
-4.747611936181783676e-03
-5.700641311705112457e-03
-5.955678224563598633e-02
3.617355227470397949e-02
-5.989490821957588196e-02
1.990281790494918823e-02
5.738800391554832458e-02
2.190085686743259430e-02
2.058701217174530029e-02
-8.582007884979248047e-02
-7.236321270465850830e-02
-4.078643023967742920e-02
2.968477644026279449e-02
6.933909654617309570e-02
-4.026529937982559204e-02
-1.767602749168872833e-02
7.159090042114257812e-02
-3.661240264773368835e-02
3.750752657651901245e-02
-8.324970304965972900e-02
-4.944301769137382507e-02
1.801218464970588684e-02
-9.656235575675964355e-02
7.700772024691104889e-03
1.725361682474613190e-03
-1.107847131788730621e-02
2.134434878826141357e-02
-9.344134479761123657e-02
-5.928519368171691895e-02
3.635587543249130249e-02
3.943107649683952332e-02
-5.738791450858116150e-02
-3.174175973981618881e-03
4.792945832014083862e-02
-7.617208361625671387e-02
-1.289492473006248474e-02
-4.211596027016639709e-02
-1.181331835687160492e-02
-5.674627050757408142e-02
6.566301733255386353e-02
4.053969681262969971e-02
2.980022877454757690e-02
-9.046857804059982300e-02
-8.269374258816242218e-03
-4.527216032147407532e-02
-9.752895683050155640e-03
-5.869484692811965942e-02
-6.002059951424598694e-02
5.496195703744888306e-02
6.612436473369598389e-02
5.194866284728050232e-02
4.021027311682701111e-02
-3.526590391993522644e-02
-9.182594716548919678e-03
1.622978970408439636e-02
-7.381416857242584229e-02
-5.704997479915618896e-02
7.100658863782882690e-02
2.009004354476928711e-02
5.979073699563741684e-03
-9.378316998481750488e-02
1.860763691365718842e-02
7.337531447410583496e-02
-5.590998753905296326e-02
-2.566043660044670105e-02
9.575721807777881622e-03
2.743137814104557037e-02
4.449985176324844360e-02
-6.065157055854797363e-02
-2.601606585085391998e-02
7.773858495056629181e-03
-6.136381253600120544e-02
-5.990638583898544312e-02
-7.020827382802963257e-02
3.840234503149986267e-02
-7.113517820835113525e-02
9.536608308553695679e-02
-9.362246841192245483e-02
5.541609972715377808e-02
-7.841308414936065674e-02
1.054934971034526825e-02
3.816455230116844177e-02
7.900829613208770752e-02
-7.070497423410415649e-02
2.046551182866096497e-02
-5.664505437016487122e-02
-2.465746365487575531e-02
8.785395324230194092e-02
4.309414327144622803e-02
-9.981943666934967041e-02
-4.335207864642143250e-02
1.384455431252717972e-02
-9.033308178186416626e-02
-9.252498298883438110e-02
5.848263390362262726e-03
-1.120877638459205627e-01
-8.620938658714294434e-02
1.447070203721523285e-02
3.487382084131240845e-03
9.708632528781890869e-02
-4.186231642961502075e-02
-8.859536796808242798e-02
-6.647913902997970581e-02
-9.844569116830825806e-02
3.541772812604904175e-02
-9.265249222517013550e-02
5.364632979035377502e-02
-6.047163903713226318e-02
4.193966463208198547e-02
4.934689402580261230e-02
-2.642519026994705200e-02
-8.824250847101211548e-02
-1.403685472905635834e-02
-9.451853483915328979e-02
-9.884786605834960938e-02
3.182680113241076469e-03
-5.303828045725822449e-02
5.657674744725227356e-03
-1.882914826273918152e-02
8.205644786357879639e-02
-6.290559470653533936e-02
-9.865704923868179321e-02
3.532740101218223572e-02
-1.238188269780948758e-04
-2.683162502944469452e-02
-6.519726663827896118e-02
-2.888325974345207214e-02
-2.133627049624919891e-02
-9.046299383044242859e-03
2.586989197880029678e-03
-5.440479144454002380e-02
-1.174404006451368332e-02
-4.756722971796989441e-02
5.329006910324096680e-02
9.599669836461544037e-03
-2.106587775051593781e-02
-8.199214935302734375e-03
-6.362251192331314087e-02
-4.811111837625503540e-02
-6.212419271469116211e-02
-2.566111087799072266e-02
-5.751039460301399231e-02
-7.740384340286254883e-02
-3.077496029436588287e-02
4.701896011829376221e-02
1.701701804995536804e-02
5.074793472886085510e-02
-4.348330572247505188e-02
-9.587945789098739624e-02
-6.421990692615509033e-03
5.070315208286046982e-03
-2.752885688096284866e-03
-6.268604099750518799e-02
-8.565726876258850098e-02
-1.401158422231674194e-02
1.994452252984046936e-02
2.463658107444643974e-03
-1.489153411239385605e-02
-5.593994259834289551e-02
-7.577537745237350464e-02
5.608525127172470093e-02
2.651848457753658295e-02
1.159438677132129669e-02
-3.597356006503105164e-02
6.008445098996162415e-02
7.143554836511611938e-02
9.932790882885456085e-03
-9.283789247274398804e-02
-7.722058892250061035e-02
4.736374318599700928e-02
-2.678536064922809601e-02
-9.687326848506927490e-02
-4.255063086748123169e-02
-9.258914738893508911e-02
4.840282723307609558e-03
-2.315025776624679565e-02
-5.867372453212738037e-02
1.447246782481670380e-02
-2.830843068659305573e-02
-2.741559874266386032e-04
8.282022923231124878e-02
-5.862211808562278748e-02
1.144219189882278442e-02
-3.981956839561462402e-02
6.492415815591812134e-02
-5.568350106477737427e-02
-3.143844753503799438e-02
-4.990012198686599731e-02
1.726127043366432190e-02
4.941917490214109421e-03
-1.842416077852249146e-02
4.600349441170692444e-02
-1.058972906321287155e-03
-4.456556867808103561e-03
-3.832222893834114075e-02
-3.322308510541915894e-02
-7.823995500802993774e-02
5.503328144550323486e-02
-9.268312901258468628e-02
2.618838474154472351e-02
-9.768178313970565796e-02
-7.138235867023468018e-02
-8.731433749198913574e-02
1.035263645462691784e-03
1.771544688381254673e-03
-6.256532669067382812e-02
4.657661914825439453e-02
1.435277517884969711e-02
1.072285417467355728e-02
-1.106668040156364441e-01
3.889784216880798340e-02
-3.509882465004920959e-02
-6.588129699230194092e-02
-7.477252744138240814e-03
8.143244683742523193e-02
3.447461128234863281e-02
-8.853095769882202148e-02
-2.488781884312629700e-02
-4.532063752412796021e-02
-2.817454375326633453e-02
6.712549924850463867e-02
-9.397169947624206543e-02
-3.768935427069664001e-02
3.466859087347984314e-02
2.974761277437210083e-02
2.785781212151050568e-02
1.238858234137296677e-02
-1.793322339653968811e-02
7.438357919454574585e-02
4.782553017139434814e-02
4.093476012349128723e-02
-5.848757550120353699e-02
-1.936295069754123688e-02
-8.780562877655029297e-02
5.515171214938163757e-02
-6.216092035174369812e-02
-2.285430766642093658e-02
2.235282771289348602e-02
-6.214557588100433350e-02
9.793017059564590454e-03
8.368819952011108398e-02
1.117440760135650635e-01
-4.162790626287460327e-02
2.576651982963085175e-02
2.135047502815723419e-02
-6.816443055868148804e-02
2.501748688519001007e-02
9.429473429918289185e-04
-8.975367993116378784e-02
5.838296562433242798e-02
-3.593965619802474976e-02
2.624114044010639191e-02
3.010335750877857208e-02
9.391762316226959229e-03
-1.018740981817245483e-02
4.796222969889640808e-02
4.927158355712890625e-02
-5.108698830008506775e-02
-6.842742860317230225e-02
-2.141821198165416718e-02
-7.506805472075939178e-03
7.602106779813766479e-02
1.909788325428962708e-02
2.371947281062602997e-02
-7.602869719266891479e-02
-1.699287258088588715e-02
7.887235283851623535e-02
8.490025065839290619e-03
-8.338363841176033020e-03
-3.545849025249481201e-02
-1.399234775453805923e-02
2.100805379450321198e-02
-5.152819678187370300e-02
-4.202326014637947083e-02
-5.595646053552627563e-02
-5.686301738023757935e-02
4.960604384541511536e-02
-3.963350132107734680e-02
6.802594661712646484e-02
-8.138739317655563354e-02
-2.261188812553882599e-03
7.115693390369415283e-02
1.046926081180572510e-01
-4.310008510947227478e-02
3.348073223605751991e-03
3.865209221839904785e-02
5.291233584284782410e-02
-5.255863070487976074e-03
4.096377175301313400e-03
5.568308755755424500e-02
5.089577287435531616e-02
-5.851123481988906860e-02
-3.665646165609359741e-02
7.869362086057662964e-02
-2.179978787899017334e-02
1.451796945184469223e-02
-4.064428806304931641e-02
5.093766748905181885e-02
8.034309744834899902e-02
9.498089551925659180e-02
4.214765876531600952e-02
-5.020371451973915100e-02
-6.478987634181976318e-02
3.967504948377609253e-02
-5.091103538870811462e-02
-7.612672448158264160e-02
-5.006259307265281677e-02
6.536993384361267090e-02
3.883543610572814941e-02
-4.528188705444335938e-02
-7.166399061679840088e-02
-5.892863869667053223e-02
-1.539315562695264816e-02
-3.882992267608642578e-02
8.203060179948806763e-02
5.725201591849327087e-02
5.779447779059410095e-02
1.387932058423757553e-02
1.884053461253643036e-02
8.329157531261444092e-02
-4.706088826060295105e-02
1.912272907793521881e-02
-1.905446499586105347e-02
-7.369995862245559692e-02
-1.693832501769065857e-02
4.557668790221214294e-02
4.198382049798965454e-02
-2.099114004522562027e-03
-2.403117343783378601e-02
3.358384221792221069e-02
-3.691635653376579285e-02
6.549468636512756348e-02
-1.808808371424674988e-02
4.857597500085830688e-02
8.631396293640136719e-02
2.349747158586978912e-02
-8.392695337533950806e-02
2.410984411835670471e-02
-4.060609638690948486e-02
9.767943993210792542e-03
7.919179648160934448e-02
-5.955250561237335205e-02
-9.059913456439971924e-02
-5.664970725774765015e-02
2.878851629793643951e-02
-5.710559710860252380e-02
-6.834295392036437988e-02
-5.846978351473808289e-02
4.958303272724151611e-02
6.853668391704559326e-02
7.714356482028961182e-02
-4.578024521470069885e-02
-1.232862006872892380e-02
-1.713542453944683075e-02
-1.739811268635094166e-03
-2.792445756494998932e-02
-1.095391437411308289e-02
7.440501451492309570e-02
-8.179739862680435181e-02
-8.264828473329544067e-02
7.979620248079299927e-02
1.852645538747310638e-02
9.689349681138992310e-02
-5.088385567069053650e-02
1.071873027831315994e-02
4.305380582809448242e-02
-6.950701773166656494e-02
2.622239477932453156e-02
7.695233821868896484e-02
-3.366512805223464966e-02
6.031546369194984436e-02
4.478136822581291199e-02
8.709948509931564331e-02
-6.081759184598922729e-02
6.708888709545135498e-02
-2.593570761382579803e-02
-2.022890560328960419e-02
6.105314567685127258e-02
4.265276715159416199e-02
7.726484537124633789e-02
9.522932022809982300e-02
5.374239385128021240e-02
-1.957766339182853699e-02
5.965034291148185730e-02
-6.611394137144088745e-02
2.938979305326938629e-02
8.845615200698375702e-03
7.557389885187149048e-02
8.174012601375579834e-02
4.005726054310798645e-02
-5.134882405400276184e-02
-1.631696335971355438e-02
-9.641884267330169678e-02
-6.073352694511413574e-02
-1.986043760553002357e-03
-6.598898023366928101e-02
4.848340153694152832e-02
4.093837738037109375e-02
-6.886062771081924438e-02
8.440082520246505737e-02
5.247727036476135254e-02
-4.912397265434265137e-02
2.374287508428096771e-02
-1.446026097983121872e-02
-5.912791565060615540e-02
8.450086414813995361e-02
-3.713990375399589539e-02
-4.120936617255210876e-02
9.121152013540267944e-02
7.846390455961227417e-02
-2.558041131123900414e-03
8.735427632927894592e-03
-3.777486830949783325e-02
2.353195659816265106e-02
1.727771759033203125e-02
9.036941826343536377e-02
3.485262161120772362e-03
-7.982452213764190674e-02
-4.542031511664390564e-02
8.128064870834350586e-02
-6.084574759006500244e-02
-4.238128289580345154e-02
2.656223066151142120e-02
-1.535766012966632843e-02
-1.498448476195335388e-02
-7.207012176513671875e-02
-6.601119041442871094e-02
1.195581257343292236e-01
-7.188861072063446045e-02
-2.368587628006935120e-02
-2.032333612442016602e-02
-4.124091938138008118e-02
7.199502736330032349e-02
6.931253243237733841e-03
4.244752228260040283e-02
3.751010447740554810e-02
-7.471079379320144653e-02
-1.363002508878707886e-02
2.155346423387527466e-02
5.734658800065517426e-03
7.896208204329013824e-03
-4.645030573010444641e-02
2.284634858369827271e-02
-3.357461094856262207e-02
-6.517492979764938354e-02
4.142170399427413940e-02
-8.174004405736923218e-02
7.187700271606445312e-02
5.672577023506164551e-02
-2.693017944693565369e-02
-3.880352899432182312e-02
-8.424985408782958984e-02
4.947326704859733582e-02
-7.782263681292533875e-03
9.256668388843536377e-02
1.682130503468215466e-03
1.214726492762565613e-01
-5.731160938739776611e-02
-6.631365418434143066e-02
5.399257689714431763e-02
-3.905898705124855042e-02
-1.402929611504077911e-02
6.216949969530105591e-02
1.739767566323280334e-02
-6.017035618424415588e-02
-2.786401845514774323e-02
6.094980612397193909e-02
7.140656467527151108e-03
-5.762445926666259766e-02
1.956715807318687439e-02
2.510572783648967743e-02
-5.150777101516723633e-02
-4.287922382354736328e-02
4.243720695376396179e-02
-2.724010683596134186e-02
-6.084796786308288574e-02
8.434521965682506561e-03
4.734521731734275818e-02
5.524109676480293274e-02
-3.017178550362586975e-02
-5.093944817781448364e-02
1.773269288241863251e-02
1.057462999597191811e-03
-4.563933983445167542e-02
1.466339174658060074e-02
-5.071247369050979614e-02
1.710495539009571075e-02
5.449740588665008545e-02
3.163150697946548462e-02
-6.359369307756423950e-02
5.825916677713394165e-02
-7.475873827934265137e-02
6.603027880191802979e-02
-6.685207039117813110e-02
-5.365935713052749634e-02
2.566169016063213348e-02
5.008983612060546875e-02
-3.204466402530670166e-02
2.234129235148429871e-03
2.776815555989742279e-02
7.753707468509674072e-02
9.551788121461868286e-02
-1.972858048975467682e-02
2.026233635842800140e-02
-2.359511330723762512e-02
4.640514031052589417e-02
-8.603758364915847778e-02
3.556149080395698547e-02
-7.300643622875213623e-02
5.507420003414154053e-02
3.926875069737434387e-02
4.366752982605248690e-04
-7.784776389598846436e-02
3.762010857462882996e-02
6.829473376274108887e-02
-4.572217911481857300e-02
5.032957345247268677e-02
-5.384238809347152710e-02
5.435166880488395691e-02
-8.117315173149108887e-02
1.845756731927394867e-02
-9.307727962732315063e-02
-3.721084073185920715e-02
4.880366846919059753e-02
-4.673602804541587830e-02
1.065039169043302536e-02
9.021493047475814819e-02
3.898046910762786865e-02
-7.894413545727729797e-03
-4.773246869444847107e-02
5.225942656397819519e-02
-5.405588075518608093e-02
1.027413904666900635e-01
-4.001944512128829956e-02
9.046033769845962524e-02
2.114199288189411163e-02
3.642072901129722595e-02
4.948638752102851868e-02
-7.993713021278381348e-02
-8.286054432392120361e-02
6.774391233921051025e-02
-4.376515746116638184e-02
-1.150826644152402878e-02
-8.996103703975677490e-02
3.404039889574050903e-02
-5.418386776000261307e-03
7.030184566974639893e-02
9.336715936660766602e-02
-2.043361775577068329e-02
5.244098603725433350e-02
2.117760106921195984e-02
8.105424232780933380e-03
2.635644003748893738e-02
2.770061604678630829e-02
8.560462296009063721e-02
-6.999694555997848511e-02
-1.438162475824356079e-01
-4.902071133255958557e-02
5.189938843250274658e-02
-3.781225532293319702e-02
-3.717070817947387695e-02
-1.243441551923751831e-02
-1.522810012102127075e-01
5.931055918335914612e-02
4.779203981161117554e-02
-1.043747067451477051e-01
-1.477006375789642334e-01
-9.863825142383575439e-02
3.189782798290252686e-02
4.793118685483932495e-02
1.392381079494953156e-02
-4.030391946434974670e-02
4.491060972213745117e-02
4.036434739828109741e-02
3.219798207283020020e-02
-4.122717678546905518e-02
2.675490640103816986e-02
-2.093063853681087494e-02
-4.512969031929969788e-02
-9.513705968856811523e-02
-9.428545087575912476e-02
8.196315728127956390e-03
-5.739295389503240585e-03
-2.136628888547420502e-02
-1.050790399312973022e-01
-1.515292469412088394e-02
-1.703372038900852203e-02
-1.588273607194423676e-02
5.880946293473243713e-02
-6.807106733322143555e-02
8.508939296007156372e-02
-2.523651346564292908e-02
7.031027972698211670e-02
-5.967370420694351196e-02
4.514575377106666565e-02
1.496685296297073364e-02
-7.727689296007156372e-02
-2.835057675838470459e-02
3.758312901481986046e-03
8.167563378810882568e-02
-3.715194016695022583e-02
1.154674962162971497e-01
2.373329922556877136e-02
-9.533546864986419678e-02
-1.609842851758003235e-02
-8.627256751060485840e-02
-1.146020963788032532e-01
-8.094457536935806274e-02
-5.776263773441314697e-03
-6.892260164022445679e-02
3.452432900667190552e-02
-3.237292985431849957e-04
1.023473516106605530e-01
1.737309619784355164e-02
-4.367552325129508972e-02
-8.674537762999534607e-03
-6.160243973135948181e-02
4.302191361784934998e-02
6.519009172916412354e-02
-1.057920753955841064e-01
-1.268108785152435303e-01
-5.528450012207031250e-02
-4.271606728434562683e-02
-7.527377456426620483e-02
-1.809070818126201630e-02
1.638072542846202850e-02
7.036516070365905762e-02
3.051611594855785370e-02
1.509855617769062519e-03
-1.003377214074134827e-01
7.007482647895812988e-02
2.012552879750728607e-02
4.647070914506912231e-02
-7.937371730804443359e-02
-7.703088223934173584e-02
3.240681067109107971e-02
-8.949095755815505981e-02
-1.423117797821760178e-02
2.796951495110988617e-02
-5.704549700021743774e-02
-1.108527556061744690e-02
6.619182974100112915e-02
5.824285373091697693e-02
-1.190544851124286652e-02
5.851006135344505310e-02
1.721576973795890808e-02
8.504739403724670410e-02
8.087246865034103394e-02
5.227898061275482178e-02
7.403368595987558365e-03
4.996704310178756714e-02
1.080758776515722275e-02
5.172270908951759338e-02
-3.816935047507286072e-02
-4.404425993561744690e-02
-2.776686474680900574e-02
-1.175076328217983246e-02
-8.779907226562500000e-02
-5.151948705315589905e-02
4.736036434769630432e-02
-9.479989111423492432e-02
4.466612264513969421e-02
-9.117794223129749298e-03
-6.849252432584762573e-02
5.785473436117172241e-02
4.044055193662643433e-02
-3.796523436903953552e-02
-4.090872779488563538e-02
-5.077754706144332886e-02
5.623288452625274658e-02
-6.854302436113357544e-02
7.099197059869766235e-02
-8.977301418781280518e-02
-4.092566203325986862e-03
-6.686129420995712280e-02
8.238665759563446045e-02
5.697259306907653809e-02
-4.679550975561141968e-02
-5.964929237961769104e-03
8.832988888025283813e-02
7.090046256780624390e-02
9.340241551399230957e-02
6.058942526578903198e-02
-9.213816374540328979e-02
2.449097111821174622e-02
7.746235281229019165e-02
-3.218267112970352173e-02
3.393252566456794739e-02
2.984765730798244476e-02
-7.199932634830474854e-02
-7.890617847442626953e-02
-9.502579271793365479e-02
-2.780782803893089294e-02
5.931762978434562683e-02
-1.248209364712238312e-02
6.979084014892578125e-02
3.880738094449043274e-02
-2.007351070642471313e-02
8.191209286451339722e-02
-1.559362746775150299e-02
-1.129334047436714172e-01
5.587389320135116577e-02
8.459138125181198120e-02
-7.762737572193145752e-02
-2.567181363701820374e-02
-6.971959769725799561e-02
-3.729378432035446167e-02
-9.366320818662643433e-02
-7.213284075260162354e-02
2.842496149241924286e-02
-1.269296742975711823e-03
5.468985065817832947e-03
-4.758373834192752838e-03
-1.575666852295398712e-02
3.710680641233921051e-03
-4.881566390395164490e-03
8.181125670671463013e-02
1.131582353264093399e-02
-5.384713411331176758e-02
-2.721175551414489746e-02
-4.732860717922449112e-03
2.268284792080521584e-03
-6.059427186846733093e-02
6.714567542076110840e-02
-2.399483928456902504e-03
6.684485822916030884e-02
-8.150885254144668579e-02
-7.494322210550308228e-02
5.271440371870994568e-02
3.168604895472526550e-02
-6.097519397735595703e-02
-9.455830603837966919e-02
5.021484196186065674e-02
-3.756266087293624878e-02
-3.036744892597198486e-02
-7.248425856232643127e-03
-8.492304384708404541e-02
7.388208806514739990e-02
-8.203192055225372314e-02
3.296896442770957947e-02
6.301072426140308380e-03
1.982940593734383583e-03
-1.622396148741245270e-02
1.657479256391525269e-02
-3.330678120255470276e-02
4.227810725569725037e-02
1.467431057244539261e-02
-1.537348330020904541e-02
-5.801767483353614807e-02
2.874980308115482330e-02
-9.124131500720977783e-02
6.481634825468063354e-02
3.881512954831123352e-02
3.938849270343780518e-02
1.086290627717971802e-01
1.279386132955551147e-02
-6.472847610712051392e-02
-2.798647852614521980e-03
7.529407739639282227e-02
-7.612184854224324226e-04
-2.647897042334079742e-02
-5.759557336568832397e-02
-5.675254762172698975e-02
8.054281026124954224e-02
-2.896082215011119843e-02
1.290724985301494598e-02
3.517099097371101379e-02
5.836627632379531860e-02
-1.800610311329364777e-02
-1.096726283431053162e-01
9.013721346855163574e-02
7.181357592344284058e-02
8.625575900077819824e-02
-8.074379293248057365e-04
-7.605750858783721924e-02
2.347478643059730530e-02
7.004506140947341919e-02
-2.405391447246074677e-02
-6.375038623809814453e-02
8.837134577333927155e-03
1.258819922804832458e-02
1.154712364077568054e-01
2.920443890616297722e-03
1.064779516309499741e-02
-1.111077889800071716e-01
8.863979578018188477e-02
-9.951698035001754761e-02
8.650298416614532471e-02
2.679235488176345825e-02
3.468856588006019592e-02
4.039651528000831604e-02
3.357216715812683105e-02
-4.490889981389045715e-02
-8.877623826265335083e-02
6.934741884469985962e-02
5.660321936011314392e-02
-1.847970299422740936e-03
8.204130455851554871e-03
-1.706108450889587402e-02
-6.021349504590034485e-02
7.771801203489303589e-02
3.252946585416793823e-02
-9.190018475055694580e-02
-6.829649209976196289e-02
-3.863468393683433533e-02
-8.730761706829071045e-02
5.524102225899696350e-02
-4.480098932981491089e-02
-5.253130197525024414e-02
4.912578687071800232e-02
6.969353556632995605e-02
1.180431768298149109e-01
4.048172011971473694e-02
-2.383926417678594589e-03
8.745603263378143311e-02
6.048681959509849548e-02
-1.930448226630687714e-03
4.262496158480644226e-02
-5.809297319501638412e-03
3.193311765789985657e-02
-5.870834458619356155e-03
6.833199411630630493e-02
-1.134344935417175293e-01
6.296036392450332642e-02
-4.369293805211782455e-03
-4.221668466925621033e-03
7.420204579830169678e-02
-3.293297067284584045e-02
-2.092877548420801759e-04
1.099465787410736084e-02
-6.299041211605072021e-02
-6.246731430292129517e-02
-8.344671130180358887e-02
4.838463291525840759e-02
5.216469243168830872e-02
2.746979705989360809e-03
4.502477589994668961e-03
-2.031498402357101440e-02
4.467820376157760620e-02
-1.026812493801116943e-01
6.807253509759902954e-02
-2.986257337033748627e-02
5.045108497142791748e-02
8.390735834836959839e-03
2.224811352789402008e-02
-2.988328598439693451e-02
7.181114703416824341e-02
4.644375294446945190e-02
-3.542273491621017456e-02
4.662800929509103298e-04
1.985327154397964478e-02
1.881419122219085693e-02
-3.856631740927696228e-02
7.680326700210571289e-02
4.381506145000457764e-02
4.406609013676643372e-02
3.411171957850456238e-02
6.568052619695663452e-02
4.133269563317298889e-02
-9.308217465877532959e-02
-3.172759665176272392e-03
-9.243103116750717163e-02
-7.914369553327560425e-02
8.283216506242752075e-02
2.735765464603900909e-02
4.181731119751930237e-02
4.471594840288162231e-02
9.264621138572692871e-02
-2.699584700167179108e-02
-5.097295157611370087e-03
-2.100756019353866577e-02
-4.607110470533370972e-02
-1.581061631441116333e-02
5.783962830901145935e-02
9.075052291154861450e-02
-8.090241998434066772e-02
7.356560975313186646e-02
3.117529675364494324e-02
-7.347810268402099609e-02
6.419412046670913696e-02
-9.110528230667114258e-02
5.226258188486099243e-02
-8.049403876066207886e-02
-7.933165132999420166e-02
9.331165812909603119e-03
5.890922248363494873e-02
-5.924946069717407227e-02
4.706006497144699097e-02
-4.374970868229866028e-02
-9.252488613128662109e-02
1.604967378079891205e-02
-9.692767262458801270e-02
-5.173085629940032959e-02
-9.100606292486190796e-02
4.124311730265617371e-03
-6.129689142107963562e-02
4.115791991353034973e-02
5.909974873065948486e-02
-2.044063247740268707e-02
-7.480213791131973267e-02
4.668590053915977478e-02
6.914690136909484863e-02
9.444686025381088257e-02
-9.936624020338058472e-02
-7.639509439468383789e-02
-4.645508900284767151e-02
-6.406173110008239746e-02
-6.198948249220848083e-02
-8.271522819995880127e-02
7.159321010112762451e-02
-6.845348328351974487e-02
6.669156253337860107e-02
7.492697797715663910e-03
2.818659506738185883e-02
5.705242976546287537e-02
-1.956558786332607269e-02
-5.378592014312744141e-02
-9.950049966573715210e-02
4.029150307178497314e-02
-7.817243784666061401e-02
-9.769837558269500732e-02
1.028598845005035400e-01
1.887824619188904762e-03
5.080823972821235657e-02
3.267799690365791321e-02
9.543714672327041626e-02
3.213374689221382141e-02
4.191572964191436768e-02
-4.966639727354049683e-02
-4.224564880132675171e-02
4.469173774123191833e-02
5.004373937845230103e-02
2.093651145696640015e-02
7.200138643383979797e-03
-4.567130282521247864e-02
8.147876360453665257e-04
-8.887046575546264648e-02
-4.160590097308158875e-02
-6.886598467826843262e-02
-3.273727372288703918e-02
-8.342577517032623291e-02
-3.227943181991577148e-02
-7.833724468946456909e-02
-5.104536190629005432e-02
7.875379920005798340e-02
-4.364664852619171143e-02
6.613803654909133911e-02
3.093143366277217865e-02
-1.000815853476524353e-01
6.462413817644119263e-02
3.531116247177124023e-02
-6.996638327836990356e-02
-6.813164800405502319e-02
9.870204143226146698e-03
6.836137920618057251e-02
-8.117124438285827637e-02
4.211199283599853516e-02
3.031560592353343964e-02
-7.388414442539215088e-02
8.015285432338714600e-02
-1.036112010478973389e-01
3.791124909184873104e-04
6.521095056086778641e-03
-6.851477921009063721e-02
-3.948556631803512573e-02
-9.828868508338928223e-02
-1.471124496310949326e-02
-4.315052181482315063e-02
-5.576655641198158264e-02
-1.979916356503963470e-02
5.750457942485809326e-02
-7.872939109802246094e-02
4.551394283771514893e-02
-9.166201204061508179e-02
-5.037867277860641479e-02
2.573769353330135345e-02
8.150748908519744873e-02
-6.851435452699661255e-02
1.087429821491241455e-01
-4.203034192323684692e-02
1.236432697623968124e-02
-5.523644015192985535e-02
7.450324017554521561e-03
9.119457751512527466e-02
-4.289908707141876221e-02
-8.936466276645660400e-02
-1.479964517056941986e-02
-4.762283340096473694e-02
8.529175072908401489e-03
7.601287215948104858e-02
2.156920544803142548e-02
7.917642593383789062e-02
1.914186961948871613e-02
-4.104551300406455994e-02
3.978108614683151245e-02
-1.631662435829639435e-02
-2.844038186594843864e-03
4.798296466469764709e-02
1.680585928261280060e-02
-3.367364034056663513e-02
4.179141670465469360e-02
-7.002292550168931484e-04
-2.777097001671791077e-02
-5.177420005202293396e-02
-6.029688939452171326e-02
4.651767760515213013e-02
-4.913209006190299988e-02
-4.346599057316780090e-02
-7.763690501451492310e-02
4.634887445718050003e-03
-5.805871635675430298e-02
-4.858879372477531433e-02
7.365428656339645386e-02
-2.915707044303417206e-02
3.360311686992645264e-02
1.809008419513702393e-02
-5.790273845195770264e-02
-6.739173829555511475e-02
-1.691969484090805054e-02
-1.231741067022085190e-02
3.433092683553695679e-02
2.579470910131931305e-02
-3.507078811526298523e-02
-1.413032598793506622e-02
2.378364093601703644e-03
-9.067663550376892090e-02
-6.789935380220413208e-02
8.517973870038986206e-02
-7.763315737247467041e-02
4.181181546300649643e-03
7.157754898071289062e-02
-9.905362874269485474e-02
-7.472404092550277710e-02
1.203654427081346512e-02
8.210328221321105957e-02
-8.975873887538909912e-02
-4.086988791823387146e-02
7.286967709660530090e-03
-8.793620765209197998e-02
4.400803148746490479e-02
4.613629542291164398e-03
-7.673802226781845093e-02
-8.667515963315963745e-02
-5.259320512413978577e-02
2.616947283968329430e-03
7.418891787528991699e-02
7.944352179765701294e-02
4.826260730624198914e-02
6.441501528024673462e-02
1.122068054974079132e-02
3.296121954917907715e-02
-1.692748256027698517e-02
-4.395908489823341370e-02
4.958866536617279053e-02
3.305867686867713928e-02
4.192375764250755310e-02
1.438190974295139313e-02
8.709835819900035858e-03
2.063727937638759613e-02
8.044973760843276978e-02
-8.250159770250320435e-02
4.671915620565414429e-02
-2.009206824004650116e-02
4.846236482262611389e-02
4.723194241523742676e-02
-3.123534843325614929e-03
-4.526302218437194824e-02
3.264793381094932556e-02
-7.605925947427749634e-02
6.178814172744750977e-02
7.381296157836914062e-02
-7.300259172916412354e-02
9.203508496284484863e-02
4.189518466591835022e-02
-8.788345381617546082e-03
-4.218270257115364075e-02
-3.411696478724479675e-02
-5.643732100725173950e-02
-3.463476896286010742e-02
-2.385836467146873474e-02
-6.740114837884902954e-02
-1.004803255200386047e-01
-3.976372256875038147e-02
5.595585703849792480e-02
-1.955937407910823822e-02
2.613642625510692596e-02
-5.149658396840095520e-02
-4.651273787021636963e-02
-1.138788461685180664e-02
-1.457810495048761368e-02
4.419139027595520020e-02
6.384538859128952026e-02
-5.672358348965644836e-02
-9.419192792847752571e-04
1.755505427718162537e-02
-6.631530076265335083e-02
-5.401956383138895035e-03
-8.589986711740493774e-02
3.478464111685752869e-02
9.116187691688537598e-02
3.427363187074661255e-02
7.049157470464706421e-02
-3.558782860636711121e-02
7.312174886465072632e-02
-3.788407146930694580e-02
-9.698931127786636353e-02
1.070779860019683838e-01
-5.464732274413108826e-02
-7.677372545003890991e-02
4.083675518631935120e-02
4.029605165123939514e-02
-4.008727520704269409e-02
7.071300595998764038e-02
3.509601578116416931e-02
2.799311839044094086e-02
1.875834725797176361e-02
4.654036089777946472e-02
-1.331611443310976028e-02
-2.568832412362098694e-02
-2.052068710327148438e-02
-2.445234451442956924e-03
-7.269161939620971680e-02
5.319700017571449280e-02
4.219409078359603882e-02
-3.025032952427864075e-02
-2.017837762832641602e-02
-3.141068294644355774e-02
-9.700610488653182983e-02
1.420297659933567047e-03
-5.128451623022556305e-03
3.470536693930625916e-02
7.681594043970108032e-02
-3.422873094677925110e-02
6.913938373327255249e-02
-4.787442460656166077e-02
6.642707437276840210e-02
8.209653943777084351e-02
2.952511608600616455e-02
7.240699231624603271e-02
-1.214204006828367710e-03
1.286640670150518417e-02
6.422338634729385376e-02
-1.023166403174400330e-01
5.891828238964080811e-02
7.321496307849884033e-02
-1.011893972754478455e-01
3.628402948379516602e-02
7.571624219417572021e-02
-3.124598227441310883e-02
4.669818282127380371e-02
8.031824976205825806e-02
8.596553467214107513e-03
-8.846142888069152832e-02
-4.810829833149909973e-02
-4.899284243583679199e-02
2.341009862720966339e-02
7.570959627628326416e-02
-7.467466592788696289e-02
-8.792715519666671753e-02
-8.978658169507980347e-02
-5.373574048280715942e-02
3.647303581237792969e-02
-5.765409767627716064e-02
8.549477905035018921e-03
2.635949291288852692e-02
-5.702552152797579765e-04
6.291449069976806641e-02
-2.254422055557370186e-03
-3.370171040296554565e-02
-5.697835981845855713e-02
-6.972829252481460571e-02
5.962824448943138123e-02
8.092179894447326660e-02
4.557264968752861023e-02
2.337807975709438324e-02
1.221498847007751465e-02
3.001805394887924194e-02
-8.611403405666351318e-02
7.538437843322753906e-02
1.060770452022552490e-02
5.970150604844093323e-02
-6.869907677173614502e-02
7.194828242063522339e-02
3.672043234109878540e-02
-4.727005586028099060e-02
8.344413340091705322e-02
-7.967930287122726440e-02
3.548273444175720215e-02
-2.449733205139636993e-02
-7.762226462364196777e-02
5.163332447409629822e-02
-5.946289747953414917e-02
4.125117138028144836e-02
-4.234984889626502991e-02
-8.237322419881820679e-02
2.025331184267997742e-02
6.429453194141387939e-02
-1.866289041936397552e-02
6.236395612359046936e-02
5.840946361422538757e-02
-3.237487748265266418e-02
3.700751066207885742e-02
-2.490628138184547424e-02
6.878048926591873169e-02
-5.707792937755584717e-02
1.136395658249966800e-04
5.778607726097106934e-02
5.605820193886756897e-02
7.659148890525102615e-03
-9.362082928419113159e-02
-5.490699782967567444e-03
-4.850622266530990601e-02
-4.707422479987144470e-02
7.610137015581130981e-02
4.911218956112861633e-02
6.590656191110610962e-02
-5.395586416125297546e-02
-4.869955591857433319e-03
-2.138992026448249817e-02
6.311601959168910980e-03
-1.722136698663234711e-02
-6.603845208883285522e-02
-3.293340280652046204e-02
-5.048485938459634781e-03
-8.645959198474884033e-02
4.267620667815208435e-02
6.698411703109741211e-02
-1.423906651325523853e-04
3.772515337914228439e-03
-4.575872793793678284e-03
-5.156377702951431274e-02
6.300579756498336792e-03
-6.011240929365158081e-02
8.638705313205718994e-02
7.573163509368896484e-02
-3.619395568966865540e-02
-2.161894924938678741e-02
-6.711573153734207153e-02
7.330274581909179688e-02
6.492380052804946899e-02
6.099785491824150085e-02
3.692552074790000916e-02
1.591435261070728302e-02
8.917139470577239990e-02
-8.497397601604461670e-02
9.888786822557449341e-03
-5.000469461083412170e-02
-1.880452036857604980e-02
-8.013062924146652222e-02
-1.555331330746412277e-02
8.913818746805191040e-02
-1.309546828269958496e-02
8.168271929025650024e-02
4.130464047193527222e-02
3.960228711366653442e-02
1.230269670486450195e-02
-5.679316446185112000e-02
1.164305675774812698e-02
5.785575602203607559e-03
1.268167700618505478e-02
-6.289060227572917938e-03
-1.872854121029376984e-02
-6.995298713445663452e-02
3.205105289816856384e-02
-3.321301564574241638e-02
-4.407942667603492737e-02
-3.918727114796638489e-02
2.421145513653755188e-02
-5.550078582018613815e-03
-3.903186321258544922e-02
-4.879397526383399963e-02
-6.043370440602302551e-02
4.248610883951187134e-02
7.201662287116050720e-03
-5.251460522413253784e-02
-1.470221765339374542e-02
1.601410657167434692e-02
-8.912010490894317627e-02
7.170882076025009155e-02
-8.530533313751220703e-02
4.311484470963478088e-02
-5.339789018034934998e-02
7.726363837718963623e-02
-3.997761756181716919e-02
5.660742986947298050e-03
-2.117852866649627686e-02
-1.973973400890827179e-02
1.045719236135482788e-01
-1.278528571128845215e-01
-7.783617079257965088e-02
6.918507814407348633e-02
3.366055712103843689e-02
-7.364304363727569580e-02
2.598658390343189240e-02
4.390434920787811279e-02
-4.686876013875007629e-02
1.201490405946969986e-02
-4.992444813251495361e-02
-2.871132921427488327e-03
3.107191622257232666e-02
5.625238269567489624e-02
-3.443421795964241028e-02
-9.808688424527645111e-03
2.561287581920623779e-02
1.133384741842746735e-02
5.580518022179603577e-02
-1.004693135619163513e-01
-9.282757341861724854e-02
2.725187456235289574e-03
-1.380099914968013763e-02
-7.473276555538177490e-02
2.669338136911392212e-02
-1.032169722020626068e-02
2.219964936375617981e-02
-4.663667082786560059e-02
-5.256198346614837646e-02
-2.176671847701072693e-02
-9.778331220149993896e-02
2.952445484697818756e-02
-3.022638708353042603e-02
3.068630769848823547e-02
1.004431918263435364e-01
-1.123442724347114563e-01
6.412117183208465576e-02
3.563819825649261475e-02
-5.313026160001754761e-02
-9.475721418857574463e-02
3.575211390852928162e-02
1.296088006347417831e-02
-2.130129747092723846e-02
-1.332288887351751328e-02
4.533602390438318253e-03
-8.211757987737655640e-03
-9.400694072246551514e-02
-2.989890426397323608e-02
4.902732744812965393e-02
1.024627778679132462e-02
-7.950108498334884644e-03
7.365245372056961060e-02
9.702009707689285278e-02
6.235446035861968994e-02
5.937416851520538330e-02
-7.274910807609558105e-02
-9.286835789680480957e-02
6.778321415185928345e-02
3.004769235849380493e-02
-7.890729606151580811e-02
-1.706567034125328064e-02
-6.799455732107162476e-02
-6.195592135190963745e-02
-4.085942730307579041e-02
6.808397173881530762e-02
4.094253480434417725e-02
3.435709699988365173e-02
3.093321993947029114e-02
-8.670686930418014526e-02
-1.011825352907180786e-01
8.630702644586563110e-02
-8.326160721480846405e-03
1.175655517727136612e-02
4.496494680643081665e-02
7.863585650920867920e-02
-2.404854446649551392e-02
3.104510717093944550e-03
4.719859454780817032e-03
5.877292901277542114e-02
2.974430285394191742e-02
-5.772902071475982666e-02
-8.821252733469009399e-02
-7.387378811836242676e-02
2.441870793700218201e-02
-4.045046865940093994e-02
4.266333207488059998e-02
7.581929862499237061e-02
-6.120621412992477417e-02
3.043122403323650360e-02
-5.595614761114120483e-02
-3.677360713481903076e-02
-7.463187724351882935e-02
-9.990107268095016479e-02
-7.648076117038726807e-02
5.244188010692596436e-02
-2.312687411904335022e-02
4.921598732471466064e-02
6.210013851523399353e-02
-3.994737938046455383e-02
-7.393416762351989746e-02
7.694520056247711182e-02
-1.036696485243737698e-03
-4.638695623725652695e-03
-5.270678550004959106e-02
-6.975983828306198120e-02
-7.210277020931243896e-02
-9.969919919967651367e-03
7.567261904478073120e-02
3.456545621156692505e-02
7.054448127746582031e-02
9.214594215154647827e-02
-3.054292313754558563e-02
-6.618999689817428589e-02
-5.592078343033790588e-02
-1.301162131130695343e-02
2.939040958881378174e-02
-9.183860383927822113e-03
-5.379519239068031311e-02
6.595820933580398560e-02
-7.074785977602005005e-02
1.548223808640614152e-04
-7.618709653615951538e-02
-8.795656263828277588e-02
-3.745286911725997925e-02
2.997889928519725800e-02
6.873620301485061646e-02
5.106636509299278259e-02
6.000090762972831726e-02
-4.409516230225563049e-02
3.620001301169395447e-02
4.476321488618850708e-02
6.206581369042396545e-02
-3.188909217715263367e-02
-4.012237861752510071e-02
6.947847083210945129e-03
5.278372019529342651e-02
1.348629128187894821e-02
5.473497882485389709e-02
-5.374599993228912354e-02
-3.946420177817344666e-02
-6.180553138256072998e-02
-6.334137171506881714e-02
-5.513675510883331299e-02
3.041293658316135406e-02
1.568366773426532745e-02
-3.556921705603599548e-02
-3.039822168648242950e-02
5.344360321760177612e-02
-3.720854595303535461e-02
-2.282494679093360901e-02
4.691051319241523743e-02
5.209714919328689575e-02
-7.501433044672012329e-02
6.039755046367645264e-02
5.931950733065605164e-02
3.331669792532920837e-02
-3.153233230113983154e-02
-7.350254058837890625e-02
-6.716986000537872314e-02
-3.019094653427600861e-02
1.301367860287427902e-02
-6.828670203685760498e-02
8.286720514297485352e-02
-7.203605026006698608e-02
6.063900515437126160e-02
2.735710702836513519e-02
-1.959334872663021088e-02
-5.137678980827331543e-02
-2.361940406262874603e-02
7.444099057465791702e-03
-1.883552782237529755e-02
4.041232913732528687e-02
5.908051133155822754e-02
4.874072223901748657e-02
8.766061626374721527e-03
-7.506200671195983887e-02
6.323541700839996338e-02
7.013178616762161255e-02
2.440141700208187103e-02
-7.072030007839202881e-02
7.752820849418640137e-02
2.713694237172603607e-02
-4.228897765278816223e-02
-3.239491581916809082e-02
-7.706429809331893921e-02
7.135341875255107880e-03
3.830746561288833618e-02
-3.680531308054924011e-02
6.690805405378341675e-02
5.156176537275314331e-02
5.321896821260452271e-02
-7.662057131528854370e-02
5.650416947901248932e-03
1.985142752528190613e-02
-4.746508970856666565e-02
-7.863817363977432251e-02
-8.636176586151123047e-02
2.450076490640640259e-02
3.685738146305084229e-02
4.915660247206687927e-02
-3.643634170293807983e-02
6.147508695721626282e-02
3.674651682376861572e-02
-4.341210424900054932e-02
3.746274486184120178e-02
-1.814339309930801392e-02
-8.477437496185302734e-02
1.258648280054330826e-02
8.060583472251892090e-02
-9.544254094362258911e-02
4.696441441774368286e-02
4.964127391576766968e-02
-5.452377721667289734e-02
-6.552591919898986816e-02
6.343852728605270386e-02
-6.939952075481414795e-02
7.130631059408187866e-02
-6.175229698419570923e-02
-5.418854299932718277e-03
-6.876511871814727783e-02
9.312198311090469360e-02
7.204093784093856812e-02
-7.756093889474868774e-02
3.291246294975280762e-02
1.188699156045913696e-02
-4.807395115494728088e-02
7.860157638788223267e-02
-6.088528409600257874e-02
7.425098121166229248e-02
6.465316563844680786e-02
5.350774154067039490e-02
-6.763519346714019775e-02
-7.962463796138763428e-02
9.129348397254943848e-02
-3.997803479433059692e-02
-3.907854482531547546e-02
3.972828015685081482e-02
4.242527857422828674e-02
5.176755785942077637e-02
3.490898991003632545e-03
-1.451975386589765549e-02
5.725334864109754562e-03
-5.253973603248596191e-02
-3.233607485890388489e-02
1.045235991477966309e-02
2.867091260850429535e-02
-2.246918715536594391e-02
-7.461925968527793884e-03
7.217407971620559692e-02
-6.209224462509155273e-02
-8.070497959852218628e-02
4.005599394440650940e-02
3.103288635611534119e-02
8.171441406011581421e-02
-8.561290055513381958e-02
3.112437762320041656e-02
-1.785853318870067596e-02
4.311468824744224548e-02
-7.516933139413595200e-03
3.173231706023216248e-02
1.695269159972667694e-02
-1.538433227688074112e-02
-2.219994366168975830e-02
-5.843897908926010132e-02
6.087874993681907654e-02
-1.072306744754314423e-02
-7.314206659793853760e-02
-7.952444255352020264e-02
-9.597226232290267944e-02
9.239669144153594971e-02
3.168480098247528076e-02
-1.597156375646591187e-02
6.751901004463434219e-03
-7.069136202335357666e-02
-1.035567559301853180e-02
2.051940932869911194e-02
-3.938047215342521667e-02
4.849519208073616028e-02
-6.813032180070877075e-02
-6.135217472910881042e-02
9.822296351194381714e-02
-5.034424830228090286e-03
4.422731697559356689e-02
-1.787472283467650414e-03
1.591873168945312500e-02
7.973350584506988525e-02
-4.113475233316421509e-02
4.628997668623924255e-02
2.594513352960348129e-04
1.037083119153976440e-01
-6.536422669887542725e-02
-5.802868679165840149e-02
-7.037495076656341553e-02
-4.025240428745746613e-03
6.725671887397766113e-02
-6.768269930034875870e-03
7.638268172740936279e-02
1.873504929244518280e-02
-1.080651804804801941e-01
6.436643004417419434e-02
7.335056364536285400e-02
3.231487050652503967e-02
-4.150681197643280029e-02
8.420122414827346802e-02
-6.359173357486724854e-02
6.262397021055221558e-02
8.038956671953201294e-02
5.081975087523460388e-02
8.024800568819046021e-02
1.516356505453586578e-02
7.151388097554445267e-03
5.802035797387361526e-03
9.203003346920013428e-02
3.544560447335243225e-02
-5.814649164676666260e-02
-2.653129585087299347e-02
4.324568808078765869e-02
6.776387244462966919e-02
3.203228861093521118e-02
9.815576672554016113e-02
-9.715722873806953430e-03
7.154491543769836426e-02
4.851867258548736572e-02
-3.419397026300430298e-02
5.612597800791263580e-03
-7.833991199731826782e-02
-2.194071933627128601e-02
2.415912784636020660e-02
3.932918608188629150e-02
-1.904783211648464203e-02
7.272479124367237091e-03
1.093353796750307083e-02
5.869323387742042542e-02
-4.881261661648750305e-02
-8.690340071916580200e-02
-4.840865358710289001e-02
-4.673614632338285446e-03
7.721392810344696045e-02
5.810925271362066269e-03
-1.265820860862731934e-02
-5.958215892314910889e-02
3.699697926640510559e-02
-5.008906871080398560e-02
4.367681965231895447e-02
4.908150061964988708e-02
-3.904961049556732178e-02
-6.292184442281723022e-02
5.155852809548377991e-02
-2.138504385948181152e-02
3.245714586228132248e-03
3.878385946154594421e-02
8.454559743404388428e-02
-6.163228303194046021e-02
2.654808014631271362e-02
8.466432988643646240e-02
4.905238747596740723e-02
9.770888835191726685e-03
6.279633194208145142e-02
3.073836117982864380e-02
-1.066945195198059082e-01
-2.536192722618579865e-02
-5.056219547986984253e-02
7.048480678349733353e-03
8.997135609388351440e-02
9.418858587741851807e-02
4.138790443539619446e-02
5.310204625129699707e-02
3.209628164768218994e-03
-5.912382528185844421e-02
-3.394155763089656830e-03
1.905445009469985962e-02
1.933552324771881104e-02
5.003196373581886292e-02
-4.919600114226341248e-02
-3.649483993649482727e-02
-1.510008703917264938e-02
-8.769161254167556763e-02
7.663393765687942505e-02
-3.449698165059089661e-02
-7.325033098459243774e-02
-7.530777901411056519e-02
2.399850822985172272e-02
8.055577427148818970e-02
-2.864370308816432953e-02
1.413429155945777893e-02
-1.635490357875823975e-02
-1.003079041838645935e-01
2.037332393229007721e-03
4.330697283148765564e-02
-6.297407299280166626e-02
1.205773279070854187e-02
8.040504157543182373e-02
5.077770724892616272e-02
7.442148774862289429e-02
6.449829041957855225e-02
-1.217896677553653717e-02
-1.650066860020160675e-02
9.943747520446777344e-02
-6.981997936964035034e-02
-2.014038898050785065e-02
7.058441173285245895e-03
6.621961295604705811e-02
1.300004590302705765e-02
-7.791551947593688965e-02
-5.566338449716567993e-02
5.229580402374267578e-02
1.493589137680828571e-03
2.309709973633289337e-02
-5.960283800959587097e-02
-1.472008228302001953e-02
5.356057733297348022e-02
-3.352563083171844482e-02
5.981603264808654785e-02
-3.666080161929130554e-02
-5.881733074784278870e-02
-6.939131021499633789e-02
1.052318066358566284e-01
9.554978460073471069e-02
-6.917668879032135010e-02
3.885205462574958801e-02
-3.777294233441352844e-02
4.281613975763320923e-02
-9.164632856845855713e-02
7.449309527873992920e-02
5.131987854838371277e-02
1.658530905842781067e-02
-4.676713794469833374e-02
-6.462570279836654663e-02
1.308737099170684814e-01
-8.249689638614654541e-02
5.094532668590545654e-02
3.472226485610008240e-02
-4.281941801309585571e-02
2.588485367596149445e-02
9.200717322528362274e-03
2.838827110826969147e-02
2.558166394010186195e-03
5.515202134847640991e-02
1.588846370577812195e-02
-4.525806754827499390e-02
-9.078288823366165161e-02
8.582174032926559448e-02
-2.970477566123008728e-02
3.499016165733337402e-02
5.223581567406654358e-02
-2.581408061087131500e-02
9.410559386014938354e-02
1.136192902922630310e-01
-7.175666838884353638e-02
5.260600894689559937e-02
-2.963080257177352905e-02
1.283676642924547195e-02
-2.520726993680000305e-02
2.257588133215904236e-02
-7.362181693315505981e-02
5.479083582758903503e-02
2.461300231516361237e-02
7.486908882856369019e-02
7.676445692777633667e-02
3.775227442383766174e-02
6.871554255485534668e-02
-8.317019790410995483e-02
-9.610134363174438477e-02
-2.238446474075317383e-02
6.379754096269607544e-02
-2.833302132785320282e-02
9.567123651504516602e-02
-2.636105753481388092e-03
-6.036985293030738831e-02
2.058283612132072449e-02
-4.042120650410652161e-02
-7.569704949855804443e-02
1.373338513076305389e-02
-6.630301475524902344e-02
5.635698139667510986e-02
-3.919057920575141907e-02
4.477923735976219177e-02
3.158438205718994141e-02
-5.503211542963981628e-02
-8.861739933490753174e-02
-3.722295910120010376e-02
3.706499561667442322e-02
6.053468957543373108e-02
4.918808117508888245e-02
-2.747710049152374268e-02
-8.772131800651550293e-02
-9.833317995071411133e-02
-4.854158684611320496e-02
-6.307631731033325195e-02
1.846700720489025116e-02
8.490731567144393921e-02
-3.401862457394599915e-02
-3.760653361678123474e-02
6.084920838475227356e-02
-8.072269707918167114e-02
-7.281629741191864014e-02
3.611298650503158569e-02
7.695043087005615234e-02
-1.017944514751434326e-01
-1.745400018990039825e-02
1.623717136681079865e-02
-8.937851339578628540e-02
-7.716040313243865967e-02
-4.925210028886795044e-02
3.419984504580497742e-02
-6.240350008010864258e-02
-4.917478188872337341e-02
-8.987481147050857544e-02
-7.367805391550064087e-02
-8.330955356359481812e-02
4.835418984293937683e-02
-4.049211367964744568e-02
3.730081021785736084e-02
-6.778187304735183716e-02
-3.855054080486297607e-02
6.952751427888870239e-03
-2.623901143670082092e-02
-9.337427467107772827e-02
7.460977882146835327e-02
-8.051077276468276978e-02
2.842142991721630096e-02
-2.337799407541751862e-02
-2.795465290546417236e-03
-1.239139027893543243e-02
-7.880915701389312744e-02
3.731104359030723572e-02
-5.650505423545837402e-02
1.946972566656768322e-03
-5.501784756779670715e-02
-2.047909051179885864e-02
-3.175355866551399231e-02
3.489686176180839539e-02
-5.881767347455024719e-02
-5.980637297034263611e-02
5.508652701973915100e-02
-3.835603594779968262e-02
5.209622532129287720e-02
-2.305617742240428925e-02
7.139536738395690918e-02
-5.009987950325012207e-02
5.278026685118675232e-02
-1.997396163642406464e-02
9.789600223302841187e-02
4.327407851815223694e-02
-2.270329557359218597e-02
-5.385635793209075928e-02
6.770212203264236450e-02
6.886107474565505981e-02
-1.826825924217700958e-02
2.738405019044876099e-02
4.996189847588539124e-02
-8.669133298099040985e-03
-3.695122525095939636e-02
8.069235831499099731e-02
2.703842706978321075e-02
-3.212643787264823914e-02
7.110396027565002441e-02
-4.589600022882223129e-03
6.017974391579627991e-02
-4.386298358440399170e-02
-7.004512846469879150e-02
-4.310353845357894897e-02
2.292214334011077881e-02
