7.341274991631507874e-03
-5.029138922691345215e-02
-1.258654519915580750e-02
-1.857355795800685883e-02
-5.853845179080963135e-02
-1.900776475667953491e-02
3.735047206282615662e-02
-7.510136067867279053e-02
-5.804129689931869507e-02
-7.303871959447860718e-02
3.487215563654899597e-02
-3.445437550544738770e-02
5.391056090593338013e-02
4.748952016234397888e-02
-5.924981832504272461e-02
1.563297212123870850e-02
-2.448599319905042648e-03
8.686891943216323853e-02
5.320443212985992432e-02
-8.701995760202407837e-02
7.210810482501983643e-02
-4.130244627594947815e-02
3.861716389656066895e-02
-7.146598398685455322e-02
-5.526099726557731628e-02
-4.353151842951774597e-02
-1.899696514010429382e-02
7.465799897909164429e-02
8.789423853158950806e-02
7.173974066972732544e-03
5.092936754226684570e-02
6.890473514795303345e-02
-6.649247556924819946e-02
-8.598602563142776489e-02
-9.918354451656341553e-03
6.704911589622497559e-02
1.196166500449180603e-02
-1.293607894331216812e-02
-5.162521079182624817e-02
-8.230330049991607666e-02
1.607127860188484192e-02
-6.056045647710561752e-03
2.720785513520240784e-02
-4.931620787829160690e-03
-3.484016656875610352e-02
1.510269101709127426e-02
-8.088654838502407074e-03
-6.641373783349990845e-02
7.728441059589385986e-02
-1.070373971015214920e-02
6.474912911653518677e-02
-2.658383920788764954e-02
-5.642439797520637512e-02
-6.682435423135757446e-02
1.562923192977905273e-02
6.083720549941062927e-02
-1.145392190665006638e-02
7.415819913148880005e-02
-2.872716449201107025e-02
3.892606124281883240e-02
-3.667550161480903625e-02
1.826835051178932190e-02
-2.434971928596496582e-02
4.802250862121582031e-02
1.073058787733316422e-02
7.679576426744461060e-02
8.398777246475219727e-02
3.668267652392387390e-02
1.559181511402130127e-02
-6.584746390581130981e-02
-7.760463282465934753e-03
-7.703170180320739746e-02
3.161938861012458801e-02
8.356740325689315796e-02
-8.404418826103210449e-03
4.487682506442070007e-02
7.971617579460144043e-02
-6.764446943998336792e-02
5.759738758206367493e-02
-8.268136531114578247e-03
6.183196604251861572e-02
-6.412598304450511932e-04
-7.180229574441909790e-02
4.151020944118499756e-02
-9.055597707629203796e-03
2.101173065602779388e-02
-2.081854082643985748e-02
3.117963671684265137e-02
7.790875434875488281e-02
-2.476614154875278473e-02
-7.961352169513702393e-02
-8.548069745302200317e-02
-1.123698148876428604e-02
-4.104850068688392639e-02
-6.178606674075126648e-02
-1.419951580464839935e-02
-6.323789060115814209e-02
-6.068474799394607544e-02
4.396649450063705444e-02
1.448770705610513687e-02
-2.751954272389411926e-02
-1.528807356953620911e-02
-7.535001635551452637e-02
-8.023189753293991089e-02
-1.090110279619693756e-02
2.670149318873882294e-02
-3.157829493284225464e-02
-2.504688128829002380e-02
-6.057827547192573547e-02
8.368620276451110840e-02
-4.706037044525146484e-02
6.761460751295089722e-02
1.897166948765516281e-03
8.039046823978424072e-02
-8.615850657224655151e-02
-5.593036487698554993e-02
-7.812471687793731689e-02
-5.403818190097808838e-02
-7.560984045267105103e-02
-7.978573441505432129e-02
1.594668067991733551e-02
8.552909642457962036e-02
-5.838954821228981018e-02
8.154239505529403687e-02
-3.101231530308723450e-02
-1.953341998159885406e-02
-5.572441220283508301e-02
2.633850276470184326e-02
-1.169264223426580429e-02
-8.891054429113864899e-03
-8.466640859842300415e-02
-5.995711684226989746e-02
8.845801465213298798e-03
-8.832027018070220947e-02
7.427917420864105225e-02
7.485896348953247070e-02
4.825865849852561951e-02
-5.701706558465957642e-02
-8.273770660161972046e-02
-1.512371189892292023e-02
4.073960240930318832e-03
-5.321489274501800537e-02
3.373587504029273987e-02
8.432891964912414551e-02
6.453390419483184814e-02
6.330477446317672729e-02
-4.037508741021156311e-02
1.522009819746017456e-02
-2.797426469624042511e-02
6.957991421222686768e-02
-4.303489252924919128e-02
-3.567725419998168945e-02
-6.617983430624008179e-02
-7.624761015176773071e-02
3.501663357019424438e-02
-1.019824878312647343e-03
-2.625740133225917816e-02
-6.848054379224777222e-02
2.168449014425277710e-02
-8.274818956851959229e-02
6.040591746568679810e-03
-8.277221769094467163e-02
6.255251914262771606e-02
1.076102815568447113e-02
-3.271110728383064270e-02
3.737391903996467590e-02
6.761233508586883545e-02
4.721560701727867126e-02
7.891823351383209229e-02
-2.447653934359550476e-02
6.299303472042083740e-02
-2.494121901690959930e-02
-8.851617574691772461e-03
-5.847186967730522156e-02
1.571838185191154480e-02
4.415915906429290771e-02
3.738485276699066162e-02
2.446048147976398468e-02
3.833987191319465637e-02
-8.166163414716720581e-02
-3.055667504668235779e-02
-8.800556883215904236e-03
-4.522600024938583374e-02
5.631129816174507141e-02
2.329464629292488098e-02
6.554014980792999268e-02
-3.773226961493492126e-02
-9.867335669696331024e-03
4.760175570845603943e-02
5.483056232333183289e-02
-6.500770896673202515e-02
1.369621884077787399e-02
-3.375587239861488342e-02
3.803226351737976074e-02
4.537368565797805786e-02
3.644475713372230530e-02
2.405378594994544983e-02
5.655932053923606873e-02
6.528790295124053955e-02
8.156173676252365112e-02
-6.130437180399894714e-02
-5.511302128434181213e-02
-5.986361205577850342e-02
-8.002854883670806885e-02
-2.983381412923336029e-02
-7.613509893417358398e-02
-5.686896294355392456e-02
1.294836495071649551e-02
-1.378551777452230453e-02
-3.177876397967338562e-02
-8.312833495438098907e-03
6.205995753407478333e-02
-5.345833301544189453e-02
1.525670569390058517e-02
6.129076704382896423e-02
-4.589897114783525467e-03
6.906989961862564087e-02
4.946290701627731323e-02
-5.177010223269462585e-02
3.225804865360260010e-02
2.378775551915168762e-02
-2.896807715296745300e-02
2.868555486202239990e-02
-6.629720330238342285e-02
-5.821237340569496155e-02
6.886968761682510376e-02
-6.182430312037467957e-02
2.456911467015743256e-02
8.816558867692947388e-02
6.138259079307317734e-03
-2.846382185816764832e-02
5.783851072192192078e-02
7.190739363431930542e-02
2.522910386323928833e-02
-4.418951645493507385e-02
-5.784324184060096741e-02
8.014596253633499146e-02
5.181005690246820450e-03
-5.381651967763900757e-02
-5.943997204303741455e-02
-2.610911615192890167e-03
5.212813988327980042e-02
7.093091309070587158e-02
4.457971081137657166e-02
-3.274113684892654419e-02
3.200769796967506409e-02
-7.123640924692153931e-02
1.150768063962459564e-02
8.031439036130905151e-02
8.097441866993904114e-03
8.627659082412719727e-02
-7.127875089645385742e-02
-3.518831217661499977e-03
-6.629794090986251831e-02
2.806496433913707733e-02
8.108897507190704346e-02
1.639329083263874054e-02
3.358961641788482666e-02
-1.280700881034135818e-02
-7.576078176498413086e-02
2.885025553405284882e-02
-3.454456850886344910e-02
-2.800800721161067486e-04
1.054082158952951431e-02
2.659016102552413940e-02
8.539735525846481323e-02
-8.533382415771484375e-02
-8.400657214224338531e-03
-1.008844282478094101e-02
1.401218306273221970e-02
2.271593920886516571e-02
-1.317895017564296722e-02
-5.356068909168243408e-02
-3.861776739358901978e-02
-1.916456222534179688e-02
-8.753789961338043213e-02
5.712994560599327087e-02
4.112943261861801147e-02
5.929492413997650146e-02
-8.214761316776275635e-02
1.561477500945329666e-02
-7.275751233100891113e-02
4.058657214045524597e-02
-3.663516789674758911e-02
5.706908553838729858e-02
3.807970881462097168e-02
7.917643524706363678e-03
5.078493803739547729e-02
-5.344429984688758850e-02
4.646916687488555908e-02
7.033040374517440796e-02
3.940175101161003113e-02
-5.409295111894607544e-02
-8.667682856321334839e-02
-2.782179787755012512e-02
-3.708085045218467712e-02
9.953037835657596588e-03
1.959672197699546814e-03
4.931129515171051025e-02
3.952400758862495422e-02
8.308582752943038940e-02
1.899133808910846710e-02
-7.772110402584075928e-02
-5.293069779872894287e-02
6.231400743126869202e-02
8.005136251449584961e-02
-5.685127153992652893e-02
-2.537550032138824463e-02
2.399764582514762878e-02
-7.108566164970397949e-02
-3.823861107230186462e-02
-4.907740280032157898e-03
-8.670397102832794189e-02
-3.242560476064682007e-02
7.998275756835937500e-02
-1.203647628426551819e-02
6.157548050396144390e-04
-5.944429337978363037e-02
-5.079263076186180115e-02
-2.012662589550018311e-02
-4.344424232840538025e-02
-6.510274112224578857e-02
6.495343148708343506e-02
3.516091406345367432e-02
-1.450288924388587475e-03
-6.321948021650314331e-02
6.964442133903503418e-02
8.601365238428115845e-02
3.872726485133171082e-02
6.957799941301345825e-02
-2.968327701091766357e-02
-7.044777274131774902e-02
-2.954631345346570015e-03
8.387330919504165649e-02
2.824371866881847382e-02
8.877651416696608067e-04
3.575585782527923584e-02
4.525062441825866699e-02
-5.432507395744323730e-02
-7.314652949571609497e-02
-1.802885159850120544e-02
8.794752508401870728e-02
-5.484938994050025940e-02
-1.551312766969203949e-02
-1.429545227438211441e-02
4.091734066605567932e-02
-3.361334279179573059e-02
-4.376079887151718140e-02
2.581445872783660889e-02
-2.968555316329002380e-02
8.831581473350524902e-02
6.718839518725872040e-03
-8.735552430152893066e-02
-1.589043624699115753e-02
8.058580756187438965e-02
1.177887432277202606e-02
-7.503664493560791016e-02
-6.097035855054855347e-02
-9.916910901665687561e-03
1.400552410632371902e-02
-6.910679489374160767e-02
-4.932581633329391479e-02
-3.542910516262054443e-02
-3.840842749923467636e-03
1.141710672527551651e-02
-4.668646305799484253e-02
3.587569342926144600e-03
5.863740295171737671e-02
3.144316002726554871e-02
1.953434757888317108e-02
-1.916646957397460938e-02
-2.415320277214050293e-02
-5.237097665667533875e-02
-1.157992053776979446e-02
1.345448568463325500e-02
4.399158991873264313e-03
-3.056684322655200958e-02
8.216917514801025391e-02
-2.220448665320873260e-02
3.183795884251594543e-02
-3.330256417393684387e-02
6.127730384469032288e-02
-1.149182301014661789e-02
-4.881721735000610352e-02
1.897224597632884979e-02
-6.938856840133666992e-02
-3.335505723953247070e-02
5.562091991305351257e-02
-4.880201444029808044e-02
-5.704468488693237305e-02
4.382061585783958435e-02
-6.072125956416130066e-02
6.869333237409591675e-02
-1.012955559417605400e-03
-4.534071311354637146e-02
6.162128224968910217e-02
-8.471029251813888550e-02
5.534560605883598328e-02
8.348260819911956787e-02
-2.323032123968005180e-03
-2.138759754598140717e-02
-8.657551556825637817e-02
1.677891053259372711e-02
-6.712853908538818359e-02
-7.821661233901977539e-02
-2.045071497559547424e-02
2.061524614691734314e-02
-6.789030879735946655e-02
8.243896812200546265e-02
4.827956110239028931e-02
6.689730286598205566e-02
1.500426698476076126e-02
-6.980120390653610229e-02
-4.540516808629035950e-02
3.668865188956260681e-02
3.147521242499351501e-02
-6.269836425781250000e-02
1.174300722777843475e-02
8.790568262338638306e-02
1.392561383545398712e-02
-4.927122592926025391e-02
5.475006252527236938e-02
7.264535874128341675e-02
-4.953471571207046509e-02
4.220386222004890442e-02
3.662316501140594482e-02
7.258245348930358887e-02
4.299063980579376221e-02
5.643692612648010254e-02
-8.471868187189102173e-02
5.801866576075553894e-02
6.631101667881011963e-02
-5.704338848590850830e-02
5.378510057926177979e-02
-1.465849485248327255e-02
5.348841845989227295e-02
8.792809396982192993e-02
-1.750336401164531708e-02
-4.592842236161231995e-02
2.617213875055313110e-02
-5.681821703910827637e-02
-5.634123086929321289e-02
-3.935091942548751831e-02
3.904533386230468750e-02
5.216590315103530884e-02
-2.025222405791282654e-02
7.257797569036483765e-02
-1.564316079020500183e-02
5.365015566349029541e-02
4.014256596565246582e-02
2.275994746014475822e-03
3.257468715310096741e-02
4.608557745814323425e-02
1.457142457365989685e-02
8.087087422609329224e-02
1.993004232645034790e-02
5.241996422410011292e-02
-5.225658044219017029e-02
-7.473416626453399658e-02
8.132793009281158447e-03
-1.403104420751333237e-02
-7.617518305778503418e-02
-1.752222515642642975e-02
-3.209258662536740303e-03
3.798558562994003296e-02
8.275350555777549744e-03
1.979211717844009399e-02
1.823327504098415375e-02
-5.469343625009059906e-03
7.046154141426086426e-02
-3.391715884208679199e-02
1.346817240118980408e-02
4.048908501863479614e-02
-2.692478708922863007e-02
4.059027880430221558e-02
4.312063008546829224e-02
-4.097196087241172791e-02
4.061234369874000549e-02
6.127324700355529785e-02
7.316125184297561646e-02
-6.188004463911056519e-02
-2.268203534185886383e-03
8.171299844980239868e-02
-5.245390161871910095e-02
1.717729493975639343e-02
-2.341556828469038010e-03
4.044659063220024109e-02
7.020575553178787231e-02
-3.201345214620232582e-03
-1.887134648859500885e-02
-8.693047612905502319e-02
7.795838173478841782e-04
8.369243890047073364e-02
-2.917219325900077820e-02
-7.748740911483764648e-02
3.419835120439529419e-03
-6.591264391317963600e-04
8.008114993572235107e-02
5.350074544548988342e-02
1.214091572910547256e-02
5.483265966176986694e-02
-4.114428907632827759e-02
7.815802842378616333e-02
1.337383780628442764e-02
4.569662362337112427e-02
-3.616839274764060974e-02
8.679721504449844360e-03
5.141630023717880249e-02
-4.087926074862480164e-02
7.773259282112121582e-02
7.700973004102706909e-02
3.177306428551673889e-02
6.671331822872161865e-02
4.750076308846473694e-02
7.276784628629684448e-02
-1.637967769056558609e-03
-5.397443473339080811e-02
-2.556784823536872864e-02
1.392120961099863052e-02
-8.494033664464950562e-02
-2.279102429747581482e-02
-2.913113124668598175e-02
-2.100359648466110229e-02
-4.014783352613449097e-02
-7.073663175106048584e-02
-4.917784780263900757e-02
-2.160079590976238251e-02
2.290195412933826447e-02
-2.423557452857494354e-02
-4.209435358643531799e-02
-1.208154112100601196e-02
2.809675410389900208e-02
-7.881525158882141113e-02
-8.507503569126129150e-02
8.884565904736518860e-03
2.845207229256629944e-02
3.045162372291088104e-02
6.265963613986968994e-02
7.656710594892501831e-02
4.336204845458269119e-03
5.235829204320907593e-02
4.874607548117637634e-02
-7.708105444908142090e-02
-3.423910355195403099e-03
-3.012146614491939545e-02
5.038865376263856888e-03
8.833320438861846924e-02
7.005397230386734009e-02
3.779079020023345947e-02
-8.197873830795288086e-02
-5.855398252606391907e-02
-6.009929627180099487e-02
8.004157245159149170e-02
-8.641703426837921143e-02
3.613394498825073242e-02
1.755563728511333466e-02
-7.887371629476547241e-02
4.631537199020385742e-02
2.482614852488040924e-02
-2.222010307013988495e-02
-7.367887347936630249e-02
-1.642756722867488861e-02
1.994722895324230194e-02
6.852877140045166016e-02
5.970121175050735474e-02
1.494797971099615097e-02
5.609587207436561584e-02
7.681707292795181274e-02
-7.206144928932189941e-02
-7.043622434139251709e-02
4.253130033612251282e-02
-5.953993648290634155e-02
2.982518449425697327e-02
4.390339180827140808e-02
-3.506120294332504272e-02
-2.532882243394851685e-02
8.054342865943908691e-02
5.159723386168479919e-02
2.543397806584835052e-02
4.732411354780197144e-02
-4.461028799414634705e-02
4.589468240737915039e-02
1.308113615959882736e-02
7.491838932037353516e-02
3.387226723134517670e-03
3.996970877051353455e-02
3.891204670071601868e-02
-4.554846882820129395e-02
-7.214838266372680664e-02
2.577874064445495605e-02
7.696361094713211060e-02
-3.729062527418136597e-02
-6.988529860973358154e-02
3.953166678547859192e-02
-8.393211662769317627e-02
2.847656980156898499e-02
7.231068611145019531e-02
-7.317931950092315674e-02
-4.921367391943931580e-02
-3.851518034934997559e-02
-2.062492817640304565e-02
5.791665986180305481e-02
-6.111989542841911316e-02
4.582310840487480164e-02
-3.326442092657089233e-02
7.291539106518030167e-03
-3.860481455922126770e-02
3.988969326019287109e-02
-8.548285812139511108e-02
1.790029369294643402e-02
1.022931374609470367e-02
8.306114375591278076e-02
-7.481148838996887207e-02
-5.974264070391654968e-02
1.341011561453342438e-02
-3.000197000801563263e-02
-7.540859282016754150e-02
-6.816978752613067627e-02
-7.559233158826828003e-02
-1.797205954790115356e-02
1.633818261325359344e-02
5.765758454799652100e-02
-2.655667625367641449e-02
-7.919440418481826782e-02
7.639234513044357300e-02
7.977757602930068970e-02
7.084522396326065063e-02
-7.250098511576652527e-03
1.270565204322338104e-02
-8.702393621206283569e-02
-3.145970404148101807e-02
-2.491293847560882568e-02
-4.386251047253608704e-02
3.592116758227348328e-02
-4.045273363590240479e-02
-7.049518823623657227e-02
-8.489346504211425781e-02
-7.910525053739547729e-02
-8.151803910732269287e-02
-2.671726606786251068e-02
-5.583845078945159912e-02
-1.916781812906265259e-02
4.285733681172132492e-03
5.544981360435485840e-02
6.670814752578735352e-02
-3.568731620907783508e-02
2.338357642292976379e-02
4.871099814772605896e-02
-4.519773274660110474e-02
5.653924867510795593e-02
-8.289844542741775513e-02
-4.430772271007299423e-03
8.774181455373764038e-02
7.140981405973434448e-02
1.790352724492549896e-02
4.701210185885429382e-02
6.562061607837677002e-02
1.336449105292558670e-02
-4.708339273929595947e-02
-2.911033295094966888e-02
-5.144011229276657104e-02
5.079900473356246948e-02
2.370956167578697205e-02
1.351124700158834457e-02
4.623716697096824646e-02
7.291583716869354248e-02
3.017557226121425629e-02
-4.486242309212684631e-02
8.325782418251037598e-02
7.295589148998260498e-02
-5.698992870748043060e-03
4.891752265393733978e-03
-2.415467239916324615e-02
-7.910618931055068970e-02
-1.287581957876682281e-02
-2.800937183201313019e-02
2.804234391078352928e-03
5.328574404120445251e-02
3.741307184100151062e-02
5.834945663809776306e-02
-2.454297430813312531e-02
-7.173527497798204422e-03
-3.410954773426055908e-02
3.910690173506736755e-02
4.353583604097366333e-02
1.036661677062511444e-02
4.836472868919372559e-02
-4.427109379321336746e-03
-1.571700163185596466e-02
1.636146940290927887e-02
4.384949861560016870e-04
8.198317140340805054e-02
7.223489135503768921e-02
-5.988384410738945007e-02
4.065563902258872986e-02
-4.975540563464164734e-02
9.096227586269378662e-03
7.882935553789138794e-02
-9.056388400495052338e-03
7.811056077480316162e-02
4.019169881939888000e-02
6.633075326681137085e-02
5.550221353769302368e-02
7.415796816349029541e-02
6.969315558671951294e-02
1.489784568548202515e-02
2.023650333285331726e-02
8.774247765541076660e-02
4.797955974936485291e-02
1.268728449940681458e-02
7.453574240207672119e-02
-6.402506027370691299e-03
6.240841746330261230e-02
-8.644641935825347900e-02
-8.578849583864212036e-02
-5.788905546069145203e-02
5.299313738942146301e-02
4.925741255283355713e-02
-3.970483690500259399e-02
4.598598182201385498e-02
3.411360457539558411e-02
1.451261341571807861e-02
-8.332987874746322632e-02
-3.625712171196937561e-02
7.832067459821701050e-02
-4.784182459115982056e-02
-4.566000774502754211e-02
5.527413636445999146e-02
-3.338925540447235107e-03
3.613884747028350830e-02
3.820848837494850159e-02
8.388756960630416870e-02
8.836000412702560425e-02
6.302896887063980103e-02
-3.634267952293157578e-03
-8.773922920227050781e-02
5.318895354866981506e-02
-5.634048208594322205e-02
-8.277662843465805054e-02
7.749208807945251465e-02
-4.689284786581993103e-02
4.766783118247985840e-02
-2.589713037014007568e-02
-3.961325436830520630e-02
-5.165231227874755859e-02
-7.050681859254837036e-02
8.702629804611206055e-02
5.549058318138122559e-02
4.655328020453453064e-02
1.845230162143707275e-02
-5.445875227451324463e-02
-7.233394682407379150e-02
6.855160742998123169e-02
-8.561796694993972778e-02
7.396758999675512314e-03
3.136771917343139648e-02
-2.828738186508417130e-03
-7.703564316034317017e-02
-8.229611068964004517e-02
7.939122617244720459e-02
-7.853938639163970947e-02
-1.879490166902542114e-02
7.428752630949020386e-02
8.013910055160522461e-02
-8.030006662011146545e-03
-4.167819768190383911e-02
-4.372199252247810364e-02
4.952451586723327637e-02
-2.441084384918212891e-02
-3.588028624653816223e-02
-1.796411350369453430e-02
4.870553500950336456e-03
-4.792013391852378845e-02
-7.703231275081634521e-02
9.591791778802871704e-03
-3.326724469661712646e-02
1.052901986986398697e-02
4.509799648076295853e-03
6.924199312925338745e-02
1.812274381518363953e-02
7.500748150050640106e-03
-1.301407162100076675e-02
-5.920542776584625244e-02
-3.997467458248138428e-02
-1.539196539670228958e-02
6.064528971910476685e-02
6.059312075376510620e-02
6.133021786808967590e-02
-4.009869415313005447e-03
2.780963853001594543e-02
1.903641037642955780e-03
-3.292772173881530762e-02
1.769094914197921753e-02
-7.441338151693344116e-02
4.689859971404075623e-02
5.953983962535858154e-02
6.947389245033264160e-02
7.776051014661788940e-02
1.904353685677051544e-02
-1.595504768192768097e-02
-4.226579517126083374e-02
-2.844546549022197723e-02
5.181810632348060608e-02
-3.350477432832121849e-03
7.547472417354583740e-02
-3.641625493764877319e-02
5.372602865099906921e-02
4.692877829074859619e-02
-7.576512545347213745e-02
-6.362105906009674072e-02
-4.300563037395477295e-02
-4.050688073039054871e-02
2.558351680636405945e-02
2.859579399228096008e-02
-6.111166439950466156e-03
-2.259877137839794159e-02
6.680997461080551147e-02
8.480475842952728271e-02
-8.315917849540710449e-02
2.826295979321002960e-02
3.816217929124832153e-02
4.924812912940979004e-02
6.002483516931533813e-02
5.796856246888637543e-03
-5.934702977538108826e-02
6.328671425580978394e-02
7.817302830517292023e-03
-2.256065979599952698e-02
-7.940714806318283081e-02
3.288432955741882324e-02
3.427258506417274475e-02
-6.986054778099060059e-02
-7.729127258062362671e-02
5.958749726414680481e-02
5.726227909326553345e-02
3.521357476711273193e-02
6.940006464719772339e-02
5.071106553077697754e-02
5.730143189430236816e-02
3.378434479236602783e-02
8.280013501644134521e-02
1.964681595563888550e-02
3.475206717848777771e-02
1.460720226168632507e-02
-8.721820265054702759e-02
-1.613862812519073486e-02
-7.349546998739242554e-02
-8.251499384641647339e-03
-8.696090430021286011e-02
-6.881288439035415649e-02
-5.891869217157363892e-02
1.778729818761348724e-02
-7.239835709333419800e-02
7.999118417501449585e-02
1.928389072418212891e-02
8.598966151475906372e-02
-3.993988037109375000e-02
-7.202281057834625244e-02
-4.276175796985626221e-02
6.865428388118743896e-02
-7.377462089061737061e-02
7.650895975530147552e-03
3.892829269170761108e-02
-1.814994961023330688e-02
-3.998310118913650513e-02
-1.719909720122814178e-03
8.412951231002807617e-02
-5.022130906581878662e-02
4.345758259296417236e-02
-7.139908522367477417e-02
8.007074147462844849e-02
5.528881400823593140e-02
-5.513410270214080811e-02
-4.968525469303131104e-02
2.644985541701316833e-02
8.239232748746871948e-02
6.748532503843307495e-02
-7.256565243005752563e-02
1.065490208566188812e-02
7.872045040130615234e-02
3.284408897161483765e-02
6.716502364724874496e-03
-6.510360538959503174e-02
-7.660471647977828979e-02
4.726131632924079895e-02
2.535544894635677338e-02
4.321803152561187744e-02
8.407527208328247070e-02
-2.128861472010612488e-02
-5.440184473991394043e-02
1.902518235146999359e-02
6.308359652757644653e-02
3.347299620509147644e-02
-3.502579033374786377e-02
-5.293892696499824524e-02
-8.204100281000137329e-02
-6.963311135768890381e-02
-4.859649389982223511e-02
-5.354063585400581360e-02
-2.604579366743564606e-02
1.492333505302667618e-02
-7.059511542320251465e-02
-7.082135230302810669e-02
8.389068394899368286e-02
-1.589955016970634460e-02
-5.797798186540603638e-02
-8.457355946302413940e-02
8.347957581281661987e-02
8.194310218095779419e-02
-7.514575123786926270e-02
2.232616581022739410e-02
2.999185584485530853e-02
4.282188042998313904e-02
-5.831280723214149475e-02
5.934645980596542358e-02
5.567748099565505981e-02
-3.387442231178283691e-02
-5.375055968761444092e-02
-3.440145775675773621e-02
-4.620480909943580627e-02
-4.428869858384132385e-02
-5.967529118061065674e-02
-4.488502442836761475e-02
-4.095520824193954468e-02
7.997993379831314087e-02
-4.545609280467033386e-02
-1.936651952564716339e-02
-3.245494887232780457e-02
-8.751494437456130981e-02
7.254116237163543701e-02
6.483874469995498657e-02
5.476174876093864441e-02
-3.354800492525100708e-02
7.477015256881713867e-02
3.854972869157791138e-02
4.399784281849861145e-02
7.637250423431396484e-02
8.374713943339884281e-04
-3.247447311878204346e-02
7.706127129495143890e-03
6.863224506378173828e-02
-6.806281954050064087e-02
-8.623100817203521729e-02
6.973966956138610840e-02
-5.574733018875122070e-02
8.597993850708007812e-02
-1.533640897832810879e-03
-5.123777687549591064e-02
-1.841034367680549622e-02
-1.771354116499423981e-02
-8.304809033870697021e-02
4.617729783058166504e-02
-2.571484539657831192e-03
-4.357136785984039307e-02
6.670610513538122177e-03
7.602205127477645874e-02
6.846227496862411499e-02
-1.844635792076587677e-02
-4.189658164978027344e-02
7.457483559846878052e-02
1.486615184694528580e-02
-8.482192456722259521e-02
3.522104769945144653e-02
-1.973508298397064209e-02
-2.801376581192016602e-02
-6.120853871107101440e-02
8.611129969358444214e-02
-4.260548949241638184e-02
5.377302318811416626e-02
5.906323343515396118e-02
2.003530412912368774e-02
1.647399179637432098e-02
-1.337761990725994110e-02
-4.004057124257087708e-02
7.844121754169464111e-02
7.679498940706253052e-02
-5.284181982278823853e-02
1.214820705354213715e-02
8.197230100631713867e-02
4.832589253783226013e-02
7.064509391784667969e-02
-4.001205787062644958e-02
-1.578521728515625000e-02
-5.673427134752273560e-02
-4.546726122498512268e-02
8.291474729776382446e-02
2.781045995652675629e-02
-2.585062198340892792e-02
-4.149208590388298035e-02
-3.078423626720905304e-02
-7.834751158952713013e-02
8.598215132951736450e-02
-1.592593616805970669e-03
-6.383693963289260864e-02
-4.107760265469551086e-02
3.303420543670654297e-02
1.814844273030757904e-02
5.290572717785835266e-02
-2.963176369667053223e-02
6.429011374711990356e-02
1.373271830379962921e-02
-6.213247030973434448e-02
2.244157344102859497e-02
2.027645893394947052e-02
4.141961410641670227e-02
4.589002579450607300e-02
8.659696578979492188e-02
-7.616335898637771606e-02
-3.542384505271911621e-02
-2.228803001344203949e-03
6.879823654890060425e-02
4.513105377554893494e-02
7.319653779268264771e-02
3.767199069261550903e-02
-5.644300580024719238e-02
1.018668757751584053e-03
-4.713313654065132141e-02
-4.608097299933433533e-02
-8.494617044925689697e-02
-5.809655413031578064e-03
5.678412318229675293e-02
-6.492305546998977661e-02
4.927938804030418396e-03
-5.294252932071685791e-02
