3.331812381546228607e-09
-1.188438347732301281e-09
-2.003753163393184877e-09
-1.331295851336733449e-09
-3.117037183919535437e-10
1.219866319068785288e-09
-1.647335934329419160e-09
-8.388538197401373964e-10
9.183382942978823849e-10
-3.827783368048898183e-10
-1.936607985086880035e-09
8.590335109914803979e-10
-3.227180328524426045e-11
-1.316708186926973667e-09
-6.686832337843284790e-11
2.847958813223527841e-10
-1.410821792724448187e-09
-2.272683596871161171e-09
-5.626636934152884351e-10
-5.578030815023282685e-10
-6.359648363485348455e-10
1.198612320507663753e-09
5.272118852595042426e-10
5.781136680482745760e-10
-2.857865055716501956e-09
-8.946437479728786002e-10
-1.496863077932175656e-09
3.140067650342359684e-10
8.634256642991999797e-10
-6.504177751942563646e-10
8.450067312537612452e-10
-7.103603816283055039e-10
-6.251653639210985602e-10
-1.320500597756790739e-09
2.865669646023860651e-10
2.257340758760051358e-09
1.795132820170408650e-09
-1.563041807095544300e-09
-4.895064908971846762e-10
-1.007730676683138427e-09
1.756172984812565119e-10
-4.047275015128803943e-10
-1.306495689412656702e-09
-4.686429577738238095e-10
-8.650767324702712813e-10
7.720503125696609459e-10
2.219643135958904168e-09
1.512717312524003432e-10
-1.158603990525364225e-09
-1.147543393642536103e-09
-8.942051543670004321e-10
-1.138091620944692295e-09
2.053246739297520662e-10
-2.829640410872968914e-10
-9.284967239509001047e-10
-7.866555740143610365e-10
1.178727893069719812e-09
3.367562895206788198e-10
1.441584629446879262e-09
5.975321903939345702e-10
-5.841120365168706030e-10
7.021010994812115769e-10
7.028975734790776642e-10
2.154077360927431073e-09
-1.303764651794381280e-09
2.249925579178579937e-09
-1.401806448697584528e-09
8.743712975878281668e-10
-2.839395829568047702e-09
1.562383999953453895e-09
1.278546823968440549e-09
-2.102298890527265485e-10
-2.089327599819057468e-09
2.269509691288362774e-09
-7.618300990053228361e-10
1.504280922048906177e-09
-3.567619810684874437e-10
-5.572921898261418150e-12
-1.796084170280209946e-09
-2.708125668160477062e-10
-1.963108703373350750e-10
-1.148925066196682110e-09
-8.493937497799919356e-11
-2.522156927753371747e-10
-2.525950559828515907e-09
7.736098428523519033e-10
9.669602896167361905e-10
-3.339043486150217177e-10
-6.810568220494417346e-10
-1.585391706804273326e-09
6.991965340041872423e-10
-7.451503858391106405e-10
1.209798261569972055e-09
-3.571441808958297770e-09
4.183040303029628149e-10
-7.787187561447694861e-10
3.288727068451180457e-09
9.733357453356461519e-10
-1.877192845611830307e-09
-1.720358994150572585e-10
-2.721284753093300424e-09
-4.052861934944473887e-10
8.687098262960546435e-10
1.993525788890337935e-09
-1.990219988812214069e-09
5.565248817340773257e-10
3.560853001349784108e-10
-2.143312860525270480e-09
4.222049099222857649e-11
-2.659342746014203840e-09
9.380887039389662618e-11
4.991747015736791582e-10
8.240471083276190711e-10
-8.996825506812911044e-10
-1.102832714039436723e-09
-1.496918922150314302e-09
3.630461209436219860e-10
2.589274350484060960e-10
-9.267307476967800994e-10
1.073980002153085422e-10
-1.632758483971485930e-09
-5.461522206706703741e-11
-5.779761114155235191e-10
2.283736533215119380e-10
1.446452402298348261e-09
-5.899293276101502670e-10
-5.585705786792516392e-10
-2.492699380240992468e-09
-2.903760565331481303e-10
-1.331518506564322024e-10
-1.463453802585945596e-09
-2.094134421426474546e-09
-1.211366784659162477e-09
-2.654050312855815719e-10
-4.569647160668210972e-10
1.510792602132937645e-09
1.381698422342481081e-09
2.713620439465103118e-09
-9.558133173825922313e-10
-4.450323165539060710e-10
1.268223859263173381e-09
2.293693707189348174e-10
-2.846094748765182203e-10
1.192836496244353839e-09
-6.116664397204374382e-10
-7.709847343884135284e-11
1.154593864960418159e-09
3.850369745261872367e-10
-3.199317477609042726e-10
8.847651500332176511e-10
-1.066482790967882011e-09
6.299943899890081411e-10
2.636090790097966874e-10
2.283316036244542602e-10
-3.879696841568858190e-10
-1.785736780668401025e-09
2.168607793340271428e-10
7.814497382518936774e-10
-6.527549056833947816e-10
-1.609826938420155784e-09
4.637475681246172599e-10
-6.509791039555068437e-10
-1.542019845146569423e-10
1.388799353296832351e-10
-8.282365349110420993e-10
-1.771101820757792211e-09
-4.598807445965746865e-10
-1.924213011150754937e-09
-3.836230222376002530e-10
-6.690029086264814850e-10
-6.462723134426084926e-10
5.730717012042418901e-10
-5.831861660254844537e-10
-1.582776687492071233e-09
1.327336129897105366e-09
-7.430576709488434517e-10
-1.237333013826003025e-10
4.006278642165739257e-10
-3.558225936117764832e-10
-7.023153725249642321e-10
-8.868744627577029860e-11
7.365280052518130560e-10
-2.101637308626891354e-09
9.514123933129781108e-10
-1.656766668300946321e-10
8.437201493016743825e-10
-1.880913202967349207e-09
-3.489110944610018805e-10
4.197791558802066447e-10
-8.330048872906559154e-10
3.083204802578620729e-10
-2.104714846851152288e-09
-2.299525903026733431e-09
1.120985970715082658e-09
8.690975161762537482e-10
1.048997763652970150e-10
-3.416265048628019940e-09
6.142628072858258292e-10
6.354906045835662098e-10
2.759867223645073864e-09
1.368400254220247803e-10
-8.869873724393073644e-10
-2.760887740649309308e-09
-7.858928507964435539e-10
-1.488520751102839768e-09
-2.449230596113238789e-09
-5.921857448853984351e-10
-3.924210123518179216e-10
1.380916631044115661e-10
-2.004981736192235076e-09
1.071088773230144398e-09
8.948420893162278844e-10
1.388939518953691277e-09
-1.931038662306150400e-09
-7.039253069329731716e-10
3.970930806396211210e-10
1.297242868680825723e-10
-9.743202911138837408e-10
4.213445148337768842e-10
-3.370116685719182215e-10
-5.665507507579548019e-10
-2.555778644275363831e-10
9.491187349941476725e-12
-9.272210776956057998e-10
1.210883754376723687e-10
-1.989863163132099544e-09
-6.218753845210756026e-10
-9.872728190529755921e-10
7.939067181439440901e-10
1.556971329641498869e-09
-2.494150885823387398e-09
-1.817981321039496834e-09
-5.646026424166450397e-10
4.610896109369377882e-10
2.109658420179627569e-10
-2.214771255282244056e-09
-1.983947006678477010e-09
1.159033202746684310e-09
4.667640718380994258e-10
-1.766807811165449493e-09
4.334563818986225670e-10
-1.276221905932573009e-09
2.688316513843602706e-10
-7.311706795576355944e-10
1.253099179976402411e-09
-4.644528095454347749e-10
1.270479277337699386e-09
-3.784543789464578367e-10
-5.560130134085738973e-10
-1.144686456733268187e-09
3.542910409493060797e-11
1.024974993768523746e-09
6.864964707808951516e-10
1.221915679749940864e-09
-5.343494535736681428e-10
-2.601519222267256737e-09
-2.724193093328608484e-10
4.987354418339862150e-10
8.497764297787924193e-11
-1.819653427936884782e-09
-1.599450349942799221e-09
2.474402238661355113e-09
-1.681876721226771565e-10
-1.961717899234827200e-09
-1.549106065645844410e-09
3.130703474241158801e-10
6.950688913320846041e-10
-1.023605533667648615e-09
-1.964277213106768727e-10
9.869369765880264822e-10
-1.253026793435196851e-09
-4.494456889991838011e-11
1.290391016262049106e-09
-2.546719057860968860e-09
1.249735093189485724e-09
4.058420266517259734e-10
-1.396173177070636484e-09
-1.883167843885757975e-09
8.055438538434600559e-10
-1.117901660130371511e-09
-4.936594466542487680e-10
-9.956422353241123346e-10
-4.469503933623997227e-10
-2.664677811736737567e-09
3.394896586073059552e-10
-2.469603133103959181e-10
-1.820700590293711230e-09
5.726646379322630764e-10
8.999363476647204152e-10
1.078787281727500158e-09
-3.661649455866111680e-11
-1.480462419323202994e-09
-7.538812352159141028e-10
-1.477556854645456497e-09
-1.784940806270896019e-10
-1.537679095164889986e-09
4.107461315516758305e-10
2.629173545543039836e-10
-8.643077920034158979e-10
-2.202744875390294510e-09
6.517003603434545767e-10
1.231627577702454346e-09
-1.598922522161316806e-10
-6.383687328748166578e-11
1.137092531244832116e-09
-1.489475431881714940e-09
1.293180895700629662e-09
-3.511338442230282908e-10
2.447988922682498014e-09
-1.651271064329051796e-10
1.428117624158176113e-10
-4.441266798771437152e-10
2.487812456042348686e-10
-1.324376164291152236e-09
4.097735761821041933e-10
-3.579522234176124584e-10
1.375180191942604324e-09
-1.168341645652049010e-09
-1.425440321334292548e-09
2.141861132898270625e-10
-2.537056564833051198e-09
1.677699756896799954e-09
-1.621048850708461941e-09
-8.044328536627176618e-10
3.044305252331014344e-09
-8.059679590388668657e-10
2.778814504889037806e-11
5.408578029886257355e-10
1.069822119781349556e-09
-2.490544215305590114e-09
2.619707228923573439e-10
8.183363431335521909e-10
1.002022242957423259e-09
-4.085364824213399970e-10
1.580594821692926644e-10
-1.020768691795126415e-09
-9.802026967875576702e-10
-2.163810020050505045e-09
-2.067859217191880816e-09
-1.480291000888200870e-09
8.209617985421857611e-10
2.221910294641915584e-10
6.787649886597080240e-10
-1.219318257472679079e-10
-6.789326878475776539e-10
-3.007530890997145434e-10
7.959242154242929246e-10
1.708522351373531478e-10
-3.253351366083734320e-09
-2.307676966184502021e-10
1.943768340728624366e-10
-2.801231913096557946e-09
-1.103085511822143872e-09
1.661252357898490573e-09
-1.698923335347046759e-09
-9.707921966306543027e-11
-1.151728046266953243e-09
-4.662737418392737254e-10
-2.753153705015165542e-09
1.234281454820518320e-09
9.506571085893256168e-10
-1.125645354704829515e-09
-1.214001676963505361e-09
-4.172881484798551810e-10
-4.762671368396809157e-10
-1.768656332501450379e-10
-2.136102184024935013e-09
5.138233935553238041e-11
7.206997221231858930e-10
2.548810940083967580e-09
7.534283197330182702e-10
-1.726502940613272585e-09
-8.323421951672571595e-10
1.034102359298572082e-09
2.073437199712202528e-09
-2.548159905302327388e-09
4.782070295306084518e-10
-1.002803257099671441e-10
1.629595347552026396e-09
1.584458536596500267e-10
-5.515408130207788417e-10
-2.295240560112876693e-11
8.016592389914478645e-10
-1.310244468477606006e-09
3.332905895714333155e-10
-4.786365748188359248e-10
2.435436019521119988e-10
-8.656435013243424237e-10
-2.294779644085309656e-10
-9.126408517801110065e-10
-3.407606445279820484e-12
-1.905021695947084481e-09
-2.107373386905919688e-09
-7.920835654040558893e-10
-1.629777701683821078e-10
-5.266355684874213239e-10
-3.720632690829006606e-09
-2.453407921265693403e-09
-1.609627875431840494e-09
7.115747990837917314e-10
-2.577827729055570671e-09
3.364465928079596324e-10
1.044408226569260023e-09
-1.545659572554924921e-10
-2.982390168160264921e-10
-5.850384621197690649e-10
1.963740503541089311e-09
-1.663825188735756910e-09
2.615855310139636458e-10
2.780483898678909327e-10
-1.568154828213152996e-09
-7.163286075417829579e-10
9.414637958116145455e-10
-2.970976242799849842e-10
-7.561086756702195544e-10
-9.769267617087962208e-10
-3.558339603873528212e-12
1.891520828856130265e-10
-7.814409536122113309e-11
-4.365632577663092206e-10
-4.615257065410105497e-10
-9.156479394145655704e-12
-1.806011673544105633e-09
8.741712909099419448e-10
-6.584264800046923938e-10
2.154708189650023087e-09
-1.301617924553966077e-09
-2.611801608320973855e-10
-4.344460624583490471e-10
1.093686141651062371e-09
-4.939593178932000228e-10
5.437965633348085248e-10
-7.093213238995588199e-10
-1.014391126652469666e-09
-4.561030719774095132e-10
-1.002883220913020068e-09
-1.209774169730337690e-09
1.833441509724309526e-09
-6.773472893684129303e-10
-3.013089111547628818e-09
-5.896019783513395396e-11
6.304732846906802024e-10
6.777062418195090032e-12
-5.324719554167245406e-10
-9.705040104890372277e-10
1.192029586150056275e-09
-7.481103514450637704e-10
1.285429540587301744e-09
-7.080370179046724388e-10
1.202070776251673578e-09
-9.328465777613814680e-10
-1.180420317048458401e-09
-2.532607679128773270e-09
3.098432066472867064e-10
-2.322627229434104379e-10
-7.326200202051325050e-10
-8.976063781140908304e-10
1.117411385642697041e-09
1.477334504729199693e-10
-8.984076815821140372e-10
-1.283328665557803561e-09
-1.472678534675253559e-09
-1.406015415206240959e-09
-1.011469380474139257e-10
1.118387715770552404e-09
-2.849693370166050954e-09
-3.581359375726123062e-10
-2.116843922372879661e-10
6.455048717768363531e-10
8.587549560346019462e-10
-5.192573038215186898e-10
-1.072648636579742742e-09
1.589796294609868710e-09
5.862873520001699035e-10
-2.558647738126751392e-09
4.074360848704827731e-10
-9.613310147926767968e-10
-1.587145526116273686e-09
-1.781327529926102216e-09
-1.543171923579222948e-09
5.124879409734717228e-10
-1.028167551098135846e-09
-3.321384833832041750e-11
1.249307102213492726e-09
3.638511492098928102e-09
9.141367107723397112e-10
1.003956251466320282e-09
4.366262074118054670e-10
1.140110672537275605e-09
-4.340590109563891019e-10
-1.799429633075888546e-10
-2.553268152460930196e-10
8.669995277266195899e-10
-6.710426103673228226e-10
5.923041918043381315e-11
1.096723489801831875e-09
-3.256705738419185536e-10
-1.185438192052856721e-09
6.504098370996302947e-10
-2.655575981336255609e-09
-9.188074745480889760e-10
9.159231151301128193e-10
2.012265243322985953e-09
8.421660591118040884e-10
-2.543008303934612968e-10
-2.061045431545061035e-11
-2.976599522419576260e-10
-4.019825791679032534e-11
4.711731005357933100e-10
1.337967403536310940e-09
2.243686625380547639e-10
7.025684201078519209e-11
1.022033638276020895e-10
2.894048889423572746e-10
1.596355131416871131e-10
3.164956630108406443e-10
-5.170404382415227929e-11
-1.238801061731464870e-09
1.336962318632117785e-09
4.370773742934375150e-10
6.456911672003684544e-10
1.562842966151833934e-09
-6.820578546395950070e-10
-2.379634544968922683e-10
1.053799603134564222e-09
-1.171380326070448064e-09
3.477453047739942349e-10
-8.653522343138320139e-10
4.817388155053947685e-10
6.296175802944503630e-10
-2.941779805865074593e-11
-1.047119391195394655e-09
-2.550932035050301749e-11
-1.162387186504076908e-09
6.155077836300648642e-11
-1.516650249833162434e-09
8.551536215262167673e-12
-6.858498213802022292e-10
5.917062395610628300e-10
8.073194335267430688e-10
-1.002724792087406058e-09
-2.834682932828513913e-09
-5.915047895932445954e-10
-5.849593032181132912e-11
1.441564645432436009e-09
-5.554933735218980928e-10
-7.582875993783488866e-10
2.198283333143535856e-09
-1.017370521161353736e-09
6.416214781701512493e-10
-1.138353633578503832e-09
-1.960253515065346619e-09
-1.473680844021885150e-09
3.854533359159972861e-10
-1.119069170663067325e-09
-1.498445034719964042e-09
1.542380778651875062e-09
-1.431156748665785017e-09
9.422082003496257130e-10
-9.321651783800177782e-11
-4.208205783839957803e-09
8.601785395079275531e-10
-1.883895039966887452e-09
3.946462323600741229e-10
-1.092095858190589297e-09
1.951739658778706143e-09
-7.020679038127752847e-10
8.001589391071206592e-10
8.975747922690402447e-10
-1.876498956221439585e-09
8.316645289108137717e-11
-2.189704639832257271e-09
-8.765152492706818066e-10
-1.100799895681348062e-09
-1.616664691006519661e-09
7.878273589057016579e-10
-1.827739959381347035e-09
2.193322412580300806e-09
-4.223825456062257899e-10
2.653580410960643121e-10
9.826353064568138507e-10
5.905510108705769312e-11
-2.190988918071568037e-10
-4.198570657809597151e-10
-1.352084111339024730e-09
7.079616892724516219e-10
1.166098884120003731e-09
-4.806272602131400618e-10
-4.351784765876942629e-10
-4.034831635468805189e-10
-1.144822459053784769e-09
-8.002537521534236475e-10
1.663650606165134604e-10
-4.075907944489642887e-10
1.301469709780178619e-09
7.031964455173067563e-10
2.192770409692457179e-10
8.638846304975800194e-10
-3.656500657811534438e-10
1.699636126284431725e-10
-2.807736709797836738e-09
1.105235125642423100e-09
-1.221718171073860049e-09
-1.374372504692189523e-09
-7.313846195344808621e-10
-1.885963829550973969e-09
5.408057890399220469e-10
1.053631404346333511e-09
-6.995157786349182061e-10
6.412533282151855474e-10
1.503455027140887523e-09
7.251419464893160693e-10
-1.020662443451669787e-09
-7.720087347173887338e-10
-1.469399379949720696e-09
-4.056643077010591014e-10
-2.789413144910213305e-10
-1.134090155119338306e-09
-2.005436927632331390e-09
-2.897520001710063298e-10
2.983329139283341647e-10
-9.100752929036559635e-10
-3.354026778534802133e-10
-3.106546270226218098e-11
-6.037484401311132842e-10
-6.819720482775792902e-11
1.049376918693667449e-09
2.491028217033175451e-10
-6.213494163631594347e-10
-3.360441924726842444e-10
8.450876665122564191e-10
-2.918717267874626486e-09
1.329404086813923414e-10
-3.118053037987067455e-10
1.148510286874682151e-09
1.029341611946676949e-09
9.005161616393309032e-10
-1.470186417051877470e-09
-2.997393999670805442e-10
2.587149106059172254e-10
2.038382795888082910e-10
-2.753720862447295303e-10
1.839319113683401952e-10
1.229772506050608172e-09
-2.311445479463714037e-09
1.531889504136074720e-09
-1.634268831374185993e-10
8.910785997962022975e-10
-5.633518651571023383e-10
-2.350109440385494963e-09
1.102211211190251561e-09
-9.135942002913566284e-10
1.051415690622725663e-10
-1.269525151670336527e-09
-1.945094307842509807e-09
1.305156538400353838e-09
5.788260426520253077e-10
-5.072093300917401848e-10
-8.352149527546259833e-10
1.907939362055799393e-09
-6.795302098794309131e-10
-1.705229846216127498e-10
9.375298315461577658e-10
1.034298757751628273e-10
3.733654010962261793e-11
-1.181509889924825529e-09
3.365004386246539525e-10
4.709875545128028307e-11
1.600454990757782525e-09
-5.754554055492633324e-10
-2.980895807969119460e-10
-3.643246815343559319e-10
4.036466438872565732e-10
-1.064594079558389694e-09
5.027015470560058930e-10
-3.465251696699311879e-10
1.261324711343547733e-09
-2.433156454095808385e-10
-1.390945136847676622e-09
7.186338191189634017e-10
9.388492760997735331e-11
5.155791904520867774e-10
1.919185477206042378e-09
-3.460308983793680682e-10
2.498894979829913154e-10
-5.265841096502299479e-10
-8.189440792172320016e-10
-8.637466852867703437e-10
4.586597490696675550e-10
1.531242022068113329e-09
1.666422833057623620e-10
-3.658110037108031065e-09
4.138087789096189795e-11
7.422204517659736211e-10
-1.086663203864191019e-09
7.148098779552469750e-10
-5.793086010896786320e-10
-2.626574735486997270e-09
-2.838418111661411558e-10
-3.204415843782726370e-09
-6.053427759056262403e-10
1.582789975473897215e-11
-1.296647345050416789e-09
-1.428939189196398729e-09
1.383080872052744326e-09
-6.163952681603745987e-10
2.071742777332019614e-11
-3.399362569211916707e-09
-3.903354861556351807e-10
-1.059040077855399886e-09
8.072104651368761097e-10
-9.247261290035169168e-10
-1.565552409932280398e-10
2.129213055868106608e-10
2.304298529764992054e-09
5.292528637568238992e-10
-4.028734568173319985e-10
1.076426836554844613e-09
-1.518523085053402610e-09
-3.984463869954879556e-10
-6.378733652390167208e-10
-1.607133648384717617e-09
-2.272479537879235068e-09
-9.947387358266723822e-11
-1.777939795388761013e-09
1.923035064521627646e-10
-1.596228926814546867e-09
4.092708810743417303e-11
3.461409603389142831e-09
-1.045317055137218176e-09
-1.191848730819344837e-09
-1.427258644604023630e-09
8.037210896816304739e-10
6.545091690846049914e-10
-5.653086332380041767e-10
-7.573123551873894854e-12
-1.424024898000197936e-09
-1.428711926543257960e-09
-3.563263017980489167e-10
-5.269115352368736183e-11
1.527432208492385257e-10
-5.536833769248517001e-10
-9.060352468281962501e-10
-1.232918656057790940e-09
-9.480505269721106743e-10
-1.377414848846569839e-09
-1.021621232055736073e-09
1.124711990208027146e-09
-2.262604770209009075e-09
2.208176752560575551e-09
-4.350833304744838870e-10
1.830987472750678080e-09
-3.484775523698857569e-10
-2.377372965156610007e-09
1.866756083046539061e-09
-4.535588293830272733e-10
-9.009702428564025922e-10
-1.640280272718896981e-10
4.040960621676248365e-10
-2.351441930059650076e-09
-1.572540431205027289e-09
5.164344507591067668e-10
6.331602464548780063e-10
2.766955276012339482e-10
-8.595305023284538493e-10
-5.182548279414334047e-10
-2.381078112456691542e-10
1.391836201847240773e-09
-1.357162715542870046e-09
6.192943380334270387e-10
-2.306061730461550496e-10
2.187576342294050846e-09
-2.060369208578549660e-09
-5.228010246938197270e-10
6.659106599471442678e-10
6.085533743593884992e-10
-6.681132869168493471e-10
-3.495255196384050578e-10
-1.845946617784477439e-09
-2.211748784120004530e-09
-6.775019434357432146e-10
-1.082770872962157682e-09
-6.000933638894423439e-10
-8.644763793697052279e-10
-1.930226645185939560e-09
-1.007375294292955914e-09
-1.121190987274367501e-10
-4.122687469187980014e-10
9.071350337563899302e-10
3.042772422912065622e-10
1.140866845439347799e-09
4.355819871459942760e-10
-3.196362341473246715e-10
-6.611206582185502612e-10
-1.862251464146424951e-09
-4.731705027793964291e-10
1.648425562716937520e-10
-1.511953673372090634e-09
-7.299523208104119476e-10
-1.677351924023184893e-09
6.788395956469628345e-10
2.757715611423350310e-09
9.647358467645972269e-10
-4.652466467636173775e-10
1.643128189066089817e-09
2.046719238535388286e-09
1.340114574865935992e-09
-2.611229454885233281e-09
-8.905211568155380064e-10
-2.146501199007389005e-09
1.493607459934764847e-10
-1.656320303133895777e-09
6.166339105995177761e-10
-4.161903044419545949e-10
1.094536017376412929e-09
-1.119988546349759417e-09
3.079147006812554821e-11
-3.166768514084594699e-10
2.886219215014751427e-11
1.600461985162837664e-10
-1.071884581094195710e-09
8.194172562703272433e-10
1.343923861085727367e-10
-1.637545238297732908e-10
6.242406591638882674e-10
-4.062669367588256364e-10
4.430276701050672727e-10
1.295604623585688842e-09
-1.632717405719574799e-09
6.239837535559900061e-10
8.214816049623152594e-10
-3.989021057915209667e-10
-2.413660604716483249e-09
-5.594761320892871481e-10
9.590349625554495105e-10
-6.415125097802842902e-10
-3.221700128896998194e-10
4.154491334285026483e-11
-1.449526387808930394e-09
-5.796810809144403720e-10
-1.157166251708474647e-09
-1.004800243009640326e-09
3.577504681384624519e-10
4.903476513717919261e-10
-8.610221424731889783e-10
2.333411242005922759e-09
-1.477351907475110693e-09
-8.421178754325353566e-10
-2.671066423598489337e-10
7.579085692377418582e-10
5.553149051706895989e-10
-1.741166932855975347e-10
-2.522446418407042756e-10
1.684657857659033198e-09
-2.023390566208149721e-09
2.401539189733625790e-09
7.659314293917418581e-10
-1.569132157541730521e-09
-7.246971911456512316e-10
6.047103373596485199e-10
2.121697539880784689e-10
7.723445216711866124e-10
1.342768951584361048e-10
-1.409272143426676394e-10
8.538565965388045242e-10
-1.010209249585614089e-09
2.573295188046387239e-10
-7.213929453797618407e-10
-5.459848684274959396e-10
-9.051390748027188238e-10
-1.169582986015882398e-09
3.135868509307471186e-10
1.489021017597735863e-09
-4.761085969917644434e-10
-1.869164822920765801e-09
-6.286945963829282391e-10
3.447137575385283981e-10
-1.181017394991101810e-09
-1.558524198586042075e-09
-9.852137994315057767e-10
3.581555274578818171e-09
2.564396917037470303e-09
-1.304251928679889261e-09
6.866489044021761856e-10
-4.964940125695704864e-10
3.594108066717893735e-10
1.679759442652084545e-09
-1.076573830083304983e-09
2.291941525456309137e-09
-8.597527134668325743e-10
5.710947270642918738e-10
1.097113844217290080e-09
1.384834691364744685e-09
-2.731092907382048907e-09
-6.707918109860599998e-10
-4.519907226274710865e-10
5.476074038668343746e-10
4.154736277239834408e-10
-2.478150185059035948e-10
-2.785257857684797500e-10
-1.114701220217284572e-09
1.530827353768415833e-09
-2.521628468098863207e-13
-8.360593883871558774e-10
9.186528621141221151e-11
-4.077089499343600210e-10
4.784184159944970816e-10
-1.387083337078820477e-09
5.692269433588137417e-10
3.348928079294211102e-10
-4.577900003521762073e-10
1.865565923964140893e-09
-2.207431459844144683e-10
6.608283364961664574e-10
-1.852777375965786177e-09
-3.132134995809110478e-09
-1.644603786488119113e-09
2.457590797533271143e-09
1.125120219214181816e-09
-2.594972015046437264e-09
-1.232583923815866456e-09
4.615568205412756697e-10
-3.004492835079197732e-11
-1.809503658023459138e-10
4.268699560494582101e-10
6.438097277516874328e-11
4.465910419249041752e-10
-3.622230571043161262e-10
-3.407129023358379527e-10
4.102846506981450148e-09
-2.307642299470558100e-09
-7.365774656875601067e-10
-1.586642262019211103e-09
-1.656838999331000650e-09
5.193798169322860758e-10
4.818620502611281609e-10
-2.334043847085354173e-09
-3.189286335025798280e-10
-2.584712999187388505e-10
1.097150259532497785e-09
-2.165991164204683628e-09
-6.264416763102076402e-10
1.352017608979849683e-09
3.092198996856865278e-10
1.140790684139858513e-09
-3.789589531066894779e-09
9.166321590647896755e-10
8.227992731590916264e-10
-1.641115021655537021e-11
5.284271353822589390e-10
6.454186074478229784e-10
-2.286894895675573025e-09
2.674991061990539265e-10
3.449402985467031613e-10
-1.347172373655780575e-09
4.072716608405357874e-10
-2.662766118710635510e-10
-1.977625008198202750e-10
1.876804683886845737e-10
-1.767991725243334145e-10
-1.326265208767551940e-09
1.527897669495459354e-10
9.136629786077321569e-10
-1.110717517960324585e-09
1.872898280907975277e-09
7.741259716587123307e-11
1.358516854566005350e-09
-1.420825401776681929e-10
8.029981124479945720e-10
-9.688326807477665170e-10
-1.455291581686779523e-10
-1.263037230359032037e-09
-1.639505864403645319e-09
-1.273231742260350075e-09
1.241594715928329151e-09
-2.833391965495479781e-09
-1.229922497181235030e-09
-7.811786217892802142e-10
6.148007658524079488e-10
-1.800877447166726597e-09
8.368332693464708427e-10
-4.741944059638569797e-10
-1.898944779199496224e-09
1.164541574283362024e-09
5.063887087430885003e-10
-1.626879075899978488e-09
3.513599133864175883e-10
-1.184213505034392711e-09
-9.127342215364819822e-10
-1.349819700457999261e-09
-1.266045046577346511e-09
-1.328458565375001399e-09
-2.140456478727514877e-09
7.185001482667985329e-10
-4.715519086317954134e-10
-1.738064359102509115e-09
-1.744400596193074193e-10
2.060938975034787290e-09
1.955709594270160778e-09
-4.859861957307032299e-10
-4.687848442763709045e-10
2.972638801779226014e-11
-1.610737654367255800e-09
-2.330882431511582809e-10
1.472994837214969266e-09
8.395708572805915537e-10
4.509695950005720988e-10
2.054433956288903573e-09
-3.280377636194486968e-10
6.694058640732691856e-10
-3.568413342591725268e-09
9.725442673413908778e-10
-1.469917632057615720e-09
-1.110948111282539230e-09
-3.358893607696700201e-09
-9.331437844650736224e-10
-4.521834642834399176e-11
5.573120298585365617e-10
-8.831745335058371893e-10
-9.940052114743025413e-10
1.011496997271876808e-09
-1.112659298030393984e-09
8.402979423394185687e-10
-1.870623794753001334e-10
