2.854926139116287231e-02
-5.547009035944938660e-02
4.261933267116546631e-03
-8.094090968370437622e-03
-7.550240308046340942e-02
6.160018220543861389e-02
2.454617060720920563e-02
-5.569802224636077881e-02
-1.192637383937835693e-01
2.816559001803398132e-02
-1.311150491237640381e-01
-3.668430820107460022e-02
5.151636525988578796e-02
-8.523476123809814453e-02
-6.010258570313453674e-02
1.116103678941726685e-02
-1.051900610327720642e-01
-1.507654190063476562e-01
4.894895106554031372e-02
-5.355263873934745789e-02
-1.201595179736614227e-02
-1.310257762670516968e-01
1.917151850648224354e-03
-1.574005037546157837e-01
1.474409699440002441e-01
-6.234379857778549194e-02
3.999594599008560181e-03
1.303954720497131348e-01
1.874516345560550690e-02
7.017575204372406006e-02
-1.263380646705627441e-01
1.617111079394817352e-02
2.176953293383121490e-02
7.134184986352920532e-02
8.634441345930099487e-02
2.205927111208438873e-02
-9.633757174015045166e-02
6.295806169509887695e-02
3.872093558311462402e-02
-3.913749475032091141e-03
1.326645258814096451e-02
1.180824711918830872e-01
9.087878465652465820e-02
-1.860212236642837524e-01
4.594665765762329102e-02
1.407988369464874268e-02
6.174140051007270813e-02
9.286219626665115356e-02
1.230466514825820923e-01
7.005733903497457504e-03
-1.301416605710983276e-01
1.095746979117393494e-01
-8.714046329259872437e-02
-1.597941853106021881e-02
-7.387761771678924561e-02
9.603029489517211914e-02
1.210500150918960571e-01
1.222812384366989136e-01
6.772543489933013916e-02
-1.367141678929328918e-02
1.859830506145954132e-02
-7.563109695911407471e-02
-6.229342147707939148e-02
-3.183887526392936707e-02
-1.031593680381774902e-01
-1.087338626384735107e-01
1.851963810622692108e-02
-9.857457131147384644e-02
1.265103071928024292e-01
-3.632327914237976074e-02
1.114625260233879089e-01
1.552611589431762695e-02
-1.327011138200759888e-01
-5.785925686359405518e-02
-5.717374011874198914e-02
4.986051842570304871e-02
8.771461993455886841e-02
-7.953791320323944092e-02
-1.108910217881202698e-01
-2.612820640206336975e-02
-5.705391988158226013e-02
1.522093415260314941e-01
1.149148773401975632e-02
-1.429900974035263062e-01
1.435758024454116821e-01
9.422429651021957397e-02
2.093862555921077728e-02
-3.040212905034422874e-03
6.126900017261505127e-02
-6.542948633432388306e-02
-1.720735058188438416e-02
3.780561313033103943e-02
2.914298698306083679e-02
-5.582397058606147766e-02
1.186786293983459473e-01
-1.131151765584945679e-01
-9.182338416576385498e-02
1.113819703459739685e-01
-1.341674178838729858e-01
-1.513905823230743408e-01
1.227809637784957886e-01
-2.242752537131309509e-02
-2.958647534251213074e-02
-1.042186543345451355e-01
1.172838136553764343e-01
-7.500463724136352539e-02
-6.103161722421646118e-02
9.337889403104782104e-02
-4.522152990102767944e-02
-3.814173489809036255e-02
1.087311655282974243e-01
3.249063342809677124e-02
-6.590420007705688477e-02
8.344349265098571777e-02
-5.660293623805046082e-02
-1.108844876289367676e-01
4.398321732878684998e-02
-8.374828845262527466e-02
-1.447100774385035038e-03
1.160361841320991516e-01
-2.716525085270404816e-02
9.865124523639678955e-02
9.554646909236907959e-03
-4.683991149067878723e-02
1.499532908201217651e-01
-5.737625434994697571e-02
4.709094762802124023e-02
4.600341245532035828e-02
-2.559456415474414825e-02
9.166162461042404175e-02
1.299155503511428833e-01
1.483473628759384155e-01
-1.391850709915161133e-01
-2.865732461214065552e-02
-6.035916879773139954e-02
1.430089473724365234e-01
-1.551060378551483154e-02
5.835930258035659790e-02
-4.837954789400100708e-02
-2.725536003708839417e-02
8.243493735790252686e-02
8.502632379531860352e-02
4.669691249728202820e-02
-7.249784469604492188e-02
9.589345753192901611e-02
-9.096399694681167603e-02
5.848916620016098022e-02
9.952771663665771484e-02
9.441809356212615967e-02
9.290210902690887451e-02
2.316831611096858978e-02
-8.654248900711536407e-03
5.032103974372148514e-03
-1.035854816436767578e-01
-1.169304251670837402e-01
1.173375621438026428e-01
1.142154783010482788e-01
-4.600220546126365662e-02
-2.647026674821972847e-03
5.815021693706512451e-03
4.373191669583320618e-02
9.829335659742355347e-02
-7.746940851211547852e-02
5.481513589620590210e-02
1.951271481812000275e-02
-1.070204451680183411e-01
7.225983589887619019e-02
1.156840324401855469e-01
-2.333292178809642792e-02
-1.390522252768278122e-02
5.394625663757324219e-02
-2.951551601290702820e-02
1.056113913655281067e-01
1.405832618474960327e-01
1.418090462684631348e-01
-4.849057272076606750e-02
-5.920945480465888977e-02
2.929646894335746765e-02
1.480469107627868652e-01
6.916715204715728760e-02
-3.329838812351226807e-02
-6.824220716953277588e-02
-1.009016558527946472e-01
1.432873904705047607e-01
-8.077400922775268555e-02
-3.576075658202171326e-02
-1.070299744606018066e-01
8.973067626357078552e-03
9.933862835168838501e-02
2.859973348677158356e-02
-5.749539285898208618e-02
-1.149870306253433228e-01
-5.375269800424575806e-02
-2.209554798901081085e-02
-1.698261871933937073e-02
-5.359517037868499756e-02
6.058608368039131165e-02
-3.527560085058212280e-02
9.277286380529403687e-02
-3.570108674466609955e-04
-1.202739849686622620e-01
-6.333360075950622559e-02
1.025830432772636414e-01
1.510251779109239578e-03
-1.538741141557693481e-01
-8.432809263467788696e-03
-8.670735359191894531e-02
-3.867196291685104370e-02
-3.432066738605499268e-02
9.500519186258316040e-02
-1.250603944063186646e-01
5.396931618452072144e-02
-8.206494897603988647e-02
-1.198169887065887451e-01
-1.293843984603881836e-01
1.193764358758926392e-01
4.790379106998443604e-02
1.345546841621398926e-01
-1.380567252635955811e-01
-7.356246560811996460e-02
-9.840168058872222900e-03
1.111402586102485657e-01
-6.846394389867782593e-02
1.369468867778778076e-01
-1.050077751278877258e-02
-8.100477606058120728e-02
8.957641199231147766e-03
-8.980525285005569458e-02
-1.264568716287612915e-01
3.109472431242465973e-02
-5.154916644096374512e-02
1.075443327426910400e-01
3.830102831125259399e-02
-7.989051192998886108e-02
-6.920254975557327271e-02
-1.323847621679306030e-01
-6.616929918527603149e-02
6.623468548059463501e-02
-1.530252099037170410e-01
6.555532664060592651e-02
-5.539754405617713928e-02
9.856496006250381470e-03
7.884298264980316162e-02
1.501621399074792862e-02
-1.646545715630054474e-02
-1.553185004740953445e-02
-1.019189208745956421e-01
9.540542215108871460e-02
1.852267794311046600e-02
2.744397334754467010e-02
-9.035402536392211914e-02
-7.615119684487581253e-03
-5.037913843989372253e-02
-6.189238745719194412e-03
-8.600336313247680664e-02
-3.234457969665527344e-02
-2.871394529938697815e-02
-4.803055897355079651e-02
-6.706610787659883499e-03
-1.564957760274410248e-02
4.592187702655792236e-02
-7.464087009429931641e-02
-5.112532526254653931e-03
6.406971812248229980e-02
3.143906593322753906e-03
-7.836520671844482422e-02
5.399302393198013306e-02
3.190999478101730347e-02
-3.651976957917213440e-02
1.071464642882347107e-01
5.260027199983596802e-02
1.288933008909225464e-01
-6.102404743432998657e-02
-3.022277168929576874e-02
-1.222253218293190002e-01
8.484345674514770508e-02
-7.792818546295166016e-02
8.276960998773574829e-02
-9.968125075101852417e-02
2.211337722837924957e-02
-2.111864276230335236e-03
3.155006840825080872e-02
6.340905278921127319e-02
2.107672952115535736e-02
2.439411357045173645e-03
1.483500003814697266e-02
3.906466066837310791e-02
-6.176048889756202698e-02
-2.905192971229553223e-02
-1.697086542844772339e-02
2.731352485716342926e-02
9.084066003561019897e-02
-8.277673274278640747e-03
-4.952463135123252869e-02
5.092597007751464844e-02
-7.819627970457077026e-02
-5.066619813442230225e-02
5.410402663983404636e-04
1.275338679552078247e-01
-1.674727052450180054e-01
5.128980614244937897e-03
2.673976309597492218e-02
-3.631735220551490784e-02
-9.071274101734161377e-02
2.074626833200454712e-01
7.540529966354370117e-02
5.905984342098236084e-02
1.557064056396484375e-01
7.736891508102416992e-03
-1.251043565571308136e-02
-1.268908977508544922e-01
8.345183730125427246e-02
9.372511506080627441e-02
-6.119406968355178833e-02
-1.095198243856430054e-01
6.494349241256713867e-02
-1.133535429835319519e-01
1.084830462932586670e-01
-1.226351633667945862e-01
9.764275513589382172e-03
-1.804463267326354980e-01
-8.216086775064468384e-02
-5.087402090430259705e-02
-1.430306117981672287e-02
-1.905506104230880737e-02
-1.001087278127670288e-01
6.150275468826293945e-03
1.268649399280548096e-01
-6.878706067800521851e-02
-9.773959964513778687e-02
1.910100458189845085e-03
-2.084114030003547668e-02
-1.140894219279289246e-01
1.402424126863479614e-01
-1.199437975883483887e-01
-9.793644398450851440e-02
-6.070671603083610535e-02
4.719867836683988571e-03
7.490754872560501099e-02
2.468395745381712914e-03
4.690676555037498474e-02
1.233416348695755005e-01
8.549125492572784424e-02
1.051184982061386108e-01
-2.495421282947063446e-02
-1.199657097458839417e-01
8.409742265939712524e-02
1.099971011281013489e-01
1.282094568014144897e-01
1.509926319122314453e-01
1.077313646674156189e-01
-9.751562029123306274e-02
1.523254066705703735e-01
-1.541537232697010040e-02
1.039367690682411194e-01
-7.589729875326156616e-02
1.413523703813552856e-01
3.480618819594383240e-02
-2.858489565551280975e-02
-6.220601499080657959e-02
3.889222443103790283e-02
3.713583573698997498e-02
1.583609700901433825e-04
1.509256213903427124e-01
1.438411921262741089e-01
-8.705677092075347900e-02
1.725284568965435028e-02
-1.397485733032226562e-01
5.676763504743576050e-02
-8.030574768781661987e-02
-2.286256104707717896e-02
-2.615044265985488892e-02
1.849626600742340088e-01
9.068409353494644165e-02
6.329857558012008667e-02
9.560529887676239014e-02
-3.833620622754096985e-02
-1.740382052958011627e-02
-1.967041008174419403e-02
1.138601601123809814e-01
-8.572402596473693848e-02
1.291125416755676270e-01
1.823107013478875160e-03
6.147662177681922913e-02
3.873894736170768738e-02
-5.215271562337875366e-02
1.351330876350402832e-01
4.231039807200431824e-02
-4.752973467111587524e-02
2.980728819966316223e-02
3.528287634253501892e-02
1.031102016568183899e-01
-9.240122139453887939e-02
-6.383012980222702026e-02
7.362373173236846924e-02
-5.270502716302871704e-02
4.471592977643013000e-02
3.306943690404295921e-03
-1.193677037954330444e-01
-1.459555476903915405e-01
-1.014189198613166809e-01
4.250184074044227600e-02
-1.287037283182144165e-01
5.493638664484024048e-02
7.673312723636627197e-02
-1.185178756713867188e-01
-8.523486554622650146e-02
-1.039069667458534241e-01
-3.609696775674819946e-02
7.482838630676269531e-02
4.856452345848083496e-03
-1.089343428611755371e-01
-1.119661852717399597e-01
-7.459488511085510254e-02
-6.960665434598922729e-02
9.594146162271499634e-03
5.961653962731361389e-02
4.723893105983734131e-02
7.927713543176651001e-02
5.051348358392715454e-02
-1.110077649354934692e-01
-7.936693727970123291e-02
-1.039781719446182251e-01
6.601917743682861328e-02
-9.196385741233825684e-02
-4.710721224546432495e-02
-9.999140352010726929e-02
-5.377977341413497925e-02
4.496905207633972168e-02
9.342541545629501343e-02
-5.121694505214691162e-02
8.721254765987396240e-02
-1.229802966117858887e-01
-6.609436869621276855e-02
1.154811978340148926e-01
-2.151574194431304932e-02
-3.308223560452461243e-02
2.946154959499835968e-02
1.685643568634986877e-02
1.417003273963928223e-01
-8.027543127536773682e-02
4.359415918588638306e-02
-1.056240051984786987e-01
8.063463121652603149e-02
-2.265811897814273834e-02
4.400666430592536926e-02
-2.229715883731842041e-02
8.723060786724090576e-02
1.235933154821395874e-01
4.136297479271888733e-02
-1.662172377109527588e-01
7.558658253401517868e-04
2.081262879073619843e-03
1.039773300290107727e-01
-6.666543334722518921e-02
-9.949185699224472046e-02
-4.149078205227851868e-02
-2.474105730652809143e-02
-7.147676497697830200e-02
-8.612612634897232056e-02
-1.234341636300086975e-01
-7.938776165246963501e-02
1.143388524651527405e-01
2.383455820381641388e-02
1.783580631017684937e-01
-9.365881979465484619e-02
-9.410993754863739014e-02
1.275683939456939697e-02
5.391583964228630066e-02
6.123056635260581970e-02
-1.680165529251098633e-01
1.147382520139217377e-02
1.771260052919387817e-01
-5.516424030065536499e-02
-6.801895797252655029e-02
-1.120356097817420959e-01
-1.466801464557647705e-01
-3.401455283164978027e-02
-4.841478541493415833e-02
3.925623744726181030e-02
-1.251267045736312866e-01
3.866282105445861816e-02
9.407385252416133881e-03
1.494416594505310059e-01
-4.169111140072345734e-03
-7.692842930555343628e-02
-4.079874604940414429e-02
2.509590983390808105e-02
-7.088609971106052399e-03
2.099503949284553528e-02
5.169193819165229797e-02
-6.218878179788589478e-02
-3.189632669091224670e-02
3.760679066181182861e-02
8.602291345596313477e-03
9.151850827038288116e-03
-7.769049704074859619e-02
1.347451508045196533e-01
9.917877614498138428e-03
-9.821061044931411743e-03
3.726140782237052917e-02
-5.028681829571723938e-02
3.151547908782958984e-02
-9.018874168395996094e-02
-6.186395511031150818e-02
4.318227246403694153e-02
3.006041236221790314e-02
-1.242867633700370789e-01
-3.000180982053279877e-02
-6.168395280838012695e-02
-6.652701646089553833e-02
1.122013106942176819e-01
-3.497463464736938477e-02
-8.267774432897567749e-02
2.284720726311206818e-02
1.056946441531181335e-01
4.884496703743934631e-02
8.265531063079833984e-02
-5.379434674978256226e-02
-3.119699470698833466e-02
9.841877222061157227e-02
5.604325607419013977e-02
-1.211688220500946045e-01
1.087976992130279541e-01
7.487023621797561646e-02
-8.647757023572921753e-02
1.200614869594573975e-01
-4.389465972781181335e-02
-3.491584584116935730e-02
-1.047845557332038879e-01
-3.929508104920387268e-02
3.602322190999984741e-02
-1.042806357145309448e-01
5.835510045289993286e-02
-1.204930394887924194e-01
1.353978831321001053e-02
2.780565433204174042e-02
2.151782996952533722e-02
4.486043006181716919e-02
8.994641155004501343e-02
-1.023994684219360352e-01
8.574999868869781494e-02
1.238975524902343750e-01
6.705666333436965942e-02
1.317276507616043091e-01
-1.523778736591339111e-01
4.907217621803283691e-02
1.340745240449905396e-01
7.219351362437009811e-03
-1.055256724357604980e-01
-1.239148899912834167e-01
-6.959995627403259277e-02
5.273349210619926453e-02
6.970066577196121216e-02
6.672684848308563232e-02
-5.648764222860336304e-02
-2.739350311458110809e-02
-5.803092941641807556e-02
1.468083858489990234e-01
-1.610290110111236572e-01
4.864411801099777222e-02
-1.832695864140987396e-02
3.136599436402320862e-02
1.522489041090011597e-01
-8.049014210700988770e-02
-9.663126431405544281e-03
-3.888082504272460938e-02
3.620303049683570862e-02
-5.036835744976997375e-02
6.982308626174926758e-02
-8.955876529216766357e-02
-1.307480484247207642e-01
3.136221086606383324e-03
-5.592524260282516479e-02
-7.031557708978652954e-02
8.088693954050540924e-03
-8.492107689380645752e-02
1.404237002134323120e-02
-6.075033545494079590e-02
1.180446967482566833e-01
-7.646219432353973389e-02
-4.080769419670104980e-02
-7.428175956010818481e-02
-1.000356227159500122e-01
1.153605580329895020e-01
-7.115530222654342651e-02
-3.394541516900062561e-02
4.319019988179206848e-02
3.208728879690170288e-02
-4.670593142509460449e-02
6.484326720237731934e-02
-8.583201467990875244e-02
2.150357700884342194e-02
9.678488224744796753e-02
-7.906411588191986084e-02
-6.246526911854743958e-02
3.740078955888748169e-02
4.344028234481811523e-02
2.065569907426834106e-02
9.540902823209762573e-02
-9.287245571613311768e-02
-2.544013224542140961e-02
1.661232411861419678e-01
-4.090801253914833069e-02
-9.962270408868789673e-02
3.596535883843898773e-03
2.242560265585780144e-03
6.515380740165710449e-02
9.092012047767639160e-02
3.190102800726890564e-02
-7.398593425750732422e-02
4.974349960684776306e-02
-7.254549860954284668e-02
3.301189467310905457e-02
-3.098477423191070557e-02
-1.755255088210105896e-02
-1.350379735231399536e-01
-4.591021686792373657e-02
6.245511397719383240e-02
6.308934837579727173e-02
-6.006972119212150574e-02
9.583501517772674561e-02
4.575288295745849609e-02
-2.937155775725841522e-02
1.101944744586944580e-01
-1.125076487660408020e-01
-2.361796237528324127e-02
1.274969130754470825e-01
1.275756508111953735e-01
1.289714723825454712e-01
-1.184152811765670776e-01
-1.400486826896667480e-01
3.846025839447975159e-02
9.702131897211074829e-02
-7.676188647747039795e-02
-2.387642301619052887e-02
1.591606065630912781e-02
1.427755206823348999e-01
5.698893219232559204e-02
3.154008416458964348e-03
5.413530766963958740e-02
1.974401064217090607e-02
3.147890791296958923e-02
9.100621566176414490e-03
3.617848083376884460e-02
-4.140071943402290344e-02
9.167439490556716919e-02
3.858784213662147522e-02
1.005132868885993958e-01
7.106239348649978638e-02
2.330354042351245880e-02
-1.088006719946861267e-01
-1.655302345752716064e-01
-9.085161983966827393e-02
-5.774581059813499451e-02
-6.974730640649795532e-02
-3.373154997825622559e-02
5.115040019154548645e-02
-4.595030471682548523e-02
8.018557727336883545e-02
1.351030450314283371e-02
-4.089521616697311401e-02
-1.645178794860839844e-01
-1.007940694689750671e-01
1.108735725283622742e-01
1.228984072804450989e-01
3.871249780058860779e-02
7.351116091012954712e-02
2.217573812231421471e-03
6.085833534598350525e-02
2.346468716859817505e-02
6.798405200242996216e-02
-5.812910571694374084e-02
2.459328807890415192e-02
-6.031763926148414612e-02
9.352185577154159546e-02
7.258870452642440796e-02
-1.502493619918823242e-01
-6.420581787824630737e-02
-5.294494330883026123e-02
2.614075085148215294e-03
3.484019637107849121e-02
-9.280481189489364624e-02
-4.218721762299537659e-02
-5.879984423518180847e-02
-1.252877861261367798e-01
-1.994067803025245667e-02
1.003988981246948242e-01
3.010836429893970490e-02
5.843615159392356873e-02
-2.619016543030738831e-02
-4.527467489242553711e-02
-2.703944034874439240e-02
-1.160762738436460495e-02
9.226454794406890869e-02
-1.452107876539230347e-01
-3.247918561100959778e-02
-8.791608363389968872e-02
6.144272536039352417e-02
-1.729334890842437744e-01
-6.096718460321426392e-02
-1.430256385356187820e-02
4.029175266623497009e-02
8.917975425720214844e-02
1.068366393446922302e-01
1.606206037104129791e-02
-3.333089873194694519e-02
-1.213383302092552185e-01
1.487879157066345215e-01
-9.171478450298309326e-02
2.782534621655941010e-02
-9.153524786233901978e-02
2.361371368169784546e-02
-3.814200311899185181e-02
1.207716092467308044e-01
-6.596893817186355591e-02
-9.324342012405395508e-02
-1.023584511131048203e-02
-6.184030696749687195e-02
3.779579699039459229e-02
-1.939965412020683289e-02
-7.780702412128448486e-02
-8.188603073358535767e-02
-7.088638842105865479e-02
-8.802759647369384766e-02
-1.312876958400011063e-02
-1.500362604856491089e-01
-1.290680021047592163e-01
-3.785484284162521362e-02
4.161209240555763245e-02
-1.311539709568023682e-01
2.375665493309497833e-02
1.674246788024902344e-02
-3.836690261960029602e-02
-1.621547788381576538e-01
3.522998467087745667e-02
9.385152719914913177e-03
7.911726087331771851e-02
-1.632889211177825928e-01
-2.726345695555210114e-02
-7.807182520627975464e-02
3.857079718727618456e-04
1.773185729980468750e-01
-5.677272006869316101e-02
2.040036395192146301e-02
-1.653692685067653656e-02
7.470190525054931641e-03
-1.073919609189033508e-01
-3.078002668917179108e-02
-5.782425776124000549e-02
-3.702825680375099182e-02
9.246685355901718140e-02
-1.278285831212997437e-01
4.467768594622612000e-02
-1.422652602195739746e-01
-1.161082535982131958e-01
-1.534402370452880859e-01
-8.701065927743911743e-02
-5.449109151959419250e-02
1.111322827637195587e-02
8.884464390575885773e-03
1.400835718959569931e-02
-5.794331431388854980e-02
4.143005609512329102e-02
1.274369359016418457e-01
4.534254223108291626e-02
2.544264681637287140e-02
-2.351516671478748322e-02
7.625009864568710327e-02
6.506018340587615967e-02
-9.511888027191162109e-02
-1.193900778889656067e-01
1.356259882450103760e-01
4.028496146202087402e-02
4.842140898108482361e-02
-1.006827205419540405e-01
-1.053609326481819153e-01
1.145258247852325439e-01
2.160595962777733803e-03
6.588246673345565796e-02
-1.480670869350433350e-01
-1.108851134777069092e-01
-3.877786546945571899e-02
-6.608939170837402344e-02
3.249505907297134399e-02
1.661470383405685425e-01
-9.911125898361206055e-02
-9.639365971088409424e-02
4.998439177870750427e-02
-1.229558046907186508e-02
1.223356798291206360e-01
1.036442294716835022e-01
-5.195362027734518051e-03
-6.377018988132476807e-02
-1.385648846626281738e-01
5.734609067440032959e-02
-1.210414469242095947e-01
2.120042452588677406e-03
-3.857092186808586121e-02
-5.366515740752220154e-02
1.090255230665206909e-01
-5.024220049381256104e-02
1.116730719804763794e-01
-6.013201922178268433e-02
-6.753947585821151733e-02
1.350957602262496948e-01
-8.690799772739410400e-02
-4.454624652862548828e-02
8.441960811614990234e-02
-1.517056077718734741e-01
6.864729523658752441e-02
-5.235099792480468750e-02
1.440742313861846924e-01
3.586879745125770569e-02
-3.344985097646713257e-02
4.714108631014823914e-02
-1.001175194978713989e-01
1.082510203123092651e-01
1.113204881548881531e-01
-5.441702436655759811e-03
1.358194202184677124e-01
-4.064541682600975037e-02
-5.971369799226522446e-03
1.529338061809539795e-01
-1.525863111019134521e-01
-5.425224825739860535e-02
-4.029758647084236145e-02
-5.898809060454368591e-02
5.490842461585998535e-02
5.119622871279716492e-02
2.378426864743232727e-02
-7.797755766659975052e-03
-1.292615681886672974e-01
-7.867509126663208008e-02
-1.006322260946035385e-02
-1.749029755592346191e-02
1.829027831554412842e-01
5.414390470832586288e-03
4.810024052858352661e-02
-8.790808171033859253e-02
4.119249060750007629e-04
1.325245499610900879e-01
1.104066520929336548e-01
7.709930092096328735e-02
-2.070341072976589203e-02
-1.393130421638488770e-01
-1.164172217249870300e-02
3.906742110848426819e-02
-1.513519585132598877e-01
1.140561327338218689e-01
8.153617382049560547e-02
5.188391730189323425e-02
4.236835986375808716e-02
6.358820199966430664e-02
1.626759208738803864e-02
1.193513162434101105e-02
1.420591492205858231e-02
-4.057267215102910995e-03
8.128894120454788208e-02
-9.444924071431159973e-03
2.775021828711032867e-02
-2.963899634778499603e-02
-7.631096523255109787e-04
-1.479425579309463501e-01
1.634201109409332275e-01
1.494517028331756592e-01
-9.010177850723266602e-02
-4.595222696661949158e-02
-9.434967488050460815e-02
-7.902922108769416809e-03
2.041533030569553375e-02
-2.261418476700782776e-02
-1.175671145319938660e-01
3.729335218667984009e-02
-1.254363358020782471e-01
1.506521701812744141e-01
5.980059877038002014e-02
-1.096105482429265976e-02
-1.582411527633666992e-01
9.919556789100170135e-03
-5.931809172034263611e-02
3.811018168926239014e-02
1.598943769931793213e-01
-1.250735074281692505e-01
-1.093380078673362732e-01
1.228228658437728882e-01
4.945552349090576172e-02
1.899741291999816895e-01
2.972207777202129364e-02
3.599059209227561951e-02
1.422127056866884232e-02
5.568592995405197144e-02
-2.855308167636394501e-02
-8.883248269557952881e-02
1.004469618201255798e-01
5.164312943816184998e-02
3.788585588335990906e-02
-9.542010724544525146e-02
-8.169351518154144287e-02
-2.404031716287136078e-02
1.927086710929870605e-02
-1.256404221057891846e-01
-5.977123230695724487e-02
-1.099464576691389084e-02
8.775585144758224487e-02
3.810415789484977722e-02
-3.684846684336662292e-02
-4.835739731788635254e-02
-1.275359392166137695e-01
-7.728950679302215576e-02
8.157401531934738159e-02
8.638801425695419312e-02
-8.467472158372402191e-03
-1.162906289100646973e-01
2.574512362480163574e-02
4.183693602681159973e-02
1.004804484546184540e-02
-9.899041056632995605e-02
4.540206864476203918e-02
1.945310831069946289e-02
-6.263780593872070312e-02
-1.183332875370979309e-01
1.216254010796546936e-01
-4.056761041283607483e-02
-7.133339345455169678e-02
7.138445228338241577e-02
-1.539108622819185257e-02
-4.833567142486572266e-02
5.025124642997980118e-03
3.168536350131034851e-02
8.793435245752334595e-02
4.003096744418144226e-02
4.776309430599212646e-02
-6.380181759595870972e-02
-1.260184943675994873e-01
-7.595250755548477173e-02
-1.364831328392028809e-01
6.221752241253852844e-02
-7.404227554798126221e-02
-1.106683462858200073e-01
-6.605461239814758301e-02
-9.827174246311187744e-02
1.163645461201667786e-01
-8.360555768013000488e-02
7.466308027505874634e-02
9.782659262418746948e-02
-1.086054295301437378e-01
9.148178249597549438e-02
-6.313842535018920898e-02
-1.220202669501304626e-01
-1.303981523960828781e-02
1.731952652335166931e-02
-1.045784130692481995e-01
-6.351682543754577637e-02
-1.186028793454170227e-01
-1.054223999381065369e-01
8.978416211903095245e-03
-7.862816751003265381e-02
2.997840195894241333e-02
-6.880276650190353394e-02
-1.101282984018325806e-01
1.169223487377166748e-01
2.297366410493850708e-02
6.085320841521024704e-03
-7.205417007207870483e-02
1.305680163204669952e-02
-1.376038938760757446e-01
6.022092700004577637e-02
3.258370980620384216e-02
1.187822520732879639e-01
9.379211068153381348e-02
8.874978870153427124e-02
-3.283045813441276550e-02
-8.394403755664825439e-02
8.491569757461547852e-02
5.033344030380249023e-02
-1.356417089700698853e-01
2.063586749136447906e-02
-4.560704156756401062e-02
1.634883694350719452e-02
8.137068152427673340e-02
-5.124391987919807434e-02
1.001684367656707764e-02
4.468271508812904358e-02
6.051018834114074707e-02
7.059773802757263184e-02
-6.278592348098754883e-02
-8.203027397394180298e-02
4.187111929059028625e-02
-8.391425758600234985e-02
8.688810467720031738e-02
-4.704125598073005676e-02
7.255527377128601074e-02
1.004927828907966614e-01
-4.292546212673187256e-02
-9.163150191307067871e-02
5.335407331585884094e-02
6.835798919200897217e-02
-1.348915393464267254e-03
1.021480187773704529e-01
-1.007191762328147888e-01
-1.162059456110000610e-01
8.810754865407943726e-02
1.006977409124374390e-01
1.740872114896774292e-01
-4.321761429309844971e-02
4.496989399194717407e-02
-9.429909288883209229e-03
2.359790354967117310e-02
8.070659637451171875e-02
9.975036233663558960e-02
-7.688564062118530273e-02
5.664069578051567078e-02
-1.054524034261703491e-01
-7.552561163902282715e-02
1.817423552274703979e-01
-5.446708947420120239e-02
1.486025005578994751e-01
-2.467143908143043518e-02
-1.869428530335426331e-02
4.763366654515266418e-02
-7.860950380563735962e-02
-2.000062912702560425e-02
-1.193695887923240662e-01
1.003279760479927063e-01
9.849482029676437378e-02
-9.372273087501525879e-02
-1.191262751817703247e-01
3.069873526692390442e-02
-2.401139400899410248e-02
-1.122771799564361572e-01
-7.064377516508102417e-02
-6.393331103026866913e-03
-2.545503154397010803e-02
8.647119998931884766e-02
-4.880880564451217651e-02
-1.960936374962329865e-02
-6.189680844545364380e-02
-6.666093319654464722e-02
-1.545372232794761658e-02
8.855648338794708252e-02
-4.261958226561546326e-02
9.283173829317092896e-03
4.799512773752212524e-02
1.027445793151855469e-01
-4.519343376159667969e-02
5.566766951233148575e-03
-8.408903144299983978e-03
1.031142100691795349e-01
-7.369082421064376831e-02
-1.903975158929824829e-01
-1.176473572850227356e-01
-9.429299086332321167e-02
-9.272785857319831848e-03
5.059971287846565247e-02
9.693271666765213013e-02
2.449289150536060333e-02
1.080788448452949524e-01
7.845580577850341797e-02
-5.226238071918487549e-02
-8.738531731069087982e-03
-7.845450937747955322e-02
-1.538044679909944534e-02
1.568936109542846680e-01
-1.054428964853286743e-01
-1.141070201992988586e-01
-1.010290756821632385e-01
2.852940745651721954e-02
1.539646387100219727e-01
9.031607210636138916e-02
-7.091249525547027588e-02
-4.090673103928565979e-02
-3.844202682375907898e-02
-2.675929851830005646e-02
4.103448987007141113e-02
-1.067995727062225342e-01
1.491802632808685303e-01
1.041486114263534546e-01
2.440477535128593445e-02
-1.455277949571609497e-02
9.398822486400604248e-02
-7.798450440168380737e-02
-2.477613091468811035e-02
3.818274661898612976e-02
1.383625268936157227e-01
1.289424002170562744e-01
-3.723709285259246826e-02
6.560433655977249146e-02
1.477266568690538406e-02
4.182632267475128174e-02
-2.696085348725318909e-02
1.200444772839546204e-01
-1.214007288217544556e-01
7.585211098194122314e-02
4.513886198401451111e-02
1.129280552268028259e-01
7.039232552051544189e-02
-3.465997055172920227e-02
-1.199778616428375244e-01
-2.343493513762950897e-02
-9.069988876581192017e-02
-3.301341831684112549e-02
-1.214129626750946045e-01
3.047855803743004799e-03
-1.049027889966964722e-01
-6.337277591228485107e-02
-6.039819121360778809e-02
1.202388666570186615e-02
-1.085608378052711487e-01
9.603562951087951660e-02
1.100308895111083984e-01
3.154485300183296204e-02
1.949670910835266113e-02
9.758196026086807251e-02
9.006241708993911743e-02
-7.848542183637619019e-02
-1.134554296731948853e-01
-9.161358699202537537e-03
-7.821509987115859985e-02
-6.955076474696397781e-03
1.132771372795104980e-01
-8.246192336082458496e-02
6.053414940834045410e-02
-4.605661705136299133e-02
-6.662448495626449585e-02
-1.665025949478149414e-01
7.641585078090429306e-03
4.225355014204978943e-02
-1.402017921209335327e-01
-2.562329173088073730e-02
2.589821070432662964e-02
-1.016686037182807922e-01
-1.429776102304458618e-02
4.412189126014709473e-02
1.260259598493576050e-01
7.067762315273284912e-02
-5.861665308475494385e-02
-4.809900000691413879e-02
8.011490106582641602e-02
-1.982082240283489227e-02
1.222559809684753418e-01
1.218520402908325195e-01
-8.951970934867858887e-02
3.067327104508876801e-02
-6.487262248992919922e-02
-4.640050604939460754e-02
-6.910546869039535522e-02
-5.066524073481559753e-02
-2.485927939414978027e-02
1.452763378620147705e-01
-9.352620691061019897e-02
5.326845496892929077e-02
1.124577298760414124e-01
-4.895842820405960083e-02
1.253498252481222153e-02
1.281658411026000977e-01
7.532662898302078247e-02
-9.612794965505599976e-03
6.926833093166351318e-02
-1.190045699477195740e-01
-1.167358458042144775e-01
4.641434550285339355e-02
1.599518768489360809e-02
-1.397240459918975830e-01
-2.577420137822628021e-02
-2.423009648919105530e-02
-3.847346827387809753e-02
2.378438599407672882e-02
2.414701506495475769e-03
-7.940495014190673828e-02
7.059371564537286758e-03
1.174312755465507507e-01
-2.429487928748130798e-02
-1.816798001527786255e-02
9.173468500375747681e-02
5.678390339016914368e-02
9.682351350784301758e-02
9.603162109851837158e-02
-1.387296020984649658e-01
1.770568266510963440e-02
-1.221281439065933228e-01
-1.089655682444572449e-01
-1.218910738825798035e-01
6.948527693748474121e-02
-5.994064360857009888e-02
-2.800707332789897919e-02
-1.136787682771682739e-01
-3.355546668171882629e-02
-1.170875281095504761e-01
-2.778030757326632738e-04
7.339849323034286499e-02
2.742427587509155273e-02
-6.278251111507415771e-02
-2.997526153922080994e-02
-5.290354602038860321e-03
-1.329600960016250610e-01
-1.042969152331352234e-01
1.870636083185672760e-02
-3.276121243834495544e-02
1.677123457193374634e-02
-5.113437771797180176e-02
-1.258322969079017639e-02
6.657735258340835571e-02
-1.061550155282020569e-01
-6.605019420385360718e-02
7.988896220922470093e-02
-3.679465875029563904e-02
1.572329178452491760e-02
1.008104607462882996e-01
1.011959016323089600e-01
-6.006480008363723755e-02
7.303587347269058228e-02
-1.628465019166469574e-03
3.630515187978744507e-02
-1.045958697795867920e-01
-1.973390579223632812e-03
-6.517706811428070068e-02
-4.177454859018325806e-02
2.292071096599102020e-02
-1.104385554790496826e-01
-1.421052664518356323e-01
8.322137594223022461e-02
7.010553032159805298e-02
-9.407583624124526978e-02
1.134260147809982300e-01
-3.529629483819007874e-02
-1.389158307574689388e-03
6.308362632989883423e-02
1.004705429077148438e-01
9.136020392179489136e-02
4.918655380606651306e-02
-6.873722374439239502e-02
1.182559281587600708e-01
5.146073177456855774e-02
5.938320606946945190e-02
7.642357051372528076e-02
2.362360246479511261e-02
3.910264745354652405e-02
-1.136301308870315552e-01
5.165567621588706970e-02
1.715368926525115967e-01
-1.162274628877639771e-01
3.281188011169433594e-02
1.582380831241607666e-01
9.551404416561126709e-02
1.148800998926162720e-01
7.579372823238372803e-02
-1.008400917053222656e-01
-8.274070918560028076e-02
-8.401821553707122803e-02
-8.518818765878677368e-03
-1.043469905853271484e-01
3.196587786078453064e-02
-3.053370304405689240e-02
-2.883481979370117188e-02
-1.624345593154430389e-02
1.247619986534118652e-01
1.637021154165267944e-01
1.169262081384658813e-02
-3.248543664813041687e-02
-9.888686239719390869e-02
6.326577812433242798e-02
-5.000288411974906921e-02
7.063952088356018066e-02
2.459395863115787506e-02
-7.215200364589691162e-02
6.754609942436218262e-02
-6.941270083189010620e-02
-1.198238879442214966e-01
-1.362826526165008545e-01
9.885722398757934570e-02
7.923131436109542847e-02
1.309101283550262451e-01
-5.096531659364700317e-02
6.093536037951707840e-03
2.045284584164619446e-02
2.708793152123689651e-03
-1.523796021938323975e-01
-5.108346045017242432e-02
1.113540083169937134e-01
1.485283300280570984e-02
1.290910094976425171e-01
1.378685832023620605e-01
-5.197485163807868958e-02
-2.529968693852424622e-02
9.066788107156753540e-02
-1.245996356010437012e-01
-6.427834182977676392e-02
-3.748612850904464722e-02
7.099515199661254883e-02
1.933285295963287354e-01
1.255268752574920654e-01
1.375607252120971680e-01
-7.471419405192136765e-03
1.148319095373153687e-01
-2.605767734348773956e-02
1.372379716485738754e-03
1.575364321470260620e-01
-4.158632829785346985e-02
-3.034503199160099030e-02
-6.388007104396820068e-02
-1.226598247885704041e-01
1.217116490006446838e-01
-9.892270714044570923e-02
-1.298366039991378784e-01
-8.965884894132614136e-02
-1.449712831526994705e-02
-9.982043504714965820e-02
-3.852467983961105347e-02
-1.136147230863571167e-01
1.695098541676998138e-02
-8.609615266323089600e-02
-2.380442805588245392e-02
-7.037553936243057251e-02
7.001350820064544678e-02
-4.457348585128784180e-02
-9.202309697866439819e-02
4.629988223314285278e-02
5.006994120776653290e-03
5.168764665722846985e-02
-1.164229139685630798e-01
-8.711113035678863525e-02
-1.089581698179244995e-01
-9.900615364313125610e-02
7.763769011944532394e-03
-6.144736707210540771e-02
-1.161333769559860229e-01
8.276502601802349091e-03
-9.863322973251342773e-02
-8.914292603731155396e-02
1.663977801799774170e-01
-4.300972074270248413e-02
8.440142124891281128e-02
-5.705465376377105713e-02
6.669004913419485092e-03
-1.880430616438388824e-02
-1.822530291974544525e-02
7.185747474431991577e-02
-6.446992605924606323e-02
-1.386273745447397232e-02
1.636165380477905273e-01
-4.244844987988471985e-02
4.626742005348205566e-02
1.368836462497711182e-01
-3.059761598706245422e-02
-1.412937976419925690e-02
9.642744064331054688e-02
1.881706118583679199e-01
-9.123434126377105713e-02
-3.731155768036842346e-02
-5.395136401057243347e-02
6.691242754459381104e-02
-1.281060874462127686e-01
1.120972558856010437e-01
1.288204044103622437e-01
8.856274932622909546e-02
2.894834429025650024e-02
-5.067439377307891846e-02
1.110101677477359772e-02
-3.805169090628623962e-02
1.211925745010375977e-01
-5.465935543179512024e-02
1.549105718731880188e-02
7.110973447561264038e-02
-9.054636210203170776e-02
1.125252842903137207e-01
1.334240287542343140e-01
-1.685179397463798523e-02
-5.212856829166412354e-02
1.061588972806930542e-01
-5.821256339550018311e-02
1.169072389602661133e-01
1.384942978620529175e-01
-1.250052750110626221e-01
-2.214208431541919708e-02
-4.146009311079978943e-02
-6.165854632854461670e-02
-1.642546653747558594e-01
-2.758283540606498718e-02
1.345752328634262085e-01
1.909159682691097260e-02
8.549588918685913086e-02
-7.825647480785846710e-03
7.817653566598892212e-02
1.276112645864486694e-01
6.463886797428131104e-02
1.019407287240028381e-01
1.305696647614240646e-02
-6.820488721132278442e-02
1.112276166677474976e-01
1.171151641756296158e-02
-5.787502974271774292e-02
-3.500954806804656982e-02
-9.131410717964172363e-02
3.739980235695838928e-02
-1.212777718901634216e-01
8.184649050235748291e-03
-1.038101315498352051e-01
6.419008970260620117e-02
-3.912306204438209534e-02
6.483694165945053101e-02
1.286458671092987061e-01
-3.439750149846076965e-02
6.729922443628311157e-02
-5.004135519266128540e-02
-1.127430722117424011e-01
3.196078911423683167e-02
-9.771325439214706421e-02
-5.880648642778396606e-02
-7.982801645994186401e-02
5.918576568365097046e-02
4.631100967526435852e-02
-1.129154637455940247e-01
3.476430475711822510e-02
-1.354713588953018188e-01
-9.738142788410186768e-02
5.064002051949501038e-02
-2.010282687842845917e-02
-7.222940772771835327e-02
-3.712768480181694031e-02
-3.195737302303314209e-02
6.760459393262863159e-02
5.726936087012290955e-02
4.812256619334220886e-02
-1.472326926887035370e-02
-5.816436186432838440e-02
5.251351743936538696e-02
3.414937853813171387e-02
-1.154955327510833740e-01
6.179896369576454163e-02
-6.911896914243698120e-02
9.481150656938552856e-03
-1.235609874129295349e-01
-7.510557770729064941e-02
1.260202676057815552e-01
-7.562232349300757051e-05
3.555815666913986206e-02
1.196954324841499329e-01
4.084014147520065308e-02
-1.098548155277967453e-02
9.687474370002746582e-02
9.594821184873580933e-02
1.670726388692855835e-02
1.046524345874786377e-01
1.422462761402130127e-01
6.019963324069976807e-02
-3.255413321312516928e-04
-4.752193018794059753e-02
4.237041994929313660e-02
-2.842512354254722595e-02
-3.619742020964622498e-02
-1.142455935478210449e-01
6.809570640325546265e-02
1.138352006673812866e-01
1.248016357421875000e-01
-6.630513817071914673e-02
1.342567987740039825e-02
-4.303250461816787720e-02
6.924876570701599121e-02
8.332011103630065918e-02
-8.227264136075973511e-02
9.548846632242202759e-02
-1.510043442249298096e-01
-6.247773766517639160e-02
1.678102463483810425e-01
-3.475849051028490067e-03
-5.935663357377052307e-02
-2.939210645854473114e-02
-1.466871500015258789e-01
-3.010180592536926270e-02
-6.856109946966171265e-02
1.160806640982627869e-01
-9.472409263253211975e-03
7.367495447397232056e-02
-1.718353033065795898e-01
-1.030757576227188110e-01
4.375853016972541809e-02
-5.020249634981155396e-02
7.486964762210845947e-02
-8.686459809541702271e-02
-2.584559656679630280e-02
8.732760697603225708e-02
1.157177239656448364e-02
-1.845821971073746681e-03
-1.390116661787033081e-01
6.181103736162185669e-02
1.306023895740509033e-01
7.854221761226654053e-02
2.826639451086521149e-02
-1.569163799285888672e-02
-1.924679498188197613e-03
2.515443135052919388e-03
-5.334515869617462158e-02
-7.504356652498245239e-02
-1.150817498564720154e-01
-5.270029231905937195e-02
-4.802706837654113770e-02
6.030306592583656311e-02
5.120786279439926147e-02
9.341659396886825562e-02
-4.406835883855819702e-02
7.939684391021728516e-02
-1.373466849327087402e-01
8.293156512081623077e-03
-7.615350186824798584e-02
9.651884436607360840e-02
1.476432103663682938e-02
1.259428113698959351e-01
1.069222986698150635e-01
6.662216037511825562e-02
-9.864528477191925049e-02
2.865063212811946869e-02
-1.175562441349029541e-01
-2.346224896609783173e-02
-6.502942740917205811e-02
-7.625116407871246338e-02
-8.904505521059036255e-02
-1.010771468281745911e-01
9.497414529323577881e-02
-3.058876842260360718e-03
-4.955211281776428223e-02
4.158145934343338013e-02
-1.254463493824005127e-01
5.785533040761947632e-02
-3.939412906765937805e-02
2.124306187033653259e-02
-3.624398633837699890e-02
1.751819998025894165e-02
7.130529731512069702e-02
-3.102032467722892761e-02
6.088468059897422791e-02
7.507502287626266479e-02
-9.079518169164657593e-02
-8.262051641941070557e-02
-8.220225572586059570e-02
1.436592638492584229e-01
1.155702676624059677e-02
-5.299804359674453735e-02
-4.419983550906181335e-02
-8.816727995872497559e-02
2.930594235658645630e-02
2.017589099705219269e-02
-2.595515176653862000e-02
-4.692150652408599854e-02
-6.538181751966476440e-02
-6.111882161349058151e-03
-7.206442952156066895e-02
6.255397200584411621e-02
1.271928101778030396e-01
-2.683633938431739807e-02
8.233150094747543335e-02
9.339087456464767456e-02
5.278358235955238342e-03
-1.100259944796562195e-01
-1.624009013175964355e-02
-6.853049248456954956e-02
-3.057961538434028625e-02
2.029860019683837891e-02
8.147533237934112549e-02
1.104898285120725632e-03
1.538189947605133057e-01
-2.656591683626174927e-02
3.041514940559864044e-02
-5.879062414169311523e-02
5.358052626252174377e-02
4.614423215389251709e-02
5.475155264139175415e-02
-1.099577099084854126e-01
-1.304496638476848602e-02
3.859142959117889404e-02
-1.098564341664314270e-01
-8.494547568261623383e-03
-4.613602068275213242e-03
-1.051038578152656555e-01
1.248175054788589478e-01
2.952387183904647827e-02
-1.281729787588119507e-01
-2.455931715667247772e-02
-9.283277392387390137e-02
1.041244901716709137e-02
-6.673789769411087036e-02
-1.384366303682327271e-01
2.740991674363613129e-02
1.226435452699661255e-01
1.455737948417663574e-01
-9.748221933841705322e-02
-8.709101378917694092e-02
1.662556529045104980e-01
-1.477101910859346390e-02
-1.552472561597824097e-01
-3.791587427258491516e-02
-1.961701177060604095e-02
-6.792730093002319336e-02
9.667653590440750122e-02
6.449237465858459473e-02
-5.342821031808853149e-02
-6.029780581593513489e-02
-2.155614458024501801e-02
3.326007351279258728e-02
-1.754649281501770020e-01
6.478723138570785522e-02
-1.379716098308563232e-01
-2.910136058926582336e-02
7.043175399303436279e-02
-3.300157561898231506e-02
1.611205004155635834e-02
7.504113763570785522e-02
-9.325592964887619019e-02
4.564272984862327576e-02
7.931049913167953491e-03
6.397139281034469604e-02
1.002898365259170532e-01
-7.346852123737335205e-02
-1.034505441784858704e-01
1.521047055721282959e-01
7.602563500404357910e-02
1.387262940406799316e-01
5.258261412382125854e-02
1.346917301416397095e-01
1.348535157740116119e-02
2.759472653269767761e-02
-4.944102466106414795e-02
1.104619577527046204e-01
6.379764061421155930e-03
-3.752161562442779541e-02
3.579124063253402710e-02
1.088172346353530884e-01
1.187090128660202026e-01
-8.597693592309951782e-02
1.106742620468139648e-01
-3.170529007911682129e-02
2.264616079628467560e-02
-1.192549616098403931e-01
5.919210240244865417e-02
-2.086423337459564209e-02
3.288306295871734619e-02
2.773527428507804871e-02
1.088520139455795288e-01
-1.108760479837656021e-02
-4.267770051956176758e-02
3.260431066155433655e-02
1.482002288103103638e-01
1.079758107662200928e-01
1.416657585650682449e-02
-3.878736495971679688e-02
-6.283272057771682739e-02
2.684644656255841255e-03
2.043280377984046936e-02
1.066823080182075500e-01
5.148481577634811401e-02
-1.234702244400978088e-01
4.014591500163078308e-02
4.068507999181747437e-02
-5.854595452547073364e-02
-1.286770254373550415e-01
-1.129552721977233887e-01
1.340393424034118652e-01
7.977201044559478760e-02
-1.094633489847183228e-01
-2.972752321511507034e-03
-1.211131885647773743e-01
-1.198209300637245178e-01
5.830156058073043823e-02
1.949935965240001678e-02
-9.333616495132446289e-02
-1.059328205883502960e-02
1.477890759706497192e-01
-2.353398874402046204e-02
-1.124721392989158630e-01
9.026487171649932861e-02
-4.516301676630973816e-03
-7.344900816679000854e-02
3.095513954758644104e-02
5.106371268630027771e-02
-3.328672423958778381e-02
-2.040111273527145386e-02
1.623600870370864868e-01
1.315565407276153564e-01
3.007179498672485352e-02
1.257214508950710297e-02
-1.841088943183422089e-02
-8.162871003150939941e-02
9.558920562267303467e-02
3.259955346584320068e-02
1.276392955332994461e-02
1.025675311684608459e-01
1.334476917982101440e-01
-9.130137413740158081e-02
-1.544657349586486816e-01
7.747761905193328857e-02
2.391851320862770081e-02
-9.388675540685653687e-02
-1.354884449392557144e-02
5.258608609437942505e-03
2.966766804456710815e-02
5.626071989536285400e-02
1.288739293813705444e-01
5.786425992846488953e-02
3.897452726960182190e-02
7.083518803119659424e-02
6.527312099933624268e-02
-5.700339376926422119e-02
5.349692888557910919e-03
8.589782565832138062e-02
-6.561585515737533569e-02
5.453474074602127075e-02
1.216996684670448303e-01
-7.321672886610031128e-02
8.443538099527359009e-02
1.650041341781616211e-01
-7.480765227228403091e-03
-1.108955591917037964e-02
-4.560247436165809631e-02
1.918326318264007568e-02
5.369186401367187500e-02
2.422961592674255371e-02
4.256596416234970093e-02
-5.777454748749732971e-02
8.969540894031524658e-02
2.983517013490200043e-02
9.554895572364330292e-03
1.835726015269756317e-02
3.594153001904487610e-02
8.294336497783660889e-02
-4.495973885059356689e-02
9.196206182241439819e-02
1.047435849905014038e-01
-7.070922851562500000e-02
-1.389174908399581909e-01
-1.299151405692100525e-02
1.614741384983062744e-01
5.989237502217292786e-02
-1.079107150435447693e-01
7.378156483173370361e-02
-1.200796514749526978e-01
-7.397028803825378418e-02
-5.581422522664070129e-02
-1.328347921371459961e-01
9.231251478195190430e-02
1.645614653825759888e-01
-1.842751353979110718e-02
-1.167625412344932556e-01
-9.165113419294357300e-02
-3.155662491917610168e-02
-3.475303575396537781e-02
2.133176475763320923e-02
-8.083516359329223633e-02
1.113527715206146240e-01
-2.186596579849720001e-02
-7.943027466535568237e-02
1.237473189830780029e-01
-4.444679990410804749e-02
-5.219152197241783142e-02
9.052682667970657349e-02
7.111273705959320068e-02
-1.007856726646423340e-01
9.748106449842453003e-02
-6.041122972965240479e-02
-9.228231385350227356e-03
-9.536423534154891968e-02
-5.930320546030998230e-02
-1.069699227809906006e-01
-9.179122745990753174e-02
6.028354167938232422e-02
-3.619306161999702454e-02
1.228272989392280579e-01
6.201723590493202209e-02
1.367665976285934448e-01
1.413456946611404419e-01
1.121334433555603027e-01
1.567639410495758057e-02
1.429298776201903820e-03
1.079870536923408508e-01
1.184258088469505310e-01
-1.488780253566801548e-04
4.727210476994514465e-02
-1.842920631170272827e-01
-1.046427786350250244e-01
-6.822633557021617889e-03
-6.401896476745605469e-02
5.421470850706100464e-02
-1.112653762102127075e-01
-2.360201627016067505e-02
1.207076609134674072e-01
-5.954329296946525574e-02
-9.580618888139724731e-02
-2.396084927022457123e-02
3.363918513059616089e-02
1.955351978540420532e-01
3.536616265773773193e-02
-4.510561749339103699e-02
-7.583116739988327026e-02
1.636243425309658051e-02
1.850864663720130920e-02
-4.651772230863571167e-02
5.971080437302589417e-02
-8.230168372392654419e-02
-9.757575578987598419e-03
-5.370313301682472229e-02
4.734536632895469666e-02
5.971898511052131653e-02
1.187610328197479248e-01
-2.849442698061466217e-02
9.099359065294265747e-02
1.313415765762329102e-01
1.143586263060569763e-01
-9.665230289101600647e-03
5.350092798471450806e-02
1.368409246206283569e-01
1.331935971975326538e-01
-7.272866368293762207e-02
-1.573639921844005585e-02
-6.759776920080184937e-02
-1.572332112118601799e-04
-5.818905308842658997e-02
9.771828353404998779e-02
-1.020154431462287903e-01
-1.283559948205947876e-01
-8.190528303384780884e-02
4.067142307758331299e-02
1.032780632376670837e-01
-1.439204365015029907e-01
1.374957561492919922e-01
8.658757805824279785e-02
-1.612525433301925659e-02
-1.478230860084295273e-02
-9.326025843620300293e-02
-6.093212217092514038e-02
1.137117147445678711e-01
-1.511955261230468750e-02
7.180687040090560913e-02
5.877635627985000610e-02
1.413557082414627075e-01
6.168261542916297913e-02
4.416544921696186066e-03
1.025865301489830017e-01
3.598349168896675110e-02
4.256897047162055969e-02
-6.549853831529617310e-02
-7.855921238660812378e-02
8.894602209329605103e-02
4.837187379598617554e-02
3.598780930042266846e-02
5.330759659409523010e-02
2.693836577236652374e-02
-1.717197448015213013e-01
1.267733126878738403e-01
1.043392941355705261e-01
-1.961900889873504639e-01
4.219651967287063599e-02
7.980348914861679077e-02
-3.909150511026382446e-02
6.973835080862045288e-02
1.428030729293823242e-01
1.116013154387474060e-01
-4.617040604352951050e-02
4.928120225667953491e-02
-6.556787341833114624e-02
5.876249074935913086e-02
-2.779610827565193176e-02
8.259289711713790894e-02
-5.422546342015266418e-02
-1.881422698497772217e-01
1.355267688632011414e-02
-2.989853732287883759e-02
4.421361908316612244e-02
4.500728473067283630e-02
1.529270112514495850e-01
1.626183390617370605e-01
6.414365023374557495e-02
1.743393018841743469e-02
3.692508116364479065e-02
7.445214781910181046e-03
6.674013286828994751e-02
-1.158717181533575058e-02
1.349034369923174381e-03
-7.285109162330627441e-02
8.160965889692306519e-02
1.060791313648223877e-01
-2.455510385334491730e-02
-1.444578468799591064e-01
8.132528746500611305e-04
-1.073137000203132629e-01
6.912279874086380005e-03
1.860263198614120483e-02
-9.187996387481689453e-02
-2.120417915284633636e-02
-1.000444442033767700e-01
1.083954125642776489e-01
3.475054726004600525e-02
1.266817450523376465e-01
7.721409946680068970e-02
1.089115813374519348e-01
-1.614785008132457733e-02
2.817098610103130341e-02
-3.190847113728523254e-02
-5.418193526566028595e-03
-8.696049451828002930e-02
-5.477468669414520264e-02
-3.267443180084228516e-02
7.025736570358276367e-02
5.666178464889526367e-02
-3.335572406649589539e-02
6.476226449012756348e-02
3.814869746565818787e-02
-5.199604108929634094e-02
4.496436566114425659e-02
-8.319069165736436844e-04
1.443994492292404175e-01
-3.989747911691665649e-02
7.145489007234573364e-02
1.361947804689407349e-01
-8.131287060678005219e-03
9.207856655120849609e-02
-2.142508700489997864e-02
-5.985517054796218872e-02
2.220513112843036652e-02
7.099313288927078247e-02
-1.196386590600013733e-01
2.645607851445674896e-02
-7.395556569099426270e-02
-2.274253871291875839e-03
1.156788095831871033e-01
1.372672021389007568e-01
-1.046399846673011780e-01
1.018284037709236145e-01
7.253775000572204590e-02
-4.695020243525505066e-02
-7.305384427309036255e-02
-4.007720947265625000e-02
-5.235037207603454590e-02
2.711229212582111359e-02
-3.523462638258934021e-02
6.911632418632507324e-02
-1.333692390471696854e-02
1.166160330176353455e-01
1.409684028476476669e-02
4.845988377928733826e-02
1.170348376035690308e-01
-8.658728003501892090e-02
-6.606024503707885742e-02
-2.152539044618606567e-02
1.068441942334175110e-01
7.454385608434677124e-02
-4.527943953871726990e-02
-8.282767981290817261e-02
7.347003370523452759e-02
1.172218695282936096e-01
9.357857704162597656e-02
-5.966417491436004639e-03
-1.956587471067905426e-02
-7.783690840005874634e-02
-2.707353606820106506e-02
-1.220077052712440491e-01
7.732810825109481812e-02
4.880949482321739197e-02
1.022998020052909851e-01
-7.817353308200836182e-02
4.481278359889984131e-02
-3.093753708526492119e-03
1.521750241518020630e-01
-5.399017781019210815e-02
3.744265064597129822e-02
3.737222403287887573e-02
-5.155275389552116394e-02
-1.239875983446836472e-02
3.879014775156974792e-02
-6.894515361636877060e-03
9.574491530656814575e-02
2.971738576889038086e-02
-9.709832258522510529e-03
-6.144395470619201660e-02
6.730591505765914917e-02
5.269454419612884521e-02
-8.384213596582412720e-02
-9.862063080072402954e-02
1.395152211189270020e-01
-4.425107501447200775e-03
-8.472089469432830811e-02
1.832266896963119507e-01
-6.588855385780334473e-02
-1.511620916426181793e-02
7.081437110900878906e-02
-4.933568462729454041e-02
3.779078647494316101e-02
-1.247433423995971680e-01
-7.237398624420166016e-02
-8.642780035734176636e-02
1.443828940391540527e-01
-9.913522005081176758e-02
-1.633709222078323364e-01
2.848109416663646698e-02
3.529766947031021118e-02
9.296309202909469604e-02
8.751467615365982056e-02
-7.093662023544311523e-02
-5.288944765925407410e-02
-8.346203714609146118e-02
-6.450593471527099609e-02
8.098540827631950378e-03
-1.233420446515083313e-01
-2.091254480183124542e-02
-1.389280520379543304e-02
-2.870367281138896942e-02
-6.042272597551345825e-02
-5.696244165301322937e-02
-1.459570415318012238e-02
-5.859536305069923401e-02
-8.043210953474044800e-02
6.294323503971099854e-02
-7.482317835092544556e-02
1.467872969806194305e-02
-9.406514465808868408e-02
-1.722021214663982391e-02
-8.760047703981399536e-02
4.235901311039924622e-02
6.466717272996902466e-02
1.314284354448318481e-01
-1.074346899986267090e-01
-8.485165983438491821e-02
1.367894262075424194e-01
5.292960908263921738e-03
-4.519813880324363708e-02
1.448439620435237885e-02
-6.737794727087020874e-02
-1.007835865020751953e-01
-2.568660490214824677e-02
-8.536191284656524658e-02
9.921843884512782097e-04
-9.856808930635452271e-02
-7.396619021892547607e-02
-8.088082820177078247e-02
-1.633094437420368195e-02
1.237536296248435974e-01
8.034922927618026733e-02
-7.679959386587142944e-02
7.140024751424789429e-02
2.249832265079021454e-02
-8.689712733030319214e-02
8.454030007123947144e-02
-1.120671257376670837e-01
2.190932258963584900e-02
4.003949090838432312e-02
-1.372144818305969238e-01
7.942596822977066040e-02
1.822438389062881470e-01
-1.687008887529373169e-01
-1.942075416445732117e-02
1.003038138151168823e-01
-1.013981252908706665e-01
-1.138019487261772156e-01
-1.513583585619926453e-02
-8.429112285375595093e-02
-3.842115774750709534e-02
-1.099597662687301636e-01
-5.317988339811563492e-03
9.597053378820419312e-02
-3.909125924110412598e-02
-2.358217956498265266e-03
-8.558379858732223511e-02
-1.235969737172126770e-01
-7.813680171966552734e-02
-2.770113572478294373e-02
1.161170154809951782e-01
-3.609596937894821167e-02
-2.182199247181415558e-02
6.224706023931503296e-02
5.441749002784490585e-03
3.897828981280326843e-03
1.086948439478874207e-01
5.024596303701400757e-02
1.302628219127655029e-01
6.153846159577369690e-03
1.812045346014201641e-03
1.146210283041000366e-01
1.616312563419342041e-01
-8.080452680587768555e-02
4.627360776066780090e-02
-6.319463253021240234e-02
6.163997575640678406e-03
8.538899570703506470e-02
4.116922616958618164e-02
9.794601052999496460e-02
-1.850233785808086395e-02
9.743075072765350342e-02
-4.048597812652587891e-02
-4.526294395327568054e-02
5.552867799997329712e-02
-2.818334847688674927e-02
-6.902094930410385132e-02
1.154007986187934875e-01
9.144178777933120728e-02
-1.083057373762130737e-01
2.761345356702804565e-02
1.289474517107009888e-01
1.637218892574310303e-02
1.281985193490982056e-01
3.986633196473121643e-02
-1.359105259180068970e-01
1.012225076556205750e-01
2.898846007883548737e-02
-9.531239047646522522e-03
-1.611109673976898193e-01
-7.744801789522171021e-02
1.079075485467910767e-01
1.089267153292894363e-02
-4.479506984353065491e-02
-4.331861063838005066e-02
-8.890993148088455200e-02
-9.235542267560958862e-03
1.720553636550903320e-02
-1.279118657112121582e-02
4.753760248422622681e-02
2.825764939188957214e-03
7.487343251705169678e-02
8.588184416294097900e-02
6.883937865495681763e-02
-6.793339736759662628e-03
-9.007739275693893433e-02
-7.774928957223892212e-02
-5.880249664187431335e-02
-1.347128450870513916e-01
-4.474535211920738220e-02
1.599828153848648071e-02
-6.841726601123809814e-02
-5.223533883690834045e-02
-5.236735939979553223e-02
6.293320655822753906e-02
-2.316026017069816589e-02
-4.240238294005393982e-02
9.700255095958709717e-02
-5.164714902639389038e-02
-5.350994877517223358e-03
-3.694953769445419312e-02
1.006590873003005981e-01
3.013405017554759979e-03
7.871162891387939453e-02
6.099482253193855286e-02
-2.554771304130554199e-02
-1.493022143840789795e-01
-6.619777530431747437e-02
-1.405279934406280518e-01
-1.958912238478660583e-02
3.844004496932029724e-02
7.498138397932052612e-02
1.128103807568550110e-01
-7.535229623317718506e-02
-1.474822014570236206e-01
-1.102540418505668640e-01
2.113351784646511078e-02
-6.525299698114395142e-02
1.193458214402198792e-01
-1.177731454372406006e-01
-1.652269661426544189e-01
1.121188402175903320e-01
1.163816899061203003e-01
1.556930392980575562e-01
-4.633921384811401367e-02
-1.470655351877212524e-01
1.951135694980621338e-02
-4.863499477505683899e-02
-5.856665968894958496e-02
1.404635161161422729e-01
7.922496646642684937e-03
1.452882736921310425e-01
7.509817928075790405e-02
6.432466674596071243e-03
1.176785454154014587e-01
8.777055144309997559e-02
7.635779678821563721e-02
2.353386394679546356e-02
5.999919772148132324e-02
-3.782331943511962891e-02
8.735873550176620483e-02
-4.752825200557708740e-02
-1.020938903093338013e-02
5.763813853263854980e-02
7.061959058046340942e-02
-1.510214358568191528e-01
-4.768854007124900818e-02
-1.363932937383651733e-01
-1.724515855312347412e-02
-4.335846379399299622e-02
1.202201377600431442e-02
4.705306142568588257e-03
-3.072958439588546753e-03
8.572028949856758118e-03
7.575083523988723755e-02
8.577360957860946655e-02
-8.764180541038513184e-02
1.040209736675024033e-02
7.487197220325469971e-02
1.024984270334243774e-01
-7.783854752779006958e-02
-2.580773457884788513e-02
2.221358567476272583e-02
7.487696409225463867e-02
4.725616425275802612e-02
-8.524404466152191162e-02
1.942241378128528595e-02
9.532807022333145142e-02
-8.691485971212387085e-02
1.139380410313606262e-01
-9.079810231924057007e-03
-1.457121074199676514e-01
1.319682896137237549e-01
1.706441342830657959e-01
-3.960731625556945801e-02
3.002732060849666595e-02
-1.265514940023422241e-01
9.025160968303680420e-02
2.511661499738693237e-02
-3.719247132539749146e-02
-7.347376644611358643e-02
2.459941431879997253e-02
-2.218231558799743652e-02
-1.083930954337120056e-01
2.805018611252307892e-02
-2.038273774087429047e-02
-1.507541686296463013e-01
-5.053817480802536011e-02
-3.827010095119476318e-02
1.468834728002548218e-01
-9.542512707412242889e-03
3.237457480281591415e-03
-4.217430204153060913e-02
8.778712153434753418e-02
1.491242554038763046e-02
8.690722286701202393e-02
-5.922685191035270691e-02
-9.133992344141006470e-02
-8.963198214769363403e-02
1.121740564703941345e-01
-1.021015569567680359e-01
-1.193839535117149353e-01
1.060843234881758690e-03
-8.448790013790130615e-02
1.329697072505950928e-01
-3.933062031865119934e-02
4.791739955544471741e-02
2.404532860964536667e-03
1.496767625212669373e-03
1.147571802139282227e-01
1.104550585150718689e-01
-1.097622327506542206e-02
7.741516828536987305e-02
-3.401496633887290955e-02
1.126156449317932129e-01
1.290610879659652710e-01
4.856278374791145325e-02
1.250972598791122437e-01
1.364799588918685913e-01
1.132546290755271912e-01
7.444210350513458252e-02
5.105609889142215252e-04
1.689395010471343994e-01
-5.712913349270820618e-03
-1.885249465703964233e-02
-6.403274089097976685e-02
-1.179657280445098877e-01
5.658678244799375534e-03
-7.445535808801651001e-02
5.240125581622123718e-03
-9.949695318937301636e-03
-5.649257823824882507e-02
-2.055851556360721588e-02
-1.478251665830612183e-01
1.250208262354135513e-02
-3.460531309247016907e-02
-1.057267636060714722e-01
-7.994792610406875610e-02
3.474271297454833984e-02
4.069478064775466919e-02
1.361360102891921997e-01
6.970960181206464767e-03
-7.786402106285095215e-02
-1.332682967185974121e-01
-7.737278938293457031e-02
-9.262484498322010040e-03
5.408458784222602844e-02
-7.382525503635406494e-02
-1.038640290498733521e-01
-6.021867506206035614e-03
-9.766523540019989014e-02
3.410990536212921143e-02
1.487527489662170410e-01
-1.815181970596313477e-02
6.820657849311828613e-02
-9.912341833114624023e-02
1.032641753554344177e-01
-2.300265245139598846e-02
7.047645747661590576e-02
1.589666008949279785e-01
-1.609633713960647583e-01
3.251690417528152466e-02
1.377353910356760025e-02
1.103798598051071167e-01
9.463896602392196655e-02
-8.111492544412612915e-02
1.180806476622819901e-02
2.216737344861030579e-02
1.436108723282814026e-02
1.038317456841468811e-01
4.954495280981063843e-02
1.157142072916030884e-01
1.256562769412994385e-01
-1.838759146630764008e-02
-3.927950561046600342e-02
6.330438703298568726e-02
-4.960036650300025940e-02
1.505242735147476196e-01
-2.926491200923919678e-02
-9.428152441978454590e-02
5.232733674347400665e-04
5.064781755208969116e-02
-5.245270952582359314e-02
-5.410096421837806702e-02
9.599694609642028809e-02
-3.605135902762413025e-02
-8.665964752435684204e-02
1.028491705656051636e-01
7.592207938432693481e-02
-1.247112005949020386e-01
6.599892675876617432e-02
1.386007107794284821e-02
7.044810801744461060e-02
-1.387313008308410645e-01
-2.339232340455055237e-02
2.438347041606903076e-02
-6.468598730862140656e-03
-1.857611699961125851e-03
1.730475760996341705e-02
-4.114019125699996948e-02
2.880331687629222870e-02
1.045228764414787292e-01
2.179421856999397278e-02
-1.410273909568786621e-01
-2.179813012480735779e-02
-3.559518605470657349e-02
-1.588482558727264404e-01
-8.451543003320693970e-02
7.458597421646118164e-02
7.858476042747497559e-02
-1.183957159519195557e-01
1.401805132627487183e-01
2.273866906762123108e-02
-5.368080735206604004e-02
6.523744016885757446e-02
-7.785667479038238525e-02
-1.080966889858245850e-01
-2.116095088422298431e-02
4.779100418090820312e-02
-5.729064345359802246e-02
1.225273385643959045e-01
-9.753458946943283081e-02
-9.850178658962249756e-02
-1.350724995136260986e-01
5.414364486932754517e-02
-2.582801133394241333e-02
7.284882664680480957e-02
-9.310892224311828613e-02
1.005012840032577515e-01
1.293145120143890381e-01
-6.976909935474395752e-02
3.685133904218673706e-02
-8.364243060350418091e-02
-5.341116711497306824e-02
8.978044986724853516e-02
1.353610605001449585e-01
5.649352818727493286e-02
7.278278470039367676e-02
-5.701512098312377930e-02
2.367273718118667603e-02
-1.139096543192863464e-02
1.112695559859275818e-01
1.103479415178298950e-01
-8.849569410085678101e-02
2.930880896747112274e-02
3.418503701686859131e-02
3.258007392287254333e-02
-2.277540415525436401e-02
6.453483551740646362e-02
-2.031385526061058044e-02
6.117860972881317139e-02
7.483258098363876343e-02
3.742225468158721924e-02
6.611319631338119507e-02
-4.081933293491601944e-03
5.201891064643859863e-02
-1.380317211151123047e-01
4.924941807985305786e-02
-4.049799591302871704e-02
2.175115495920181274e-01
1.282660514116287231e-01
1.439518332481384277e-01
6.363755464553833008e-02
-2.966884523630142212e-02
-1.080550625920295715e-02
6.828069686889648438e-02
1.084046363830566406e-01
-3.529844060540199280e-02
-2.156445197761058807e-02
2.021076343953609467e-02
-9.584469348192214966e-02
5.331923440098762512e-02
-7.720984518527984619e-02
-2.548538707196712494e-02
-1.517217606306076050e-01
7.327593863010406494e-02
-9.193136543035507202e-02
8.921260386705398560e-02
3.228658437728881836e-02
5.873139947652816772e-02
1.194778550416231155e-02
5.734451115131378174e-03
3.935261070728302002e-02
3.350498154759407043e-02
1.632087528705596924e-01
-1.350596249103546143e-01
1.184999719262123108e-01
-7.676291465759277344e-02
6.985469721257686615e-03
-7.559938356280326843e-03
1.164884585887193680e-02
-3.502748534083366394e-02
1.044816896319389343e-01
4.893292486667633057e-02
-8.904507756233215332e-02
-1.092252880334854126e-01
-1.606213450431823730e-01
6.530173588544130325e-03
6.354965735226869583e-03
1.181958392262458801e-01
-3.554608300328254700e-02
6.947407871484756470e-02
9.920311160385608673e-03
-1.417409162968397141e-02
-6.207606196403503418e-02
8.331650495529174805e-02
-3.629495948553085327e-02
1.429306110367178917e-03
-3.164704889059066772e-02
6.507781147956848145e-02
-1.056385487318038940e-01
2.894690446555614471e-02
-1.212954223155975342e-01
2.471568807959556580e-02
1.304003000259399414e-01
1.380985230207443237e-01
1.168032735586166382e-01
-1.560966670513153076e-02
8.432318270206451416e-02
1.903859712183475494e-02
-1.772806495428085327e-01
1.052799895405769348e-01
7.196415215730667114e-02
1.795648336410522461e-01
-3.524675220251083374e-02
4.665474221110343933e-02
5.930949002504348755e-02
-1.590434312820434570e-01
-7.269848138093948364e-02
-1.541964150965213776e-02
7.815081626176834106e-02
4.766080155968666077e-02
-1.094298809766769409e-01
-7.323177903890609741e-02
-6.276033818721771240e-02
8.884173631668090820e-02
6.058108434081077576e-02
-6.358111742883920670e-03
1.185764819383621216e-01
1.778405010700225830e-01
-2.016882412135601044e-02
-8.870395272970199585e-02
6.548984441906213760e-03
-4.381189122796058655e-02
-5.435582250356674194e-02
-3.369520604610443115e-02
-9.411904960870742798e-02
3.949455916881561279e-02
1.146387010812759399e-01
-2.796699665486812592e-02
-1.178234368562698364e-01
-1.171476319432258606e-01
-1.208917945623397827e-01
1.728633604943752289e-02
1.137952804565429688e-01
-2.542410977184772491e-02
9.628267586231231689e-02
-1.516814809292554855e-02
8.714015036821365356e-02
-5.027697980403900146e-02
-1.285657137632369995e-01
1.399271488189697266e-01
-5.589264631271362305e-02
1.128158047795295715e-01
4.896303638815879822e-03
-1.288319081068038940e-01
3.714429959654808044e-02
7.455770671367645264e-02
1.012591272592544556e-01
6.802514940500259399e-02
-6.829025596380233765e-02
-1.227858662605285645e-01
-1.232424378395080566e-01
3.080751048400998116e-03
-1.191417351365089417e-01
5.654380097985267639e-02
-8.563918620347976685e-02
-5.754961818456649780e-02
-7.021956145763397217e-02
7.097466732375323772e-04
9.895052015781402588e-02
1.844827271997928619e-02
-1.095738112926483154e-01
1.266620159149169922e-01
-8.780918270349502563e-02
-1.529799401760101318e-01
-1.662446372210979462e-02
4.655142500996589661e-02
3.050635382533073425e-02
-9.099897928535938263e-03
-1.126908510923385620e-01
-7.492305338382720947e-02
5.755697563290596008e-02
-3.811373934149742126e-02
1.098176091909408569e-01
2.078482508659362793e-02
-2.768983319401741028e-02
-6.464187800884246826e-02
-1.271620839834213257e-01
1.358907520771026611e-01
5.888152867555618286e-02
6.774239242076873779e-02
-1.538663953542709351e-01
3.046918427571654320e-03
-1.864899764768779278e-03
-9.272378869354724884e-03
1.145998314023017883e-01
-8.154932409524917603e-02
-1.740949898958206177e-01
-7.427142001688480377e-03
6.858233362436294556e-02
-8.729624003171920776e-02
9.916386567056179047e-03
-8.265446126461029053e-02
7.612501084804534912e-02
-5.628811940550804138e-02
1.859457977116107941e-02
1.035572588443756104e-01
-1.275879889726638794e-01
7.061359286308288574e-02
-1.421883255243301392e-01
-8.108637481927871704e-02
-2.851878851652145386e-02
-1.154461205005645752e-01
-7.975623011589050293e-02
-6.676757335662841797e-02
6.273357570171356201e-02
1.883269846439361572e-01
-3.829923644661903381e-02
-9.998939186334609985e-02
-3.269261121749877930e-02
1.018691658973693848e-01
-2.083640731871128082e-02
-5.345219373703002930e-02
-6.836378574371337891e-02
-7.101631909608840942e-02
-1.182590946555137634e-01
-1.017580777406692505e-01
-2.847361844033002853e-03
-1.243731239810585976e-03
8.298963308334350586e-02
-2.297333441674709320e-03
1.584843397140502930e-01
6.495436280965805054e-02
7.111489027738571167e-02
2.665520086884498596e-02
4.763012751936912537e-02
-8.467542007565498352e-03
-1.191359832882881165e-01
-1.028923615813255310e-01
6.414845585823059082e-02
1.540044099092483521e-01
-5.988429859280586243e-02
-8.181565441191196442e-03
-1.092546135187149048e-01
-9.900733828544616699e-03
1.076255515217781067e-01
4.286230728030204773e-02
-5.748207122087478638e-02
5.268546938896179199e-02
-3.336941450834274292e-02
-5.590730905532836914e-02
-1.254552453756332397e-01
1.673636399209499359e-02
-1.629940569400787354e-01
-8.214209228754043579e-02
-1.336239427328109741e-01
4.124210029840469360e-02
7.893452420830726624e-04
-2.880367822945117950e-02
-9.932558983564376831e-02
-1.250196248292922974e-01
-1.406348645687103271e-01
1.100896578282117844e-02
-1.094401553273200989e-01
-6.664036214351654053e-02
1.521927267313003540e-01
-1.630377918481826782e-01
1.416954956948757172e-02
-2.543935552239418030e-02
-4.357859119772911072e-02
-3.283233568072319031e-02
-4.532086476683616638e-02
4.685580357909202576e-02
-1.207961216568946838e-01
9.579309076070785522e-02
8.956766128540039062e-02
6.530746072530746460e-02
3.974249586462974548e-02
-6.161952763795852661e-02
2.195148169994354248e-02
8.359115570783615112e-02
-1.159805133938789368e-01
-1.265995949506759644e-01
-6.121907755732536316e-02
-1.322349011898040771e-01
3.494491428136825562e-02
-1.094872280955314636e-01
1.165420003235340118e-02
6.615962088108062744e-02
9.139580279588699341e-02
-1.358095109462738037e-01
1.123992428183555603e-01
3.535129828378558159e-03
-4.421925544738769531e-02
-7.036957889795303345e-02
2.456065500155091286e-03
-8.251991122961044312e-02
-5.265852436423301697e-02
6.927368789911270142e-02
8.784101903438568115e-02
4.389458801597356796e-03
1.237200647592544556e-01
2.354379929602146149e-02
-1.210760101675987244e-01
6.233888491988182068e-02
9.201717376708984375e-02
1.221045330166816711e-01
1.398984044790267944e-01
6.651762127876281738e-02
7.982484996318817139e-02
7.333133369684219360e-02
-3.776617813855409622e-03
-9.441859275102615356e-02
-1.168252825736999512e-01
4.852917417883872986e-02
5.668600276112556458e-02
1.184043437242507935e-01
-7.529945671558380127e-02
3.369671851396560669e-02
9.749180823564529419e-02
-6.276140362024307251e-02
-1.348778456449508667e-01
-1.139626502990722656e-01
-6.360241025686264038e-02
9.189109317958354950e-03
2.565239742398262024e-02
1.546085178852081299e-01
-1.007171943783760071e-01
1.549898982048034668e-01
-1.105512455105781555e-01
-9.888277202844619751e-02
-1.949812471866607666e-02
1.033576726913452148e-01
1.408428070135414600e-03
-4.033668339252471924e-02
1.165973860770463943e-02
-1.877893507480621338e-02
3.099283017218112946e-02
-4.395749047398567200e-02
-4.888223856687545776e-02
-4.826120659708976746e-02
-6.819105893373489380e-02
-1.387587841600179672e-02
-1.076958999037742615e-01
-2.937318384647369385e-02
7.617725525051355362e-03
-1.355982124805450439e-01
6.925293058156967163e-02
-1.338947266340255737e-01
-3.664778172969818115e-02
6.320913136005401611e-02
3.647886216640472412e-02
-7.638546824455261230e-02
3.500322625041007996e-02
7.376378029584884644e-02
-5.083731189370155334e-02
1.236334517598152161e-01
3.375208005309104919e-02
-8.955167233943939209e-02
-2.221179194748401642e-02
1.289319992065429688e-01
-2.090914361178874969e-02
-5.016162246465682983e-02
3.813982009887695312e-02
8.224768936634063721e-02
-4.077788442373275757e-02
-1.133901178836822510e-01
-1.245405226945877075e-01
3.198181465268135071e-02
1.357055827975273132e-02
5.002177506685256958e-02
1.024094447493553162e-01
8.983911946415901184e-03
8.630279451608657837e-02
9.332067519426345825e-02
-1.197089627385139465e-02
-2.947451733052730560e-02
4.845142737030982971e-02
7.018906623125076294e-02
3.688484430313110352e-02
6.834186613559722900e-03
-6.181893497705459595e-02
-1.116206720471382141e-01
-7.670662552118301392e-02
1.055638790130615234e-01
1.634219288825988770e-02
-1.180717870593070984e-01
7.834614068269729614e-02
-1.962682902812957764e-01
4.170288145542144775e-02
-7.635795325040817261e-02
2.209578827023506165e-02
-1.232613623142242432e-02
1.539393514394760132e-01
-5.899103730916976929e-02
-8.225052803754806519e-02
-1.976479217410087585e-02
1.281308829784393311e-01
7.644072175025939941e-02
1.973125152289867401e-02
1.310151368379592896e-01
1.297007352113723755e-01
5.164410173892974854e-02
-3.605471551418304443e-02
-8.783976733684539795e-02
-7.750200480222702026e-02
5.584688857197761536e-02
3.711050376296043396e-03
1.343419216573238373e-02
-1.085055395960807800e-01
8.248105645179748535e-02
-4.957042634487152100e-02
7.849480211734771729e-02
-1.842775195837020874e-02
1.803717017173767090e-02
-1.224741246551275253e-02
7.751600816845893860e-03
1.241594459861516953e-02
-8.168264478445053101e-02
-1.036133319139480591e-01
-5.938735604286193848e-02
1.436447203159332275e-01
-1.819604076445102692e-02
9.173957630991935730e-03
-1.348655968904495239e-01
8.048718422651290894e-02
1.966612879186868668e-03
-2.452318556606769562e-02
-8.133616298437118530e-02
1.312870532274246216e-01
4.553505033254623413e-02
1.480374038219451904e-01
-5.926651507616043091e-02
4.438153654336929321e-02
-6.757627427577972412e-02
-4.031793028116226196e-02
1.052574068307876587e-01
4.876226186752319336e-02
-7.999544590711593628e-02
-1.542303264141082764e-01
1.460905466228723526e-02
-2.644727006554603577e-02
-1.288021802902221680e-01
1.132068932056427002e-01
-5.971226468682289124e-02
3.022230975329875946e-02
4.919432103633880615e-02
7.228942960500717163e-02
3.902855142951011658e-02
1.802507042884826660e-01
5.390410125255584717e-02
2.672285214066505432e-02
1.477161943912506104e-01
-2.480643428862094879e-02
-9.329944849014282227e-02
-1.084782183170318604e-01
-4.348751530051231384e-02
2.988918870687484741e-02
-1.774180680513381958e-02
-4.054689779877662659e-02
-5.689051374793052673e-02
2.993038669228553772e-02
1.874413937330245972e-01
1.581753194332122803e-01
-1.300845593214035034e-01
-1.532915383577346802e-01
1.652913354337215424e-02
5.028042942285537720e-02
-4.635807871818542480e-02
4.218278825283050537e-02
1.296902149915695190e-01
5.634274566546082497e-04
1.808847635984420776e-01
-1.886472292244434357e-02
4.241207987070083618e-02
1.229541525244712830e-01
-4.587750881910324097e-02
-8.874808251857757568e-02
-4.454082250595092773e-02
-5.136409401893615723e-02
-7.138451933860778809e-02
2.801566570997238159e-02
6.095654889941215515e-02
-2.830472961068153381e-02
-1.993485493585467339e-04
-5.677648633718490601e-02
6.797264359192922711e-05
1.429329663515090942e-01
5.458118394017219543e-02
1.228638589382171631e-01
5.131242424249649048e-02
-8.288753777742385864e-02
-9.646909311413764954e-03
-6.760323047637939453e-02
-1.703436672687530518e-01
1.994868367910385132e-02
1.948485225439071655e-01
1.461947523057460785e-02
9.479037672281265259e-02
1.034813001751899719e-01
2.956216596066951752e-02
2.486888132989406586e-02
9.979932010173797607e-02
1.447424739599227905e-01
-9.882609546184539795e-02
-5.272511765360832214e-02
-6.547376513481140137e-02
-7.123102247714996338e-02
-9.328331798315048218e-03
-1.753279380500316620e-02
1.763486862182617188e-02
-1.308526843786239624e-01
8.638107031583786011e-02
1.875421381555497646e-03
3.590206801891326904e-02
6.369487196207046509e-02
-7.496924698352813721e-02
-7.558698207139968872e-02
1.153134554624557495e-02
-1.082051172852516174e-01
-4.497054219245910645e-02
6.261359155178070068e-02
3.736865147948265076e-02
-1.290301699191331863e-02
8.838824927806854248e-02
1.050032004714012146e-01
7.475657761096954346e-02
-1.836372166872024536e-01
5.550756759475916624e-05
-7.535927742719650269e-02
8.776912838220596313e-02
-8.425652235746383667e-02
-6.621072441339492798e-02
8.537600189447402954e-02
-1.394999772310256958e-01
-4.139867797493934631e-02
1.515005379915237427e-01
2.021678350865840912e-02
-1.648881286382675171e-01
1.797324419021606445e-02
7.891238667070865631e-03
-7.304795086383819580e-02
-1.644198969006538391e-02
-3.713344922289252281e-03
-2.840597368776798248e-02
-3.885347768664360046e-02
4.067082423716783524e-03
5.181957781314849854e-02
-1.274128556251525879e-01
1.076726317405700684e-01
-1.267899721860885620e-01
9.805010259151458740e-02
1.604308746755123138e-02
-1.317589730024337769e-01
8.061414211988449097e-02
4.400129243731498718e-02
1.237212717533111572e-01
-2.022279053926467896e-01
-4.441781714558601379e-02
-2.257823012769222260e-02
2.010934613645076752e-02
1.105464547872543335e-01
-1.908054389059543610e-02
1.418472034856677055e-03
-6.940006464719772339e-02
2.407521754503250122e-02
-1.026683449745178223e-01
1.374557316303253174e-01
2.535258047282695770e-02
1.379795838147401810e-02
-3.911294974386692047e-03
-8.971433155238628387e-03
1.684199869632720947e-01
-1.291399449110031128e-01
-8.045786619186401367e-02
-1.430261433124542236e-01
7.880418002605438232e-02
-4.512338712811470032e-02
-3.332043439149856567e-02
-5.852704122662544250e-02
-1.813454329967498779e-01
-4.152422398328781128e-02
-9.027887880802154541e-02
-5.160234868526458740e-02
-1.122619882225990295e-01
3.248605132102966309e-02
-1.420881301164627075e-01
-6.858928501605987549e-02
-3.453690558671951294e-02
-1.166967395693063736e-02
-1.761228544637560844e-03
-8.995706215500831604e-03
2.354444935917854309e-02
-9.505961090326309204e-02
-1.099772155284881592e-01
5.550413578748703003e-02
2.230103500187397003e-02
1.085500568151473999e-01
-5.397623777389526367e-02
7.107403874397277832e-02
-4.631559550762176514e-02
4.390674829483032227e-02
-3.546874970197677612e-02
3.349184244871139526e-02
8.945201337337493896e-02
6.093131378293037415e-02
6.597782671451568604e-02
9.452956914901733398e-02
-8.883812278509140015e-02
-1.290847212076187134e-01
-1.862914673984050751e-02
3.458433598279953003e-02
-5.804571881890296936e-02
-4.862746223807334900e-02
1.421265900135040283e-01
6.109613925218582153e-02
1.270258277654647827e-01
-1.289261039346456528e-02
8.355572074651718140e-02
-1.419744342565536499e-01
8.362504839897155762e-02
-1.020876690745353699e-01
-3.952768456656485796e-04
-1.270286142826080322e-01
6.714471429586410522e-02
-5.766639113426208496e-02
3.471056744456291199e-02
-1.310600638389587402e-01
-1.213633045554161072e-01
-1.375411637127399445e-02
-1.405675411224365234e-01
1.017169281840324402e-01
9.135779924690723419e-03
1.205346882343292236e-01
-2.168121933937072754e-02
-6.345228105783462524e-02
3.403300046920776367e-02
-4.502325100474990904e-05
-9.552954137325286865e-02
-3.841278702020645142e-02
-2.455178648233413696e-02
-1.059606745839118958e-01
1.281331479549407959e-01
-1.252118051052093506e-01
3.316731378436088562e-02
-1.480468660593032837e-01
4.758688807487487793e-02
5.443154275417327881e-02
-1.179185658693313599e-01
4.257551953196525574e-02
4.068121314048767090e-03
-1.359484940767288208e-01
9.286694973707199097e-02
8.685042709112167358e-02
-1.065436750650405884e-01
1.150215715169906616e-01
6.564002484083175659e-02
-1.211225017905235291e-01
3.900601714849472046e-02
5.281277000904083252e-02
-4.779690410941839218e-03
8.279804885387420654e-02
5.843426659703254700e-02
1.367294788360595703e-01
1.268070936203002930e-01
-1.651781983673572540e-02
1.025290340185165405e-01
-3.253267332911491394e-02
1.000599376857280731e-02
3.633848205208778381e-02
1.343679428100585938e-01
-5.553331971168518066e-02
-6.218509003520011902e-02
5.809480696916580200e-02
1.349720358848571777e-01
-3.638531640172004700e-02
-1.139787957072257996e-02
9.149820357561111450e-02
2.199469879269599915e-02
-4.170107096433639526e-02
-5.504944920539855957e-02
7.341415435075759888e-02
-4.718099255114793777e-03
-9.040412306785583496e-02
-8.725189417600631714e-02
-1.998286098241806030e-01
-7.417592406272888184e-02
1.263420283794403076e-02
7.163199596107006073e-03
6.725969165563583374e-02
-1.355156451463699341e-01
-5.212005227804183960e-02
-5.047252401709556580e-02
-3.578056395053863525e-02
-7.059801369905471802e-02
1.106051951646804810e-01
-1.220577284693717957e-01
-6.429253518581390381e-02
-1.009894311428070068e-01
1.245720777660608292e-02
-1.172234341502189636e-01
1.466323584318161011e-01
1.247837916016578674e-01
-4.204483330249786377e-02
-4.290102422237396240e-02
8.794093877077102661e-02
-3.549172356724739075e-02
-5.256218370050191879e-03
-9.943956881761550903e-02
1.288744658231735229e-01
1.132348086684942245e-02
3.293682634830474854e-02
3.433357924222946167e-02
5.649053677916526794e-02
3.974465187638998032e-03
-2.301988303661346436e-01
-2.184484153985977173e-03
1.113717034459114075e-01
-7.464242726564407349e-02
7.436633110046386719e-02
1.374799478799104691e-02
8.655025810003280640e-02
2.353401388972997665e-03
6.340359896421432495e-02
7.071629166603088379e-02
-1.182744204998016357e-01
1.007736660540103912e-02
1.420069634914398193e-01
1.766677200794219971e-01
-7.592903822660446167e-02
-6.466000527143478394e-02
3.449086565524339676e-03
8.670590072870254517e-02
-1.043753996491432190e-01
1.752466410398483276e-01
-3.371554194018244743e-04
-1.668058484792709351e-01
-4.092528671026229858e-02
3.528013825416564941e-02
3.112325817346572876e-02
-1.076092720031738281e-01
9.005911648273468018e-02
8.465114980936050415e-02
1.143699511885643005e-01
-2.400310896337032318e-02
2.804792858660221100e-02
-2.187765389680862427e-02
1.080031134188175201e-02
3.695951774716377258e-02
-6.875895708799362183e-02
-5.802197754383087158e-02
-2.731680497527122498e-02
1.508306860923767090e-01
1.045389920473098755e-01
7.988795638084411621e-02
1.655231863260269165e-01
4.366262629628181458e-02
-8.467293530702590942e-02
1.053148731589317322e-01
-2.535840263590216637e-03
5.856664851307868958e-02
-5.863111838698387146e-02
2.241384238004684448e-02
6.902696937322616577e-02
6.788125634193420410e-02
-5.897036567330360413e-02
-3.383934497833251953e-02
-6.206071004271507263e-02
1.093019545078277588e-01
2.351893670856952667e-02
-9.204545617103576660e-02
-7.537480443716049194e-02
-9.162052720785140991e-02
6.736997514963150024e-02
-5.973356962203979492e-02
-5.480665713548660278e-02
4.531426727771759033e-02
1.350122988224029541e-01
-1.028108820319175720e-01
-1.217958405613899231e-01
-7.119817286729812622e-02
7.656115293502807617e-02
-1.019929908215999603e-02
6.967450026422739029e-03
-1.335290167480707169e-02
3.100289776921272278e-02
9.376479685306549072e-02
1.002457365393638611e-01
-1.164158061146736145e-01
-1.221750602126121521e-01
9.836758486926555634e-03
8.010768890380859375e-02
-8.244995772838592529e-02
2.252988889813423157e-02
6.419213861227035522e-02
9.708786010742187500e-02
-8.412561565637588501e-02
3.802951797842979431e-02
-1.090590208768844604e-01
1.071204692125320435e-01
2.650283835828304291e-02
8.239326626062393188e-02
-1.174120754003524780e-01
-1.059248000383377075e-01
-8.614527434110641479e-02
3.546786680817604065e-02
-5.307140573859214783e-02
-8.709955960512161255e-02
6.117691099643707275e-02
2.825774997472763062e-02
-6.097207777202129364e-03
-2.266677841544151306e-02
-1.035508327186107635e-02
1.451903767883777618e-02
5.191237851977348328e-02
8.257032185792922974e-02
-1.091424599289894104e-01
-1.228692680597305298e-01
1.402070075273513794e-01
-2.065547741949558258e-02
1.396742649376392365e-02
9.988201409578323364e-02
6.070373952388763428e-02
-1.105198916047811508e-02
1.286401133984327316e-02
5.885634571313858032e-02
6.495931744575500488e-02
-5.758306011557579041e-02
5.750817060470581055e-02
-1.209739297628402710e-01
-1.590462923049926758e-01
1.659744791686534882e-02
6.639145780354738235e-03
-4.871704801917076111e-02
5.484938248991966248e-02
-2.338400669395923615e-02
1.257609575986862183e-01
-6.350598484277725220e-02
1.026019901037216187e-01
-1.143150329589843750e-01
-1.230593491345643997e-02
9.187021106481552124e-02
-2.173026092350482941e-02
-5.280840559862554073e-04
6.173120066523551941e-02
9.614065289497375488e-02
-9.418317675590515137e-02
-9.243513457477092743e-03
5.684942589141428471e-04
-1.923297159373760223e-02
7.949928194284439087e-02
-1.113369464874267578e-01
-1.275587975978851318e-01
1.047545149922370911e-01
7.278633862733840942e-02
7.215630263090133667e-02
-1.292083412408828735e-01
-1.840403117239475250e-02
6.427237391471862793e-02
7.466752082109451294e-03
-5.963579937815666199e-02
-7.667685300111770630e-02
-9.342564642429351807e-02
-6.086285039782524109e-02
-9.797421842813491821e-02
-4.255726188421249390e-02
6.805321574211120605e-02
-7.793227583169937134e-02
-1.201174557209014893e-01
1.156459972262382507e-01
-1.101440191268920898e-02
2.824565768241882324e-02
-4.102431610226631165e-02
3.883574903011322021e-02
8.618602156639099121e-02
1.258319914340972900e-01
6.678801029920578003e-02
9.738948196172714233e-02
-1.447789967060089111e-01
-5.824272334575653076e-02
-1.201840564608573914e-01
-1.321572065353393555e-01
8.907307684421539307e-02
1.098458692431449890e-01
2.735729329288005829e-02
6.127786263823509216e-02
7.223075628280639648e-02
-1.091459952294826508e-02
-3.356863046064972878e-03
-8.328451775014400482e-03
-1.132100149989128113e-01
9.804432839155197144e-02
4.177818074822425842e-02
-1.729216426610946655e-01
5.375206470489501953e-02
-6.866238266229629517e-02
1.245076581835746765e-01
-4.540589451789855957e-02
-9.003330022096633911e-02
2.956309914588928223e-02
-5.747180432081222534e-02
7.775341719388961792e-02
6.266275048255920410e-02
7.115582376718521118e-02
3.479952737689018250e-02
6.419926881790161133e-02
-9.400128573179244995e-02
4.094694182276725769e-02
1.453634817153215408e-02
-2.116549201309680939e-02
9.456764161586761475e-02
-6.731230765581130981e-02
-6.802852451801300049e-02
-1.274840831756591797e-01
-4.955022782087326050e-02
3.010440245270729065e-02
3.857468441128730774e-02
-4.180220887064933777e-03
-1.225553527474403381e-01
-4.007457569241523743e-02
-7.981677353382110596e-02
1.141176447272300720e-01
7.586161792278289795e-02
4.085885733366012573e-02
-1.025608852505683899e-01
1.098450366407632828e-02
-4.635143652558326721e-02
9.445820748805999756e-02
1.204192712903022766e-01
-7.738725747913122177e-03
3.252507420256733894e-03
5.521190539002418518e-02
1.166836395859718323e-01
6.740258634090423584e-02
-6.512377411127090454e-02
9.629311040043830872e-03
-9.919428080320358276e-02
-1.675524562597274780e-01
-8.044253336265683174e-04
-1.381276175379753113e-02
5.839930474758148193e-02
-1.940585789270699024e-03
2.247090823948383331e-02
-5.708877742290496826e-02
-8.824738115072250366e-02
7.110970467329025269e-02
2.855314873158931732e-02
-7.065204530954360962e-02
-8.239086717367172241e-02
-1.082913801074028015e-01
-6.658074259757995605e-02
-3.861707821488380432e-02
9.692146629095077515e-02
-4.107344523072242737e-02
-7.194638252258300781e-02
-6.366575509309768677e-02
8.677100390195846558e-02
8.394830673933029175e-02
-5.827373638749122620e-02
-9.645409137010574341e-02
5.619664490222930908e-02
8.731000125408172607e-02
9.841240197420120239e-02
-7.431907951831817627e-02
-6.258606165647506714e-02
3.345178067684173584e-02
2.618067152798175812e-02
-6.660334765911102295e-02
3.525911644101142883e-02
8.535043895244598389e-02
-3.492097556591033936e-02
1.194432005286216736e-01
1.412454694509506226e-01
-8.005079627037048340e-02
-6.815776973962783813e-02
7.338821887969970703e-02
6.047292798757553101e-02
8.955415338277816772e-02
-4.619468003511428833e-03
-2.414884977042675018e-02
8.347494900226593018e-02
1.373112946748733521e-01
-5.775545164942741394e-02
-1.068416461348533630e-01
9.936242550611495972e-02
-7.069449126720428467e-02
-5.137867480516433716e-02
2.895296737551689148e-02
2.319448813796043396e-02
1.904051564633846283e-02
-1.121382601559162140e-02
-9.585737437009811401e-02
-1.412067096680402756e-02
-4.744063690304756165e-02
-6.077583879232406616e-02
-7.587296515703201294e-02
9.679002687335014343e-04
-5.471960455179214478e-02
-1.837281137704849243e-02
3.112545795738697052e-02
-2.164734341204166412e-02
-3.336589410901069641e-02
1.482324488461017609e-02
8.441679179668426514e-02
1.431802064180374146e-01
-1.407727152109146118e-01
-2.947158925235271454e-02
6.348841637372970581e-02
8.960594981908798218e-02
1.347312629222869873e-01
4.113177582621574402e-02
-4.663356393575668335e-02
-1.440487504005432129e-01
3.941978886723518372e-02
-7.338756229728460312e-03
-5.343810841441154480e-02
-1.629138141870498657e-01
-8.556254953145980835e-02
-1.505814194679260254e-01
-7.875632494688034058e-02
9.011419862508773804e-02
1.020556092262268066e-01
1.701892726123332977e-02
6.006883457303047180e-02
-7.164976000785827637e-02
-5.277351289987564087e-02
9.749727696180343628e-02
-5.467928200960159302e-02
-9.321364015340805054e-02
-1.288903760723769665e-03
3.393431007862091064e-02
3.166890703141689301e-03
-9.410931915044784546e-02
1.514472365379333496e-01
2.027517417445778847e-03
-6.032308191061019897e-02
-1.819048374891281128e-01
1.296506077051162720e-01
-1.021748408675193787e-01
-2.893279492855072021e-02
6.536412239074707031e-02
-2.666450478136539459e-02
-4.162214323878288269e-02
9.960816800594329834e-02
-1.185728907585144043e-01
-1.057755351066589355e-01
1.031418703496456146e-02
1.526792794466018677e-01
2.014963328838348389e-01
-5.359171703457832336e-02
4.983117431402206421e-02
1.057289168238639832e-01
1.597675830125808716e-01
4.287642985582351685e-02
1.267312616109848022e-01
-7.530725002288818359e-02
3.289692103862762451e-02
1.783078536391258240e-02
-1.085351407527923584e-01
1.084210053086280823e-01
-1.057578548789024353e-01
7.831837981939315796e-02
1.400079876184463501e-01
4.689413309097290039e-02
1.383270323276519775e-01
3.080920130014419556e-02
-1.641899719834327698e-02
-1.173103749752044678e-01
7.498528808355331421e-02
-1.759483069181442261e-01
-1.764338091015815735e-02
-2.633748017251491547e-02
1.069565415382385254e-01
1.440733820199966431e-01
-1.104348078370094299e-01
1.036668345332145691e-01
-2.275390177965164185e-02
9.255460649728775024e-02
6.618043780326843262e-02
3.186564147472381592e-02
-1.006070375442504883e-01
-2.321394719183444977e-02
-1.252120584249496460e-01
5.334661155939102173e-02
-6.925528496503829956e-02
-5.138758569955825806e-02
-7.141524553298950195e-02
6.236724182963371277e-02
-4.723386093974113464e-02
1.403180137276649475e-02
-8.039490878582000732e-02
-7.839085161685943604e-02
-1.400222182273864746e-01
7.259057462215423584e-02
7.667525857686996460e-02
-3.173663094639778137e-02
-3.635698929429054260e-02
1.905923336744308472e-01
6.729396432638168335e-02
-5.219120997935533524e-03
-5.822950974106788635e-02
5.561482533812522888e-02
-9.193329513072967529e-02
4.247062280774116516e-02
-6.422319263219833374e-02
-4.866262152791023254e-02
-6.309431791305541992e-02
-1.088693961501121521e-01
-1.006106212735176086e-01
1.269132737070322037e-02
6.063865870237350464e-02
1.072203442454338074e-01
1.060356348752975464e-01
5.097946524620056152e-02
-1.960593089461326599e-02
7.086658477783203125e-02
-1.091548651456832886e-01
-8.246452361345291138e-02
-7.270524650812149048e-02
-6.424377113580703735e-02
1.476652268320322037e-02
1.426511704921722412e-01
-1.543838530778884888e-01
3.339689970016479492e-02
-1.211230531334877014e-01
-5.235330015420913696e-02
1.046423017978668213e-01
8.658834546804428101e-02
8.201388269662857056e-02
-4.569156095385551453e-02
8.281124383211135864e-02
1.814473234117031097e-02
-6.874171644449234009e-02
-3.751745820045471191e-02
7.024379819631576538e-02
2.626109682023525238e-02
8.164244145154953003e-02
-1.357889547944068909e-02
1.257206648588180542e-01
-7.740543223917484283e-03
-6.968940049409866333e-02
1.153361946344375610e-01
-3.637956455349922180e-02
5.076004657894372940e-03
4.560521990060806274e-02
4.059325158596038818e-02
1.121914461255073547e-01
1.051135435700416565e-01
9.822040051221847534e-02
2.244365960359573364e-02
2.823535166680812836e-02
-6.863239407539367676e-02
-6.782370805740356445e-02
-3.857752308249473572e-02
2.397421188652515411e-02
-6.326445937156677246e-02
-6.564150005578994751e-02
-9.189289808273315430e-02
1.630914211273193359e-01
8.878372609615325928e-02
1.468442082405090332e-01
-1.087842062115669250e-01
-1.017695590853691101e-01
1.347895413637161255e-01
-4.806027933955192566e-02
3.441902995109558105e-02
-1.080978885293006897e-01
-5.945342034101486206e-02
1.031211987137794495e-01
-1.962775923311710358e-02
-8.692694455385208130e-02
3.604159131646156311e-02
-6.861929595470428467e-02
-7.316090911626815796e-02
8.625725656747817993e-02
4.728206619620323181e-02
9.967593103647232056e-02
1.407809853553771973e-01
-1.888884790241718292e-02
-1.200968213379383087e-02
9.493169933557510376e-02
3.995638713240623474e-02
-5.174203217029571533e-02
1.051553785800933838e-01
-5.827824026346206665e-02
8.078487217426300049e-02
5.589907616376876831e-02
6.208433210849761963e-02
-4.866790026426315308e-03
-2.450706437230110168e-02
-4.648406058549880981e-03
2.053505741059780121e-02
5.121851339936256409e-02
1.013373434543609619e-01
-1.336183398962020874e-02
1.545062959194183350e-01
1.309060156345367432e-01
-3.103948011994361877e-02
3.157934546470642090e-02
2.525939792394638062e-02
7.178521156311035156e-02
4.285923391580581665e-02
-1.594748347997665405e-01
-2.776666544377803802e-02
2.428221749141812325e-03
-1.055621430277824402e-01
-7.786407321691513062e-02
4.466693848371505737e-02
-4.543938115239143372e-02
4.211490601301193237e-02
4.288367554545402527e-02
-8.552739024162292480e-02
-1.042547542601823807e-02
-1.034991443157196045e-01
-8.613593876361846924e-02
-1.973111182451248169e-02
-9.790170937776565552e-02
-8.349249511957168579e-02
4.685043543577194214e-02
4.091588780283927917e-02
-1.335378587245941162e-01
1.770583353936672211e-02
-1.690795868635177612e-01
1.050847694277763367e-01
-1.226335018873214722e-01
1.014968454837799072e-01
-3.351134434342384338e-02
-8.919786661863327026e-02
1.174896210432052612e-02
7.325161248445510864e-02
-1.028367280960083008e-01
-6.053705140948295593e-02
-3.273728070780634880e-03
1.161881834268569946e-01
4.070530459284782410e-02
7.232725620269775391e-02
1.246393248438835144e-01
-1.382416039705276489e-01
-9.637431055307388306e-02
-1.476119756698608398e-01
2.517144568264484406e-02
6.966273486614227295e-02
-1.068882569670677185e-01
1.686445996165275574e-02
-1.154596284031867981e-01
9.812387079000473022e-02
-1.081681344658136368e-02
4.395689442753791809e-02
8.315335959196090698e-02
6.874646525830030441e-03
3.541741892695426941e-02
-6.009300425648689270e-02
-1.180417370051145554e-02
4.561381414532661438e-02
3.987396135926246643e-02
1.440528035163879395e-02
3.898283839225769043e-02
3.168401867151260376e-02
1.793695427477359772e-02
-1.082108691334724426e-01
-1.000298708677291870e-01
-1.039295718073844910e-01
-2.112075872719287872e-02
6.340140942484140396e-03
-2.741472609341144562e-02
-2.449641190469264984e-02
1.145827546715736389e-01
1.162381619215011597e-01
5.230657011270523071e-02
1.120990812778472900e-01
2.770402655005455017e-02
1.142829060554504395e-01
2.764270640909671783e-02
-1.185460463166236877e-01
-7.522122003138065338e-03
1.613352000713348389e-01
1.467070728540420532e-01
-9.634241461753845215e-03
-3.795043379068374634e-02
-9.388758242130279541e-02
-5.120332539081573486e-02
-6.509875506162643433e-02
9.271214902400970459e-02
3.178561106324195862e-02
-7.891088724136352539e-02
-1.057030558586120605e-01
4.321784526109695435e-02
1.034457162022590637e-01
4.451922699809074402e-02
-1.032615453004837036e-02
-1.609299927949905396e-01
-4.265081509947776794e-02
-1.412384212017059326e-02
9.256594628095626831e-02
2.671852149069309235e-02
-2.187969908118247986e-02
1.138494610786437988e-01
-7.551766186952590942e-02
6.877835094928741455e-02
2.371106483042240143e-02
-3.268716856837272644e-02
1.172384843230247498e-01
-8.075878024101257324e-02
1.032191365957260132e-01
5.319186672568321228e-02
-7.389618456363677979e-02
-6.731124967336654663e-02
-7.302876561880111694e-02
-6.090612709522247314e-02
1.462951675057411194e-02
1.086176037788391113e-01
6.449442356824874878e-03
3.344753757119178772e-02
-9.620330482721328735e-02
3.031761944293975830e-02
3.023926913738250732e-02
-2.071550861001014709e-02
-1.330287158489227295e-01
-5.119812861084938049e-02
1.208451315760612488e-01
5.352173373103141785e-02
1.589538902044296265e-01
-6.393505632877349854e-02
2.701382339000701904e-02
5.758462008088827133e-03
-1.143393740057945251e-01
-3.884586738422513008e-03
-8.146484196186065674e-02
8.599743992090225220e-02
1.029706075787544250e-01
-1.381054371595382690e-01
-8.914497494697570801e-02
-1.052470598369836807e-02
-6.065609632059931755e-04
-5.556562915444374084e-02
5.983150005340576172e-02
-9.286346286535263062e-02
1.636070907115936279e-01
-1.429679989814758301e-01
-6.283770501613616943e-02
-3.668271005153656006e-02
1.137304529547691345e-01
1.025917828083038330e-01
-6.595000158995389938e-03
-5.896207317709922791e-02
-4.805401840712875128e-04
-8.775492757558822632e-02
-1.255570352077484131e-01
-7.053740322589874268e-02
9.745926409959793091e-02
2.208724245429039001e-02
9.927764534950256348e-02
-1.204941719770431519e-01
-8.990050293505191803e-03
3.791129216551780701e-02
-1.685377806425094604e-01
-2.661430276930332184e-02
6.158828362822532654e-02
-9.322114288806915283e-02
-8.821127563714981079e-02
-2.608647197484970093e-02
9.356013685464859009e-02
-1.103694140911102295e-01
8.613712154328823090e-03
1.961932145059108734e-02
8.870917558670043945e-02
2.436861163005232811e-03
-6.605561822652816772e-02
1.224308609962463379e-01
3.586267679929733276e-02
-1.166262403130531311e-01
-3.731913119554519653e-02
-7.178766280412673950e-02
-9.883964061737060547e-02
-1.307486593723297119e-01
9.004960209131240845e-02
1.488763242959976196e-01
-1.068315804004669189e-01
-9.699317812919616699e-02
-4.405083134770393372e-02
-1.095067933201789856e-01
7.102631777524948120e-02
8.867068588733673096e-02
-6.455687433481216431e-02
1.319049000740051270e-01
7.619544118642807007e-02
2.844108035787940025e-03
1.269822660833597183e-02
8.166453987360000610e-02
4.617576673626899719e-02
2.172664552927017212e-02
-8.778114803135395050e-03
8.421977609395980835e-02
-4.970268905162811279e-02
-1.960921660065650940e-02
1.596765071153640747e-01
9.032780677080154419e-02
6.118824239820241928e-03
1.131769865751266479e-01
-2.060490660369396210e-02
-3.377862647175788879e-02
2.569501288235187531e-02
7.117701321840286255e-02
7.684214413166046143e-02
-1.810134761035442352e-02
-1.297333538532257080e-01
4.349257797002792358e-02
6.579321622848510742e-02
3.784802183508872986e-02
-7.125639170408248901e-02
1.074521988630294800e-01
-9.562557935714721680e-02
3.135798498988151550e-02
2.294875867664813995e-02
1.259396225214004517e-01
-9.682098776102066040e-02
-1.672217622399330139e-03
4.065374284982681274e-02
-1.144581958651542664e-01
5.363647639751434326e-02
6.868753582239151001e-02
-3.009802289307117462e-02
-7.111248373985290527e-02
-1.373603045940399170e-01
5.964136868715286255e-02
-7.093075662851333618e-02
-6.617140024900436401e-03
-1.419077664613723755e-01
-1.452521681785583496e-01
-1.112935692071914673e-01
-6.375078111886978149e-02
2.971693128347396851e-02
-1.668718904256820679e-01
9.992472082376480103e-02
3.868759423494338989e-02
4.165796563029289246e-02
-9.886702895164489746e-02
-4.689337220042943954e-03
-1.789976209402084351e-01
2.833703160285949707e-02
-7.340190000832080841e-03
-4.936617612838745117e-02
6.266277283430099487e-02
-3.518410259857773781e-03
-8.619686588644981384e-03
-2.516611106693744659e-02
-5.553296953439712524e-02
-1.577892899513244629e-01
2.642886340618133545e-02
1.200215518474578857e-01
-7.764608412981033325e-02
1.101696491241455078e-01
2.567534521222114563e-02
-1.450972910970449448e-02
1.017709225416183472e-01
-1.137920394539833069e-01
-9.972930699586868286e-02
-1.273015886545181274e-01
-8.511803299188613892e-02
-1.230578348040580750e-01
-1.266561541706323624e-02
-8.003128319978713989e-02
1.152585968375205994e-01
-3.620787709951400757e-02
1.531950533390045166e-01
1.300371289253234863e-01
-2.644876576960086823e-02
-1.884230040013790131e-02
-9.521812200546264648e-02
-1.497775409370660782e-02
-2.699974738061428070e-02
2.977613173425197601e-02
-9.471646696329116821e-02
-3.309620544314384460e-02
-1.013012677431106567e-01
-6.828501075506210327e-02
9.611707925796508789e-02
9.360761195421218872e-02
-1.014519557356834412e-01
6.782186776399612427e-02
-1.267075687646865845e-01
-1.373667716979980469e-01
1.501261591911315918e-01
-1.059382036328315735e-01
2.004483491182327271e-01
2.609941363334655762e-02
-7.048470526933670044e-02
-2.194056846201419830e-02
-6.483212858438491821e-02
2.108576148748397827e-02
-2.803510986268520355e-02
1.142284497618675232e-01
1.483496278524398804e-01
1.712537407875061035e-01
-7.348775863647460938e-02
1.169373691082000732e-01
-3.454347327351570129e-02
-7.607962004840373993e-03
-1.694377511739730835e-02
9.318541735410690308e-02
-2.551413699984550476e-02
-2.824076218530535698e-03
4.769604653120040894e-03
5.707643926143646240e-02
-1.418634410947561264e-02
1.337516456842422485e-01
-2.007916383445262909e-02
-2.304907888174057007e-02
-4.574676230549812317e-02
3.272097557783126831e-02
4.730671271681785583e-02
-1.697712019085884094e-02
8.020795136690139771e-02
-5.174385756254196167e-02
-1.653794944286346436e-02
-1.751132309436798096e-02
-1.155902445316314697e-01
-7.662165910005569458e-02
-8.407247811555862427e-02
6.885626818984746933e-03
-6.292928755283355713e-02
-1.093328148126602173e-01
1.492189019918441772e-01
3.258187696337699890e-02
8.743347972631454468e-02
1.458832025527954102e-01
-4.342456907033920288e-02
1.025406718254089355e-01
-1.395392231643199921e-02
-9.815875440835952759e-02
3.894177079200744629e-02
1.463213264942169189e-01
1.501348167657852173e-01
-1.487286090850830078e-01
6.942000985145568848e-02
-9.100147522985935211e-03
1.040056794881820679e-01
8.827639743685722351e-03
2.745461277663707733e-02
1.098063960671424866e-02
-1.452245265245437622e-01
-7.427892833948135376e-02
1.377416402101516724e-01
-1.038604602217674255e-02
9.427934885025024414e-02
-1.027619317173957825e-01
4.546488076448440552e-02
1.107990369200706482e-01
-2.245217561721801758e-02
-1.674783043563365936e-02
-1.296547800302505493e-01
-4.354093596339225769e-02
1.056723762303590775e-03
-3.036401607096195221e-02
2.836212888360023499e-02
6.226000934839248657e-02
2.583454176783561707e-02
3.225903213024139404e-02
-1.009308993816375732e-01
8.546976745128631592e-02
-1.074176374822854996e-02
-9.594536572694778442e-02
1.775944232940673828e-02
9.880452603101730347e-02
9.304446168243885040e-03
-1.107496172189712524e-01
-2.795573882758617401e-02
-1.654313057661056519e-01
8.997567743062973022e-02
-8.133370429277420044e-02
-8.931840769946575165e-03
-1.044798716902732849e-01
-1.031789630651473999e-01
2.880169078707695007e-02
6.689687073230743408e-02
1.854473799467086792e-01
9.239591658115386963e-02
