3.425413370132446289e-02
6.575144082307815552e-02
-7.616143673658370972e-02
-8.805880695581436157e-02
-1.648912206292152405e-02
7.051271200180053711e-02
1.011134497821331024e-02
7.950994372367858887e-02
-6.623739749193191528e-02
-7.634821534156799316e-02
7.692726701498031616e-02
-7.979749143123626709e-02
-7.789243012666702271e-02
-6.885001808404922485e-02
7.192152738571166992e-02
-3.522144630551338196e-02
1.980026252567768097e-02
2.153479494154453278e-02
-4.017890617251396179e-02
-8.134508877992630005e-02
2.254805713891983032e-02
1.498971600085496902e-02
-5.801370367407798767e-02
4.040640592575073242e-02
8.925185538828372955e-03
1.798009872436523438e-02
3.595942631363868713e-02
-2.706764265894889832e-02
3.207416087388992310e-02
-8.593951910734176636e-02
4.673108831048011780e-02
7.882194221019744873e-02
8.037544786930084229e-02
6.151604279875755310e-02
8.800537139177322388e-02
-3.727693855762481689e-02
3.830654174089431763e-02
9.911442175507545471e-03
-8.245251141488552094e-03
-7.753153145313262939e-02
-6.564963608980178833e-02
-8.522071875631809235e-03
3.721791133284568787e-02
1.066306792199611664e-02
-1.899893581867218018e-02
-3.316265717148780823e-02
1.237606350332498550e-02
4.179032891988754272e-02
3.657347336411476135e-02
3.367956727743148804e-02
4.765890911221504211e-02
-7.503445446491241455e-02
-4.309672117233276367e-02
-8.761799335479736328e-02
-8.028603345155715942e-02
-7.001810520887374878e-02
7.994654029607772827e-02
-5.201712250709533691e-02
-7.615512609481811523e-02
-4.246189724653959274e-03
-4.308514297008514404e-02
8.128026127815246582e-02
-3.123664110898971558e-02
-4.432551190257072449e-02
4.464538767933845520e-02
2.665606886148452759e-02
7.118486799299716949e-03
-2.825114410370588303e-03
-7.344295084476470947e-02
2.163853868842124939e-02
-1.568840118125081062e-03
1.451578550040721893e-02
-2.830647677183151245e-02
5.097920447587966919e-02
5.354116484522819519e-02
5.162709578871726990e-02
5.669059604406356812e-02
-3.935390338301658630e-02
6.081359088420867920e-02
-5.752628669142723083e-02
-1.641917973756790161e-02
-1.271151006221771240e-02
3.202616795897483826e-02
3.737166151404380798e-02
7.470709085464477539e-02
-8.494570851325988770e-03
2.068017236888408661e-02
-6.910935789346694946e-02
-5.746258888393640518e-03
-2.492653019726276398e-02
6.553233414888381958e-02
-6.296939402818679810e-02
-7.286165654659271240e-02
1.997882872819900513e-02
-6.927987188100814819e-02
2.411215938627719879e-02
7.221774756908416748e-02
6.439683586359024048e-02
6.705448776483535767e-02
-6.719903554767370224e-03
-6.778600811958312988e-02
-8.116882294416427612e-03
6.267352029681205750e-03
7.573908567428588867e-02
5.226664245128631592e-02
-4.793845862150192261e-02
7.108636200428009033e-02
2.766265161335468292e-02
-5.056381598114967346e-02
-6.780682504177093506e-02
7.132189720869064331e-02
2.289045788347721100e-02
-6.191806122660636902e-02
7.434364408254623413e-02
-5.313132703304290771e-02
-5.852462491020560265e-04
-6.030358374118804932e-02
3.745483979582786560e-02
5.646732449531555176e-02
6.495809182524681091e-03
7.606937736272811890e-02
-2.800339832901954651e-02
1.156483124941587448e-02
-5.325606092810630798e-02
2.355900220572948456e-02
-4.259281232953071594e-02
5.350033566355705261e-02
-4.116599634289741516e-02
2.940078824758529663e-02
6.898771971464157104e-02
4.284703359007835388e-02
-5.037716776132583618e-02
-7.725542783737182617e-02
4.898352921009063721e-02
8.346255868673324585e-03
-6.870052963495254517e-02
-7.277908176183700562e-02
2.720207162201404572e-02
-6.691106595098972321e-03
-9.197959676384925842e-03
5.863402038812637329e-02
-2.796059846878051758e-02
7.175195217132568359e-02
3.033361397683620453e-02
7.791248708963394165e-02
8.776608854532241821e-02
6.657735258340835571e-02
3.586867451667785645e-02
2.584823966026306152e-02
7.475382834672927856e-02
-3.214832022786140442e-02
-7.084405422210693359e-02
-1.812549494206905365e-02
7.216931320726871490e-03
-2.002633735537528992e-02
-4.650116339325904846e-02
-2.129840292036533356e-02
-2.138247527182102203e-02
-5.274661257863044739e-02
2.251176047138869762e-04
-3.478478267788887024e-02
-1.354603935033082962e-02
-4.369921237230300903e-02
-2.127214707434177399e-02
4.171225056052207947e-02
-2.212744206190109253e-02
-1.522334525361657143e-03
-3.485562279820442200e-02
-6.109759956598281860e-02
-4.133589938282966614e-02
-1.948292739689350128e-02
6.811108440160751343e-02
5.127297714352607727e-02
4.422432929277420044e-02
6.762620992958545685e-03
-4.630049318075180054e-02
5.231319367885589600e-02
8.334489911794662476e-02
-2.863697148859500885e-02
2.155799604952335358e-02
-7.056544721126556396e-02
2.640434727072715759e-02
7.485596090555191040e-02
-2.510130405426025391e-02
2.185636572539806366e-02
4.003797844052314758e-02
7.401095330715179443e-02
-6.029948592185974121e-02
7.889009267091751099e-02
-4.738936945796012878e-02
3.834836184978485107e-02
-7.209794968366622925e-02
-7.513215392827987671e-02
-2.113326452672481537e-03
-8.382267504930496216e-02
-1.017363835126161575e-02
3.559561446309089661e-02
7.257476449012756348e-02
6.595231592655181885e-02
-7.147406041622161865e-02
-6.933489348739385605e-04
-2.086053043603897095e-02
-6.956067681312561035e-02
5.174090340733528137e-02
8.433897048234939575e-02
5.133679881691932678e-02
7.495523244142532349e-02
-2.591543272137641907e-02
-7.242303341627120972e-03
6.409446895122528076e-02
-8.642518520355224609e-02
3.912326321005821228e-02
8.441283553838729858e-02
8.477263897657394409e-02
-8.458396792411804199e-02
4.904923494905233383e-03
-1.394279859960079193e-02
1.741545647382736206e-02
7.095350325107574463e-02
-8.602526038885116577e-02
-1.515350956469774246e-02
-5.068983510136604309e-02
-5.712949484586715698e-02
7.062748819589614868e-02
-6.364417076110839844e-02
-4.117342457175254822e-02
6.345693767070770264e-02
-2.258821390569210052e-02
1.063864398747682571e-02
-5.416796077042818069e-03
-5.277352035045623779e-02
5.356467142701148987e-02
8.544019423425197601e-03
-1.659406721591949463e-02
-7.999566383659839630e-03
3.106806427240371704e-02
7.491547614336013794e-02
3.780257329344749451e-02
3.249485045671463013e-02
-6.128483638167381287e-02
-6.037174537777900696e-02
5.422562733292579651e-02
-6.149524450302124023e-02
1.338872592896223068e-02
-6.738948076963424683e-02
-6.297857034951448441e-03
-6.552767753601074219e-02
-2.533177286386489868e-02
-4.840923938900232315e-03
4.894427955150604248e-02
-5.605202913284301758e-02
7.713757455348968506e-02
-3.846319392323493958e-03
-3.483967110514640808e-02
-4.297075420618057251e-02
-5.698001012206077576e-03
8.749944716691970825e-02
-1.744324155151844025e-02
5.247002094984054565e-02
2.478660270571708679e-02
5.411135777831077576e-02
1.244367752224206924e-02
6.727086752653121948e-02
5.208778381347656250e-02
-2.701385319232940674e-02
-3.570111002773046494e-03
9.342681616544723511e-03
2.593243867158889771e-02
-4.025889933109283447e-02
-9.229022078216075897e-03
8.165970444679260254e-02
2.683850191533565521e-02
-6.960421055555343628e-02
5.944966897368431091e-02
7.281527668237686157e-02
-3.183003887534141541e-02
5.893048271536827087e-02
5.612060427665710449e-02
-6.897819787263870239e-02
1.598352752625942230e-02
-7.094903290271759033e-02
-2.553955651819705963e-02
5.129135400056838989e-02
-1.543891709297895432e-02
-8.438566327095031738e-02
-5.939016491174697876e-02
2.726832590997219086e-02
-1.077996287494897842e-02
4.170036688446998596e-02
3.162506595253944397e-02
-4.529025405645370483e-02
-2.243519946932792664e-02
3.600786253809928894e-02
4.278247430920600891e-02
-5.874238163232803345e-02
-6.215013191103935242e-02
-5.196808651089668274e-02
7.957387715578079224e-03
6.195173412561416626e-02
-1.513498555868864059e-02
-2.143897488713264465e-02
3.773937374353408813e-02
7.077989727258682251e-02
5.514892935752868652e-02
8.912646211683750153e-03
-7.455853745341300964e-03
4.109339788556098938e-02
5.391698796302080154e-03
-3.707940503954887390e-02
-2.197255380451679230e-02
8.488092571496963501e-02
7.864370197057723999e-02
-1.526944432407617569e-02
1.808253675699234009e-02
-5.748176947236061096e-02
-9.412887506186962128e-03
-3.720431774854660034e-02
1.369570288807153702e-02
6.648571789264678955e-02
-2.147640101611614227e-02
-8.527924865484237671e-02
6.100506987422704697e-03
-8.623035252094268799e-02
-2.784604392945766449e-02
-4.346175491809844971e-02
3.253262490034103394e-03
-7.075521349906921387e-02
6.219119206070899963e-02
1.791419088840484619e-02
-5.310945212841033936e-02
5.971692036837339401e-03
-6.838824599981307983e-02
-2.173798531293869019e-02
4.504138603806495667e-03
-5.582275241613388062e-02
2.662089653313159943e-03
3.532423079013824463e-02
-8.636936545372009277e-02
8.683642745018005371e-02
2.325677871704101562e-02
-4.571692645549774170e-02
-2.941081859171390533e-02
-2.393293939530849457e-02
-2.993912994861602783e-02
2.975390525534749031e-03
-1.222216431051492691e-02
-4.847284778952598572e-02
-2.077767997980117798e-02
3.732772544026374817e-02
-2.145496895536780357e-03
6.762059032917022705e-02
4.397298768162727356e-02
-1.745060645043849945e-02
-6.151558086276054382e-02
-8.568763732910156250e-02
3.373893210664391518e-03
3.588606044650077820e-02
5.623919516801834106e-02
-2.369137480854988098e-02
-5.876964703202247620e-02
-4.052640870213508606e-02
1.527472399175167084e-02
-1.475396752357482910e-02
-5.117968469858169556e-02
-4.461402073502540588e-03
4.208292067050933838e-02
-2.245817892253398895e-02
6.009722128510475159e-02
6.639939546585083008e-02
-7.808569818735122681e-02
-8.481296896934509277e-02
-4.199089482426643372e-02
-6.488825380802154541e-02
-4.006627015769481659e-03
-3.212230280041694641e-02
3.201236575841903687e-02
-6.460337340831756592e-02
-2.418527379631996155e-02
6.510283797979354858e-02
5.804043635725975037e-02
-1.394570712000131607e-02
-4.089274629950523376e-02
7.288321852684020996e-02
7.192357629537582397e-02
6.060699746012687683e-02
8.872216567397117615e-03
3.420965746045112610e-02
-2.778667956590652466e-02
2.207481116056442261e-02
5.074698477983474731e-02
-7.253648340702056885e-02
-5.825424566864967346e-02
-8.355982601642608643e-02
3.467466309666633606e-02
7.708366960287094116e-02
3.617012873291969299e-02
1.861057244241237640e-02
-3.013612329959869385e-02
8.641189336776733398e-02
-2.758795768022537231e-02
-7.800514809787273407e-03
-5.019539967179298401e-02
1.098064240068197250e-03
4.931929334998130798e-02
-1.105872169137001038e-02
-2.356061525642871857e-02
3.161219134926795959e-02
-2.400134503841400146e-02
3.293544519692659378e-03
8.368533849716186523e-02
4.296754300594329834e-02
-7.539848983287811279e-02
7.753019034862518311e-02
-1.591242663562297821e-02
-1.471723313443362713e-03
3.782371804118156433e-02
3.091738931834697723e-02
-4.308271780610084534e-02
7.134744897484779358e-03
6.490758806467056274e-02
5.676217377185821533e-02
-8.776964992284774780e-02
-5.125187337398529053e-02
3.522180393338203430e-02
-2.882939204573631287e-02
-4.108360782265663147e-02
2.335846796631813049e-02
2.400177717208862305e-02
-6.987417489290237427e-02
-2.929366007447242737e-02
-2.445643581449985504e-02
3.455540910363197327e-02
2.115724422037601471e-02
7.227226346731185913e-02
8.816294372081756592e-02
4.461926594376564026e-02
7.179292291402816772e-02
-2.852184697985649109e-02
6.569125503301620483e-02
-7.360504008829593658e-03
8.796679228544235229e-02
6.887606345117092133e-03
-4.244213923811912537e-02
3.430293127894401550e-02
2.915225736796855927e-02
-7.542094215750694275e-03
2.405705116689205170e-02
5.430043861269950867e-02
1.041528675705194473e-02
8.327683806419372559e-02
8.612228929996490479e-02
-8.684459328651428223e-02
5.517682060599327087e-03
-1.284819282591342926e-02
3.249564021825790405e-02
-8.501550555229187012e-02
-1.824885793030261993e-02
-2.586016803979873657e-02
-4.153138771653175354e-02
5.548546090722084045e-02
-1.891536824405193329e-02
-7.022427767515182495e-02
-7.621762156486511230e-02
-7.038597483187913895e-03
1.898214034736156464e-02
7.308578491210937500e-02
8.769455552101135254e-02
-8.072242140769958496e-02
8.331315964460372925e-02
4.956854879856109619e-02
8.827698230743408203e-02
6.158300489187240601e-02
4.750036075711250305e-02
2.166552469134330750e-02
7.491781562566757202e-02
-6.771752960048615932e-04
7.367584388703107834e-03
7.726323604583740234e-02
3.487828746438026428e-02
1.346158701926469803e-02
2.060524560511112213e-02
-6.505812704563140869e-02
-4.388450831174850464e-02
2.575287222862243652e-02
5.741559714078903198e-02
6.285006552934646606e-02
-4.793896153569221497e-02
4.169677197933197021e-02
8.003284037113189697e-02
-3.069436922669410706e-02
3.183145821094512939e-02
4.212788119912147522e-02
-4.330227151513099670e-02
-7.198397815227508545e-02
9.915320202708244324e-03
-5.862157791852951050e-02
7.683197408914566040e-02
-5.841637402772903442e-02
5.025438219308853149e-02
-7.153684645891189575e-02
-5.414647515863180161e-03
-4.848032817244529724e-02
4.403247684240341187e-02
5.649348604492843151e-04
-2.242284128442406654e-03
3.735897690057754517e-02
2.671684511005878448e-02
-2.530723111703991890e-03
-2.474069409072399139e-02
4.377891123294830322e-02
-1.897283643484115601e-02
-7.099703699350357056e-02
-6.877989321947097778e-02
-3.885108977556228638e-02
1.705692335963249207e-02
8.369091153144836426e-02
1.365354470908641815e-02
2.659253217279911041e-02
-9.167835116386413574e-03
4.047390073537826538e-02
-1.975047867745161057e-03
2.628458663821220398e-02
-3.889668360352516174e-02
2.601024135947227478e-02
-6.870110332965850830e-02
-3.331605985295027494e-04
-1.328753121197223663e-02
5.190917477011680603e-02
2.075023204088211060e-02
2.458338253200054169e-02
-7.584851235151290894e-02
2.648698538541793823e-02
6.610706448554992676e-02
8.374715223908424377e-03
8.334230631589889526e-02
-6.005251407623291016e-02
-8.380813151597976685e-02
8.702337741851806641e-02
3.932650759816169739e-02
1.566823758184909821e-02
-8.457629010081291199e-03
1.341045275330543518e-02
-4.838405549526214600e-02
-8.340834826231002808e-02
-5.943420808762311935e-03
8.708455599844455719e-03
6.605860590934753418e-02
-8.542293310165405273e-02
5.135366693139076233e-02
-6.423607468605041504e-02
6.771631538867950439e-02
5.101009830832481384e-02
9.625697508454322815e-03
-7.118155062198638916e-02
-1.731991418637335300e-03
5.528189241886138916e-02
-7.596098631620407104e-02
-7.597626000642776489e-02
6.909750401973724365e-02
3.685823082923889160e-02
4.168484359979629517e-02
-5.279221385717391968e-02
2.613237313926219940e-02
-8.364094793796539307e-02
-3.053490631282329559e-02
-2.845708839595317841e-02
-1.576882228255271912e-02
-4.907602071762084961e-02
-5.061946064233779907e-02
5.176167935132980347e-03
-3.440889716148376465e-02
2.331019937992095947e-02
6.095073744654655457e-02
-8.397869020700454712e-02
-4.528298601508140564e-02
5.792027339339256287e-02
-5.834272131323814392e-02
8.898100350052118301e-05
3.432416170835494995e-02
7.996951043605804443e-02
5.923154577612876892e-02
-3.312054276466369629e-02
8.619387447834014893e-02
8.508602529764175415e-02
1.456312648952007294e-02
3.500282019376754761e-02
-8.057143539190292358e-02
4.247555136680603027e-02
-3.897636011242866516e-02
2.438832633197307587e-02
-5.969672277569770813e-02
-2.298409864306449890e-02
-8.149224519729614258e-02
-3.904806450009346008e-02
1.444430463016033173e-02
-2.897924557328224182e-02
8.711643517017364502e-02
2.716728858649730682e-02
-4.496603086590766907e-02
-3.252017544582486153e-03
2.153648063540458679e-02
-5.979932844638824463e-02
8.683720231056213379e-02
-1.952235586941242218e-02
3.569472208619117737e-02
-8.560773730278015137e-02
2.072518505156040192e-02
-7.445037364959716797e-02
1.336557697504758835e-02
-5.587763711810112000e-02
-2.734415791928768158e-02
-7.655756920576095581e-02
8.793647587299346924e-02
2.672597020864486694e-02
4.784591123461723328e-02
6.962671875953674316e-02
1.981568895280361176e-02
3.890325874090194702e-02
5.291062593460083008e-02
4.304941371083259583e-02
-7.911987602710723877e-02
-7.645189762115478516e-02
-5.600505694746971130e-02
-2.457994595170021057e-02
-8.665749803185462952e-03
2.948589250445365906e-02
-8.308516442775726318e-02
-4.015688318759202957e-03
-6.465775519609451294e-02
-3.328673914074897766e-02
2.489712275564670563e-02
-2.973132999613881111e-03
5.847092345356941223e-02
-6.623945385217666626e-02
5.830398947000503540e-02
8.193758130073547363e-02
-2.566332183778285980e-02
-7.127038389444351196e-02
6.404720246791839600e-02
4.599100723862648010e-02
2.629345841705799103e-02
-5.039760842919349670e-02
-8.247927762567996979e-03
4.765646159648895264e-02
-3.974934667348861694e-02
-1.391068287193775177e-02
4.477776959538459778e-02
6.461647897958755493e-02
-5.586156994104385376e-02
2.733548730611801147e-02
-6.848095357418060303e-02
-5.927617847919464111e-02
6.410315632820129395e-02
8.041766285896301270e-02
-3.263244032859802246e-02
-5.449965596199035645e-02
1.516058947890996933e-02
8.659767359495162964e-02
-1.030296552926301956e-02
-8.173272758722305298e-02
-7.858622074127197266e-02
2.385789714753627777e-02
2.865846641361713409e-02
-6.282767653465270996e-02
2.066727541387081146e-02
2.103470079600811005e-02
-2.140416298061609268e-03
3.463827073574066162e-03
-1.537671685218811035e-02
-4.393853247165679932e-02
1.778390444815158844e-02
7.189758867025375366e-02
-4.022231698036193848e-02
7.589267939329147339e-02
8.418847620487213135e-02
6.598996371030807495e-02
-4.785332083702087402e-02
3.788448497653007507e-02
3.145904093980789185e-02
-1.687911711633205414e-02
-3.323299065232276917e-02
3.648746060207486153e-03
3.386114537715911865e-02
-4.997803643345832825e-02
-4.030327126383781433e-02
2.168880961835384369e-02
-1.508223917335271835e-02
-2.872978895902633667e-02
7.161048799753189087e-02
-7.200380414724349976e-02
6.906925141811370850e-02
-4.555973038077354431e-02
-3.517456725239753723e-02
-4.727040976285934448e-02
-5.643908679485321045e-02
-8.399216830730438232e-02
-5.653108283877372742e-02
8.607161045074462891e-02
-8.232583850622177124e-02
1.519670989364385605e-02
-5.215016007423400879e-02
-5.657740309834480286e-02
-4.333895072340965271e-02
6.473481655120849609e-02
-1.623650453984737396e-02
2.395516261458396912e-02
-1.204030239023268223e-03
4.860424995422363281e-02
-8.285423368215560913e-02
-7.529499381780624390e-02
6.913354992866516113e-02
-4.044053331017494202e-02
3.735308127943426371e-04
-4.540272429585456848e-02
-6.887281313538551331e-03
-9.202616289258003235e-03
-8.496119640767574310e-03
-7.249514758586883545e-02
3.596587479114532471e-02
-1.945476420223712921e-02
-9.203006513416767120e-03
-6.149110198020935059e-02
-1.075054425746202469e-02
4.495736956596374512e-02
-4.587197676301002502e-02
-5.123393982648849487e-02
6.533996015787124634e-02
-2.629597729537636042e-04
-4.082635417580604553e-02
-1.783693581819534302e-02
8.679853379726409912e-02
-1.730466610752046108e-03
-4.726769030094146729e-02
1.914015784859657288e-02
3.387448564171791077e-02
8.720754832029342651e-02
-3.996035456657409668e-02
6.352338194847106934e-02
-2.942155813798308372e-03
-2.520626969635486603e-02
7.179310172796249390e-02
9.346990846097469330e-03
-3.212015330791473389e-02
1.790400221943855286e-02
-3.253088518977165222e-02
7.908866554498672485e-02
-1.728811417706310749e-03
1.695563696557655931e-04
6.527338922023773193e-02
-3.558559343218803406e-02
-4.528931528329849243e-02
-1.172883529216051102e-02
6.867462396621704102e-02
-2.210177481174468994e-02
1.778458990156650543e-02
3.907629102468490601e-02
-1.097910664975643158e-02
-7.182569056749343872e-02
-3.261042758822441101e-02
5.664699524641036987e-02
1.877155341207981110e-02
-3.327411413192749023e-02
-6.166408210992813110e-02
-4.291383549571037292e-02
8.295616507530212402e-02
-6.880474835634231567e-02
4.518351703882217407e-02
6.481228768825531006e-02
-7.037482410669326782e-02
-8.251719176769256592e-03
2.064664475619792938e-02
2.039441652595996857e-02
-3.704011440277099609e-02
-5.832277610898017883e-02
-4.925041273236274719e-02
6.731667369604110718e-02
-5.840354040265083313e-02
-4.526534676551818848e-02
2.346965111792087555e-02
-7.913893461227416992e-02
3.663800284266471863e-02
5.369909852743148804e-02
-2.721263840794563293e-02
-5.170707032084465027e-02
-3.772044926881790161e-02
-4.594483599066734314e-02
2.291936054825782776e-02
-1.574528217315673828e-02
1.381747517734766006e-02
-9.779785759747028351e-03
2.823318354785442352e-02
3.653285652399063110e-02
-3.060814738273620605e-02
-4.391687735915184021e-02
-3.883346170186996460e-02
-4.573143087327480316e-03
2.229792624711990356e-02
-5.665297061204910278e-02
-3.096716478466987610e-02
5.324748344719409943e-03
-7.793874293565750122e-02
-5.698109418153762817e-02
5.814584344625473022e-02
-3.852528333663940430e-02
4.364775866270065308e-02
-4.916511103510856628e-02
-7.638902217149734497e-02
2.295833639800548553e-02
4.081026464700698853e-02
-8.707594871520996094e-02
1.205815002322196960e-02
4.525602236390113831e-02
-3.432987723499536514e-03
5.565731599926948547e-02
-6.734509766101837158e-02
6.971181184053421021e-02
-2.789967507123947144e-02
6.655647605657577515e-02
2.817969769239425659e-02
9.421148337423801422e-03
4.695611819624900818e-02
-7.214839756488800049e-02
4.936269484460353851e-03
1.888368465006351471e-02
1.461101602762937546e-02
4.557109996676445007e-02
-3.899530693888664246e-02
-7.918090373277664185e-02
2.490974590182304382e-02
8.562683314085006714e-02
-2.800508402287960052e-02
1.556568406522274017e-02
8.820220828056335449e-02
6.564246490597724915e-03
-5.180199514143168926e-04
5.071716755628585815e-02
4.716261848807334900e-02
2.028929255902767181e-02
-3.755677118897438049e-02
2.055430039763450623e-02
-4.446661099791526794e-02
-7.514460384845733643e-02
-1.868339255452156067e-02
-2.378158969804644585e-03
-8.671364933252334595e-02
3.406938165426254272e-02
3.728760033845901489e-02
-6.111294031143188477e-02
9.273855015635490417e-03
1.202916633337736130e-02
-5.490244552493095398e-02
3.791862353682518005e-02
-1.663000881671905518e-02
-2.653529681265354156e-02
-6.882854551076889038e-02
2.338557876646518707e-02
-5.178518965840339661e-02
7.454953342676162720e-02
-4.572859406471252441e-02
5.661445856094360352e-02
-4.226814582943916321e-02
-1.579011604189872742e-02
6.336258351802825928e-02
-2.192640304565429688e-02
-5.128546431660652161e-02
-4.756619688123464584e-03
-1.359738409519195557e-02
-2.416560053825378418e-02
5.947386100888252258e-02
-8.527708239853382111e-03
4.135125130414962769e-02
-3.808123758062720299e-03
-8.559055626392364502e-03
7.380232214927673340e-02
3.801503404974937439e-02
-3.409640863537788391e-02
-6.503290962427854538e-03
8.369940519332885742e-02
4.242570325732231140e-02
-4.667584225535392761e-02
-4.576612263917922974e-02
-8.415168523788452148e-02
-1.666770875453948975e-02
-1.805425272323191166e-03
-2.396535273874178529e-04
5.529801174998283386e-02
1.252910960465669632e-02
-3.535946831107139587e-02
-5.502708256244659424e-02
-1.268554758280515671e-02
-6.565477699041366577e-02
-1.876541972160339355e-02
-4.755576327443122864e-02
-2.811665646731853485e-02
-7.530301064252853394e-02
-4.858599230647087097e-02
5.269888043403625488e-02
-1.740085333585739136e-02
6.720262113958597183e-03
-4.424269497394561768e-02
3.804601356387138367e-02
2.438028715550899506e-02
-5.343468859791755676e-02
6.773907691240310669e-02
-3.037266246974468231e-02
-8.298914879560470581e-03
6.048364564776420593e-02
-3.827742114663124084e-02
8.489417284727096558e-02
-4.437023028731346130e-02
-1.738793402910232544e-02
1.429495681077241898e-02
3.971071913838386536e-02
-2.796761505305767059e-02
-2.780095674097537994e-02
-5.082815885543823242e-02
-7.278364151716232300e-02
2.467906475067138672e-02
-2.018111199140548706e-02
8.287235395982861519e-04
-1.280074566602706909e-02
1.362777221947908401e-02
-4.780726507306098938e-02
-1.945678703486919403e-02
-2.176324091851711273e-02
-1.914870366454124451e-02
5.953168496489524841e-02
-1.524185208836570382e-04
-2.480531670153141022e-02
8.221778273582458496e-02
-1.814668439328670502e-02
-6.621903181076049805e-02
-2.118815854191780090e-02
5.179284885525703430e-02
1.475983671844005585e-02
3.658882528543472290e-02
-7.435264065861701965e-03
8.660576306283473969e-03
1.193562895059585571e-02
6.313604116439819336e-02
-3.959535062313079834e-02
7.228296995162963867e-02
3.459106665104627609e-03
-3.186208009719848633e-02
3.393263742327690125e-02
4.497469216585159302e-02
4.580904170870780945e-02
-7.785596698522567749e-02
-7.354606688022613525e-02
-1.847146637737751007e-02
4.111512377858161926e-02
1.093032117933034897e-02
-4.565539211034774780e-02
-5.501790344715118408e-02
-1.934161991812288761e-04
-1.165963057428598404e-02
-2.651228569447994232e-02
5.029340088367462158e-02
1.575119420886039734e-02
-8.067986369132995605e-02
-2.372556738555431366e-02
-8.112374693155288696e-02
6.223433092236518860e-02
-6.243672966957092285e-02
-2.736484259366989136e-02
-4.097115248441696167e-02
-2.138618566095829010e-02
6.303919106721878052e-02
8.182952553033828735e-02
7.703102380037307739e-02
2.077431790530681610e-02
-2.266339212656021118e-02
-2.039042301476001740e-02
6.090861186385154724e-02
2.114671654999256134e-02
7.965654879808425903e-02
3.947292640805244446e-02
-9.925941005349159241e-03
4.464222490787506104e-02
-5.975981429219245911e-02
-8.385924249887466431e-02
-3.377723321318626404e-02
6.876045465469360352e-02
-8.390631526708602905e-02
-6.109772622585296631e-02
-6.255446374416351318e-02
1.925701159052550793e-03
-1.592757739126682281e-02
6.766866147518157959e-02
3.009955026209354401e-02
6.317185610532760620e-02
8.766909688711166382e-02
-4.597519338130950928e-02
-8.209460973739624023e-02
5.229538679122924805e-02
-2.306459844112396240e-02
5.793878808617591858e-02
-5.921801924705505371e-02
8.258360624313354492e-02
-8.172721415758132935e-02
7.815415970981121063e-03
-3.762567881494760513e-03
-8.805323392152786255e-02
-1.440446451306343079e-02
-2.295977994799613953e-02
-6.073950789868831635e-03
-6.896499078720808029e-03
5.384820327162742615e-02
-4.381121695041656494e-02
-1.189844566397368908e-03
-9.086809586733579636e-04
3.674706816673278809e-02
5.847250297665596008e-02
-7.220222800970077515e-02
-2.543495967984199524e-02
-8.499501645565032959e-02
8.269555866718292236e-02
7.523129880428314209e-02
6.959857791662216187e-02
8.777363598346710205e-02
4.569760337471961975e-02
3.930403292179107666e-02
-7.249131333082914352e-03
-2.400021627545356750e-02
