-1.790319010615348816e-02
1.109426096081733704e-02
-2.371387928724288940e-02
2.888599410653114319e-03
-9.801917622098699212e-05
-7.314611226320266724e-03
-1.364259421825408936e-02
-1.644263043999671936e-02
2.408206462860107422e-03
2.150392532348632812e-02
1.339159160852432251e-02
-2.932552620768547058e-02
-6.558731198310852051e-03
2.649503946304321289e-02
1.664642989635467529e-02
-1.444505527615547180e-02
1.910123601555824280e-02
-7.050514221191406250e-03
2.160142874345183372e-03
5.204033106565475464e-03
1.756221055984497070e-02
2.559301629662513733e-02
-3.989610821008682251e-03
6.585650146007537842e-03
1.713846251368522644e-02
2.049679681658744812e-02
8.424263447523117065e-03
1.420285925269126892e-02
-5.379904061555862427e-03
-2.307706326246261597e-02
-4.528958350419998169e-03
-6.871923804283142090e-03
9.969819337129592896e-03
1.918853446841239929e-02
2.410462871193885803e-02
2.814830839633941650e-02
-2.905269712209701538e-02
-3.018323332071304321e-02
1.913851872086524963e-02
2.081510424613952637e-02
2.117749303579330444e-02
1.270134001970291138e-02
1.492202514782547951e-03
2.680817991495132446e-02
-2.262800931930541992e-02
-1.729128882288932800e-02
5.012087523937225342e-03
2.147714421153068542e-02
9.212188422679901123e-03
-1.860729977488517761e-02
-2.816383540630340576e-02
1.085285842418670654e-02
2.922955155372619629e-02
2.130153030157089233e-02
1.950374990701675415e-02
-2.315480634570121765e-02
-2.640829235315322876e-02
1.531822979450225830e-02
2.963658422231674194e-03
2.179738879203796387e-02
5.601227283477783203e-03
4.518621717579662800e-04
2.557793632149696350e-02
3.683961927890777588e-03
-1.497062295675277710e-02
-1.745171844959259033e-03
5.199089646339416504e-04
-2.206239476799964905e-02
-2.704586833715438843e-03
1.244283840060234070e-02
-5.565274506807327271e-03
6.707515567541122437e-03
-2.982992678880691528e-03
-6.723619997501373291e-03
5.808670073747634888e-03
-2.794359996914863586e-02
-2.637181803584098816e-02
-2.623591199517250061e-02
1.665238663554191589e-02
2.634729072451591492e-02
-2.303726971149444580e-02
2.048514579655602574e-04
6.600178778171539307e-03
2.912323921918869019e-03
-2.150874584913253784e-02
2.386461477726697922e-03
-2.840695530176162720e-02
-8.103776723146438599e-03
-5.104385316371917725e-03
-1.823700964450836182e-02
2.670023217797279358e-02
-4.452150315046310425e-03
1.624570041894912720e-02
-2.683849632740020752e-02
-1.047310233116149902e-02
2.353622391819953918e-02
-1.332610845565795898e-02
2.135409042239189148e-02
1.139910182246239856e-05
-2.832071483135223389e-02
-2.847799286246299744e-02
3.007499873638153076e-02
2.956217899918556213e-02
2.998454868793487549e-02
3.593493252992630005e-03
4.475913941860198975e-03
-2.600211277604103088e-02
-2.684336155652999878e-03
5.169890820980072021e-03
-1.408305764198303223e-02
2.274592220783233643e-02
-2.133429050445556641e-03
-1.232601329684257507e-02
3.038362483493983746e-04
2.503651008009910583e-02
2.420093398541212082e-03
-1.497460156679153442e-02
-1.554708555340766907e-02
-1.507424190640449524e-02
-1.731013134121894836e-02
9.300518780946731567e-03
2.993406355381011963e-02
-1.785268262028694153e-02
-2.262543514370918274e-02
-7.143478840589523315e-03
1.014650240540504456e-02
-8.074849843978881836e-03
3.085089847445487976e-02
-1.359337195754051208e-02
1.045991107821464539e-02
1.665021479129791260e-02
2.635122463107109070e-02
3.072783350944519043e-02
4.884853959083557129e-03
-6.610434502363204956e-03
2.421628311276435852e-02
1.472848281264305115e-02
3.030278533697128296e-02
2.114852145314216614e-02
1.327193900942802429e-02
1.700527966022491455e-02
-2.733788266777992249e-02
-1.472368091344833374e-02
-1.858563348650932312e-02
5.358364433050155640e-03
7.739797234535217285e-03
-4.427496343851089478e-03
-2.537597343325614929e-02
-1.698352769017219543e-02
6.667930632829666138e-03
-1.244470849633216858e-02
-3.057037666440010071e-02
-1.823274791240692139e-02
8.607588708400726318e-03
3.837104886770248413e-03
1.184026151895523071e-02
1.707505062222480774e-02
2.031948417425155640e-03
-1.265345886349678040e-02
2.320297062397003174e-03
2.185522392392158508e-02
1.938837021589279175e-02
-2.049061655998229980e-02
-1.102460920810699463e-02
-9.991448372602462769e-03
7.658883114345371723e-04
1.644148677587509155e-02
-1.338474452495574951e-02
1.707602292299270630e-03
-6.336428225040435791e-03
-5.415223538875579834e-03
6.331067532300949097e-03
-2.097693085670471191e-02
-9.606782346963882446e-03
4.307182389311492443e-04
-7.150601595640182495e-03
3.046987205743789673e-02
2.539538592100143433e-02
-2.702789753675460815e-02
-3.857325762510299683e-03
-2.171051019104197621e-04
-3.112342581152915955e-02
2.030157670378684998e-02
3.717325627803802490e-03
-1.701815426349639893e-02
8.055087178945541382e-03
1.177601516246795654e-02
6.688419729471206665e-03
1.352302357554435730e-02
-8.600749075412750244e-03
-2.911773324012756348e-02
7.085233926773071289e-03
1.126285269856452942e-02
2.143635228276252747e-02
-1.604381948709487915e-03
-2.963260561227798462e-02
3.847721964120864868e-03
7.107425015419721603e-03
-1.563098281621932983e-02
2.884167805314064026e-02
1.377756893634796143e-02
1.777296274667605758e-04
2.844842523336410522e-02
1.180651038885116577e-02
1.188139244914054871e-02
9.390499442815780640e-03
-1.498307287693023682e-02
1.646645739674568176e-02
9.745713323354721069e-03
1.152041601017117500e-03
2.502953261137008667e-02
-2.146605402231216431e-02
1.012955978512763977e-02
-2.615087106823921204e-02
-1.806814968585968018e-02
-1.620149612426757812e-02
2.168640494346618652e-02
-2.232960984110832214e-02
-2.438365714624524117e-03
-1.051135733723640442e-02
2.280068770051002502e-02
-9.399142116308212280e-03
8.397653698921203613e-03
2.992939576506614685e-02
-6.969150155782699585e-03
1.777253299951553345e-02
-1.314762607216835022e-02
2.700417488813400269e-02
-2.149723842740058899e-02
-1.699844375252723694e-02
1.374877616763114929e-02
5.462288856506347656e-03
-1.431533694267272949e-02
-1.572730392217636108e-02
-2.388851717114448547e-02
6.029594689607620239e-03
-9.567189961671829224e-03
-1.299922913312911987e-02
2.844072878360748291e-03
1.609994098544120789e-02
2.265298366546630859e-02
2.280241250991821289e-02
2.447412535548210144e-02
1.118569821119308472e-02
3.630615770816802979e-03
3.098321333527565002e-02
1.424675062298774719e-02
2.013583108782768250e-02
-1.463031396269798279e-02
2.536705136299133301e-02
-3.340996801853179932e-03
-1.133995130658149719e-02
1.333279162645339966e-02
-5.241207778453826904e-03
-2.491544187068939209e-02
1.785654574632644653e-03
-5.909271538257598877e-03
1.110043376684188843e-02
1.325257122516632080e-02
-2.149823680520057678e-02
1.021926105022430420e-02
8.012164384126663208e-03
-1.870680600404739380e-03
2.490488067269325256e-02
1.753511652350425720e-02
-2.052903920412063599e-02
-2.576823160052299500e-02
-1.977699110284447670e-03
1.090876758098602295e-02
1.856177672743797302e-02
7.587909698486328125e-03
6.648253649473190308e-03
-1.736580580472946167e-02
1.107054948806762695e-02
-2.853051945567131042e-02
-1.126681640744209290e-02
2.678537741303443909e-02
-2.657666802406311035e-02
2.225618809461593628e-03
1.180161139927804470e-03
-2.252513915300369263e-02
5.182869732379913330e-03
-2.209520339965820312e-02
-1.777811674401164055e-03
1.054244115948677063e-02
2.516262233257293701e-03
7.424462586641311646e-03
9.229961782693862915e-03
-2.275803685188293457e-02
1.166790723800659180e-03
1.901431009173393250e-02
-2.570257708430290222e-02
-4.289060831069946289e-03
1.625785231590270996e-02
-1.925847679376602173e-02
-1.088165491819381714e-02
2.064767852425575256e-02
-9.490534663200378418e-03
-1.828455179929733276e-02
-3.000399097800254822e-02
2.410773560404777527e-02
5.578394979238510132e-03
-2.920596301555633545e-02
4.078883677721023560e-03
-8.964378386735916138e-03
-2.337869629263877869e-02
-2.730610594153404236e-02
-4.462033510208129883e-03
2.161625027656555176e-02
-2.272636443376541138e-02
-1.261482015252113342e-02
-2.885845676064491272e-02
2.782558277249336243e-02
-2.606911584734916687e-02
-3.065196424722671509e-02
2.596944943070411682e-02
-2.299831807613372803e-02
-4.008520394563674927e-03
-1.445243880152702332e-02
4.878938198089599609e-03
1.665249466896057129e-02
-1.019082774291746318e-04
-2.417683973908424377e-02
-1.026829332113265991e-02
5.491759628057479858e-03
1.626838371157646179e-02
-1.530781388282775879e-03
-2.985130995512008667e-03
2.903872728347778320e-02
-2.644784376025199890e-02
9.427528828382492065e-03
-3.004122525453567505e-03
-1.595197990536689758e-02
-2.679686248302459717e-02
-1.264551654458045959e-02
4.176855087280273438e-03
8.334025740623474121e-03
-9.332392364740371704e-03
2.798873558640480042e-02
-1.386246830224990845e-02
1.254309713840484619e-02
-1.042225211858749390e-02
1.502941548824310303e-02
2.164484187960624695e-02
2.701589837670326233e-02
3.013347089290618896e-02
1.402701810002326965e-02
2.590892091393470764e-02
3.056923300027847290e-02
1.941855996847152710e-03
-2.884896844625473022e-02
-1.265198364853858948e-02
1.470047608017921448e-02
-7.945373654365539551e-04
3.066870570182800293e-02
-1.689292490482330322e-03
2.641894668340682983e-02
5.391240119934082031e-03
-5.375985056161880493e-03
2.177274972200393677e-02
-1.533396169543266296e-02
1.496978849172592163e-02
-4.603832960128784180e-03
1.851416751742362976e-02
4.554633051156997681e-03
1.300796493887901306e-02
2.247485518455505371e-02
2.797530964016914368e-02
3.082746453583240509e-02
-2.919647470116615295e-02
1.899716630578041077e-02
2.696345746517181396e-02
1.008403673768043518e-02
7.850956171751022339e-03
1.254576817154884338e-02
1.526440680027008057e-02
-7.530070841312408447e-03
-1.835368573665618896e-03
1.626749336719512939e-02
2.928335219621658325e-03
1.201961562037467957e-02
3.530625253915786743e-03
2.721765544265508652e-03
-1.472886302508413792e-03
1.457191631197929382e-02
2.994334697723388672e-02
-1.388933137059211731e-02
1.440639048814773560e-02
-1.281270384788513184e-02
1.939580217003822327e-02
3.783602267503738403e-03
8.561424911022186279e-03
-1.319650188088417053e-02
1.888830587267875671e-02
-5.109634250402450562e-03
6.924498826265335083e-03
1.130345836281776428e-02
2.335892617702484131e-02
-1.283749565482139587e-02
-5.787346512079238892e-03
2.404243126511573792e-02
-6.246905773878097534e-03
-3.416742430999875069e-03
6.373558193445205688e-03
7.996574044227600098e-03
2.802998572587966919e-02
1.406024768948554993e-02
1.153445243835449219e-02
1.308074966073036194e-02
6.159905344247817993e-03
2.935585752129554749e-02
-5.135767161846160889e-03
-1.509085297584533691e-03
2.078687772154808044e-02
-4.581831395626068115e-03
6.577637046575546265e-03
2.927102893590927124e-02
3.980036824941635132e-03
-2.270915359258651733e-02
-2.224844694137573242e-02
-9.595952928066253662e-03
-1.136061549186706543e-02
2.395610883831977844e-02
2.144350856542587280e-02
5.633335560560226440e-03
3.979437053203582764e-03
1.578425988554954529e-02
2.399895340204238892e-02
-1.234847679734230042e-02
-2.723176032304763794e-02
1.018971786834299564e-03
-2.041472494602203369e-02
6.388314068317413330e-03
-1.304565742611885071e-02
1.570515334606170654e-02
-5.565767642110586166e-04
2.383401617407798767e-02
-2.525138854980468750e-02
1.619102060794830322e-02
3.082827851176261902e-02
2.125410735607147217e-02
2.370888739824295044e-02
3.265958279371261597e-03
-2.706409990787506104e-02
-1.037112623453140259e-02
2.569705247879028320e-03
4.660524427890777588e-03
5.899496376514434814e-03
-2.755004540085792542e-02
1.077908277511596680e-02
-7.575009018182754517e-03
2.698204666376113892e-02
1.794797182083129883e-02
-2.081850171089172363e-02
-1.189831760711967945e-03
-2.416370809078216553e-02
-1.842473447322845459e-02
-2.436547726392745972e-02
2.685334160923957825e-02
2.223642542958259583e-02
-8.247859776020050049e-03
2.302614226937294006e-02
2.070528268814086914e-02
2.220210060477256775e-02
-2.375777810811996460e-02
-1.251474022865295410e-02
-1.326148957014083862e-02
-6.628248840570449829e-03
-2.979889139533042908e-02
-1.739429682493209839e-02
2.045494690537452698e-02
-1.480732113122940063e-03
5.017653107643127441e-03
-2.860393375158309937e-03
-1.483697444200515747e-03
2.187338098883628845e-02
1.883391290903091431e-02
-1.672475785017013550e-02
5.379781126976013184e-03
-3.010470792651176453e-02
4.656985402107238770e-03
-6.377180689014494419e-04
1.480442285537719727e-02
2.444976940751075745e-02
1.292094960808753967e-02
2.590825408697128296e-02
-2.685300260782241821e-02
-2.356650680303573608e-02
-3.980293869972229004e-03
-8.049421012401580811e-03
-1.235797628760337830e-02
9.759407490491867065e-03
-9.877920150756835938e-03
1.678961515426635742e-02
6.348215043544769287e-03
-2.546504884958267212e-02
-1.397803425788879395e-03
-1.297548413276672363e-03
2.804396674036979675e-02
3.813032060861587524e-03
2.931648865342140198e-02
2.730153501033782959e-03
-9.091563522815704346e-03
4.729501903057098389e-03
1.215641573071479797e-02
2.333487942814826965e-02
-2.694225311279296875e-02
-2.258955687284469604e-02
2.519153431057929993e-02
2.512559294700622559e-03
6.624601781368255615e-03
7.050365093164145947e-04
