-7.290752977132797241e-02
6.551236659288406372e-02
1.728553920984268188e-01
-4.643696174025535583e-02
9.831575443968176842e-04
-9.783148765563964844e-02
1.593804508447647095e-01
-7.794363796710968018e-02
2.037929929792881012e-02
1.074015945196151733e-01
-3.005369938910007477e-02
-3.640700131654739380e-03
1.945081949234008789e-01
2.137330770492553711e-01
-3.269857168197631836e-02
1.832221597433090210e-01
3.726132810115814209e-01
8.209010213613510132e-02
1.039041057229042053e-01
-6.114714220166206360e-02
-1.022414192557334900e-01
1.195297241210937500e-01
1.649972945451736450e-01
-2.683245018124580383e-02
4.726829379796981812e-02
-4.378001019358634949e-02
-8.959530852735042572e-03
-6.551216542720794678e-02
6.061861291527748108e-02
-1.185278519988059998e-01
1.001826208084821701e-02
-3.887503221631050110e-02
-3.230838477611541748e-02
-1.652200333774089813e-02
5.878681316971778870e-02
-5.337627232074737549e-02
-6.011622026562690735e-02
1.177492886781692505e-01
-4.058776423335075378e-02
9.804915636777877808e-02
2.992177940905094147e-02
9.394303709268569946e-02
3.749637678265571594e-02
1.924718171358108521e-02
4.308298602700233459e-02
2.686537802219390869e-01
3.010208532214164734e-02
3.264491632580757141e-02
2.052947580814361572e-01
9.457281976938247681e-02
3.634704649448394775e-02
7.235751301050186157e-02
-2.659981325268745422e-02
7.939913123846054077e-02
8.708338439464569092e-02
3.256699144840240479e-01
1.190997436642646790e-01
6.107847020030021667e-02
1.076126098632812500e-01
1.401454508304595947e-01
-2.582077309489250183e-02
1.493196487426757812e-01
-1.236321851611137390e-01
2.806765735149383545e-01
