7.033856213092803955e-02
-4.568253457546234131e-02
-1.132286339998245239e-01
7.417160272598266602e-02
3.151914477348327637e-02
8.412438631057739258e-02
1.235698163509368896e-02
4.454082250595092773e-02
2.207417413592338562e-02
-6.882648169994354248e-02
-9.566017985343933105e-02
-4.754957556724548340e-02
-6.773188710212707520e-02
-8.937695622444152832e-02
2.541171573102474213e-02
-3.203549981117248535e-02
-7.157696783542633057e-02
2.108903229236602783e-02
6.833057105541229248e-02
1.035310626029968262e-01
2.284796163439750671e-02
7.060517370700836182e-02
7.368578016757965088e-02
7.884913682937622070e-02
-3.302040696144104004e-02
5.575865507125854492e-02
-5.461987853050231934e-02
8.766919374465942383e-02
-9.672622382640838623e-02
-9.790049493312835693e-02
-8.487436175346374512e-02
4.272370040416717529e-02
-9.439542889595031738e-02
1.095959395170211792e-01
9.413255751132965088e-02
-1.380315423011779785e-02
8.875577151775360107e-02
3.777311742305755615e-02
-1.065015196800231934e-01
-8.163003623485565186e-02
3.243143856525421143e-02
1.057348996400833130e-01
-1.816904544830322266e-02
-3.388145565986633301e-02
-6.697256863117218018e-02
-1.653172075748443604e-02
2.700390480458736420e-02
-9.255015850067138672e-02
9.833358228206634521e-02
7.734706997871398926e-02
-7.266207039356231689e-02
1.023349910974502563e-01
8.540330827236175537e-02
-3.664793074131011963e-02
-6.306006014347076416e-02
-9.834617376327514648e-02
7.181739807128906250e-02
-6.334441900253295898e-02
4.593305289745330811e-02
6.680767238140106201e-02
3.153292834758758545e-02
-9.302096068859100342e-02
1.118582785129547119e-01
2.474266290664672852e-02
-3.672945499420166016e-02
5.789981782436370850e-02
1.172409802675247192e-01
-4.055531322956085205e-02
-8.070284128189086914e-02
5.418352782726287842e-02
-6.617671251296997070e-02
1.031025052070617676e-01
-1.076170206069946289e-01
-7.358795404434204102e-02
5.863012373447418213e-02
1.213133484125137329e-01
-4.241186380386352539e-02
2.758780308067798615e-02
3.855769336223602295e-02
-6.369198858737945557e-02
-7.347878813743591309e-02
-1.039873957633972168e-01
-5.437175929546356201e-02
-5.765791237354278564e-02
5.161969363689422607e-02
-4.053363204002380371e-02
-1.234849332831799984e-04
1.058396995067596436e-01
5.245834589004516602e-02
-6.591424345970153809e-02
-2.575330436229705811e-02
-4.961587488651275635e-02
1.956096291542053223e-02
-3.237450262531638145e-03
-7.764939963817596436e-02
8.209756016731262207e-02
-9.375517070293426514e-02
7.420407235622406006e-02
-3.652381896972656250e-02
-1.811927370727062225e-02
2.930982410907745361e-02
2.385269105434417725e-02
1.743329502642154694e-02
8.755311369895935059e-02
-2.235787361860275269e-02
8.839616179466247559e-02
1.957505568861961365e-02
-9.496490657329559326e-02
-7.494987547397613525e-02
9.227386116981506348e-02
1.236147433519363403e-01
-1.125617884099483490e-02
5.342438351362943649e-03
4.192075133323669434e-02
4.534815251827239990e-02
6.754799187183380127e-02
1.153737306594848633e-01
-6.717452406883239746e-02
-6.134757399559020996e-02
-3.327799215912818909e-02
-1.186067610979080200e-01
2.956350333988666534e-02
1.557464245706796646e-02
-4.414860904216766357e-02
5.416628718376159668e-02
4.985815286636352539e-02
-2.723720669746398926e-02
-2.438025176525115967e-02
