-5.691507265481732247e-09
-2.651209474180404868e-09
3.759708852157928050e-05
-1.152237236965447664e-04
-6.935417240505614700e-10
-4.966442938894033432e-04
2.341775398235768080e-04
-1.310164498136145994e-05
-1.347781997118602249e-09
7.798146689310669899e-04
7.168777287006378174e-03
1.860306784510612488e-02
-1.732052945513373743e-09
-3.492709947749972343e-04
-1.386655058013275266e-04
-1.777024749571864959e-09
2.435106944176368415e-05
-3.408918855711817741e-03
-1.924613135528829844e-09
-2.671328047654242255e-09
-7.328714968224403492e-09
-6.761780241504311562e-05
-5.913365384913049638e-05
-3.903569911756221700e-09
2.370366347648200644e-09
-6.557580700672360763e-09
1.788156805559992790e-03
5.045051931773514298e-09
-5.043900408452373085e-09
-2.822663880408526893e-09
-9.571733405877580481e-10
-8.205928315874189138e-05
8.842796087265014648e-03
1.442818157374858856e-02
7.579228258691728115e-04
5.968792364001274109e-03
6.806442076623397952e-10
-5.891868204344063997e-05
-4.435908584898839990e-10
4.101127706235274673e-05
-8.531628554919734597e-05
3.271186258643865585e-03
-1.371963480778504163e-05
9.590310583007521927e-06
2.411820460110902786e-04
5.232610856182873249e-04
-2.489878970663994551e-04
2.336353209102526307e-04
-1.295848196605220437e-04
9.369918145239353180e-03
7.255805734018849762e-09
7.256487879203632474e-05
2.016691178141627461e-05
1.221268641771189323e-10
-1.906259712995961308e-04
-1.038210406534290087e-09
1.170501578599214554e-03
3.716478822752833366e-03
6.484771613031625748e-03
-5.577928674505017170e-10
-3.366169565310883627e-09
7.799173909006640315e-05
-9.999354677603378150e-10
-1.117462677946434724e-09
1.460191523250387036e-09
-9.466036863159388304e-05
8.033659309148788452e-03
-1.331036170171273625e-09
6.877245032228529453e-04
4.346786998212337494e-03
-6.443167803809046745e-04
-1.675780181287223058e-09
3.553811693564057350e-04
-1.389874814776703715e-04
6.197540205903351307e-04
-6.280774123013088683e-09
1.495756395161151886e-02
-4.989757051987453451e-09
-1.739435101626440883e-04
1.706347393337637186e-05
-9.222860098816454411e-04
-3.375957735585188857e-09
2.080581706920270335e-09
-4.202924674956420859e-09
2.753173466771841049e-04
1.669030403718352318e-03
2.621452440507709980e-04
4.852507554460316896e-04
-1.746814914937999674e-09
-2.962581291399146721e-09
4.076992336194962263e-04
-1.776483622961677611e-05
-1.592125277966260910e-03
2.584799040050711483e-05
-7.537227730836093542e-09
7.118030916899442673e-03
4.273503509466536343e-05
1.112301368266344070e-02
1.099069486372172832e-03
-9.850137372424683235e-10
5.046120350016281009e-06
-5.469963593185411810e-09
2.111429721117019653e-02
-5.806263025931457378e-09
6.301302346400916576e-04
7.280154386535286903e-04
4.012544231954962015e-04
5.175924889044836164e-05
-1.161376217417853240e-09
-2.449706826279651750e-10
-4.794234337168745697e-05
2.130116263288073242e-05
-3.503815270960330963e-03
9.786169539438560605e-05
-1.879550515226924290e-09
3.296822978882119060e-05
-6.949375347176101059e-06
1.098894514143466949e-03
4.097901750355958939e-03
7.081833202391862869e-03
-3.629713683039881289e-05
1.133582700276747346e-04
-1.818771244721517633e-09
6.523729301989078522e-03
1.553904985485132784e-05
-1.051295781508088112e-03
1.132895355112850666e-03
1.798417302779853344e-03
1.153752673417329788e-02
9.726146554811521128e-10
-5.967133802187163383e-06
2.338417689315974712e-04
2.437257440760731697e-03
1.375955343974055722e-05
-6.878559943856998871e-09
-1.064578009390970692e-05
2.387676067883148789e-04
2.123997120406784234e-07
1.490703143645077944e-04
7.263410952873528004e-05
-4.475391688174568117e-05
4.288443960831500590e-05
-1.571273242007009685e-05
2.136126859113574028e-03
5.087344781551372819e-11
1.417372404830530286e-04
-2.049915055977180600e-04
8.474384958390146494e-05
7.437891326844692230e-05
1.520642722852016959e-09
-2.993569614417879166e-09
-1.598151166959382863e-09
7.319686847040429711e-05
1.374137937091290951e-03
-3.889207178531250975e-09
-6.053152423746155364e-10
2.384230319876223803e-04
6.658408674411475658e-04
9.739444976730737835e-06
-3.348547217285613442e-09
1.242926227860152721e-03
-7.065082900226116180e-05
1.134949707193300128e-05
-1.986798059405714412e-09
2.224786672741174698e-03
8.457927033305168152e-03
1.936595435836352408e-05
-8.780363714322447777e-05
4.851635204694559889e-10
-3.579872842607301209e-09
-7.308870175748438669e-10
3.271276946179568768e-04
1.934299943968653679e-03
-1.561141834827139974e-04
-3.203514279448427260e-05
2.041253633797168732e-02
-7.321765679080272093e-06
3.330216743052005768e-03
1.785497926175594330e-02
7.949444465339183807e-03
-4.996218194719403982e-05
1.601297780871391296e-02
1.429325784556567669e-04
4.027812392450869083e-04
-3.842900220263345545e-09
-4.578505759127438068e-04
-4.962086095474660397e-04
1.706849317997694016e-03
-1.748698850860819221e-04
6.521768402308225632e-03
1.236806768112330701e-09
2.197369933128356934e-02
-1.273016096092760563e-04
1.032735919579863548e-03
-1.440983614884316921e-04
-5.440983219529016424e-09
1.050642924383282661e-03
8.488264575134962797e-05
-1.154619067023077150e-09
-7.627790843400816811e-09
3.592478344216942787e-03
6.651453673839569092e-03
-1.838207244873046875e-04
-2.512909486540593207e-05
1.258672960102558136e-02
-3.672649073749312265e-09
3.298479350632987916e-05
-3.686069005581771307e-09
-4.323499336322811359e-09
7.044381189480475314e-10
7.797273574396967888e-04
-1.162623902928316966e-05
-2.053437856375239789e-05
-7.706756005063652992e-04
-8.981557584775146097e-06
-2.671384891073103063e-09
-6.301235644379232781e-10
2.610771043691784143e-04
6.160456541692838073e-05
2.934981966973282397e-05
2.053557150065898895e-02
1.540237106382846832e-03
-1.777675007197387913e-09
-4.058606339896186910e-09
-1.348822942226490795e-09
5.831374437548220158e-04
1.398212742060422897e-03
1.533698290586471558e-02
1.985202397918328643e-04
-5.304007899553653260e-09
-6.986884545767679811e-05
1.007857453078031540e-02
-6.424337062327367676e-09
-4.343879118096083403e-04
2.577846862550359219e-05
1.176873709596293338e-09
-4.590053226394275043e-09
-9.850828209891915321e-04
6.770755862817168236e-04
3.876511240378022194e-03
-6.740317637365933479e-09
-6.466401973739266396e-04
5.715322104471454168e-10
-3.652700808487452377e-09
-6.225163815543055534e-06
-5.011644432784123637e-10
7.046625833027064800e-04
4.496987457969225943e-05
2.707587009354028851e-05
-1.062810395247026918e-09
4.663670260924845934e-04
-6.150900298962369561e-05
3.559063654392957687e-03
-5.067021702416241169e-04
-6.324292201043135719e-09
9.437430417165160179e-04
3.583728685043752193e-04
-4.160195530857890844e-04
2.193507365882396698e-02
-2.428749201754953901e-09
4.921895779830265383e-09
6.617255974560976028e-03
-2.104200702568448378e-10
-3.395275853108614683e-04
-9.888972272165119648e-05
3.692023575752045872e-09
1.933231796868994934e-09
9.565491229295730591e-03
-1.913758707061674613e-09
-2.751526118061065063e-09
-9.123220401363596466e-09
1.528008830575799948e-09
-3.276138027530350882e-09
-1.313446118729189038e-04
1.436341740190982819e-02
-3.241699960199184716e-05
9.227081318385899067e-04
-3.645178512670099735e-04
-4.966641764525547842e-09
1.542438380420207977e-02
-5.502566928043961525e-04
3.287287654529791325e-06
-1.977585650791979788e-09
2.178935683332383633e-04
-2.518067834898829460e-03
4.335701523814350367e-04
2.084532054141163826e-03
2.744012326002120972e-02
-4.336286565376212820e-06
5.743519286625087261e-04
4.934468961437232792e-05
1.880626223282888532e-04
-5.654065549087761156e-10
-2.098282038787147030e-06
2.003000554395839572e-04
-4.511998330514188638e-09
3.445724261474936156e-10
2.143592636727476020e-09
5.489315837621688843e-03
5.721921334043145180e-04
-8.282456498420742719e-09
4.048806179213215728e-09
-7.299791905097663403e-04
-5.413865437731146812e-05
1.023135147988796234e-02
1.299183932133018970e-04
-3.592202119762077928e-05
4.727724473923444748e-03
-4.977605438938326188e-09
3.539307799655944109e-04
1.535461982712149620e-03
9.688315705247418919e-10
5.253842100501060486e-03
-3.407399085109119596e-10
-5.825258608815886419e-10
7.465470116585493088e-04
1.923045492731034756e-04
-1.677779470909968040e-09
-4.823636118089780211e-05
-1.698807899908061358e-10
-7.908602856332436204e-05
-1.655851374380290508e-03
-3.108950208385863334e-09
2.420852892100811005e-03
-3.404502931516617537e-04
5.486808251589536667e-03
2.029836323345080018e-04
-7.456579242948180308e-10
5.784704262623563409e-05
-7.920251121618093748e-10
1.650045487622264773e-05
-5.769936615251936018e-05
4.645932494895532727e-05
2.871434262488037348e-04
-1.224652823594851725e-09
-4.810077080037444830e-04
3.166028531268239021e-03
-4.252041385655047634e-09
4.528800673142541200e-06
1.167642604559659958e-02
-3.051441321844095000e-09
1.281664441243890451e-09
1.958101987838745117e-02
1.558701478643342853e-04
-1.171802869066596031e-04
-5.213139253612553148e-09
-5.330147687345743179e-04
-2.955985900499058516e-09
9.953806147677823901e-05
3.747730050235986710e-03
1.092813399736769497e-04
2.142786642567173772e-10
-4.010139946331037208e-06
2.165518380934372544e-04
2.851326018571853638e-03
-1.544774086426059512e-09
-3.094613202847540379e-05
-2.299999773969219063e-10
7.254666415974497795e-04
2.273879479616880417e-03
2.063567517325282097e-03
9.414155501872301102e-04
-5.371337152837440954e-09
5.191492848098278046e-03
7.212158648073341283e-10
2.843332003976684064e-05
-1.656718540132828821e-09
-7.611465902002123585e-10
-1.754164404701441526e-04
3.686819691210985184e-03
-2.329563867533579469e-04
4.320799838751554489e-03
-7.444124427991027915e-09
1.115127724915510044e-05
-1.440800406271591783e-04
5.027969018556177616e-04
-8.963071741163730621e-05
5.683803649958463211e-09
2.681343466974794865e-04
1.572258479427546263e-04
3.509976531645975228e-09
-3.042497143113109814e-09
5.527353096113074571e-06
1.604982591274506376e-09
-3.171048592776060104e-03
-1.411361736245453358e-03
5.255543510429561138e-04
6.344320136122405529e-04
9.385781595483422279e-05
7.286970503628253937e-05
7.179406471550464630e-03
-1.905364624690264463e-04
1.127892266958951950e-02
3.315281064715236425e-04
-4.997958894819021225e-04
-3.478447615634649992e-04
2.082802529912441969e-04
9.495904063072657664e-10
1.664033334236592054e-06
-4.718785362456401344e-09
1.487795822322368622e-02
-1.200593180428199958e-09
-1.248618355020880699e-04
-4.949029535055160522e-04
-1.285609469050541520e-04
-2.022316758498732270e-09
1.282754965359345078e-04
-5.635424895444884896e-05
-3.403704207372015844e-09
5.339170456863939762e-04
1.189751274068839848e-04
7.031511515378952026e-03
2.375754760578274727e-03
8.378581696888431907e-05
1.673298073001205921e-03
5.512085408554412425e-05
1.278906869295326487e-09
3.268963337177410722e-05
1.819299068301916122e-03
-8.428649778124963632e-09
-3.174678713548928499e-04
-1.837261565107439765e-09
1.426103790613808542e-09
5.767995025962591171e-04
-2.158546354621648788e-03
-1.178671373054385185e-04
1.117201615124940872e-02
-2.683465449848654316e-09
-1.514844188932329416e-04
-3.075665944152206066e-09
2.261389681734726764e-06
4.601367618306539953e-05
-1.776620410964824259e-05
1.344866235740482807e-03
-6.104436511833455370e-09
-3.446670504558824177e-09
-3.338641181471757591e-05
2.442901895847171545e-04
-1.580866402946412563e-03
3.865575359807138511e-10
-1.585874875864590194e-09
1.679835404502227902e-04
1.480063423514366150e-03
4.155537462793290615e-04
-4.960430669598281384e-05
-3.319265379104763269e-04
9.591943671694025397e-05
-5.305566652680226980e-09
-9.491702535058266221e-09
2.370956912636756897e-02
-2.177449350710958242e-04
1.651151105761528015e-03
6.160431803436949849e-05
-3.007855964298755680e-09
-2.133169862972295050e-09
2.913752687163650990e-04
2.902458654716610909e-04
9.651405230570730964e-10
3.371334460098296404e-04
3.395533349248580635e-05
-3.822787419949236210e-09
1.038513612002134323e-03
9.057722490979358554e-05
1.404806971549987793e-04
1.003167126327753067e-04
-3.618375155056696713e-09
-3.689671575557440519e-05
-4.561489186016842723e-05
-2.145383204421591472e-09
-3.939017187803983688e-05
-9.905159095069393516e-05
-1.854111197907570840e-09
-7.328798528760671616e-04
-2.527918541161966459e-09
-4.064905634315607585e-10
1.796362455934286118e-03
-3.427114814158471745e-09
4.766888159792870283e-04
-4.785614146385341883e-04
-3.150041116839474853e-09
-3.587177443975519964e-09
-9.830001701516266621e-09
-4.658705421434206073e-09
6.651469448115676641e-06
-2.016383514273911715e-04
-9.142658186078733706e-09
-4.965985863236710429e-05
7.723729504505172372e-05
-2.244650022475980222e-05
3.946111974073573947e-06
3.478572936728596687e-03
-6.648413836956024170e-04
9.769394062459468842e-03
-5.419782844739984284e-09
-3.257833611769456184e-07
-2.694769740685387660e-09
-2.177213173126801848e-05
2.324963134014979005e-05
2.147281775251030922e-04
6.090443115681409836e-03
2.107118780259042978e-04
2.038051752606406808e-04
5.325400736182928085e-03
-4.309168133431739989e-09
3.368638455867767334e-03
1.898279180750250816e-03
3.793433308601379395e-03
-4.033500644595733320e-09
-2.828701273216438494e-09
-1.095235114917159081e-03
5.254822099232114851e-06
-3.628313871573141114e-09
-1.798648452400186670e-10
-7.562372394964711475e-10
-2.695287912501953542e-05
-3.371415659785270691e-04
-3.715032281803587466e-09
-5.755838472509822168e-09
5.813009338453412056e-04
-2.725301965256221592e-05
2.091468195430934429e-04
-1.928177080117166042e-04
-4.912466433637519003e-09
-2.676969979020782375e-09
1.775049837306141853e-03
6.691523827612400055e-03
-9.299152588937431574e-05
8.822136442176997662e-05
5.964709635009057820e-05
1.808683536275168535e-09
-2.139516982424538583e-05
-1.643614232307299972e-04
-7.997351531230378896e-06
-2.196758552841515666e-09
1.698875421425327659e-04
1.061228467733599246e-04
-5.883643170818686485e-04
3.902361961081624031e-03
2.044934034347534180e-02
2.688390668481588364e-04
1.415046583861112595e-02
2.894151583313941956e-02
-4.835985389917141219e-09
5.778914783149957657e-03
1.295988331548869610e-04
-3.983223084702558481e-09
2.508720150217413902e-03
-4.654923113633913090e-09
9.609524160623550415e-03
-1.010517114430342644e-09
8.216214155254419893e-06
1.431616023182868958e-03
-7.509037968702614307e-04
-2.192185100113874796e-09
-1.545161940157413483e-04
-4.097809203074120887e-09
-5.068425679155552643e-09
-2.005549467867240310e-04
5.762248765677213669e-03
-5.349690327420830727e-04
6.581726484000682831e-03
1.013510845950804651e-04
-1.640311529627069831e-05
7.319560390897095203e-04
-6.263974682951811701e-06
1.892219734145328403e-05
1.562301185913383961e-04
-2.319629821556645766e-09
-1.109663426177576184e-04
-2.364182611927390099e-03
-4.175772616576978180e-09
2.759510243777185678e-04
1.030283048748970032e-02
-1.439713756553828716e-03
1.419572741724550724e-03
9.793692523629715652e-10
1.328950747847557068e-03
6.011146524542709813e-06
-1.423879569806274503e-09
-4.074597381986677647e-05
-1.156310824868000964e-09
3.142507746815681458e-03
-1.521867409870480969e-09
-4.116967211587052589e-09
3.438989864662289619e-03
3.394615850993432105e-05
1.057505607604980469e-03
1.706495997495949268e-03
4.791549872606992722e-05
-1.225005602464079857e-03
5.944200675003230572e-04
-3.434510453814709763e-09
1.003811229020357132e-02
1.014609914273023605e-02
7.741231238469481468e-04
4.296384751796722412e-03
-3.018404193255719292e-09
-7.300415309146046638e-04
2.041523810476064682e-03
-1.005119975161505863e-05
-1.767427093568585406e-09
-9.395654387844842859e-07
2.463385681039653718e-05
-7.228306397877304335e-09
7.034428040064710785e-10
-4.627408925443887711e-04
4.486647958401590586e-05
3.737291626748628914e-05
2.743326476775109768e-04
1.198176250909455121e-04
-1.440506912331329659e-05
-1.243571896338835359e-04
-9.569488534921788414e-10
-3.567977983038872480e-04
1.702867739368230104e-04
-1.137111539719626307e-04
4.509492311626672745e-03
1.889233099063858390e-04
2.474870707374066114e-04
-1.260766584891825914e-04
-6.342004780890420079e-05
3.740265310625545681e-05
1.927337795495986938e-02
6.940015126019716263e-03
-4.380161566786000549e-09
5.568493361352011561e-05
-7.014504808466881514e-05
-5.251887369439600661e-09
-2.102162761730141938e-05
1.572041423059999943e-03
-5.968757488261644539e-09
2.585395704954862595e-03
1.644409053369599860e-06
1.509864523541182280e-04
-5.882112574795428372e-10
3.025736550199553676e-09
2.147495615645311773e-05
1.078917339327745140e-04
9.070352651178836823e-03
7.494667109142483241e-09
-1.026572782336643286e-08
9.498434519628062844e-05
1.965355040738359094e-04
2.131209766957908869e-04
-2.000782260438427329e-04
-4.806764263776130974e-05
3.334222710691392422e-04
8.809188380837440491e-03
-5.336891990737058222e-05
-2.365686535554800685e-09
7.079641800373792648e-03
1.608776801731437445e-04
-1.154721365310251713e-03
-3.968713357949127385e-09
-3.137057280611088572e-09
-2.322871617277399992e-10
-6.973647396080195904e-05
1.910411519929766655e-03
7.409987971186637878e-03
-2.744300120482989769e-09
7.753543904982507229e-04
4.844562616199254990e-03
8.499258197844028473e-03
9.755269275046885014e-06
3.906629513949155807e-03
-1.210148093377938494e-05
6.928728453203802928e-07
8.872319012880325317e-03
3.068364167120307684e-04
-2.845877315849065781e-05
-1.755001255432375729e-09
-2.000760002118795455e-09
-3.963085822761058807e-03
8.562931790947914124e-03
5.011019296944141388e-03
-2.084990624595661757e-09
2.868236741051077843e-03
1.674076655078238218e-09
1.087311934679746628e-02
1.772872959548976723e-09
-1.059923970814224958e-08
1.239380915649235249e-03
-5.187464346967374240e-10
-1.509317809622601203e-10
5.101974820718169212e-04
-3.277695004300085202e-09
8.775178866926580667e-05
6.634502205997705460e-03
-7.147730851642108973e-09
2.657373876502333587e-09
2.819104818627238274e-03
1.377872563898563385e-02
7.974964319146238267e-06
8.673951379023492336e-04
1.329348050057888031e-02
3.623494922067038715e-05
-3.783922511502169073e-05
1.698659546356395822e-09
1.244726707227528095e-03
-2.765795370507362350e-09
8.791981235845014453e-05
4.965149855706840754e-05
8.443382104594832072e-10
-9.360392461132960307e-10
-6.459808243874931577e-09
-3.573019639588892460e-04
-2.708022475417237729e-05
3.617518348619341850e-03
-1.288579243308163313e-10
-1.016359601635485888e-04
-3.729284508153796196e-03
-3.156303662876780436e-09
-1.575944374998528019e-09
4.770314786583185196e-03
1.167275384068489075e-02
-4.238830619840427971e-09
2.669658570084720850e-04
6.064046756364405155e-04
-1.590493775438517332e-04
-1.217527301200505008e-09
-4.334909681347198784e-05
-8.500803394539957480e-10
-1.859032927313819528e-04
-2.053806747426278889e-05
-1.481110957683995366e-04
6.370282499119639397e-04
1.347992656519636512e-04
4.293892532587051392e-03
-1.122523962671095887e-09
2.115977113135159016e-04
6.571391713805496693e-04
4.614229965227423236e-06
-5.783314271923245542e-09
3.339605259000677506e-09
-1.504645682871341705e-03
-3.358388494234532118e-05
-2.359178852273657867e-09
-7.049961725513753663e-10
1.771036884747445583e-03
4.081837832927703857e-04
-5.119975554634947912e-09
1.275587640702724457e-02
-1.327049831161275506e-04
-1.174846608886781496e-10
3.788249159697443247e-05
1.711399818304926157e-04
-3.207055288001470217e-09
-2.477552880009170622e-05
-8.390349103137850761e-04
1.772548857843503356e-04
1.021826290525496006e-03
2.413852780591696501e-04
4.805786302313208580e-04
1.447874680161476135e-02
1.260730205103754997e-03
2.367363485973328352e-04
-3.356830369227736810e-09
1.498335506767034531e-02
2.036998048424720764e-02
-9.520657840766943991e-06
-2.292655232327689419e-10
8.159326389431953430e-03
-3.606669851663468762e-09
6.067778915166854858e-03
1.930793951032683253e-04
-1.054526510557707297e-08
-7.530692736068544946e-10
-5.541782588380783636e-09
-1.655430241953581572e-04
7.402931340038776398e-03
-1.628202444408088923e-04
4.592122510075569153e-03
6.933305412530899048e-03
5.056464578956365585e-03
-2.806493546813726425e-03
1.166838221251964569e-02
-1.320070896326797083e-05
2.459405914123635739e-05
1.299807243049144745e-02
-1.197112187156790242e-09
3.368378747836686671e-05
5.890229367651045322e-04
2.646839129738509655e-04
2.022927446887479164e-06
-9.144030627794563770e-06
-2.406380872344016097e-09
-3.762745670599088044e-09
-2.859503078767033912e-09
-9.242961095878854394e-05
-1.848077357813338040e-09
-6.400890928404123770e-10
-5.686938697735399728e-10
1.754168071784079075e-03
-7.033247015897359233e-07
1.229633949697017670e-02
-3.953366523035128921e-09
2.586164278909564018e-03
2.031659507295557887e-09
-1.333934185332452671e-09
1.971263997256755829e-02
-5.883268750039860606e-05
2.511698767193593085e-06
-4.454486113303346428e-09
-1.860467224723549862e-09
-1.348069690720876679e-05
4.467798280529677868e-04
1.316942555007472038e-09
-7.225924303355668599e-10
-2.590605063801376673e-09
-4.325327463448047638e-04
3.701918059960007668e-03
1.317907893927383611e-09
-3.515182697810814716e-06
-1.907664692879507129e-09
1.891687395982444286e-03
-1.761591556714847684e-05
-1.820174788669248755e-09
-6.712542743869676087e-10
4.195676250873248136e-09
-1.567641239041961398e-09
2.946979657281190157e-05
2.162103191949427128e-05
5.345789715647697449e-03
-9.168223186861723661e-05
1.191953313828264527e-09
6.891291122883558273e-03
-1.166327507235109806e-03
-6.325636459081351859e-09
-1.518508943263441324e-04
5.274369381368160248e-03
-2.949685162789705828e-09
7.970822975039482117e-03
-7.797527941875159740e-04
1.891495630843564868e-04
2.603956818347796798e-05
-6.498718008174364513e-09
-2.375275809374244318e-10
4.029910196550190449e-04
-8.395375367120649912e-11
-2.347488425868959894e-09
-7.935967993866199777e-10
-1.141730820997111095e-09
-1.573943067342042923e-03
-3.003207893925718963e-06
1.334364246577024460e-02
-8.045668131728689332e-09
-3.384288283996284008e-04
1.414316473528742790e-03
-1.530374715841276156e-09
9.246584522770717740e-05
-7.156891570048173890e-06
2.201267052441835403e-03
-3.746478238753070400e-09
-5.914770736126229167e-05
-3.520905738696455956e-04
-4.614419069071118429e-09
1.126941810980497394e-06
7.205168250948190689e-03
1.420694784037834779e-09
-4.518629470595669773e-09
4.546985495835542679e-03
-2.442564817073389349e-09
1.052309307851828635e-04
-2.814981359122725735e-09
-5.217161378823220730e-04
-3.401185313123278320e-05
5.266377411317080259e-05
-4.440372070035891738e-09
1.061734836548566818e-02
-1.821163109205770070e-09
-1.329514609516024848e-09
-3.763330536088460576e-09
-2.510074758902192116e-03
-3.775479928691538589e-09
-2.073914373568186420e-09
-1.870578358875718550e-09
-4.026822875147217928e-09
4.032353899674490094e-05
5.341119685908779502e-05
2.854347647129884535e-09
-7.377703337141383599e-09
-5.623856850434094667e-06
-5.347813930711708963e-05
-1.943186500596993938e-09
-7.041143668118365895e-09
1.090444996953010559e-02
-2.344636262918697867e-09
1.552880043163895607e-03
3.453192448432673700e-06
-2.299891348229721189e-04
-1.531841553514823318e-05
4.969167057424783707e-03
-4.320575897054368397e-09
1.178107850137166679e-04
-1.222079026774736121e-05
2.464135643094778061e-03
2.482747959220432676e-06
-5.128053089720197022e-06
-2.784925845489283347e-09
9.393050568178296089e-04
-6.389094142633666706e-09
5.967986769974231720e-03
-2.096201434653721662e-09
-2.050593029707670212e-03
1.316258218139410019e-02
-9.796144877327606082e-05
6.474153990687625537e-10
-1.128747462644241750e-04
1.428425748599693179e-04
-3.180284258164078892e-09
9.858823614194989204e-04
7.783570617903023958e-05
1.341260649496689439e-04
1.794302262325686570e-09
2.696769661270081997e-04
6.824415699213659536e-09
-1.494443235827702665e-09
2.016333766619027301e-09
-8.802132651908323169e-05
1.513375258443971916e-10
2.257986307085957378e-05
-2.272513954792998447e-09
2.207122815889306366e-05
2.169980871258303523e-04
2.519964255043305457e-06
-2.327517722733318806e-05
1.753142452798783779e-03
2.636879159467753198e-09
7.032384164631366730e-04
3.190005736541934311e-05
2.324092201888561249e-03
1.372340921079739928e-04
9.232911907020024955e-06
3.526374930515885353e-03
-2.045178693066418418e-09
1.543870475906317097e-09
-1.717128725431393832e-05
-4.555074983869644711e-09
1.573318586522987061e-09
-5.473656710819341242e-05
-2.097578835673630238e-04
-1.827379455789923668e-04
-3.802730861934833229e-05
-3.235185518860816956e-03
1.049785758368670940e-03
-6.458048318336295779e-09
3.400687509369504369e-09
-2.741413318574359437e-09
-3.675801663050037860e-09
-5.280011100694537163e-04
-2.172616309081831787e-09
2.316821599379181862e-03
1.335863726126262918e-05
-1.277525825571501628e-05
1.382282818667590618e-03
9.753512218594551086e-03
-7.447009920724667609e-06
-1.731140422634780407e-03
3.207022647444546237e-09
1.181718078441917896e-03
-1.094429608201608062e-04
-8.668976647641102318e-11
-1.181169645860791206e-03
1.329658669419586658e-03
5.857727228431031108e-05
-3.098895149378222413e-06
-1.670801830222501394e-09
-1.082031085388734937e-04
2.204045834730550268e-09
6.002465306664817035e-05
2.057064411928877234e-04
2.017730439547449350e-04
4.583067493513226509e-04
6.192207302468943908e-10
3.312826156616210938e-04
1.356379507342353463e-04
6.361040868796408176e-04
-2.961786149668910184e-09
3.048716578632593155e-03
-1.348083023913204670e-04
3.553482747520320117e-05
7.792279939167201519e-05
-7.754382136404558423e-10
-2.102157741319388151e-04
2.671679831109941006e-04
-2.545774332247674465e-04
6.609216332435607910e-03
5.056879017502069473e-03
5.101986971567384899e-05
6.364288739860057831e-03
-6.134541319369191115e-09
5.604735786590708813e-09
-3.562014683211600641e-09
4.260587447788566351e-04
-2.020290379434186434e-09
2.430015709251165390e-03
-4.116220807190984488e-04
9.069414108608953029e-10
6.717312817094978072e-10
-2.553349622758105397e-05
-5.130966318489527112e-09
-1.955215767068807509e-09
1.245397329330444336e-02
-1.826602849178016186e-03
-3.691252192794536313e-09
-7.037631585262715816e-04
1.692272163927555084e-02
-1.044351847667712718e-05
2.327605616301298141e-03
-6.892410601722076535e-05
1.339864800684154034e-03
-4.415489751607992730e-09
-2.623097739018476204e-09
-9.476767154410481453e-04
-2.091438799922684666e-09
-9.161966154351830482e-04
8.018578228075057268e-06
-1.682875335973221809e-05
-8.147694963156482117e-09
1.242494327016174793e-03
-8.027752301131840795e-06
5.827527493238449097e-04
2.107902802526950836e-02
8.670527677168138325e-06
