-1.371688791550695896e-03
6.447380036115646362e-02
-4.011492244899272919e-03
-1.156259607523679733e-02
1.737233251333236694e-02
1.132473349571228027e-02
-8.715388365089893341e-03
4.146200045943260193e-02
-3.419738635420799255e-02
9.415037930011749268e-03
2.981076389551162720e-02
-1.735923811793327332e-02
-5.598619463853538036e-04
5.617422237992286682e-02
-1.588409207761287689e-02
1.423003058880567551e-02
6.663579493761062622e-02
-3.468071809038519859e-03
4.052377771586179733e-03
8.301041088998317719e-04
2.507942728698253632e-03
-1.509039010852575302e-02
-8.866485927683243062e-07
5.337978713214397430e-03
3.906804195139557123e-04
1.649076351895928383e-03
2.058121608570218086e-03
-1.139052119106054306e-02
1.965477317571640015e-02
-2.959891594946384430e-02
-1.933334954082965851e-02
9.210249409079551697e-03
2.638322860002517700e-02
-1.412050053477287292e-02
-2.173113077878952026e-02
-1.379236858338117599e-02
1.053096167743206024e-02
2.165835117921233177e-03
-3.865503147244453430e-02
-1.258696336299180984e-02
-2.907665818929672241e-02
-2.476801909506320953e-02
-5.238223820924758911e-02
-2.125100046396255493e-02
-2.844409830868244171e-02
-9.887038730084896088e-03
1.011978369206190109e-02
-1.955545321106910706e-02
-2.009315416216850281e-03
-8.527438039891421795e-04
1.408120337873697281e-02
-2.568859793245792389e-02
-7.813748903572559357e-03
-5.195146426558494568e-03
3.979064151644706726e-02
-1.179690286517143250e-02
-2.664615400135517120e-02
-2.929985523223876953e-02
2.704968489706516266e-02
6.870537996292114258e-03
2.746224775910377502e-02
-1.695501059293746948e-02
-9.363214485347270966e-03
-2.454769983887672424e-02
-8.181762881577014923e-03
-6.574370898306369781e-03
-5.944828968495130539e-03
-2.088058367371559143e-02
-2.971352450549602509e-02
-5.281584526528604329e-05
-5.172657780349254608e-03
-7.800133898854255676e-03
-1.785114756785333157e-03
-2.022036537528038025e-02
4.233700782060623169e-02
-4.635553061962127686e-02
4.143799468874931335e-02
-4.513492342084646225e-03
-2.283853292465209961e-02
-7.170060183852910995e-03
-2.108239196240901947e-02
-1.191332750022411346e-02
1.999262720346450806e-03
-7.915008813142776489e-03
1.420419290661811829e-02
-3.534595668315887451e-02
8.501157164573669434e-03
1.370859332382678986e-02
-5.122607946395874023e-02
3.359358012676239014e-02
-2.514628693461418152e-02
6.231427192687988281e-03
-1.934519782662391663e-02
-1.391957793384790421e-02
-1.137331966310739517e-02
-2.588196657598018646e-02
4.357826709747314453e-02
4.047613125294446945e-03
-9.149270132184028625e-03
-4.593817144632339478e-02
-2.602575346827507019e-02
1.024625170975923538e-02
1.001457311213016510e-02
1.148650888353586197e-02
1.548088435083627701e-02
-4.158563166856765747e-02
-1.928065344691276550e-02
1.591765508055686951e-02
5.284458398818969727e-02
-2.562152687460184097e-03
-3.280860185623168945e-02
1.338413916528224945e-02
9.174125269055366516e-03
-1.940758898854255676e-02
-2.667034976184368134e-02
3.191909939050674438e-02
-1.827451214194297791e-02
5.992244929075241089e-03
-6.835926324129104614e-04
5.210104957222938538e-02
-3.109221160411834717e-02
-2.755214693024754524e-03
-1.380038168281316757e-02
-8.673308417201042175e-03
2.299652993679046631e-02
6.594659294933080673e-03
-8.745036087930202484e-03
1.523910649120807648e-02
-9.483980829827487469e-04
-4.696065559983253479e-03
1.442325953394174576e-02
1.520730368793010712e-02
-3.866546601057052612e-02
-2.806547284126281738e-02
-5.341697484254837036e-03
-5.443182890303432941e-04
-3.209344670176506042e-02
6.478730123490095139e-03
-1.917238160967826843e-02
5.997833213768899441e-04
-3.845437616109848022e-02
-1.202222984284162521e-02
2.826567552983760834e-02
-7.262974046170711517e-03
-1.351497415453195572e-02
-3.204555436968803406e-02
-1.970012299716472626e-02
-3.152457624673843384e-02
1.817536167800426483e-02
1.908572018146514893e-02
3.339805407449603081e-04
5.210931412875652313e-03
-8.982097730040550232e-03
-4.263078421354293823e-02
-3.788855299353599548e-02
-4.491845145821571350e-03
-1.137161720544099808e-02
1.150522008538246155e-02
5.360727664083242416e-03
9.842875879257917404e-04
-5.008170381188392639e-03
-1.011056173592805862e-02
2.025234885513782501e-02
3.855324909090995789e-02
-1.033627428114414215e-02
-2.495333924889564514e-02
-8.502313867211341858e-03
1.533124968409538269e-02
2.992382273077964783e-03
3.525506705045700073e-02
1.851949654519557953e-02
-2.499826624989509583e-02
1.019300799816846848e-02
-1.946240779943764210e-03
-3.140589967370033264e-02
1.034316327422857285e-02
-1.354038994759321213e-02
1.678656600415706635e-02
-2.665416337549686432e-03
4.853586107492446899e-02
-2.138072624802589417e-02
9.266165434382855892e-04
-1.349118538200855255e-02
8.158467710018157959e-02
1.287991064600646496e-03
1.635294756852090359e-04
-2.654808945953845978e-02
-2.071950584650039673e-02
2.638644166290760040e-02
1.765637844800949097e-02
-2.882333844900131226e-02
-2.837962005287408829e-03
-2.813893929123878479e-02
2.784088626503944397e-02
-1.149399206042289734e-02
-3.018371388316154480e-02
9.917597286403179169e-03
-2.124552428722381592e-02
1.261819619685411453e-03
2.895603887736797333e-02
9.661908843554556370e-04
6.193280220031738281e-03
-5.689687095582485199e-03
1.738501363433897495e-03
-2.027120627462863922e-02
-7.345167919993400574e-03
-9.772836230695247650e-03
3.466891124844551086e-02
-2.146241813898086548e-02
-1.516845356673002243e-02
-2.875861153006553650e-02
-9.317805059254169464e-03
4.427692387253046036e-03
2.575694583356380463e-02
-1.989941671490669250e-02
-1.676076836884021759e-02
-3.041685745120048523e-02
2.443528966978192329e-03
6.307259202003479004e-03
-4.088633507490158081e-02
-1.287024840712547302e-02
-3.534752503037452698e-02
-1.302256528288125992e-02
4.682609345763921738e-03
-1.519976928830146790e-02
1.977366209030151367e-02
-1.986495777964591980e-02
1.529554557055234909e-02
3.696466737892478704e-04
-3.023709356784820557e-02
2.777171554043889046e-03
-1.632321439683437347e-02
-3.844773769378662109e-02
-1.602527871727943420e-02
-1.515445392578840256e-02
-1.645344309508800507e-02
-1.858022809028625488e-02
8.843242190778255463e-03
1.676345989108085632e-02
-3.163943067193031311e-02
6.768987048417329788e-03
4.450454376637935638e-03
8.833201602101325989e-03
6.119650788605213165e-03
-3.605243051424622536e-03
-1.745839416980743408e-02
-1.526794489473104477e-02
2.480417303740978241e-02
-2.537165582180023193e-02
2.989340107887983322e-03
-2.496941306162625551e-04
2.510358765721321106e-02
-1.575458678416907787e-03
-1.520503894425928593e-03
-8.804277749732136726e-04
-8.047374896705150604e-03
2.387402579188346863e-02
2.738177217543125153e-02
-1.112852711230516434e-02
1.949348486959934235e-02
2.893934771418571472e-02
3.862428013235330582e-03
-3.359869122505187988e-02
-1.726794801652431488e-02
-1.983867771923542023e-02
-9.570128284394741058e-03
-7.337355520576238632e-03
-4.282346460968255997e-03
3.110266290605068207e-02
5.530998576432466507e-03
1.920627430081367493e-02
1.502874772995710373e-02
6.676342338323593140e-03
-1.088946312665939331e-02
-3.821577876806259155e-03
9.459919296205043793e-03
2.866218984127044678e-02
1.686468347907066345e-02
6.004776339977979660e-03
-1.022882200777530670e-02
-2.076222002506256104e-02
1.723250490613281727e-03
9.232380427420139313e-03
1.296085305511951447e-02
1.053425390273332596e-02
2.258036285638809204e-02
-7.784551475197076797e-03
1.002021040767431259e-02
-2.570294961333274841e-02
-5.545976571738719940e-03
-2.488521113991737366e-02
-2.024794369935989380e-02
-4.819178488105535507e-03
-1.951294485479593277e-03
2.417593821883201599e-02
1.358107849955558777e-02
5.670797452330589294e-02
3.648746758699417114e-02
-2.342648431658744812e-02
2.773457020521163940e-02
-2.972041023895144463e-03
-1.088431943207979202e-02
3.836127696558833122e-03
-2.613087370991706848e-02
8.892845362424850464e-04
-2.680492773652076721e-02
1.759471558034420013e-02
-1.478843390941619873e-02
-8.625718764960765839e-03
-5.044857971370220184e-03
1.112395431846380234e-02
1.613803766667842865e-02
-2.230905555188655853e-02
2.412066562101244926e-03
6.430755835026502609e-03
5.075936391949653625e-02
-1.149421278387308121e-02
-1.540764700621366501e-02
-2.959252893924713135e-02
-6.355680059641599655e-03
-4.135548695921897888e-02
-6.100393831729888916e-03
-2.346115931868553162e-02
-2.001422224566340446e-03
7.811450632289052010e-04
-9.815632365643978119e-03
-1.293002907186746597e-02
6.130523979663848877e-03
-1.120912563055753708e-02
1.625819830223917961e-03
-8.946542628109455109e-03
-2.152689546346664429e-02
-2.803057432174682617e-02
1.848870888352394104e-02
1.672501862049102783e-02
1.140662189573049545e-02
-9.123935364186763763e-03
-5.412785336375236511e-02
-2.444874122738838196e-02
-1.654396392405033112e-02
2.403065154794603586e-04
3.399421647191047668e-02
-3.441658988595008850e-02
-1.855785399675369263e-02
5.309098865836858749e-03
-2.073025144636631012e-02
-4.645267128944396973e-02
-9.146423079073429108e-03
-1.773597113788127899e-02
2.221841551363468170e-02
-6.543838419020175934e-03
-1.330944057554006577e-02
-9.863031096756458282e-03
-4.556261375546455383e-02
2.266984200105071068e-03
3.347593173384666443e-02
6.191524676978588104e-03
9.282071841880679131e-04
-2.393232425674796104e-03
4.017990827560424805e-02
4.146146029233932495e-02
4.893203265964984894e-03
-2.432900108397006989e-02
1.663756370544433594e-02
-8.813934400677680969e-03
1.370276673696935177e-03
-2.066405676305294037e-02
-4.700554534792900085e-03
-3.873205929994583130e-02
1.741413958370685577e-02
-1.769038476049900055e-02
2.543334150686860085e-03
-1.081544440239667892e-02
1.479206699877977371e-02
1.743001304566860199e-02
1.970815099775791168e-02
-2.900303341448307037e-02
-3.324395790696144104e-02
1.622705487534403801e-03
-2.172390185296535492e-02
3.094731830060482025e-03
-4.693562537431716919e-02
-7.616773713380098343e-03
-1.784817501902580261e-02
3.286490589380264282e-02
-1.913701184093952179e-02
-4.083073232322931290e-03
1.351412478834390640e-02
5.822386126965284348e-03
5.264658108353614807e-02
-9.115859866142272949e-03
8.006381802260875702e-03
-5.281439516693353653e-03
9.695619228295981884e-04
2.808184362947940826e-04
2.010943554341793060e-02
-8.255703374743461609e-03
1.185486931353807449e-02
2.437648363411426544e-03
1.150076786871068180e-04
9.978073649108409882e-04
3.070591250434517860e-03
-2.257834002375602722e-02
-3.799669677391648293e-03
-8.048309944570064545e-03
2.144879661500453949e-02
-2.740119956433773041e-02
9.637050330638885498e-02
1.439399830996990204e-02
-3.874596208333969116e-03
1.578982174396514893e-02
1.659677177667617798e-02
-1.593859493732452393e-02
-9.306398220360279083e-03
-6.952440831810235977e-03
-2.773993276059627533e-02
2.429213002324104309e-02
-6.918288301676511765e-03
-1.480074785649776459e-02
-3.373172832652926445e-03
-1.721738278865814209e-02
-1.934481039643287659e-02
-3.088096529245376587e-02
1.139381527900695801e-02
-3.607883676886558533e-02
-1.059218868613243103e-02
-9.302214719355106354e-03
-5.329072009772062302e-04
3.640230279415845871e-03
4.580718278884887695e-02
3.385271877050399780e-02
-1.197671145200729370e-02
6.682261358946561813e-03
1.632377505302429199e-02
2.284193970263004303e-02
4.539670795202255249e-02
-2.502673305571079254e-02
-3.451325371861457825e-02
-2.866475260816514492e-04
1.902294927276670933e-03
8.794280700385570526e-03
1.749880053102970123e-02
7.880698540247976780e-04
-1.503573730587959290e-02
-5.716389510780572891e-03
2.501660771667957306e-02
1.785853412002325058e-03
-2.488789707422256470e-02
-1.423867186531424522e-03
7.465265225619077682e-03
-3.184474259614944458e-02
-2.097575459629297256e-03
2.647375501692295074e-02
-4.452275112271308899e-02
3.614547895267605782e-03
1.726567931473255157e-02
-1.541358185932040215e-03
-7.678946130909025669e-04
-3.246126323938369751e-02
9.757075458765029907e-03
-1.822845195420086384e-03
-6.171199493110179901e-03
9.649064391851425171e-03
2.836598781868815422e-03
2.184164151549339294e-02
8.728955872356891632e-03
-1.619825372472405434e-03
6.277376669459044933e-04
-1.141080516390502453e-03
-1.369918882846832275e-02
8.024286478757858276e-03
8.280436694622039795e-02
-2.540289657190442085e-03
-5.119934305548667908e-02
-1.065052021294832230e-02
-2.849957719445228577e-02
-4.977116361260414124e-03
6.919631734490394592e-03
-1.092139072716236115e-02
3.152950480580329895e-02
-6.972077768296003342e-03
-7.915879599750041962e-03
-3.598897950723767281e-03
2.927333302795886993e-02
-4.996153060346841812e-03
1.021950505673885345e-02
-1.122655160725116730e-02
-1.715190149843692780e-02
2.215265296399593353e-02
3.950809594243764877e-03
4.042195901274681091e-02
-2.483510784804821014e-02
-2.235017716884613037e-02
-3.249894944019615650e-04
2.327858284115791321e-02
-2.173659391701221466e-02
3.680966794490814209e-03
-2.232322283089160919e-02
-2.121014706790447235e-02
-3.118030726909637451e-02
-2.178555727005004883e-02
2.313932403922080994e-03
3.651179838925600052e-03
-2.102821506559848785e-02
9.916968643665313721e-03
3.013418288901448250e-03
3.918689489364624023e-02
-8.048899471759796143e-03
-1.334200240671634674e-02
3.197456523776054382e-02
-3.588676080107688904e-02
-4.866159334778785706e-02
