-7.761056534945964813e-03
1.477351132780313492e-02
3.268888965249061584e-02
-3.841885179281234741e-02
-2.780845947563648224e-02
-6.089980714023113251e-03
-2.633626013994216919e-02
4.883037880063056946e-02
-2.852396480739116669e-02
3.604748845100402832e-02
1.550894975662231445e-02
-4.347722604870796204e-02
-4.242936521768569946e-02
8.133164374157786369e-04
-1.765923574566841125e-02
-2.144880592823028564e-02
-3.631909191608428955e-02
1.252187648788094521e-03
-2.245679870247840881e-02
1.988426037132740021e-02
-3.163684532046318054e-02
-1.467948965728282928e-02
1.364923641085624695e-02
1.616060547530651093e-02
3.471832722425460815e-03
-4.281179048120975494e-03
-1.318049244582653046e-02
-8.876767940819263458e-03
-3.499762713909149170e-02
-1.506646443158388138e-02
-3.036497160792350769e-02
1.430920697748661041e-02
-4.470042139291763306e-02
5.296778399497270584e-03
5.640777759253978729e-03
-3.077331231907010078e-03
-2.421683259308338165e-02
5.185940302908420563e-03
-6.305150222033262253e-03
-4.343439266085624695e-02
9.341448545455932617e-03
-6.014608778059482574e-03
-1.676458865404129028e-02
5.618503317236900330e-03
8.357248269021511078e-03
5.938029848039150238e-03
-1.831145212054252625e-02
-1.022812630981206894e-02
1.542106620036065578e-03
-3.447989746928215027e-02
4.482358321547508240e-02
-1.616180874407291412e-02
-1.722084172070026398e-02
-1.014949660748243332e-02
-3.188525140285491943e-02
-1.924936473369598389e-02
2.169974707067012787e-02
-4.412074014544487000e-02
-4.367380868643522263e-03
-5.215406417846679688e-02
-1.275764778256416321e-02
2.557629160583019257e-02
-2.501687966287136078e-03
-4.327413160353899002e-03
-3.309476748108863831e-02
1.853696070611476898e-02
4.221118241548538208e-02
-3.074784763157367706e-03
2.635320415720343590e-03
2.358754537999629974e-02
-3.087618853896856308e-03
3.395969048142433167e-02
-2.110274508595466614e-02
1.706698350608348846e-02
-1.291025336831808090e-02
4.257761687040328979e-02
-3.106113523244857788e-03
1.931932754814624786e-02
2.228677831590175629e-02
-1.329650077968835831e-02
-2.885754918679594994e-03
6.642152555286884308e-03
2.798986388370394707e-03
-3.212545812129974365e-02
-2.059735916554927826e-02
2.064207755029201508e-02
1.314723026007413864e-02
6.287455093115568161e-03
-3.863467276096343994e-02
-6.620273459702730179e-03
4.407841712236404419e-02
5.384045653045177460e-03
-6.368815433233976364e-03
-1.552297268062829971e-02
7.944914698600769043e-02
3.419588506221771240e-02
-2.789742313325405121e-02
-1.855148561298847198e-02
6.158462539315223694e-02
1.984295248985290527e-02
5.705533176660537720e-02
-6.183660589158535004e-03
8.083468303084373474e-03
-1.050653518177568913e-03
2.145826257765293121e-02
-2.017736993730068207e-02
-6.255510449409484863e-02
-2.641013637185096741e-02
2.546164579689502716e-02
-2.085008425638079643e-03
-5.358603224158287048e-02
2.298903092741966248e-02
8.670028299093246460e-03
-8.289756369777023792e-04
1.342988759279251099e-02
2.420553937554359436e-02
4.808681551367044449e-03
-1.311888080090284348e-02
3.506797598674893379e-03
3.268643468618392944e-02
-1.292176824063062668e-02
-2.844964619725942612e-03
-3.765286132693290710e-02
-4.134225100278854370e-02
8.916104212403297424e-03
-3.087278455495834351e-02
-4.435501992702484131e-02
-4.677071992773562670e-04
