2.705890834331512451e-01
4.637096524238586426e-01
-5.476524829864501953e-01
4.018671512603759766e-01
5.131434202194213867e-01
2.753051817417144775e-01
-1.302032619714736938e-01
-1.899633854627609253e-01
-6.788200736045837402e-01
-6.720653176307678223e-02
-3.340746462345123291e-01
1.682094484567642212e-01
-5.200946331024169922e-01
5.321034193038940430e-01
2.480610460042953491e-01
4.580822288990020752e-01
4.048407077789306641e-01
-2.924161218106746674e-02
-6.013281270861625671e-02
1.550855189561843872e-01
-6.573684215545654297e-01
-5.103056430816650391e-01
-7.879488170146942139e-02
-3.112014569342136383e-02
-1.987592130899429321e-01
-6.356967687606811523e-01
3.722746968269348145e-01
4.727174341678619385e-01
-1.809578090906143188e-01
1.542237997055053711e-01
-2.568103969097137451e-01
4.930271208286285400e-01
-2.251110374927520752e-01
-5.161091089248657227e-01
-1.502296514809131622e-02
2.947216331958770752e-01
-4.678957164287567139e-01
-1.206507384777069092e-01
2.945743799209594727e-01
-4.739307463169097900e-01
-3.494624495506286621e-01
1.325882226228713989e-01
5.239902138710021973e-01
-3.356288075447082520e-01
1.927293837070465088e-01
3.560024201869964600e-01
5.271984338760375977e-01
-1.833470761775970459e-01
4.981529414653778076e-01
4.313954114913940430e-01
-9.757632762193679810e-02
-2.894140183925628662e-01
4.067609608173370361e-01
-1.482077292166650295e-03
-4.625476896762847900e-01
5.209262371063232422e-01
1.002906337380409241e-01
-5.097801685333251953e-01
1.487784385681152344e-01
-5.034441947937011719e-01
-3.989420533180236816e-01
5.111585855484008789e-01
1.006084457039833069e-01
-9.036033600568771362e-02
-4.014995694160461426e-01
2.156258374452590942e-01
-3.073087036609649658e-01
-4.713765978813171387e-01
5.313523411750793457e-01
-4.878913164138793945e-01
4.627085924148559570e-01
-9.669558703899383545e-02
2.647558748722076416e-01
3.752084672451019287e-01
-6.081042289733886719e-01
-2.871708571910858154e-01
4.966079592704772949e-01
-2.732376754283905029e-01
4.106889665126800537e-01
-4.840031564235687256e-01
2.658686041831970215e-01
4.066175818443298340e-01
-4.574477374553680420e-01
3.085598945617675781e-01
4.367387294769287109e-01
1.891517043113708496e-01
2.901317775249481201e-01
4.500965476036071777e-01
-4.599584043025970459e-01
-4.976439103484153748e-02
6.815869361162185669e-02
-2.348554581403732300e-01
4.583199024200439453e-01
-9.857617318630218506e-02
-4.687419831752777100e-01
-2.321141362190246582e-01
-2.455678135156631470e-01
5.119461417198181152e-01
4.096225798130035400e-01
-2.021168619394302368e-01
3.365305960178375244e-01
2.692881524562835693e-01
-4.974386394023895264e-01
-1.996205598115921021e-01
-3.742222189903259277e-01
3.757982552051544189e-01
-5.226988196372985840e-01
5.794614553451538086e-01
-4.331985116004943848e-02
4.787188768386840820e-01
4.890233278274536133e-01
-1.972974240779876709e-01
3.474414050579071045e-01
-4.933096170425415039e-01
-2.931647188961505890e-02
5.020826458930969238e-01
-6.146734356880187988e-01
-3.346942663192749023e-01
3.416113555431365967e-01
7.484894245862960815e-02
5.143904685974121094e-01
4.030791223049163818e-01
-2.538000047206878662e-01
-4.471154883503913879e-02
1.608444005250930786e-01
-7.770150303840637207e-01
-4.804993271827697754e-01
5.271746516227722168e-01
-1.734267175197601318e-01
-4.145334064960479736e-01
4.318845868110656738e-01
1.539980620145797729e-01
-2.986352443695068359e-01
2.966210246086120605e-01
1.322434395551681519e-01
-4.799287021160125732e-01
1.335620582103729248e-01
-4.839830100536346436e-02
7.469639182090759277e-02
-3.193236887454986572e-01
2.783972918987274170e-01
-7.358443737030029297e-02
-1.096531450748443604e-01
-6.954392194747924805e-01
2.158453464508056641e-01
-3.276942074298858643e-01
3.454930782318115234e-01
1.562720835208892822e-01
4.953925311565399170e-01
6.079013347625732422e-01
-5.661149024963378906e-01
5.172804743051528931e-02
1.372290104627609253e-01
1.827007830142974854e-01
-3.551565408706665039e-01
3.591234982013702393e-01
-4.759262502193450928e-01
-1.272413730621337891e-01
1.976342797279357910e-01
1.101550459861755371e-01
5.146977901458740234e-01
-3.575112223625183105e-01
-5.338478088378906250e-01
5.469228029251098633e-01
9.960278868675231934e-02
-5.052161812782287598e-01
5.720297098159790039e-01
2.288651019334793091e-01
-4.720039367675781250e-01
2.113356441259384155e-01
-3.207677006721496582e-01
-2.459644377231597900e-01
-3.957782685756683350e-01
-5.569033026695251465e-01
7.660327479243278503e-03
-5.903988480567932129e-01
-1.136251986026763916e-01
8.685445040464401245e-02
-4.857698380947113037e-01
7.696492969989776611e-02
-3.447151184082031250e-01
3.404975533485412598e-01
3.147541284561157227e-01
-2.150818407535552979e-01
1.742813736200332642e-01
6.447898745536804199e-01
-5.385439395904541016e-01
-2.590354382991790771e-01
3.980188369750976562e-01
-5.500182509422302246e-01
6.113576889038085938e-01
3.729064762592315674e-01
